0.023525265976786613,-0.11955935508012772,-0.0011243170592933893,0.037351399660110474,-0.05855361372232437,0.011853763833642006,-0.03919479250907898,-0.020732445642352104,0.10215465724468231,-0.044876810163259506,-0.10029103606939316,-0.12192337214946747,0.053256552666425705,-0.015448431484401226,0.11650780588388443,0.038629405200481415,-0.006081009283661842,-0.08415059000253677,0.01706789806485176,0.07247959822416306,-0.05383265018463135,0.00575864315032959,-0.10901489853858948,0.07049354165792465,0.019748063758015633,0.025911463424563408,0.0524575337767601,-0.044877827167510986,0.07102786749601364,-0.053180795162916183,0.009929567575454712,-0.12367317825555801,-0.062461722642183304,-0.0782117173075676,-0.08470765501260757,-0.06254160404205322,-0.10797063261270523,0.08058325201272964,0.08538352698087692,0.03934329003095627,-0.0012235140893608332,0.11891685426235199,0.10513537377119064,-0.03037402033805847,0.012628649361431599,-0.07538528740406036,-0.042925313115119934,0.015083793550729752,0.08786455541849136,0.07068740576505661,-0.0025211540050804615,0.06184444949030876,-0.07658907026052475,-0.007125943899154663,0.0023712273687124252,0.06232846900820732,-0.004424776416271925,0.002445254009217024,0.10699594765901566,0.08711086213588715,0.10587495565414429,-0.08514035493135452,-0.06593538820743561,-0.09418775886297226