-0.030984599143266678,-0.03675863891839981,-0.0033312481828033924,-0.008230968378484249,0.028674088418483734,0.04103158786892891,-0.026209719479084015,0.007768161594867706,-0.004272024612873793,-0.04024680703878403,-0.0110922334715724,0.019324615597724915,-0.006829480640590191,0.0034959246404469013,-0.00014860037481412292,-0.010754680261015892,-0.035128772258758545,-0.02715511992573738,-0.025474874302744865,-0.03335554525256157,-0.03454606980085373,0.0055528623051941395,-0.00208610063418746,-0.009353418834507465,-0.018159743398427963,0.012207015417516232,0.0187038853764534,0.014429599046707153,0.007551326882094145,-0.0007096104673109949,-0.01042457576841116,0.03327565640211105,0.022030189633369446,-0.011331932619214058,-0.03966594859957695,-0.00847360584884882,0.03304167464375496,-0.007869063876569271,-0.015529511496424675,-0.02433760277926922,0.033760566264390945,0.030401749536395073,-0.01900603622198105,-0.021089250221848488,-0.036883290857076645,-0.03722655773162842,0.035173121839761734,-0.03657091036438942,0.019400179386138916,-0.03361450508236885,0.04153718426823616,-0.02231873758137226,0.03846649080514908,0.02353188395500183,-0.0026889198925346136,-0.011730466969311237,0.031134266406297684,0.036245197057724,-0.010033630765974522,0.012029729783535004,0.04048941284418106,-0.04148554056882858,0.027013001963496208,0.01635267585515976,0.02953931875526905,-0.0007254195515997708,-0.028680620715022087,-0.011767745949327946,-0.007643970660865307,-0.013383867219090462,0.03128230944275856,0.017662804573774338,-0.03556216508150101,-0.016387760639190674,-0.009736808948218822,0.026998208835721016,-0.035016510635614395,-0.040498245507478714,-0.0026743700727820396,-0.02039332687854767,0.03023882769048214,-0.018167005851864815,0.01016706321388483,-0.02150428667664528,0.031792446970939636,-0.03530685976147652,0.040302764624357224,0.029481172561645508,0.030367400497198105,0.02757123112678528,-0.0277897659689188,-0.03530978038907051,0.031526532024145126,0.0031034662388265133,-0.0336633138358593,0.04154028370976448,-0.00561650563031435,-0.02899324521422386,-0.025241507217288017,-0.002497384324669838,0.029055342078208923,-0.007622387260198593,0.03540387004613876,0.01933923549950123,-0.000787141383625567,-0.007964127697050571,0.008131174370646477,0.03320615738630295,0.037118151783943176,-0.02384524792432785,0.014460760168731213,0.023648524656891823,-0.040283769369125366,0.04040638357400894,-0.019350465387105942,0.01940126158297062,-0.006714133080095053,-0.02200438268482685,-0.015373430214822292,0.03525225818157196,-0.014712514355778694,-0.041435662657022476,-0.006091875024139881,-0.019998988136649132,-3.24997708958108e-05,-0.005999055691063404,0.028747843578457832,0.040815163403749466,-0.03476579487323761,0.0015019651036709547,0.040437765419483185,0.009521701373159885,0.03251540660858154,-0.022680804133415222,0.04069903865456581,0.02898816205561161,-0.038428351283073425,-0.02504022605717182,0.0270279161632061,-0.010272898711264133,-0.007982741110026836,-0.016041617840528488,0.032794732600450516,0.00940974336117506,0.0015388083411380649,-0.00027570134261623025,-0.0004685489402618259,-0.011252488940954208,0.01683485321700573,0.02925167605280876,-0.00892877858132124,-0.01611674576997757,-0.035050660371780396,0.03480709716677666,0.03560563176870346,0.019677335396409035,-0.02745911106467247,-0.0040900190360844135,-0.022697923704981804,-0.02211843989789486,0.005775892175734043,-0.015169509686529636,-0.03974631801247597,-0.015696140006184578,0.03012191131711006,-0.019925029948353767,-0.02806037664413452,-0.027925608679652214,0.039675645530223846,-0.03786541521549225,-0.012186963111162186,-0.017841538414359093,-0.01870938204228878,-0.009514805860817432,-0.0069198207929730415,0.020023539662361145,0.031750671565532684,-0.03451535105705261,-0.03154695779085159,0.0016169853042811155,0.0182152409106493,-0.027362186461687088,-0.00771615095436573,-0.024329684674739838,0.03639902174472809,-0.01720319874584675,0.04164482653141022,0.008672963827848434,0.0407952219247818,-0.009304285049438477,0.025381388142704964,-0.008472657762467861