-0.11421109735965729,-0.1141815334558487,0.19003720581531525,0.02459220588207245,-0.07996885478496552,-0.12500403821468353,0.05958271026611328,-0.4752776324748993,0.015967993065714836,-0.355051726102829,-0.17386454343795776,-0.15640053153038025,-0.14292287826538086,0.24556294083595276,-0.13185665011405945,-0.024992363527417183,-0.07887674123048782,-0.24309460818767548,0.18963415920734406,0.13912257552146912,-0.44910845160484314,0.5169363021850586,-0.05775544047355652,-0.046571798622608185,-0.14577427506446838,-0.03179946914315224,0.5153597593307495,-0.12399327754974365,0.10643867403268814,0.07028335332870483,-0.3721122443675995,0.06773266196250916,-0.004533821251243353,0.07343228161334991,-0.019705334678292274,-0.3555430769920349,-0.04012063145637512,-0.03327038884162903,0.0265171118080616,0.017232773825526237,-0.1979319006204605,-0.34021779894828796,0.07279600948095322,0.0971289724111557,-0.17346183955669403,-0.18837034702301025,-0.1777753084897995,-0.15397655963897705,-0.12477639317512512,-0.3671383261680603,0.6098259687423706,0.09055478125810623,-0.09486644715070724,0.02779613807797432,0.3101249933242798,-0.07489508390426636,-0.04596232995390892,0.004735276103019714,0.08910482376813889,0.02072160691022873,0.01531749777495861,0.058229945600032806,-5.1106326282024384e-05,0.21153590083122253,-0.06841828674077988,-0.33267953991889954,0.02228708565235138,0.05639592930674553,-0.02289939671754837,-0.15010757744312286,0.017036672681570053,0.18651758134365082,-0.07873445749282837,0.029771363362669945,-0.34265682101249695,-0.12034061551094055,-0.026059284806251526,-0.5633904337882996,0.14698784053325653,-0.024970876052975655,0.32060325145721436,-0.02484729140996933,-0.15284988284111023,-0.20085202157497406,-0.05333413556218147,-0.0038243387825787067,0.011568209156394005,0.013613653369247913,0.5115377902984619,-0.23147737979888916,-0.11712462455034256,0.513088047504425,0.06556250900030136,0.008264594711363316,-0.11590442806482315,-0.4995255768299103,0.33268627524375916,-0.7156152129173279,-0.0800885334610939,0.05508488044142723,0.06914636492729187,0.07567308843135834,0.15668991208076477,-0.5681842565536499,0.15175987780094147,-0.14669427275657654,-0.24224652349948883,0.09371176362037659,0.06706611067056656,0.2347991019487381,0.21372973918914795,-0.09575291723012924,0.2628158926963806,-0.1870986670255661,-0.1875150054693222,-0.028848133981227875,-0.13835999369621277,-0.0684286504983902,-0.22312195599079132,0.45541009306907654,-0.12427160143852234,-0.36605292558670044,-0.00013333623064681888,-0.09830491244792938,-0.14640477299690247,-0.2915370464324951,0.33336392045021057,-0.18067918717861176,-0.07184496521949768,-0.21349085867404938,-0.05484205111861229,-0.2223438173532486,-0.2355196475982666,0.0022092005237936974,0.004468932747840881,-0.07071799039840698,-0.2035832405090332,-0.0912080630660057,0.24893315136432648,-0.17584607005119324,0.30959847569465637,0.3058312237262726,-0.586083710193634,-0.10323592275381088,0.1460980325937271,0.05473394691944122,-0.44540509581565857,0.015796523541212082,-0.043387964367866516,0.17056570947170258,0.36529889702796936,-0.010365400463342667,0.20752063393592834,0.09342951327562332,0.11451054364442825,-0.11558689177036285,0.12376527488231659,0.08834214508533478,-0.04120093584060669,-0.3208310306072235,-0.24372942745685577,0.04491719231009483,-0.19439274072647095,0.22311784327030182,0.3646162450313568,-0.10077434778213501,0.23492296040058136,-0.12696465849876404,-0.1501942127943039,0.08758800476789474,0.09781383723020554,-0.4487910270690918,0.386232852935791,-0.08608867973089218,-0.005017480347305536,-0.09754537791013718,0.22131872177124023,-0.057719454169273376,-0.04906531423330307,0.011867080815136433,0.07818067818880081,-0.07449131458997726,0.4507591128349304,-0.1947605311870575,0.049801379442214966,-0.13743366301059723,0.0754837840795517,-0.10204758495092392,-0.09880079329013824,-0.1634112149477005,0.04657408595085144,0.10208878666162491,0.09228155761957169,-0.10399866104125977,0.0011229843366891146,0.3717968165874481,0.5119936466217041,-0.11125534772872925,-0.03589572757482529,0.10599447786808014,-0.018568262457847595,-0.1897037923336029,0.1801004707813263,0.0421287901699543,0.12391643971204758,-0.06121186539530754,0.044468868523836136,0.13526660203933716,-0.07011936604976654,0.03450673073530197,0.18508175015449524,0.7189899682998657,0.18576054275035858,-0.01724909245967865,-0.03906042501330376,0.12131813168525696,0.3223922550678253,-0.02613442949950695,0.10185032337903976,-0.09807582944631577,-0.057791195809841156,-0.03499823063611984,0.003693976439535618,0.18578122556209564,0.37672439217567444,-0.1104433611035347,0.10531536489725113,-0.07290517538785934,-0.38214367628097534,-0.016994312405586243,0.5442267060279846,-0.04070308431982994,0.02279094234108925,0.2321740686893463,0.001358330948278308,-0.3316285312175751,-0.05526452139019966,-0.09028538316488266,-0.06782937049865723,0.0041139209643006325,0.007369808852672577,0.07735912501811981,-0.13399945199489594,-0.0351831279695034,0.16284947097301483,0.1785035878419876,-0.28561505675315857,-0.15607978403568268,-0.012593669816851616,-0.191918283700943,0.01815117709338665,0.07552258670330048,0.14804023504257202,-0.14770850539207458,-0.44769200682640076,0.3481699526309967,-0.8090477585792542,0.26319649815559387,-0.18219846487045288,-0.26603201031684875,0.003911072388291359,0.23639635741710663,0.08656445890665054,-0.03316749632358551,-0.3127894401550293,-0.13477230072021484,-0.29879477620124817,0.015930719673633575,-0.26037219166755676,-0.16276094317436218,0.19354884326457977,-0.05127979815006256,-0.047300878912210464,0.180746391415596,0.009475699625909328,-0.36383455991744995,-0.12301545590162277,-0.002865163143724203,-0.06982347369194031,-0.07238692045211792,0.0568779893219471,0.10838976502418518,-0.02382051572203636,-0.13417500257492065,-0.04006305709481239,0.017438167706131935,-0.1634676158428192,0.018948525190353394,-0.2558256983757019,0.11190081387758255,0.03326886519789696,0.20839184522628784,-0.006241609808057547,-0.21423585712909698,0.087153360247612,0.01154038030654192,0.07638047635555267,0.2746131122112274,-0.039052706211805344,0.25340723991394043,0.1660311222076416,-0.031639959663152695,0.009838034398853779,-0.3917863070964813,0.03976426646113396,0.37158843874931335,0.053077831864356995,0.1977127492427826,-0.02384885959327221,-0.15194083750247955,0.013400014489889145,-0.025858519598841667,0.07297459244728088,0.35474106669425964,0.10727738589048386,0.06725601851940155,-0.3964126706123352,0.04057864844799042,0.21705560386180878,-0.11826176941394806,-0.031748101115226746,-0.15903370082378387,0.060343172401189804,-0.16157764196395874,-0.1410902738571167,-0.03706606104969978,0.04946082457900047,0.32233157753944397,-0.03644472360610962,-0.36897048354148865,0.17999868094921112,0.17717432975769043,0.04913804680109024,0.10529344528913498,0.02472344972193241,-0.043170779943466187,0.1909753978252411,-0.2531220614910126,0.09436425566673279,0.06610287725925446,-0.7903532385826111,0.267805814743042,0.18359819054603577,0.05804033577442169,-0.14947377145290375,-0.01516849547624588,0.6473756432533264,-0.015840942040085793,-0.06969977170228958,0.014411288313567638,0.19724704325199127,-0.22036218643188477,-0.08675351738929749,-0.1199156641960144,0.042354729026556015,-0.022560780867934227,-0.03337942063808441,0.2249344438314438,0.03027965873479843,-0.0953008309006691,-0.15613478422164917,-0.05856163054704666,0.19255447387695312,-0.08775384724140167,-0.2742888033390045,-0.11631496995687485,0.25023332238197327,0.14793257415294647,-0.09814360737800598,0.015436643734574318,0.32780560851097107,-0.06725539267063141,0.08325520157814026,-0.012852093204855919,0.08681312203407288,-0.08231132477521896,-0.009923850186169147,0.10782542824745178,0.3776010274887085,0.03434574976563454,0.017377812415361404,0.18178878724575043,-0.11120869219303131,0.019311176612973213,0.001366706914268434,-0.0023834099993109703,0.2291872352361679,-0.03628711774945259,0.19614817202091217,0.10965480655431747,0.03670236095786095,-0.21696920692920685,-0.19877612590789795,0.039424143731594086,-0.10367865115404129,-0.16523639857769012,-0.07329993695020676,-0.16877008974552155,-0.020839964970946312,0.09268476068973541,-0.14620338380336761,-0.061064545065164566,0.01816342957317829,-0.06468609720468521,-0.15898649394512177,-0.35256075859069824,-0.08701930195093155,-0.0233612097799778,-0.28674057126045227,0.07166824489831924,0.01994643174111843,-0.05638343095779419,0.09355302900075912,0.11307065188884735,-0.2654023766517639,0.051149848848581314,0.25797954201698303,0.208699032664299,-0.05632025748491287,0.2798862159252167,0.22989687323570251,-0.09444806724786758,0.09486352652311325,-0.042190805077552795,-0.2020309418439865,-0.12788763642311096,-0.019041288644075394,0.10316702723503113,0.2198793888092041,0.09182853996753693,-0.2003091424703598,0.06559576839208603,0.06947433203458786,-0.02476411499083042,0.22260431945323944,-0.12953250110149384,-0.15011316537857056,-0.07614047080278397,0.0018945694901049137,0.030455751344561577,0.11904460191726685,0.22464211285114288,-0.18567535281181335,0.0469144769012928,0.3933332562446594,-0.0688011646270752,-0.12205919623374939,-0.26836156845092773,-0.19429410994052887,0.07251286506652832,-0.2538936734199524,-0.30445101857185364,0.09254670888185501,-0.056455787271261215,0.03812055662274361,-0.05525609850883484,-0.32652950286865234,0.16366571187973022,0.22143876552581787,-0.02024080418050289,0.44497326016426086,-0.19431793689727783,0.20706059038639069,0.09062572568655014,-0.1818912774324417,-0.014959105290472507,-0.36867114901542664,0.13388799130916595,-0.014902221038937569,0.15833903849124908,0.022212298586964607,-0.11605378240346909,-0.027729453518986702,-0.07839232683181763,-0.04450365528464317,-0.6745896339416504,0.04865759611129761,-0.07499523460865021,-0.09496071934700012,0.028609033674001694,-0.04275902360677719,-0.34454452991485596,0.06476304680109024,0.2532424330711365,0.2376805692911148,-0.5539625287055969,0.30652084946632385,-0.09531556069850922,0.02551955357193947,-0.036021556705236435,0.00944561418145895,-0.4035554528236389,0.25680476427078247,-0.37022653222084045,-0.1807958334684372,-0.47463804483413696,-0.16861970722675323,0.039077967405319214,0.06518740206956863,-0.04903329536318779,-0.13888266682624817,0.009871283546090126,0.05492005497217178,-0.21902887523174286,-0.009740463458001614,-0.1947222501039505,-0.12388935685157776,-0.08473450690507889,-0.11665339022874832,-0.20113494992256165,-0.06673062592744827,-0.23008234798908234,-0.06394313275814056,-0.14955028891563416,0.09760643541812897,0.18020078539848328,-0.16131669282913208,-0.08970716595649719,0.009422515518963337,-0.34241983294487,0.36061522364616394,0.0366765633225441,-0.34968703985214233,-0.17349587380886078,-0.39600637555122375,-0.0342942550778389,-0.6448690295219421,-0.12257682532072067,-0.5029081702232361,-0.08483082801103592,-0.051298145204782486,-0.32652270793914795,-0.12366460263729095,0.022609923034906387,-0.2644461989402771,-0.10045041143894196,-0.05546893551945686,-0.07295331358909607,-0.01515256892889738,0.41272515058517456,0.06253451108932495,0.09370249509811401,-0.3194900155067444,0.11000815778970718,-0.2375057339668274,0.3286762535572052,-0.06464073807001114,0.033395033329725266,-0.30025947093963623,-0.053651113063097,-0.5232003927230835,-0.11918937414884567,0.010473903268575668,0.25476008653640747,-0.0792945921421051,0.39487895369529724,-0.37633779644966125,0.29015883803367615,-0.037280626595020294,0.03283754736185074,-0.04074745625257492,-0.27094364166259766,0.2179511934518814,0.0985121876001358,-0.05633394420146942,0.04771718755364418,-0.33686137199401855,0.18778899312019348,-0.038895271718502045,0.016928551718592644,-0.059409111738204956,0.021205484867095947,0.11416324973106384,-0.016226325184106827,0.025918949395418167,0.12822139263153076,0.22432376444339752,-0.32386454939842224,0.07084023952484131,-0.016756685450673103,0.11811535805463791,0.16951525211334229,0.0464196540415287,0.08421742916107178,0.08736733347177505,-0.12262871116399765,0.05948341265320778,-0.15087378025054932,-0.16455239057540894,-0.14726997911930084,-1.1684292554855347,-0.08476907014846802,-0.20935146510601044,0.19727087020874023,-0.32330870628356934,-0.2577102482318878,0.1616419106721878,0.096158966422081,-0.13776575028896332,-0.014629732817411423,0.11175139248371124,0.002801740076392889,0.10917194187641144,-0.02308986522257328,-0.06546848267316818,0.12683449685573578,-0.04408842325210571,-0.08621259033679962,-0.011703439056873322,0.025328023359179497,0.12428653240203857,0.06820432841777802,0.13139089941978455,-0.05506715923547745,-0.14158350229263306,0.03111531399190426,-0.3315402567386627,0.12851735949516296,0.0005068386672064662,-0.1888969987630844,0.15289774537086487,0.22500336170196533,-0.16067637503147125,0.14034798741340637,0.180172860622406,-0.0634223073720932,-0.08571921288967133,0.13998965919017792,0.017061172053217888,-0.10148242861032486,0.005325193051248789,0.32026416063308716,0.11018569767475128,0.09884999692440033,0.0721559002995491,-0.27094319462776184,0.24043963849544525,0.1607619971036911,-0.7449222207069397,-0.016118265688419342,0.11044240742921829,0.02205313928425312,0.12346015125513077,0.11812848597764969,-0.09650980681180954,0.03205093368887901,0.040009692311286926,-0.15896394848823547,-0.3377586007118225,-0.0035316459834575653,-0.06688851863145828,-0.6302583813667297,-0.1062481701374054,0.11740989983081818,-0.1551293283700943,0.05703432485461235,-0.03581666946411133,0.006553532090038061,-0.04002072289586067,-0.20345443487167358,0.31432634592056274,0.14326782524585724,-0.20651251077651978,0.0631086453795433,0.12758715450763702,-0.07529547810554504,-0.11828039586544037,-0.22658203542232513,0.09695033729076385,0.11104210466146469,0.29842498898506165,-0.24581564962863922,0.3141665458679199,0.019987476989626884,0.01421233732253313,0.029718641191720963,-0.7281331419944763,-0.35522353649139404,-0.4683992862701416,0.055081166326999664,0.11897836625576019,0.25393399596214294,0.12358784675598145,0.15900063514709473,-0.1622224897146225,-0.4948044717311859,0.08169196546077728,-0.12291377037763596,-0.02250818721950054,-0.010022664442658424,-0.09293479472398758,0.18345554172992706,0.06984070688486099,0.12206908315420151,-0.08967791497707367,0.1584562510251999,0.07966718822717667,0.13952668011188507,0.15440037846565247,-0.4570613205432892,-0.12176219373941422,-0.22974132001399994,-0.39453187584877014,-0.27531060576438904,-0.09680004417896271,0.15362390875816345,0.04585471376776695,0.08193051069974899,-0.16809046268463135,-0.05646243691444397,-0.01386096142232418,0.05763208866119385,0.025736015290021896,0.06809873133897781,-0.2600555121898651,-0.030449403449892998,-0.5486695766448975,0.07231607288122177,0.20659148693084717,-0.014544355683028698,-0.17151197791099548,0.11670772731304169,0.11356795579195023,-0.06848810613155365,-0.14701665937900543,-0.28919070959091187,-0.1482251137495041,-0.08943326026201248,-0.0942392349243164,0.05277930945158005,-0.12402261793613434,0.16704124212265015,0.03327464684844017,-0.027976060286164284,-0.07632127404212952,0.06754472106695175,-0.2718518078327179,0.17589321732521057,-0.21317534148693085,-0.5385401844978333,-0.22463716566562653,0.15706416964530945,0.0007974678883329034,-0.01483793742954731,0.12147194892168045,-0.0653582513332367,-0.040845464915037155,0.314303994178772,-0.604131817817688,0.17081572115421295,0.08361031115055084,0.11606278270483017,0.12677942216396332,0.0937528982758522,-0.07126198709011078,-0.11678460985422134,-0.00015942734898999333,0.0447659008204937,-0.38497740030288696,-0.5724300146102905,-0.08413637429475784,0.03474251180887222,-0.05628850683569908,0.16365571320056915,-0.0234830342233181,-0.08224813640117645,0.09023238718509674,-0.34009793400764465,-0.14117954671382904,-0.19060346484184265,0.1392509788274765,-0.021440215408802032,-0.15627573430538177,0.07647773623466492,0.05524773150682449,-0.04891480877995491,-0.07005590945482254,0.06470584869384766,-0.11109955608844757,-0.07876046746969223,-0.6264460682868958,-0.13295316696166992,-0.10415361821651459,-0.05964064225554466,-0.055822066962718964,-0.04464849457144737,-0.11290740221738815,0.009421586990356445,0.08368737250566483,-0.10923787206411362,0.05977969244122505,0.1087365448474884,-0.08574036508798599,-0.05540991574525833,0.033705007284879684,0.16435396671295166,0.0352814756333828,-0.06393946707248688,0.02271169424057007,0.019896922633051872,-0.22239550948143005,0.04617303982377052,0.005532777868211269,0.16923333704471588,0.14910627901554108,0.06476464122533798,-0.09992620348930359,-0.06368624418973923,0.010717788711190224,0.09195074439048767,-0.013251683674752712,0.512924313545227,0.08105572313070297,0.2414383590221405,-0.06230473518371582,0.10870271176099777,-0.0005210757371969521,0.08537951856851578,0.08594777435064316,0.07530970126390457,-0.06715710461139679,0.029483312740921974,-0.08043906092643738,0.12264600396156311,-0.004434819798916578,0.4893796145915985,0.15744523704051971,0.15088792145252228,0.013759775087237358,0.03502046316862106,0.19553296267986298,-0.10673532634973526,0.13509483635425568,-0.4318690001964569,-0.0387849360704422,-0.011084509082138538,-0.07306931167840958,-0.021033309400081635,0.11420611292123795,-0.04635048657655716,-0.2112213522195816,-0.03778410702943802,0.036355920135974884,-0.2550017237663269,0.08184532821178436,0.06390779465436935,-0.8249611258506775,-0.0833207443356514,-0.10789775103330612,-0.1800495833158493,-0.4352846145629883,-0.2635096609592438,0.14545945823192596,0.23206007480621338,-0.0910978689789772,0.016137974336743355,-0.016808295622467995,0.057952120900154114,-0.1335567682981491,-0.06961953639984131,-0.0679454579949379,-0.05688176676630974,0.10131392627954483,-0.0936647281050682,-0.34431084990501404,-0.05863822624087334,-0.027744345366954803,-0.16867533326148987,-0.08552832901477814,0.029567429795861244,-0.17074252665042877,0.013696401380002499,-0.34550124406814575,-0.009981789626181126,0.06418242305517197,-0.283647745847702,-0.15668842196464539,-0.08946770429611206,-0.00374126760289073,0.22423453629016876,-0.00026422133669257164,-0.1138162910938263,-0.2713514268398285,-0.010779687203466892,-0.024475885555148125,0.026561684906482697,-0.02038237452507019,0.013233551755547523,0.11584312468767166,-0.0688997432589531,0.13701410591602325,-0.40012824535369873,0.031260233372449875,-0.09454633295536041,-0.33157286047935486,-0.24939684569835663,-0.26790595054626465,0.12188214808702469,-0.18179889023303986,0.09469551593065262,-0.08440416306257248,0.4058681130409241,0.09003174304962158,-0.04418886825442314,0.08831487596035004,-0.11317828297615051,-0.26888447999954224,0.21633540093898773,-0.09617303311824799,0.028059836477041245,0.3835788369178772,0.003933424595743418,0.1409706175327301,0.27563539147377014,0.26229339838027954,0.2505122721195221,-0.44182494282722473,-0.0006847346667200327,0.18557879328727722,-0.0359719954431057,-0.48076024651527405,0.06507622450590134,0.4896407425403595,0.2286740243434906,-0.11164431273937225,-0.010842698626220226,-0.45957666635513306,-0.038050562143325806,-0.18040791153907776,-0.12074261903762817,-0.003949446603655815,-0.33747923374176025,0.3278055787086487,0.4873982071876526,0.008309470489621162,-0.1659332513809204,-0.02690926566720009,0.09400630742311478,0.018007446080446243,-0.06971396505832672,0.015196587890386581,0.3446679413318634,-0.06431688368320465,-0.0308869369328022,-0.007955772802233696,0.12614111602306366,0.3933311402797699,-0.15742705762386322,0.005095889326184988,-0.212703675031662,0.1458614617586136,0.1007736399769783,-0.046223245561122894,-0.25506144762039185,-0.15866467356681824,0.3398708403110504,-0.2575361430644989,-0.06277193129062653,0.004632812459021807,-0.012477532029151917,0.08824260532855988,0.405781090259552,-0.04306172952055931,-0.22978632152080536,-0.3258119225502014,0.023405883461236954,0.07023827731609344,-0.12379346787929535,0.00407145731151104,0.02072959393262863,-0.08746442943811417,-0.49970105290412903,0.028824269771575928,-0.2797689437866211,0.03242643177509308,0.12088583409786224,-0.01787492074072361,0.026907751336693764,-0.06775911897420883,-0.41035184264183044,0.12427398562431335,-0.07856719195842743,-0.008586153388023376,0.15488511323928833,-0.22540752589702606,-0.03260710462927818,0.11903697997331619,0.24852830171585083,-0.08545920997858047,-0.12134137004613876,0.18382421135902405,-0.017827264964580536,-0.036390092223882675,-0.03839845210313797,-0.26786008477211,0.15685386955738068,0.33923184871673584,0.33242401480674744,-0.721081018447876,-0.028157033026218414,-0.027977265417575836,0.19176483154296875,0.09525494277477264,-0.17643378674983978,-0.06294621527194977,-0.0023464937694370747,-0.08811929076910019,-0.30607953667640686,0.03498814254999161,-0.1267908364534378,-0.05128944665193558,0.08616581559181213,-0.12100353837013245,-0.06986059248447418,0.20414391160011292,0.15571965277194977,-0.0010309023782610893,0.2230580598115921,-0.059508539736270905,-0.4473700225353241,-0.026467300951480865,0.025234611704945564,-0.3767588138580322,0.046846624463796616,0.28941240906715393,0.1357915997505188,0.14540664851665497,-0.25873690843582153,0.13628533482551575,-0.2313215732574463,-0.10132892429828644,0.23704013228416443,-0.10970047861337662,-0.034142717719078064,0.31816428899765015,-0.33974480628967285,0.429039865732193,-0.01859770528972149,0.06730091571807861,-0.001093612634576857,0.06501686573028564,-0.11311659961938858,0.17645762860774994,-0.2975117564201355,-0.07586139440536499,-0.3445869982242584,-0.08579506725072861,0.1513572335243225,-0.16242575645446777,0.014064956456422806,0.15716369450092316,0.021814627572894096,-0.10055501759052277,0.027432775124907494,-0.01985563337802887,0.036742061376571655,0.12444756925106049,-0.023449590429663658,0.06226453557610512,-0.20854970812797546,-0.17986230552196503,-0.10434111952781677,0.22349442541599274,0.15017130970954895,-0.3679223954677582,-0.04231917858123779,0.041969820857048035,-0.43960651755332947,-0.18968096375465393,-0.05497729405760765,0.0025052903220057487,0.3176540732383728,-0.07189836353063583,0.01779118925333023,0.062077224254608154,-0.18231207132339478,0.0926375687122345,-0.07798538357019424,-0.027063388377428055,0.038575440645217896,0.04332442209124565,-0.2875698208808899,0.005818725563585758,-0.2452908605337143,0.20964263379573822,0.045732367783784866,-0.4725011885166168,-0.32355600595474243,0.0043691471219062805,0.044490814208984375,0.1850210279226303,-0.3163367807865143,0.30522099137306213,-0.12709060311317444,0.04861335828900337,-0.046517740935087204,-0.2924453318119049,-0.08283044397830963,-0.158463716506958,-0.16850470006465912,0.1557641327381134,-0.31002914905548096,0.23445051908493042,-0.1840018928050995,0.04569057747721672,-0.18944421410560608,0.09048360586166382,-0.5632073879241943,-0.44931748509407043,0.12802280485630035,-0.13761426508426666,-0.07345090806484222,-0.19747154414653778,-0.00607597641646862,0.14023134112358093,-0.17329701781272888,-0.11389269679784775,0.12275279313325882,0.19180753827095032,-0.049111172556877136,-0.11062722653150558,-0.13850325345993042,-0.011192265897989273,0.31196892261505127,-0.003808338427916169,-0.2749130427837372,0.03539036959409714,0.04061061888933182,-0.10453487932682037,-0.30739402770996094,0.043748773634433746,-0.06112157180905342,0.24076470732688904,0.04681316763162613,-0.27229467034339905,-0.08080781251192093,-0.16003866493701935,-0.08128317445516586,0.09896235167980194,0.04034184664487839,0.14024735987186432,-0.2428780049085617,-0.03694699704647064,0.2050929218530655,-0.051905304193496704,0.03983582183718681,0.18080860376358032,-0.07487637549638748,0.11647830158472061,0.08069827407598495,-0.2780163586139679,-0.3130561113357544,-0.055312737822532654,-0.08267514407634735,0.009019081480801105,-0.04402273893356323,0.09011483937501907,0.0638858824968338,-0.059219297021627426,-0.14265215396881104,-0.1583605408668518,0.031655896455049515,0.19385723769664764,0.06359712779521942,-0.03058309480547905,0.20783290266990662,-0.02811194397509098,0.03536982834339142,0.12162556499242783,-0.21779043972492218,-0.037734437733888626,0.05100493133068085,0.2317447066307068,-0.23691855370998383,-0.08728089183568954,0.02153939940035343,-0.14110079407691956,0.12837354838848114,0.09671775251626968,-0.19371305406093597,-0.07909693568944931,0.034420277923345566,0.16320422291755676,0.010518930852413177,0.03241666406393051,-0.035506248474121094,0.012120640836656094,0.10538720339536667,-0.0873725488781929,0.0029324276838451624,0.07364635914564133,-0.0845046415925026,-0.16532626748085022,0.027884531766176224,0.15866824984550476,0.09243292361497879,-0.02187182754278183,-0.26246950030326843,0.22694924473762512,-0.09753931313753128,-0.09711746871471405,0.08883411437273026,-0.17932528257369995,0.13764946162700653,0.03511325642466545,0.08698815852403641,-0.08494413644075394,-0.0647314190864563,0.0786118358373642,0.019779063761234283,0.15711075067520142,-0.09292121231555939,-0.05754195526242256,-0.008239894174039364,0.17553061246871948,-0.12157206982374191,0.3792935311794281,0.0954664796590805,-0.05394219234585762,0.15270040929317474,-0.152609184384346,0.1757003515958786,0.09663732349872589,0.1388615369796753,0.077824167907238,0.034900251775979996,0.030999556183815002,-0.05483680218458176,-0.33792564272880554,-0.21901348233222961,-0.2161760777235031,0.06958090513944626,0.002742842771112919,0.10329502820968628,-0.18813152611255646,-0.25069811940193176,0.15145133435726166,0.20833556354045868,-0.21099019050598145,0.18630839884281158,-0.15558771789073944,-0.0696234256029129,-0.07049692422151566,0.06067902594804764,0.06755543500185013,-0.017070285975933075,-0.09989972412586212,0.007522013038396835,0.017200468108057976,-0.11765993386507034,0.17914776504039764,-0.5549009442329407,-0.4519018530845642,-0.14972150325775146,-0.38813695311546326,-0.051168765872716904,0.1739467829465866,-0.008366908878087997,-0.07619941979646683,0.1971607655286789,-0.44766512513160706,0.398541122674942,0.10890284925699234,0.2837495803833008,-0.05276935175061226,-0.014928191900253296,-0.22653913497924805,0.13411064445972443,-0.0510375052690506,0.06310827285051346,-0.17629474401474,0.06363540887832642,0.10047317296266556,0.18810789287090302,-0.09635397046804428,-0.08944633603096008,0.25280046463012695,0.14813034236431122,-0.2828589379787445,-0.13488900661468506,-0.07882287353277206,-0.19225472211837769,-0.041754402220249176,0.12383861094713211,-0.09728993475437164,0.5782904624938965,0.07172735780477524,0.3749140501022339,0.014949548058211803,-0.12592321634292603,-0.11678683757781982,0.23995617032051086,0.06558281183242798,-0.16205984354019165,-0.01495306845754385,0.051414262503385544,-0.04018634557723999,-0.20309868454933167,-0.02594335563480854,0.1159365251660347,0.0002873718040063977,-0.3602292537689209,0.09564832597970963,-0.09899500757455826,0.05680043622851372,0.12494956701993942,0.04152151942253113,0.12832728028297424,0.11895905435085297,0.059838876128196716,0.24016503989696503,-0.36395272612571716,-0.01316697895526886,-0.11548089981079102,-0.16374172270298004,-0.02226775698363781,0.11373584717512131,0.013671875,-0.033308614045381546,-0.07831123471260071,-0.27422210574150085,0.517411470413208,-0.05393177643418312,0.022578010335564613,-0.10777450352907181,-0.013152474537491798,-0.3004072308540344,-0.13555411994457245,0.22740548849105835,0.45831823348999023,-0.07645653188228607,-0.15559948980808258,0.044748704880476,-0.1992003172636032,-0.10087475925683975,-0.05409691482782364,0.030952300876379013,-0.0583065003156662,0.07548999041318893,0.13697190582752228,-0.1371748000383377,-0.21294130384922028,0.09001148492097855,0.020946748554706573,0.18258321285247803,0.10269037634134293,-0.49289432168006897,-0.12133452296257019,-0.3036470115184784,-0.01669381558895111,0.03467195853590965,0.31608742475509644,-0.22454938292503357,0.06595633178949356,0.2731708288192749,0.24994686245918274,-0.13424254953861237,0.1079682782292366,0.22050654888153076,-0.08657725900411606,0.23143358528614044,0.18038524687290192,-0.08473353087902069,-0.02417273446917534,-0.31090566515922546,-0.19794565439224243,0.1128920391201973,-0.14001059532165527,-0.06212179362773895,-0.031240645796060562,-0.2290267050266266,0.30510222911834717,0.10993881523609161,-0.1196017935872078,-0.13320203125476837,-0.021262388676404953,0.15029574930667877,-0.2525537312030792,-0.35226190090179443,0.12763141095638275,0.1509750485420227,0.12294737994670868,-0.0708613246679306,-0.33100301027297974,-0.17251382768154144,-0.16889403760433197,-0.01682146266102791,0.15578126907348633,0.1170719712972641,-0.01626858301460743,0.03702443838119507,0.005371697712689638,0.3249233663082123,0.10879559814929962,-0.3319670259952545,0.020642217248678207,-0.06142382696270943,0.06454695761203766,-0.08274269849061966,0.05252840369939804,-0.10068020224571228,-0.10632064938545227,-0.1782560497522354,0.15232187509536743,0.12657317519187927,-0.21352989971637726,0.19678623974323273,-0.3038425147533417,-0.25965821743011475,-0.7168060541152954,-0.03588789701461792,0.1912687122821808,0.262357234954834,-0.18144375085830688,0.04445366933941841,-0.046540409326553345,0.11109601706266403,0.04264604672789574,-0.4370293617248535,0.06349170207977295,0.31471744179725647,-0.1631617397069931,-0.2646371126174927,-0.052924055606126785,-0.20638598501682281,0.18955758213996887,-0.2328614443540573,0.014444145374000072,-0.13071604073047638,-0.019486907869577408,-0.010206327773630619,0.058171600103378296,0.19136656820774078,-0.07868766039609909,-0.2381381392478943,0.11097921431064606,0.0568384975194931,-0.08665163815021515,0.08052744716405869,0.1264595240354538,-0.3037663400173187,0.012493481859564781,0.0013556224294006824,-0.19270625710487366,0.060013286769390106,-0.022438110783696175,0.324612557888031,0.043023481965065,0.012043870985507965,0.09981420636177063,-0.04222153499722481,0.4117295742034912,-0.13527339696884155,0.08873520791530609,-0.4262361228466034,0.013615409843623638,-0.03766481578350067,0.05433878302574158,0.0485464483499527,-0.07056289166212082,0.06975773721933365,0.15969780087471008,0.003998951055109501,-0.17983846366405487,-0.053006045520305634,0.059053417295217514,-0.174806609749794,0.10006770491600037,-0.3102262318134308,-0.06934478878974915,-0.03166578710079193,0.054221585392951965,0.10554274171590805,0.286262571811676,-0.4342905580997467,-0.03963206335902214,-0.33071812987327576,-0.009686687029898167,-0.12113333493471146,0.21256718039512634,-0.1806986927986145,0.12942343950271606,0.24536995589733124,0.08456020057201385,0.0967787578701973,0.29099515080451965,0.11790443956851959,-0.016019055619835854,0.14610494673252106,-0.1312435120344162,-0.310615599155426,0.35055312514305115,-0.08390981703996658,-0.0002474358188919723,0.1427115499973297,-0.09467292577028275,-0.10778629779815674,0.01615363173186779,0.022145049646496773,0.24220189452171326,-0.03315766900777817,-0.12003923207521439,0.33719077706336975,-0.11415047943592072,-0.3572857975959778,-0.09994247555732727,-0.2214995175600052,-0.012480249628424644,-0.1343088448047638,0.30445554852485657,0.0561678409576416,-0.061835020780563354,0.08944173157215118,-0.07562572509050369,0.032278139144182205,-0.2535152733325958,-0.3861567974090576,-0.23193195462226868,0.1280401051044464,0.008980803191661835,0.2083873152732849,-0.009551101364195347,-0.07818849384784698,-0.07448511570692062,0.022299541160464287,-0.04470531642436981,0.014674773439764977,-0.12799492478370667,0.11325280368328094,-0.21095460653305054,0.05008946359157562,-0.20230980217456818,-0.10195020586252213,-0.24811366200447083,0.16742296516895294,-0.04891116917133331,-0.05519308149814606,-0.26745593547821045,0.3093440532684326,-0.41375041007995605,0.20705676078796387,-0.02511252835392952,0.03219384700059891,-0.13412436842918396,-0.15296368300914764,0.16163170337677002,-0.23710571229457855,-0.0030656117014586926,-0.01681642420589924,-0.15499454736709595,0.12070461362600327,-0.09494319558143616,0.2390904277563095,0.1362099051475525,-0.12117505818605423,0.23921895027160645,0.028792981058359146,-0.11381438374519348,0.26322317123413086,-0.0952753871679306,-0.3039683997631073,-0.023354530334472656,-0.12186014652252197,-0.06225740537047386,-0.02572939544916153,-0.06097441911697388,-0.43119701743125916,-0.06273293495178223,0.04023069515824318,-0.24663390219211578,0.042421139776706696,-0.06691452860832214,0.24499544501304626,0.10901252925395966,-0.19289182126522064,0.0737089216709137,-0.22021669149398804,0.0009436809923499823,-0.18355044722557068,-0.6033837795257568,0.12472078949213028,-0.10417075455188751,-0.41345006227493286,0.06228478252887726,-0.12546302378177643,-0.24887564778327942,0.36974427103996277,-0.20600591599941254,-0.18162578344345093,-0.28970950841903687,0.1760263890028,-0.6174635887145996,0.04334138706326485,-0.09947218745946884,0.015579648315906525,0.016082948073744774,0.05304950848221779,-0.050989389419555664,0.3211352825164795,0.017751555889844894,-0.24678535759449005,0.008928574621677399,0.6564976572990417,0.06341689079999924,0.2703787386417389,0.07357139140367508,0.041220616549253464,-0.1423366516828537,0.22491519153118134,-0.320102721452713,-0.23230022192001343,-0.3207595944404602,0.01576303131878376,-0.44964712858200073,-0.2396724373102188,0.03633346036076546,-0.1484687775373459,0.004875922109931707,0.24819006025791168,-0.15984417498111725,-0.3102479577064514,-0.18136104941368103,-0.17327715456485748,-0.045888837426900864,0.23880645632743835,-0.07089265435934067,-0.032983530312776566,0.33424481749534607,-0.11070442944765091,0.0741211324930191,0.1327461451292038,-0.40844109654426575,0.3182087540626526,-0.3133544921875,-0.01184226293116808,0.010474428534507751,-0.10147839039564133,0.09873803704977036,-0.0759817361831665,0.06362932175397873,-0.03454110026359558,-0.07237284630537033,-0.04921865463256836,0.05501066520810127,0.13020221889019012,0.27889978885650635,-0.19834119081497192,0.2461262047290802,-0.07518015056848526,-0.3360646665096283,0.25850340723991394,0.025400755926966667,0.07140611857175827,-0.2968451976776123,-0.16327166557312012,0.19696487486362457,-0.0906105786561966,0.2944910228252411,0.3828911781311035,-0.09066210687160492,0.192386195063591,0.1676698476076126,-0.2053881287574768,-0.022440722212195396,-0.028073851019144058,0.19021965563297272,0.21462401747703552,-0.2552931606769562,0.10860566049814224,0.14302672445774078,0.02842792123556137,0.26319199800491333,-0.3197503387928009,0.12532195448875427,0.02981249988079071,-0.07231742888689041,0.2361707240343094,0.31987717747688293,-0.028096290305256844,-0.03854930400848389,-0.005016629118472338,-0.07613526284694672,0.13204295933246613,-0.8950712084770203,0.02169962227344513,-0.4045712947845459,0.15076808631420135,-0.025130314752459526,-0.04793786257505417,-0.06419095396995544,-0.08229624480009079,0.10904431343078613,0.054824914783239365,-0.039050571620464325,-0.18963117897510529,-0.06301131099462509,0.046205684542655945,0.09137826412916183,0.017361881211400032,-0.083637535572052,-0.24667350947856903,0.009094306267797947,0.19830836355686188,-0.10189729183912277,-0.010582988150417805,0.009897416457533836,-0.03187965974211693,-0.3696068525314331,-0.0511772520840168,-0.4990413784980774,-0.08275946229696274,-0.058370545506477356,-0.09242381900548935,0.056664589792490005,-0.1289633810520172,-0.00018677656771615148,-0.05160340666770935,0.03206948563456535,0.1950567066669464,-0.05664310231804848,0.029637392610311508,-0.2571953237056732,0.07831475138664246,-0.12753549218177795,-0.07616899907588959,-0.22033700346946716,0.008052777498960495,-0.0692923441529274,0.06690139323472977,0.06091460958123207,0.14062805473804474,-0.2443540394306183,-0.1298627108335495,0.631371796131134,-0.10448848456144333,0.4273979365825653,-0.06844089925289154,-0.21295340359210968,-0.16539999842643738,0.34953275322914124,-0.09934810549020767,-0.2880118489265442,0.1924031376838684,-0.07530105113983154,-0.21374374628067017,0.14484675228595734,0.24816305935382843,-0.11418981850147247,-0.452683687210083,0.10335423052310944,-0.030754169449210167,0.10183728486299515,0.015441813506186008,0.08203067630529404,0.41091451048851013,-0.09119120985269547,-0.061830658465623856,0.0873991847038269,-0.14119604229927063,-0.31193140149116516,0.21090595424175262,-0.10030676424503326,0.13552597165107727,-0.1325923204421997,0.14293183386325836,-0.12412941455841064,-0.12717154622077942,-0.0031252531334757805,-0.13039550185203552,0.3934306204319,-0.18718792498111725,-0.09560411423444748,0.07739733904600143,-0.09982773661613464,-0.26650911569595337,0.19524258375167847,0.06327209621667862,0.6860623359680176,-0.03189121186733246,0.04994165897369385,-0.044505782425403595,-0.08080509305000305,0.24139069020748138,-0.17026077210903168,-0.04635733738541603,0.0059315236285328865,0.06759068369865417,0.10766394436359406,0.15782077610492706,0.17648735642433167,-0.003502601757645607,0.13477723300457,0.021285926923155785,0.08116115629673004,0.12623727321624756,-0.024317914620041847,-0.1302233338356018,0.12909941375255585,-0.08901646733283997,0.13622963428497314,-0.0751345157623291,0.01397319883108139,0.06040148809552193,0.16500355303287506,0.1120276227593422,-0.010950623080134392,-0.04295477643609047,-0.03824204206466675,-0.03961087390780449,-0.019992344081401825,0.19722607731819153,0.12091614305973053,-0.1335362046957016,-0.1854831725358963,0.03187885880470276,-0.02118804305791855,-0.07265426963567734,-0.05509277805685997,0.20659413933753967,-0.1077941283583641,0.09214469790458679,0.03391995653510094,0.13744652271270752,0.1702175885438919,-0.030455049127340317,0.011852750554680824,-0.0849301666021347,-0.18324635922908783,0.13223163783550262,-0.08124116063117981,-0.19686532020568848,0.16793598234653473,-0.036469172686338425,0.05514370650053024,0.1079816073179245,-0.14388211071491241,-0.0762353166937828,0.20001579821109772,-0.2329394519329071,-0.07478591054677963,0.07269278168678284,0.10338888317346573,0.07756579667329788,-0.12386959791183472,-0.05719725415110588,-0.05104494467377663,0.06197882443666458,0.042812976986169815,0.023951925337314606,0.09983755648136139,0.020412243902683258,0.11102423071861267,0.06347329914569855,0.002173936925828457,0.019630935043096542,-0.03887717053294182,0.11394127458333969,0.23722390830516815,0.1401369422674179,0.08059486746788025,0.0698295310139656,0.14932455122470856,0.06800074130296707,-0.07210827618837357,-0.038390565663576126,0.025714080780744553,0.08072010427713394,-0.25555792450904846,-0.13529618084430695,-0.0971037745475769,0.24517711997032166,0.06261003017425537,-0.1303396224975586,-0.0314655527472496,-0.3163807690143585,0.02106933295726776,0.019655337557196617,0.12156285345554352,-0.044008105993270874,-0.14374443888664246,0.16747471690177917,-0.07405346632003784,-0.07381102442741394,-0.4162656366825104,0.10790588706731796,-0.04105570167303085,-0.13603490591049194,-0.007711867336183786,-0.19773727655410767,-0.1403573453426361,-0.09883669018745422,0.34158486127853394,0.1279001086950302,-0.5083793997764587,-0.15429916977882385,-0.07755839824676514,-0.11843118816614151,0.0572042241692543,0.030072202906012535,-0.15599671006202698,0.3413654565811157,0.05351924151182175,-0.06459962576627731,-0.07177534699440002,0.13544905185699463,0.15669670701026917,-0.08579134196043015,-0.006941578350961208,0.0385526642203331,0.10384238511323929,0.015548992902040482,-0.2083418369293213,0.11229630559682846,-0.19444337487220764,0.24989008903503418,-0.07980592548847198,0.18893936276435852,-0.2618585526943207,-0.1312144547700882,-0.1897406131029129,-0.03628256544470787,-0.06250008940696716,0.09276123344898224,0.08347484469413757,0.17852386832237244,0.05549849197268486,0.05756641551852226,-0.02599336951971054,0.09091497957706451,-0.059668585658073425,0.13395436108112335,0.03748100623488426,-0.10903076827526093,-0.14148834347724915,0.15210142731666565,0.32556429505348206,0.1844102144241333,0.449714720249176,-0.09591135382652283,0.11452493071556091,0.060178663581609726,0.08273597061634064,-0.01936238259077072,0.5517889857292175,0.04571627825498581,-0.03140667453408241,0.15393613278865814,-0.2921351194381714,0.11190742254257202,0.049110643565654755,-0.004248320125043392,-0.14095273613929749,0.14214110374450684,-0.01799183152616024,0.7259896993637085,-0.09779790788888931,0.047446608543395996,0.07231643050909042,0.08820116519927979,0.11454407125711441,0.292662650346756,-0.04573788866400719,0.07866453379392624,0.12558142840862274,-0.2243955433368683,0.06183334439992905,0.34467944502830505,-0.17362822592258453,-0.12941202521324158,0.008379504084587097,0.022038636729121208,0.05844101309776306,-0.012040635570883751,-0.022171340882778168,0.20546992123126984,-0.08869535475969315,-0.1146317794919014,0.012612942606210709,0.013047518208622932,-0.06617226451635361,-0.061283234506845474,0.21851560473442078,-0.23206619918346405,0.13739342987537384,0.02002415806055069,-0.3560774326324463,-0.09370666742324829,-0.2711300849914551,0.05663489177823067,0.13547036051750183,-0.09705305099487305,0.16594184935092926,-0.4561789035797119,-0.040501948446035385,0.11203022301197052,-0.005762987770140171,-0.057065751403570175,0.033862803131341934,-0.007688518613576889,0.11198854446411133,0.20958784222602844,0.17871147394180298,0.08727848529815674,0.14579574763774872,-0.040203191339969635,0.012566817924380302,0.013394666835665703,0.12512898445129395,-0.0007204120047390461,0.006909940391778946,-0.02626606822013855,-0.0894303098320961,0.0832008644938469,0.08573876321315765,-0.10268794000148773,-0.03661096468567848,0.3482245206832886,-0.2180240899324417,0.15892283618450165,-0.013367686420679092,0.20889072120189667,-0.3634796440601349,0.2168329358100891,0.020881598815321922,0.017233025282621384,0.005597119685262442,-0.17162667214870453,-0.20134389400482178,0.482156366109848,-0.33000341057777405,-0.0913061574101448,-0.18224357068538666,0.09395451843738556,0.002594610210508108,-0.20370012521743774,-0.09314028918743134,-0.16641460359096527,-0.12215478718280792,0.16377218067646027,-0.3262132704257965,-0.07309429347515106,-0.11726361513137817,0.020483337342739105,-0.34580525755882263,0.07892613112926483,-0.2601921856403351,-0.5373515486717224,-0.07988631725311279,-0.02841838076710701,-0.07115741819143295,0.2634516954421997,0.1193564310669899,-0.16897818446159363,0.061398670077323914,-0.047468848526477814,0.18532757461071014,0.2840968370437622,0.052167005836963654,-0.20834468305110931,0.20354340970516205,0.16833674907684326,-0.3556019961833954,-0.015066470019519329,-0.0311397947371006,-0.21135766804218292,-0.0654272735118866,0.09638035297393799,0.2397480010986328,-0.4987638592720032,-0.29324954748153687,-0.1904527246952057,0.017720546573400497,0.120834581553936,-0.10867734998464584,0.026302389800548553,-0.3104800283908844,-0.04489634186029434,0.10497500747442245,0.020969094708561897,0.13665805757045746,0.07781963050365448,-0.14932984113693237,-0.10718367993831635,0.19274938106536865,-0.2437368929386139,-0.3895566463470459,0.03798142448067665,-0.0648665800690651,-0.21575412154197693,-0.21493898332118988,0.0349925234913826,-0.027086040005087852,-0.04208372160792351,-0.2783275842666626,-0.11086420714855194,-0.06576038151979446,-0.11038640886545181,0.053454622626304626,-0.20167015492916107,0.03339425474405289,0.014677141793072224,-0.011231509037315845,-0.1753535121679306,-0.06679798662662506,0.10317151993513107,0.12612639367580414,-0.07861781120300293,-0.021586401388049126,0.18375515937805176,-0.11670057475566864,0.06469061225652695,0.28631481528282166,-0.1489039957523346,0.18482418358325958,-0.0946274995803833,-0.21660920977592468,-0.09205327928066254,0.03258613497018814,-0.010916397906839848,0.040536828339099884,-0.1250620037317276,-0.15535221993923187,-0.42740947008132935,-0.012929217889904976,-0.36133259534835815,-0.01937289722263813,0.23391051590442657,0.019318638369441032,-0.28106045722961426,-0.08887635916471481,0.050254616886377335,-0.3568829596042633,0.06167592853307724,0.22426491975784302,-0.026371849700808525,-0.25097814202308655,-0.014669075608253479,0.023734545335173607,0.12694135308265686,0.23664546012878418,0.04041415452957153,0.01936081051826477,-0.16449692845344543,-0.005480294115841389,-0.42592841386795044,0.1266482025384903,-0.2880507707595825,-0.2148754894733429,0.1242765486240387,0.21071302890777588,-0.15293020009994507,-0.0973227247595787,-0.21533343195915222,0.279194176197052,-0.11006148904561996,0.0909428820014,-0.23466825485229492,0.3777838349342346,-0.4319659173488617,0.06334839761257172,0.05831405147910118,0.18995504081249237,0.27768176794052124,0.04402155801653862,-0.0018773033516481519,-0.16590207815170288,-0.0736197903752327,-0.1911737024784088,0.09399840980768204,0.11334134638309479,0.15319068729877472,0.07445923984050751,-0.07140730321407318,0.19999916851520538,-0.18527987599372864,0.022010955959558487,0.19923904538154602,0.22761496901512146,-0.3960818350315094,-0.03852801024913788,-0.14643017947673798,-0.3810883164405823,-0.10130050033330917,0.002280698623508215,-0.022220883518457413,0.06771118193864822,-0.1733705848455429,-0.017807822674512863,0.16010220348834991,-0.11352808028459549,-0.08928284794092178,-0.15591485798358917,0.04639343172311783,0.07415492832660675,-0.3290351629257202,0.36676880717277527,-0.29885098338127136,-0.1438666731119156,0.02919595129787922,-0.12587574124336243,0.001105996547266841,0.01004426646977663,-0.15763141214847565,0.005304164253175259,0.05484384298324585,0.0378996841609478,-0.1838321089744568,0.1663884073495865,-0.1665569692850113,-0.18258258700370789,-0.15628747642040253,-0.02061542309820652,-0.10796792060136795,-0.0475090928375721,0.34470832347869873,-0.12351135164499283,-0.16364187002182007,-0.11752532422542572,-0.03273254260420799,-0.40756550431251526,-0.09353030472993851,0.05974084138870239,0.1570902168750763,-0.1399131417274475,0.2242974191904068,0.002471224870532751,-0.5882341861724854,-0.008676458150148392,-0.09266667813062668,0.08047512918710709,-0.2693012058734894,-0.4408157169818878,-0.06601520627737045,-0.22308988869190216,-0.1013244092464447,0.01714409701526165,-0.14807449281215668,-0.2162352353334427,0.11869682371616364,0.03368709981441498,-0.16848339140415192,0.09089215844869614,-0.2457450032234192,0.0007125596748664975,-0.050326745957136154,0.09997067600488663,-0.04437350854277611,0.09287486970424652,-0.13192307949066162,-0.07020512968301773,0.1910281628370285,-0.13296793401241302,-0.44093871116638184,-0.013468954712152481,-0.03902352601289749,-0.05118108540773392,0.09572412073612213,0.05640418827533722,0.1552519053220749,-0.010969697497785091,-0.08708512783050537,-0.2920265197753906,-0.06548061966896057,-0.149793341755867,0.07113070040941238,0.03938452526926994,0.15264418721199036,-0.33520370721817017,0.019357871264219284,-0.10095170885324478,-0.10053175687789917,0.16751359403133392,0.2528204917907715,-0.09358470886945724,-0.08727092295885086,-0.08617574721574783,0.09334538877010345,-0.15538378059864044,0.09858616441488266,0.13888292014598846,-0.052171286195516586,-0.1711093932390213,0.18718655407428741,-0.0965174213051796,0.13735678791999817,0.09919571131467819,-0.11050707846879959,-0.20524640381336212,-0.10499772429466248,0.05282630771398544,0.25839367508888245,-0.09594684094190598,-0.00015158107271417975,0.11013050377368927,0.026487456634640694,0.25833064317703247,0.0013209605822339654,-0.5127553343772888,-0.08416744321584702,0.15294019877910614,0.22374475002288818,-0.13671211898326874,-0.07029180228710175,-0.22478702664375305,-0.8948392271995544,0.10354163497686386,0.162662073969841,0.0648636519908905,-0.19402341544628143,-0.013565664179623127,-0.11493772268295288,0.06378033757209778,-0.09351968765258789,0.028265664353966713,-0.05598629638552666,-0.03930101916193962,-0.48384514451026917,0.13249796628952026,-0.6392080187797546,0.010936196893453598,-0.18619850277900696,0.06212988868355751,-0.329995721578598,-0.1400640308856964,0.05581745505332947,-0.11027037352323532,0.11221493780612946,-0.14908002316951752,-0.11200111359357834,-0.026308588683605194,0.0805928036570549,0.030290722846984863,-0.05330853536725044,0.08731794357299805,-0.11235295981168747,0.1333915889263153,-0.3715440332889557,-0.16251137852668762,-0.21050670742988586,0.06505802273750305,0.07249067723751068,0.02733912132680416,-0.054696135222911835,-0.03380614146590233,0.10988345742225647,0.04555431380867958,0.08187486231327057,0.09191199392080307,0.08241144567728043,0.032981812953948975,-0.09253372997045517,-0.3988106846809387,0.031065896153450012,-0.12096291780471802,-0.04830547422170639,0.17762844264507294,-0.02464239113032818,0.03818269073963165,0.20611688494682312,0.1129690557718277,0.10400320589542389,0.021021051332354546,0.10442350059747696,-0.140854150056839,-0.12632672488689423,-0.2628084421157837,0.1904143989086151,-0.2154126614332199,0.04181781783699989,0.14396214485168457,0.06533671170473099,-0.0896897166967392,0.20989882946014404,0.6064271330833435,-0.10140079259872437,0.3572549819946289,0.09133653342723846,-0.05151671543717384,0.08404862135648727,0.2161470651626587,-0.12072257697582245,0.05361868813633919,0.188695028424263,0.0009222063818015158,0.165955051779747,0.03622512146830559,-0.06037821248173714,-0.13143539428710938,-0.10105077922344208,0.13810564577579498,0.09073483943939209,0.12924332916736603,0.13905294239521027,0.15271936357021332,0.3379788100719452,-0.04503404721617699,-0.11059973388910294,0.0755048468708992,0.3319665193557739,-0.05070536583662033,0.048720743507146835,0.03588153049349785,0.2533647418022156,0.2868075966835022,0.0007658584509044886,0.22778093814849854,-0.09251684695482254,-0.07232394814491272,0.024888277053833008,0.26710960268974304,0.1235940009355545,0.13394002616405487,0.09326202422380447,-0.14598557353019714,0.16630975902080536,-0.08202510327100754,-0.03323851898312569,0.338828444480896,0.3824291229248047,-0.08054595440626144,0.11063018441200256,-0.15249128639698029,0.08574578911066055,0.33562448620796204,-0.12126638740301132,0.29352959990501404,0.18893572688102722,0.06897728890180588,-0.07913002371788025,0.197341188788414,0.27772021293640137,0.091327004134655,0.06479398906230927,0.4121101200580597,0.25394394993782043,-0.0007250190246850252,0.1476207971572876,-0.054800935089588165,0.09949783980846405,-0.199839785695076,0.1423160880804062,0.19633303582668304,-0.1777137815952301,0.01574370265007019,-0.008909154683351517,-0.050215575844049454,0.5382463932037354,0.21241861581802368,0.006044379435479641,-0.1404431164264679,-0.007352821063250303,-0.03413119912147522,-0.10390327125787735,-0.41899538040161133,-0.09023898094892502,0.10281621664762497,0.041173990815877914,-0.14016442000865936,-0.039648689329624176,0.3461035490036011,0.09663404524326324,-0.032151199877262115,-0.39560288190841675,0.07715888321399689,-0.15538063645362854,0.15183943510055542,0.16469690203666687,-0.5750516653060913,-0.18954859673976898,0.24680420756340027,0.022235704585909843,-0.045056525617837906,0.2148045152425766,-0.1357942819595337,-0.20171664655208588,-0.10905007272958755,-0.40268200635910034,0.0983550027012825,0.10228099673986435,0.09904742240905762,-0.06405515968799591,0.10986994206905365,0.2823202311992645,-0.20712588727474213,-0.07581157982349396,-0.05778912454843521,-0.37349778413772583,-0.12560397386550903,0.03109784983098507,-0.3971728980541229,-0.07755059003829956,0.012255718000233173,-0.052033450454473495,0.13639137148857117,0.38068774342536926,0.1823977530002594,-0.6749204397201538,0.3037635087966919,0.06766557693481445,-0.013238493353128433,-0.009769031777977943,-0.03579889237880707,-0.1095481812953949,0.032611455768346786,-0.0844850018620491,0.03850702568888664,-0.22760866582393646,-0.03332570567727089,-0.4757646918296814,-0.09263031929731369,0.08701355755329132,-0.0581524632871151,-0.04362766072154045,0.20250600576400757,-0.05554356053471565,0.016810566186904907,0.12071952223777771,0.12783880531787872,-0.0990380123257637,-0.08239980041980743,-0.1699756234884262,0.030773788690567017,-0.062458112835884094,-0.07831073552370071,-0.07126665860414505,-0.11975524574518204,0.036928411573171616,-0.06036261469125748,0.004291616380214691,-0.10896839946508408,-0.02313465066254139,-0.4308554232120514,0.36749348044395447,0.24984438717365265,-0.18079040944576263,0.06467880308628082,-0.07750096172094345,-0.11082132160663605,0.018814781680703163,-0.19133754074573517,0.07337327301502228,0.21443061530590057,0.06341353058815002,-0.24238321185112,0.14860843122005463,0.009895553812384605,0.0735170841217041,0.09027816355228424,-0.018215838819742203,0.12064038962125778,0.09308943152427673,-0.21556150913238525,-0.04501159489154816,-0.24224001169204712,0.12888866662979126,0.0503157302737236,-0.12879180908203125,-0.20498108863830566,0.19970035552978516,-0.10110735893249512,0.25084584951400757,-0.0627133846282959,-0.47973063588142395,-0.08338460326194763,-0.1522323489189148,0.5688482522964478,-0.04440482333302498,0.312389612197876,-0.1709386706352234,0.023418692871928215,0.16037078201770782,0.058461159467697144,0.15560153126716614,-0.02871495485305786,-0.1072736606001854,-0.1342025250196457,-0.028037719428539276,-0.16434814035892487,-0.06166746839880943,-0.07899085432291031,0.367893785238266,-0.2944798767566681,0.1380554884672165,-0.06056865304708481,0.024230800569057465,-0.03329705819487572,-0.21873149275779724,-0.14704449474811554,-0.0732576847076416,-0.021804729476571083,0.1450754702091217,-0.09086780995130539,0.23567451536655426,0.05028020963072777,0.11238353699445724,-0.02265274152159691,0.2209623157978058,-0.11752829700708389,0.17423926293849945,0.20324298739433289,-0.009144141338765621,0.29764625430107117,0.06339943408966064,0.020612666383385658,-0.06091712415218353,-0.09887964278459549,-0.09651829302310944,0.010088494047522545,-0.06451785564422607,0.3881973624229431,0.11221940815448761,-0.05592019855976105,0.011156418360769749,0.02353830821812153,0.15177956223487854,0.16276542842388153,-0.050944410264492035,0.1300996094942093,-0.21452544629573822,-0.024933699518442154,-0.0535370409488678,0.04031898081302643,0.08133026212453842,-0.11997746676206589,0.054210688918828964,-0.42528557777404785,-0.0963938981294632,-0.07126369327306747,-0.05561017990112305,-0.022278957068920135,0.07744543254375458,0.1631980985403061,-0.1688118875026703,-0.06384153664112091,0.039544492959976196,-0.07175498455762863,0.2131151407957077,0.07264930009841919,-0.49463674426078796,0.03998507931828499,-0.02646660804748535,-0.178451269865036,-0.33513832092285156,-0.08315280824899673,-0.5678973197937012,-0.1285274475812912,-0.057445842772722244,-0.21782353520393372,-0.1136680543422699,0.0472053587436676,0.28624996542930603,-0.06380803138017654,0.026812229305505753,-0.09825930744409561,0.3933441936969757,-0.028851237148046494,-0.03613833338022232,-0.061230216175317764,-0.23856523633003235,0.02689310722053051,0.19559495151042938,0.18527549505233765,0.05682715028524399,-0.05311038717627525,-0.058117903769016266,0.14275842905044556,0.09341716021299362,-0.22497768700122833,-0.11765971779823303,-0.05229230970144272,0.023122122511267662,-0.00016139913350343704,0.03785165026783943,-0.18252137303352356,-0.21730650961399078,-0.09914766997098923,0.04751163348555565,0.008000258356332779,0.014435412362217903,0.039157502353191376,0.08044704049825668,-0.08024951815605164,0.26084598898887634,-0.04982711374759674,0.08964217454195023,-0.013767266646027565,-0.32395410537719727,-0.12664364278316498,0.19090428948402405,-0.2557193338871002,0.00976674072444439,0.4312690198421478,-0.11609651893377304,0.23101964592933655,-0.043335556983947754,-0.07783932238817215,0.3234076499938965,0.10981395095586777,0.07284300774335861,-0.12769722938537598,0.3744577467441559,-0.34157511591911316,0.1741904616355896,-0.01648426614701748,-0.23417703807353973,-0.1194872111082077,-0.008769150823354721,-0.07958972454071045,0.548191249370575,-0.12180688977241516,-0.0586455762386322,-0.038264334201812744,0.43371012806892395,-0.1100018247961998,-0.4551433324813843,0.2285682111978531,-0.10866835713386536,0.03530186414718628,0.05046292394399643,-0.10741166025400162,-0.21015073359012604,0.09689854830503464,0.1055736169219017,0.160847008228302,0.02203243039548397,-0.08275622874498367,-0.0798782929778099,-0.0677875503897667,0.09729049354791641,0.3516223728656769,-0.10749059170484543,0.043470192700624466,-0.06563513725996017,0.05496673658490181,-0.11201900243759155,0.09004615992307663,-0.025029676035046577,0.306051641702652,-0.05729353800415993,-0.1353258192539215,0.19428248703479767,0.057533688843250275,-0.08678730577230453,0.19642628729343414,-0.011426523327827454,-0.12864194810390472,-0.21122479438781738,-0.09954052418470383,-0.36188942193984985,0.12091312557458878,0.08933616429567337,-0.0496087372303009,-0.045077260583639145,0.12533970177173615,0.14168326556682587,-0.087323859333992,0.1087668314576149,-0.06671502441167831,0.11947906017303467,-0.184665247797966,0.17949499189853668,-0.021991390734910965,0.05032128840684891,-0.07353333383798599,-0.004779690410941839,0.04894454404711723,-0.06049055606126785,-0.1323682814836502,0.013835744000971317,-0.08362101018428802,0.02630080282688141,-0.30277225375175476,-0.29932674765586853,-0.06274707615375519,-0.09683423489332199,-0.06915359199047089,-0.05076482519507408,0.08737054467201233,0.1322077214717865,-0.0966927632689476,-0.00035066730924881995,-0.08528973907232285,0.07132069766521454,0.012649185955524445,0.08302755653858185,0.05477108806371689,-0.1021658256649971,-0.08463393151760101,-0.17925973236560822,-0.30918675661087036,-0.03146571293473244,-0.04647254943847656,0.10181146115064621,-0.2120983898639679,0.049275822937488556,0.029811929911375046,0.022987544536590576,-0.18723458051681519,-0.13893836736679077,-0.03202445060014725,-0.20521292090415955,-0.06855383515357971,0.12713496387004852,0.015383628197014332,0.03587403520941734,0.0008472353219985962,-0.09011087566614151,0.32173851132392883,-0.11192134022712708,0.007535988464951515,-0.003703455440700054,-0.10416221618652344,0.026402080431580544,-0.10938841849565506,-0.05745023861527443,0.21051208674907684,-0.19098205864429474,-0.1307852417230606,-0.18025940656661987,-0.32866111397743225,-0.041658978909254074,0.028261881321668625,-0.09095120429992676,0.022497214376926422,-0.36716994643211365,-0.12008883059024811,0.28482842445373535,-0.21192732453346252,0.36939021944999695,0.06110277771949768,0.09848398715257645,0.02991267293691635,0.2552175521850586,0.003861537203192711,-0.18616129457950592,0.39330002665519714,0.01976815238595009,0.5119324326515198,0.31957828998565674,0.038291968405246735,0.12190769612789154,0.10423457622528076,0.01879611797630787,-0.28034305572509766,0.051049064844846725,0.10941120237112045,0.027864988893270493,-0.2363295555114746,0.25327497720718384,-0.2597924768924713,0.15180028975009918,0.4218981862068176,-0.08898250758647919,-0.010633805766701698,0.31820353865623474,-0.2379222810268402,0.008499326184391975,0.1372237205505371,0.16709280014038086,-0.1798284649848938,0.07595507055521011,-0.20174579322338104,-0.09745409339666367,-0.3077675998210907,-0.08013316243886948,0.19974355399608612,-0.11836432665586472,-0.0427570566534996,0.0012652063742280006,-0.13840168714523315,0.12101912498474121,0.14779719710350037,-0.09165967255830765,0.051938723772764206,0.009193957783281803,-0.17813417315483093,-0.3017718195915222,-0.29172074794769287,0.23604772984981537,-0.051959071308374405,0.1727573722600937,0.14041633903980255,0.25595468282699585,0.29807841777801514,-0.34409379959106445,0.29829660058021545,-0.10371807962656021,0.026532048359513283,0.05354318395256996,-0.23182927072048187,0.35897523164749146,-0.06630812585353851,-0.009604223072528839,-0.05675780773162842,-0.11380284279584885,-0.026789963245391846,0.019455574452877045,0.08249585330486298,0.1788616180419922,0.2608324885368347,0.2125663012266159,0.1254160851240158,0.01616593822836876,0.07424479722976685,0.06560122966766357,0.13877737522125244,-0.01515063177794218,0.06325841695070267,-0.06148165836930275,-0.11050638556480408,0.024088120087981224,-0.21520747244358063,0.37090572714805603,0.10109013319015503,-0.025261165574193,0.054074179381132126,-0.1903320848941803,0.23996753990650177,-0.4986683130264282,0.15193791687488556,0.007470854092389345,0.5758748054504395,0.16685789823532104,-0.16780780255794525,-0.13960137963294983,-0.24499118328094482,-0.006537300534546375,0.0840735211968422,0.022994844242930412,-0.10452400147914886,-0.3472764194011688,0.1168331727385521,-0.03514853119850159,0.08227089047431946,0.07268261164426804,-0.08117196708917618,-0.10538332909345627,0.03450588509440422,0.19419923424720764,-0.40932562947273254,0.18319736421108246,-0.10053754597902298,-0.4882911443710327,-0.24043506383895874,0.33099186420440674,0.21025076508522034,-0.3090742230415344,-0.1535194218158722,0.0040008388459682465,0.15916994214057922,-0.0973876565694809,0.03607167303562164,0.14347216486930847,-0.03947953134775162,-0.27814286947250366,-0.23079989850521088,0.0190194770693779,-0.10471467673778534,-0.01639823615550995,-0.04426993802189827,-0.0884711742401123,0.09801807254552841,-0.21378196775913239,-0.5335372090339661,-0.048988018184900284,-0.13332872092723846,-0.3707861304283142,-0.028272263705730438,-0.014677964150905609,0.02636471949517727,0.24554550647735596,-0.013424091041088104,0.018845591694116592,0.08926959335803986,-0.056623611599206924,-0.05678727850317955,-0.32706961035728455,0.11382615566253662,0.022174760699272156,0.01298963651061058,-0.6361920833587646,-0.36877453327178955,-0.22194090485572815,0.05282803252339363,0.05585184693336487,0.018838927149772644,-0.11550500243902206,0.3587679862976074,-0.4209454655647278,-0.1887926161289215,-0.16771654784679413,0.3107907772064209,-0.2397017627954483,0.31250396370887756,0.22505879402160645,0.1020193099975586,-0.02884807623922825,-0.18763068318367004,-0.377701997756958,0.3028712272644043,0.09344812482595444,0.023251941427588463,0.007376020308583975,-0.27247002720832825,-0.040563665330410004,0.2839292883872986,0.17043080925941467,0.010527444072067738,-0.5045583844184875,0.33816730976104736,0.08222543448209763,0.15170438587665558,-0.018593525514006615,-0.15186040103435516,0.01062001008540392,-0.005855704192072153,-0.1152055561542511,0.19743980467319489,-0.13064022362232208,0.15356990694999695,-0.23189297318458557,0.12436366081237793,0.16321788728237152,0.1532638818025589,0.09045751392841339,-0.21984802186489105,-0.02112661302089691,0.325262188911438,0.047027647495269775,0.04955172911286354,0.03092743642628193,-0.2700369656085968,-0.19909349083900452,0.045372214168310165,-0.003228733316063881,0.15702347457408905,-0.06409585475921631,0.020983226597309113,-0.25834962725639343,0.045721665024757385,-0.29652297496795654,-0.14445269107818604,-0.015435616485774517,-0.20190133154392242,-0.5770172476768494,-0.1829596608877182,0.03559361770749092,-0.08944178372621536,0.10314471274614334,-0.32528454065322876,-0.23208241164684296,-0.14683237671852112,-0.24638976156711578,-0.5197950601577759,0.23022112250328064,-0.5518975853919983,-0.2503328323364258,-0.0032330250833183527,0.16229248046875,0.13090230524539948,-0.16768759489059448,0.019767489284276962,-0.18280135095119476,-0.3292735815048218,0.07917700707912445,-0.3175814151763916,0.027866974472999573,-0.02880091220140457,-0.2004784345626831,-0.49631670117378235,0.48249614238739014,0.17877094447612762,-0.5081944465637207,0.11526456475257874,-0.23046450316905975,0.2877945303916931,-0.10609476268291473,0.36873334646224976,0.03658806160092354,0.05655607208609581,0.30389970541000366,0.34773722290992737,-0.2084755003452301,-0.08980060368776321,-0.15440703928470612,0.18796364963054657,0.14601851999759674,0.2159295380115509,0.12637503445148468,-0.01041429303586483,0.08671516180038452,0.263703852891922,0.40404435992240906,-0.33616694808006287,0.03613629937171936,0.18084114789962769,0.15752238035202026,-0.03249169513583183,-0.5426692962646484,0.17450514435768127,0.027371184900403023,0.0635669082403183,-0.4354809820652008,0.06216786429286003,0.10590748488903046,-0.19105303287506104,0.05937701091170311,0.03738868236541748,-0.10024257749319077,0.013053462840616703,0.22285698354244232,-0.3347010612487793,0.22956795990467072,0.5058073401451111,-0.12694761157035828,0.19416622817516327,0.11314541846513748,0.02839810401201248,0.17490817606449127,-0.48644334077835083,-0.04194696992635727,0.6983278393745422,-0.23596081137657166,0.1840832233428955,-0.14307233691215515,0.10340811312198639,-0.12346498668193817,0.05947243794798851,-0.04013422504067421,0.03986894711852074,-0.40814515948295593,-0.0335080586373806,-0.5082595348358154,-0.49666428565979004,0.13116179406642914,0.3008144199848175,-0.13312481343746185,-0.1823926866054535,-0.10789462924003601,0.14921852946281433,-0.28634729981422424,-0.08731762319803238,0.020875586196780205,0.25010958313941956,-0.1654634028673172,-0.03203529492020607,0.029494604095816612,0.21610179543495178,-0.3969881534576416,0.0780663788318634,-0.18391777575016022,-0.06560339033603668,-0.09370297938585281,0.3468917906284332,-0.35590556263923645,0.048272158950567245,-0.1277765929698944,0.060356199741363525,0.21115714311599731,0.1102459728717804,-0.24566073715686798,0.07179994136095047,0.010358684696257114,0.29963335394859314,-0.021575476974248886,-0.06943690776824951,-0.1280566155910492,0.12946972250938416,-0.3415873944759369,0.005748273339122534,-0.06995537132024765,-0.007624713703989983,0.5373209118843079,0.46012675762176514,0.06400778144598007,0.010165615007281303,-0.20691101253032684,0.008473360911011696,0.14686201512813568,-0.08294282853603363,0.162283793091774,0.3902221918106079,0.19367921352386475,-0.01520330086350441,0.3057999014854431,0.1470707207918167,-0.42962735891342163,0.08189912885427475,-0.054486170411109924,0.2576737701892853,0.1734951287508011,-0.08342639356851578,0.029488099738955498,-0.17350007593631744,-0.049778200685977936,0.25299158692359924,-0.06838852912187576,-0.06336618959903717,0.24523277580738068,-0.10248606652021408,0.1026332750916481,-0.2615756094455719,-0.09656654298305511,-0.11123551428318024,0.27644968032836914,0.29882580041885376,-0.11293401569128036,0.12954945862293243,0.012148723937571049,0.05378865450620651,-0.06764570623636246,0.025189977139234543,-0.00035322876647114754,0.09110940992832184,0.08388105034828186,0.18435879051685333,0.05951675772666931,0.25034043192863464,0.16453056037425995,-0.20327921211719513,0.23578238487243652,0.33601701259613037,-0.11912984400987625,0.33307692408561707,-0.03582354635000229,0.117709219455719,0.0821819081902504,0.07086818665266037,0.08657470345497131,0.10322387516498566,-0.3481864333152771,0.17916390299797058,-0.15727615356445312,0.21623684465885162,0.4429716467857361,-0.19578534364700317,-0.03400390222668648,0.1454504430294037,0.0006949978414922953,0.001176802208647132,-0.13343068957328796,0.3207932412624359,-0.04439592361450195,0.030362943187355995,0.04289926961064339,0.09917708486318588,0.05459355562925339,0.10615766048431396,0.06823570281267166,0.2948390245437622,0.29696133732795715,-0.0457332618534565,0.02589799463748932,-0.038604602217674255,0.051989130675792694,-0.16787295043468475,0.09993363916873932,0.27915289998054504,-0.18374277651309967,0.1784016638994217,-0.06802470237016678,0.27066782116889954,-0.23857516050338745,0.05110536515712738,-0.14270763099193573,0.1419457346200943,-0.02146163024008274,0.02071155607700348,0.05793923884630203,0.03879266232252121,-0.09029149264097214,-0.22212155163288116,-0.0075880312360823154,-0.02302093617618084,-0.07547061890363693,-0.08130298554897308,-0.1183537095785141,0.056477878242731094,0.2785879969596863,0.14894452691078186,-0.05075666308403015,0.1602664738893509,0.20914612710475922,0.12146996706724167,0.15755698084831238,0.11822441965341568,0.11197192221879959,0.14250870048999786,0.044736649841070175,0.04178955778479576,0.011839370243251324,0.016886811703443527,-0.11922100931406021,-0.013544013723731041,-0.23654857277870178,-0.07455775886774063,0.19996574521064758,-0.051112040877342224,0.11819104850292206,-0.9206553101539612,0.20341776311397552,0.24371372163295746,-0.15207763016223907,-0.054161831736564636,-0.13522213697433472,0.09948670864105225,-0.02553650364279747,-0.7786039113998413,-0.4557744264602661,0.12433629482984543,-0.06889919191598892,-0.020745735615491867,0.10086185485124588,0.025556519627571106,-0.04437319561839104,-0.43553829193115234,-0.11481481045484543,-0.010968353599309921,-0.29537326097488403,-0.30799275636672974,-0.10498690605163574,-0.5374302864074707,0.13439033925533295,-0.06605587899684906,-0.08405862003564835,-0.023971017450094223,-0.4898320138454437,0.21918366849422455,0.32201048731803894,0.46519431471824646,-0.2830851674079895,0.019614532589912415,-0.28987112641334534,0.024770470336079597,0.025413988158106804,0.06510243564844131,-0.044379763305187225,0.1252209097146988,-0.09803527593612671,0.04003331437706947,0.052900008857250214,-0.6785053014755249,0.24429699778556824,0.1607312560081482,0.02983517199754715,-0.1167897880077362,-0.217122420668602,-0.18093588948249817,-0.051873739808797836,0.25559529662132263,-0.4632611870765686,-0.07265453785657883,-0.18499331176280975,0.012083685956895351,0.23971372842788696,-0.573455274105072,0.12235372513532639,0.048181306570768356,-0.1785527616739273,0.22191961109638214,-0.19029919803142548,-0.13282234966754913,0.10685259103775024,0.08800334483385086,0.08506491780281067,-0.5668845176696777,0.023810461163520813,-0.015205982141196728,0.04857232794165611,-0.1349053531885147,0.08241840451955795,0.08436110615730286,0.11431311070919037,0.3562788963317871,0.24453403055667877,0.07603868097066879,0.1494121551513672,0.27742481231689453,0.11088179796934128,0.08441726863384247,-0.07487619668245316,0.09493666887283325,-0.1261000782251358,0.16143746674060822,-0.11606348305940628,0.4462670087814331,0.09598385542631149,0.3498155176639557,0.26968446373939514,0.2284967452287674,0.07461654394865036,-0.3760397434234619,0.3205992579460144,0.05063226446509361,-0.2438627928495407,-0.019361132755875587,0.14917533099651337,-0.1330564171075821,0.07943730801343918,0.007481178268790245,-0.15243364870548248,0.013394343666732311,0.1994534730911255,-0.06300373375415802,0.32534733414649963,-0.09747655689716339,-0.184330552816391,0.16976477205753326,0.10915102809667587,0.4941348731517792,-0.4230141341686249,-0.08725801110267639,0.1918983906507492,-0.18318545818328857,0.08741138875484467,0.29093068838119507,0.2111080288887024,0.09160984307527542,-0.10354801267385483,0.10765805095434189,0.034882012754678726,-0.11061132699251175,-0.18714796006679535,-0.0012130882823839784,-0.12002171576023102,0.14380717277526855,0.519578218460083,0.2485295981168747,0.03683076798915863,-0.03709638863801956,0.1438637226819992,-0.016614269465208054,0.07222955673933029,-0.006969110574573278,-0.17139270901679993,-0.06123106926679611,0.31579598784446716,0.1011599451303482,-0.015446680597960949,0.05398821458220482,0.22019492089748383,0.24360546469688416,-0.36021262407302856,-0.06765253096818924,0.08148974925279617,0.019838472828269005,0.08045933395624161,0.3179267644882202,0.03198550269007683,-0.19281373918056488,-0.20302824676036835,-0.29663312435150146,0.041404515504837036,0.18894878029823303,-0.12103346735239029,0.10698698461055756,0.045858800411224365,-0.13944269716739655,-0.10910909622907639,0.3665750324726105,-0.2886468172073364,0.04293644428253174,0.046765342354774475,-0.06322736293077469,0.2782118022441864,0.041151341050863266,0.16130276024341583,0.2048071026802063,-0.061816368252038956,0.2576604187488556,-0.3618212044239044,-0.0562426820397377,-0.19895847141742706,0.269031286239624,-0.30439040064811707,-0.016362424939870834,-0.03963174298405647,-0.47949668765068054,-0.07192733138799667,0.026283925399184227,-0.10797428339719772,-0.028860215097665787,0.08719485998153687,0.3093565106391907,0.026961330324411392,-0.00210515595972538,-0.232784241437912,0.20988036692142487,-0.07080691307783127,0.09873836487531662,0.20621652901172638,0.032201509922742844,0.0734168291091919,0.2536172568798065,-0.3070249855518341,-0.10552064329385757,-0.29104918241500854,0.022219408303499222,0.01496671698987484,0.0459400899708271,-0.3148236572742462,0.15030437707901,0.17858046293258667,0.41452091932296753,0.24577172100543976,0.08414606750011444,-0.08403801172971725,-0.24831220507621765,0.02239033207297325,0.18203333020210266,-0.26122021675109863,0.1142548993229866,0.09074661135673523,-0.5710700750350952,-0.0005711917765438557,0.20436124503612518,-0.008253474719822407,-0.016519736498594284,0.2761850357055664,-0.09499240666627884,0.40646782517433167,0.11852884292602539,-0.0034057137090712786,-0.1385820209980011,-0.1805640459060669,0.009150712750852108,-0.058661773800849915,0.1467541754245758,-0.3253699243068695,-0.02978344075381756,0.09090961515903473,-0.2531277537345886,0.2638293206691742,-0.20095326006412506,-0.665276288986206,-0.06105022877454758,-0.2177676558494568,0.05788765102624893,-0.6406697630882263,-0.23432977497577667,-0.02446230873465538,-0.059277426451444626,-0.048628825694322586,-0.06104414910078049,-0.3076254725456238,0.09934506565332413,-0.0870588943362236,-0.24155017733573914,0.0983472615480423,0.005127371288836002,0.08751795440912247,-0.05210641771554947,-0.1295676827430725,-0.18385541439056396,-0.0025394787080585957,0.2694883346557617,-0.17909319698810577,-0.31280291080474854,0.10250519216060638,0.041020773351192474,0.053187690675258636,-0.18840552866458893,0.010711685754358768,-0.011074911803007126,0.2779373824596405,0.012812281027436256,-0.13674640655517578,0.1669331192970276,0.05387948453426361,-0.01673615537583828,-0.2844281792640686,0.19115744531154633,0.05051339790225029,0.03533026948571205,-0.1798073649406433,0.19506268203258514,0.02193721942603588,0.13376528024673462,0.023236166685819626,-0.4820476770401001,0.0034844661131501198,-0.16519927978515625,0.016583099961280823,-0.47878506779670715,-0.09341863542795181,0.16758626699447632,-0.131696879863739,-0.16696599125862122,0.28013643622398376,-0.20271515846252441,0.10092539340257645,-0.00015785350115038455,-0.22762928903102875,-0.19469040632247925,-0.2737948000431061,-0.053299833089113235,0.09558723866939545,0.1072615459561348,0.19190488755702972,-0.06978042423725128,0.06456268578767776,0.10246598720550537,0.14973783493041992,0.18465116620063782,-0.10541245341300964,-0.25603410601615906,0.056806646287441254,-0.029377516359090805,-0.23247312009334564,0.09249132871627808,-0.03278612345457077,-0.031834717839956284,-0.11065227538347244,0.12063340097665787,0.02930041030049324,-0.10503602772951126,-0.2719925045967102,-0.20360985398292542,0.11313546448945999,-0.1728448122739792,-0.08860728144645691,0.09697053581476212,0.19325602054595947,0.1701098382472992,0.025986142456531525,0.05567833036184311,-0.0834900364279747,0.15217258036136627,-0.038329534232616425,0.14946061372756958,-0.12546466290950775,-0.010505679994821548,-0.16518047451972961,-0.05958680808544159,0.0568486712872982,0.06392142921686172,0.05241086706519127,-0.20498709380626678,0.09624399989843369,-0.2800735533237457,-0.029693076387047768,0.3932901918888092,0.08882447332143784,0.14700430631637573,0.0762367993593216,-0.09440446645021439,-0.22252674400806427,0.004468194674700499,-0.019176194444298744,-0.13642631471157074,0.004030158743262291,-0.19154374301433563,-0.23616565763950348,0.06872228533029556,-0.03888062387704849,0.11270381510257721,0.00425760168582201,-0.2763960063457489,-0.12934339046478271,0.23715153336524963,-0.5598616600036621,0.06964509934186935,-0.4434662163257599,0.03743845596909523,-0.04727945476770401,0.10102705657482147,0.22094744443893433,-0.15303927659988403,-0.1340944916009903,0.007256577722728252,-0.007709374651312828,0.20627610385417938,0.03492162749171257,0.05328721925616264,-0.16085056960582733,0.19622719287872314,-0.08662296831607819,0.008623982779681683,-0.09878470748662949,-0.22587423026561737,0.0739092230796814,0.12088104337453842,0.122858926653862,0.04540277272462845,-0.20549942553043365,0.15406204760074615,-0.3993487060070038,-0.02493937686085701,0.23152151703834534,-0.06686501950025558,-0.14689616858959198,0.10778675228357315,0.11037663370370865,-0.4540972411632538,-0.1494043916463852,0.16976182162761688,0.05181020498275757,0.0947275161743164,-0.06415240466594696,0.23118378221988678,0.002715073525905609,-0.12586498260498047,0.10180453956127167,-0.34421831369400024,-0.004376274533569813,0.12327327579259872,-0.17075292766094208,-0.2811618149280548,0.06573600322008133,0.1079612672328949,-0.3375040590763092,-0.07471293210983276,-0.07532449066638947,-0.1938740760087967,-0.02597185969352722,0.09683164209127426,-0.20057663321495056,-0.2419663518667221,-0.0022885005455464125,0.0399431437253952,0.06520931422710419,0.024616757407784462,-0.2837243378162384,-0.04554499685764313,-0.023641176521778107,0.14334741234779358,-0.05005428567528725,0.058596715331077576,-0.09871579706668854,-0.21502286195755005,0.22519256174564362,-0.056845150887966156,-0.14418037235736847,-0.17448796331882477,-0.04432576522231102,0.09832148998975754,0.03826351836323738,-0.08725579082965851,0.007603631354868412,0.17010682821273804,-0.06238803640007973,-0.0970449149608612,-0.04868461936712265,0.057742681354284286,0.18965287506580353,0.16250279545783997,-0.04220980033278465,-0.04135846719145775,-0.2874368131160736,-0.02785029448568821,0.16649985313415527,0.0721350759267807,-0.0578501932322979,0.061663854867219925,0.041561949998140335,0.22562597692012787,-0.31037214398384094,-0.2947101593017578,0.010353418998420238,-0.004267880693078041,-0.08873993158340454,-0.042294252663850784,-0.39603546261787415,-0.01418391615152359,0.0668291375041008,0.09324322640895844,-0.17112328112125397,0.43817129731178284,-0.00580576853826642,0.32374483346939087,-0.09214479476213455,-0.1314389854669571,0.1465342789888382,0.10491901636123657,0.007803624961525202,0.15895642340183258,-0.4699627757072449,-0.39033663272857666,0.29051852226257324,0.1119099110364914,-0.040149904787540436,-0.13035890460014343,0.00448998436331749,-0.09686541557312012,0.13478465378284454,0.002731932792812586,-0.25808006525039673,0.07199065387248993,-0.4678595960140228,0.3153129518032074,-0.1300022006034851,0.10412760823965073,0.10707978159189224,0.005101701244711876,0.4437040388584137,0.31853821873664856,0.20059676468372345,-0.1378699094057083,-0.014885757118463516,0.0022653767373412848,0.24251875281333923,-0.12849311530590057,-0.16443808376789093,0.2570134699344635,0.046419285237789154,-0.0764341950416565,-0.16877660155296326,0.230721116065979,0.39785411953926086,0.04817245900630951,-0.11513437330722809,-0.12666136026382446,-0.09754296392202377,0.23949018120765686,-0.036895833909511566,-0.059825167059898376,0.011051317676901817,0.3143016993999481,-0.07863996177911758,-0.1918734312057495,-0.11027033627033234,-0.1614469289779663,0.0276967603713274,-0.29291433095932007,0.12791980803012848,-0.058120761066675186,-0.242848739027977,-6.258576468098909e-05,-0.07565038651227951,0.11285212635993958,-0.06333398818969727,-0.435791939496994,0.09435439854860306,-0.1758326143026352,0.12127255648374557,0.09234245866537094,-0.08176985383033752,-0.2685054838657379,-0.10855457186698914,0.4493336081504822,-0.018044663593173027,-0.09407328814268112,0.0882093533873558,0.1476709246635437,-0.12248506397008896,0.13298334181308746,-0.005073397420346737,0.15721507370471954,0.21371908485889435,-0.07965891808271408,0.025876780971884727,0.1849842071533203,-0.31717047095298767,0.10404124855995178,-0.026118239387869835,0.09739626944065094,-0.15302889049053192,-0.1804257035255432,0.21158252656459808,-0.06685081124305725,0.1677311360836029,-0.1376042366027832,-0.0355447456240654,-0.010949110612273216,0.08081389218568802,-0.09993720054626465,0.12534484267234802,0.013681852258741856,0.07171546667814255,-0.0468570850789547,-0.04312580078840256,0.04949267581105232,-0.01821284554898739,0.10444381833076477,-0.09632276743650436,-0.16138702630996704,-0.10135505348443985,-0.10304725915193558,-0.04719674959778786,0.02371009811758995,-0.18341296911239624,-0.04112348333001137,0.05367790907621384,0.11670690029859543,-0.19800490140914917,0.13936299085617065,-0.027604250237345695,-0.09656313061714172,0.12706358730793,0.06507129967212677,0.09676690399646759,0.031590014696121216,-0.12596406042575836,0.015624511055648327,-0.17298109829425812,0.07028177380561829,-0.054852306842803955,0.11845340579748154,0.012351816520094872,0.07148359715938568,0.10605506598949432,-0.18132394552230835,-0.06951500475406647,-0.11534685641527176,0.21244613826274872,-0.254472017288208,-0.12458543479442596,0.4189101755619049,-0.21931302547454834,0.1343711018562317,0.027908239513635635,-0.1266714334487915,0.3368326723575592,-0.12622620165348053,-0.008557821623980999,0.19075457751750946,-0.314698725938797,0.30742427706718445,-0.37363487482070923,0.06937708705663681,-0.1647358387708664,0.019120700657367706,0.00945323333144188,0.26996317505836487,-0.002496859058737755,0.28120264410972595,-0.02341938577592373,0.1635240912437439,-0.0352388434112072,0.1037428081035614,0.07228774577379227,-0.001369429286569357,-0.007052701897919178,0.05957755446434021,0.43570005893707275,-0.042607154697179794,-0.2562907338142395,0.17049404978752136,-0.06937725096940994,-0.037999045103788376,-0.10230672359466553,-0.044185031205415726,-0.3169541656970978,0.14271710813045502,0.08151675015687943,0.11885891854763031,0.03310983255505562,0.1993076354265213,-0.10096766799688339,-0.046683117747306824,0.08855821192264557,0.07061068713665009,-0.14165349304676056,0.09992264956235886,-0.2379845678806305,0.07069730013608932,0.10498546063899994,0.034582749009132385,-0.0015301848761737347,0.11019923537969589,-0.022937502712011337,0.3322926163673401,0.13426141440868378,0.04608842357993126,0.062337808310985565,0.05199095606803894,-0.37874406576156616,0.2901199460029602,0.019515538588166237,-0.2180819809436798,0.10847421735525131,-0.06030045449733734,-0.08672462403774261,-0.11148758232593536,0.04658433794975281,0.17546822130680084,-0.12113190442323685,-0.06295213848352432,0.2326095998287201,-0.13956765830516815,0.5606058239936829,-0.017123887315392494,-0.2533167004585266,-0.051467884331941605,-0.07174328714609146,0.05858449265360832,-0.040170829743146896,-0.11604175716638565,-0.0935400053858757,-0.1953311562538147,0.10772509127855301,-0.10174087435007095,-0.009901409968733788,-0.07764206826686859,0.20141926407814026,0.18799613416194916,0.11543259769678116,0.04246199131011963,0.4262450337409973,-0.022969279438257217,-0.12335583567619324,-0.09415549039840698,0.035430025309324265,-0.11320901662111282,0.16117869317531586,0.1944512277841568,0.19816914200782776,-0.022306479513645172,-0.0697791799902916,0.20488816499710083,0.12147745490074158,0.1335984617471695,-0.19769273698329926,0.3336593210697174,0.11965804547071457,-0.14024624228477478,-0.0045719933696091175,-0.022158164530992508,0.16609404981136322,-0.07326199859380722,0.2601047158241272,0.1399458944797516,0.0761941447854042,0.26112833619117737,0.11278499662876129,0.2241547405719757,0.1242595762014389,0.04825650528073311,-0.14035095274448395,-0.05805111676454544,-0.06917957216501236,0.23889827728271484,0.19538168609142303,0.37402278184890747,0.07846537977457047,-0.369081974029541,-0.4007438123226166,0.1113293245434761,-0.02547650784254074,-0.15403813123703003,-0.1959378719329834,0.10174732655286789,0.20857611298561096,0.1190859004855156,0.15224604308605194,0.27482300996780396,-0.16283570230007172,0.08506795018911362,0.07624176889657974,-0.24772648513317108,0.055040568113327026,-0.3740652799606323,-0.02159770205616951,-0.18207994103431702,0.1345474123954773,-0.13492192327976227,-0.2510124742984772,0.023333463817834854,-0.13065876066684723,0.081118643283844,0.12208808958530426,-0.009463818743824959,0.13132494688034058,0.06892415881156921,-0.205740287899971,0.12697523832321167,-0.013181318528950214,0.2683849036693573,-0.055495310574769974,0.2385721653699875,-0.1501385122537613,-0.008912157267332077,0.23503965139389038,-0.07923766225576401,0.008066962473094463,-0.11978653073310852,-0.003116750158369541,-0.42784619331359863,0.34536126255989075,-0.019828572869300842,0.08178678154945374,0.058607615530490875,-0.3142807185649872,-0.06720702350139618,-0.09611280262470245,0.016269952058792114,0.34870147705078125,-0.11789720505475998,0.06839609891176224,0.08790451288223267,-0.24220560491085052,-0.049608100205659866,-0.05274312198162079,-0.0003120388137176633,0.2259887009859085,-0.018355492502450943