0.07432852685451508,-0.06500488519668579,0.019731981679797173,-0.03164541348814964,0.049864161759614944,0.04746565222740173,-0.06268317252397537,0.04497290775179863,-0.05216052010655403,-0.061761725693941116,0.0263696126639843,-0.039822615683078766,-0.06870739161968231,-0.015007779002189636,0.003727390430867672,-0.07971381396055222,-0.061279214918613434,0.047244708985090256,-0.03808347508311272,-0.03344806283712387,0.07216648757457733,0.07477196305990219,0.0629585012793541,0.058481790125370026,0.035750649869441986,-0.03879077732563019,-0.016048049554228783,-0.074237160384655,-0.009412645362317562,0.021401401609182358,-0.022872289642691612,0.06630860269069672,-0.010107176378369331,-0.026371361687779427,-0.0013930114218965173,-0.01988043636083603,-0.05324498564004898,-0.07041610777378082,-0.06099652126431465,-0.06074482575058937,-0.0069606914184987545,0.07159741222858429,-0.07825537025928497,-0.03310300409793854,-0.006224723532795906,-0.07154574990272522,-0.04059464484453201,0.0003723746631294489,-0.0004196185327600688,0.07437112927436829,-0.00891849771142006,-0.041675519198179245,-0.01440585870295763,-0.008705612272024155,-0.05802949145436287,0.057333994656801224,-0.024412425234913826,0.056605514138936996,0.04555711895227432,0.05215100944042206,0.012688796035945415,0.05451510474085808,0.021538998931646347,-0.028681868687272072