0.06024693325161934,-0.07371904700994492,0.01009492389857769,-0.11936585605144501,0.06825471669435501,0.10584830492734909,0.03090776316821575,0.027503034099936485,-0.050243835896253586,-0.034669604152441025,-0.021433454006910324,0.06686704605817795,0.07484178990125656,0.008826153352856636,0.030801665037870407,-0.07488846778869629,-0.07437891513109207,0.03200002759695053,-0.013193811289966106,0.03017224743962288,0.06025982275605202,0.022699126973748207,0.0446847528219223,-0.01946812868118286,-0.04321162775158882,0.11190903186798096,0.0038971686735749245,-0.12176669389009476,0.010740633122622967,-0.027255935594439507,-0.04735814407467842,0.01989390328526497,-0.049543432891368866,0.007738916203379631,0.049358196556568146,-0.03634883835911751,-0.04815385490655899,0.14019587635993958,0.019519038498401642,-0.048758361488580704,0.006891853176057339,0.006819272413849831,-0.12592536211013794,0.092585988342762,-0.17900024354457855,0.0019841529428958893,0.0006454435642808676,-0.02198215201497078,-0.06926817446947098,0.02349177561700344,-0.0572095550596714,-0.054901111871004105,-0.03574955463409424,0.04946760833263397,-0.007431375794112682,-0.02249167114496231,0.007181987632066011,0.12050671875476837,-0.09272709488868713,-0.06433340162038803,0.02582872286438942,-0.028030211105942726,0.11051127314567566,0.01030484214425087,0.035414088517427444,-0.07176367938518524,0.014318623580038548,0.06336739659309387,0.020915498957037926,0.013352674432098866,0.033042993396520615,-0.0023160623386502266,-0.0051552895456552505,-0.0813569724559784,-0.07734737545251846,-0.02996273897588253,-0.10378606617450714,-0.1145593523979187,0.07070817798376083,0.0783563107252121,-0.03231840580701828,0.02936927229166031,0.011838971637189388,-0.004592636600136757,0.009256750345230103,-0.13094709813594818,0.1190759465098381,0.04651811346411705,0.03365987166762352,-0.012037815526127815,0.05848659947514534,-0.04031388834118843,-0.0018124866764992476,-0.00016613490879535675,-0.06566637754440308,-0.10801748931407928,-0.004890916869044304,0.09044996649026871,-0.02517835609614849,-0.026055479422211647,0.006600405555218458,0.033507589250802994,-0.037408627569675446,0.04235055297613144,-0.03587266057729721,-0.03011840581893921,-0.01723615825176239,0.04780217260122299,-0.0024040499702095985,-0.03641761094331741,0.0313800573348999,0.02518005669116974,-0.07654429227113724,0.01783580705523491,0.021569309756159782,0.04144924879074097,-0.064387246966362,-0.1029599979519844,-0.012444163672626019,0.02630048617720604,0.023543206974864006,-0.03332647308707237,-0.03543464466929436,0.02899748645722866,0.03276248648762703,-0.050531696528196335,-0.006822703406214714,0.038212720304727554