-0.004438271280378103,-0.05027211457490921,0.00017324372311122715,0.028805149719119072,0.048022352159023285,-0.031666457653045654,0.04705079272389412,-0.08364678174257278,-0.0068693929351866245,-0.03213731199502945,-0.022752800956368446,0.007678392808884382,0.05326109379529953,0.023146910592913628,-0.045805372297763824,-0.017227839678525925,0.027142835780978203,0.024614695459604263,-0.018671032041311264,0.012580571696162224,-0.03216623142361641,0.024492347612977028,-0.01694396324455738,0.030871113762259483,-0.007797369733452797,0.0031796684488654137,-0.049299195408821106,0.019321411848068237,0.029027773067355156,0.04160844907164574,0.029773594811558723,-0.02048232965171337,-0.024904537945985794,0.014408844523131847,-0.03436015918850899,-0.012309749610722065,0.007122608833014965,-0.046944569796323776,0.004177974537014961,-0.01620037667453289,-0.012330586090683937,0.014908965677022934,0.018615758046507835,-0.0071486057713627815,0.006139666307717562,-0.015682516619563103,0.000873212527949363,0.02725893259048462,0.05829722434282303,0.021943412721157074,0.009158369153738022,-0.013650422915816307,-0.011115209199488163,0.011282196268439293,-0.02991572581231594,-0.05525117367506027,-0.0888604000210762,-0.024640291929244995,-0.020911669358611107,-0.018483880907297134,-0.013609468005597591,-0.03133576363325119,-0.022363875061273575,-0.015119903720915318,0.07239479571580887,0.03750687092542648,-0.0032277745194733143,-0.012982833199203014,0.013498364016413689,-0.005620345938950777,-0.04946732148528099,0.019724735990166664,0.009689968079328537,0.005255577620118856,0.018543915823101997,-0.004025492817163467,-0.028568143025040627,-0.044508133083581924,-0.00824818480759859,-0.014017494395375252,-0.00046062571345828474,0.0034077337477356195,-0.02015656605362892,0.006136496551334858,0.014912804588675499,0.006644523702561855,-0.027338124811649323,-0.023145977407693863,0.03387690335512161,0.011252317577600479,-0.01819535717368126,-0.007647935301065445,0.0034134353045374155,-0.028177674859762192,-0.03519698604941368,0.01962733082473278,0.03231750428676605,0.017938213422894478,-0.03794731944799423,0.03365118429064751,-0.13377563655376434,0.021054575219750404,-0.03978590667247772,0.02822428196668625,-0.0605219304561615,-0.015729939565062523,0.0011072356719523668,0.003872102126479149,-0.013399711810052395,-0.0498456135392189,0.024688050150871277,0.022296644747257233,-0.03189069777727127,-0.027183013036847115,0.0019172795582562685,0.0319637805223465,-0.016271090134978294,0.028012430295348167,-0.058338701725006104,0.039365753531455994,0.049675311893224716,0.023267274722456932,0.01905427686870098,0.057562120258808136,-0.019947201013565063,-0.03809530287981033,0.024948541074991226,-0.027168894186615944,0.014447532594203949,-0.010813521221280098,0.032389815896749496,0.019128715619444847,-0.022883962839841843,0.019402427598834038,-0.028343582525849342,0.0037317248061299324,-0.0699700340628624,0.04909341409802437,0.041081272065639496,-0.0048946659080684185,-0.01797683723270893,-0.0338776521384716,0.009479128755629063,-0.002926250221207738,-0.05560162663459778,0.024775171652436256,-0.016866033896803856,-0.007199898362159729,0.002027149312198162,0.03790626674890518,0.0139313954859972,-0.04687325656414032,0.02324892207980156,-0.01697959192097187,0.006577424705028534,0.0430537685751915,0.023533400148153305,0.004334601573646069,0.016249176114797592,0.016127977520227432,-0.004016917664557695,-0.02055399864912033,-0.05650966241955757,0.026967233046889305,0.0027407407760620117,-0.015839306637644768,0.026934949681162834,-0.007106862962245941,-0.017030565068125725,-0.00219320273026824,-0.023049011826515198,0.04214731231331825,-0.0037670484744012356,0.0251730028539896,-0.0065979850478470325,0.023217247799038887,0.035724904388189316,0.03617943450808525,-0.02248251438140869,0.06278522312641144,0.017018543556332588,0.0616273432970047,0.0009926359634846449,-0.02791024185717106,-0.030838359147310257,0.031111840158700943,0.027555974200367928,0.005363010801374912,-0.04355786740779877,-0.046633098274469376,-0.037500761449337006,0.040229637175798416,0.020868126302957535,-0.09646206349134445,-0.006873250473290682,0.0006585012306459248,-0.00043417460983619094,-0.013431999832391739,0.0022921673953533173,0.026814784854650497,-0.012213689275085926,-0.03708391636610031,0.004675255157053471,0.043292105197906494,0.007021947298198938,0.0025401292368769646,-0.015263788402080536,0.01150584314018488,0.04918516427278519,0.01191575825214386,0.03164871782064438,-0.0056523289531469345,0.027637194842100143,0.009280080907046795,-0.0309507604688406,0.0075623043812811375,0.04185201972723007,0.007476472761482,-0.019652288407087326,0.007267352659255266,-0.03507930785417557,-0.09577526897192001,2.6256893761456013e-05,0.040197525173425674,0.01987958885729313,-0.015423485077917576,0.08118071407079697,-0.024998700246214867,-0.061734139919281006,-0.056610338389873505,0.04077719897031784,0.03309319540858269,-0.004103390034288168,0.03639525920152664,-0.03917262703180313,-0.07138434797525406,0.021240826696157455,-0.013474495150148869,0.028379155322909355,0.012618801556527615,-0.030593005940318108,0.0049200644716620445,-0.06298953294754028,-0.0003146146482322365,-0.07705030590295792,0.022646380588412285,0.018955308943986893,0.00025009067030623555,0.01917261816561222,-0.011349436827003956,-0.004922930151224136,-0.01820443756878376,2.1085957996547222e-05,-0.033966418355703354,0.04299899563193321,0.04098345711827278,-0.0010398082667961717,-0.04220819100737572,-0.014580905437469482,-0.02216881886124611,0.05229001119732857,-0.011346244253218174,-0.009832760319113731,0.07157284766435623,-0.029751965776085854,-0.013051903806626797,0.03169753775000572,0.017520207911729813,0.034389808773994446,-0.004139174707233906,0.0054624686017632484,0.054960593581199646,-0.026468398049473763,-0.010828057304024696,-0.001543049467727542,0.10038644075393677,0.014484129846096039,-0.040445663034915924,0.051557235419750214,-0.0442257858812809,-0.04520248621702194,-0.04404834285378456,-0.003734700381755829,-0.02782386913895607,-0.04035358875989914,0.009070608764886856,0.003479280509054661,0.02779950574040413,-0.007227621506899595,-0.02099592424929142,0.010510864667594433,0.004467017482966185,0.017179643735289574,0.0022148515563458204,0.008133931085467339,0.04887405037879944,0.021143564954400063,-0.0006085842614993453,0.0017345049418509007,0.017642322927713394,0.08831289410591125,0.013550546020269394,-0.026207229122519493,-0.023942535743117332,-0.056554608047008514,0.0215214304625988,0.026673298329114914,0.11213576048612595,0.05157087370753288,-0.029640313237905502,-0.023792853578925133,-0.015514637343585491,-0.06327313184738159,-0.066741444170475,-0.005121533293277025,0.02289295382797718,-0.016926707699894905,-0.011801047250628471,0.028014758601784706,0.011677488684654236,-0.019443899393081665,-0.0014491050969809294,0.005579156335443258,0.011308187618851662,-0.01839696243405342,0.021201632916927338,-0.013069081120193005,0.02223866991698742,-0.006459076888859272,0.05076170712709427,0.014634515158832073,0.07486894726753235,0.013706311583518982,0.058737944811582565,-0.026271553710103035,-0.010207373648881912,-0.009079919196665287,-0.024690380319952965,-0.04535370320081711,-0.006185600534081459,0.042445339262485504,-0.043322429060935974,4.303315654397011e-05,0.046845100820064545,-0.025595644488930702,0.02298501878976822,0.009650005027651787,-0.06373023241758347,0.018562937155365944,0.03484274074435234,-0.01618857868015766,0.02320101112127304,0.010857400484383106,-0.0032033915631473064,-0.019009847193956375,0.0008030958706513047,0.013761037029325962,0.0019741596188396215,-0.006781172938644886,-0.005062937270849943,-0.019896531477570534,0.0107797896489501,-0.014171712100505829,0.0003119120665360242,-0.02132038027048111,0.01946970261633396,0.040607258677482605,-0.002335578203201294,-0.018195191398262978,-0.009196700528264046,0.0019047388341277838,-0.03454495593905449,-0.010917691513895988,-0.05545136332511902,0.0047077601775527,0.01861909031867981,0.03590044379234314,-0.007585551124066114,-0.005038917995989323,-0.010824636556208134,-0.019695157185196877,-0.039240073412656784,-0.003875183640047908,-0.015230280347168446,-0.01377335749566555,0.0019386778585612774,0.011110294610261917,0.021495962515473366,-0.017839761450886726,0.042391881346702576,-0.006640655919909477,-0.027896150946617126,-0.05065269023180008,0.014939090237021446,0.032414693385362625,0.043561771512031555,-0.03421071171760559,-0.007282329257577658,-0.007590492255985737,0.0029531698673963547,-0.01760321669280529,-0.0004634778597392142,-0.004798794165253639,-0.005474812816828489,-0.026557575911283493,0.019039617851376534,-0.0240361075848341,-0.017822135239839554,0.005731834564357996,0.030354775488376617,-0.06019527092576027,0.021746879443526268,0.0050581772811710835,0.02194901742041111,-0.026893144473433495,0.04569566994905472,-0.04987441375851631,0.0073512643575668335,0.06552516669034958,0.004138195887207985,-0.013431550934910774,-0.02203494869172573,-0.022276263684034348,-0.00019568728748708963,-0.03790479898452759,0.0011436111526563764,-0.04678180068731308,-0.013452647253870964,0.023874228820204735,-0.03109351359307766,-0.013879198580980301,0.005624796263873577,-0.003049094695597887,0.01312985923141241,-0.021239200606942177,-0.01709732785820961,-0.042958565056324005,0.02924775891005993,0.023722868412733078,-0.02256515435874462,-0.023093627765774727,0.004389988258481026,0.0271738450974226,0.11226867884397507,0.0352078340947628,-0.02196936495602131,-0.06699199974536896,0.01601269654929638,0.0326542891561985,0.02738398127257824,0.034262608736753464,-0.020798925310373306,0.00019027118105441332,0.027492042630910873,-0.0008513197535648942,0.007220760453492403,-0.00023928657174110413,-0.031838562339544296,-0.0033127593342214823,-0.0007934332825243473,-0.005394717678427696,-0.010985402390360832,0.009480014443397522,-0.04161299392580986,-0.03567873314023018,0.003082853276282549,0.023383915424346924,-0.0015505917835980654,-0.040728237479925156,0.04805497080087662,0.030428629368543625,-0.01974443346261978,0.04149853065609932,-0.07419821619987488,-0.045977119356393814,0.022976813837885857,0.018683671951293945,-0.01839659921824932,0.023062601685523987,-0.049277953803539276,0.020679518580436707,0.000780914502684027,-0.023841682821512222,-0.027188029140233994,-0.016778454184532166,-0.016990164294838905,-0.024948805570602417,0.029963774606585503,0.04297375679016113,0.030981875956058502,-0.014588204212486744,-0.018179627135396004,0.03598139435052872,-0.033549461513757706,0.010488220490515232,0.007711770944297314,0.07445305585861206,0.01219478901475668,-0.003857013303786516,0.03734930604696274,0.027619879692792892,-0.018305782228708267,0.004072759300470352,-0.041305139660835266,0.021605202928185463,-0.015261390246450901,-0.036586128175258636,0.06936152279376984,0.008354131132364273,-0.04495738074183464,0.03000151924788952,0.01717238314449787,0.03583047538995743,0.01980472356081009,0.01625688187777996,-0.0202685184776783,-0.05976555496454239,-2.840120578184724e-05,-0.003427854273468256,-0.041314709931612015,-0.045590583235025406,0.019922183826565742,0.001706562703475356,-0.006016635801643133,0.020529136061668396,-0.023323114961385727,-0.015246223658323288,-0.04309915006160736,0.010065292939543724,0.0014303148491308093,0.030659334734082222,0.00209907628595829,0.02443661540746689,-0.03353020176291466,0.021562635898590088,-0.031677328050136566,0.06748350709676743,-0.02369389869272709,-0.009804433211684227,-0.003475205274298787,-0.001948849530890584,-0.01665598899126053,0.08383297920227051,-0.015064244158565998,0.016902267932891846,-0.05445227771997452,-0.018218595534563065,0.0007354298140853643,-0.033337630331516266,-0.013160229660570621,-0.05154253914952278,-0.020508520305156708,0.09168991446495056,-0.027710719034075737,-0.012658247724175453,-0.023557117208838463,-0.001682693837210536,-0.0190216526389122,0.003427037736400962,0.03439983353018761,0.029195498675107956,-0.012980212457478046,0.03301575407385826,0.014811164699494839,0.03664189204573631,0.0008696200093254447,0.030092956498265266,-0.03585013374686241,-0.004230254329741001,0.031518612056970596,0.007131924852728844,0.002559688873589039,0.04423346742987633,-0.01245816145092249,-0.07654131203889847,-0.00923927128314972,-0.01923045516014099,-0.0020266210194677114,0.03427090868353844,-0.0014995690435171127,-0.04029831662774086,0.00479025999084115,-0.037138499319553375,0.010467101819813251,0.008126767352223396,0.003386477706953883,0.05722770094871521,-0.031003352254629135,0.03208044916391373,-0.0006043487228453159,-0.033628277480602264,0.002198226284235716,-0.02855154313147068,-0.029278388246893883,0.002362428465858102,-0.060124512761831284,-0.014743709936738014,-0.0300236027687788,0.03146076947450638,0.014198578894138336,-0.017062818631529808,-0.012841315940022469,-0.020351631566882133,0.03991775959730148,-0.07366690784692764,-0.013009317219257355,0.004894260782748461,-0.049599409103393555,0.01111416146159172,0.0003690113371703774,-0.057444874197244644,0.01910223439335823,0.016450561583042145,0.0013180606765672565,0.01893502287566662,-0.04992130398750305,-0.08870359510183334,-0.031249336898326874,-0.0370846651494503,-0.003572764340788126,0.013807407580316067,-0.017672458663582802,0.0012352213962003589,-0.026038523763418198,0.014052418060600758,0.019072337076067924,0.030926313251256943,0.0026011914014816284,-0.012914890423417091,-0.05890493094921112,0.0005282644997350872,0.03035866469144821,-0.03813924640417099,-0.031338952481746674,-0.036270011216402054,0.005362543277442455,-0.056271743029356,-0.002640500897541642,-0.00017668954387772828,0.03819828853011131,-0.01693006232380867,0.0392347015440464,0.021690329536795616,-0.008198579773306847,-0.01837807707488537,0.030998488888144493,0.033954836428165436,-0.001525887637399137,0.05047789216041565,0.011673434637486935,-0.019312860444188118,0.005933389067649841,-0.00047023926163092256,-0.028065087273716927,-0.042324796319007874,0.011253269389271736,-0.015607518143951893,0.054195404052734375,0.02591378428041935,-0.03212503716349602,0.015489512123167515,0.006115773227065802,-0.015326814725995064,0.005118181463330984,-0.031236443668603897,0.00563233345746994,0.046277038753032684,0.02883804962038994,-0.011882247403264046,-0.03984171524643898,0.04736847057938576,-0.00996194314211607,0.017562584951519966,0.07750406116247177,-0.022608298808336258,-0.008247973397374153,-0.0201968252658844,0.014131753705441952,-0.0008791021537035704,0.08734817057847977,0.09877815842628479,0.02773996815085411,-0.019426286220550537,-0.04597029462456703,-0.00448352238163352,0.045131079852581024,0.008546718396246433,0.0014821883523836732,-0.03868156671524048,0.007111452054232359,0.004311800468713045,-0.003175814403221011,-0.0052843717858195305,-0.049647342413663864,-0.015409878455102444,0.03600964695215225,0.04008115828037262,-0.07152441143989563,0.004209261853247881,0.021659137681126595,-0.05838296562433243,-0.050874341279268265,0.005269876681268215,0.019730152562260628,-0.05731920897960663,-0.04193142056465149,-0.01702875643968582,0.0352570004761219,0.07031287997961044,0.005326785147190094,-0.022742273285984993,0.031752340495586395,0.10234087705612183,-0.022459620609879494,-0.026187838986516,-0.04653831943869591,0.009460647590458393,-0.01957976073026657,-0.006428002845495939,0.021038301289081573,0.03792326897382736,-0.03062431514263153,0.009855255484580994,-0.00449704471975565,0.017071012407541275,-0.037929922342300415,-0.03408825397491455,0.03141755983233452,0.009410320781171322,-0.026822170242667198,-0.026451358571648598,-0.04924611747264862,-0.04206084832549095,-0.016080239787697792,-0.016977544873952866,0.002444984158501029,0.04538577049970627,-0.009472339414060116,-0.001354082371108234,-0.0022678389213979244,-0.027413981035351753,0.001648547244258225,-0.029317259788513184,-0.024412427097558975,0.030914543196558952,0.010122227482497692,0.004802801180630922,0.051211465150117874,0.016987157985568047,-0.04370234161615372,0.08993403613567352,-0.06781742721796036,0.01710883527994156,0.011019395664334297,0.03995438292622566,-0.0009662186494097114,-0.0054688481613993645,0.022606709972023964,0.05616846680641174,-0.01742221973836422,-0.010679529048502445,-0.054704055190086365,0.007865551859140396,-0.011082837358117104,-0.02716418355703354,-0.019764570519328117,0.013148306868970394,-0.0031178868375718594,0.027129417285323143,0.0049291737377643585,0.030339360237121582,0.006261854432523251,0.0037808844354003668,-0.023972347378730774,0.03248824551701546,0.019450582563877106,-0.014713842421770096,0.016685176640748978,0.08045285940170288,-0.04343397170305252,-0.0360092893242836,0.01854705810546875,-0.030653130263090134,0.004804919473826885,-0.034965068101882935,-0.012564451433718204,0.014079119078814983,-0.07007914781570435,-0.0024279719218611717,0.01606144569814205,-0.0369328148663044,0.00583063205704093,0.08087608963251114,0.014841794036328793,-0.03302108868956566,0.0173530001193285,-0.019720949232578278,-0.05819837749004364,-0.041537899523973465,-0.03601306676864624,0.015597988851368427,0.045285578817129135,-0.026416966691613197,0.01699550449848175,-0.029103318229317665,-0.0032916453201323748,0.03425158932805061,0.006689512636512518,0.023518165573477745,0.0040826876647770405,-0.049235809594392776,-0.046904850751161575,-0.01470183115452528,0.02915693074464798,0.013356637209653854,-0.013383314944803715,0.008015884086489677,0.008375516161322594,-0.013611582107841969,-0.029915690422058105,0.038854002952575684,-0.023093311116099358,-0.035860415548086166,0.027314282953739166,0.024579375982284546,-0.016131022945046425,-0.012827472761273384,-0.005717277992516756,0.02924572117626667,-0.023247618228197098,0.0025538995396345854,-0.03130784630775452,0.04164591804146767,-0.013175610452890396,0.028912248089909554,0.013834320940077305,-0.04982989653944969,0.03589253127574921,-0.023502932861447334,0.017560644075274467,0.004217780195176601,-0.025739405304193497,-0.03391825780272484,0.003942026291042566,-0.02931951731443405,0.00509562436491251,0.055099956691265106,0.03833138942718506,-0.013345576822757721,-0.03349916264414787,0.037629008293151855,-0.05099674314260483,0.012877065688371658,-0.013962135650217533,0.05858693644404411,0.037117063999176025,-0.059971705079078674,-0.015647681429982185,0.04358766973018646,-0.022201290354132652,-0.03246068209409714,-0.015447047539055347,-0.02138916589319706,0.007488241884857416,0.00372062879614532,-0.026595769450068474,0.016142290085554123,-0.006667868234217167,-0.009226249530911446,0.02009490504860878,0.016013232991099358,-0.0022147204726934433,-0.017103377729654312,-0.014685947448015213,-0.004474815912544727,-0.014607050456106663,0.003345599863678217,-0.027292398735880852,-0.03255690261721611,-0.009794249199330807,0.015399457886815071,0.004463473334908485,0.016285600140690804,-0.021563347429037094,-0.023280339315533638,-0.0013101038057357073,0.012072039768099785,0.019912198185920715,0.0014233315596356988,0.017584484070539474,-0.03714834526181221,0.06012436002492905,0.0007822609040886164,-0.025776643306016922,-0.02520648203790188,-0.034698236733675,-0.006716220639646053,0.02336331456899643,-0.0015614971052855253,-0.03108844719827175,-0.04791249707341194,-0.025377362966537476,0.029604261741042137,0.028309699147939682,0.011456225998699665,-0.0054970006458461285,0.003415625775232911,-0.014007572084665298,0.027967648580670357,0.011283501982688904,-0.032254599034786224,-0.02199402265250683,0.015307399444282055,0.017920153215527534,-0.029256965965032578,-0.024662842974066734,-0.018200712278485298,-0.0060704732313752174,-0.00963645614683628,0.01100245863199234,0.033154331147670746,-0.02158040553331375,0.008506516925990582,-0.011755086481571198,0.009835289791226387,0.01849847473204136,-0.002151433378458023,-0.025819171220064163,-0.021612877026200294,0.0032703951001167297,-0.0022897820454090834,-0.01501793134957552,0.020190902054309845,0.016278211027383804,0.003125524614006281,-0.014395833015441895,-0.04948420822620392,-0.010187314823269844,0.01211515162140131,0.0027131277602165937,0.010634141974151134,0.038418494164943695,-0.03013697639107704,0.028255458921194077,0.021061304956674576,-0.0020766914822161198,-0.023156309500336647,0.01129517238587141,0.004799376707524061,0.024059850722551346,0.07192918658256531,0.028040681034326553,-0.004011461045593023,-0.0531030036509037,-0.02034597285091877,-0.025847025215625763,0.021086452528834343,-0.009959234856069088,0.02512192539870739,0.0020252298563718796,0.02805376425385475,0.004941416904330254,0.024046985432505608,-0.029063018038868904,0.0064105987548828125,0.004489430692046881,0.05193302407860756,-0.020002106204628944,0.05597678944468498,0.01611711084842682,0.02213183417916298,0.0265046376734972,-0.014803683385252953,0.029058706015348434,0.015553954057395458,0.011976704001426697,-0.001551208202727139,0.01295219175517559,-0.023995880037546158,0.0362306572496891,0.01002826914191246,0.048199281096458435,-0.013763918541371822,0.03515978902578354,-0.014501766301691532,0.020699573680758476,0.012836143374443054,0.013082747347652912,-0.02138403058052063,-0.025504715740680695,-0.016969390213489532,-0.03248830884695053,0.024306129664182663,-0.014499818906188011,-0.008718582801520824,-0.033322349190711975,0.010979320853948593,0.011719806119799614,0.0326300747692585,0.011183377355337143,0.021793382242321968,-0.012621989473700523,-0.028765132650732994,-0.016416853293776512,-0.009531466290354729,0.02129874750971794,0.02434997260570526,-0.02308397926390171,-0.017935214564204216,-0.02473430708050728,-0.010082157328724861,0.016341064125299454,0.04064856469631195,0.023920515552163124,-0.029810262843966484,0.011974907480180264,0.053571660071611404,-0.012163889594376087,-0.018767479807138443,-0.011520671658217907,0.031456563621759415,-0.028119321912527084,-0.002497043926268816,0.013528362847864628,0.025914138182997704,-0.004425699822604656,0.008556883782148361,0.008675622753798962,-0.01434387918561697,-6.186308746691793e-05,0.021583711728453636,0.030235759913921356,0.0006871566874906421,-0.025037648156285286,0.01386638917028904,0.02027769386768341,0.025291873142123222,0.003031980013474822,0.006743116304278374,-0.006352768279612064,-0.028937209397554398,0.02268342301249504,0.03396240621805191,0.037866778671741486,0.004265638533979654,0.0020512507762759924,0.005824672523885965,0.004059853032231331,0.031993381679058075,0.04535016790032387,0.03147151693701744,-0.005064370110630989,-0.011015992611646652,-0.007602251600474119,0.018652865663170815,0.02016051486134529,0.03677912428975105,-0.017546972259879112,0.02489672787487507,0.02446531504392624,-0.040327731519937515,0.011450926773250103,-0.01176038384437561,-0.0007415123982354999,0.012075958773493767,-0.005930355750024319,0.00036005800939165056,-0.048366423696279526,0.01667633280158043,0.006196173839271069,-0.0012111896649003029,-0.018961912021040916,-0.03594914823770523,0.013887513428926468,0.032826412469148636,0.0057502808049321175,0.004114982672035694,-0.011914420872926712,0.021209515631198883,0.03730812668800354,0.023806441575288773,-0.003976050764322281,-0.006526111159473658,0.0030670210253447294,-0.023551614955067635,-0.03824741393327713,0.04799452796578407,0.0136135034263134,0.01997961476445198,0.031998246908187866,-0.018847648054361343,0.025493454188108444,-0.02365269511938095,-0.03165284916758537,-0.02963283285498619,0.024039676412940025,0.022168658673763275,-0.018077285960316658,0.017385048791766167,0.0038816481828689575,0.015517224557697773,-0.008420432917773724,-0.011561047285795212,0.03451315686106682,-0.007779817096889019,0.028658544644713402,-0.018743719905614853,-0.020755590870976448,0.03127320110797882,-0.005495061166584492,0.03457337245345116,-0.015081139281392097,-0.0025095243472605944,0.021937265992164612,-0.013019473291933537,-0.0011529038893058896,-0.04481906443834305,-0.01795254275202751,0.0019762148149311543,-0.009180709719657898,0.01942029781639576,-0.004309073556214571,0.006457719020545483,-0.0004996585194021463,-0.039141617715358734,0.015540901571512222,0.005321813281625509,0.0025530203711241484,6.352085620164871e-05,-0.014268284663558006,-0.025990989059209824,-0.017217710614204407,0.018975336104631424,-0.021169742569327354,-0.013724246062338352,0.016157761216163635,0.023463860154151917,0.02415081113576889,-0.015953106805682182,-0.005949830636382103,0.01774086430668831,-0.017752163112163544,0.04285283014178276,-0.003792221425101161,0.016254207119345665,0.026075508445501328,-0.026579413563013077,0.019171712920069695,-0.0190777238458395,0.04396126791834831,-0.006688980385661125,0.012943430803716183,0.007115033455193043,0.005561678670346737,0.011384144425392151,-0.02297116629779339,-0.03549450635910034,0.016490425914525986,-0.022876257076859474,-0.05033932626247406,-0.010266109369695187,0.011582937091588974,0.0011331180576235056,-0.028101105242967606,0.03824232891201973,0.00021093811665195972,-0.014186320826411247,0.011160826310515404,-0.011336654424667358,0.028240248560905457,-0.017444388940930367,-0.012690390460193157,0.007895324379205704,0.0063652154058218,-0.01890450157225132,-0.021128712221980095,-0.04017891362309456,-0.026614932343363762,0.002438568975776434,0.03958604484796524,-0.006479681935161352,-0.015500107780098915,0.008727455511689186,0.012528342194855213,0.022822963073849678,0.014514529146254063,0.019021544605493546,-0.025976765900850296,-0.03669246658682823,-0.03665464371442795,-0.034336917102336884,0.024438971653580666,0.010743469931185246,0.029414625838398933,0.02689611166715622,-0.02801397256553173,-0.022870605811476707,-0.03884641081094742,0.023109622299671173,0.016767503693699837,-0.007635906804352999,-0.045516978949308395,0.032403092831373215,0.0017482363618910313,-0.009328555315732956,0.0008486250299029052,0.01628112606704235,0.008543719537556171,0.00018419648404233158,0.008139925077557564,0.019512154161930084,-0.04090604558587074,-0.012791529297828674,-0.015137623995542526,0.04773974046111107,0.02053714357316494,0.020890116691589355,-0.0037858448922634125,0.0001303779863519594,0.012623291462659836,0.030497653409838676,0.022723935544490814,-0.013151098974049091,-0.010826959274709225,-0.025643737986683846,0.03139316290616989,0.024365229532122612,0.0031564533710479736,0.025624671950936317,-0.04720158874988556,0.029821014031767845,0.051187388598918915,0.01630186103284359,0.031508784741163254,0.022572819143533707,0.0067915949039161205,0.025662384927272797,0.024326391518115997,-0.01475299522280693,-0.018584955483675003,-0.018123667687177658,0.010948638431727886,0.011204315349459648,-0.0014730042312294245,0.013770992867648602,0.03327780216932297,0.028430504724383354,0.008336410857737064,-0.007098216097801924,-0.011704427190124989,0.041836608201265335,-0.01779250055551529,0.05290527269244194,0.02923753298819065,0.03151334077119827,-0.0340387299656868,0.01406086329370737,0.0016739622224122286,0.024179209023714066,0.018634332343935966,-0.019694875925779343,-0.02282482013106346,0.034434858709573746,-0.023421475663781166,0.023867614567279816,0.015429706312716007,0.026325421407818794,0.006048510316759348,-0.001893725711852312,0.009954997338354588,0.002222133334726095,0.011304611340165138,0.04176344349980354,-0.03282734379172325,-0.03378608450293541,-0.010491641238331795,-0.0436616875231266,0.01033611036837101,0.028439689427614212,-0.033857911825180054,-0.01892901584506035,-0.0032201064750552177,-0.034383054822683334,-0.05034223571419716,-0.011621654964983463,0.008460539393126965,-0.03522772341966629,0.012852621264755726,0.018976548686623573,0.006870456505566835,-0.028109243139624596,0.020475661382079124,-0.0131657300516963,0.0028770489152520895,0.02847404032945633,0.011533383280038834,0.016917871311306953,-0.018441081047058105,-0.02057669125497341,0.028945742174983025,0.03234950825572014,-0.006109979934990406,-0.022821612656116486,-0.0383211188018322,-0.004645362496376038,0.022901000455021858,-0.012054074555635452,-0.025332605466246605,0.0018106582574546337,0.004105659201741219,0.015800535678863525,0.008620173670351505,0.01420518383383751,0.012769356369972229,-0.03672635927796364,0.005246116779744625,0.026773501187562943,-0.017270751297473907,0.027763955295085907,0.026735201478004456,0.003213087562471628,-0.036658674478530884,0.0074996608309447765,0.026108279824256897,-0.012298264540731907,-0.053876571357250214,0.03895755484700203,0.00911210011690855,-0.01979725807905197,-0.00743971299380064,0.01301916316151619,-0.021836409345269203,0.021024789661169052,0.0035193401854485273,-0.03243129327893257,-0.0030129568185657263,-0.01872117817401886,-0.008954855613410473,0.013418762944638729,0.04459558054804802,0.0370771549642086,-0.012866069562733173,0.020217496901750565,0.02283020317554474,-0.03744305297732353,-0.00021614760044030845,0.02673760987818241,-0.014887955039739609,-0.0016834457637742162,0.024537842720746994,0.007779618725180626,-0.002912630559876561,-0.032241277396678925,0.016127027571201324,0.013713927008211613,0.04123491793870926,-0.03260623663663864,-0.01638888381421566,0.010309730656445026,0.021713390946388245,-0.025363851338624954,-0.017769377678632736,0.011663496494293213,-0.03539377450942993,-0.010175319388508797,0.019454022869467735,0.007956446148455143,0.004097784869372845,-0.01953432336449623,0.03486958146095276,0.017902586609125137,-0.002796356799080968,0.03253556787967682,-0.02354673482477665,0.0284530371427536,0.02197575755417347,-0.00046196539187803864,0.019013909623026848,0.030726533383131027,0.03015228919684887,0.022328432649374008,0.0036075266543775797,0.021228913217782974,0.012345744296908379,-0.029749561101198196,0.004183765035122633,-0.003950841259211302,0.028031960129737854,-0.018778545781970024,0.007591006346046925,0.023253966122865677,-0.027867745608091354,0.0203140489757061,0.0124033959582448,-0.036070968955755234,0.01788393408060074,0.01721999980509281,0.054524149745702744,-0.03274613991379738,0.004548402037471533,0.003938827197998762,-0.02651437185704708,0.0029944931156933308,-0.007293967995792627,0.010909163393080235,-0.02518760971724987,-0.022716475650668144,0.010573239997029305,0.03369897976517677,-0.037288848310709,-0.010111006908118725,0.019914764910936356,-0.03204425424337387,-0.005125972907990217,-0.03862264007329941,-0.010956061072647572,0.02295256219804287,-0.03696355223655701,0.007197031285613775,-0.021236170083284378,0.012187422253191471,0.0033329774159938097,0.0011009260779246688,-0.017041536048054695,-0.0063896942883729935,0.002075592987239361,0.01973511464893818,0.015168286859989166,0.024312565103173256,-0.01912395842373371,-0.01836126111447811,0.03173253685235977,-0.032389216125011444,0.037124499678611755,0.015053792856633663,0.00027767164283432066,0.01124662533402443,-0.01905849575996399,-0.0031201194506138563,-0.015381928533315659,-0.027021165937185287,-0.003960852045565844,0.03870021924376488,-0.016330348327755928,-0.019237659871578217,0.014339507557451725,0.015419699251651764,0.0030357735231518745,-0.014561760239303112,-0.018953559920191765,-0.023116612806916237,-0.029529334977269173,-0.02559802308678627,-0.037800244987010956,0.025768129155039787,0.01128330547362566,0.03325477987527847,0.009170213714241982,-0.004686052445322275,0.01407051645219326,-0.03332958370447159,0.006258923560380936,-0.020455317571759224,-0.05107063800096512,0.02541583776473999,0.004351466428488493,0.007245840970426798,0.003149497788399458,-0.029755664989352226,-0.05783335864543915,-0.017052631825208664,-0.02052948996424675,-0.03568857163190842,0.027971822768449783,0.0318225659430027,-0.019278133288025856,-0.053323403000831604,0.003132165875285864,-0.03438746556639671,-0.025151081383228302,-0.024347959086298943,0.018114661797881126,0.020358877256512642,0.013158842921257019,-0.003677590750157833,-0.0015736669301986694,0.03853185474872589,-0.002274296712130308,0.0025977222248911858,0.029003916308283806,-0.025497859343886375,-0.017375851050019264,-0.0021900669671595097,0.01718459278345108,-0.023745544254779816,-0.016969000920653343,-0.024238549172878265,-0.02915906347334385,0.0006278271321207285,-0.012020817026495934,0.025724509730935097,0.007887424901127815,0.022703541442751884,0.015941638499498367,-0.01873393915593624,0.016216782853007317,-0.01594817265868187,-0.03304148092865944,-0.02396957203745842,0.028021210804581642,-0.022549184039235115,0.020370835438370705,0.004666328430175781,-0.030348699539899826,-0.01209321990609169,0.030409103259444237,0.03198108822107315,0.023693719878792763,0.027153749018907547,-0.014065351337194443,0.013702228665351868,0.00207688519731164,-0.005999282468110323,0.012173695489764214,0.0028159073553979397,-0.011893614195287228,-0.011378125287592411,0.028693461790680885,-0.0028672015760093927,0.010419130325317383,-0.029326122254133224,0.02602214366197586,-0.015933655202388763,-0.018199222162365913,-0.021892938762903214,0.003196381265297532,-0.010700189508497715,-0.012316232547163963,-0.026078693568706512,-0.010793260298669338,0.00016366076306439936,0.024242868646979332,0.0139393862336874,0.007467880845069885,0.022298123687505722,-0.022677339613437653,0.0164231825619936,-0.009822200983762741,0.03264006972312927,-0.007085517514497042,-0.021221397444605827,-0.032752200961112976,-0.0011108833132311702,0.0011021699756383896,-0.017517032101750374,-0.0040529449470341206,0.014580423943698406,0.017237059772014618,-0.012714782729744911,0.00689205015078187,-0.03098667599260807,0.03890576958656311,0.024825168773531914,0.011233552359044552,0.005278000608086586,-0.022310860455036163,-0.014587942510843277,0.05803597345948219,-0.0022215081844478846,-0.0024411568883806467,0.010702365078032017,0.0021128864027559757,-0.018593210726976395,0.0010192357003688812,0.034352727234363556,0.014978492632508278,-0.0031430276576429605,-0.009297637268900871,-0.008875483646988869,0.02590031921863556,-0.0029075706843286753,-0.01500405091792345,0.006177941802889109,-0.0307786762714386,-0.0008194324327632785,-0.0033366703428328037,-0.03873612731695175,-0.015231702476739883,-0.019657878205180168,0.03177684172987938,0.0019665847066789865,0.0217029619961977,0.013212177902460098,-0.005336198024451733,0.003811735427007079,0.03793482482433319,0.014986671507358551,0.029353460296988487,-0.014532861299812794,-0.021266303956508636,0.011955936439335346,-0.013378051109611988,-0.01072890404611826,0.01297841314226389,0.021528489887714386,0.012598070316016674,0.03112862817943096,0.005255714990198612,-0.003106252755969763,0.01049258466809988,0.021070698276162148,0.00848036352545023,-0.014828820712864399,0.03275475278496742,0.01886308379471302,0.012532840482890606,-0.018000904470682144,0.02355404570698738,0.027295149862766266,0.010574105195701122,0.024112140759825706,0.037543077021837234,0.0075904899276793,-0.02504563331604004,-0.007128885947167873,-0.012529927305877209,0.018465761095285416,0.019431380555033684,-0.00741978082805872,0.010577463544905186,-0.03550972044467926,0.017704831436276436,-0.028368249535560608,-0.021966364234685898,-0.00587475998327136,0.015414620749652386,-0.004246511962264776,-0.004264812916517258,-0.04520624503493309,0.007600696757435799,0.0015407705213874578,-0.0032787821255624294,-0.009455543011426926,-0.008966114372015,-0.031448978930711746,-0.004924387205392122,-0.0003940954920835793,-0.002471107291057706,-0.0287028681486845,-0.030255207791924477,0.002043637679889798,0.03158632665872574,-0.01822754181921482,0.008684690110385418,0.0006985095678828657,-0.024235887452960014,0.03754115849733353,0.027677228674292564,0.015067788772284985,-0.044408127665519714,-0.035394370555877686,-0.010182233527302742,-0.005787472240626812,0.027632037177681923,-0.002611050847917795,0.003853369038552046,-0.0012583766365423799,0.004799793008714914,0.01248985156416893,-0.03206215426325798,-0.019313480705022812,-0.013439507223665714,0.037469349801540375,-0.01630752719938755,-0.009107312187552452,0.0011033116606995463,-0.0049792686477303505,0.006461973302066326,0.01943669468164444,0.00585720781236887,-0.008869433775544167,-0.014935910701751709,-0.03267086669802666,0.022973552346229553,0.017864089459180832,0.008451375178992748,-0.020378300920128822,-0.013660766184329987,0.02112497203052044,-0.03192374110221863,0.01604122295975685,-0.033028747886419296,0.036622125655412674,-0.01470443606376648,-0.01620352640748024,-0.013849320821464062,-0.0046408455818891525,0.043076351284980774,-0.0025714454241096973,-0.008687891997396946,-0.037979111075401306,0.005048579070717096,0.03137047961354256,-0.0011130734346807003,-0.028237689286470413,-0.0008464806014671922,-0.017993798479437828,-0.002415339695289731,-0.017353273928165436,-0.01064507756382227,-0.0197147224098444,0.02437704987823963,-0.031921904534101486,-0.03489305078983307,-0.03223881497979164,0.030716903507709503,-0.02387279085814953,-0.021547919139266014,0.013580325990915298,-0.014892862178385258,0.013201209716498852,-0.019007544964551926,-0.028378361836075783,-0.03455106168985367,0.03954796493053436,-0.02095162309706211,-0.006268627941608429,0.009205229580402374,0.021551985293626785,-0.009037137031555176,-0.05064687877893448,0.010134396143257618,-0.02792268991470337,-0.028304344043135643,-0.03508083149790764,-0.012292633764445782,0.028743961825966835,0.038399968296289444,-0.03458807244896889,-0.04202745482325554,0.0057991608045995235,-0.03385331481695175,0.008167175576090813,0.03870357200503349,-0.026310361921787262,0.005187787115573883,0.021422479301691055,-0.023514000698924065,-0.016910508275032043,-0.014309670776128769,-0.01119794137775898,-0.0034157526679337025,-0.02340851165354252,-0.0170456450432539,-0.04349501430988312,-0.02069559134542942,0.012522831559181213,-0.011936355382204056,0.01990491710603237,0.007509863469749689,0.010545601136982441,0.03489134460687637,0.020676588639616966,-0.021244345232844353,0.032925114035606384,-0.005241249222308397,-0.04715834930539131,-0.01173397060483694,-0.029122279956936836,-0.029636088758707047,-0.025589602068066597,-0.0031297095119953156,-0.0060242703184485435,-0.04260050505399704,-0.013099106028676033,-0.019814247265458107,-0.012631510384380817,0.02153949998319149,-0.01784701831638813,0.0281611867249012,-0.01120436005294323,-0.02615736797451973,0.03351946547627449,-0.02677575871348381,-0.023872774094343185,-0.017572592943906784,-0.008946368470788002,-0.04865625128149986,0.025063565000891685,0.034029439091682434,-0.04190737009048462,0.03370903059840202,0.02971593104302883,-0.0031180644873529673,0.014082311652600765,-0.010915346443653107,0.020715991035103798,0.008568722754716873,0.007585435640066862,0.016713330522179604,-0.03777048736810684,-0.014397736638784409,-0.004601567517966032,0.023095229640603065,0.004242308903485537,-0.048960886895656586,0.0009145783260464668,-0.01655762270092964,0.019915826618671417,-0.021732915192842484,-0.015013919211924076,0.03860656917095184,-0.034475717693567276,-0.02568482607603073,0.07680617272853851,-0.002325767884030938,-0.04769377037882805,-0.019469961524009705,-0.03264748305082321,-0.03859609737992287,0.0038347577210515738,0.04858780279755592,-0.028673291206359863,0.029327871277928352,0.021274253726005554,0.020139945670962334,-0.03002040646970272,-0.03181282430887222,0.0036124554462730885,0.011941536329686642,-0.014404963701963425,0.030355950817465782,-0.016580266878008842,-0.02555016614496708,-0.011499548330903053,0.03863794729113579,0.021441087126731873,0.021114429458975792,0.01203801017254591,0.0016086087562143803,-0.0148629667237401,-0.018108803778886795,0.011973409913480282,0.014671742916107178,0.03091762773692608,0.028432976454496384,0.0007883301004767418,-0.018120937049388885,-0.005840764846652746,0.04498080909252167,0.014143825508654118,-0.02831166610121727,-0.023350445553660393,0.0008816897170618176,-0.0052520413883030415,-0.014350811019539833,0.01726873777806759,0.0017940918914973736,-0.019413761794567108,-0.03579201176762581,0.03394557535648346,-0.005768089089542627,0.01266503520309925,0.007398733403533697,-0.014646267518401146,-0.013162016868591309,0.001805915147997439,-0.07892937958240509,0.013479061424732208,-0.010670799762010574,0.0035024136304855347,0.03323421999812126,0.04941156134009361,0.05747639760375023,0.012180290184915066,0.022117679938673973,-0.014095681719481945,-0.007186118979007006,0.005495776422321796,0.0047887517139315605,-0.037089984863996506,0.0013946536928415298,0.02238161675632,-0.028010167181491852,-0.019879821687936783,-0.0030418282840400934,-0.015988346189260483,0.06085003539919853,-0.01445930264890194,0.037548862397670746,-0.0015938382130116224,0.008065948262810707,-0.02087165042757988,-0.02070867083966732,0.011160774156451225,-0.0016596403438597918,-0.025679582729935646,0.05504336580634117,-0.018563110381364822,0.012406214140355587,0.011715205386281013,-0.017617030069231987,0.01938439905643463,-0.03762857988476753,0.005204872693866491,0.00026858309865929186,-0.017243392765522003,-0.01604030281305313,0.033605121076107025,-0.02748444862663746,-0.00809680949896574,0.024497663602232933,0.009919581934809685,-0.021339688450098038,0.002430489519611001,-0.02057819254696369,-0.004627267364412546,0.018985768780112267,-0.01992667093873024,0.0061599090695381165,0.01514002401381731,0.07890886068344116,0.05416238307952881,-0.026736440137028694,0.005586078390479088,0.028719251975417137,0.009601525031030178,0.0103860292583704,0.012007290497422218,-0.019877668470144272,0.03173370286822319,-0.02894178219139576,-0.007197374943643808,-0.03119857981801033,-0.00731554115191102,0.009229675866663456,-0.024758661165833473,0.029046745970845222,-0.032138533890247345,-0.03974892199039459,-0.018151482567191124,-0.00764454435557127,0.028152963146567345,-0.0120509322732687,0.0032925396226346493,-0.04539722949266434,0.019750848412513733,-0.027771903201937675,0.03822225332260132,-0.03971453756093979,-0.003872155211865902,0.024517886340618134,0.019011540338397026,-0.03317936509847641,-0.04627545177936554,0.02604695037007332,-0.0030992580577731133,-0.011744675226509571,0.026817776262760162,-0.017670203000307083,-0.02732744626700878,-0.020540989935398102,-0.019789032638072968,-0.021881941705942154,0.007982337847352028,-0.05857221782207489,0.019811498001217842,0.020826566964387894,0.016911135986447334,0.02125031314790249,0.013069790787994862,0.025546278804540634,-0.02256975695490837,-0.019159909337759018,-0.029507959261536598,0.045728739351034164,0.04529118165373802,0.0179920457303524,-0.011471928097307682,-0.04810909181833267,-0.004565386101603508,0.01517554372549057,0.0013185027055442333,0.019275009632110596,-0.0014435999328270555,-0.012317776679992676,-0.023488849401474,0.02469777688384056,-0.007149209268391132,-0.020687803626060486,0.0185687392950058,0.008498715236783028,0.02661488577723503,0.015956567600369453,-0.02725694142282009,-0.0299800094217062,-0.01307772658765316,0.013494632206857204,0.021021855995059013,-0.02928796596825123,-0.0068194689229130745,-0.022748876363039017,-0.012983676977455616,-0.051219627261161804,0.003000083612278104,-0.011424073949456215,0.022043637931346893,-0.00048289087135344744,-0.028578829020261765,0.031028592959046364,0.044077638536691666,-0.00979428831487894,-0.0013656518422067165,-0.010929415002465248,0.02077198401093483,0.03406037390232086,-0.01103348471224308,-0.037152018398046494,0.025295916944742203,0.01159654464572668,-0.013920851983129978,-0.007711102720350027,0.0517248772084713,-0.03833611682057381,0.021241245791316032,-0.052909210324287415,-0.0006251127924770117,-0.03841987997293472,0.014751298353075981,-0.012701043859124184,-0.017964035272598267,-0.02899206429719925,-0.053457971662282944,0.02221311442553997,-0.031625084578990936,0.021861327812075615,0.04182833433151245,0.00014346306852530688,-0.004447742830961943,0.02068021520972252,0.0243305042386055,-0.014872671104967594,-0.04730091243982315,0.01933424174785614,0.048681456595659256,0.025390297174453735,-0.04170164093375206,-0.0007286283071152866,0.014401017688214779,-0.0039425622671842575,-0.0019744427409023046,0.04080333933234215,0.031225357204675674,-0.015360060147941113,0.005360377486795187,0.009271631948649883,-0.013757756911218166,0.024633552879095078,0.0029567789752036333,-0.03335358947515488,0.03313702717423439,-0.012703956104815006,-0.004584869369864464,-0.0035618774127215147,-0.052694469690322876,0.018826499581336975,-0.019482551142573357,-0.029831210151314735,0.00569780683144927,0.03880346938967705,-0.03330450877547264,0.04506896063685417,0.046839214861392975,0.012455926276743412,-0.02498072385787964,0.005433384794741869,0.034383755177259445,-0.010298460721969604,0.011058571748435497,0.003753419267013669,0.013390958309173584,0.009668885730206966,0.04069964960217476,0.025554710999131203,-0.027136048302054405,0.019750986248254776,0.019843479618430138,-0.008046301081776619,0.02760292775928974,0.00542138796299696,0.01858176663517952,0.013802122324705124,-0.02070765011012554,0.021369991824030876,0.001958082662895322,-0.07986105978488922,0.04700351133942604,-0.028721898794174194,0.013753823935985565,-0.015365487895905972,-0.001959223300218582,0.014434486627578735,0.014396951533854008,-0.006390086375176907,0.006010226905345917,-0.004045089241117239,0.07244350016117096,-0.03441775590181351,0.024261590093374252,-0.006787847727537155,-0.04654187709093094,0.028191210702061653,-0.007594907656311989,-0.053610652685165405,0.035721682012081146,0.030475640669465065,-0.0017300042090937495,-0.03224765136837959,-0.03459927812218666,-0.03822019696235657,-0.01777670718729496,-0.001937600551173091,0.016909318044781685,0.006792047061026096,0.0062924884259700775,0.07382460683584213,-0.005782331805676222,0.02346525713801384,-0.02537642978131771,0.032995790243148804,0.00922193843871355,0.054833803325891495,0.014957555569708347,-0.010255531407892704,-0.013742112554609776,-0.06004010885953903,-0.016663873568177223,-0.020956378430128098,-0.04405117779970169,0.0117875374853611,-0.04730958491563797,-0.005461587570607662,-0.017783204093575478,-0.009717028588056564,-0.010883981361985207,-0.042533036321401596,-0.039860907942056656,0.02782905101776123,-0.00012201923527754843,0.021837227046489716,-0.02529357373714447,-0.013471587561070919,0.03422249108552933,-0.018105432391166687,-0.021232634782791138,-0.0353410430252552,0.017842939123511314,-0.009254221804440022,-0.013450401835143566,0.009620347991585732,0.001769667724147439,0.02841397374868393,-0.022720584645867348,-0.023871883749961853,0.042573731392621994,-0.004969436675310135,-0.009065003134310246,-0.022517129778862,-0.06402362138032913,-0.028714148327708244,-0.0030396089423447847,-0.03755251318216324,0.0004274687962606549,-0.011870672926306725,0.03806866332888603,-0.012091878801584244,-0.012519791722297668,-0.028036752715706825,0.03325837850570679,0.03278864920139313,-0.0028538466431200504,0.02392902784049511,0.06059490889310837,0.031860459595918655,0.06235097721219063,-0.0030640580225735903,0.017383722588419914,-0.022493772208690643,0.008894079364836216,0.023095672950148582,-0.05212067440152168,0.008697041310369968,-0.0016799296718090773,-0.0018837155075743794,0.018309932202100754,0.018222402781248093,0.010335339233279228,-0.014291686937212944,-0.03132016211748123,-0.055492352694272995,-0.021209217607975006,-0.034693047404289246,0.0091584213078022,-0.044126201421022415,-0.041070036590099335,-0.024785980582237244,0.005739602725952864,-0.006044846493750811,-0.031763363629579544,-0.020566923543810844,0.0029246353078633547,-0.02168501727283001,0.025494912639260292,-0.007515287958085537,0.017282146960496902,0.035232432186603546,-0.023200523108243942,-0.016196874901652336,0.02561132051050663,-0.006001980509608984,0.01129760593175888,0.0579463429749012,0.017298677936196327,0.0019030050607398152,0.002540572313591838,0.00815891195088625,0.006434351205825806,-0.014804698526859283,0.025235164910554886,0.05096615105867386,-0.009824726730585098,-0.06589917093515396,-0.022320276126265526,-0.022431235760450363,0.04820718243718147,0.0026598775293678045,-0.03272933140397072,0.03745583817362785,-0.039483364671468735,-0.028762510046362877,0.014434314332902431,0.006874283775687218,-0.05836879834532738,-0.01849706843495369,0.006634922232478857,-0.032906509935855865,0.016715029254555702,0.010244809091091156,-0.022539271041750908,-0.02684840001165867,-0.04315561428666115,0.0018757045036181808,-0.006238725036382675,-0.005771254189312458,-0.004534445703029633,0.021670257672667503,-0.029186677187681198,0.009934286586940289,0.055816635489463806,-0.02287973277270794,0.08585343509912491,0.011478344909846783,-0.0008847182616591454,0.003380503971129656,0.029783805832266808,-0.025602050125598907,-0.016233790665864944,-0.061001185327768326,0.016446230933070183,-0.014097502455115318,0.06242752820253372,-0.022978762164711952,0.023959003388881683,0.01797107607126236,-0.0050164698623120785,-0.03582693636417389,0.004253930412232876,0.014518910087645054,-0.00743884826079011,-0.021589241921901703,0.01990244910120964,0.001524625113233924,-0.0317864716053009,-0.011559179984033108,0.03533216565847397,-0.008345500566065311,0.01680610328912735,0.07332776486873627,-0.007028356194496155,0.003779902821406722,-0.011255668476223946,0.005096287466585636,0.02540726400911808,0.002647281624376774,0.0566430501639843,0.0321921780705452,0.01469777338206768,-0.022861558943986893,0.06347972899675369,-0.039874132722616196,-0.025131884962320328,0.04779866337776184,0.07089075446128845,0.013310386799275875,0.01570136286318302,-0.026780396699905396,0.05051758140325546,0.019701410084962845,-0.019358748570084572,-0.009508372284471989,-0.0010038299951702356,-0.05609801411628723,0.024847179651260376,-0.007139467168599367,-0.009227486327290535,-0.03171230107545853,0.04087289422750473,-0.033434949815273285,0.004031579941511154,-0.0125872902572155,-0.014225630089640617,-0.0025248643942177296,-0.04574733227491379,0.005808484740555286,-0.023074712604284286,0.004409224726259708,-0.021354200318455696,-0.00670288922265172,-0.056924913078546524,-0.031373295933008194,-0.06342989951372147,0.019804572686553,-0.027739880606532097,0.02989594079554081,-0.030656391754746437,-0.019166119396686554,-0.01731029897928238,0.04702625796198845,0.021818744018673897,-0.004299342632293701,0.024100102484226227,-0.028444381430745125,0.03433797135949135,-0.011997837573289871,-0.03476083651185036,-0.0006696994532831013,-0.09777874499559402,-0.039148904383182526,-0.03258689120411873,0.03138614818453789,-0.016600342467427254,0.0207618810236454,-0.04471249133348465,-0.007219340186566114,-0.0035083889961242676,-0.005201499909162521,0.015416860580444336,-0.02201073430478573,0.017300328239798546,0.030659940093755722,0.06525468081235886,0.015474822372198105,-0.022277019917964935,0.027940738946199417,0.021525021642446518,-0.019815661013126373,-0.04559142887592316,0.006807555444538593,-0.01673426479101181,0.02222924679517746,0.01959858275949955,0.021294983103871346,-0.02915417030453682,0.014799294993281364,-0.02032345160841942,0.016866734251379967,-0.03199722617864609,-0.03794165700674057,-0.0016895862063392997,0.01024631131440401,-0.001885311445221305,-0.020920470356941223,0.049050431698560715,-0.019118240103125572,0.03312642499804497,0.017065709456801414,0.0011544933076947927,0.013878589496016502,-0.02682439424097538,0.06896428018808365,-0.004025948699563742,0.09213631600141525,-0.002949324669316411,-0.03679228574037552,0.009578785859048367,0.0025367760099470615,0.015962904319167137,0.013039607554674149,-0.004679412581026554,-3.455361002124846e-05,0.03156176581978798,0.03649367392063141,0.02388066053390503,-0.013503164052963257,-0.007986565120518208,-0.001097428728826344,-0.038522206246852875,-0.04564275965094566,-0.00780705688521266,0.0055241696536540985,0.04000575840473175,0.05547285079956055,0.0021088558714836836,-0.002129548229277134,0.003820759477093816,0.050226692110300064,-0.04389638453722,0.03471976891160011,0.029811514541506767,-0.07812289148569107,-0.0505170039832592,0.011904907412827015,-0.0458126924932003,0.028690697625279427,0.029091795906424522,0.0036858185194432735,0.011827337555587292,-0.05169839411973953,-0.040481291711330414,0.019764499738812447,-0.040611349046230316,-0.010665269568562508,-0.045975372195243835,-0.00810453575104475,0.016433222219347954,-0.006237397901713848,0.04943414032459259,-0.017104879021644592,0.0012512506218627095,-0.02509380131959915,-0.061694175004959106,-0.03604403883218765,-0.00020564024453051388,0.02789892815053463,-0.010620576329529285,0.06402216851711273,0.02923637256026268,0.007082021329551935,-0.026271183043718338,0.033394113183021545,-0.03368455171585083,0.023398203775286674,0.09057740867137909,-0.0023325684014707804,-0.01984971947968006,-0.021848348900675774,0.004109376575797796,0.028278203681111336,0.027289170771837234,-0.008488938212394714,-0.026867086067795753,-0.0050009144470095634,-1.5284225810319185e-05,0.0035509879235178232,0.018645141273736954,-0.00862797163426876,-0.007831956259906292,0.013845046050846577,-0.03845103085041046,0.018599478527903557,-0.014170468784868717,-0.01474415697157383,0.002588198985904455,0.010219571180641651,0.019425220787525177,0.03381335362792015,-0.057836297899484634,-0.018927013501524925,-0.019493361935019493,-0.04536037892103195,0.00261030625551939,-0.010583085007965565,0.00021749240113422275,0.0602470338344574,0.02135271020233631,0.02536018379032612,0.0008673398988321424,0.02047594077885151,0.006228395272046328,0.013982469215989113,-0.011443302035331726,0.021017327904701233,0.03126007318496704,0.01619337871670723,-0.04348235949873924,0.0011872465256601572,0.07027687132358551,0.014677831903100014,0.03444664180278778,-0.03506900370121002,0.0248586256057024,0.035173896700143814,-0.013308859430253506,0.012344607152044773,0.030907871201634407,-0.010105470195412636,0.03800010308623314,0.05803006887435913,0.008169947192072868,-0.06018832325935364,-0.020799677819013596,-0.011978702619671822,0.011531154625117779,-0.033087048679590225,0.043142542243003845,-0.022098004817962646,-0.013178194873034954,-0.032371144741773605,0.015524359419941902,0.010298563167452812,0.02365487813949585,0.036221470683813095,-0.013631751760840416,-0.031318966299295425,-0.06513898819684982,0.014066385105252266,0.03850911557674408,0.030824417248368263,-0.011057073250412941,-0.02325458638370037,0.005018571857362986,-0.03725678473711014,0.02911129593849182,0.014660831540822983,0.025296462699770927,-0.030134504660964012,-0.010846450924873352,-0.05244123190641403,-0.015053980052471161,-0.057350050657987595,-0.008099540136754513,0.041105370968580246,0.006016275845468044,0.012732969596982002,-0.004822832997888327,0.022433586418628693,0.002651725895702839,-0.012166955508291721,0.04550100862979889,-0.045976802706718445,-0.040099941194057465,-0.020498769357800484,-0.0022658242378383875,-0.00998690351843834,0.008924489840865135,0.043755173683166504,-0.06563810259103775,-0.012952041812241077,-0.02817266620695591,-0.0464809350669384,0.02223675139248371,-0.004587725270539522,0.011879360303282738,0.03811531513929367,-0.0010039067128673196,-0.0032991443295031786,0.0343773327767849,0.0009462990565225482,-0.02617502212524414,-0.01807880774140358,0.02503255009651184,0.05093521624803543,0.0015736287459731102,-0.018019258975982666,-0.02824610099196434,-0.04073995351791382,-0.03694221377372742,-0.030905161052942276,0.02763145975768566,0.015569609589874744,-0.006096003111451864,0.04257010295987129,-0.04605068266391754,0.04907756298780441,-0.015191896818578243,-0.013653230853378773,-0.050737809389829636,-0.019229115918278694,0.045192960649728775,-0.03599683940410614,-0.033258821815252304,-0.032835833728313446,-0.025217588990926743,-0.009453282691538334,0.0064324261620640755,-0.00772841414436698,-0.04105198383331299,0.03415096551179886,0.0025302753783762455,-0.010251060128211975,0.018096083775162697,0.014941266737878323,0.035253483802080154,0.02688508667051792,-0.017250757664442062,0.04286039620637894,0.012480560690164566,-0.03968922048807144,-0.0016757867997512221,0.0004898642655462027,0.007494437973946333,0.05262654274702072,0.026946140453219414,-0.061653319746255875,-0.009250754490494728,0.012540225870907307,-0.04893193766474724,-0.0388265885412693,-0.0042693763971328735,-0.009924069046974182,0.0020101447589695454,0.008494819514453411,-0.004232482984662056,-0.006334771867841482,0.05048161745071411,0.023919453844428062,0.059692367911338806,-0.024496810510754585,-0.008459222503006458,0.013806742615997791,0.0484536848962307,0.040532778948545456,-0.033952321857213974,0.001975203165784478,0.025454647839069366,-0.0417073555290699,-0.01717822067439556,0.04319256171584129,-0.007854764349758625,-0.010823000222444534,0.005384689196944237,0.034211523830890656,0.019313326105475426,0.016120759770274162,-0.011906642466783524,0.062441594898700714,-0.026264723390340805,0.0015768680023029447,-0.02065686136484146,-0.012646522372961044,0.01033540815114975,-0.0315922275185585,-0.05572814866900444,-0.019755417481064796,0.04922688752412796,-0.030001606792211533,-0.05038509517908096,-0.016883283853530884,-0.037336964160203934,0.04785958305001259,0.026666371151804924,0.015697702765464783,-0.03132364898920059,0.029150603339076042,0.02433013543486595,0.009414738044142723,-0.01371801644563675,0.006613978650420904,0.00929628498852253,0.05735817924141884,0.009423306211829185,-0.04975583404302597,-0.024924136698246002,-0.014807086437940598,0.030755795538425446,-0.0006133585702627897,-0.02302541956305504,-0.01803058385848999,0.0032539376989006996,-0.0039138225838541985,0.007077449467033148,-0.011281897313892841,0.004451977089047432,0.013540114276111126,-0.017670495435595512,-0.020454460754990578,-0.011324988678097725,-0.012300016358494759,0.02035154588520527,0.003984929993748665,0.021812841296195984,-0.009846354834735394,-0.005310696549713612,-0.02098914049565792,0.009340217337012291,0.032943643629550934,0.06884549558162689,0.013676377944648266,0.02865329012274742,-0.0035567432641983032,0.0569087453186512,0.004807473160326481,-0.02105885185301304,-0.013507537543773651,-0.02044665813446045,-0.0017321500927209854,-0.002692529233172536,-0.06782972812652588,0.023678220808506012,-0.0465199314057827,-0.021339789032936096,0.03178928419947624,0.029591426253318787,-0.04441932588815689,-0.004322121851146221,0.019624613225460052,-0.06704314053058624,-0.019424622878432274,-0.02182675153017044,0.009529117494821548,-0.017304886132478714,0.013402066193521023,0.00012595269072335213,-0.0394001305103302,0.09101522713899612,0.005237152799963951,0.005404431838542223,0.006094940006732941,-0.012101330794394016,-0.008555270731449127,-0.02529739961028099,-0.03436825051903725,-0.027154574170708656,-0.040518976747989655,0.021576473489403725,-0.021939342841506004,0.03102256916463375,0.01892463117837906,0.0208129920065403,-0.02870560809969902,-0.0017345268279314041,-0.01091848872601986,-0.020240789279341698,0.0009305246639996767,0.050212107598781586,0.008090578019618988,0.006476301699876785,0.009751245379447937,-0.026840200647711754,-0.03717734292149544,0.014738062396645546,-0.022313499823212624,-0.04561038687825203,-0.002003137255087495,-0.005905386060476303,-0.04747345671057701,-0.02199491485953331,-0.018436789512634277,0.044624749571084976,0.02373322658240795,0.03141018748283386,-0.012347528710961342,0.02004307508468628,-0.006598101928830147,0.0018034321255981922,-0.005970068741589785,-0.03481743857264519,0.07592351734638214,0.009473559446632862,0.004167509265244007,-0.001276071066968143,0.01615508459508419,0.002328800270333886,0.028996553272008896,0.0014590052887797356,0.005860303994268179,-0.03365340083837509,-0.026986243203282356,-0.01652396097779274,-0.02643546648323536,0.011827128008008003,0.026436148211359978,0.025986991822719574,-0.04732148349285126,-0.004519657697528601,0.041912585496902466,-0.05918091908097267,-0.022280875593423843,0.02173922210931778,-0.025620976462960243,-0.03714761510491371,0.0013604664709419012,0.01474033109843731,0.02384049817919731,0.03470609337091446,-0.0028596653137356043,0.002602138090878725,-0.04383837431669235,0.006551599130034447,-0.025772353634238243,0.01446531806141138,0.008084398694336414,-0.031262610107660294,0.05233024060726166,0.025616461411118507,0.0052475109696388245,-0.0362071618437767,0.03602258861064911,0.03498939797282219,-0.017496827989816666,0.0035944930277764797,0.016658248379826546,0.012325474061071873,0.010316051542758942,0.004134051967412233,0.005345824174582958,0.007518683560192585,0.011090571992099285,-0.022904781624674797,0.021015413105487823,0.07739105820655823,0.0314362496137619,0.021839002147316933,-0.03296595811843872,-0.0038074268959462643,0.013413690961897373,-0.033510997891426086,0.03167246654629707,0.029989663511514664,0.013127999380230904,0.026228103786706924,-0.03290243819355965,-0.0011284379288554192,-0.0027427440509200096,-0.019463999196887016,0.014632477425038815,-0.04876575246453285,-0.018875176087021828,0.010671491734683514,0.01785656064748764,-0.04413938522338867,-0.0013780546141788363,0.014838111586868763,0.01213312242180109,-0.033070631325244904,-0.04009553790092468,-0.03738794103264809,-0.0027014375664293766,0.005033217836171389,-0.017918836325407028,0.0008524704026058316,0.007162240333855152,-0.02804172970354557,0.003294023685157299,-0.015106298960745335,-0.00946790911257267,-0.03524038940668106,0.010384811088442802,0.018996773287653923,0.025608820840716362,-0.020867962390184402,0.012951264157891273,-0.04105981066823006,-0.02407272532582283,-0.06820716708898544,0.020122572779655457,-0.016305308789014816,0.052641332149505615,0.04864201322197914,-0.04704256355762482,0.006004463415592909,0.03600636497139931,-0.033673666417598724,0.05663808062672615,-0.037889786064624786,-0.03422589227557182,-0.035287532955408096,-0.012586016207933426,-0.0024896434042602777,-0.014129799790680408,-0.018982190638780594,-0.00901814829558134,0.04355888068675995,0.018385976552963257,-0.02113787829875946,-0.00129029736854136,-0.0040185037069022655,0.03007115237414837,-0.039057064801454544,-0.01220185961574316,-0.028290394693613052,0.012705051340162754,-0.020171409472823143,-0.03684629499912262,-0.012610606849193573,-0.028245834633708,0.0494040846824646,-0.026048241183161736,0.025956178084015846,0.017179373651742935,0.02617727406322956,-0.030995221808552742,-0.007848446257412434,0.017404774203896523,0.009156391955912113,-0.0011189960641786456,0.01984943076968193,0.000560979126021266,-0.02706795744597912,0.05361718311905861,-0.05172310397028923,0.016524488106369972,0.023695657029747963,-0.0136475944891572,-0.00266228592954576,-0.0179815124720335,-0.015526475384831429,-0.03277946636080742,0.03456949442625046,0.04881059378385544,-0.007748738396912813,0.01167208980768919,0.022225484251976013,-0.01126002799719572,0.01972617208957672,0.03256908059120178,-0.02616165205836296,0.005645424127578735,0.008909952826797962,0.021481866016983986,0.007673119660466909,0.02027103863656521,0.021733423694968224,0.024922089651226997,-0.010315180756151676,-0.005559638608247042,-0.020187798887491226,-0.008505665697157383,0.0074251494370400906,0.015738459303975105,0.03151658549904823,0.011095261201262474,0.03733313828706741,-0.01403024047613144,-0.019024621695280075,0.047476544976234436,-0.03998139128088951,-0.0035997615195810795,-0.033574916422367096,0.020663686096668243,-0.002491794526576996,-0.05181674659252167,-0.027965882793068886,-0.002111834706738591,-0.027483375743031502,-0.012595823965966702,-0.026384366676211357,0.016939809545874596,-0.020140856504440308,0.010245153680443764,-0.002938837744295597,-0.025237467139959335,-0.03137699142098427,-0.026643764227628708,0.03484952449798584,0.045578885823488235,-0.05848454684019089,0.001322372118011117,-0.005702434107661247,0.0023065225686877966,-0.012674899771809578,-0.03013116866350174,0.016937943175435066,0.0382612943649292,-0.015475761145353317,0.0032110223546624184,-0.017132487148046494,-0.06973051279783249,-0.005299509968608618,-0.021720999851822853,0.030363650992512703,-0.02117878384888172,0.04105374589562416,-0.030878303572535515,0.04655033349990845,-4.069379065185785e-05,-0.008936503902077675,0.012705458328127861,-0.03100203350186348,-0.040734030306339264,0.026195617392659187,0.010515855625271797,0.00048326535033993423,-0.008454726077616215,-0.039455022662878036,-0.030225567519664764,0.009755318984389305,-0.02357708103954792,0.00975917000323534,-0.025377394631505013,0.03305141627788544,-0.014145017601549625,-0.03947041556239128,-0.0028768829070031643,0.05829480662941933,0.00708671472966671,0.03757276386022568,-0.0400359071791172,-0.03494085744023323,-0.004815584514290094,0.015590090304613113,0.03850483521819115,-0.00794538576155901,-0.0490216501057148,0.000674637733027339,0.012364797294139862,-0.016892610117793083,-0.0029351506382226944,0.0035026201512664557,-0.08530640602111816,0.032954201102256775,0.09198843687772751,-0.037340760231018066,-0.011481757275760174,-0.013880560174584389,-0.04328678920865059,0.0043856012634932995,-0.003280686680227518,-0.024336645379662514,0.020508432760834694,-0.024399757385253906,0.017332980409264565,-0.0019137606723234057,0.029018327593803406,0.01777643896639347,-0.00047277353587560356,-0.043262798339128494,-0.0014262337936088443,-0.018439825624227524,-0.06844764202833176,0.03465437889099121,-0.06507647782564163,-0.02370651252567768,-0.021068958565592766,-0.028863463550806046,-0.016930727288126945,-0.002478301525115967,0.014187099412083626,-0.002867739414796233,-0.006869224831461906,-0.012157265096902847,0.045636583119630814,0.0012275716289877892,-0.0179004929959774,0.007560334634035826,-0.0030678368639200926,0.0001785395434126258,-0.023396695032715797,0.013759752735495567,-0.009305562824010849,-0.015925824642181396,0.03954260051250458,-0.040166083723306656,-0.02381169982254505,-0.01628572680056095,-0.038850314915180206,-0.04935453459620476,0.014445233158767223,0.0004923276719637215,-0.011127639561891556,-0.05012182518839836,-0.03632858768105507,0.038369398564100266,0.03854024037718773,-0.03443245217204094,-0.013685249723494053,-0.0011689105303958058,-0.025856681168079376,-0.02446914277970791,-0.018829578533768654,0.039684537798166275,-0.014707702212035656,0.02946563810110092,0.03255634009838104,-0.0030168648809194565,0.03377838432788849,-0.00040967261884361506,0.03047759272158146,-0.012968447059392929,0.02544703520834446,-0.017866361886262894,-0.04551518335938454,0.005370234604924917,-0.038222480565309525,0.011792091652750969,-0.02983836829662323,0.026099486276507378,-0.028080357238650322,-0.006352816242724657,-0.03418756276369095,0.06411859393119812,0.022055700421333313,-0.03674657270312309,-0.007509638089686632,0.007265875115990639,-0.030184095725417137,0.044897135347127914,0.026356009766459465,0.001984359696507454,0.0038659237325191498,-0.039665400981903076,-0.007799213286489248,-0.023359209299087524,0.03907027095556259,-0.002441764809191227,2.9719056328758597e-05,0.0016538454219698906,-0.03946628421545029,-0.00028673658380284905,0.015889441594481468,0.024727165699005127,0.054154038429260254,0.015137026086449623,0.026954632252454758,0.04936051368713379,0.037640150636434555,-0.03231664001941681,0.0006827970501035452,0.04910534992814064,0.024708285927772522,0.015211166813969612,-0.01423586718738079,-0.011877564713358879,-0.013339814729988575,-0.001470412709750235,-0.059619199484586716,0.03965970128774643,-0.016928330063819885,-0.01271034125238657,0.025591665878891945,-0.044142138212919235,0.013167568482458591,0.0010057397885248065,0.004595152102410793,0.0391266755759716,-0.03170280531048775,-0.0048114703968167305,0.006949381437152624,-0.012342289090156555,0.0023936445359140635,0.01577053591609001,-0.019312871620059013,0.0038970564492046833,0.004065600223839283,-0.007815094664692879,-0.012322339229285717,-0.038689903914928436,0.005829610861837864,-0.02809000387787819,0.007140348665416241,-0.012590360827744007,0.007351216860115528,-0.004903366323560476,-0.024001354351639748,-0.010669208131730556,0.0472639761865139,-0.025730103254318237,-0.010831566527485847,0.009777569212019444,0.003920464776456356,-0.014140895567834377,-0.021028311923146248,0.018604006618261337,0.023841388523578644,0.013943955302238464,-0.009804694913327694,-0.021609913557767868,0.03764420002698898,-0.022440200671553612,-0.0008018037187866867,-0.029640592634677887,-0.0003738346276804805,0.0175583828240633,0.010178341530263424,0.018874622881412506,0.004693805240094662,0.011680337600409985,0.024261219426989555,0.01821090653538704,0.02329213358461857,0.04187219217419624,-0.009991929866373539,-0.00333626801148057,0.06364993751049042,0.022896721959114075,0.008893611840903759,-0.025533322244882584,-0.03268149495124817,0.05835302919149399,0.07498761266469955,-0.02350413054227829,0.0029472007881850004,-0.021321052685379982,-0.043775152415037155,0.0018486462067812681,0.0019870405085384846,0.008017928339540958,0.020495086908340454,0.01719619706273079,0.03501299396157265,-0.03814399987459183,-0.018654175102710724,0.004233009647578001,-0.023518897593021393,0.04164235293865204,-0.023163683712482452,-0.0412883535027504,0.03234541788697243,-0.05141548439860344,-0.02093745954334736,-0.017342710867524147,-0.03591245785355568,0.04290985316038132,-0.042129676789045334,0.017594782635569572,-0.027454238384962082,0.022573187947273254,-0.02662329189479351,0.06330807507038116,-0.006838741712272167,0.005751885939389467,-0.0023265639320015907,-0.007746023591607809,-0.005776854231953621,-0.03445997089147568,0.004528239835053682,0.03480101376771927,-0.007945300079882145,-0.032189805060625076,-0.04441776126623154,0.007207810878753662,0.0072678979486227036,-0.015114895068109035,-0.03867524117231369,0.002403528429567814,0.008246799930930138,-0.021854715421795845,0.03562459722161293,-0.01393656525760889,0.004575964529067278,-0.017878154292702675,0.00722053088247776,0.015293428674340248,-0.02055438607931137,0.010400328785181046,-0.016806533560156822,-0.01666761189699173,0.015217766165733337,-0.028093652799725533,-0.031610045582056046,-0.008963260799646378,-0.00041068412247113883,-0.022448349744081497,-0.020436778664588928,-0.031327348202466965,-0.0842018648982048,0.04578568413853645,-0.04270360246300697,0.02818729728460312,0.06874645501375198,-0.008554124273359776,-0.009377674199640751,0.007152324076741934,0.020567860454320908,-0.04454194754362106,0.010131213814020157,0.06156152859330177,0.00740251736715436,0.03901353478431702,0.013281363993883133,0.015126487240195274,0.014958232641220093,0.031717222183942795,0.009651781059801579,-0.026255080476403236,-0.0034089714754372835,-0.021488672122359276,-0.07070285826921463,-0.00766961881890893,0.0582546591758728,-0.025573231279850006,-0.03815396875143051,0.055514946579933167,-0.0007484625675715506,0.07584182918071747,0.0044142110273242,0.03564028441905975,0.025494573637843132,0.008179496973752975,-0.021938173100352287,0.059262409806251526,-0.008337639272212982,-0.03461882099509239,-0.019164515659213066,-0.047403380274772644,-0.03345083072781563,-0.002359655685722828,0.0005555450916290283,0.03076145425438881,-0.05609320104122162,-0.004340469837188721,-0.002946633379906416,-0.05084245651960373,0.0018475591205060482,0.060777947306632996,0.008414484560489655,-0.03591723367571831,-0.03843514993786812,0.02664845436811447,-0.0746474489569664,-0.0022884986829012632,-0.02575181983411312,-0.012832367792725563,0.04074109345674515,-0.06338074803352356,-0.02218608930706978,-0.00606082146987319,0.04608030989766121,-0.015183529816567898,-0.022684061899781227,-0.042042557150125504,-0.016226647421717644,-0.0004671317874453962,-0.017471877858042717,-0.017265034839510918,-0.0181367639452219,0.014697396196424961,0.03229856863617897,0.010795998387038708,-0.028055503964424133,-0.04767172783613205,-0.011577712371945381,0.01838955655694008,-0.025051407516002655,0.023541586473584175,-0.033225178718566895,0.02837473526597023,-0.004336730111390352,-0.025215063244104385,-0.012585731223225594,-0.012830969877541065,0.051108088344335556,-0.00498506473377347,0.054931238293647766,-0.018223723396658897,0.030650654807686806,0.02034570649266243,0.051405712962150574,-0.06437012553215027,-0.03305051848292351,0.04290471598505974,0.03688108175992966,0.03281470015645027,-0.012663946487009525,0.01701934076845646,-0.00718234246596694,-0.03119870461523533,-0.01163617242127657,-0.001973524456843734,0.04764025658369064,-0.016241203993558884,-0.03915722295641899,0.03519419580698013,-0.01508910022675991,-0.009777710773050785,-0.0011622669408097863,0.02962217479944229,-0.011360451579093933,-0.018979568034410477,0.012423507869243622,0.007919109426438808,-0.014553158544003963,0.012435445562005043,-0.05724039673805237,-0.02888287976384163,0.013495785184204578,0.030866237357258797,-0.048766959458589554,-0.04475977644324303,-0.0029936260543763638,0.007232681382447481,0.033704664558172226,0.03557225316762924,0.005127826239913702,0.06815697997808456,-0.026443500071763992,0.017120566219091415,-0.02890118770301342,-0.004365064669400454,-0.02417944185435772,-0.050055041909217834,0.009489613585174084,0.007093632593750954,0.09681583940982819,0.008211290463805199,-0.01052259374409914,-0.007503555156290531,0.0077795651741325855,0.0019038623431697488,0.00545716704800725,0.031458497047424316,-0.016976792365312576,-0.030472159385681152,0.04335957020521164,-0.018614329397678375,0.009271012619137764,-0.05919383093714714,-0.0062550948932766914,0.008444570004940033,0.011058097705245018,-0.017388181760907173,0.037445999681949615,-0.017560042440891266,0.011597534641623497,0.008167133666574955,0.017884163185954094,-0.01365697756409645,0.0006631865981034935,-0.014776984229683876,0.0105959577485919,-0.004583342932164669,0.014702492393553257,-0.007025157567113638,-0.005713791120797396,-0.015957443043589592,-0.02080148458480835,-0.01570962555706501,0.007927034050226212,0.013435627333819866,0.056268464773893356,-0.05622357502579689,0.02540024369955063,-0.010960189625620842,-0.016005367040634155,0.03476448357105255,-0.03274514526128769,-0.04361611604690552,0.04716216027736664,-0.0205952450633049,0.013709058985114098,-0.028982067480683327,-0.011257650330662727,-0.01581934653222561,0.017112310975790024,0.011934981681406498,-0.012842034921050072,0.06562456488609314,0.0010615296196192503,0.05750632658600807,-0.00019486245582811534,0.038983024656772614,-0.004570909310132265,0.03390652686357498,-0.0963154062628746,-0.07312154769897461,-0.03109254315495491,0.042911771684885025,0.024649525061249733,0.009009676054120064,-0.038318172097206116,-0.014881277456879616,-0.04054007679224014,-0.02484711818397045,-0.0003498444566503167,-0.006035609170794487,0.001539504388347268,0.031753454357385635,0.052205491811037064,-0.03329390659928322,-0.022931896150112152,0.04112621024250984,-0.004220794886350632,0.024445096030831337,0.00693032331764698,-0.06004101783037186,-0.035391103476285934,-0.0249713696539402,-0.009758973494172096,-0.010874667204916477,0.021060528233647346,0.005901063326746225,0.009810440242290497,0.014035536907613277,0.005213447846472263,0.08739298582077026,0.0634319931268692,0.03474970906972885,-0.014922752045094967,-0.051600970327854156,-0.01224143523722887,-0.01983628422021866,-0.0394468680024147,-0.03297028690576553,-0.016956275328993797,0.01147081796079874,-0.029068835079669952,-0.031695153564214706,0.004601592198014259,-0.039758987724781036,-0.01975192315876484,-0.02981194481253624,0.017956655472517014,0.00888241920620203,0.022445445880293846,0.024223361164331436,0.020555155351758003,-0.017038246616721153,0.025276539847254753,-0.003588943975046277,-0.08804355561733246,-0.04524395987391472,0.0036359375808387995,0.009849617257714272,0.009880619123578072,-0.03146514669060707,0.034845851361751556,-0.03402595594525337,-0.0493260994553566,0.03528745472431183,0.03857527673244476,0.02600252442061901,0.005665809381753206,-0.054852817207574844,0.05133967101573944,-0.0307599063962698,0.026115579530596733,-0.028100933879613876,-0.02857578918337822,-0.0009351176558993757,0.010619523003697395,0.03648053854703903,-0.03999769687652588,0.035633496940135956,0.11150117963552475,-0.00045847208821214736,0.07285308837890625,0.020431071519851685,-0.011776543222367764,0.04191175848245621,-0.013798815198242664,-0.039249252527952194,-0.0460832417011261,-0.000544035981874913,-0.02004433609545231,0.04316446930170059,-0.01678890734910965,-0.026668142527341843,-0.03397557884454727,-0.03361291065812111,0.03472119942307472,-0.05553105100989342,0.011874105781316757,-0.012624670751392841,0.030725577846169472,-0.002100807148963213,0.019551845267415047,0.0029956160578876734,0.010591878555715084,0.004922844003885984,-0.03310162574052811,-0.015343785285949707,0.03994348645210266,-0.050242964178323746,0.05042533949017525,-0.024959299713373184,0.0036091101355850697,-0.05551891401410103,0.021714389324188232,-0.05791034549474716,0.01040506362915039,-0.0014396806946024299,0.030663933604955673,0.03157311677932739,-0.004022338427603245,-0.07296442985534668,0.016775749623775482,-0.02192988060414791,-0.015082579106092453,0.020100099965929985,-0.010371126234531403,0.014557220041751862,0.020408693701028824,-0.04258204251527786,0.04691334441304207,-0.027546977624297142,0.06577112525701523,-0.016957003623247147,-0.018402721732854843,0.04669463261961937,-0.010587818920612335,0.043987903743982315,-0.006734752561897039,-0.006627483759075403,-0.011839832179248333,-0.044377509504556656,0.03056499920785427,-0.010453573428094387,-0.018969707190990448,-0.047748010605573654,-0.03352772444486618,-0.031931471079587936,-0.04663805663585663,-0.01894506998360157,0.005313195753842592,-0.02426908351480961,-0.0635860413312912,0.03188944607973099,0.07921235263347626,-0.021913081407546997,-0.06648889183998108,-0.03712499886751175,-0.011317904107272625,0.01619151420891285,-0.04287249222397804,-0.0010085237445309758,-0.009977980516850948,-0.010932691395282745,-0.021675461903214455,0.01446533389389515,0.013327431865036488,0.01889333501458168,-0.04923154041171074,0.010458334349095821,0.0010772808454930782,0.034895267337560654,0.1324883997440338,0.011525842361152172,-0.017768293619155884,0.026837775483727455,-0.015995454043149948,-0.028242116793990135,0.0221237875521183,0.06903690099716187,-0.054068371653556824,-0.0105365552008152,0.03201894462108612,-0.03762149438261986,-0.00901430007070303,-0.030957724899053574,-0.066805899143219,0.01585336960852146,-0.0049843257293105125,0.024078799411654472,0.010099421255290508,0.004637571983039379,-0.061425093561410904,-0.08728080242872238,0.012294654734432697,0.07213068008422852,-0.04648958146572113,0.04871797561645508,0.0022364319302141666,0.014500591903924942,-0.00018555321730673313,-0.024616770446300507,0.0022995569743216038,0.009925255551934242,-0.03589771315455437,0.007046418264508247,0.010845826007425785,0.027775822207331657,0.011139306239783764,-0.027852581813931465,-0.007637045346200466,-0.03894129768013954,0.11360374093055725,0.058584198355674744,0.07141884416341782,-0.01319146528840065,-7.108408317435533e-05,-0.01046593114733696,0.016306541860103607,-0.02870185486972332,0.06481581181287766,-0.020986128598451614,-0.04176286980509758,-0.021355750039219856,0.0005197576247155666,0.05202466621994972,0.022235210984945297,-0.031169148162007332,-0.014307217672467232,-0.02321057766675949,-0.06548850238323212,-0.0009520024177618325,-0.015854554250836372,-0.023368438705801964,-0.014656259678304195,-0.021933136507868767,-0.02822289615869522,0.019192153587937355,-0.016685184091329575,0.024309944361448288,-0.012769615277647972,-0.003660626010969281,-0.016039108857512474,0.004820735659450293,-0.02812819927930832,-0.002109417924657464,-0.03185649961233139,-0.018923960626125336,-0.05466678738594055,0.03328933194279671,0.006205723155289888,-0.010015800595283508,-0.02846640720963478,-0.00822611153125763,0.003335170214995742,-0.033669374883174896,-0.004878507927060127,-0.06357505917549133,0.016546105965971947,-0.013221296481788158,0.02965998463332653,0.0022767516784369946,-0.05830518156290054,-0.05446162819862366,0.05025152489542961,-0.0624191090464592,-0.028313253074884415,0.0009700049995444715,0.020699912682175636,0.012483370490372181,0.004664830397814512,0.08789056539535522,0.06212741509079933,0.020710593089461327,0.00949833169579506,0.01499745063483715,0.015237074345350266,-0.0004870378761552274,0.027993647381663322,0.03810296580195427,-0.008411223068833351,-0.020760612562298775,0.007660520263016224,0.05326279625296593,-0.00810574647039175,0.028582513332366943,-0.03902522847056389,-0.05680745095014572,0.006825498305261135,-0.004959898069500923,-0.006567023694515228,0.05683352053165436,0.009343263693153858,-0.0908023938536644,-0.03354104608297348,-0.04110071808099747,0.056491877883672714,-0.00028265558648854494,0.03358447924256325,-0.00852699764072895,0.023756951093673706,0.02679094299674034,0.03793326020240784,0.008202667348086834,0.008725743740797043,-0.007325217593461275,0.025316301733255386,-0.006287924014031887,0.056700583547353745,0.06961946934461594,-0.0031168938148766756,-0.007281454745680094,0.040882471948862076,-0.08697240054607391,-0.02883514203131199,0.010621275752782822,0.023977449163794518,-0.059812262654304504,0.016130659729242325,0.03273463621735573,0.058818086981773376,-0.008182789199054241,-0.02034984529018402,-0.05582447350025177,-0.04194719344377518,-0.017889415845274925,0.003496490651741624,-0.0008728746324777603,0.012820262461900711,0.009811054915189743,0.027522088959813118,-0.049688417464494705,0.019745677709579468,-0.011159763671457767,-0.034249357879161835,0.004534260369837284,0.06412111967802048,0.0446537584066391,-0.01172181498259306,0.02878294512629509,-0.03764259070158005,0.011582568287849426,0.04649398848414421,0.023111259564757347,-0.006487438455224037,0.015146840363740921,-0.008577774278819561,-0.0009556405711919069,-0.007341007236391306,-0.06904170662164688,-0.00012851037899963558,-0.010048133321106434,-0.008920704014599323,-0.024836692959070206,0.030932843685150146,-0.016095058992505074,0.021669462323188782,0.0031074676662683487,0.030231690034270287,-0.003940406255424023,0.03363851085305214,0.03269727900624275,-0.04027470946311951,-0.0306670144200325,-0.09554610401391983,0.011785069480538368,-0.0657031312584877,-0.03627212718129158,0.005578681826591492,-0.003667312441393733,-0.00645333481952548,0.0016690143384039402,0.0207403264939785,0.03544897213578224,-0.02504229173064232,-0.013871878385543823,0.018895315006375313,-0.00019996293121948838,-0.036391254514455795,-0.005168226081877947,-0.017320310696959496,0.052240047603845596,0.014855575747787952,0.019531529396772385,0.006941691972315311,0.059912100434303284,-0.020763764157891273,-0.04275910556316376,-3.057165304198861e-05,-0.0014126469613984227,0.01409368496388197,-0.027041327208280563,-0.006260508671402931,0.06391257792711258,0.005127583164721727,0.008317318744957447,-0.007553840987384319,-0.08130986243486404,-0.04880741238594055,0.010613789781928062,0.003248555352911353,-0.04857199639081955,-0.017270756885409355,-0.047304995357990265,0.018427489325404167,0.02038164995610714,-0.0010490196291357279,-0.011222129687666893,0.026753446087241173,-0.0004065978282596916,0.017739178612828255,0.038595493882894516,-0.013072200119495392,-0.03831206634640694,-0.023821651935577393,0.016585271805524826,-0.06297097355127335,-0.05399145931005478,0.018486080691218376,0.00510799465700984,-0.001695724786259234,-0.005525661166757345,0.02108600176870823,0.02064293622970581,0.03223876282572746,0.06430182605981827,0.06288695335388184,-0.017348209396004677,0.029542021453380585,-0.014419077895581722,-0.07457496970891953,-0.03918351233005524,-0.03599096089601517,0.053487442433834076,0.033219702541828156,0.006328013259917498,-0.021861588582396507,0.014057581312954426,-0.04127233102917671,-0.022238314151763916,0.049419865012168884,-0.008723962120711803,0.011874453164637089,0.012898092158138752,0.0037843375466763973,-0.0372387170791626,0.021271347999572754,-0.015834776684641838,0.08328116685152054,0.10186751186847687,-0.023290174081921577,-0.03050856664776802,-0.037014394998550415,0.033505599945783615,-0.005241201259195805,0.037226397544145584,-0.011921990662813187,0.01903640665113926,-0.00040703878039494157,0.041066426783800125,-0.027022356167435646,-0.0411369726061821,-0.016165422275662422,0.006811382714658976,-0.0520816296339035,-0.038475073873996735,-0.0008040519896894693,0.019209975376725197,0.0136493481695652,0.031244900077581406,0.0026334552094340324,0.017446864396333694,-0.020230839028954506,0.015085626393556595,0.038275185972452164,0.04559565708041191,0.00214591808617115,0.006245247554033995,0.014117322862148285,-0.0006471216329373419,0.004509524442255497,0.09587803483009338,0.008531374856829643,-0.0483165942132473,-0.04768449440598488,-0.016456078737974167,0.016924772411584854,-0.00169790827203542,0.03520261496305466,0.03612014651298523,0.018517525866627693,-0.012485130690038204,0.03688035532832146,0.052483752369880676,0.02985454723238945,-0.05311354249715805,0.040142323821783066,0.04348411783576012,-0.04142063856124878,-0.041716888546943665,0.05752801522612572,0.0416862815618515,0.006268736440688372,-0.006912475451827049,-0.022221269086003304,-0.030497999861836433,0.05519245192408562,-0.026376448571681976,0.016875214874744415,0.005098856519907713,-0.02284407988190651,0.011871332302689552,-0.06701044738292694,0.016910793259739876,-0.02198631688952446,0.0090720746666193,-0.03461388126015663,-0.027463065460324287,-0.013590110465884209,0.02204117923974991,0.01996706612408161,-0.012074228376150131,0.005918791517615318,-0.08412075787782669,-0.02284492366015911,0.025397153571248055,-0.0137782022356987,-0.05460568144917488,0.0340605303645134,0.0403841994702816,0.0323665589094162,0.02131856046617031,0.05417637526988983,0.017754383385181427,-0.042521510273218155,0.05967728793621063,-0.013144775293767452,0.04566982388496399,-0.015739988535642624,-0.01179811917245388,0.027152758091688156,-0.020985133945941925,0.0008552346844226122,0.015955114737153053,0.0005164205213077366,0.020199481397867203,0.002621529158204794,-0.02932356484234333,0.013832859694957733,0.003412120509892702,-0.03348929435014725,-0.03094501979649067,-0.04440070688724518,0.00809304416179657,0.029907716438174248,-0.0013954434543848038,-0.012082747183740139,0.032299090176820755,-0.004826794844120741,-0.040047820657491684,-0.013075949624180794,0.019807182252407074,-0.01549029815942049,-0.009470077231526375,-0.032119058072566986,-0.007645030040293932,-0.04507839307188988,-0.004896296188235283,-0.031447816640138626,0.00708584301173687,0.0775936171412468,-0.037229686975479126,-0.019039295613765717,0.017002223059535027,0.02496190555393696,0.03180508688092232,0.07177995890378952,0.0024496784899383783,0.01920389011502266,-0.020494921132922173,0.03418466076254845,0.0460975207388401,0.025329040363430977,0.023783938959240913,-0.017107324674725533,0.06495308876037598,-0.03453758358955383,-0.029137466102838516,0.06433696299791336,0.057514872401952744,-0.00944472011178732,0.04006918892264366,-0.030532462522387505,0.037626780569553375,0.04737373813986778,0.047994401305913925,-0.03101055882871151,0.06353902816772461,0.05082393437623978,-0.010699919424951077,0.050111908465623856,-0.01258540153503418,-0.006408352870494127,-0.02815452590584755,0.024638118222355843,-0.08774176239967346,-0.03341572731733322,-0.02346045710146427,-0.004952632822096348,-0.022171681746840477,0.015674389898777008,-0.031993720680475235,0.0020989803597331047,-0.030559184029698372,0.02062145248055458,-0.03197431191802025,0.01703060418367386,0.004940599203109741,0.03209088742733002,0.00960193108767271,-0.031186386942863464,-0.04503457993268967,0.016409125179052353,0.04768671467900276,-0.032287903130054474,-0.009229815565049648,-0.023834282532334328,-0.017509067431092262,0.006306280381977558,0.012482337653636932,-0.022656023502349854,0.017025193199515343,-0.014322045259177685,0.07782544940710068,0.021952377632260323,0.026359276846051216,-0.006405314430594444,-0.04933140054345131,0.02648305706679821,0.059134069830179214,0.023328427225351334,0.057196520268917084,0.012628350406885147,-0.024831997230648994,0.021230366080999374,-0.005349874962121248,0.03828329220414162,-0.0038529038429260254,0.02376471273601055,0.025474974885582924,0.019014930352568626,-0.024611957371234894,-0.06839840859174728,-0.018353862687945366,-0.009609975852072239,0.015823177993297577,-0.008808722719550133,0.06088520213961601,-0.051157835870981216,0.03980625420808792,0.00025185925187543035,-0.023392805829644203,-0.061702437698841095,-0.015437751077115536,-0.011452239006757736,0.016216490417718887,0.08880632370710373,-0.05837828293442726,-0.04119061306118965,-0.06775153428316116,0.007345695048570633,-0.04050064831972122,-0.00969760213047266,-0.04975011944770813,-0.013613684102892876,0.01720946840941906,-0.014805824495851994,0.03285487741231918,-0.026053087785840034,-0.019222212955355644,-0.012370645999908447,0.023465687409043312,-0.015459557995200157,0.023449061438441277,0.0545186847448349,0.037538930773735046,0.011090808548033237,-0.030114347115159035,-0.015279476530849934,-0.06705018877983093,-0.0052366601303219795,0.04663249850273132,0.013509778305888176,0.002814064035192132,0.02005593664944172,-0.0071973977610468864,0.0666053295135498,0.06817717105150223,-0.013818161562085152,-0.026335591450333595,-0.042053449898958206,-0.037609539926052094,-0.04324710741639137,0.017126556485891342,-0.009333488531410694,-0.08064238727092743,-0.015875598415732384,-0.005845505278557539,-0.03887513652443886,0.030937697738409042,0.00016992443124763668,-0.020096441730856895,-0.026232590898871422,-0.0528220608830452,0.005477218423038721,-0.028617028146982193,-0.012866931036114693,0.08832195401191711,-0.024007190018892288,0.019048867747187614,0.0088490666821599,-0.02090691216289997,0.027777569368481636,-0.02625209465622902,-0.040631167590618134,-0.022443586960434914,0.015044507570564747,0.05269458889961243,-0.008415887132287025,-0.02771494910120964,0.00935986079275608,0.010558879934251308,-0.0277541633695364,0.010433237068355083,-0.021037966012954712,0.009336747229099274,0.001310993218794465,0.019906142726540565,-0.02567455545067787,-0.009119936265051365,0.0260680690407753,0.00030157723813317716,0.0020280079916119576,0.042450688779354095,0.028415067121386528,-0.03402106463909149,0.02018474042415619,-0.041781920939683914,-0.1183767020702362,0.028881656005978584,-0.016929974779486656,-0.05873643234372139,0.0028600224759429693,0.035378240048885345,-0.07447928190231323,0.030094411224126816,0.006092087831348181,-0.015903092920780182,-0.03689992427825928,0.010307911783456802,-0.00461915135383606,0.03437670320272446,0.010133919306099415,-0.03980881720781326,-0.028850175440311432,-0.050816457718610764,-0.05645027384161949,-0.014489177614450455,-0.05160480737686157,0.04971255362033844,0.04157976433634758,-0.005113177001476288,-0.009567110799252987,-0.0010017547756433487,0.05848868563771248,0.007190173491835594,-0.018063731491565704,0.018352944403886795,-0.032002538442611694,-0.014990833587944508,0.04877914860844612,-0.021255921572446823,0.04698216915130615,0.012217218987643719,-0.04230591282248497,-0.041529834270477295,0.0302256029099226,0.0611334927380085,0.008994878269731998,0.042327795177698135,0.0012008220655843616,-0.032731808722019196,0.01479384396225214,-0.01776854693889618,-0.03207021579146385,0.03524760156869888,0.02167954109609127,-0.05437135696411133,-0.012331955134868622,0.04870821163058281,0.007342095486819744,0.06139490753412247,0.038597267121076584,-0.00752153480425477,-0.012161124497652054,0.0271516852080822,0.004005021415650845,-0.005374579224735498,0.017267486080527306,-0.06087346747517586,-0.0702996775507927,0.05265941098332405,0.022421885281801224,0.06647744029760361,-0.001629025675356388,-0.004487553145736456,-0.021353958174586296,0.015873080119490623,-0.012272374704480171,-0.024964313954114914,0.006405185908079147,-0.030766477808356285,-0.00357520068064332,0.02499965764582157,-0.00891232118010521,0.03817082569003105,-0.034856006503105164,-0.01628425531089306,0.055215463042259216,0.0011628266656771302,0.0239382516592741,0.04071474075317383,0.00151560187805444,-0.031403299421072006,-0.047783657908439636,0.021233094856142998,-0.01378715131431818,-0.005536827724426985,-0.017795994877815247,0.029701679944992065,-0.028759194537997246,0.05034123733639717,-0.025663023814558983,-0.02549687772989273,-0.0240420401096344,0.020253002643585205,-0.044417668133974075,-0.06642062216997147,-0.00040344311855733395,-0.01789129339158535,-0.01695573329925537,0.005256628151983023,-0.02110999822616577,0.012248801998794079,0.018277790397405624,-0.0550251230597496,0.028039133176207542,-0.03423832356929779,-0.0038878112100064754,-0.014768524095416069,-0.024170957505702972,-0.019181519746780396,-0.029328810051083565,0.024268921464681625,-0.03474091738462448,0.009874262847006321,-0.024170702323317528,0.007775886449962854,0.03336667641997337,0.018875449895858765,-0.006918680388480425,0.019465671852231026,0.008029386401176453,0.021692896261811256,0.01675744168460369,-0.023642707616090775,0.02530926652252674,-0.028330499306321144,0.011889798566699028,0.003005743259564042,0.00228486699052155,0.03745830059051514,-0.032531023025512695,0.019323805347085,-0.009139878675341606,-0.016846202313899994,-0.036313652992248535,0.012409612536430359,0.02151034213602543,-0.004616486839950085,0.004912163130939007,0.01862557791173458,-0.024016259238123894,-0.001349195372313261,0.015829628333449364,-0.0013766433112323284,0.00549753662198782,0.027325205504894257,0.00043861556332558393,-0.012872370891273022,0.01811099424958229,0.02752688340842724,-0.022360539063811302,-0.029376069083809853,-0.031722281128168106,0.006176922004669905,0.02357667312026024,-0.0059702349826693535,0.0031650362070649862,-0.018570907413959503,-0.03277860954403877,-0.0015064612962305546,-0.021311869844794273,-0.027661260217428207,0.012791246175765991,0.015013594180345535,-0.02147689089179039,-0.02308749593794346,0.010834252461791039,-0.008245364762842655,0.021284837275743484,0.01141838077455759,0.03623896837234497,0.02605489082634449,-0.0037568416446447372,0.004465911537408829,0.020506517961621284,0.009563341736793518,-0.032186295837163925,0.018049968406558037,0.025432052090764046,0.004335065372288227,-0.008666855283081532,0.010048815980553627,-0.022372711449861526,-0.020125949755311012,-0.030517559498548508,0.030059728771448135,0.013167748227715492,0.02831103652715683,-0.026025112718343735,-0.030907709151506424,-0.004439610056579113,-0.010777285322546959,-0.005986540112644434,0.008123014122247696,0.02415626496076584,0.015602966770529747,0.03153293579816818,0.022214757278561592,-0.023898212239146233,0.02533118426799774,0.031477127224206924,0.014275276102125645,-0.014939365908503532,-0.02796928398311138,-0.021819837391376495,0.010355674661695957,-0.02838759496808052,-0.022139064967632294,0.002922884188592434,0.03659796342253685,0.01915796846151352,0.022451292723417282,-0.012766759842634201,-0.020102111622691154,-0.030453599989414215,0.013409015722572803,0.01267867349088192,0.0104801245033741,0.01188955269753933,-0.020655199885368347,-0.009032259695231915,0.014681587927043438,-0.029233751818537712,0.026833737269043922,-0.022157223895192146,0.0032786838710308075,-0.028353247791528702,-0.009579936042428017,-0.007539214100688696,-0.015436549670994282,-0.033764906227588654,-0.00953545980155468,-0.007020714692771435,0.010741433128714561,0.021075071766972542,0.02290046587586403,0.0053545511327683926,0.0053744190372526646,0.008644439280033112,0.004134573042392731,-0.02065166085958481,-0.010544161312282085,0.031721826642751694,-0.040334172546863556,0.01650841161608696,0.029784535989165306,-0.016277853399515152,0.006896813400089741,-0.01636395789682865,-0.018859731033444405,-0.03023362159729004,-0.02167375758290291,0.006053693126887083,0.024390939623117447,0.0019239516695961356,0.012183204293251038,0.018321940675377846,-0.012230043299496174,-0.010257696732878685,0.015271572396159172,0.004286500625312328,-0.0007307989289984107,-0.0257539302110672,0.005285465158522129,-0.013810399919748306,0.01733185164630413,-0.026838792487978935,0.003744828049093485,0.012990670278668404,-0.0053183590061962605,-0.02111668512225151,0.02637464366853237,-0.0306053776293993,-0.002042090054601431,0.03008185513317585,-0.02299995720386505,0.021690623834729195,0.021049370989203453,-0.02290022000670433,-0.024174412712454796,0.031227778643369675,0.010665644891560078,0.004774811211973429,0.027304591611027718,-0.030595645308494568,0.005985266529023647,0.004346421919763088,-0.01394264679402113,0.015914546325802803,0.025184493511915207,-0.015226553194224834,-0.0008856802596710622,-0.014369716867804527,0.001003829762339592,0.020968209952116013,-0.01234337780624628,-0.004483683500438929,-0.0030953686218708754,-0.030005183070898056,0.019798370078206062,-0.0038167103193700314,-0.003758806036785245,0.027206843718886375,-0.007624516263604164,0.014809745363891125,0.013812370598316193,-0.01793365180492401,0.030173208564519882,-0.028457200154662132,0.00541637372225523,-0.03889375552535057,0.008589514531195164,-0.007752223405987024,-0.005961201153695583,0.0362473726272583,-0.004570928867906332,0.001145071117207408,0.024979140609502792,-0.025171419605612755,-0.01994636282324791,0.02793062850832939,0.039492618292570114,-0.007819894701242447,-0.01544043980538845,0.003264766186475754,0.02377982810139656,-0.023375755175948143,0.011073608882725239,-0.026097996160387993,-0.017230262979865074,0.02567923441529274,-0.03416023403406143,-0.013984228484332561,0.028618840500712395,-9.629601845517755e-05,-0.006669747177511454,-0.02906101942062378,-0.029636438935995102,0.010961619205772877,-0.009879039600491524,-0.007821791805326939,0.029123922809958458,-0.03508293628692627,0.009735011495649815,0.015946295112371445,0.0013318905839696527,-0.027289800345897675,-0.015196007676422596,-0.013712574727833271,0.033787455409765244,-0.008335895836353302,-0.005837342236191034,-0.03267904371023178,0.0002542037982493639,-0.0015095372218638659,0.01205239724367857,-0.003825305262580514,-0.0014566251775249839,0.023368466645479202,-0.02969466708600521,-0.014747509732842445,0.01214385312050581,-0.02049686573445797,0.029891319572925568,0.006254966836422682,0.028418196365237236,0.02198735624551773,0.024976298213005066,0.015723535791039467,0.008412213064730167,0.018608765676617622,-0.031086469069123268,0.023724349215626717,0.008460693061351776,-0.008729292079806328,0.017497584223747253,0.02184002660214901,-0.021042978391051292,0.006735655013471842,0.001247901120223105,-0.008304760791361332,-0.030008412897586823,0.007317812647670507,-0.03808774799108505,-0.00870638806372881,-0.0022512576542794704,-0.002186891157180071,-0.008532446809113026,-0.015116485767066479,-0.004241961520165205,-0.019004173576831818,-0.002927580615505576,0.005024643614888191,0.023681895807385445,-0.01043442077934742,0.02842945232987404,0.029081126675009727,0.019724732264876366,0.01977025903761387,-0.004528086632490158,0.03187919035553932,0.006109990645200014,-0.021624833345413208,0.021066974848508835,-0.0120923463255167,0.007509762886911631,-0.03828369081020355,-0.025913959369063377,0.006954805459827185,-0.016952522099018097,0.02649184688925743,0.023308616131544113,0.020624803379178047,-0.0033597967121750116,-0.014970466494560242,0.022787509486079216,0.027294276282191277,-0.0010629480239003897,0.012224365025758743,-0.012986070476472378,-0.006086511071771383,-0.013220567256212234,-0.0002915814984589815,-0.012971966527402401,-0.02726595662534237,0.014379404485225677,0.014239356853067875,0.012407311238348484,0.009525397792458534,-0.018130842596292496,0.025839440524578094,-0.027474751695990562,-0.02375422976911068,-0.02512018010020256,0.019588185474276543,0.005732051096856594,0.010511141270399094,-0.0334557481110096,0.002449778839945793,-0.03137526661157608,-0.03317365050315857,0.031719714403152466,-0.018748709931969643,0.020417651161551476,-0.0038840724155306816,0.019847525283694267,0.007149901241064072,0.023367591202259064,-0.021577637642621994,0.034188345074653625,-0.02343047969043255,-0.0005106013850308955,0.001284353551454842,-0.006663853302598,-0.026570048183202744,-0.02860565297305584,-0.021314434707164764,-0.0018305862322449684,0.02321423776447773,-0.037905365228652954,0.0302816703915596,0.01139718946069479,-0.02060035802423954,-0.01830499991774559,-0.023151258006691933,0.003287452971562743,-0.01769068092107773,0.018538134172558784,-0.01777728833258152,-0.013087999075651169,-0.005550535395741463,0.008306792005896568,0.030223306268453598,-0.029292060062289238,-0.013168595731258392,-0.017137426882982254,-0.026126544922590256,0.005931177642196417,0.020079290494322777,0.018907474353909492,0.013768360950052738,-0.009562184102833271,0.001906001241877675,-0.03401421010494232,-0.015318761579692364,0.022527001798152924,-0.013549963012337685,-0.010124191641807556,0.03040403127670288,0.006291604600846767,-0.0021583891939371824,-0.023103097453713417,-0.0015143105993047357,0.02929701656103134,