0.045522503554821014,-0.010467087849974632,-0.025157634168863297,0.04274310544133186,-0.06054189056158066,-0.024677051231265068,-0.04808017611503601,-0.02992788702249527,0.027004299685359,0.019451970234513283,0.020062485709786415,-0.04148494824767113,0.057918816804885864,0.027685366570949554,0.012986423447728157,-0.03724328428506851,0.019527239724993706,-0.04145229980349541,-0.019685989245772362,0.0521189384162426,-0.01793021149933338,0.042106736451387405,0.004293592181056738,-0.006836580112576485,0.03338978812098503,0.030706292018294334,0.02142583206295967,0.04311265051364899,-0.027539122849702835,0.03450700640678406,-0.03174503520131111,0.019931551069021225,0.047535695135593414,-0.03380865976214409,0.05132826417684555,0.003570583648979664,-0.042393699288368225,-0.02065751515328884,0.03577199950814247,0.0276347529143095,0.043673451989889145,0.0016957320040091872,-0.035724613815546036,-0.03553111106157303,0.044322606176137924,0.05282672122120857,-0.021511200815439224,0.030952438712120056,-0.04672544449567795,-0.042948465794324875,0.052574172616004944,-0.030436202883720398,0.00788406003266573,0.015899604186415672,-0.034429024904966354,0.058405425399541855,0.004236471373587847,0.03562705218791962,-0.041880249977111816,0.02287956327199936,0.02110324241220951,0.005788986571133137,-0.043322499841451645,0.008419588208198547,0.013989009894430637,0.04677944257855415,-4.438086034497246e-05,0.018991366028785706,-0.04367680102586746,-0.03019714169204235,0.012892731465399265,0.051987677812576294,0.03911328315734863,0.002787569537758827,0.01311680767685175,-0.05087451636791229,0.009832511655986309,0.04915845766663551,0.031274933367967606,-0.059502746909856796,0.05957012251019478,-0.031492266803979874,0.029591677710413933,-0.0064218188636004925,0.043802376836538315,0.061185017228126526,-0.03746941685676575,0.05341469123959541,-0.01041761040687561,-0.0041257645934820175,0.015032581984996796,-0.04397651553153992,-0.05451782047748566,0.004867393057793379,0.034242838621139526,-0.054020803421735764