0.01091471966356039,-0.04651537910103798,0.011058447882533073,-0.0004644694272428751,0.056082937866449356,-0.0077257538214325905,0.05549938976764679,-0.03286518529057503,0.01527258288115263,-0.017834963276982307,0.016900774091482162,0.020399123430252075,0.02246822416782379,-0.057950206100940704,0.017982663586735725,0.023293031379580498,0.007893809117376804,-0.03210017830133438,0.03651672601699829,0.006670701317489147,-0.062327008694410324,-0.03250013291835785,0.0065417042933404446,-0.03102877177298069,-0.032601773738861084,0.002813847502693534,-0.05767590180039406,0.017833394929766655,-0.03954200819134712,-0.047631170600652695,0.049476660788059235,0.010993802919983864,-0.033897120505571365,-0.004525394178926945,-0.046904876828193665,0.024509165436029434,-0.060902997851371765,0.059758275747299194,0.052239641547203064,-0.03987284377217293,-0.04968862608075142,0.012485536746680737,0.03620683774352074,0.0037268393207341433,0.05620982125401497,0.01669817604124546,-0.05136122554540634,0.03865572437644005,-0.02057168073952198,0.01791016012430191,0.027021499350667,0.022691993042826653,-0.03370203450322151,0.02567126601934433,0.046741265803575516,-0.0014479970559477806,-0.05302624776959419,0.008854901418089867,-0.029848922044038773,0.032432008534669876,-0.05649491399526596,-0.025395788252353668,-0.001820956589654088,0.04042224958539009