0.028332825750112534,-0.020218517631292343,0.027663713321089745,-0.02389109693467617,0.0277358777821064,0.029342373833060265,-0.004743673373013735,-0.004129347391426563,-0.016457663848996162,-0.014741184189915657,-0.0057755704037845135,-0.033428795635700226,0.01883135549724102,0.015967143699526787,-0.01717136986553669,-0.0345228835940361,0.034313175827264786,0.001574972178786993,-0.03543705865740776,0.01950422301888466,-0.0389421246945858,0.003604917787015438,-0.008515745401382446,0.03887929767370224,-0.016542626544833183,-0.03417360782623291,-0.0023204032331705093,-0.00024399871472269297,-0.020420800894498825,-0.015889784321188927,0.015567421913146973,-3.494666452752426e-05,-0.019312724471092224,-0.015217470936477184,-0.03203853592276573,-0.03800816461443901,-0.031524330377578735,0.015834933146834373,0.012496881186962128,-0.03415858745574951,0.0024448761250823736,-0.006536164786666632,-0.027716752141714096,-0.03785129636526108,0.01524229533970356,-0.03560798987746239,0.023976320400834084,0.030576318502426147,0.025017140433192253,0.03856722265481949,-0.03702612966299057,0.03936517983675003,-0.019654061645269394,0.026192370802164078,0.020300088450312614,0.005620182957500219,0.02752455696463585,-0.010358140803873539,-0.01941617950797081,0.035958364605903625,-0.03156423568725586,0.028304751962423325,-0.008939739316701889,0.01941727288067341,-0.009084758348762989,0.03370470553636551,0.004074456635862589,0.026123162358999252,-0.03008495457470417,-0.024792630225419998,0.02597912959754467,-0.02572624571621418,-0.002179018221795559,0.01833243854343891,-0.007479168474674225,-0.009292974136769772,-0.03240695223212242,-0.03389272466301918,-0.027588361874222755,-0.024823758751153946,0.011039934121072292,0.020299995318055153,-0.004692127462476492,-0.026435695588588715,0.019881220534443855,-0.03024272248148918,-0.016653012484312057,0.008360471576452255,0.006301773712038994,0.0022274672519415617,0.0060870032757520676,-0.005227097310125828,0.024616066366434097,0.038861971348524094,0.03489478677511215,-0.008467213250696659,-0.011950943619012833,-0.014561433345079422,0.008175731636583805,-0.0362425334751606,-0.01715836115181446,-0.014287619851529598,-0.014263908378779888,-0.019197983667254448,-0.03050866909325123,-0.013732722960412502,0.03480572625994682,-0.013536316342651844,-0.02245183289051056,-0.0009234137833118439,0.01768188178539276,-0.0011284142965450883,-0.015991581603884697,-0.036073196679353714,-0.012800578027963638,-0.038006819784641266,0.0343233160674572,0.03795083612203598,0.00905891228467226,0.01068822294473648,0.03216015547513962,0.02940993942320347,-0.03573233261704445,-0.019891876727342606,-0.02261465974152088,0.021197812631726265,0.02592983841896057,0.03664496913552284,0.0038384445942938328,-0.006500838324427605,-0.016947222873568535,0.013613604009151459,0.0014813480665907264,-0.004888006951659918,0.03867533430457115,0.0028002921026200056,-0.009215837344527245,0.03573455661535263,0.016445983201265335,-0.026316886767745018,-0.03173528239130974,-0.03768952935934067,-0.03685089945793152,0.0063784243538975716,6.270271114772186e-05,0.034027889370918274,0.021911554038524628,0.00400003045797348,-0.0393298864364624,0.023465193808078766,-0.033565543591976166,-0.010703060775995255,-0.016299046576023102,-0.020794130861759186,0.0058104838244616985,-0.00978468544781208,-0.010656341910362244,-0.012830846011638641,0.007367603946477175,-0.018042031675577164