-0.12105085700750351,-0.19009964168071747,-0.06721004098653793,0.08902905136346817,0.00399309117347002,0.07678715884685516,0.042419660836458206,0.05162334442138672,-0.03727494552731514,0.07713627815246582,-0.03671876713633537,-0.06602682173252106,-0.039322007447481155,-0.029145171865820885,-0.02507825195789337,0.04434258118271828,-0.021538525819778442,0.13792921602725983,-0.022753966972231865,-0.01718873530626297,0.022357990965247154,0.04537821561098099,-0.07949123531579971,0.0184333473443985,0.07914354652166367,-0.09349878132343292,-0.0823848769068718,-0.03212139010429382,0.002118822652846575,0.04228194057941437,-0.03217649459838867,0.02269088104367256,-0.04209806025028229,-0.01516171544790268,0.10936850309371948,-0.07473666220903397,0.09259093552827835,-0.1314859390258789,0.047447528690099716,0.11424574255943298,-0.09804759174585342,-0.024227706715464592,-0.0026710268575698137,-0.0658000186085701,-0.04329761862754822,-0.029844528064131737,0.048219338059425354,-0.11584412306547165,0.07686985284090042,0.16850915551185608,-0.00386897474527359,0.019824977964162827,-0.15682263672351837,0.005507087334990501,-0.00180294387973845,-0.1314190775156021,0.01362061221152544,-0.061471205204725266,0.06769498437643051,-0.014337895438075066,0.052709437906742096,0.10545223951339722,-0.058193568140268326,-0.10771366208791733,-0.011964273639023304,0.03998010605573654,-0.043984461575746536,-0.061081431806087494,0.03580150753259659,0.11387450993061066,0.038832589983940125,-0.01373226661235094,0.058935459703207016,-0.11480776965618134,-0.11340753734111786,0.08500076830387115,-0.19350388646125793,0.019477494060993195,0.1803899109363556,-0.029029127210378647,-0.0019809287041425705,-0.019159143790602684,0.06380140781402588,0.03504253178834915,-0.03346245363354683,-0.03804415464401245,-0.13277631998062134,0.05397645756602287,-0.03245553374290466,-0.1220879852771759,0.003355021821334958,-0.031018251553177834,-0.03923632204532623,0.08548977226018906,0.06368061900138855,-0.06610589474439621,-0.11201515793800354,-0.11457379907369614,-0.03874180465936661,0.0690668448805809,0.04191356897354126,-0.005856596864759922,0.009914731606841087,-0.0009998732712119818,-0.014419094659388065,0.13682228326797485,-0.004603865090757608,-0.13529278337955475,0.07630766928195953,-0.0071640536189079285,0.011267253197729588,0.03856879845261574,0.0007158074295148253,0.05713197961449623,0.02929527498781681,-0.04363587871193886,0.08613434433937073,-0.061629846692085266,0.09579938650131226,0.03793665021657944,0.09985606372356415,-0.024539679288864136,-0.00460053002461791,-0.10153763741254807,0.033068716526031494,0.03251567482948303,0.0435858778655529,-0.022860117256641388,0.017278172075748444,-0.015092873014509678,0.013796966522932053,-0.01967734470963478,-0.006390231661498547,-0.03211109712719917,-0.039638638496398926,-0.03810780495405197,-0.06487443298101425,-0.08936775475740433,0.041657060384750366,-0.2228623628616333,0.1317288875579834,-0.0883464589715004,0.048621565103530884,-0.023454129695892334,-0.01593906618654728,-0.05434190481901169,-0.14517030119895935,0.01931394636631012,-0.11363792419433594,-0.03662865608930588,-0.07021529227495193,-0.08510924130678177,0.0912187248468399,-0.035607341676950455,0.009554818272590637,0.0056259785778820515,0.006290210410952568,0.015637852251529694,-0.04446255415678024,-0.04977057874202728,0.02429211512207985,-0.005481400061398745,0.043887726962566376,0.015739034861326218,-0.0020515371579676867,0.05105968192219734,0.00429944833740592,-0.05223635584115982,-0.0041898502968251705,-0.020458344370126724,-0.05513836815953255,0.1088859885931015,-0.09980615973472595,-0.02134612761437893,0.10746880620718002,-0.1254454106092453,-0.028609134256839752,-0.05539765581488609,-0.08123452216386795,0.08956529200077057,0.022999374195933342,0.027111385017633438,0.04445599764585495,-0.1027350202202797,-0.10021421313285828,0.038791973143815994,0.1415299028158188,0.007995828054845333,0.05314469709992409,0.028051763772964478,0.01961151510477066,-0.07025904208421707,-0.13740570843219757,-0.1305263638496399,-0.050915829837322235,0.03139284998178482,-0.19691520929336548,-0.041288089007139206,0.000655094045214355,0.19448703527450562,-0.04534154757857323,-0.03833000734448433,-0.007385103963315487,-0.0056580714881420135,-0.014490495435893536,-0.006476240232586861,0.1060796007514,-0.012444669380784035,0.04056563600897789,0.008475176058709621,0.12893684208393097,-0.042476557195186615,0.05741334706544876,0.09522842615842819,0.009968981146812439,-0.018230736255645752,-0.05797244980931282,0.10643693804740906,-0.051457323133945465,-0.037094227969646454,0.012402975000441074,0.17746327817440033,0.025356248021125793,0.02866024523973465,0.00220848573371768,-0.09931308031082153,0.08420266211032867,0.0005740664200857282,-0.04685742035508156,-0.03289248049259186,-0.04467801749706268,-0.13097533583641052,-0.10723452270030975,-0.031247485429048538,-0.12805597484111786,-0.1164441928267479,0.050197403877973557,-0.03111855871975422,-0.09052493423223495,-0.038794055581092834,-0.036669932305812836,0.0912461057305336,-0.013824903406202793,0.019120221957564354,-0.1474214345216751,-0.056085553020238876,-0.18587464094161987,0.00596360769122839,0.21951141953468323,0.0738305002450943,0.08667147159576416,-0.0914870873093605,0.042666129767894745,0.017139414325356483,-0.032672759145498276,-0.10880299657583237,0.04101277515292168,-0.014152051880955696,-0.06809158623218536,-0.006992035079747438,-0.011452138423919678,-0.04679538309574127,-0.07168661803007126,-0.05894572660326958,-0.07994769513607025,-0.19192112982273102,-0.08277184516191483,-0.0096379853785038,-0.013689814135432243,-0.016406631097197533,0.09064538776874542,-0.09345395863056183,0.001566683524288237,-0.07169872522354126,-0.024700608104467392,0.05976874381303787,-0.15055866539478302,0.014430598355829716,0.1102738007903099,-0.09996655583381653,-0.004132633563131094,-0.10431697964668274,0.044724076986312866,0.03029060922563076,0.06259375065565109,-0.0047714500688016415,-0.10732180625200272,-0.044636938720941544,0.06748568266630173,0.1401388794183731,-0.15198320150375366,0.04149428382515907,0.02314198762178421,-0.024446140974760056,-0.0609528124332428,0.1690448820590973,0.0008469247259199619,-0.08058059215545654,0.0063118054531514645,-0.02583550103008747,-0.054117120802402496,0.005068490281701088,-0.042957328259944916,-0.0933459997177124,0.07315482199192047,-0.19299998879432678,0.025564832612872124,0.010289056226611137,-0.06300792098045349,-0.023707112297415733,-0.07865031063556671,-0.01412952970713377,0.03915059566497803,0.046094123274087906,-0.07389435172080994,0.17342843115329742,-0.07539848983287811,0.0024400108959525824,-0.14884980022907257,0.02780330181121826,0.09394606947898865,-0.04960906133055687,0.163160502910614,-0.023565955460071564,0.039365507662296295,-0.027188513427972794,0.16019445657730103,0.0272492878139019,-0.1423351913690567,0.04127655178308487,0.07922835648059845,0.15808968245983124,-0.08212161064147949,-0.0022877133451402187,-0.04666205868124962,0.08721141517162323,-0.06537142395973206,0.06533920764923096,0.009799419902265072,0.00565100135281682,-0.03772806376218796,-0.12240169942378998,-0.006171605084091425,-0.08788250386714935,-0.12576313316822052,0.04409964382648468,-0.004482248332351446,-0.030937958508729935,-0.009155351668596268,-0.09906785935163498,-0.057477932423353195,-0.06267760694026947,0.03793993592262268,0.013244764879345894,-0.08883441239595413,0.025438755750656128,-0.0014081927947700024,-0.02654394879937172,0.03366679325699806,-0.026333510875701904,0.08759687095880508,-0.005048958584666252,0.05346223711967468,0.10876946896314621,0.046199966222047806,-0.031937915831804276,-0.12953834235668182,0.011283458210527897,0.04025303199887276,-0.022099411115050316,-0.030127612873911858,-0.029931483790278435,-0.011433186940848827,-0.01641601324081421,-0.033390212804079056,0.055268775671720505,0.1466190218925476,-0.06715612858533859,0.07315412163734436,-0.04239366203546524,0.17588745057582855,-0.2532753646373749,-0.014769528061151505,-0.020595168694853783,0.07322882115840912,0.03002162277698517,0.09211528301239014,-0.0017658132128417492,-0.0072351922281086445,0.08558303117752075,-0.0025935466401278973,-0.09467444568872452,0.025857748463749886,-0.01912156119942665,-0.015430695377290249,-0.0669744461774826,-0.011552960611879826,-0.007841132581233978,-0.14028629660606384,0.010069732554256916,-0.06160709634423256,-0.20744341611862183,0.006084403023123741,0.04383291304111481,-0.21326784789562225,0.013632910326123238,0.05997367203235626,0.03350631892681122,0.007232119329273701,-0.002685540821403265,0.09756326675415039,-0.09066810458898544,-0.04393729940056801,-0.004340512212365866,-0.13660067319869995,-0.022875512018799782,0.005561181344091892,-0.030974403023719788,-0.029873352497816086,0.008306530304253101,-0.0023649483919143677,0.0436311811208725,-0.040699128061532974,0.018879326060414314,0.00811735074967146,-0.001716019120067358,0.07152237743139267,0.04258851334452629,-0.0733148455619812,-0.005633549299091101,0.014023367315530777,0.1331556737422943,-0.04658180847764015,-0.03808407112956047,0.002093406394124031,-0.010414308868348598,0.02404547855257988,-0.05444060266017914,0.0474688857793808,-0.03343756124377251,0.007496182341128588,0.09339545667171478,-0.0032502608373761177,-0.07518640160560608,-0.0892982929944992,-0.03160914406180382,-0.11065863817930222,-0.04851899296045303,0.0320122167468071,0.11114834994077682,-0.008797614835202694,-0.0046357205137610435,-0.0025605098344385624,-0.15819129347801208,-0.001805655425414443,-0.12463049590587616,0.03238803520798683,0.13599832355976105,-0.09587666392326355,0.16781535744667053,-0.09311053156852722,-0.056954074651002884,-0.06552491337060928,-0.0552118644118309,-0.013880052603781223,0.007380879484117031,-0.05855324864387512,0.016192659735679626,0.28926903009414673,-0.027474895119667053,-0.16840249300003052,-0.1359134465456009,0.012450090609490871,0.1442471742630005,-0.014370718039572239,-0.016604319214820862,-0.006840521469712257,-0.0666273683309555,0.01081622950732708,0.03653428331017494,0.1685982644557953,0.09994102269411087,-0.00011784974776674062,-0.0027949614450335503,-0.11426081508398056,-0.08220066875219345,-0.0376134067773819,-0.174146831035614,0.04536956176161766,0.05952209234237671,-0.010405364446341991,-0.05819563567638397,0.023571670055389404,0.0043422565795481205,0.006083476357161999,-0.0699426457285881,-0.024077238515019417,-0.20890161395072937,0.10546352714300156,0.1417115032672882,-0.06395655125379562,0.0650925561785698,0.1778797209262848,0.02882731519639492,0.07667425274848938,0.027032233774662018,0.0045891208574175835,-0.020981580018997192,-0.03654029592871666,-0.0097891204059124,-0.17862747609615326,0.009935385547578335,0.09820573776960373,-0.048349328339099884,-0.043478719890117645,-0.05684484541416168,-0.04777238890528679,0.04384584352374077,0.012002815492451191,-0.11122899502515793,0.018927980214357376,-0.025981003418564796,0.09712900221347809,-0.03907407075166702,-0.12186706811189651,-0.033806074410676956,0.04768504947423935,0.18507950007915497,-0.05107927694916725,-0.0009094970300793648,0.009075617417693138,0.0025183928664773703,-0.07247036695480347,-0.048924770206213,0.0024610215332359076,0.06948398798704147,-0.08579054474830627,0.0847393274307251,0.06105588376522064,0.11170877516269684,-0.02577604539692402,-0.0054610553197562695,-0.043897680938243866,-0.08030418306589127,0.09123088419437408,0.05259174108505249,-0.14108893275260925,-0.017679870128631592,0.08251750469207764,0.0007897520554251969,0.019346341490745544,-0.06250777095556259,-0.11117766052484512,0.04003799334168434,-0.07775338739156723,-0.15117527544498444,-0.06760583072900772,-0.037309739738702774,0.06479789316654205,0.036419279873371124,-0.041965726763010025,0.1250850409269333,-0.150665283203125,-0.01802920736372471,0.07598738372325897,-0.014998682774603367,-0.08434614539146423,-0.010767747648060322,0.0462590716779232,-0.12464658915996552,0.15565329790115356,-0.0675024539232254,-0.03153631091117859,-0.12320183962583542,0.019017986953258514,-0.0327523872256279,-0.027621274814009666,0.05761079117655754,0.059829287230968475,0.059178005903959274,0.007461586035788059,-0.124603770673275,-0.06740542501211166,0.029992995783686638,0.019364962354302406,0.021184364333748817,-0.018014151602983475,-0.07085292041301727,0.014903290197253227,0.011689644306898117,0.04814731329679489,-0.03342984989285469,0.02658155746757984,0.0713944211602211,-0.008708799257874489,0.028657175600528717,-0.09240010380744934,0.055730074644088745,0.05953086540102959,0.007942805998027325,-0.029021134600043297,-0.002484789351001382,-0.009368675760924816,0.011575342155992985,0.006017433013767004,0.08585043996572495,-0.01650291495025158,0.032259367406368256,0.12505574524402618,0.05191991478204727,-0.06572192907333374,-0.05366459861397743,-0.022336145862936974,-0.009526385925710201,-0.041392166167497635,-0.14898578822612762,-0.06072211638092995,-0.06084342300891876,-0.20079568028450012,-0.04501679167151451,0.060666583478450775,-0.05865461751818657,-0.04689990356564522,-0.11739453673362732,-0.02003045566380024,-0.1531108170747757,-0.05429499223828316,-0.00321856583468616,0.1286424696445465,0.05812928080558777,-0.07801049947738647,-0.0486210472881794,0.06708989292383194,-0.09992937743663788,-0.11336420476436615,-0.03037809580564499,0.02092934213578701,-0.010169687680900097,-0.021388018503785133,0.0433892197906971,-0.04834472015500069,0.033116843551397324,-0.015868036076426506,-0.06247112527489662,-0.061170659959316254,0.07920340448617935,-0.05699973925948143,-0.05147687345743179,0.04035867750644684,-0.059663668274879456,0.10906824469566345,-0.018466392531991005,0.04576536640524864,0.007106455974280834,-0.009277262724936008,-0.05336637422442436,-0.013942069374024868,-0.010219158604741096,0.0074003832414746284,0.03432837873697281,-0.20129147171974182,0.02445799671113491,0.03579205274581909,-0.061149053275585175,0.09157517552375793,0.1457260251045227,0.13185273110866547,-0.00507507286965847,0.08798367530107498,-0.08015328645706177,0.11058245599269867,-0.02485773339867592,-0.07845734059810638,-0.013526747934520245,-0.016138441860675812,-0.030277622863650322,-0.053705450147390366,-0.044529080390930176,-0.06497228145599365,0.026837840676307678,0.03807683661580086,-0.17516455054283142,0.03446347266435623,0.09199569374322891,0.02941436693072319,0.01348042394965887,0.09609871357679367,-0.008883696049451828,0.08788810670375824,0.16349852085113525,-0.13861705362796783,0.00692124105989933,-0.06250348687171936,0.04029654338955879,0.000971130735706538,-0.004750183317810297,0.10262392461299896,0.0005677394801750779,0.01964406855404377,0.0002994381356984377,0.09283801913261414,-0.04253893345594406,-0.09274770319461823,0.009664159268140793,-0.046154942363500595,-0.007870784029364586,-0.17987540364265442,0.0007601490942761302,-0.00127969472669065,-0.026322640478610992,-0.024126512929797173,-0.1499929428100586,-0.09620081633329391,-0.038193996995687485,-0.11244698613882065,-0.03620069846510887,-0.07002176344394684,0.025857795029878616,-0.06473743170499802,-0.06119166314601898,-0.0861300602555275,-0.12430666387081146,0.0042646280489861965,-0.02894873172044754,0.1096356138586998,0.14844371378421783,0.054969727993011475,-0.03069324418902397,0.01982591301202774,-0.024974314495921135,-0.031355153769254684,-0.03034767508506775,-0.04937739297747612,0.09628688544034958,0.06737685948610306,0.14949551224708557,0.045056670904159546,-0.03384363651275635,0.051273610442876816,-0.02648271806538105,-0.062404483556747437,0.06944001466035843,-0.06324884295463562,-0.029025848954916,-0.07078191637992859,0.05166994407773018,0.06303419917821884,-0.06693419814109802,0.07823178172111511,-0.03714202344417572,0.0406290702521801,-0.016550980508327484,0.07765905559062958,-0.08738933503627777,0.09272471815347672,-0.014346444047987461,-0.21188318729400635,0.004010453820228577,0.14264068007469177,-0.06603236496448517,-0.010737337172031403,0.14103208482265472,0.16238127648830414,-0.05760534107685089,0.05342956259846687,-0.023910757154226303,-0.005457405932247639,0.0589764341711998,0.14017735421657562,0.03834228217601776,0.09397152811288834,-0.04197409376502037,0.023966364562511444,-0.06696905940771103,0.022402949631214142,-0.23199914395809174,0.05025260150432587,-0.11680693924427032,-0.004092124756425619,-0.08002089709043503,0.14214152097702026,0.01629292592406273,-0.0294360239058733,-0.1646195352077484,0.05132395029067993,0.100198894739151,-0.04267977550625801,0.13192783296108246,-0.10416080057621002,0.026922758668661118,0.027304375544190407,-0.007998934015631676,0.11252617835998535,-0.0783669576048851,-0.052963417023420334,0.0497320257127285,-0.0031478097662329674,-0.12134053558111191,-0.0584573894739151,0.024268973618745804,-0.0643177479505539,-0.02644883096218109,-0.25002577900886536,-0.045300308614969254,0.02388601377606392,-0.07261980324983597,0.009035532362759113,-0.07981198281049728,0.05243436619639397,-0.03033890761435032,-0.04726910591125488,-0.047249775379896164,-0.08578279614448547,0.01391551736742258,-0.0786171406507492,-0.10391507297754288,-0.006579970475286245,-0.012407351285219193,-0.06393963098526001,-0.08199618011713028,0.08958940207958221,0.03054017573595047,-0.021073127165436745,-0.06466193497180939,0.03788904473185539,-0.15959911048412323,-0.0689978152513504,-0.09021858125925064,0.08283095806837082,0.11984799057245255,0.04376666247844696,-0.030749741941690445,0.08448290824890137,0.06681044399738312,-0.003311693435534835,0.020907524973154068,-0.03304153308272362,0.02757270820438862,-0.011784630827605724,-0.013025548309087753,-0.24968236684799194,0.041880879551172256,0.08178160339593887,-0.10115495324134827,0.1103454977273941,-0.0011943792924284935,-0.0018379701068624854,-0.0254974327981472,0.12933780252933502,-0.09433996677398682,0.029775872826576233,0.03340519592165947,-0.15767991542816162,0.027112888172268867,0.16983479261398315,-0.007810300216078758,-0.047989483922719955,0.028448820114135742,0.1340791881084442,0.012235184200108051,0.009011703543365002,-0.049641203135252,0.015566595830023289,-0.1041545495390892,-0.06363721936941147,0.002465667203068733,-0.04076847434043884,-0.0714518204331398,0.06693907082080841,0.08516714721918106,-0.03344613313674927,0.030730683356523514,-0.08060053735971451,0.0321555957198143,-0.032154276967048645,-0.021528460085392,0.034903235733509064,-0.01263763289898634,-0.011092254891991615,0.023177731782197952,0.0397825688123703,0.15014760196208954,-0.0760442316532135,-0.07759398967027664,0.005506440065801144,-0.07660188525915146,0.05719656124711037,-0.022647123783826828,-0.06370076537132263,0.042587146162986755,-0.04734953120350838,-0.050133489072322845,0.03457963466644287,0.04972637817263603,-0.07340861111879349,-0.004579825326800346,0.1498304009437561,0.024666229262948036,-0.05228821933269501,-0.03947574272751808,0.009095417335629463,-0.06051486358046532,0.08138562738895416,-0.015313680283725262,-0.05998377129435539,0.01820998080074787,0.006655969191342592,0.01067387219518423,-0.07104210555553436,0.04338966682553291,-0.053040649741888046,0.03242872282862663,-0.09765134751796722,0.10330488532781601,0.14209654927253723,-0.09324448555707932,0.0571141242980957,-0.012909616343677044,-0.03913572058081627,0.005253611598163843,0.0696435496211052,-0.07141324132680893,-0.11559562385082245,0.06347303092479706,-0.014574485830962658,0.02928236499428749,0.18448852002620697,0.07077036798000336,-0.05976329371333122,0.007205078843981028,0.016374507918953896,-0.0055350661277771,-0.13563862442970276,0.09598778933286667,-0.11401505768299103,0.07318498194217682,0.016521520912647247,0.010798366740345955,0.013312647119164467,-0.029130656272172928,-0.1313188523054123,0.020003870129585266,0.018338171765208244,0.04818755388259888,0.018324753269553185,0.06347507238388062,0.06535348296165466,-0.04555781930685043,0.0583806186914444,-0.04337741434574127,0.037741415202617645,-0.12299832701683044,-0.03725085407495499,0.0649465024471283,0.13327272236347198,0.043386947363615036,-0.07891421765089035,-0.03579219430685043,0.014668558724224567,0.13877512514591217,-0.004803858231753111,-0.1753351241350174,0.11071296036243439,-0.017450988292694092,0.04809757322072983,0.14630615711212158,-0.06890863180160522,0.024386635050177574,-0.01404919009655714,-0.0706193745136261,0.015785885974764824,-0.10596475005149841,0.14290103316307068,-0.051113855093717575,0.0033060593996196985,0.0027870982885360718,0.015889715403318405,0.12723968923091888,-0.09404995292425156,-0.10728443413972855,-0.03361634537577629,-0.06675368547439575,0.08131498843431473,-0.025547020137310028,-0.0165821872651577,0.01698612980544567,0.14810512959957123,-0.11970490217208862,0.06140443682670593,-0.012669261544942856,-0.13435696065425873,0.01911427639424801,0.0024995976127684116,0.05881255492568016,-0.06676936149597168,-0.10197889804840088,-0.005428933538496494,-0.030946234241127968,0.05066439136862755,-0.026910219341516495,0.07892458140850067,-0.01823725923895836,-0.15682947635650635,-0.04570094123482704,0.09191431850194931,0.051649656146764755,-0.06371332705020905,0.1019219160079956,0.058653611689805984,-0.166970357298851,0.06848982721567154,-0.0949237272143364,-0.03951531648635864,0.16565385460853577,-0.03476410731673241,-0.0668141096830368,0.04532775282859802,-0.08529413491487503,0.02215736359357834,-0.00430847704410553,-0.039063479751348495,0.05681925639510155,0.10931108146905899,0.03580131754279137,-0.019962171092629433,-0.04631219059228897,0.11889176815748215,-0.04672999307513237,0.011054755188524723,-0.014766332693397999,0.0009542587795294821,0.03458746150135994,0.018403101712465286,0.05216105654835701,0.002036562655121088,-0.03438085317611694,-0.0788520947098732,0.03320099040865898,0.10660308599472046,-0.01142402645200491,-0.038495924323797226,-0.012908224947750568,0.016763191670179367,-0.14281415939331055,-0.004913820885121822,0.018591901287436485,0.1683795303106308,-0.12522543966770172,0.02495550736784935,0.06439672410488129,0.1270899772644043,0.0007531060837209225,-0.04922926053404808,0.20804888010025024,0.0804244726896286,-0.00602548336610198,-0.12105486541986465,-0.10183244943618774,0.19579720497131348,-0.010903257876634598,-0.04702630266547203,0.0021703508682549,-0.00328235630877316,0.11205914616584778,0.08619720488786697,0.07862553745508194,-0.023026492446660995,0.0601867213845253,0.0016616284847259521,0.027158474549651146,0.07815123349428177,-0.07963482290506363,0.027059517800807953,0.13177917897701263,-0.019514264538884163,-0.10207793861627579,0.11159130930900574,-0.06226213276386261,0.023118408396840096,-0.018876953050494194,-0.0030268344562500715,0.03278682380914688,0.13688980042934418,-0.07693514972925186,0.040868207812309265,-0.05921937897801399,-0.10207940638065338,-0.0010568674188107252,-0.1223575696349144,0.022743871435523033,-0.10438591241836548,-0.10648832470178604,0.028140725567936897,0.021461378782987595,-0.024525299668312073,0.11081702262163162,0.003309132531285286,-0.04288554936647415,-0.050690699368715286,-0.028794707730412483,0.015521394088864326,0.06586585938930511,-0.08846131712198257,0.018055060878396034,0.25499075651168823,0.07832979410886765,0.1381363570690155,-0.0535447858273983,-0.038122691214084625,-0.008352527394890785,-0.14289459586143494,-0.05126556381583214,0.013022118248045444,0.015069597400724888,0.020707571879029274,-0.04640961438417435,-0.06672953814268112,0.06029435992240906,-0.16852059960365295,-0.09608518332242966,0.06125790998339653,-0.05307507514953613,0.0280891265720129,-0.027024760842323303,0.0027796977665275335,-0.007474007084965706,0.002031617797911167,-0.05967507138848305,-0.10196854174137115,0.05405417084693909,-0.035306911915540695,0.016647309064865112,0.015095606446266174,0.010900421068072319,-0.038775939494371414,0.11241943389177322,-0.04855949059128761,-0.022480133920907974,0.025804303586483,-0.029886776581406593,0.020884159952402115,-0.03554152697324753,0.05880262330174446,-0.02172560803592205,-0.10301858931779861,0.06611703336238861,0.02778647653758526,-0.015185904689133167,0.021809814497828484,-0.031045686453580856,0.03834480047225952,0.02417895384132862,-0.03274354338645935,0.08144078403711319,-0.00041629321640357375,-0.02148250862956047,0.006999960169196129,-0.08377561718225479,-0.07013382762670517,-0.09398527443408966,-0.013814368285238743,-0.05372894927859306,0.0009090755484066904,-0.06476423889398575,-0.005233534146100283,-0.025985196232795715,0.03418219834566116,-0.04775978624820709,-0.02448205277323723,-0.0718139186501503,0.01979903317987919,0.0040979040786623955,-0.1446245014667511,-0.06766332685947418,0.10731686651706696,0.036421455442905426,-0.03028772957623005,0.11585512012243271,-0.11933737248182297,-0.001447852817364037,-0.03876332566142082,0.014420068822801113,-0.01557487715035677,0.03299061208963394,0.003155577927827835,-0.06635260581970215,0.0051969136111438274,-0.03070341981947422,0.00739905284717679,0.07247312366962433,0.05320841073989868,-0.07245538383722305,0.033800724893808365,-0.04584573209285736,-0.03802384063601494,-0.07526177912950516,0.019269181415438652,0.04613005369901657,-0.11499639600515366,-0.08586204797029495,-0.03118140809237957,0.012272967956960201,-0.026516728103160858,0.06243742257356644,0.024565821513533592,-0.011072400957345963,-0.020673125982284546,-0.033049773424863815,0.07095865160226822,0.22882932424545288,-0.08689273148775101,0.09757460653781891,0.06494572758674622,-0.029805203899741173,-0.11455485224723816,0.013358844444155693,-0.03277122974395752,-0.03831881657242775,-0.1787218451499939,0.004461618140339851,-0.1138562336564064,0.05153265222907066,-0.02854614146053791,0.043736495077610016,0.07542511820793152,-0.015952715650200844,-0.04386705905199051,0.02844323217868805,0.021407173946499825,-0.07457949966192245,0.14414547383785248,0.08347559720277786,0.15059641003608704,0.09690666198730469,0.05214717984199524,0.13695909082889557,-0.12422218918800354,-0.003410369623452425,-0.20083050429821014,-0.01205251645296812,0.04642536863684654,0.027912892401218414,-0.034666068851947784,0.029325328767299652,0.09191834926605225,-0.018722666427493095,0.0059394813142716885,0.05977896228432655,-0.031511593610048294,-0.11549133062362671,-0.013739162124693394,0.04152057319879532,-0.0330023393034935,0.1934112161397934,0.05190343037247658,-0.05010215565562248,-0.04149198159575462,0.07071124762296677,0.023737506940960884,-0.00878529716283083,-0.0008725155494175851,-0.0008922357228584588,0.07070320099592209,0.01609094999730587,0.009773039259016514,-0.10243968665599823,0.01708788052201271,0.04952448606491089,-0.004205078352242708,-0.06082291156053543,0.06206595152616501,0.039379511028528214,0.13484352827072144,0.08662991225719452,0.007857085205614567,-0.08397340774536133,-0.14545175433158875,-0.07947255671024323,-0.005375022068619728,0.01163237914443016,-0.060724664479494095,-0.07040117681026459,-0.1183043047785759,-0.07271409779787064,0.002195549663156271,0.016795624047517776,-0.14474180340766907,-0.09183003753423691,-0.030388571321964264,0.056771617382764816,0.00412975437939167,0.09574679285287857,0.18763212859630585,-0.004099446814507246,0.12719328701496124,0.2919907867908478,0.0432986319065094,-0.12783902883529663,-0.03307387977838516,-0.012566214427351952,-0.016793109476566315,0.024862471967935562,-0.018010128289461136,0.19594743847846985,-0.023345254361629486,0.08024519681930542,0.014903325587511063,-0.12738482654094696,0.10070928931236267,-0.013063051737844944,0.10417886078357697,-0.036124005913734436,-0.022905258461833,-0.0031563069205731153,-0.056490156799554825,0.02947930432856083,0.04434312880039215,0.028008056804537773,0.12261000275611877,-0.1198689341545105,0.06746126711368561,-0.11555217206478119,0.00351471034809947,-0.037552639842033386,-0.030785955488681793,-0.07312747091054916,-0.054051823914051056,0.0085220318287611,-0.07222458720207214,-0.058545272797346115,0.05079752951860428,0.02391156367957592,0.025805363431572914,0.05340786278247833,0.014325158670544624,-0.11317381262779236,0.10214080661535263,-0.03297153487801552,-0.00834599044173956,-0.09354513138532639,-0.03715018555521965,-0.04173823073506355,-0.030708428472280502,-0.04168453440070152,-0.020672079175710678,-0.10401098430156708,0.09660635143518448,0.06696244329214096,0.03108346462249756,0.04340940713882446,0.03050350956618786,0.001969333039596677,-0.014236349612474442,0.10111168026924133,0.03732728585600853,0.06401301920413971,-0.014494765549898148,0.029170216992497444,0.08530059456825256,0.009879011660814285,0.04167596250772476,-0.009052976965904236,0.1041177436709404,-0.0831153616309166,0.1268097460269928,0.037237100303173065,0.05624280497431755,-0.03968491405248642,-0.0049582114443182945,-0.06658172607421875,0.042287278920412064,-0.0213288776576519,-0.04927711933851242,-0.05230385810136795,0.03297429904341698,0.03216593340039253,-0.08841047435998917,0.0539436861872673,-0.15612883865833282,-0.04145655035972595,0.048877064138650894,-0.08362950384616852,-0.04809937626123428,-0.04424209147691727,-0.11424174904823303,0.01118056382983923,0.11805664002895355,0.012052398175001144,0.052859269082546234,0.09014035016298294,0.09109580516815186,0.1363835483789444,0.09245531260967255,-0.02653266116976738,-0.009428552351891994,-0.030930034816265106,-0.016162127256393433,0.12214035540819168,0.03667410463094711,-0.07588566839694977,-0.05906718224287033,0.005174021236598492,-0.008136894553899765,-0.11984959989786148,0.09304007142782211,-0.008388557471334934,0.04195449501276016,-0.12159296870231628,0.012820701114833355,0.10922672599554062,0.06908490508794785,-0.022279879078269005,0.04700193554162979,-0.06277573108673096,0.09560733288526535,0.029620710760354996,0.029475143179297447,0.06475195288658142,-0.0761389210820198,-0.12365654110908508,0.041438471525907516,0.03533058613538742,-0.029348652809858322,0.0346502922475338,-0.07221294194459915,-0.03847934305667877,-0.1120033785700798,-0.0859200656414032,0.01861472986638546,-0.03699307516217232,-0.037359777837991714,-0.06628730148077011,-0.14999912679195404,-0.10643992573022842,0.11341625452041626,0.017949679866433144,-0.11046898365020752,-0.0660489946603775,0.054478518664836884,0.027052532881498337,-0.056234266608953476,-0.035406529903411865,-0.04837353900074959,-0.006793845910578966,0.03251900151371956,0.010438494384288788,-0.06522006541490555,-0.03540783375501633,0.0343695804476738,-0.09691300988197327,0.020945290103554726,-0.07116932421922684,-0.05451645329594612,0.022176140919327736,0.06453125178813934,-0.07853397727012634,-0.020977403968572617,-0.058695077896118164,0.007968994788825512,-0.05215431749820709,-0.03971971943974495,-0.13907422125339508,0.05995377525687218,0.033306363970041275,0.05037356913089752,0.084696926176548,0.0128370001912117,-0.04807859659194946,-0.0667240098118782,0.0712679773569107,-0.04370458424091339,-0.019935891032218933,0.027035819366574287,-0.014741606079041958,0.010849392972886562,0.02464626543223858,-0.033317681401968,0.04612903669476509,0.06910094618797302,-0.125602126121521,0.10150454193353653,0.022128256037831306,-0.05365221947431564,-0.004877390805631876,0.11945986747741699,-0.07969924807548523,-0.05820847302675247,0.05967477709054947,-0.17833709716796875,0.10814658552408218,-0.03225082531571388,-0.020776135846972466,-0.08193428814411163,-0.025672851130366325,-0.0824180543422699,-0.03603712469339371,-0.01642531529068947,0.1531991809606552,0.0010744525352492929,0.08979136496782303,-0.025025632232427597,0.001809714245609939,-0.023052014410495758,-0.024128777906298637,-0.004494083113968372,0.021736860275268555,-0.21513396501541138,-0.005000694189220667,-0.06417861580848694,-3.433332312852144e-05,-0.0023887455463409424,-0.03241434320807457,0.020248642191290855,-0.010988607071340084,0.010142285376787186,-0.03716449439525604,0.013079552911221981,0.09780348837375641,-0.03765038773417473,0.10612732172012329,0.13489864766597748,0.03236610069870949,-0.00985004287213087,0.048022571951150894,0.039419304579496384,-0.09313017874956131,-0.0952201560139656,-0.07200681418180466,0.09003235399723053,-0.03011941909790039,0.05375637859106064,-0.00101794907823205,-0.037959448993206024,0.009717273525893688,0.009455772116780281,0.021267404779791832,0.1142735555768013,0.0043587638065218925,-0.04910453036427498,-0.0023357307072728872,0.04719584435224533,-0.05078974738717079,-0.04610596224665642,0.1063811406493187,0.008083617314696312,-0.08995350450277328,0.0005262925988063216,-0.06826386600732803,0.033254195004701614,0.02204163558781147,-0.060909539461135864,-0.12200059741735458,0.0173480324447155,0.03867105394601822,-0.01297602616250515,0.04658777639269829,0.01587277464568615,0.14095818996429443,0.06639882177114487,0.03787979111075401,-0.10314298421144485,0.012994068674743176,-0.04896398261189461,0.02959289588034153,-0.05851200968027115,-0.029947878792881966,0.11058538407087326,0.030269049108028412,-0.021116716787219048,-0.007065589539706707,0.014484696090221405,-0.0038719256408512592,0.014563164673745632,0.062228262424468994,-0.12377864867448807,0.030682295560836792,0.022550921887159348,0.06576905399560928,-0.0015867436304688454,0.0304926298558712,0.02611272782087326,0.05312010645866394,0.11183812469244003,-0.00900773424655199,-0.11243665963411331,-0.09622792899608612,0.057885218411684036,-0.03145812079310417,-0.09481512755155563,0.033300552517175674,0.013342536054551601,-0.006803321652114391,-0.02938079461455345,0.12231897562742233,0.04142563417553902,-0.17258884012699127,-0.006708680652081966,0.08774387091398239,0.13574135303497314,0.1146603599190712,-0.008171803317964077,-0.09656354039907455,0.03637513518333435,-0.012949861586093903,-0.03447125852108002,-0.019162097945809364,0.0810815691947937,0.024156197905540466,-0.09017794579267502,0.04039565846323967,0.06348098069429398,-0.04307343438267708,-0.16517232358455658,-0.05639232322573662,-0.009044574573636055,-0.14743444323539734,-0.06464207172393799,-0.03798842430114746,-0.012735076248645782,0.04771330952644348,0.11161787807941437,-0.015494086779654026,-0.06116686388850212,0.016296636313199997,-0.09819501638412476,0.055324945598840714,0.001804678002372384,0.0901411846280098,-0.1318623274564743,0.03207596391439438,-0.04784156009554863,-0.03341580927371979,0.07854293286800385,0.02327263355255127,-0.09538683295249939,0.03106618858873844,0.06962481141090393,-0.08043460547924042,-0.010498370043933392,0.09697505831718445,0.018697142601013184,-0.07603050768375397,0.012140430510044098,-0.056384678930044174,0.1337531954050064,-0.012181940488517284,-0.11762607842683792,0.0333067923784256,0.028452424332499504,-0.030456023290753365,0.02841620147228241,0.05380503833293915,0.08510875701904297,0.09921441972255707,0.019730480387806892,0.06830872595310211,-0.046228788793087006,-0.028322774916887283,-0.06838680803775787,0.019426846876740456,-0.016793711110949516,0.033002953976392746,-0.09417860954999924,-0.021810228005051613,0.14126227796077728,0.0009000710560940206,-0.03163648024201393,0.02490236982703209,-0.038961030542850494,-0.05101064592599869,0.07778138667345047,0.05048748105764389,0.033678680658340454,-0.025251056998968124,0.06108623370528221,0.0486614964902401,-0.0065322015434503555,0.06441418081521988,0.03832734003663063,-0.0039599016308784485,-0.17753730714321136,-0.08560941368341446,-0.073318250477314,-0.056777119636535645,-0.027014287188649178,-0.01317282859236002,-0.08246658742427826,0.00093974603805691,-0.04770500957965851,-0.07041240483522415,0.05671205371618271,-0.11699694395065308,-0.013256347738206387,0.012202386744320393,0.11259904503822327,0.04083181545138359,-0.016407988965511322,-0.11137484759092331,0.14131732285022736,-0.006223055999726057,-0.016009768471121788,-0.008397632278501987,0.033652059733867645,-0.07049843668937683,-0.05228259414434433,0.08871892839670181,0.10579396039247513,-0.07164955139160156,-0.03959251940250397,0.009760584682226181,-0.08923439681529999,-0.061610639095306396,0.02327970787882805,-0.02546587586402893,-0.13162800669670105,0.12623991072177887,0.18060624599456787,-0.07567156106233597,-0.013266721740365028,-0.016202211380004883,-0.20546887814998627,-0.04662591218948364,0.07219059020280838,-0.007126292213797569,-0.1326613873243332,-0.036940716207027435,0.02025694213807583,-0.0157240629196167,0.02169189415872097,-0.08819421380758286,-0.04951668903231621,-0.010582199320197105,-0.029295701533555984,0.0510127954185009,0.006638512015342712,-0.11640805006027222,-0.002197003224864602,0.08792342990636826,0.026689115911722183,0.11186883598566055,-0.04844868183135986,0.012967371381819248,-0.0761057585477829,-0.14466576278209686,0.03120035119354725,0.042239103466272354,0.03888697549700737,-0.00016003218479454517,0.1804656833410263,-0.06404556334018707,0.023018836975097656,-0.031401727348566055,-0.02005804143846035,0.03446735069155693,-0.04484076425433159,-0.07356861233711243,-0.020521890372037888,0.01627025008201599,-0.08488908410072327,-0.012950318865478039,-0.03281732276082039,0.0026592910289764404,0.015836898237466812,0.012052820064127445,0.056967221200466156,0.0223365630954504,-0.006489713676273823,-0.084109827876091,0.08622334897518158,0.004076155833899975,-0.20650386810302734,0.1402083933353424,-0.15671199560165405,-0.060704488307237625,-0.03712041676044464,0.011089257895946503,0.056168556213378906,-0.03974268212914467,-0.04462695121765137,-0.028991997241973877,-0.13499116897583008,0.029450472444295883,0.0817544162273407,0.06451226025819778,-0.02292327955365181,0.049745697528123856,-0.060662321746349335,-0.0016825859202072024,-0.0037908852100372314,0.06563471257686615,0.03414485603570938,-0.06831061840057373,0.01167602650821209,-0.059870246797800064,-0.005820794962346554,-0.005642377771437168,-0.05576249584555626,-0.028932854533195496,-0.09075411409139633,0.02545127458870411,0.05787124112248421,-0.10392588376998901,-0.04024315997958183,-0.02142202854156494,-0.13873985409736633,-0.03623387590050697,-0.1099652349948883,-0.0352504700422287,-0.05971337482333183,-0.015276639722287655,0.04769046977162361,-0.00283725094050169,-0.06292541325092316,-0.019482752308249474,0.00275798630900681,0.01168682798743248,-0.023326577618718147,-0.06316084414720535,0.04015050455927849,0.047568343579769135,-0.03441209718585014,0.10762568563222885,-0.05699918046593666,-0.004760866053402424,-0.11392765492200851,-0.14495337009429932,0.07354327291250229,-0.056612055748701096,-0.09546348452568054,0.021324653178453445,-0.042729638516902924,-0.0738329216837883,-0.05423562973737717,-0.07846123725175858,0.00842689536511898,-0.01803891360759735,0.02932765521109104,-0.008024686016142368,-0.030945470556616783,0.17217212915420532,0.030349479988217354,0.0031187930144369602,0.06534895300865173,0.01868261769413948,-0.036171745508909225,-0.059463437646627426,-0.02196699194610119,0.008215164765715599,0.09160614758729935,-0.04627478867769241,0.0337255522608757,-0.08271791785955429,0.1074056401848793,-0.056389253586530685,0.03359590843319893,0.00026012389571405947,0.012732441537082195,0.02711424045264721,0.06038496643304825,-0.055182743817567825,0.0013054964365437627,-0.011956412345170975,0.01021026261150837,-0.10147513449192047,0.04507489129900932,0.01550467312335968,0.042605210095644,0.05525900050997734,-0.008003813214600086,-0.1408568024635315,-0.05007239803671837,-0.1323939859867096,-0.04848461225628853,0.014690520241856575,-0.04943116009235382,0.0007123809191398323,-0.1372036337852478,0.0029254185501486063,-0.034128978848457336,0.09602558612823486,-0.048417288810014725,-0.05625694990158081,0.17777863144874573,-0.10850945860147476,0.008309738710522652,0.034232091158628464,0.054886579513549805,-0.05613097921013832,0.014150772243738174,0.0023816183675080538,0.10324610024690628,-0.01624811440706253,-0.013910920359194279,0.13901866972446442,0.01643492467701435,-0.070598304271698,-0.09368844330310822,0.06892062723636627,-0.07051185518503189,0.06806088238954544,-0.10618897527456284,-0.009510894306004047,-0.04907938092947006,0.003904291894286871,-0.03475835919380188,0.0478178970515728,-0.10354065895080566,-0.08772692084312439,0.03776673227548599,0.07854726910591125,-0.08139153569936752,-0.013855323195457458,0.07638116925954819,0.012396186590194702,-0.06563982367515564,0.05621960014104843,-0.002799367532134056,0.0796777680516243,0.019836222752928734,-0.0030845205765217543,-0.09838303923606873,-0.14516429603099823,0.04354585334658623,-0.05816512182354927,0.12986233830451965,0.02710627019405365,-0.06295206397771835,-0.04243505746126175,-0.07821229100227356,-0.025214064866304398,0.03424037992954254,-0.1780238002538681,0.04101508483290672,0.01051512360572815,-0.054838694632053375,0.238078311085701,-0.045936863869428635,-0.01568121835589409,0.04545372352004051,-0.005038418807089329,-0.039147451519966125,0.044501591473817825,-0.020360955968499184,-0.006378757767379284,0.08892033994197845,-0.10918285697698593,-0.018264388665556908,-0.13649363815784454,-0.08152984827756882,-0.03705477714538574,-0.019193872809410095,0.03255990892648697,-0.04505392163991928,0.02347564324736595,0.03271012380719185,-0.0027447340544313192,-0.002467948943376541,0.009619411081075668,-0.12318792194128036,0.06187988445162773,-0.0816754549741745,-0.03369149938225746,0.07582633942365646,-0.04269814491271973,-0.016455983743071556,-0.002259193453937769,0.026629310101270676,0.03533506020903587,0.02576260082423687,0.011451532132923603,-0.016645049676299095,0.06965596973896027,-0.10490438342094421,0.027385080233216286,-0.010484397411346436,-0.07359711080789566,-0.044222574681043625,-0.040374863892793655,0.048687051981687546,-0.06838008016347885,0.00773319648578763,0.04219000041484833,0.024677276611328125,0.009497864171862602,0.05055384710431099,-0.04289909452199936,0.06604284048080444,-0.03434520587325096,0.07347983121871948,-0.03612932562828064,0.003927594516426325,-0.059696391224861145,0.00854104571044445,0.0306677408516407,-0.00035823878715746105,-0.0006343770655803382,-0.005754989571869373,-0.11171293258666992,-0.027876997366547585,-0.015070346184074879,-0.1730896532535553,-0.06448982656002045,-0.09403543174266815,-0.029497675597667694,0.0646182969212532,0.03489433974027634,-0.19351805746555328,-0.16122935712337494,-0.08225679397583008,-0.038931384682655334,-0.04778718575835228,-0.06183191388845444,0.02909911423921585,-0.11093179881572723,0.001120288739912212,0.11458543688058853,0.11054373532533646,-0.01396135427057743,-0.03287059813737869,0.02294592373073101,-0.015414150431752205,-0.04968121275305748,-0.0419209860265255,0.20838871598243713,0.053832102566957474,0.011251767165958881,-0.015233471058309078,0.1020297035574913,0.12690840661525726,-0.006050105672329664,-0.03822000324726105,0.05570202320814133,-0.03936542943120003,0.042768433690071106,-0.03050750307738781,-0.009639247320592403,-0.02645217441022396,0.08073938637971878,-0.059030190110206604,0.010714806616306305,0.0002778285415843129,0.043267689645290375,-0.07303204387426376,0.0544997975230217,0.015477162785828114,0.05842120572924614,-0.15357926487922668,-0.0012805467704311013,-0.10111335664987564,-0.02470983937382698,0.046208079904317856,0.07491109520196915,0.04667598009109497,0.008213769644498825,-0.03243068605661392,-0.0725780799984932,-0.11722959578037262,-0.016679907217621803,-0.0995013415813446,-0.11131618916988373,-0.013765854761004448,0.07237325608730316,0.06607674062252045,-0.08025246113538742,0.03947336599230766,-0.0684129074215889,-0.006528949365019798,-0.004993812646716833,0.050881270319223404,0.08348897844552994,-0.15082073211669922,-0.08647993952035904,0.026126934215426445,-0.08758440613746643,0.020481372252106667,-0.08191493153572083,0.01560407318174839,0.02473711408674717,0.04150674119591713,-0.17992016673088074,-0.05760123208165169,0.09355354309082031,-0.028285177424550056,-0.01844755746424198,-0.005992493126541376,0.06688439100980759,0.01968282088637352,0.14709177613258362,0.015880808234214783,-0.07329744100570679,-0.11540538817644119,-0.029243651777505875,0.07799118012189865,-0.11371305584907532,-0.03669494390487671,-0.05126795917749405,0.012813612818717957,-0.044821597635746,0.19711941480636597,0.1257188320159912,-0.003511824645102024,-0.025231515988707542,-0.07020949572324753,-0.00797676108777523,0.09198993444442749,0.03753121197223663,0.15470844507217407,-0.020037028938531876,0.08406063169240952,-0.022483911365270615,-0.0034961251076310873,-0.01911873370409012,0.07082575559616089,-0.11461132019758224,0.09026310592889786,-0.036038588732481,-0.07224592566490173,-0.1494123637676239,-0.03174418583512306,0.06735076010227203,-0.012500989250838757,-0.08185436576604843,-0.0002817838976625353,0.045630089938640594,0.04418756812810898,-0.036220699548721313,0.03791108727455139,-0.08302748948335648,-0.034942325204610825,-0.09913070499897003,-0.07399009168148041,0.09426749497652054,0.01940024085342884,-0.052252769470214844,0.03537009656429291,-0.03293030709028244,0.08985728025436401,0.12901824712753296,-0.03257506713271141,-0.028234871104359627,0.07466654479503632,-0.03884712606668472,0.0957496166229248,0.011705666780471802,0.06744308769702911,-0.05178273096680641,-0.05929077789187431,0.01080634631216526,-0.023642465472221375,0.034278322011232376,-0.0033890914637595415,-0.08894331753253937,-0.08749277889728546,0.007814140059053898,-0.07145864516496658,-0.06278593838214874,0.040433209389448166,0.07082881033420563,0.06351813673973083,-0.07660488784313202,0.037651147693395615,-0.15457580983638763,-0.1261398196220398,-0.028170600533485413,0.09974652528762817,-0.07836271077394485,-0.09900330752134323,-0.008794908411800861,-0.02690398320555687,0.19787289202213287,-0.022143341600894928,0.06909182667732239,-0.05907397344708443,-0.007609222084283829,-0.024147503077983856,-0.05235323682427406,-0.01125482190400362,0.04999489709734917,-0.055319175124168396,-0.05255800858139992,0.04791047424077988,0.005037748254835606,-0.01601210981607437,-0.06540060043334961,-0.054678961634635925,0.08834727108478546,-0.0181786697357893,-0.013608633540570736,0.11407427489757538,-0.0015965073835104704,0.038007576018571854,-0.020816300064325333,0.06611841917037964,0.15580135583877563,0.14907343685626984,0.09195813536643982,-0.05048603191971779,-0.049675438553094864,0.025692522525787354,-0.010827597230672836,0.1432812362909317,-0.0011930159525945783,0.1003422960639,0.003352101892232895,0.1622091680765152,-0.08729809522628784,-0.033481985330581665,0.06335325539112091,0.012699972838163376,0.033180490136146545,0.2203623354434967,-0.009212239645421505,-0.026018954813480377,-0.10609348863363266,-0.06926250457763672,-0.05931124836206436,-0.02844838798046112,0.007613379508256912,0.03788243234157562,-0.11188498139381409,-0.05497973784804344,-0.02682635374367237,-0.07631617039442062,-0.14484214782714844,-0.01112082414329052,-0.07584889233112335,-0.03798404708504677,0.04467421770095825,-0.006747299339622259,-0.11345452070236206,0.06545484066009521,-0.02681235410273075,0.029476622119545937,0.17938190698623657,0.05573973432183266,-0.02048882469534874,0.09411440044641495,-0.035193998366594315,0.016262095421552658,-0.027907807379961014,-0.03353952243924141,0.01563197560608387,0.021857859566807747,-0.02883451245725155,-0.01987065188586712,0.03528347611427307,-0.20309866964817047,-0.005356561858206987,-0.03824363276362419,0.013534227386116982,-0.16578984260559082,0.0054063089191913605,-0.06662753969430923,-0.05547826737165451,0.09265244752168655,-0.03638899698853493,0.0014865042176097631,-0.11349775642156601,-0.11963639408349991,0.0024053282104432583,-0.009591386653482914,-0.0093380780890584,0.0020175320096313953,-0.015601332299411297,-0.08851944655179977,0.09375178813934326,-0.08992192149162292,-0.17365793883800507,0.03329021483659744,0.005673098377883434,0.016291622072458267,-0.04903256893157959,0.0008717306773178279,0.025585811585187912,-0.11680065095424652,-0.07082456350326538,0.05957615748047829,-0.01980718970298767,0.11345399916172028,-0.17879803478717804,-0.11486516147851944,0.020694585517048836,-0.07751782238483429,0.08980472385883331,0.01830531656742096,0.12340206652879715,-0.006419305223971605,0.10165535658597946,0.035690635442733765,0.10908208787441254,0.11969554424285889,0.007606309372931719,-0.10230900347232819,-0.05057781562209129,-0.08398223668336868,-0.06853119283914566,0.05542692542076111,-0.10974559187889099,-0.08785613626241684,-0.08033532649278641,0.06906537711620331,-0.06452704221010208,0.024280773475766182,0.03549580276012421,0.015968283638358116,0.0023912512697279453,-0.06897222995758057,-0.015196539461612701,0.03835992142558098,-0.030681252479553223,0.02430177666246891,0.04321605712175369,0.06719351559877396,0.01681639440357685,0.020075013861060143,0.04771028831601143,-0.022716974839568138,-0.018393265083432198,0.003515835152938962,0.05599425733089447,-0.045550454407930374,0.04629838094115257,0.002961853053420782,0.03634124621748924,-0.04216783121228218,0.0832182988524437,0.08128510415554047,-0.07541680335998535,-0.01090743113309145,-0.08269380033016205,0.055411044508218765,-0.06317462772130966,0.012740668840706348,0.015389787964522839,-0.07898367196321487,-0.003156995866447687,-0.004972127731889486,0.01569955423474312,0.046243514865636826,-0.07191488146781921,0.004535328596830368,0.04539187252521515,-0.05006594955921173,-0.10593871027231216,0.02412394806742668,0.007292274385690689,-0.038499388843774796,-0.020860977470874786,0.17688152194023132,0.233488529920578,-0.06462977081537247,-0.05015404149889946,-0.11189941316843033,0.005495869088917971,-0.059945374727249146,-0.056516848504543304,-0.06219646707177162,0.08033738285303116,-0.02420523576438427,0.01561556663364172,0.06495530158281326,-0.006049064919352531,0.043167438358068466,-0.09349893778562546,-0.0022746557369828224,0.08255305886268616,0.1136384978890419,-0.06476951390504837,0.0480150431394577,-0.0907699316740036,0.11556540429592133,-0.006287122145295143,0.0026398624759167433,0.21442605555057526,-0.03811866044998169,-0.016883186995983124,-0.041734714061021805,0.01704099215567112,-0.045817576348781586,0.04186813160777092,-0.02013450674712658,-0.11299603432416916,-0.05643923208117485,-0.03171251341700554,0.04456280544400215,-0.04290993884205818,-0.03386715427041054,-0.09046267718076706,-0.004961201921105385,0.062156375497579575,-0.021719444543123245,0.028417345136404037,-0.04829171299934387,-0.025843553245067596,-0.06273170560598373,-0.08826417475938797,0.0464438758790493,0.08681415021419525,0.015025684610009193,-0.07434342801570892,0.040448907762765884,-0.12442375719547272,-0.03771490976214409,-0.0050696441903710365,0.11188701540231705,-0.03535710275173187,0.007352749817073345,0.013418560847640038,0.056637030094861984,0.04469815269112587,-0.017835721373558044,-0.08252422511577606,-0.00616441760212183,0.014264797791838646,0.0909452959895134,0.05583391711115837,-0.09337693452835083,0.19554449617862701,-0.032218918204307556,-0.02225019596517086,-0.07189932465553284,0.01674177497625351,0.0837249755859375,-0.04234625771641731,0.03445456922054291,-0.02544061653316021,0.012127413414418697,-0.08400444686412811,0.015086603350937366,0.023999210447072983,-0.07113230228424072,-0.018648555502295494,0.09817108511924744,0.04333389922976494,0.011631729081273079,0.050108056515455246,-0.02001030370593071,0.0027184991631656885,0.0036143576726317406,0.01996070332825184,-0.054099295288324356,-0.03230726718902588,0.0338270403444767,-0.07234078645706177,0.10962724685668945,0.04347997531294823,0.08121307939291,0.07055560499429703,-0.0405428484082222,-0.0536508709192276,-0.08831564337015152,0.08729628473520279,-0.04909629747271538,-0.009353208355605602,-0.0353240892291069,-0.012680372223258018,0.1330292820930481,-0.016938628628849983,-0.0059049129486083984,-0.020716991275548935,-0.018080690875649452,0.11743492633104324,0.10782128572463989,-0.002847932744771242,0.011902907863259315,-9.067473001778126e-06,0.10174582153558731,0.010669311508536339,0.005856241099536419,0.039063069969415665,-0.12378212064504623,-0.021241553127765656,-0.012068352662026882,-0.045328885316848755,-0.035869911313056946,-0.008429235778748989,-0.12060970067977905,-0.0011952003696933389,-0.017159804701805115,-0.04253584146499634,0.06183386594057083,0.06198327988386154,-0.027946310117840767,-0.1248774304986,-0.028708208352327347,-0.019570820033550262,0.013906862586736679,-0.11035651713609695,-0.050014421343803406,0.08978451043367386,-0.03164047747850418,-0.08344142884016037,-0.04204181954264641,0.03500178083777428,-0.09875232726335526,-0.12194334715604782,0.03453340008854866,-0.18631549179553986,8.007249562069774e-05,-0.023654574528336525,0.06046519801020622,-0.048025086522102356,0.08746657520532608,0.010660666041076183,-0.04441027715802193,0.013612661510705948,-0.010675615631043911,-0.13403445482254028,0.05443715304136276,0.00977749191224575,0.11473725736141205,-0.09519252926111221,-0.01393171213567257,0.13796040415763855,-0.07533656805753708,-0.010713805444538593,0.05232721194624901,-0.10845562815666199,0.16139861941337585,0.018225064501166344,0.012236380949616432,0.05159325897693634,0.006289431359618902,0.0008685312350280583,-0.12089376896619797,-0.004517208784818649,-0.10536080598831177,0.006006384268403053,0.021966051310300827,-0.06316017359495163,0.007779728155583143,0.037769902497529984,0.02046729438006878,0.05635272338986397,-0.06754803657531738,-0.11808082461357117,-0.041143983602523804,-0.07019884139299393,0.025397200137376785,-0.041159339249134064,0.05280567333102226,-0.018991783261299133,-0.002895986195653677,0.09793797135353088,-0.0038161776028573513,-0.06536221504211426,-0.04311990365386009,-0.013255764730274677,-0.15556655824184418,-0.03121853806078434,0.013261904008686543,-0.03829072043299675,-0.02143028937280178,0.1506459265947342,-0.12081027030944824,0.003934038802981377,-0.08343491703271866,0.06477363407611847,0.02284225821495056,-0.0841585174202919,0.005894286558032036,0.03726977854967117,0.09522858262062073,-0.044531043618917465,-0.04963712394237518,-0.042981695383787155,-0.09135597944259644,-0.027599312365055084,-0.027781657874584198,0.030587108805775642,0.04660133644938469,-0.09449027478694916,-0.06584876030683517,0.0249735526740551,0.03212733194231987,0.05871833488345146,0.058968380093574524,-0.012528812512755394,0.00997704453766346,0.026238219812512398,-0.035042814910411835,0.016699671745300293,0.09773221611976624,-0.09602165967226028,-0.080401711165905,-0.007867075502872467,0.00877329520881176,-0.10543381422758102,-0.008370188064873219,0.23208501935005188,-0.050346098840236664,-0.03488054499030113,0.008716532029211521,-0.08029314130544662,0.14269176125526428,-0.0020784693770110607,0.0538729727268219,0.03191963955760002,0.02137477695941925,-0.021143974736332893,0.0517684668302536,0.029569564387202263,-0.011406191624701023,0.0025031487457454205,-0.034996263682842255,-0.0012054955586791039,0.029839375987648964,-0.05056297034025192,-0.010375335812568665,0.0052833519876003265,0.0034399693831801414,0.06600406765937805,0.1430201679468155,0.08245950192213058,-0.010957208462059498,-0.003176287980750203,-0.00250824773684144,0.025545727461576462,-0.01987893506884575,0.015954269096255302,-0.06517276167869568,0.10354592651128769,0.08754096180200577,0.026271387934684753,-0.04426836967468262,-0.02573975920677185,0.013700131326913834,-0.041420239955186844,-0.021472802385687828,-0.008188649080693722,0.015790363773703575,-0.041062191128730774,0.12845304608345032,0.008624938316643238,-0.01257843617349863,0.07799473404884338,-0.018286146223545074,-0.062381770461797714,0.0036488750483840704,-0.01379002258181572,0.0812992975115776,0.1296275556087494,-0.005358634516596794,0.0959177166223526,-0.10554852336645126,-0.02071472629904747,-0.06346073746681213,-0.07541650533676147,-0.11818665266036987,-0.15425442159175873,-0.12250979244709015,-0.10583548247814178,0.03924553468823433,-0.024829141795635223,0.04045069217681885,-0.008102469146251678,0.03175709396600723,-0.03223922476172447,-0.10241027176380157,-0.01021598745137453,-0.05231062322854996,0.02436142973601818,-0.0007425877847708762,0.08550085872411728,-0.03221467137336731,-0.06233285367488861,-0.06398048251867294,-0.028068719431757927,0.04896096512675285,0.022378262132406235,0.05908770486712456,-0.012176711112260818,-0.06268817186355591,0.019534945487976074,-0.09486519545316696,0.08422292768955231,-0.13042320311069489,-0.019770795479416847,0.05743622034788132,-0.1010366827249527,0.11780711263418198,-0.010523720644414425,0.1275525689125061,-0.023285023868083954,-0.007581355050206184,-0.12259886413812637,-0.028693195432424545,0.08997580409049988,-0.04123838618397713,0.08039312809705734,0.03494672477245331,0.00629274221137166,0.05958094075322151,0.021620096638798714,-0.021638209000229836,0.06822562217712402,-0.0558217391371727,-0.01452700700610876,0.006474215071648359,0.043659988790750504,-0.030702194198966026,0.025481514632701874,0.07895535975694656,0.09329831600189209,-0.03879377245903015,-0.01443211268633604,-0.09066624194383621,0.017336584627628326,0.06821956485509872,0.04715334624052048,-0.047807469964027405,-0.0039982576854527,0.07166490703821182,0.018919160589575768,-0.041585031896829605,0.04219898581504822,-0.0020298738963901997,0.07374455779790878,0.0005589136853814125,0.017761090770363808,0.021353373304009438,0.01933830976486206,0.002899409271776676,-0.10603612661361694,-0.007446462754160166,0.05505223199725151,-0.019821995869278908,-0.08390577137470245,0.0072427247650921345,-0.025741299614310265,0.09674276411533356,-0.020090613514184952,0.054237041622400284,-0.06266739219427109,-0.04539433866739273,-0.009947985410690308,0.062411822378635406,-0.028629830107092857,-0.0621776357293129,-0.01804255321621895,-0.10190500319004059,-0.019475970417261124,0.012161691673099995,0.09424509108066559,0.0028696409426629543,-0.09418867528438568,0.07791069895029068,-0.11494021862745285,-0.05227455869317055,-0.03723520040512085,0.032739654183387756,-0.03853708878159523,-0.024980071932077408,0.00881590973585844,-0.10924988985061646,-0.016910472884774208,-0.02753380872309208,-0.03009062260389328,0.11451886594295502,0.020691843703389168,-0.1934279352426529,0.07091096043586731,-0.022080954164266586,-0.046187277883291245,-0.02850761078298092,-0.006160466466099024,0.014157178811728954,0.011042560450732708,0.004388079978525639,-0.05121761932969093,0.03091459721326828,0.011180966161191463,-0.028488291427493095,0.06583569943904877,0.023171421140432358,0.01218354795128107,-0.09482504427433014,-0.07409220188856125,-0.018830370157957077,0.011058040894567966,0.05070831999182701,0.03357035294175148,0.02474115788936615,-0.03248777240514755,0.05321834981441498,0.013963899575173855,0.00643363781273365,0.036854300647974014,0.02510790154337883,-0.018415575847029686,-0.04484720155596733,0.08707132935523987,0.06272483617067337,0.03189198672771454,-0.02496955916285515,0.07443584501743317,-0.02396337129175663,-0.010919944383203983,0.060343023389577866,0.11588837951421738,0.03475804254412651,-0.09572318196296692,-0.10813071578741074,0.09531480818986893,-0.05709065869450569,0.04452874884009361,-0.12310568243265152,-0.011754506267607212,-0.1358536183834076,-0.004350039176642895,-0.03233766183257103,0.05663982033729553,0.006520064081996679,0.0168805830180645,-0.08574739098548889,-0.00465791579335928,0.22085988521575928,0.0605640634894371,0.00011006067506968975,0.046907633543014526,-0.05588652193546295,-0.016762791201472282,0.03556395322084427,-0.024969443678855896,0.01478685811161995,0.038055840879678726,-0.0923788771033287,-0.12907299399375916,-0.13451941311359406,0.027351759374141693,-0.04023589566349983,-0.04906712844967842,0.04953407868742943,-0.00990416668355465,0.05308076739311218,-0.059787359088659286,0.09617162495851517,-0.09745153039693832,0.01663617603480816,0.09596249461174011,0.07622172683477402,-0.09677960723638535,-0.00258586835116148,0.015315939672291279,-0.018237639218568802,-0.022951386868953705,0.18684202432632446,0.1616217941045761,0.01927344501018524,-0.019427819177508354,0.04068699851632118,0.013083497993648052,-0.043308790773153305,-0.06646519899368286,0.004637161269783974,0.010084147565066814,0.07631036639213562,-0.02268628403544426,-0.0058115459978580475,-0.04124070703983307,-0.0025255074724555016,0.02801738679409027,-0.049526799470186234,-0.03720627352595329,0.10343873500823975,-0.06523063778877258,-0.012479878962039948,0.035828910768032074,0.04738771170377731,-0.038749244064092636,0.13952745497226715,0.015849264338612556,-0.2055586874485016,0.16050949692726135,0.054192692041397095,0.0025982605293393135,0.054451536387205124,0.03338327258825302,0.03601871058344841,-0.00967028085142374,-0.11203601956367493,-0.039968620985746384,0.017555391415953636,-0.04117419198155403,0.08061323314905167,-0.12752695381641388,0.036390986293554306,-0.14067389070987701,-0.028254782781004906,-0.059349097311496735,-0.0047027128748595715,-0.11258837580680847,-0.0056655495427548885,-0.008708217181265354,-0.030941631644964218,0.04567908123135567,-0.028545426204800606,-0.030522126704454422,-0.04134160652756691,0.04029536247253418,0.050509851425886154,0.02601834014058113,0.0015433738008141518,-0.028911089524626732,-0.10328064113855362,-0.09244651347398758,-0.08200684934854507,-0.036680422723293304,-0.07990694791078568,0.05293833836913109,0.015987785533070564,0.020088454708456993,-0.004408839158713818,-0.07214351743459702,-0.017100781202316284,0.12649434804916382,0.023666394874453545,-0.06813781708478928,0.0004837092710658908,-0.060650162398815155,0.05641381815075874,-0.04363689199090004,0.006089459639042616,-0.024924566969275475,-0.09016706794500351,0.06209897994995117,-0.009340055286884308,-0.11897309124469757,-0.018397687003016472,-0.053596507757902145,0.026760056614875793,0.023475347086787224,-0.03587661683559418,0.10592678189277649,-0.06782302260398865,-0.04146072641015053,0.0007711712387390435,-0.11498809605836868,-0.18400798738002777,-0.12835641205310822,0.13591529428958893,-0.06289806216955185,-0.03870019689202309,-0.03784972056746483,0.0033617860171943903,0.09380228072404861,0.08485257625579834,-0.008946768008172512,-0.0023527233861386776,0.03340127319097519,-0.0070928470231592655,-0.005956066772341728,-0.03793715313076973,0.016703931614756584,-0.008869306184351444,-0.014168975874781609,-0.168161541223526,-0.009296189062297344,0.09926897287368774,-0.07788877934217453,-0.09650205075740814,0.06287512928247452,-0.014592102728784084,-0.01781463995575905,-0.042965732514858246,-0.002707471139729023,-0.06330490857362747,-0.028604656457901,-0.024504365399479866,0.07479631155729294,0.02731800265610218,0.006735547911375761,0.008880414068698883,-0.191705584526062,-0.013277322053909302,0.03754585608839989,-0.07317257672548294,0.10750337690114975,0.009589925408363342,0.021237218752503395,0.05368833616375923,-0.06537003070116043,0.054502520710229874,-0.016079993918538094,0.09458540380001068,0.10075313597917557,-0.012237091548740864,-0.11597103625535965,-0.06664849817752838,-0.000930537236854434,-0.03293567895889282,-0.07526148855686188,0.03504085913300514,0.013406902551651001,-0.025359708815813065,0.05619921162724495,0.08561418205499649,0.0008003672119230032,0.03153575211763382,-0.0004426364612299949,0.03371678292751312,0.03764178976416588,0.029683351516723633,0.026646895334124565,-0.03570656478404999,0.07612729072570801,-0.04587569087743759,0.026532046496868134,-0.04969314858317375,-0.01706787757575512,0.04835725948214531,-0.014663397334516048,0.002457580529153347,-0.06465926766395569,0.048452652990818024,-0.1390882432460785,0.08248913288116455,-0.01700037345290184,-0.02859884314239025,0.06491108983755112,0.08423243463039398,0.08040014654397964,0.009631290100514889,-0.016457369551062584,0.01515138614922762,-0.018379388377070427,-0.028578834608197212,-0.073394276201725,0.06157855689525604,0.007294494658708572,-0.12338417023420334,-0.042321257293224335,-0.03591657057404518,0.0567631758749485,-0.11452086269855499,-0.12148389965295792,0.11947009712457657,-0.059903524816036224,0.03445742279291153,-0.05893316492438316,-0.005489986855536699,0.018235230818390846,-0.025198278948664665,-0.002305573085322976,-0.012539315968751907,0.07427675276994705,-0.06855861842632294,-0.03919908031821251,-0.16841524839401245,-0.014669913798570633,0.027551284059882164,0.10946096479892731,-0.007384669501334429,-0.01753183826804161,0.1741742044687271,-0.087239570915699,-0.03030523844063282,-0.04843050613999367,-0.00010945636313408613,-0.13426458835601807,-0.051484931260347366,0.015489037148654461,0.13340836763381958,0.026224810630083084,0.08048083633184433,-0.08929316699504852,0.056708939373493195,-0.17307905852794647,-0.06120878458023071,0.01538508478552103,0.03178735077381134,0.08321790397167206,0.02925962582230568,-0.011824659071862698,-0.09232833981513977,-0.060949694365262985,0.03267080336809158,-0.020859789103269577,0.03283243626356125,0.024065706878900528,0.10906848311424255,0.022276587784290314,-0.032098300755023956,0.0007211611373350024,-0.002459354232996702,0.013269283808767796,-0.013975618407130241,0.0799928605556488,0.025341080501675606,0.11896452307701111,0.05313725396990776,0.02716587297618389,-0.14722317457199097,-0.00013262653374113142,-0.13847967982292175,-0.031764380633831024,0.009675687178969383,-0.09507881850004196,-0.004935387056320906,0.05179562047123909,-0.040740303695201874,-0.07123129814863205,-0.10190356522798538,-0.011665739119052887,0.01383727602660656,0.04793086647987366,-0.009231790900230408,0.028338070958852768,-0.0020272040273994207,-0.04526712745428085,-0.07529507577419281,-0.02307026833295822,0.019093429669737816,0.07278071343898773,-0.13136272132396698,0.07593386620283127,0.10209730267524719,0.04404493421316147,-0.2214362770318985,0.10189720243215561,-0.12416405975818634,-0.04133831709623337,-0.0669262632727623,-0.02212745137512684,0.009763100184500217,0.048227984458208084,0.029258711263537407,0.1648970991373062,0.13525936007499695,0.14750947058200836,-0.05576004460453987,-0.1006326749920845,-0.03296804055571556,0.013804714195430279,0.0003335759392939508,0.06964555382728577,-0.018538251519203186,0.06777636706829071,0.07690653204917908,-0.016356758773326874,0.04711585119366646,-0.1331806182861328,-0.05376487225294113,0.03292218968272209,0.04373202845454216,-0.05660969763994217,-0.020612353459000587,0.022536568343639374,-0.024903355166316032,-0.09314873814582825,-0.05802718177437782,0.06899137794971466,-0.09233216196298599,-0.08957548439502716,-0.02415081486105919,-0.12972651422023773,0.036787018179893494,-0.027350537478923798,-0.020958760753273964,0.024486513808369637,-0.01304525788873434,0.15657004714012146,-0.11008027195930481,0.02281896024942398,0.028409451246261597,-0.15580840408802032,-0.06240232661366463,-0.05805407837033272,-0.06535224616527557,-0.04758071154356003,0.06842274963855743,-0.01118862722069025,0.09666469693183899,0.020877107977867126,0.013898216187953949,0.020473146811127663,-0.15545441210269928,0.03639094531536102,-0.012542056851089,-0.026977285742759705,0.06276186555624008,-0.01061225589364767,0.06886635720729828,0.10955189913511276,-0.017276737838983536,-0.04303761571645737,-0.013904434628784657,-0.056233011186122894,0.029840203002095222,0.059752583503723145,-0.008319376036524773,0.07988543063402176,-0.0438336543738842,0.03743502497673035,0.03940475732088089,-0.04877067729830742,-0.047509800642728806,0.036920394748449326,0.015601865015923977,-0.02743685431778431,-0.009355238638818264,-0.07583353668451309,-0.21717646718025208,-0.05416937172412872,0.02405587211251259,0.006895403377711773,-0.10713499784469604,0.04898182302713394,0.06252201646566391,-0.05335742235183716,-0.02175714261829853,-0.05273759365081787,-0.005667297635227442,0.039744388312101364,0.02294422686100006,0.035798974335193634,0.07550828903913498,-0.10572744160890579,0.11544173955917358,0.06310462206602097,0.04006224125623703,0.011288156732916832,-0.15539968013763428,0.03583810105919838,0.00785389170050621,0.08553631603717804,0.007745159789919853,0.05130996182560921,-0.009624726139008999,0.008730379864573479,0.04703345522284508,-0.033462874591350555,0.003893949557095766,0.024087509140372276,0.06167419254779816,-0.008130221627652645,0.0172104611992836,0.019166257232427597,0.15440481901168823,-0.0641125813126564,0.030886048451066017,-0.10457001626491547,0.05473649501800537,-0.10588846355676651,-0.078605055809021,-0.0795535296201706,0.06907626241445541,-0.1180109977722168,0.0025121739599853754,-0.03344907611608505,0.015864146873354912,0.00028890150133520365,0.011888271197676659,0.06708232313394547,-0.05638459324836731,-0.07511284202337265,-0.06008380651473999,0.019808519631624222,-0.02346787042915821,-0.0002554256934672594,0.07499571889638901,0.15313875675201416,0.0006664436077699065,-0.08087371289730072,0.05666402727365494,-0.07458300143480301,0.1500312089920044,0.023835375905036926,0.057800792157649994,0.0642014741897583,0.0158338975161314,-0.07394704967737198,-0.019688203930854797,-0.04482189565896988,-0.028078975155949593,-0.03634435310959816,0.0021206026431173086,-0.0062058172188699245,-0.07368354499340057,-0.034898631274700165,-0.009210079908370972,-0.07442076504230499,0.07222803682088852,-0.045876018702983856,0.007013990078121424,-0.042870111763477325,0.04265893995761871,0.05840028077363968,0.014672547578811646,0.047503598034381866,0.09506446123123169,-0.09352638572454453,0.040371157228946686,0.04102354496717453,0.009030486457049847,-0.013194503262639046,0.015463357791304588,-0.1029607281088829,-0.049874890595674515,0.0596676804125309,-0.03036111406981945,0.0022150047589093447,-0.11630568653345108,0.0551069937646389,-0.015926769003272057,0.04468217119574547,-0.0036785625852644444,0.08045107126235962,0.009960689581930637,0.07092829793691635,0.03722900152206421,0.07465658336877823,0.10454560071229935,-0.09332575649023056,-0.017752230167388916,0.057361453771591187,0.008594443090260029,-0.03294327110052109,0.05226213485002518,-0.0030564572662115097,-0.03702884167432785,0.05586695671081543,-0.08152000606060028,0.012463696300983429,0.0067675006575882435,-0.06769546121358871,-0.015013260766863823,-0.021962540224194527,-0.033564820885658264,0.0920950248837471,-0.008011550642549992,-0.00876372866332531,-0.06131219491362572,-0.027972817420959473,0.051160573959350586,-0.08958432078361511,0.01666875369846821,-0.09950628131628036,0.04362090677022934,0.1479433923959732,-0.0006782769924029708,-0.002694916445761919,0.09655775874853134,0.013716206885874271,-0.15047526359558105,0.0057452465407550335,-0.05845891684293747,-0.005389637779444456,0.04641282558441162,-0.050036635249853134,0.12469913065433502,-0.11242742836475372,0.026201270520687103,-0.019772643223404884,0.08892751485109329,-0.039619434624910355,-0.081757090985775,0.13751302659511566,0.014958725310862064,0.0005484502762556076,0.09085789322853088,-0.0475778803229332,0.015852859243750572,-0.03520956635475159,0.005284733138978481,-0.014460189267992973,0.04097554832696915,-0.17946358025074005,-0.003062032163143158,-0.07901566475629807,-0.01544125284999609,-0.027231117710471153,0.010984484106302261,-0.029935454949736595,-0.06409486383199692,0.00367441913112998,0.05038581043481827,0.020570550113916397,-0.017463762313127518,-0.03967563807964325,-0.05782818794250488,0.018238093703985214,0.062269922345876694,0.010690094903111458,-0.04948404058814049,-0.0350022055208683,0.0741782933473587,0.04569359868764877,0.009708549827337265,-0.09866626560688019,0.030514249578118324,0.0259946770966053,-0.1089307889342308,0.0012853534426540136,-0.12491097301244736,-0.07662206143140793,-0.02701123058795929,0.054231565445661545,-0.08188099414110184,0.019854163751006126,-0.1442021131515503,0.0826934278011322,0.019365502521395683,0.04262976348400116,0.05692533031105995,0.04948776215314865,0.16585052013397217,0.1736719161272049,-0.011505152098834515,-0.0473206527531147,-0.06281257420778275,-0.021053500473499298,-0.0003530299582052976,-0.060202233493328094,0.07743654400110245,0.1977013796567917,-0.043730709701776505,0.17521029710769653,-0.1832650899887085,-0.017339326441287994,-0.0212993286550045,-0.04424717649817467,-0.03507458418607712,-0.003190085059031844,-0.006998992525041103,-0.03483002260327339,-0.009618536569178104,-0.04811108857393265,-0.043699029833078384,0.030273718759417534,-0.04613752290606499,-0.08522196114063263,-0.10197960585355759,-0.10350500047206879,0.00686016958206892,0.12238319963216782,-0.12657670676708221,0.0012737364741042256,0.014948447234928608,0.030615773051977158,-0.06407812237739563,-0.07111909985542297,-0.05277601629495621,-0.13227353990077972,0.12215748429298401,0.01738565042614937,-0.10985875129699707,-0.06334497779607773,0.059774283319711685,-0.0819217786192894,0.023668229579925537,0.02137889713048935,-0.13931149244308472,-0.0017763235373422503,0.010144464671611786,-0.03383293375372887,4.1032420995179564e-05,-0.07570438086986542,0.1310320794582367,0.0011383831733837724,0.026148909702897072,0.05635610222816467,0.005145824048668146,-0.0008673261618241668,0.10802152752876282,0.007891247048974037,-0.0074089039117097855,-0.11825136095285416,-0.007826322689652443,0.02311895415186882,-0.022851310670375824,-0.0150085324421525,0.03799537941813469,-0.09034456312656403,-0.02467917837202549,0.10247153043746948,0.053652096539735794,-0.08683599531650543,-0.0051255556754767895,0.0403001643717289,0.10941417515277863,0.08168478310108185,0.013927881605923176,-0.01499168761074543,0.00256068236194551,-0.08830332010984421,-0.029568828642368317,-0.018860051408410072,0.009694209322333336,-0.020744213834404945,0.03548048436641693,-0.10473916679620743,0.018276890739798546,0.05901532620191574,-0.07583938539028168,0.011201363056898117,-0.024875080212950706,0.0362221859395504,-0.05711107328534126,-0.004310975782573223,0.08394479751586914,-0.049902040511369705,-0.01841379515826702,-0.047053754329681396,0.039156537503004074,0.019856909289956093,0.07328189164400101,-0.018242472782731056,0.0763450562953949,-0.04610777646303177,0.0629969984292984,-0.02484840899705887,0.020520072430372238,-0.05338829383254051,-0.03545333817601204,0.10980764031410217,0.02359083481132984,0.007028907537460327,-0.0502939336001873,-0.03870135545730591,0.03169532120227814,-0.005534958094358444,-0.03864499181509018,0.0803040862083435,-0.04550572857260704,-0.07231315225362778,0.04602251574397087,0.02847525104880333,-0.0037114014849066734,0.054544758051633835,0.004053595010191202,0.09411920607089996,-0.010149042122066021,0.016685422509908676,-0.09889469295740128,-0.06926319003105164,0.04291756823658943,0.05246962234377861,0.003507931251078844,0.0867338627576828,-0.06440424174070358,-0.09286931902170181,-0.04026300087571144,-0.0029219475109130144,0.06705732643604279,0.013716213405132294,0.058465782552957535,0.0031486493535339832,0.14382395148277283,0.03489390388131142,0.08302609622478485,0.02126743085682392,0.0615369938313961,-0.02314615249633789,0.048167746514081955,0.007744535803794861,-0.008302451111376286,-0.016362808644771576,-0.024272775277495384,-0.05072842165827751,0.039072029292583466,-0.12988294661045074,-0.02762448973953724,-0.031186148524284363,-0.049148108810186386,-0.006206586956977844,-0.08558384329080582,-0.04629354178905487,-0.002359195379540324,0.03988077864050865,-0.00239703431725502,0.09274912625551224,0.017340663820505142,-0.07839196175336838,-0.05803393945097923,-0.007954170927405357,0.06812075525522232,-0.09181287884712219,-0.10089823603630066,-0.008643167093396187,0.023981543257832527,0.018833566457033157,-0.04961737245321274,0.025572432205080986,-0.05150963366031647,-0.04266997054219246,-0.08309133350849152,0.03155743330717087,-0.06007226184010506,-0.035118866711854935,-0.04061966761946678,-0.05762781575322151,-0.04260241240262985,-0.0004486838006414473,-0.04781310260295868,0.10144027322530746,-0.10723572969436646,0.09155716747045517,-0.0523403063416481,-0.07813424617052078,0.03144092112779617,0.042206041514873505,0.04317363724112511,0.024943051859736443,0.12197460979223251,0.016905713826417923,0.06266624480485916,0.023146798834204674,-0.05129463970661163,0.0024697838816791773,-0.10715962946414948,-0.02014738880097866,-0.0365510918200016,0.03257124498486519,0.05321646109223366,0.023935623466968536,-0.022403404116630554,0.08631382137537003,-0.08794160187244415,0.019920894876122475,-0.059211038053035736,-0.0646267756819725,0.033585187047719955,-0.03248429298400879,0.033518288284540176,0.05067333206534386,0.013681100681424141,-0.017971310764551163,-0.17353785037994385,0.006163777317851782,-0.060419999063014984,-0.021302716806530952,0.09265605360269547,-0.011772764846682549,-0.00013776440755464137,-0.016771158203482628,-0.12464100867509842,0.018478423357009888,-0.022153832018375397,0.009307741187512875,0.07176563143730164,0.0001960255904123187,0.030881328508257866,0.02994348853826523,0.05373328551650047,-0.0676485225558281,0.027336131781339645,-0.003317202441394329,0.10782035440206528,0.057252489030361176,0.01891324482858181,0.022645611315965652,0.07141833007335663,-0.0372987762093544,-0.042961373925209045,0.005446506664156914,0.07668539881706238,0.021511662751436234,0.012027017772197723,0.011709020473062992,-0.016877416521310806,-0.05533162131905556,-0.06357073038816452,0.08300209790468216,0.02895498462021351,0.038415610790252686,0.016260327771306038,0.06510254740715027,0.09424367547035217,0.07124371081590652,-0.09268444776535034,0.03686709329485893,-0.023356737568974495,-0.07885764539241791,-0.03308425471186638,-0.05882088467478752,0.03164767101407051,-0.021091440692543983,-0.09299177676439285,0.008513154461979866,0.02114233560860157,-0.010222167707979679,0.0824313759803772,0.02642865665256977,-0.04167555272579193,-0.009379060938954353,0.010301689617335796,0.016624102368950844,0.06683890521526337,0.035820409655570984,0.031323760747909546,0.0743144154548645,-0.10212509334087372,0.006109306123107672,0.03548385202884674,-0.1316562443971634,-0.06677260994911194,-0.019949106499552727,-0.08489350229501724,0.055738724768161774,0.05507149547338486,0.03317362442612648,0.2331797033548355,-0.1504582017660141,-0.031141910701990128,-0.10001789778470993,-0.028373025357723236,-0.03138245269656181,-0.06855626404285431,0.018663721159100533,0.03010537102818489,0.02388405054807663,-0.05977190285921097,0.0033115812111645937,-0.024873072281479836,0.028544560074806213,-0.010052550584077835,0.016548994928598404,-0.012887200340628624,0.06266703456640244,0.04682505503296852,0.035514798015356064,-0.04530145972967148,0.102276511490345,-0.08712870627641678,-0.03891100361943245,0.006961761973798275,0.052321020513772964,-0.08517496287822723,0.08874183893203735,0.07238105684518814,0.06300996989011765,0.02361997775733471,-0.08457890152931213,-0.06455052644014359,-0.006738553289324045,0.09090165048837662,0.1362350583076477,0.06104264035820961,-0.13318508863449097,-0.015820695087313652,-0.07414747774600983,-0.04484281688928604,-0.01822439208626747,0.020548122003674507,-0.02530328556895256,0.04273407533764839,0.029722297564148903,-0.006942805368453264,0.08335540443658829,0.08608465641736984,-0.00286725047044456,-0.01799720898270607,-0.084157794713974,0.01045932061970234,0.018009530380368233,-0.08865740150213242,-0.04989386722445488,0.00044005108065903187,-0.05399491637945175,0.00399836665019393,-0.027308452874422073,-0.09231078624725342,-0.036303453147411346,0.012313197366893291,-0.034930307418107986,-0.008498593233525753,-0.013027147389948368,-0.04078790545463562,0.0536080002784729,-0.07319477945566177,-0.00111728860065341,-0.07473926246166229,-0.03073560819029808,-0.07098793983459473,-0.031855273991823196,-0.01061578094959259,-0.11388839036226273,0.023039769381284714,-0.005713656544685364,-0.05322767049074173,-0.04348063841462135,-0.015108286403119564,-0.11160477995872498,-0.029625872150063515,-0.005123265087604523,0.07444985955953598,-0.046284060925245285,0.004740408156067133,-0.05052180215716362,0.0024533113464713097,0.06567896157503128,-0.06373199075460434,0.02259722910821438,0.06134531646966934,-0.03209879621863365,-0.06691586226224899,0.09174356609582901,-0.029311485588550568,-0.012226400896906853,0.023264802992343903,0.027017537504434586,-0.004135845694690943,0.09272044152021408,0.0832422524690628,0.04364335536956787,0.04138266667723656,-0.09525594860315323,0.029317239299416542,0.04864996671676636,0.021794496104121208,0.01919051632285118,-0.05731526389718056,0.006394295021891594,-0.03007957525551319,0.03888532891869545,-0.0031212118919938803,-0.09772223979234695,-0.031707730144262314,0.00551939383149147,0.06973063200712204,-0.029675612226128578,-0.08398380875587463,-0.07185742259025574,-0.10100815445184708,-0.04038543254137039,0.018367715179920197,-0.053630489856004715,-0.03438408300280571,-0.02487272210419178,-0.11041708290576935,0.04347309470176697,-0.10601847618818283,-0.0898529514670372,-0.052010856568813324,-0.092191681265831,0.06797120720148087,-0.15651780366897583,0.010669128969311714,0.011423400603234768,0.09279093891382217,0.11640157550573349,-0.048390813171863556,-0.04191737622022629,0.030117034912109375,0.03068760596215725,0.04318388178944588,-0.05474173277616501,0.08826760947704315,0.0476829968392849,0.005314453970640898,-0.06611897051334381,0.022132633253932,0.038172200322151184,-0.0663926750421524,-0.0586470328271389,-0.011638132855296135,0.12347736954689026,-0.008670455776154995,-0.03309062495827675,-0.05436040461063385,0.022301960736513138,-0.03426454961299896,-0.021591931581497192,0.14187122881412506,-0.06875251978635788,0.029107367619872093,-0.030826296657323837,-0.03676294535398483,0.02706390805542469,-0.11328139156103134,0.02536989562213421,-0.02346651256084442,-0.035256896167993546,-0.16221776604652405,0.04784012213349342,0.006500297226011753,-0.07740768790245056,-0.035922762006521225,-0.031881559640169144,-0.03947507590055466,0.04125990346074104,-0.022982127964496613,-0.10514651983976364,0.06284703314304352,0.004296804778277874,0.0069735413417220116,0.1566435545682907,0.018822893500328064,0.0193178728222847,0.08902153372764587,-0.030491996556520462,0.004143469035625458,0.07734348624944687,-0.08728823810815811,-0.0026736899744719267,-0.012879152782261372,-0.10458099097013474,-0.11360187083482742,0.0963422954082489,0.055956482887268066,-0.005410227924585342,0.05763140320777893,0.034685295075178146,-0.022890742868185043,0.06178610771894455,-0.06859619170427322,0.026583276689052582,-0.020381439477205276,0.027821380645036697,0.029838094487786293,-0.028698595240712166,0.0036510007921606302,-0.13135837018489838,0.02319161966443062,-0.10000565648078918,0.08200084418058395,-0.059919122606515884,0.06055610626935959,-0.005900414660573006,-0.07794283330440521,-0.07603343576192856,-0.052786003798246384,-0.0615861676633358,-0.002278667176142335,-0.03144460171461105,-0.05530588701367378,0.0793522521853447,-0.0742727667093277,-0.11096411943435669,0.03373471647500992,-0.05659400299191475,-0.022000575438141823,-0.023076074197888374,-0.004363558255136013,-0.04214268550276756,-0.008915886282920837,-0.009289599023759365,-0.11069321632385254,-0.003013646462932229,0.22752085328102112,-0.04572956636548042,0.09411933273077011,-0.040977898985147476,0.088939368724823,-0.008482868783175945,-0.010272541083395481,-0.018645120784640312,-0.09373562037944794,-0.018690990284085274,-0.025821905583143234,0.180790513753891,0.053903646767139435,0.198089599609375,-0.04674896225333214,-0.08763881027698517,-0.0701119527220726,-0.002909528324380517,0.02458660863339901,-0.013420316390693188,0.1855548620223999,-0.05095144361257553,0.0319209098815918,-0.0960565060377121,-0.027887050062417984,-0.07068413496017456,-0.07046850025653839,0.023150866851210594,-0.008490601554512978,0.053809262812137604,-0.07247471064329147,-0.0010025904048234224,0.009832600131630898,-0.03625544533133507,-0.034237105399370193,0.0509696900844574,0.08553845435380936,-0.04877420887351036,-0.06883420795202255,-0.04742909595370293,-0.00023300436441786587,0.05122477188706398,0.03598206862807274,0.11315947771072388,-0.055174570530653,-0.0811087042093277,0.0004616569494828582,0.020624661818146706,0.002985517494380474,0.02186950482428074,0.02017386257648468,-0.030420662835240364,0.0570998452603817,0.011694702319800854,-0.06673815101385117,-0.14181359112262726,-0.06650611758232117,0.042839400470256805,0.12575800716876984,0.145170658826828,0.02528958208858967,0.16746602952480316,0.1454857587814331,0.02827581949532032,-0.005575187038630247,-0.017949415370821953,-0.09113874286413193,0.2183125913143158,0.028743430972099304,-0.11726777255535126,0.06322898715734482,-0.04588473588228226,-0.04882412031292915,-0.05652773380279541,0.07480306923389435,-0.06363366544246674,-0.003689984092488885,-0.02177300862967968,0.02541743777692318,-0.08022788166999817,-0.024779172614216805,0.031165627762675285,-0.001283516874536872,-0.04828253015875816,-0.09175371378660202,0.09637152403593063,-0.11202254146337509,-0.16112002730369568,-0.06364298611879349,0.09466399252414703,-0.07425160706043243,-0.08144646883010864,-0.047683991491794586,-0.034669965505599976,-0.04526052623987198,0.0004824039642699063,0.035861410200595856,-0.008641678839921951,0.007256780285388231,-0.06213367357850075,0.04227850213646889,0.04183699190616608,0.00450145173817873,-0.022717729210853577,0.1218629851937294,-0.006560978014022112,0.048498015850782394,0.0756685808300972,-0.0023402743972837925,0.05951566994190216,0.00033558663562871516,-0.006242519710212946,0.04127263277769089,0.1523701697587967,0.004446607083082199,-0.0055947634391486645,-0.09339696168899536,-0.05550345405936241,-0.06353852152824402,-0.09443578869104385,0.027226144447922707,0.01290806569159031,0.08392555266618729,0.03325021266937256,-0.013622214086353779,0.022368211299180984,-0.009712488390505314,0.037449631839990616,-0.011699039489030838,0.06454817950725555,-0.058917686343193054,0.05461501330137253,-0.04861282929778099,0.0203678160905838,0.022072890773415565,0.09021947532892227,0.005135348066687584,0.1115998700261116,-0.04581177607178688,-0.05226881429553032,-0.011781014502048492,0.03746956214308739,0.04008408263325691,0.0717194452881813,0.05879278853535652,-0.04981203377246857,0.08012779802083969,0.004720946773886681,0.09150464832782745,0.0577792190015316,0.0015456185210496187,0.010381899774074554,0.013551001437008381,-0.019886620342731476,0.06370732933282852,0.12464237213134766,-0.04187902435660362,-0.07305718958377838,0.09382335841655731,0.037521351128816605,0.045184340327978134,-0.04768060892820358,-0.0227345023304224,-0.02283046580851078,-0.08421273529529572,0.01580710895359516,0.017169345170259476,0.04551771283149719,0.0009433829109184444,-0.02836531400680542,-0.04533308371901512,-0.077067069709301,-0.03411709889769554,-0.060511067509651184,-0.044225238263607025,0.07211514562368393,0.20214733481407166,0.06895826011896133,-0.04178589954972267,-0.024248404428362846,-0.06900674104690552,-0.027786273509263992,-0.011407164856791496,0.08799848705530167,-0.05584688484668732,0.0768478736281395,-0.04702836275100708,0.03925454989075661,0.08021719753742218,0.050273265689611435,-0.08343910425901413,-0.04225940629839897,-0.06193818524479866,-0.05033441260457039,-0.030908187851309776,-0.051306333392858505,0.061547212302684784,-0.01327422820031643,0.03308036923408508,0.00781483855098486,0.0960628017783165,0.018484264612197876,0.03248543664813042,-0.009272017516195774,0.0017675722483545542,0.003709058277308941,0.0018897198606282473,0.0865822359919548,0.06538665294647217,0.18737652897834778,-0.041048068553209305,0.02232634834945202,-0.022903498262166977,-0.015929821878671646,0.03283754363656044,-0.10736566036939621,0.012506699189543724,-0.04307209327816963,0.12717163562774658,0.033157624304294586,-0.05991658195853233,-0.0031713892240077257,-0.009771738201379776,0.00861856248229742,-0.02604801394045353,-0.047851648181676865,0.021953009068965912,0.0818311795592308,0.07715114206075668,-0.019074788317084312,-0.013542890548706055,0.004946639761328697,-0.022784603759646416,0.11174667626619339,0.08443128317594528,0.052291158586740494,0.04279915243387222,-0.04804616793990135,-0.007891708053648472,0.08546935021877289,-0.024377714842557907,-0.03903641179203987,-0.04957960918545723,0.0844518393278122,0.07105489075183868,0.059681039303541183,-0.01955806463956833,-0.1438603699207306,-0.0835467278957367,0.02743631973862648,0.06246040761470795,0.08614747226238251,0.007459545042365789,0.0051881177350878716,-0.0009972455445677042,0.03143268823623657,0.11480577290058136,0.03287845477461815,-0.07536647468805313,0.005575668998062611,-0.04040815308690071,0.061239197850227356,0.06612838804721832,-0.017049632966518402,0.03219791501760483,0.0028541074134409428,0.09728697687387466,-0.01642514578998089,-0.0496455617249012,-0.0796283558011055,-0.03800816088914871,0.08761853724718094,0.06613806635141373,0.0318596325814724,0.02621050737798214,0.04512353613972664,0.01616903580725193,0.01960904896259308,0.13257631659507751,0.0031447457149624825,-0.011472695507109165,0.13087907433509827,-0.01461739744991064,0.033512845635414124,0.05475926026701927,0.004258604720234871,0.023489417508244514,-0.041952408850193024,-0.10253540426492691,0.06360919773578644,0.10237865149974823,-0.15316236019134521,0.04836574196815491,0.01432215329259634,-0.01955602318048477,-0.016551285982131958,0.0011903338599950075,-0.002644451567903161,0.021391423419117928,-0.041949667036533356,0.01571061462163925,0.010244629345834255,-0.04047619178891182,-0.03090788796544075,-0.007907407358288765,0.015754567459225655,-0.03181086853146553,-0.016000976786017418,-0.011622960679233074,-0.03880808502435684,0.007042715325951576,-0.08842851966619492,0.04824105650186539,-0.03583604469895363,-0.058593928813934326,0.003858326468616724,-0.010772082954645157,0.015392397530376911,0.020447755232453346,-0.028121253475546837,0.013159791007637978,0.0487455278635025,-0.052815504372119904,0.18191662430763245,0.1372288167476654,-0.004694479051977396,-0.04842595010995865,-0.034317903220653534,0.014442169107496738,0.03530522435903549,-0.02706199511885643,0.19609588384628296,0.010030925273895264,-0.12134750187397003,0.08707883954048157,0.08268601447343826,-0.06791850924491882,-0.028345424681901932,-0.08062291890382767,0.11362277716398239,0.02571095898747444,0.10402590036392212,-0.011255646124482155,-0.011773278936743736,-0.0822322890162468,0.005505349487066269,-0.020045902580022812,-0.019160600379109383,0.045152172446250916,-0.01129957940429449,-0.04365687444806099,0.038261376321315765,0.008730503730475903,-0.001578974537551403,0.005028982646763325,0.023566126823425293,0.007889137603342533,0.006822947412729263,-0.03135228902101517,-0.029656970873475075,-0.008943296037614346,0.04201443865895271,-0.07251215726137161,0.06967385113239288,0.019014623016119003,-0.012355472892522812,-0.021269606426358223,0.08487784117460251,0.037793394178152084,-0.003905423218384385,-0.1283053606748581,-0.04823949933052063,-0.016948629170656204,0.024713845923542976,-0.05156845226883888,-0.04914679378271103,-0.07494752109050751,0.018343137577176094,0.03612251952290535,-0.03102865442633629,-0.1044982522726059,-0.03248724713921547,0.02498096600174904,-0.08005151152610779,0.043313685804605484,-0.013193489983677864,-0.03776128590106964,-0.06198014318943024,0.007680810522288084,-0.05713361129164696,0.0005655329441651702,0.02871580608189106,-0.041268762201070786,0.018129071220755577,-0.060614291578531265,0.05740535259246826,0.06365678459405899,0.07399418950080872,0.01794152706861496,-0.023736540228128433,-0.009712856262922287,-0.10792773962020874,-0.0933644250035286,0.008827166631817818,-0.03396674618124962,-0.030702468007802963,0.04975295439362526,0.08606845140457153,-0.06179017201066017,-0.1284312754869461,-0.07139217853546143,0.025526873767375946,-0.08343329280614853,-0.003508583875373006,-0.054054029285907745,0.07985780388116837,-0.026290185749530792,-0.028760099783539772,0.030988650396466255,-0.022042855620384216,-0.09297367930412292,-0.04683313146233559,-0.1453056037425995,-0.017862431704998016,-0.0698355957865715,-0.046606410294771194,-0.01750224269926548,-0.04510484263300896,-0.0826503187417984,-0.04984021931886673,0.023631900548934937,0.0992463082075119,0.029479587450623512,-0.05732426792383194,0.1284956932067871,-0.05797683075070381,-0.010336966253817081,-0.13527798652648926,0.0025367732159793377,-0.10709623992443085,-0.03946026787161827,-0.03975392505526543,0.12664097547531128,-0.010995090939104557,0.00917400885373354,0.07903318852186203,-0.062040772289037704,-0.015639759600162506,0.00042467808816581964,0.012100604362785816,0.2461358606815338,0.07888408750295639,-0.08669556677341461,-0.1348106861114502,0.015871509909629822,-0.05192709341645241,-0.07713828980922699,-0.08398674428462982,-0.03107522428035736,0.012784616090357304,-0.04811627045273781,-0.04809434339404106,0.02614760957658291,-0.03648311272263527,-0.04796500876545906,-0.021034518256783485,-0.06854751706123352,-0.03543432056903839,-0.0809321179986,0.06551629304885864,0.042106062173843384,0.11115112900733948,-0.05475417524576187,-0.09032998979091644,-0.015413038432598114,0.10148628056049347,-0.0219282116740942,-0.06140962615609169,-0.026524042710661888,-0.025679737329483032,0.026313116773962975,-0.04318010061979294,0.03653598576784134,0.023480532690882683,-0.04183732718229294,-0.002804052084684372,0.006719511933624744,0.044586990028619766,-0.05395687371492386,0.020715119317173958,0.11332688480615616,0.08676493167877197,0.0286309402436018,-0.0012616465101018548,0.007613602094352245,-0.011181325651705265,-0.04776087775826454,-0.08395317941904068,-0.09359388798475266,0.028598014265298843,-0.07491983473300934,0.029097773134708405,0.02173011004924774,-0.02912982739508152,-0.034433189779520035,0.018082786351442337,0.0327153354883194,0.028912601992487907,-0.04641597718000412,-0.0008603801252320409,-0.06787747889757156,-0.0683344304561615,0.005885166581720114,-0.007767733186483383,0.0603841133415699,-0.025257738307118416,0.0642416924238205,0.05567318946123123,0.001247987151145935,0.005530879367142916,-0.14363332092761993,-0.014513987116515636,0.08131967484951019,-0.07615283131599426,-0.0051536718383431435,-0.010118000209331512,0.10465224087238312,0.02902989462018013,0.022972645238041878,-0.050063274800777435,-0.03413093090057373,-0.07461748272180557,-0.11338958889245987,-0.11321456730365753,0.07015270739793777,-0.04547803848981857,-0.0330788679420948,0.04038136452436447,0.05365760996937752,0.013208583928644657,-0.0100110974162817,-0.08018364012241364,0.06684836000204086,0.01149242464452982,0.01422002911567688,0.013254160061478615,-0.07010702788829803,0.1390116959810257,-0.030290646478533745,-0.03189284726977348,0.15897761285305023,-0.023738335818052292,-0.10076890140771866,-0.03896027058362961,0.08787757903337479,0.09431283175945282,0.06336639076471329,0.057669173926115036,0.03757498413324356,-0.08270314335823059,-0.06874515861272812,0.03211672976613045,-0.047870099544525146,0.06351273506879807,0.07987488806247711,-0.004924927372485399,-0.0019658394157886505,-0.05039975419640541,-0.09602279216051102,0.008576883934438229,-0.0076941438019275665,-8.439039811491966e-05,-0.08505719155073166,0.01612512208521366,0.0420445092022419,-0.07141192257404327,0.02871258370578289,0.06876560300588608,0.03862134739756584,-0.05456973612308502,-0.06713339686393738,0.05021998658776283,0.020461607724428177,-0.036513376981019974,-0.019938254728913307,0.04039185494184494,-0.05519430339336395,-0.10614578425884247,-0.022229719907045364,-0.012984871864318848,0.04427764192223549,0.03149666637182236,-0.04804091155529022,-0.009087158367037773,-0.007658996619284153,0.015663953498005867,0.0044885920360684395,0.059891361743211746,0.07343662530183792,0.04161348193883896,-0.06231708824634552,0.07812601327896118,-0.02934654802083969,-0.031374216079711914,-0.021071411669254303,-0.04281347244977951,-0.09780243784189224,-0.06868977844715118,-0.010196748189628124,-0.0722242221236229,0.15899041295051575,0.11323811858892441,-0.02072092704474926,0.06278962641954422,0.06997813284397125,-0.02752915769815445,-0.0095130056142807,-0.035938385874032974,0.10195977240800858,0.025952983647584915,-0.02078935317695141,-0.11797339469194412,-0.05099673941731453,0.013316911645233631,0.030055919662117958,-0.08995921909809113,-0.09409167617559433,-0.09998466819524765,-0.07739423215389252,0.005059683695435524,0.07927107810974121,-0.05543677881360054,0.038820743560791016,0.0325603224337101,-0.002906302222982049,-0.03777102380990982,0.026356151327490807,-0.008578495122492313,-0.13309745490550995,-0.05017665773630142,0.03254041075706482,0.08254790306091309,-0.01604604348540306,-0.020260419696569443,0.028218843042850494,0.07815726101398468,0.02690041810274124,0.06449749320745468,-0.05657900124788284,0.04561241716146469,-0.010339580476284027,0.09668765217065811,0.0797557607293129,0.1563616394996643,0.0017923052655532956,0.04965716600418091,0.09646269679069519,0.08632717281579971,-0.05874847620725632,0.21025119721889496,0.06854820251464844,0.006994668859988451,-0.087646484375,-0.0439290925860405,0.009997191838920116,-0.09627094119787216,0.03853074088692665,0.05070114880800247,-0.09039168804883957,-0.17809884250164032,-0.10825064778327942,0.02611212059855461,-0.002385425614193082,-0.0755590945482254,-0.05616180598735809,0.006540355272591114,-0.03578317165374756,-0.02675076574087143,-0.01159538421779871,-0.04767791926860809,0.01940884254872799,0.008991092443466187,-0.12957507371902466,-0.10076124221086502,0.01185536291450262,-0.051280584186315536,-0.060761671513319016,-0.03014940582215786,-0.04588950425386429,-0.06868429481983185,-0.018890827894210815,0.004267813637852669,0.10783391445875168,0.009277720004320145,-0.008363408036530018,-0.10417359322309494,-0.053302790969610214,-0.11456348747015,-0.02028919756412506,-0.03167910873889923,0.008138826116919518,-0.07729269564151764,-0.020569605752825737,-0.035545703023672104,0.01693894900381565,0.03755173832178116,0.017181072384119034,-0.019385330379009247,-0.06597717106342316,-0.04633714258670807,-0.0404575876891613,-0.07801937311887741,-0.027637068182229996,0.008037582971155643,0.007984551601111889,0.0380663238465786,0.05213626101613045,0.07872683554887772,0.0055695162154734135,-0.055748749524354935,0.015157099813222885,-0.07448026537895203,-0.07515519112348557,0.04027556627988815,-0.0907759889960289,-0.08671844750642776,0.07478097081184387,-0.0501864030957222,0.007546406239271164,0.028319869190454483,0.045232128351926804,-0.13951098918914795,-0.052677761763334274,0.12207839637994766,-0.03397758677601814,-0.029158461838960648,-0.01623719371855259,0.0661785826086998,0.07306304574012756,0.021812984719872475,0.2118014544248581,-0.06867263466119766,0.043746866285800934,-0.020090581849217415,0.07040023803710938,-0.060323357582092285,-0.039188433438539505,0.008407579734921455,-0.01361839659512043,-0.05776000767946243,0.05226363614201546,-0.11370206624269485,-0.017394479364156723,0.014826960861682892,0.09492010623216629,-0.04407670721411705,-0.07317056506872177,-0.061185322701931,0.02868148684501648,-0.010145299136638641,-0.015447323210537434,-0.11671669781208038,0.004674617666751146,0.08574744313955307,-0.026657698675990105,-0.09579948335886002,-0.11025458574295044,0.012909797951579094,0.05963683873414993,-0.030384987592697144,0.012431812472641468,0.03831709921360016,0.060070186853408813,0.05299588292837143,0.0008750721463002264,-0.016078872606158257,0.1173163652420044,-0.007837176322937012,0.04962734878063202,0.03227007016539574,-0.018967898562550545,0.14483481645584106,-0.09612158685922623,0.09654823690652847,-0.14624261856079102,-0.003302927827462554,-0.1271442472934723,-0.018630875274538994,0.13888639211654663,-0.04016769677400589,-0.08985178917646408,-0.05634448677301407,0.017049675807356834,-0.12437424063682556,0.006628624629229307,0.023126401007175446,-0.0920804813504219,-0.09384117275476456,-0.020857486873865128,-0.0043494259007275105,-0.003561896737664938,-0.016596661880612373,0.14482823014259338,0.006296482402831316,-0.14460109174251556,-0.004451139830052853,-0.05167526379227638,-0.10541417449712753,-0.10812262445688248,0.09260793775320053,-0.017131855711340904,-0.054273635149002075,-0.001515990006737411,-0.017522137612104416,0.13668619096279144,-0.021288422867655754,0.12692445516586304,0.08805163949728012,-0.06966661661863327,0.013764866627752781,-0.013863625004887581,0.002229149453341961,-0.019059110432863235,-0.0784248411655426,0.020759614184498787,0.0557917058467865,0.05251065269112587,0.04108498990535736,-0.013764129020273685,-0.049420587718486786,0.16889150440692902,0.013057362288236618,-0.04364538565278053,-0.08018355071544647,0.03293728828430176,0.04338992014527321,0.13153176009655,-0.0565955825150013,0.10762463510036469,-0.04008856415748596,0.04687425494194031,-0.026999792084097862,0.07477372884750366,0.04321492835879326,-0.05130961537361145,0.014805549755692482,0.011367026716470718,-0.11499272286891937,-0.06739399582147598,-0.06840047985315323,0.17455528676509857,-0.009984256699681282,-0.1123964935541153,0.05022741109132767,