-0.04680914804339409,0.057704031467437744,-0.002940668724477291,-0.025480495765805244,-0.040311455726623535,-0.002580055734142661,-0.06643745303153992,-0.048461269587278366,0.06606058031320572,-0.010422171093523502,0.06693553924560547,0.03457896411418915,-0.031920623034238815,0.03338821232318878,0.0052885813638567924,-0.02148575708270073,0.0390460230410099,0.04427165910601616,0.037991706281900406,0.01540155429393053,-0.03463944420218468,0.008558849804103374,-0.06501005589962006,-0.005503727123141289,0.06917700916528702,-0.022585660219192505,0.0491291806101799,0.00509095611050725,0.028293142095208168,0.011021923273801804,-0.021065259352326393,0.046217579394578934,-0.007640018127858639,0.006847348064184189,0.01300867646932602,0.04198107495903969,-0.019656237214803696,0.010749483481049538,0.04412196949124336,0.00021344311244320124,0.019417211413383484,-0.06492847949266434,0.06468360126018524,-0.05813128128647804,-0.023043807595968246,-0.03964611887931824,0.029276259243488312,0.05142686143517494,0.01449890062212944,0.04970390349626541,0.006066498346626759,-0.045861344784498215,-0.0138615183532238,0.0195932500064373,-0.03808821365237236,0.007832294330000877,0.027339396998286247,0.044751256704330444,-0.02746186964213848,0.00971316173672676,-0.05471600219607353,0.05026182904839516,-0.024001505225896835,0.0012853983789682388