0.02995876595377922,-0.027659323066473007,0.007089047692716122,0.018630890175700188,0.012893136590719223,0.02920391969382763,-0.011970124207437038,0.02566947229206562,-0.010966203175485134,-0.011206482537090778,-0.0015629275003448129,-0.02777237445116043,-0.03229251131415367,-0.015524989925324917,0.003967853728681803,-0.0333746038377285,-0.031957533210515976,-0.00572084030136466,0.02717738039791584,0.004467281512916088,-0.026105357334017754,0.011246904730796814,0.02651621773838997,0.006422655191272497,0.0024301880039274693,-0.032504960894584656,0.03519953787326813,0.009149325080215931,-0.015982091426849365,-0.03579043224453926,0.0038598747923970222,-0.0279119610786438,-0.006034026388078928,-0.03020387701690197,0.0008615865954197943,0.012077370658516884,-0.006830073427408934,-0.022060895338654518,0.030727781355381012,0.036422502249479294,0.02275276929140091,-0.0211319737136364,-0.006463983561843634,-0.007578388787806034,0.006427104584872723,0.03532978519797325,0.026168350130319595,-0.034557316452264786,0.030570680275559425,0.024170130491256714,-0.01715761050581932,0.03355446085333824,-0.03483430668711662,-0.011255092918872833,-0.01349170133471489,-0.028929753229022026,-0.006354273296892643,0.01482192613184452,-0.008353712037205696,0.025867754593491554,-0.017878282815217972,-0.035430047661066055,0.016770053654909134,0.02045213244855404,-0.03910275921225548,0.027907755225896835,-0.007804125547409058,0.02093568444252014,0.03058777190744877,0.003633664222434163,0.032949019223451614,-0.01825869269669056,0.03634084761142731,0.017427068203687668,0.023850835859775543,-0.03487756475806236,-0.007223511580377817,-0.038216132670640945,-0.018504779785871506,0.02521602250635624,0.0333135649561882,-0.035114239901304245,0.0018746091518551111,0.02660488709807396,0.0153002068400383,0.005802256055176258,-0.017114030197262764,0.03935213014483452,-0.016383036971092224,-0.015498884953558445,-0.03329452872276306,0.030714286491274834,0.012538396753370762,-0.004808514378964901,-0.023997582495212555,-0.014525840990245342