0.00992631632834673,-0.0005611348315142095,-0.023672854527831078,0.0077465795911848545,-0.02940334752202034,-0.031590837985277176,-0.0319078229367733,0.01502259075641632,-0.0008976694662123919,-0.03060193546116352,0.024404291063547134,0.028261633589863777,-0.02033858373761177,0.0018150905380025506,0.02447487786412239,-0.0015348048182204366,-0.026113640516996384,0.033193137496709824,-0.008731354959309101,0.009958945214748383,0.025504477322101593,-0.007959914393723011,0.02124572917819023,0.026231493800878525,0.009939010255038738,-0.014547235332429409,-0.004914396442472935,-0.019326506182551384,-0.0036260653287172318,-0.01080654002726078,-0.004926785361021757,0.014691285789012909,0.022260868921875954,-0.03313402086496353,-0.015883879736065865,0.02457319013774395,-0.0012532584369182587,0.0010022184578701854,0.02252870798110962,0.007945442572236061,-0.02555418759584427,-0.026501653715968132,0.021528642624616623,0.021232610568404198,-0.006417104508727789,0.02568739466369152,-0.012974708341062069,0.026472395285964012,-0.03180250525474548,-0.011775456368923187,0.00838148407638073,-0.02674035355448723,0.029663240537047386,-0.02235448732972145,-0.012793275527656078,0.020506542176008224,0.022138366475701332,0.025736264884471893,-0.012932686135172844,-0.01007722970098257,-0.020008429884910583,-0.01094765868037939,0.006341863423585892,0.005945357959717512,-0.001014048233628273,0.004468174185603857,-0.001976520987227559,0.012802577577531338,-0.022534087300300598,0.022678596898913383,0.014925563707947731,-0.005522006191313267,-0.017799442633986473,-0.007555898744612932,-0.028796711936593056,0.02651638351380825,0.0328371524810791,-0.0032528431620448828,-0.004648113623261452,0.014404871501028538,-0.00632307818159461,0.009152080863714218,0.02480979450047016,-0.0053122942335903645,0.033875539898872375,0.012412271462380886,-0.0003316116635687649,0.029331360012292862,-0.03019545041024685,0.029983188956975937,-0.010740326717495918,-0.012869805097579956,0.021256515756249428,-0.006833734922111034,0.009761359542608261,0.00477902265265584,0.0242480281740427,0.01760328933596611,-0.018932737410068512,0.013685320504009724,-0.0018520932644605637,-0.021673133596777916,-0.003201334970071912,-0.023714076727628708,0.01661640591919422,0.0312984436750412,0.004529051017016172,-0.025707485154271126,0.016834000125527382,-0.0015019715065136552,-0.02676337957382202,-0.02966480888426304,-0.009053761139512062,-0.025708245113492012,0.02906733751296997,-0.005572220776230097,0.004686606582254171,-0.02322840690612793,-0.030802546069025993,-0.014488414861261845,-0.00873192772269249,-0.025918561965227127,0.026394732296466827,0.01712670922279358,0.01627262681722641,0.013814415782690048,0.01908024773001671,-0.02559237740933895