-0.007425347343087196,0.03904952108860016,-0.023036442697048187,0.0018906922778114676,0.03404643386602402,-0.006534310057759285,0.011537189595401287,-0.013674694113433361,-0.0384506992995739,0.011888682842254639,0.03500152379274368,-0.03645230457186699,0.03185315802693367,-0.024337589740753174,0.03270149603486061,-0.004940117243677378,0.03835294395685196,-0.03840399906039238,0.0017112931236624718,-0.01702801324427128,-0.01218901015818119,-0.02218899130821228,0.018768658861517906,-0.027854079380631447,0.03232981637120247,0.02544548176229,0.03594968467950821,0.003058129223063588,-0.004186117090284824,0.024262594059109688,0.013286708854138851,0.03115914762020111,0.0017235487466678023,0.020500781014561653,0.008968259207904339,-0.016905078664422035,-0.0012828256003558636,0.015511922538280487,-0.024498499929904938,0.0251472108066082,-0.022267144173383713,0.01118734572082758,-0.011272808536887169,0.037403788417577744,-0.002212394727393985,-0.016312794759869576,-0.0067266919650137424,0.0021301235537976027,-0.00973308365792036,-0.03359800577163696,0.01031477190554142,-0.02406521886587143,0.006251655053347349,-0.03307700529694557,-0.009846477769315243,0.034005165100097656,-0.0010405413340777159,0.008290935307741165,0.03297116607427597,-0.016154656186699867,0.020231256261467934,-0.025731941685080528,-0.015356232412159443,0.013992701657116413