0.04172026738524437,0.008416407741606236,-0.02720329537987709,0.03852492943406105,-0.006871105637401342,-0.010477736592292786,-0.057275738567113876,0.04624079167842865,-0.014333365485072136,-0.016773926094174385,0.05369940027594566,-0.017558854073286057,-0.014820567332208157,0.055044207721948624,-0.04232495278120041,0.014458025805652142,0.04608157277107239,0.027469877153635025,-0.05921885743737221,-0.0013742956798523664,-0.038836777210235596,-0.0032001426443457603,0.00588954146951437,0.04715535417199135,-0.04896487668156624,-0.050992146134376526,0.03568924218416214,-0.026201752945780754,-0.030510036274790764,-0.0618482269346714,-0.05606674402952194,0.057460032403469086,-0.0345180407166481,0.05216287076473236,0.010018262080848217,-0.04621918499469757,-0.04073256254196167,0.05820877104997635,-0.054701752960681915,0.04393073543906212,0.00339712668210268,-0.03563745692372322,-0.01709953136742115,-0.010267461650073528,0.054012320935726166,-0.007701570633798838,0.04199449345469475,0.05237062647938728,0.039827074855566025,-0.008762230165302753,0.04715907946228981,-0.0341922864317894,-0.026993563398718834,-0.03668275102972984,-0.0393713116645813,-0.0244833342730999,-0.03471367061138153,-0.05562862008810043,0.025695418938994408,0.05089697986841202,-0.05250505357980728,0.003187891561537981,-0.03358300402760506,0.00988694466650486