0.028953740373253822,0.01982121355831623,-0.013710489496588707,0.004182311240583658,0.0020348757971078157,0.009319014847278595,-0.023973004892468452,-0.0021834028884768486,-0.01705562137067318,-0.025607526302337646,-0.007650956977158785,0.0036401294637471437,0.00951115321367979,-0.02916455827653408,-0.004997543524950743,-0.02682562917470932,0.026524804532527924,0.02213875763118267,0.010339200496673584,-0.023526834324002266,-0.005440061911940575,-0.015477082692086697,-0.0010581623064354062,-0.025757718831300735,-0.005699337925761938,-0.017555734142661095,-0.004380859434604645,0.01443138625472784,-0.013315010815858841,0.006457912735641003,-0.009155122563242912,0.009064016863703728,0.0024885849561542273,-0.005172926001250744,0.007684909272938967,0.018526703119277954,0.01511307992041111,-0.027727436274290085,0.014810827560722828,-0.02077142708003521,-0.016963329166173935,0.028548352420330048,0.029156483709812164,-0.008477195166051388,0.001402582973241806,0.008820177055895329,0.009154821746051311,-0.0019370557274669409,-0.0010784647893160582,0.003139375476166606,0.013919252902269363,-0.013649363070726395,0.02249825745820999,-0.019296154379844666,0.0293926652520895,-0.028205454349517822,0.00960082933306694,0.021164491772651672,0.016042856499552727,-0.0307319238781929,0.015254982747137547,-0.010627901181578636,-0.01621975190937519,-0.024709677323698997,-0.012356587685644627,-0.0023383013904094696,-0.018262315541505814,-0.006930205971002579,-0.010152499191462994,0.02225123904645443,0.0030826081056147814,0.018672194331884384,-0.0008556672837585211,0.01019164826720953,0.0030107651837170124,-0.03057405911386013,-0.014746399596333504,0.030437206849455833,0.018275169655680656,0.018494104966521263,-0.024126239120960236,-0.01838531903922558,0.0198843814432621,0.028560109436511993,-0.017276465892791748,0.0257317665964365,0.02528044581413269,-0.008836137130856514,0.01497822254896164,-0.014361359179019928,0.020530443638563156,-0.0006717349751852453,-0.0031323109287768602,0.01130031980574131,0.02378522790968418,-0.022824011743068695,0.017298290506005287,-0.00998418778181076,-0.014152913354337215,-0.013475507497787476,0.015566947869956493,0.030927881598472595,-0.017560813575983047,0.0209827683866024,0.022109679877758026,-0.018346089869737625,-0.013362783938646317,0.009305962361395359,0.012526368722319603,-0.007865973748266697,0.01906873844563961,-0.029077835381031036,0.026096219196915627,-0.02748803421854973,0.02427768148481846,0.005936960689723492,-0.013777608051896095,-0.02725888416171074,0.012972344644367695,-0.009082199074327946,-0.005307820159941912,-0.014137296006083488,-0.006000146269798279,0.001783882500603795,0.0041391137056052685,-0.029681619256734848,0.004616753663867712,0.002646334934979677,0.004553387872874737,0.02901521883904934,0.0012842557625845075,-0.013426674529910088,0.014959482476115227,0.016795895993709564,-0.015141737647354603,-0.010388468392193317,-0.014508174732327461,-0.008386829867959023,0.015475749038159847,0.018075741827487946,-0.011104418896138668,0.0006955788121558726,0.011582238599658012,-0.01758047193288803,-0.012091784738004208,0.016102081164717674,-0.019379643723368645,-0.01686714217066765,-0.0007480079657398164,-0.01658935658633709,-0.022106032818555832,-0.01681554690003395,-0.01713280938565731,0.004865935537964106,0.0028272138442844152,-0.005739117506891489,0.014753679744899273,0.028878916054964066,-0.017701417207717896,0.02765302173793316,0.023377208039164543,-0.004952546674758196,0.020912760868668556,-0.01913297176361084,0.029613016173243523,-0.030742675065994263,-0.003542814403772354,0.025118596851825714,-0.02881133183836937,-0.011241933330893517,0.0032086619175970554,-0.02449478767812252,0.005742233712226152,-0.01509889867156744,0.02210531011223793,-0.017608901485800743,0.02992122247815132,0.025460630655288696,0.02789056859910488,-0.020933015272021294,0.02945510298013687,0.00402295496314764,-0.0135290352627635,-0.006986981723457575,-0.01198545377701521,0.010448996908962727,0.017659295350313187,0.024850808084011078,0.006528506986796856,-0.027898335829377174,0.017076892778277397,-0.006735340226441622,-0.0155616644769907,-0.004595263861119747,-0.025621730834245682,0.00860980898141861,-0.02692371979355812,0.0007171152392402291,-0.022491881623864174,0.019218573346734047,-0.02707708440721035,0.019385647028684616,-0.011207998730242252,-0.026432760059833527,0.02836420200765133,-0.02236880362033844,-0.014203500933945179,0.020151732489466667,-0.01320711150765419,0.03042701445519924,-0.026070820167660713,-0.027237042784690857,-0.02576274238526821,0.0030726550612598658,-0.020039811730384827,0.027614569291472435,0.016208022832870483,0.022083744406700134,0.002662596059963107,0.020206520333886147,0.02433919534087181,0.029813556000590324,-0.010517604649066925,0.01839379221200943,0.014775131829082966,0.01005491428077221,0.012027163989841938,0.0026943539269268513,-0.01960369572043419,-0.007751133292913437,-0.014894974417984486,0.026804834604263306,-0.013717480935156345,-0.01398212369531393,0.008938693441450596,0.0078815259039402,-0.005026704166084528,0.031071577221155167,-0.007265759631991386,0.012002542614936829,-0.022585108876228333,-0.017608726397156715,-0.004632656462490559,0.02694554626941681,0.012588719837367535,-0.021694641560316086,-0.03080805204808712,-0.014811971224844456,0.025275059044361115,-0.011536920443177223,-0.02797522582113743,-0.007767122238874435,0.003962814342230558,-0.01457896362990141,-0.02220574952661991,-0.02918895334005356