0.0059349718503654,0.017199542373418808,0.017894556745886803,0.006656641606241465,0.01935037598013878,0.0030637967865914106,0.007348951417952776,-0.010888229124248028,-0.0024258240591734648,-0.006031493190675974,-0.005804860033094883,-0.006438855081796646,-0.012851541861891747,0.013688769191503525,-0.019006792455911636,0.018445637077093124,-0.014368775300681591,-0.02859354577958584,0.02941715531051159,0.028430862352252007,-0.02626308798789978,-0.009381352923810482,-0.028581494465470314,-0.00409207446500659,-0.013192541897296906,0.028310157358646393,0.012639094144105911,-0.00383620779030025,0.0005307724932208657,-0.001231868052855134,0.001185721019282937,-0.010678188875317574,0.02453557774424553,0.00591780012473464,-0.010550242848694324,0.016089439392089844,-0.005727334879338741,-0.022102491930127144,0.030001142993569374,0.026624906808137894,-0.01274488028138876,0.02524876594543457,-0.020384622737765312,0.01779581606388092,0.027733944356441498,-0.024158809334039688,0.017981553450226784,-0.010438933037221432,0.0012038516579195857,-0.01851842924952507,-0.01732167787849903,-0.027507955208420753,0.01565191149711609,0.014351082034409046,-0.016090985387563705,0.013925906270742416,-0.018643736839294434,0.007590592373162508,-0.020488271489739418,-0.010510259307920933,-0.004431009758263826,0.01445196196436882,0.018582873046398163,0.02878008596599102,0.011955931782722473,0.024390745908021927,-0.01489600632339716,-0.03120483085513115,0.012196354568004608,-0.0012319874949753284,-0.01458753738552332,-0.01802539825439453,-0.007738810032606125,-0.011489106342196465,0.014795211143791676,0.029068106785416603,0.01950005255639553,-0.008300037123262882,-0.011977050453424454,0.006922800559550524,-0.026715902611613274,0.010028882883489132,-0.025466380640864372,-0.014448298141360283,0.017989875748753548,0.01977095752954483,-0.004630377981811762,0.013035325333476067,0.019403910264372826,-0.027257012203335762,0.027742570266127586,0.019591867923736572,0.0012891048099845648,-0.008123398758471012,-0.03013978898525238,-0.028072508051991463