0.020350761711597443,-0.021554172039031982,-0.02060898393392563,-0.00465024309232831,0.00525592640042305,-0.006442798301577568,0.02739700861275196,-0.01620899699628353,0.018629098311066628,-0.00585897034034133,-0.004235183820128441,-0.005797225516289473,0.021575236693024635,0.02392771653831005,0.0024258638732135296,0.0022777332924306393,-0.017035184428095818,0.006422866601496935,-0.02475300431251526,-0.007237886544317007,0.014221356250345707,-0.016264041885733604,0.009942622855305672,-0.007308413740247488,-0.01807219535112381,0.02245468832552433,-0.032866474241018295,-0.020752254873514175,0.008572427555918694,0.009458577260375023,-0.016416706144809723,0.010397715494036674,0.0005067192250862718,0.028875289484858513,-0.015142951160669327,0.026527145877480507,0.018457680940628052,0.006605631206184626,-0.021888772025704384,0.023840006440877914,0.033124472945928574,-0.011255338788032532,-0.015609269961714745,-0.027110857889056206,0.014158552512526512,0.033753104507923126,-0.009981614537537098,0.01723208650946617,-0.0330011323094368,-0.024242393672466278,0.03238677233457565,0.0200370904058218,-0.014496274292469025,0.01023224089294672,-0.028958145529031754,0.0076291547156870365,0.025136282667517662,0.02555006556212902,0.0040354602970182896,-0.0029081383254379034,0.030733857303857803,0.022545041516423225,0.025916116312146187,-0.01652691327035427,-0.014755776152014732,-0.012398388236761093,0.0033019683323800564,0.029577473178505898,-0.0288405641913414,-0.03319675102829933,-0.0007641001720912755,-0.014029435813426971,-0.030803799629211426,-0.01685546152293682,0.021333377808332443,-0.021024394780397415,-0.016977591440081596,-0.017043622210621834,-0.002193531719967723,0.030748330056667328,-0.01004915963858366,-0.02336375042796135,-0.03377250209450722,0.013135401532053947,-0.029055297374725342,0.015500643290579319,-0.027143491432070732,0.013643923215568066,-0.021858496591448784,-0.006367724854499102,0.02597273513674736,-0.007396690081804991,-0.015501219779253006,-0.02997208759188652,0.027837717905640602,0.013687004335224628,-0.004448212683200836,-0.013937999494373798,0.0034375323448330164,-0.031151046976447105,-0.002774005988612771,-0.019169289618730545,0.032525110989809036,0.025160858407616615,-0.01698661595582962,-0.032695092260837555,0.02474713884294033,0.03337937220931053,0.023806553333997726,-0.008113866671919823,-0.0187306459993124,-0.005608439911156893,0.010453145019710064,-0.02911972440779209,-0.023182274773716927,0.029071874916553497,-0.032310694456100464,0.007323200814425945,-0.030371764674782753,-0.017646070569753647,0.007283068727701902,-0.0236655380576849,0.019659217447042465,0.0009503490873612463,-0.00010268648475175723,0.020214121788740158,0.016916630789637566,-0.0012971365358680487