-0.01287591177970171,-0.018803363665938377,0.0032781828194856644,-0.005196653306484222,-0.009684017859399319,-0.01973334327340126,0.02149592712521553,-0.022868920117616653,-0.00025999246281571686,0.010253907181322575,0.007327184546738863,-0.011814371682703495,-0.007657518144696951,-0.020523227751255035,0.006775573827326298,0.0034522961359471083,0.020331423729658127,0.009819679893553257,-0.009143558330833912,-0.0026883487589657307,0.0200530793517828,-0.014132230542600155,0.008979050442576408,-0.025298597291111946,0.011035447008907795,0.02195671759545803,-0.014287090860307217,-0.010076381266117096,-0.022753488272428513,0.022160604596138,0.01985447108745575,0.0017904810374602675,0.009452230297029018,-0.009080360643565655,0.019917549565434456,-0.0072399163618683815,-0.019908379763364792,-0.010976340621709824,0.024304861202836037,-0.006928048562258482,0.020636456087231636,-0.025964898988604546,0.017188340425491333,-0.01827370747923851,-0.011491314508020878,-0.02208382450044155,-0.007844071835279465,-0.015278540551662445,-0.010997452773153782,0.025937141850590706,0.003354010870680213,-0.024572603404521942,-0.00784300360828638,0.014180805534124374,0.02552577294409275,-0.0020934678614139557,0.018928157165646553,-0.006214075721800327,0.018567485734820366,-0.02513435110449791,0.003117961809039116,0.025254851207137108,-0.02563171647489071,0.004686657339334488,0.017082352191209793,0.010897841304540634,0.016063794493675232,0.0036738801281899214,0.01592087931931019,0.02113155461847782,0.015225822106003761,0.020651336759328842,-0.002228258643299341,0.002376436023041606,0.020161110907793045,0.004714349750429392,0.013001845218241215,0.021626314148306847,0.0036793453618884087,-0.02008417434990406,0.0027344627305865288,0.005312821827828884,0.017858734354376793,-0.020269859582185745,-0.008074427954852581,0.0053405738435685635,-0.014855572953820229,-0.0089998384937644,-0.010993910022079945,0.012101500295102596,-0.018297431990504265,0.007161049637943506,-0.004535222891718149,0.025872977450489998,0.012285946868360043,0.02534850686788559,-0.016957273706793785,0.02061764895915985,-0.012989094480872154,0.017907479777932167,-0.011371240019798279,0.02511478215456009,-0.025335639715194702,0.0008039486710913479,-0.024301571771502495,-0.012501353397965431,-0.0009976571891456842,-0.014738598838448524,-0.010225299745798111,0.02590131387114525,-0.014071923680603504,0.005297314375638962,0.0059601785615086555,-0.008100665174424648,-0.02334229089319706,-0.016522718593478203,0.01437409594655037,0.01357742864638567,-0.014371383935213089,0.00988742895424366,-0.0033298402559012175,0.019665289670228958,-0.026277074590325356,-0.0009550553513690829,-0.018398715183138847,0.025686876848340034,-0.0035426372196525335,0.004139167722314596,0.00589092867448926,-0.01037959661334753,-0.007878530770540237,0.00673883780837059,0.02386559545993805,-0.023161007091403008,0.0219192486256361,0.008544265292584896,0.0183407049626112,0.021800367161631584,-0.011177344247698784,-0.015226847492158413,-0.004548628348857164,0.01232515461742878,-0.01814238540828228,-0.01227391418069601,0.012062332592904568,0.025785185396671295,-0.004078423138707876,-0.01528897974640131,0.009817367419600487,0.023667775094509125,0.02009178139269352,0.004809393081814051,-0.008551706559956074,-0.012644896283745766,0.01234090980142355,0.002061467617750168,0.017833884805440903,0.00010863372153835371,0.0003365199954714626,-0.010401100851595402,0.007165806833654642,-0.016788478940725327,0.023284586146473885,0.008927274495363235,0.010897238738834858,0.018803205341100693,0.02271248772740364,-0.009090795181691647,0.011978213675320148,0.003662862814962864,0.00208274251781404,-0.01367894746363163,0.017017779871821404,-0.02062293142080307,0.019673394039273262,-0.0046165743842720985,-0.026034044101834297,-0.0027296494226902723,0.007821284234523773,-0.0232127346098423,-0.01187977660447359,-0.021184133365750313,0.0065972767770290375,0.015099391341209412,0.024571282789111137,-0.014098984189331532,0.0011218932922929525,-0.016568398103117943,0.010761399753391743,-0.017728649079799652,-0.0028736842796206474,0.001133158104494214,-0.002817056141793728,-0.012785656377673149,-0.004288378171622753,0.019070768728852272,0.025049623101949692,0.01689733937382698,0.0236358642578125,0.0027253935113549232,-0.019402451813220978,-0.0004618013044819236,-0.006380606908351183,-0.021133102476596832,-0.013369500637054443,-0.012032289989292622,-0.022052312269806862,-0.009560784325003624,-0.019792068749666214,0.00811821036040783,-0.006393512710928917,0.008838307112455368,0.025501932948827744,0.01764005236327648,-0.014439718797802925,-0.006563915405422449,0.021578658372163773,-0.020125944167375565,0.018264655023813248,0.01746450364589691,-0.0025335634127259254,-0.000182777046575211,-0.021095670759677887,0.01178579218685627,0.025710565969347954,0.0046196673065423965,0.020518038421869278,-0.014690392650663853,0.007909726351499557,-0.014645765535533428,-0.015123111195862293,0.0024439890403300524,0.00041088266880251467,0.005917858798056841,-0.024765975773334503,-0.006718930322676897,0.025434346869587898,-0.021413739770650864,-0.01124944444745779,0.014280120842158794,-0.023556968197226524,0.02032611146569252,0.017660364508628845,0.022886591032147408,-0.017162896692752838,-0.003344956785440445,-0.005750229116529226,-0.0010303608141839504,-0.011354911141097546,0.024314777925610542,-0.011808834038674831,-0.01641339622437954,-0.016425423324108124,-0.014055254869163036,0.006313108839094639,-0.020463548600673676