0.03262738138437271,0.00013387810031417757,-0.009514191187918186,0.02382054552435875,0.010586586780846119,0.001875411020591855,0.019709771499037743,-0.024787431582808495,0.02655775099992752,0.02624627575278282,-0.0021800892427563667,0.0013668506871908903,-0.0029377909377217293,-0.0002911737246904522,0.03531026467680931,0.014697161503136158,-0.0006740354001522064,0.00033996597630903125,-0.022050246596336365,0.0007740833098068833,-0.0328032411634922,-0.03187142685055733,0.02823217771947384,0.01680782623589039,0.034762341529130936,-0.029630988836288452,-0.011027625761926174,0.006819615606218576,0.0339241586625576,-0.026021867990493774,-0.02761731669306755,-0.015255199745297432,0.020983850583434105,-0.03476826101541519,-0.011290216818451881,0.020568598061800003,0.03037775680422783,0.021945569664239883,-0.023938698694109917,0.007661493960767984,-0.02533867210149765,-0.010496065951883793,-0.013520389795303345,-0.025873489677906036,0.013390392996370792,-0.002895904239267111,-0.0334252305328846,0.019377129152417183,0.03429896757006645,-0.025207214057445526,-0.03030049428343773,-0.02919715642929077,0.0023809263948351145,0.008100658655166626,-0.02697301097214222,0.007261558435857296,-0.013116607442498207,-0.025410056114196777,-0.014852285385131836,-0.027647297829389572,-0.013603709638118744,-0.014748350717127323,0.007234200835227966,-0.010787724517285824