-0.004060989245772362,-0.021626941859722137,-0.006152931600809097,0.05289749428629875,-0.027940897271037102,0.02893170528113842,-0.06441517919301987,-0.044719234108924866,-0.06784309446811676,0.06253593415021896,-0.0007480554631911218,-0.006027128081768751,5.687712837243453e-05,0.09937505424022675,0.043939851224422455,-0.015492325648665428,0.028819255530834198,0.05857989937067032,-0.04643075913190842,-0.027533434331417084,0.03687896579504013,0.03643811494112015,-0.05641262233257294,0.08783913403749466,0.0766560509800911,-0.004574146121740341,0.005832047667354345,0.048592373728752136,-0.02019057609140873,-0.0357082337141037,-0.007043870631605387,-0.06380114704370499,-0.05605092644691467,0.10969400405883789,-0.0877375602722168,0.016945376992225647,-0.0863688588142395,0.0038638408295810223,0.037851251661777496,0.011498486623167992,0.014059615321457386,-0.008775359019637108,-0.05609702318906784,0.00024968746583908796,-0.18785633146762848,0.07864454388618469,0.05408812314271927,-0.042846329510211945,0.018058573827147484,-0.03215401992201805,-0.0006505108322016895,-0.013842382468283176,-0.09825457632541656,-0.021817589178681374,-0.031166229397058487,-0.06524842232465744,-0.011593641713261604,0.0043656425550580025,-0.042287882417440414,-0.021122803911566734,0.053141772747039795,0.04581183195114136,0.037699002772569656,-0.08311452716588974,-0.010248562321066856,0.005288451910018921,-0.07304605841636658,0.056480519473552704,-0.012069499120116234,0.03999994695186615,-0.09151007980108261,-0.034415680915117264,0.0472353994846344,-0.07098224759101868,-0.055228617042303085,-0.010611736215651035,-0.06163317337632179,0.07269127666950226,-0.016873709857463837,-0.0009343083947896957,0.05035421997308731,0.135567769408226,-0.018496140837669373,0.09274911135435104,0.06113579869270325,0.04730142652988434,0.016956545412540436,-0.1323186159133911,0.03019498474895954,0.02437591180205345,0.10308041423559189,0.025532303377985954,-0.02496243454515934,0.07759767025709152,0.006329650525003672,0.00720559898763895,0.0305780079215765,0.026887277141213417,-0.12805917859077454,-0.12966705858707428,0.08316321671009064,0.07264309376478195,-0.015706663951277733,0.04548809304833412,-0.007624808698892593,0.06404503434896469,-0.07890808582305908,0.017588678747415543,-0.042564865201711655,-0.033039432018995285,0.027695508673787117,0.020291632041335106,-0.0487397238612175,0.0637524276971817,-0.003013910725712776,-0.010289366357028484,0.0010861186310648918,-0.011303639970719814,0.029694102704524994,-0.02527770958840847,-0.026308756321668625,0.05457005277276039,0.05042693391442299,-0.017244860529899597,-0.037718188017606735,0.17962419986724854,-0.01287501584738493,-0.05618435516953468,-0.0031957344617694616,-0.02738647721707821,-0.1022556871175766,-0.09672239422798157,-0.026261452585458755,0.011678202077746391,0.05976263806223869,-0.00651696277782321,0.019703935831785202,-0.00023445469560101628,-0.0553474947810173,0.010981656610965729,0.0033523584716022015,-0.01018375065177679,0.025989549234509468,-0.03704800084233284,0.06884606927633286,-0.0039005200378596783,0.04701123386621475,0.04326147213578224,0.03768445923924446,0.10867238789796829,-0.019992690533399582,0.022531770169734955,0.07683967053890228,-0.10517699271440506,0.0274062380194664,-0.019220490008592606,-0.001565573737025261,-0.016387753188610077,-0.020007463172078133,-0.04438822716474533,0.005137740168720484,-0.01395040936768055,0.02190506085753441,0.18778599798679352,0.04669549688696861,0.06931137293577194,0.008025441318750381,0.07499168813228607,0.049300216138362885,-0.0828513503074646,-0.014951780438423157,-0.06960885226726532,-0.011295313946902752,0.06121009960770607,0.0038010026328265667,-0.011379556730389595,-0.00027827132726088166,-0.011677914299070835,-0.007936549372971058,0.03708229213953018,0.03271111100912094,0.038236185908317566,0.031556546688079834,-0.11154303699731827,0.011451778002083302,-0.022090014070272446,-0.05792033672332764,0.058751631528139114,-0.038429588079452515,0.0015805353177711368,-0.05198277160525322,0.0985574796795845,0.08141401410102844,0.0990055501461029,0.019989047199487686,0.0003540613688528538,0.06126823276281357,-0.05970846116542816,0.019691817462444305,0.04883469268679619,-0.009214330464601517,-0.03039398230612278,0.01234925352036953,-0.1488877683877945,-0.025087742134928703,0.028444046154618263,0.09349165111780167,0.07864996790885925,-0.02631317265331745,0.047484252601861954,-0.1312265396118164,0.042150866240262985,0.09874682873487473,-0.10300280153751373,-0.03638524189591408,-0.0477365180850029,0.08553367108106613,0.11644302308559418,0.057359375059604645,-0.1291533261537552,0.017906123772263527,0.05760861933231354,-0.02502664178609848,0.034829869866371155,-0.03378290310502052,0.08368741720914841,0.047165412455797195,-0.007961178198456764,0.15997324883937836,-0.06001129746437073,0.00877381768077612,-0.0017739087343215942,-0.03741910308599472,0.022791143506765366,-0.031001146882772446,-0.00393345020711422,-0.041114192456007004,-0.03328922763466835,-0.024043932557106018,-0.025331728160381317,-0.020191321149468422,-0.0012640536297112703,-0.0313144214451313,0.054073695093393326,0.030560532584786415,0.034072618931531906,0.028191007673740387,0.024534566327929497,-0.07707565277814865,0.1402568221092224,0.08739779144525528,-0.04042050614953041,-0.07331061363220215,0.00643194280564785,-0.06836794316768646,0.012865490280091763,0.012331219390034676,-0.012907765805721283,-0.020419247448444366,0.017756788060069084,-0.022156303748488426,-0.03080424666404724,-0.031514473259449005,-0.04734155535697937,-0.028733648359775543,0.016324887052178383,-0.021277055144309998,-0.02462964504957199,0.020838342607021332,0.01988309621810913,-0.01152019388973713,-0.019599106162786484,-0.0060901460237801075,-0.0306615699082613,0.010999811813235283,0.05789883807301521,0.02833426184952259,-0.010065095499157906,0.004215660504996777,0.014109822921454906,-0.029837241396307945,-0.008281824178993702,0.007855736650526524,-0.00024231775023508817,-8.901234832592309e-05,-0.031579360365867615,-0.0021807916928082705,0.03878168761730194,-0.007416211534291506,-0.011968698352575302,0.015719661489129066,0.001854497822932899,0.013956771232187748,0.026405220851302147,-0.022177407518029213,-0.019223900511860847,-0.01422212179750204,0.057613857090473175,-0.025935305282473564,-0.027502354234457016,-0.019115624949336052,-0.016703728586435318,-0.01993465982377529,-0.0007961267838254571,0.03369124233722687,-0.002754154382273555,-0.0034558004699647427,0.013011055067181587,-0.01279902458190918,-0.03191784396767616,-0.008144581690430641,-0.0264486875385046,0.017050743103027344,0.024060117080807686,-0.008198404684662819,0.03155536949634552,-0.00930735096335411,0.08601226657629013,-0.009300598874688148,0.05105212703347206,-0.01821274682879448,0.01868210919201374,0.008544523268938065,-0.052569884806871414,-0.0352749302983284,0.02087956853210926,-0.006626290734857321,-0.02613886445760727,0.03069031983613968,-0.04313545301556587,-0.05119466781616211,0.011633303947746754,-0.03771904483437538,0.0014187891501933336,-0.053251128643751144,-0.02974724769592285,-0.02450912445783615,0.035004623234272,-0.011815558187663555,-0.03667149320244789,-0.05395478382706642,-0.042602818459272385,-0.04925978556275368,0.04476875066757202,0.004546843469142914,0.00871684867888689,0.0010192105546593666,0.047617107629776,-0.011857680045068264,0.026492945849895477,0.017677810043096542,-0.012408011592924595,-0.034474194049835205,0.007003145758062601,-0.09044071286916733,-0.04226167872548103,-0.022025292739272118,-0.01555742509663105,-0.025920405983924866,0.01095623429864645,-0.0026964519638568163,-0.041348982602357864,0.023596081882715225,-0.0003741455730050802,-0.028044454753398895,-0.001797791919670999,0.00885987188667059,-0.0438549742102623,-0.03278293088078499,-0.03054148517549038,0.00619533471763134,-0.002142694080248475,-0.014553215354681015,0.03452116250991821,-0.009794232435524464,0.01901516690850258,-0.008141336031258106,-0.034363966435194016,0.05445976182818413,-0.010640598833560944,-0.005743066314607859,-0.042994074523448944,0.017239434644579887,-0.011036905460059643,-0.0625138059258461,-0.13924771547317505,0.026258394122123718,0.0024685938842594624,0.06798747181892395,-0.013934391550719738,0.03296387568116188,0.17647306621074677,-0.04643712565302849,0.002891743090003729,-0.0037535764276981354,0.011111431755125523,-0.007912973873317242,0.04218374937772751,-0.006012557074427605,-0.01110508106648922,0.025426797568798065,-0.006751307751983404,0.03844781219959259,-0.0540345199406147,-0.1738540083169937,-0.048942405730485916,0.038018885999917984,-0.05399346724152565,0.020165106281638145,0.02006945200264454,-0.04178708419203758,0.024464789777994156,-0.015395515598356724,-0.012914014980196953,-0.07552345842123032,-0.05428514629602432,0.07934796065092087,-0.014316975139081478,-0.0682545155286789,-0.016563551500439644,0.024622030556201935,-0.0455547496676445,0.007531363982707262,0.010985074564814568,0.1096654012799263,0.014191404916346073,-0.029933582991361618,-0.02881680801510811,0.07270695269107819,-0.013124017976224422,0.001636270433664322,0.07537959516048431,0.09397280961275101,0.131743922829628,0.14939382672309875,0.038734953850507736,0.06428367644548416,-0.06849667429924011,0.07127197831869125,0.04590126872062683,-0.04321984946727753,0.0438309870660305,0.055881984531879425,-0.053141914308071136,-0.06491561979055405,-0.03150426596403122,0.02957395650446415,-6.998891331022605e-05,-0.0095622967928648,-0.08859096467494965,0.03368427976965904,0.03983308747410774,0.08588403463363647,0.028178922832012177,0.025137467309832573,0.040947746485471725,0.05038471519947052,-0.10078536719083786,0.1340339481830597,-0.15253660082817078,-0.04806424677371979,-0.029717793688178062,-0.01310944464057684,-0.013514366000890732,0.07428956776857376,0.01030429732054472,0.053232304751873016,-0.11230991780757904,0.051441725343465805,-0.033407192677259445,-0.04567155987024307,0.010528082959353924,-0.008262274786829948,-0.09185627847909927,0.0038616559468209743,-0.03358856961131096,0.07309911400079727,-0.1012801080942154,-0.023863110691308975,-0.01569630391895771,-0.007117746863514185,-0.07709623128175735,0.06111147627234459,-0.018718846142292023,-0.053017839789390564,0.05335213989019394,0.017748147249221802,-0.010496449656784534,0.12765677273273468,-0.007584403268992901,0.018047673627734184,0.06665315479040146,0.0024741424713283777,-0.05499860644340515,0.003445715643465519,-0.017057940363883972,-0.0370086207985878,0.02673782967031002,-0.053585268557071686,-0.1776878535747528,0.05732700601220131,-0.08506368100643158,-0.01119326427578926,-0.10557184368371964,0.04035972058773041,0.06546393781900406,-0.03682732209563255,0.0030505280010402203,0.11400186270475388,-0.01014779880642891,-0.04372861236333847,-0.0546855628490448,-0.20107370615005493,-0.05608409270644188,0.00874573364853859,0.06407184153795242,0.006338078994303942,0.027092259377241135,-0.024871617555618286,0.1387820541858673,-0.04170798137784004,-0.1352115422487259,-0.03787219151854515,0.024946391582489014,0.03704151511192322,0.07366283982992172,0.003455802798271179,-0.024463225156068802,0.016811570152640343,0.07933132350444794,-0.029193582013249397,-0.030071556568145752,0.16056957840919495,0.0053946590051054955,0.019851306453347206,-0.03217696771025658,0.03293406218290329,-0.0021289638243615627,0.0009622725192457438,0.0011081460397690535,-0.016789240762591362,-0.06149181351065636,-0.02992168441414833,-0.09841401875019073,0.021906474605202675,0.017377246171236038,0.07684163004159927,-0.0734146237373352,0.032341521233320236,-0.013121865689754486,0.05407210439443588,0.14175020158290863,-0.023349832743406296,0.12402408570051193,-0.030992135405540466,-0.029477430507540703,-0.0770573690533638,-0.057201482355594635,-0.03643796965479851,-0.09008140861988068,-0.03471378982067108,0.007925327867269516,-0.022030729800462723,-0.02514605037868023,0.014028412289917469,-0.08630587160587311,0.0013280750717967749,-0.011715404689311981,-0.09014115482568741,0.2056252658367157,0.03143593668937683,0.029621964320540428,-0.02534688636660576,0.020768191665410995,0.004075466655194759,-0.03241801634430885,0.028946278616786003,-0.031000439077615738,0.05550285428762436,0.06398063153028488,0.04529717564582825,0.13518524169921875,-0.006611055228859186,0.012725142762064934,0.07052589952945709,-0.10322998464107513,-0.08456961810588837,-0.01705792360007763,0.03468471020460129,0.09823751449584961,0.004198464564979076,-0.024237412959337234,0.03426096960902214,-0.03262275084853172,-0.016715794801712036,-0.06612754613161087,0.00788494199514389,0.04947924613952637,-0.07194250077009201,0.003869233885779977,-0.08732657879590988,0.024054300040006638,0.08824025094509125,-0.04881159961223602,-0.016793565824627876,0.03377857431769371,0.027393748983740807,0.0054699936881661415,0.030347805470228195,-0.11791259795427322,0.06418298184871674,0.00808065664023161,0.07017897069454193,-0.1107870489358902,0.04061591997742653,0.055128313601017,0.05707945674657822,-0.013442662544548512,0.050315264612436295,0.08168194442987442,-0.0025541996583342552,0.02553989179432392,-0.01083872839808464,0.07167523354291916,0.059492532163858414,-0.024360721930861473,0.05047570541501045,0.08230303227901459,0.011144640855491161,0.011420095339417458,0.03288447856903076,-0.012155157513916492,0.005676247179508209,-0.066802017390728,-0.005682671442627907,0.13845598697662354,-0.01938263140618801,0.008886102586984634,-0.06700010597705841,0.03549730405211449,-0.02759065479040146,0.00911347009241581,-0.0009306957945227623,0.04439322277903557,-0.0011913691414520144,0.013043099083006382,-0.025702305138111115,0.013014640659093857,0.0034323937725275755,0.003270831424742937,0.049596115946769714,-0.0016190052265301347,0.0030839997343719006,-0.017914829775691032,0.01725504919886589,0.036285609006881714,0.001004936988465488,0.010265801101922989,0.015355594456195831,0.009932277724146843,-0.025161758065223694,-0.019704321399331093,0.02095676213502884,-0.004719191696494818,0.00887170247733593,-0.03431323170661926,-0.004382889252156019,0.00238185771740973,-0.027534017339348793,-0.008592230267822742,0.008195956237614155,-0.03328850120306015,0.046283524483442307,0.03400636091828346,-0.029920639470219612,0.018100885674357414,0.011867118999361992,0.004685852210968733,0.007892867550253868,0.030665772035717964,-0.013313612900674343,0.04095025733113289,-0.018294546753168106,0.011792139150202274,-0.0006343384739011526,0.06502864509820938,0.04234292358160019,0.0003637538757175207,-0.05827541649341583,-0.0073267086409032345,0.032168079167604446,0.0067591071128845215,-0.04686493054032326,-0.03407761827111244,0.01587980054318905,-0.03912889584898949,0.015591957606375217,-0.018227234482765198,0.0504172258079052,0.027130577713251114,-0.01032881997525692,0.021385617554187775,-0.027129635214805603,-0.02786874584853649,0.004821353126317263,0.025606945157051086,-0.022446809336543083,-0.016289105638861656,0.014760083518922329,0.034560468047857285,-0.030935142189264297,0.0063084084540605545,-0.026191554963588715,0.031294070184230804,0.017749624326825142,0.015231244266033173,0.03875420615077019,0.040822140872478485,-0.014867938123643398,0.012672481127083302,-0.02708132378757,-0.008164373226463795,0.06573683768510818,0.02859899029135704,-0.048736635595560074,0.0003027900820598006,-0.0024685044772922993,0.015008734539151192,-0.0127082085236907,0.02871331386268139,-0.014554830268025398,-0.04564354568719864,0.004008737858384848,-0.020933188498020172,-0.013905159197747707,0.036294639110565186,0.0048782979138195515,-0.030592937022447586,0.016370760276913643,0.015098309144377708,0.011268828995525837,0.03572404384613037,-0.010914851911365986,0.023914672434329987,0.035924412310123444,-0.023951927199959755,0.021290354430675507,-0.04744530841708183,-0.06088126078248024,-0.003081865143030882,0.02385604754090309,-0.037712059915065765,-0.00039419211680069566,0.00760146277025342,-0.0066412813030183315,0.04528820142149925,-0.026476411148905754,0.004687189590185881,0.010623992420732975,-0.01596570573747158,-0.04766056314110756,-0.008921506814658642,0.01639155112206936,-0.004513067193329334,0.03579432889819145,-0.006725484039634466,0.025301961228251457,0.024433879181742668,0.008026954717934132,-0.0093818549066782,0.010640003718435764,-0.0351560041308403,0.01501776184886694,-0.031221916899085045,0.024682866409420967,0.02583933062851429,-0.003972883801907301,-0.029404621571302414,0.02770857885479927,0.0363457091152668,-0.0031873846892267466,-0.03380074352025986,0.04989971965551376,-0.008672685362398624,0.01806645467877388,-0.025822656229138374,-0.027730194851756096,-0.016612239181995392,-0.004567925818264484,-0.010658374056220055,0.020163504406809807,-0.047511789947748184,-0.0015902455197647214,0.03321615234017372,0.04501671344041824,0.028841637074947357,0.013821590691804886,0.047656890004873276,0.04766710847616196,0.049042779952287674,-0.04541226476430893,-0.008806205354630947,0.005561343859881163,-0.047767218202352524,0.01803792268037796,-0.04141570255160332,0.018365485593676567,0.010737751610577106,-0.02864701673388481,0.009720594622194767,0.004113364033401012,0.0010685655288398266,0.03398760035634041,0.007872682064771652,0.010492169298231602,-0.006896374747157097,0.02586139552295208,-0.029932059347629547,-0.006079172715544701,-0.00852558296173811,-0.010615351609885693,-0.037060391157865524,-0.012120557948946953,-0.02803918533027172,-0.010829239152371883,-0.034125350415706635,-0.0056274766102433205,-0.036099594086408615,0.015823783352971077,-0.03973465412855148,-0.03921402245759964,-0.02013661153614521,-0.017025509849190712,0.030885688960552216,0.014092993922531605,-0.0023773557040840387,0.01670108549296856,-0.028987059369683266,-0.009927745908498764,-0.003298599971458316,-0.013331680558621883,-0.031088508665561676,0.017848368734121323,0.019454870373010635,-0.00907499622553587,0.01087852381169796,0.02154935523867607,-0.035592060536146164,-0.015173123218119144,-0.034369319677352905,0.02147000841796398,-0.04176371172070503,0.05622232332825661,-0.004638958722352982,-0.01930902525782585,-0.005648601800203323,-0.0021251419093459845,0.058838825672864914,-0.034796927124261856,-0.017577771097421646,0.031436823308467865,0.011758025735616684,0.0301353819668293,0.0071161529049277306,0.01789749599993229,0.012334863655269146,0.014944944530725479,0.06583080440759659,-0.0341634564101696,0.008547535166144371,-0.04304693639278412,-0.02792876400053501,0.031542181968688965,0.04532557725906372,-0.05607149004936218,-0.007474064826965332,-0.04327985271811485,0.002830202691257,-0.030902521684765816,0.001382109010592103,0.024460751563310623,-0.03043172135949135,0.010041863657534122,0.024615377187728882,-0.021748146042227745,-0.028532756492495537,-0.013751349411904812,-0.010401427745819092,0.02045368403196335,-0.030807597562670708,0.0007642353302799165,0.034797683358192444,0.024541564285755157,0.06990286707878113,0.04892532899975777,-0.01893712393939495,-0.0051216911524534225,-0.03861324489116669,0.04007507488131523,0.00923555251210928,0.020906619727611542,-0.02968594804406166,0.06351550668478012,-0.01077740453183651,0.008358756080269814,0.022825133055448532,-0.028271419927477837,-0.014049738645553589,0.007210992276668549,0.0018225031672045588,-0.004840359557420015,-0.03912349417805672,0.038475703448057175,0.03542191907763481,0.024784628301858902,-0.03829239308834076,0.026921581476926804,0.04394236207008362,0.02219969406723976,-0.005762587301433086,0.007190642412751913,-0.014263875782489777,0.007089986000210047,-0.005522364750504494,-0.028755979612469673,-0.010342885740101337,-0.010196560062468052,0.009927953593432903,0.026375994086265564,-0.004256980959326029,0.023184776306152344,0.019268564879894257,0.03468368574976921,-0.019014887511730194,0.012090163305401802,-0.027962639927864075,-0.00206358777359128,0.025614596903324127,-0.022334367036819458,0.020245902240276337,-0.022371137514710426,-0.03647302836179733,0.0009918927680701017,0.01094507984817028,-0.005916790571063757,-0.011694168671965599,0.03085847571492195,-0.0005859269294887781,-0.025759253650903702,0.05464715138077736,-0.01759844459593296,-0.02741963416337967,0.00799507275223732,0.00787939690053463,-0.02208230271935463,0.0135711170732975,-0.02278943359851837,-0.01363129261881113,-0.022144297137856483,-0.02037077397108078,0.03542151302099228,0.04537907987833023,0.00630338815972209,-0.040233269333839417,-0.050813738256692886,-0.0026560339611023664,-0.04222969338297844,-0.015013228170573711,-0.04886336997151375,0.026409640908241272,-0.017124099656939507,0.03379058837890625,0.031090348958969116,0.0007628281600773335,0.00557448947802186,0.05736123025417328,0.024490412324666977,0.00588960200548172,-0.04908490926027298,0.00342730269767344,0.050656095147132874,0.004377777222543955,-0.011582445353269577,0.01504999678581953,0.007877183146774769,0.010134975425899029,-0.025431811809539795,-0.04111487790942192,0.04759986326098442,0.026164986193180084,-0.03322563320398331,-0.01054562721401453,-0.03317740932106972,0.0005737091996707022,0.042754314839839935,0.02113567851483822,-0.017299581319093704,-0.012554661370813847,-0.02153618261218071,-0.049732353538274765,0.029375499114394188,-0.02110084518790245,-0.018220646306872368,0.041441410779953,-0.014502651989459991,-0.01478855311870575,0.037821125239133835,0.03719966858625412,0.01311433780938387,-0.024058843031525612,0.032464608550071716,0.0007016723975539207,-0.005303526297211647,0.01752120815217495,-0.021398231387138367,-0.002633023774251342,0.017893772572278976,-0.030596373602747917,-0.01598229445517063,-0.020884204655885696,0.022988207638263702,0.047150932252407074,0.0019735649693757296,0.03135792165994644,-0.01116455253213644,0.027715390548110008,0.005989354103803635,-0.028109056875109673,0.05390947312116623,-0.022703178226947784,0.023197541013360023,-0.04907955601811409,0.031454820185899734,-0.000750428531318903,-0.020181141793727875,-0.00849227700382471,0.02101893723011017,0.0103067085146904,0.005590119864791632,-0.011431166902184486,-0.01712607778608799,-0.027920015156269073,3.7980833440087736e-05,-0.021239005029201508,-0.010291749611496925,-0.03540648892521858,0.04196678102016449,-0.005033567082136869,-0.042737409472465515,-0.006297124084085226,0.0013709601480513811,0.02515001781284809,-0.025405609980225563,0.03105831891298294,-0.057207465171813965,0.0024003833532333374,-0.029681282117962837,-0.055829279124736786,0.02036096155643463,0.01612093485891819,-0.0062314230017364025,-0.015581425279378891,0.019531374797225,0.009404230862855911,0.02551363781094551,-0.002420510398223996,-0.017509551718831062,-0.0023456737399101257,0.023852016776800156,-0.05188703164458275,-0.033804018050432205,-0.02960182912647724,-0.007725218776613474,0.005488276947289705,-0.014680135995149612,-0.0010079746134579182,0.023497525602579117,-0.0361083559691906,0.03611588105559349,0.04853591322898865,-0.022546103224158287,-0.005128154065459967,0.011953636072576046,0.015526671893894672,0.04305140674114227,-0.015427999198436737,-0.040764082223176956,0.016752121970057487,0.025918325409293175,-0.011156244203448296,0.02655506320297718,0.03714851662516594,0.017735160887241364,-0.0031661512330174446,-0.013614592142403126,0.02510043978691101,-0.02357376366853714,0.021533139050006866,0.0032168482430279255,-0.011176284402608871,0.050827208906412125,0.05411887913942337,0.02141018770635128,0.051188237965106964,0.0023662918247282505,-0.03498229756951332,-0.008900783024728298,0.015485988929867744,0.02927868440747261,0.007577240467071533,0.02434607222676277,0.030192334204912186,-0.031820591539144516,0.00785242859274149,-0.02073674276471138,0.019058149307966232,0.008251259103417397,-0.01710754819214344,0.02385423146188259,0.0026127679739147425,0.011151278391480446,0.023509236052632332,0.014586987905204296,0.003773529315367341,0.047426920384168625,-0.04575204849243164,-0.026050930842757225,0.00416570296511054,0.026080157607793808,-0.031226104125380516,0.003405538620427251,0.009796736761927605,0.0078035141341388226,-0.029995564371347427,-0.02523762360215187,0.020056668668985367,0.008827608078718185,-0.007130196783691645,-4.105755942873657e-05,-0.006363579072058201,0.013805953785777092,-0.009372444823384285,0.03854815289378166,0.06421412527561188,0.0466456413269043,-0.025426402688026428,0.04526867717504501,0.012355806306004524,-0.0010740305297076702,0.018371134996414185,-0.044380221515893936,-0.023380832746624947,-0.00041420554043725133,-0.006725619081407785,-0.01802915334701538,-0.013992696069180965,-0.006285832729190588,-0.0018738792277872562,0.04755330830812454,-0.000759894261136651,0.014123830944299698,-0.0629943236708641,-0.026964567601680756,-0.022021973505616188,0.007721793372184038,-0.02261771634221077,0.03180030733346939,0.010977741330862045,-0.03471528738737106,-0.016126303002238274,-0.0020714292768388987,0.009881442412734032,-0.034658417105674744,-0.01752622053027153,0.013312197290360928,-0.019425872713327408,0.030727481469511986,0.03685234859585762,0.0036462636198848486,-0.0010416863951832056,-0.01521517988294363,-0.03107757866382599,0.040944505482912064,0.010453779250383377,0.03261973336338997,0.04289424046874046,0.041465770453214645,0.021005382761359215,0.029999107122421265,0.022911326959729195,-0.0009029284119606018,-0.029922207817435265,0.0304513368755579,0.026147551834583282,-0.027766358107328415,0.02674035169184208,0.042338497936725616,0.011915093287825584,0.038446299731731415,-0.010244515724480152,-0.03325745835900307,-0.008029518648982048,-0.04757924750447273,0.06616505235433578,-0.01048100646585226,-0.023004185408353806,0.0479770191013813,0.027291858568787575,0.025213094428181648,0.03588064759969711,0.020329955965280533,-0.002310290699824691,0.018168427050113678,-0.008642646484076977,-0.0007350752712227404,-0.03586139529943466,0.007849950343370438,0.03150284290313721,-0.0012014657258987427,-0.005273295100778341,-0.039010874927043915,-0.04921950027346611,-0.006471459753811359,-3.133356221951544e-05,-0.046659160405397415,-0.0012943244073539972,0.04809872806072235,-0.00892672035843134,0.0009255853947252035,-0.02369900606572628,-0.02612518146634102,0.01029440388083458,-0.041593246161937714,0.05140143632888794,-0.03787948191165924,-0.013806826435029507,-0.032176777720451355,0.029203880578279495,-0.025303328409790993,0.0308566652238369,0.04059848561882973,0.019077302888035774,0.02974042110145092,0.006136204581707716,0.011350303888320923,-0.025983508676290512,0.03754312917590141,0.037347592413425446,-0.015400847420096397,0.04600684717297554,0.017448458820581436,-0.06276069581508636,-0.004720296245068312,0.009540501981973648,-0.031206637620925903,0.0562237948179245,0.03844194859266281,0.014618181623518467,-0.06329107284545898,0.06035236269235611,0.0464174747467041,-0.03236648812890053,-0.002675801981240511,-0.018194997683167458,-0.03848763182759285,-0.014623632654547691,-0.008047700859606266,0.050686128437519073,-0.01578138954937458,-0.04293627291917801,-0.03908450901508331,0.005582824349403381,0.0040975711308419704,-0.006608173251152039,-0.03900866210460663,-0.05611158162355423,-0.029260028153657913,-0.04949696362018585,-0.028252165764570236,0.03637060523033142,0.03548942506313324,-0.012618821114301682,-0.004992901813238859,-0.007145076058804989,-0.01626717671751976,-0.011740402318537235,-0.1432143598794937,0.1433134377002716,-0.01748727634549141,0.06309345364570618,-0.021229395642876625,0.03395341709256172,0.021437309682369232,-0.02903464064002037,0.011930592358112335,-0.029608452692627907,0.04693719372153282,-0.07566630840301514,0.05829664692282677,0.04098659008741379,0.0996176078915596,0.05039074644446373,0.03583531826734543,0.06303498148918152,-0.03696272522211075,-0.005624501034617424,-0.019830550998449326,-0.07843180745840073,0.0467391163110733,0.018660517409443855,-0.030334273353219032,-0.012531605549156666,0.024437617510557175,-0.048502516001462936,-0.12472514808177948,-0.042725589126348495,-0.029933257028460503,0.0743795782327652,0.0015733871841803193,0.020709166303277016,-0.042857326567173004,-0.008580837398767471,0.0199382733553648,0.08260176330804825,-0.012063011527061462,-0.007389676757156849,-0.003559943288564682,-0.08683448284864426,-0.054129909723997116,-0.05142210051417351,-0.014796536415815353,0.012543272227048874,-0.041669391095638275,-0.13022872805595398,0.12306421995162964,0.07498253881931305,0.018921392038464546,-0.05085553228855133,-0.0683046281337738,0.01738712005317211,-0.053529366850852966,0.011534606106579304,0.0136011503636837,0.010885640978813171,-0.008356278762221336,0.005954483523964882,-0.05579037591814995,-0.08988330513238907,0.09958602488040924,-0.06652864813804626,0.017588667571544647,-0.01564188115298748,0.004450289532542229,-0.0957951471209526,0.00880312267690897,-0.020910577848553658,-0.030333995819091797,0.06591734290122986,-0.04296132177114487,0.05343429371714592,-0.02899206429719925,-0.09521874040365219,-0.10031340271234512,0.014555591158568859,0.006324997171759605,-0.05971560627222061,-0.031125949695706367,0.12451143562793732,0.0009390637278556824,0.05273779481649399,0.00811710860580206,0.012505721300840378,0.013842516578733921,-0.08054018020629883,0.03517406806349754,-0.0021841521374881268,0.03958718851208687,0.001125913579016924,-0.03004915826022625,-0.0058021629229187965,-0.10008622705936432,-0.14023254811763763,0.01930372044444084,-0.027906011790037155,-0.029106250032782555,-0.013789575546979904,-0.020275447517633438,-0.023742936551570892,0.03879012539982796,0.06212034448981285,-0.028768857941031456,-0.19405116140842438,-0.07834047079086304,-0.01255286205559969,-0.017296168953180313,-0.04004161059856415,0.0736832544207573,0.010286693461239338,-0.060996051877737045,-0.007677561137825251,-0.003327575046569109,0.029969817027449608,-0.018501412123441696,-0.0572713166475296,0.005336994770914316,0.05367809534072876,-0.06774798780679703,-0.08979589492082596,0.01955202966928482,0.06028272211551666,-0.10333796590566635,-0.05318432301282883,-0.08540657162666321,-0.05761268362402916,0.0268288254737854,0.005154973361641169,0.03167376294732094,0.02582070417702198,-0.03728963062167168,0.02634008228778839,0.08726129680871964,0.010011943988502026,0.04569520428776741,-0.05387449264526367,0.0713990181684494,-0.012194152921438217,0.027717020362615585,-0.0030258798506110907,0.030078234151005745,0.14246675372123718,-0.047895245254039764,-0.056404829025268555,0.05804526433348656,-0.034379992634058,-0.0346037819981575,0.08342957496643066,-0.0057848128490149975,-0.029005084186792374,0.1060250774025917,-0.026438934728503227,0.06499525159597397,-0.06157555431127548,0.05074740946292877,0.012211955152451992,-0.04218462109565735,-0.11641298979520798,-0.04745396971702576,0.024678438901901245,0.05198368430137634,0.022102762013673782,-0.0524526946246624,0.023632710799574852,-0.04622671380639076,-0.010964399203658104,-0.01741417497396469,-0.015593169257044792,-0.038407858461141586,0.03869181498885155,0.09181266278028488,0.015011610463261604,-0.05488819256424904,0.011486339382827282,0.044878073036670685,-0.0023694783449172974,0.02001616358757019,0.006148061249405146,-0.01463487558066845,-0.08307885378599167,-0.01728460192680359,-0.03878767415881157,-0.14206020534038544,-0.099652960896492,0.04984400421380997,0.005792832467705011,0.006249191239476204,-0.04866570606827736,-0.09891336411237717,-0.024398503825068474,0.03762619569897652,0.0597790963947773,0.016048511490225792,-0.033164069056510925,0.037747662514448166,0.03699932619929314,0.05084984377026558,0.02961740270256996,0.039750758558511734,0.08730615675449371,-0.0047424607910215855,-0.02597440592944622,-0.059927839785814285,-0.15073171257972717,-0.011769113130867481,-0.12287655472755432,0.0043928613886237144,-0.031145520508289337,-0.023028265684843063,-0.008030974306166172,-0.008050457574427128,-0.12349903583526611,0.02136092819273472,0.10315510630607605,0.02901550382375717,-0.010555176995694637,-0.06462278217077255,0.07724502682685852,-0.03385806828737259,-0.0721326693892479,-0.022872479632496834,-0.11931739002466202,-0.03130415454506874,0.0947767123579979,-0.12669998407363892,0.06614401191473007,-0.11824571341276169,0.016557088121771812,0.05495611950755119,-0.017429307103157043,0.0037215484771877527,-0.09466739743947983,0.022690879181027412,0.030281368643045425,-0.11813607811927795,-0.008940727449953556,-0.20684018731117249,-0.05115988105535507,-0.14768290519714355,-0.006238891277462244,-0.05615965649485588,0.07115665078163147,0.023955075070261955,0.009499537758529186,-0.03799287602305412,-0.02010382153093815,-0.0706198513507843,0.06047471985220909,0.003953763749450445,0.0040545035153627396,0.018037697300314903,0.0382993184030056,0.004004005808383226,-0.03194769099354744,-0.01662127487361431,-0.022081485018134117,0.029747605323791504,-0.10990720987319946,-0.05203317105770111,-0.027945352718234062,-0.019888510927557945,-0.022205231711268425,0.062182795256376266,-0.05253146216273308,-0.04018658399581909,-0.007357478607445955,0.004866429604589939,-0.04999827593564987,0.05011408030986786,0.04718831554055214,-0.08048588782548904,-0.006573406979441643,-0.02550196275115013,0.04167896509170532,0.024717053398489952,-0.010234827175736427,-0.025406451895833015,-0.008200417272746563,0.08578263968229294,0.0337136834859848,0.02737620659172535,-0.02922452799975872,0.0108516039326787,0.023620909079909325,0.017891477793455124,0.030995678156614304,-0.009755859151482582,-0.06482703983783722,0.010880387388169765,0.028379902243614197,-0.1045331209897995,-0.08383595198392868,-0.03425288945436478,-0.055481914430856705,0.028933385387063026,-0.022078046575188637,-0.03491615504026413,-0.006988693960011005,0.011285331100225449,-0.07127254456281662,-0.039557456970214844,0.047920066863298416,-0.004713724832981825,-0.0017786792013794184,-0.02297240123152733,0.015601224265992641,-0.021721314638853073,-0.05782647430896759,0.0030105658806860447,0.08724528551101685,0.007827059365808964,-0.04023976996541023,-0.012286798097193241,-0.01493017841130495,-0.02256288193166256,-0.0008161350851878524,0.004715080838650465,0.004421195015311241,0.002793246181681752,0.00022212910698726773,0.07462593168020248,0.01707550324499607,-0.005219185724854469,-0.03977540135383606,-0.0030097044073045254,-0.008449624292552471,-0.007294203620404005,-0.0005146220792084932,-0.045839108526706696,0.026681706309318542,-0.05237895995378494,-0.026137560606002808,-0.04605667293071747,-0.025867965072393417,-0.14158770442008972,-0.04226861149072647,-0.05144169554114342,0.007085049524903297,0.005707365460693836,0.01283685676753521,0.03021744266152382,-0.030397288501262665,0.027193916961550713,-0.028265925124287605,0.015086708590388298,0.013719195500016212,-0.003851596498861909,-0.03634902462363243,0.04473021253943443,-0.10278341919183731,-0.00798564963042736,-0.028634071350097656,-0.057847198098897934,0.02475908398628235,0.0692625343799591,-0.031191129237413406,-0.04988211765885353,0.0045931353233754635,-0.00442984513938427,0.0879281759262085,-0.08697838336229324,-0.023748598992824554,-0.06404925137758255,-0.03718551620841026,-0.004605382680892944,0.019290253520011902,0.03355446085333824,0.0013159196823835373,-0.006863213609904051,-0.05706536024808884,-0.08215981721878052,0.03585513308644295,0.008162243291735649,0.039725080132484436,0.004456668626517057,-0.006004175171256065,0.022962823510169983,0.018503613770008087,-0.0760367214679718,-0.036062054336071014,0.07108607888221741,0.02868073061108589,-0.039266038686037064,-0.032159462571144104,0.003025421407073736,0.004212706815451384,0.0032408367842435837,-0.05130383372306824,-0.012844162061810493,0.004402027931064367,-0.03170132637023926,-0.01968333125114441,0.03798852115869522,-0.012759675271809101,-0.12987200915813446,0.0010843356139957905,0.061053868383169174,-0.02776482328772545,-0.044778965413570404,0.1411631554365158,-0.06499875336885452,-0.03228302672505379,0.04469498619437218,-0.054098427295684814,-0.000417224015109241,-0.06367726624011993,0.042032770812511444,-0.06382610648870468,-0.04824995622038841,0.11688405275344849,0.07983623445034027,-0.0960698202252388,-0.07039236277341843,0.0003645226242952049,-0.03356178477406502,0.051308341324329376,0.0725235641002655,-0.028209848329424858,-0.05556093901395798,-0.046920448541641235,0.03448248654603958,0.019582316279411316,-0.047144632786512375,-0.11148298531770706,-0.025157837197184563,0.049593735486269,0.018682224676012993,0.08009354770183563,0.00898741651326418,-0.013715206645429134,-0.009474499151110649,0.016508737578988075,-0.03131323307752609,-0.03627070412039757,-0.010334042832255363,-0.00210457481443882,0.06090771406888962,-0.025867605581879616,0.004710951820015907,-0.019550438970327377,0.02064417488873005,-0.010618630796670914,0.026184994727373123,-0.02100870944559574,-0.054815445095300674,0.035466067492961884,0.0099769476801157,-0.031903740018606186,0.022681936621665955,-0.11658558249473572,0.07056756317615509,-0.03801465779542923,-0.010881243273615837,-0.05223004147410393,-0.013604496605694294,0.03616130352020264,-0.021908987313508987,-0.011934074573218822,0.03169814497232437,-0.054621268063783646,0.05333255976438522,0.023989101871848106,-0.09696564078330994,0.03400082141160965,0.024164624512195587,0.009805024601519108,0.06579361855983734,-0.06055089086294174,-0.06620829552412033,-0.009871544316411018,0.04249861091375351,-0.004796463530510664,0.04958367720246315,-0.0724760964512825,0.08141335099935532,-0.06628236919641495,-0.012320060282945633,0.11851774901151657,-0.027216579765081406,-0.03491207957267761,-0.07067425549030304,0.015702849254012108,-0.0367124117910862,-0.026666874065995216,-0.026453455910086632,-0.06324146687984467,0.0955922082066536,0.1581220030784607,0.03287050500512123,-0.08793284744024277,0.010358519852161407,0.004465916659682989,0.026132047176361084,-0.049749311059713364,0.026771554723381996,0.12668849527835846,-0.054190732538700104,-0.02580207586288452,-0.032971061766147614,-0.032183144241571426,-0.062418241053819656,-0.03845800459384918,-0.04551031067967415,-0.05215580016374588,0.0009961968753486872,0.08649447560310364,0.02233406901359558,-0.014342183247208595,-0.04736347496509552,-0.09539484977722168,-0.05493364483118057,0.04648549482226372,0.009807683527469635,-0.14637136459350586,0.0213431678712368,-0.032905180007219315,-0.05537924915552139,-0.03675327077507973,0.1259038895368576,-0.035622693598270416,0.00612219562754035,0.02332358807325363,-0.032164137810468674,0.004789370112121105,-0.03305460140109062,-0.0371486060321331,0.015997808426618576,-0.004172821994870901,0.020697729662060738,0.03411586955189705,-0.02345907688140869,-0.03900603950023651,-0.08146394789218903,0.0146844033151865,-0.02125365100800991,0.03399628773331642,-0.023726725950837135,0.0021111820824444294,-0.0375458188354969,0.00497474567964673,0.007831194438040257,-0.06742820143699646,0.017392996698617935,-0.07836466282606125,0.00110661203507334,0.02349015325307846,0.004939689766615629,-0.048065584152936935,0.09703700244426727,0.11414378136396408,-0.03309272229671478,0.010470385663211346,0.006671092007309198,0.02893706038594246,-0.0014103497378528118,-0.066725954413414,0.008264499716460705,0.13090865314006805,-0.1318691074848175,-0.07034070789813995,0.020810933783650398,0.09638836979866028,0.05890796333551407,0.01599998213350773,-0.034798525273799896,0.010782808065414429,-0.0071259429678320885,0.06197743862867355,0.018664753064513206,-0.022896762937307358,0.030426710844039917,0.054986439645290375,-0.024954769760370255,0.04672493785619736,0.05156897380948067,-0.034646060317754745,0.07386581599712372,0.02875249646604061,-0.060801029205322266,0.13544507324695587,-0.03953263536095619,-0.07245121896266937,0.04829574003815651,-0.010248943231999874,0.0939798653125763,-0.00566065264865756,-0.05117897316813469,0.06924878805875778,-0.05129961296916008,0.006019453518092632,-0.005197013728320599,-0.046774350106716156,-0.1112399771809578,0.06817846745252609,0.019358517602086067,0.08778180181980133,0.024913473054766655,-0.014228405430912971,-0.023168103769421577,0.02371158078312874,-0.04270002245903015,-0.06478847563266754,0.04947739094495773,0.021246882155537605,0.03712868690490723,-0.059688035398721695,0.07858920097351074,-0.010658284649252892,-0.005120583809912205,-0.03126171976327896,-0.14331698417663574,0.004904213361442089,-0.06846029311418533,0.005565086845308542,-0.15499022603034973,0.05591029301285744,-0.07585679739713669,-0.040076274424791336,-0.03838216885924339,-0.005363703705370426,-0.008605755865573883,0.0436672642827034,0.0476701557636261,-0.013867123983800411,-0.04975077509880066,-0.0198109932243824,-0.1220993846654892,-0.025825317949056625,0.0012534259585663676,0.010042741894721985,0.03756286948919296,0.05747002363204956,0.04878607019782066,0.024939633905887604,-0.005976699758321047,-0.005375758279114962,-0.0410422645509243,0.024682542309165,0.04894281551241875,-0.03505812585353851,0.08099205046892166,0.011970194056630135,0.0020879663061350584,0.027678219601511955,0.022955482825636864,-0.054213397204875946,0.02877471223473549,0.02332405000925064,-0.019026318565011024,0.028351806104183197,0.0055250003933906555,-0.014490562491118908,0.06553585082292557,-0.06103137135505676,-0.04490438103675842,-0.03451630845665932,0.06328962743282318,0.03308016061782837,-0.03380664065480232,0.02026597037911415,-0.021000133827328682,-0.020096365362405777,0.05334204062819481,0.12323404848575592,-0.04958987981081009,-0.018735777586698532,-0.07801613211631775,0.0017181256553158164,0.009447893127799034,0.035961516201496124,-0.013035611249506474,-0.02416585013270378,0.008991609327495098,0.051659271121025085,-0.0269133560359478,0.00562635250389576,0.025291506201028824,-0.06316007673740387,-0.05704322084784508,-0.018267398700118065,0.0026518269442021847,-0.012376363389194012,-0.04808131977915764,0.009000107645988464,-0.016607491299510002,-0.06411883980035782,-0.060533054172992706,-0.005470899399369955,-0.02516324259340763,0.005012376233935356,-0.1150122806429863,0.004059004597365856,0.06846528500318527,-0.011933538131415844,0.05233185738325119,0.005269440356642008,-0.01679423078894615,0.015621595084667206,0.003772010328248143,0.05249150097370148,0.022963102906942368,0.021568069234490395,0.014702343381941319,-0.017175495624542236,-0.0326983705163002,0.01433380413800478,0.05297824367880821,-0.06243334710597992,-0.05950907990336418,0.012907751835882664,-0.0018255760660395026,0.01807929389178753,-0.004108123481273651,0.011355742812156677,0.06090347096323967,-0.03383134678006172,0.037466470152139664,0.008194779977202415,0.03318355977535248,-0.045889146625995636,-0.06396890431642532,-0.0360153391957283,-0.008884664624929428,-0.032490577548742294,0.017644966021180153,-0.06923519819974899,0.020124049857258797,0.035158850252628326,0.05342832952737808,0.024481335654854774,-0.0450473316013813,0.010086187161505222,-0.03938957303762436,-0.035844553261995316,-0.02837945707142353,-0.02462763339281082,-0.02925867587327957,-0.057283397763967514,0.034051425755023956,0.0974736362695694,0.005104185547679663,-0.0011423322139307857,0.03173734247684479,0.028487734496593475,-0.008084465749561787,-0.08583728969097137,0.01381892804056406,0.008142138831317425,-0.06902842223644257,-0.03394255042076111,-0.023132434114813805,0.00711452541872859,-0.017631346359848976,-0.022601770237088203,-0.04559110477566719,-0.03889036178588867,-0.03144344687461853,-0.08800467103719711,0.016157593578100204,0.012792115099728107,0.026015719398856163,0.0183775182813406,0.04334652051329613,0.0037531289272010326,0.062431447207927704,0.0435449443757534,-0.040433358401060104,0.06223941221833229,0.0045143174938857555,0.002285981085151434,0.039640069007873535,-0.029940638691186905,0.029412396252155304,-0.0030660387128591537,0.02648155204951763,0.013259927742183208,0.0011758471373468637,0.008098320104181767,-0.018324801698327065,0.036682821810245514,-0.0013625299325212836,-0.01649940386414528,0.012816395610570908,-0.06706088781356812,0.06627798825502396,-0.018466077744960785,-0.021292056888341904,0.050063565373420715,-0.05204368010163307,0.014803711324930191,-0.018262043595314026,-0.10309001803398132,-0.004315500147640705,-0.0016552595188841224,0.015717187896370888,0.04592427611351013,0.027318043634295464,-0.0010035551385954022,-0.029775381088256836,-0.06400592625141144,0.026676509529352188,-0.03992742300033569,0.018738647922873497,0.0008674910059198737,-0.004441249184310436,0.05262191593647003,0.01997319422662258,-0.015338483266532421,-0.02534634619951248,0.03476061671972275,0.09385641664266586,0.01533468160778284,0.012152808718383312,0.00977543368935585,-0.013485008850693703,0.00443210219964385,-0.02574591524899006,0.057837169617414474,0.09737782925367355,-0.04430871456861496,0.02127945050597191,0.0029966882430016994,-0.036987192928791046,0.12189827859401703,-0.003020207630470395,-0.06745870411396027,-0.03198391571640968,-0.00039008271414786577,-0.0004349229857325554,-0.06463027000427246,0.058572329580783844,0.0059378622099757195,-0.03871116787195206,0.021031711250543594,0.017695238813757896,-0.0490695983171463,0.009822364896535873,0.01461835391819477,-0.022407181560993195,0.09092056751251221,0.004700108431279659,0.029718486592173576,-0.07448313385248184,-0.05650000274181366,-0.07171279191970825,-0.0016562771052122116,-0.01658579334616661,-0.01764071173965931,0.04400976747274399,-0.016943112015724182,-0.07179035991430283,-0.011162159964442253,0.04401784390211105,0.055275123566389084,-0.002329956740140915,-0.04839881509542465,-0.023348908871412277,0.038344062864780426,-0.007524573244154453,0.06592323631048203,-0.08151333034038544,-0.08927938342094421,-0.047921255230903625,0.01860312558710575,-0.016202552244067192,-0.053365543484687805,0.029518311843276024,0.047978803515434265,-0.039741236716508865,-0.049809735268354416,-0.10576451569795609,0.00010510749416425824,-0.023884644731879234,-0.004672519396990538,-0.056409455835819244,-0.010397344827651978,0.06783018261194229,-0.021864168345928192,-0.11907826364040375,-0.022574303671717644,-0.002454628935083747,-0.007569579407572746,-0.03249786049127579,-0.009217122569680214,0.032840874046087265,0.08238687366247177,-0.04107975587248802,-0.026123063638806343,0.041312284767627716,0.023888878524303436,-0.04730233922600746,0.0518014170229435,0.025706546381115913,0.015548893250524998,-0.0032873917371034622,-0.006409015506505966,0.008242996409535408,0.0764651894569397,-0.02245931327342987,0.12231992930173874,-0.03748982027173042,-0.0011229484807699919,-0.010150937363505363,-0.0007344477926380932,-0.023683344945311546,-0.042793482542037964,-0.06826314330101013,-0.030246874317526817,-0.025906220078468323,0.0067021590657532215,-0.01896398887038231,-0.02455839328467846,-0.012469434179365635,0.07499288767576218,-0.022472158074378967,-0.030098259449005127,-0.03960295021533966,0.025083143264055252,-0.020852545276284218,-0.030498847365379333,-0.0055038901045918465,-0.058767497539520264,-0.01601124182343483,-0.02968502603471279,0.05734003707766533,0.014126233756542206,0.02651410549879074,-0.01146087609231472,0.011392902582883835,-0.023499222472310066,-0.006102077197283506,-0.047210920602083206,0.025244513526558876,0.17248106002807617,0.052799392491579056,0.022222742438316345,-0.038482096046209335,0.02409101463854313,0.02591695450246334,0.017352141439914703,0.03245921432971954,-0.018879465758800507,0.036529429256916046,-0.013191219419240952,0.026478243991732597,-0.018426446244120598,-0.016198068857192993,-0.020644841715693474,-0.04318341240286827,0.03147536888718605,-0.0023337702732533216,0.03897428885102272,0.03605404123663902,0.06818391382694244,-0.03031511977314949,0.011029761284589767,-0.003799828700721264,-0.012964139692485332,0.00052930525271222,-0.02722286246716976,-0.03955267369747162,0.012858237139880657,-0.00502642709761858,-0.06423333287239075,0.009518519975244999,-0.06773655861616135,0.041814934462308884,-0.07450062781572342,0.025256004184484482,0.010557757690548897,0.05739789828658104,-0.053064215928316116,-0.039725411683321,0.06764122098684311,0.014673340134322643,0.08690626919269562,-0.038352012634277344,0.008289758116006851,0.039152707904577255,0.010332398116588593,-0.02340264432132244,-0.020968662574887276,0.02533610723912716,-0.051975883543491364,0.01596970297396183,0.032859038561582565,-0.07496589422225952,0.010014457628130913,0.0290998462587595,0.008756601251661777,0.03251456841826439,-0.01931009814143181,-0.034898605197668076,0.0016768666682764888,-0.023536793887615204,-0.05269482731819153,-0.01796887069940567,0.021022159606218338,0.0019285399466753006,-0.06812643259763718,-0.11851737648248672,0.06769269704818726,-0.02677280083298683,0.00036511491634882987,0.004553820006549358,0.017715971916913986,-0.00014493317576125264,-0.018405674025416374,0.029836470261216164,0.0001770640374161303,-0.048122186213731766,0.024133145809173584,0.03209429234266281,-0.02469978667795658,-0.00836927443742752,0.03866429626941681,0.03677604719996452,0.015326622873544693,0.0017814352177083492,-0.054066210985183716,0.09743260592222214,-0.050683654844760895,0.012405994348227978,-0.07620217651128769,0.0024459250271320343,0.004698674660176039,-0.01358786690980196,-0.04469747468829155,-0.011165467090904713,0.03203428164124489,0.019123759120702744,0.012841977179050446,-0.03402714431285858,-0.03800884634256363,-0.03577395901083946,0.03630538657307625,-0.04451184719800949,0.06398706138134003,-0.03397168591618538,-0.041259828954935074,0.014646396040916443,0.006734688300639391,0.04523555189371109,-0.035996321588754654,-0.026992706581950188,-0.02301923744380474,-0.05742835998535156,-0.07597529888153076,-0.040140360593795776,0.0312994122505188,0.013253560289740562,-0.00019752698426600546,-0.011363828554749489,0.06258626282215118,0.0018158387392759323,0.02726012095808983,-0.028523586690425873,0.06665080785751343,-0.0618508979678154,0.010217536240816116,0.0015029379865154624,0.11558352410793304,-0.04563019424676895,-0.03329228237271309,-0.051592867821455,-0.07198714464902878,-0.024496734142303467,0.06321384757757187,0.0383683443069458,-0.030114326626062393,-0.05274070054292679,-0.04766576737165451,0.0957806408405304,-0.04237512871623039,-0.04682750999927521,0.029198473319411278,-0.07973559945821762,0.08062563836574554,-0.0009388663456775248,-0.024428168311715126,0.00024076065164990723,0.011397882364690304,-0.0647326409816742,0.00828250776976347,0.02982633002102375,0.014568536542356014,0.023309584707021713,0.027408642694354057,0.01752486079931259,0.11037234216928482,0.0652349442243576,0.006196994334459305,-0.00848954077810049,-0.05497487261891365,0.011636028066277504,0.05597173795104027,-0.01100362092256546,0.07265376299619675,-0.05097934231162071,-0.06615391373634338,-0.0470225028693676,-0.014452727511525154,-0.004404791630804539,-0.015326824970543385,-0.02125041000545025,-0.02308422327041626,0.10863864421844482,0.04118453338742256,-0.08044399321079254,0.07237756252288818,-0.011408726684749126,-0.04743476212024689,-0.012336501851677895,-0.023489469662308693,0.03928801417350769,-0.02936507947742939,-0.08548643440008163,-0.02057068981230259,0.0033375921193510294,0.025672174990177155,-0.10602043569087982,-0.002792435698211193,0.03497427701950073,0.016120312735438347,0.0013000312028452754,-0.012796780094504356,-0.03224310278892517,0.007821757346391678,0.0336834080517292,-0.09882686287164688,-0.021930327638983727,0.008285094052553177,0.017665857449173927,0.058717869222164154,0.0018077989807352424,0.025868304073810577,0.010326188988983631,0.02277740091085434,-0.003205789951607585,0.05235707014799118,-0.06864870339632034,0.036603137850761414,-0.01660274714231491,0.09373347461223602,-0.01816639117896557,0.04078121483325958,0.022251248359680176,0.011113635264337063,-0.03673834353685379,0.0017322495114058256,0.014614476822316647,0.05828096717596054,0.02131057158112526,-0.05498795583844185,0.05952524393796921,0.05204147845506668,-0.10098554193973541,-0.08127237111330032,-0.04989873990416527,-0.018972650170326233,-0.011577567085623741,-0.007969431579113007,0.013928186148405075,-0.024969246238470078,-0.021912124007940292,-0.009088756516575813,0.029001863673329353,-0.004134036134928465,-0.04010837897658348,0.029270317405462265,-0.01661616377532482,-0.045477136969566345,0.03714985400438309,0.021782882511615753,-0.04282589256763458,-0.011330867186188698,-0.027508445084095,0.0021417613606899977,-0.0013170440215617418,0.03620921075344086,0.02954176813364029,0.06282435357570648,-0.01574745401740074,0.02315344102680683,-0.03572826832532883,0.014970913529396057,-0.021808145567774773,-0.07024771720170975,0.0494142547249794,-0.0723349004983902,-0.006589144468307495,-0.04222100228071213,-0.02108827233314514,-0.04199506714940071,0.05903749167919159,0.008986125700175762,0.044108711183071136,-0.043551184237003326,0.005607136990875006,0.05365496128797531,-0.07856841385364532,0.005448055453598499,-0.025920942425727844,0.05858626589179039,0.03143792599439621,-0.0012020758586004376,-0.0032013242598623037,-0.018150130286812782,-0.04810098558664322,-0.03422388806939125,0.035080160945653915,-0.03383991867303848,0.03180134296417236,-0.0011994378874078393,-0.03515831381082535,-0.0344664566218853,0.06182486191391945,-0.013146714307367802,4.7548674046993256e-06,-0.03480908274650574,-0.0015874181408435106,0.07324790954589844,0.02565082721412182,0.011013508774340153,-0.046669259667396545,-0.06312094628810883,-0.06075244024395943,0.05700186640024185,-0.02559795044362545,-0.08477852493524551,-0.012566469609737396,-0.016225578263401985,0.0052049728110432625,0.01943347230553627,-0.09674914181232452,0.12276811897754669,-0.011527891270816326,-0.01557273231446743,0.0487576462328434,0.003043321194127202,-0.003581470577046275,-0.05715995654463768,-0.006819200702011585,-0.030864525586366653,-0.060494787991046906,0.04683290421962738,-0.03909685090184212,-0.050914838910102844,0.10472021996974945,0.0007082255906425416,0.1226898655295372,0.04056256264448166,-0.02456209994852543,0.03823567554354668,-0.054678887128829956,0.028433723375201225,-0.048497240990400314,0.02853979356586933,-0.02242465317249298,-0.06914164125919342,-0.03838683292269707,0.00577191449701786,-0.021777905523777008,0.02382112666964531,0.02308618649840355,-0.009406368248164654,0.047095753252506256,-0.04839203134179115,0.08034008741378784,-0.010987046174705029,0.015192491933703423,0.025958465412259102,-0.005193700548261404,-0.03779977187514305,-0.0056016589514911175,0.015233307145535946,-0.03713417798280716,-0.03863198682665825,-0.0019333086675032973,-0.04302956536412239,-0.0486501045525074,0.07997225970029831,-0.05018579214811325,-0.03311347961425781,0.010355265811085701,-0.04450707510113716,0.0029162506107240915,-0.0282383244484663,-0.02536638267338276,-0.016763627529144287,-0.027029171586036682,-0.03164401277899742,0.04639101400971413,0.0607149712741375,-0.03718423843383789,0.01189885288476944,-0.036803554743528366,-0.006355560850352049,-0.03520902246236801,-0.06160459667444229,0.02895539253950119,0.014101559296250343,0.018578190356492996,0.05046764388680458,-0.0036008639726787806,0.0236020740121603,0.08931323885917664,-0.00899817980825901,-0.045693013817071915,0.0023049793671816587,-0.002962758531793952,0.03248108550906181,0.12375673651695251,-0.01868458464741707,0.024057643488049507,-0.021813061088323593,-0.06984254717826843,-0.016105033457279205,-0.04186984524130821,0.007531250827014446,-0.05852585285902023,-0.023889239877462387,-0.009540450759232044,0.0016991763841360807,-0.03903011232614517,0.09686994552612305,0.007417844142764807,-0.021810416132211685,0.014750485308468342,-0.057742275297641754,-0.04360661655664444,-0.07114769518375397,0.04884840175509453,-0.0983121246099472,0.01671941578388214,0.010516518726944923,0.015276496298611164,-0.003910975530743599,-0.02662574127316475,-0.005927744321525097,0.027918579056859016,0.009251672774553299,0.012335910461843014,-0.016411224380135536,-0.018816087394952774,-0.02569231204688549,-0.014308039098978043,0.04256720468401909,0.00969115924090147,0.03625708445906639,0.01783854141831398,-0.025920702144503593,0.03902646526694298,0.03974784538149834,0.0541156567633152,0.03403649851679802,-0.034472230821847916,-0.01693648472428322,0.02717316709458828,0.01506313867866993,-0.01526629738509655,0.01901421509683132,0.0022379737347364426,0.056087151169776917,0.030747998505830765,-0.02069935016334057,-0.026907948777079582,0.07772653549909592,0.017149832099676132,-0.012705864384770393,-0.0613313652575016,-0.018457472324371338,-0.018270157277584076,-0.024822022765874863,0.016853393986821175,-0.01864212192595005,-0.03664803504943848,-0.04664954915642738,-0.027762144804000854,0.003712315345183015,-0.06435911357402802,-0.049047548323869705,-0.03665389120578766,-0.052624091506004333,-0.004102166276425123,0.03348918259143829,-0.011008339002728462,-0.080166295170784,0.05493716895580292,-0.0489693284034729,-4.332272510509938e-06,-0.07212833315134048,-0.038605593144893646,-0.02119765244424343,0.011181359179317951,-0.033306293189525604,0.024261318147182465,-0.049795325845479965,0.011819466948509216,-0.01734309270977974,0.009878372773528099,0.031280599534511566,0.06631598621606827,-0.03295587748289108,-0.007918227463960648,-0.022996708750724792,0.008096941746771336,0.0429624505341053,0.021044911816716194,-0.0749339684844017,-0.00851893424987793,0.006981676910072565,0.00603161146864295,0.041784435510635376,0.026612352579832077,0.0044318814761936665,-0.003926158882677555,-0.01581968367099762,-0.04149077460169792,0.025189178064465523,-0.002508490113541484,-0.04412389174103737,0.03275321051478386,-0.004896246828138828,-0.011766939423978329,0.02087181806564331,0.015892285853624344,0.06593024730682373,-0.0038048976566642523,0.03692704811692238,-0.05111373960971832,-0.026827454566955566,-0.03606806695461273,-0.013146564364433289,0.0516003780066967,-0.003987612668424845,-0.03687617927789688,0.03213905543088913,-0.025836067274212837,-0.05696829408407211,0.02760900929570198,0.03408015891909599,-0.006178147625178099,-0.02718021720647812,-0.0013935843016952276,0.01459786482155323,-0.030040103942155838,0.09399690479040146,-0.02281266078352928,-0.02200639434158802,-0.08152461051940918,0.07049154490232468,-0.021836519241333008,0.08440984040498734,-0.010502289049327374,-0.0306626558303833,0.01688332110643387,-0.03747732564806938,-0.035237908363342285,0.09491128474473953,0.02411155216395855,0.05354703217744827,0.08012029528617859,0.01939687319099903,0.00856973696500063,0.058302294462919235,-0.029096702113747597,0.01820967346429825,-0.046446092426776886,-0.0413748100399971,-0.01666020043194294,-0.07272093743085861,0.020642191171646118,0.01852422021329403,-4.967833956470713e-05,-0.056969787925481796,0.055798500776290894,-0.10653547197580338,0.005455386824905872,0.05787241458892822,-0.03740676864981651,0.013124621473252773,0.010371124371886253,-0.030112534761428833,0.05440618470311165,0.00305037759244442,-0.021014345809817314,-0.03722257539629936,-0.001504825078882277,-0.03610089793801308,-0.022826144471764565,-0.005079811438918114,-0.008879822678864002,0.054618872702121735,-0.03442245349287987,-0.06527978181838989,-0.06724624335765839,-0.038772258907556534,0.01148989237844944,0.014747879467904568,-0.03180418163537979,0.035100940614938736,-0.030425110831856728,-0.024175014346837997,-0.0217459537088871,-0.0653119832277298,0.05781112238764763,-0.0387108288705349,0.0035177289973944426,-0.07972338050603867,-0.07348072528839111,0.061565764248371124,0.04611659795045853,-0.03794532269239426,-0.09162591397762299,-0.0043114181607961655,-0.0142081119120121,-0.01047519501298666,-0.10665018856525421,-0.031944792717695236,0.12341819703578949,-0.03076479770243168,0.030878238379955292,0.03199927136301994,-0.048793725669384,-0.04929476976394653,-0.09702564775943756,0.13379855453968048,0.022850049659609795,0.06765285134315491,0.004126507788896561,0.0704231709241867,0.019191907718777657,0.011252297088503838,-0.0019188395235687494,0.049699991941452026,-0.022143373265862465,-0.018078044056892395,-0.00421347189694643,0.0029520306270569563,0.0200833510607481,-0.005251687485724688,0.026964211836457253,-0.047979068011045456,-0.001617763889953494,-0.015612415969371796,0.002135523362085223,0.03616877272725105,-0.002265712944790721,-0.022655095905065536,-0.045183271169662476,0.04627280309796333,0.09390871226787567,0.0017035057535395026,0.023032251745462418,0.000395926705095917,-0.03498383238911629,-0.03836816921830177,0.041569825261831284,0.06295761466026306,0.014002775773406029,0.05728503689169884,0.01801314391195774,-0.03588733449578285,-0.013372952118515968,-0.03924853354692459,-0.01676194742321968,0.02416062355041504,-0.012390431016683578,-0.03130684792995453,0.006236364133656025,0.0010116329649463296,-0.020246494561433792,-0.028326252475380898,0.026982014998793602,-0.02288653329014778,0.027590211480855942,0.02852533385157585,-0.026499735191464424,0.04558547958731651,-0.028651127591729164,0.008142049424350262,-0.008882778696715832,-0.037811681628227234,0.04062215983867645,0.005460686516016722,-0.0020218815188854933,-0.014895785599946976,-0.04628269746899605,0.03670410439372063,-0.0021568182855844498,0.05227944627404213,-0.011011595837771893,0.05435509979724884,0.040884360671043396,-0.0030571145471185446,0.040897615253925323,-0.034530334174633026,0.00499094370752573,0.020434807986021042,-0.007929273881018162,0.0035472502931952477,5.4917618399485946e-05,0.012038550339639187,-0.012882593087852001,-0.015888944268226624,-0.006570365745574236,-0.043768513947725296,0.04401618614792824,0.004031972959637642,0.015244967304170132,0.030767707154154778,0.012911224737763405,0.00762362964451313,-0.032703954726457596,0.034444596618413925,-0.036830924451351166,-0.038328126072883606,-0.024974044412374496,-0.03562753275036812,0.014552532695233822,0.017750896513462067,0.0065390183590352535,0.03478049486875534,-0.0013426525983959436,0.027749033644795418,-0.01266126986593008,0.028666039928793907,0.005272148177027702,-0.016609586775302887,0.013843666762113571,0.006890706717967987,0.012226657941937447,0.02833693102002144,0.004230904392898083,-0.056351106613874435,-0.031385328620672226,0.012611801736056805,0.028004465624690056,0.013022312894463539,-0.02073035016655922,-0.008356602862477303,-0.050163235515356064,0.018468046560883522,-0.008709525689482689,-0.054725248366594315,-0.004476208705455065,0.012814789079129696,0.0013349226210266352,0.005088620353490114,-0.0956927016377449,0.005370697006583214,-0.025990325957536697,0.0280742309987545,-0.001280026393942535,0.07398691028356552,0.006657251622527838,-0.09325096756219864,-0.00900475773960352,0.0106479711830616,0.027055123820900917,0.029543934389948845,0.023596370592713356,0.026083650067448616,-0.03432690352201462,0.022325636819005013,-0.05215941742062569,-0.0010105513501912355,-0.06192644685506821,-0.02530902996659279,-0.007872804068028927,0.06904417276382446,-0.0031100884079933167,-0.01365518569946289,-0.055102091282606125,-0.043774306774139404,-0.02634962648153305,0.05430465564131737,0.011611669324338436,0.017855480313301086,-0.07774462550878525,-0.10260700434446335,0.007153197191655636,0.03649373725056648,-0.04032059758901596,-0.007197437807917595,-0.005653057713061571,-0.08697119355201721,-0.027372781187295914,0.0075064837001264095,0.0621197484433651,-0.026232050731778145,0.02018524520099163,0.01570929028093815,0.008674925193190575,0.010843126103281975,-0.04549279808998108,-0.004239516332745552,-0.05461246520280838,-0.0018137935549020767,-0.042771779000759125,0.015096212737262249,-0.02219565398991108,-0.04172775521874428,0.047103386372327805,-0.09050728380680084,0.024965250864624977,-0.032235849648714066,0.04897259548306465,0.005308445543050766,-0.051010437309741974,0.06666683405637741,-0.024781355634331703,-0.010536424815654755,0.03184903413057327,0.031005622819066048,-0.07664895057678223,-0.026145055890083313,0.039814651012420654,0.0316951647400856,-0.019707750529050827,-0.0626472532749176,0.013823896646499634,-0.04066590592265129,0.03932645544409752,-0.017066143453121185,0.014496262185275555,-0.011341688223183155,0.03594484552741051,-0.049283165484666824,0.09943794459104538,-0.039318397641181946,-0.06882672756910324,-0.012707337737083435,0.024959547445178032,-0.05583098903298378,-0.00201174127869308,0.03790877386927605,-0.007410772610455751,0.02864035591483116,0.011442866176366806,0.031162932515144348,-0.059816647320985794,0.0031234000343829393,0.019852664321660995,0.002278296509757638,-0.011978600174188614,-0.0375899113714695,0.0023534432984888554,0.03536800295114517,0.0007058449555188417,-0.016468845307826996,-0.002692586276680231,0.002316458150744438,0.0023637348785996437,-0.012531847693026066,-0.0676584541797638,-0.06396876275539398,-0.0057362946681678295,0.041709937155246735,-0.04267585650086403,0.05370396748185158,0.019210992380976677,0.0034922733902931213,0.017544081434607506,-0.002847459400072694,-0.044347841292619705,-0.011501003056764603,-0.039017871022224426,-0.06878574192523956,-0.014796396717429161,0.012522730976343155,0.03157340735197067,0.02186976559460163,0.01604965329170227,-0.027005136013031006,-0.020336205139756203,-0.030363330617547035,0.03527774289250374,-0.06425938755273819,-0.021606935188174248,-0.0514007993042469,0.0024501392617821693,0.008144894614815712,-0.005559541750699282,-0.0012573546264320612,-0.039237409830093384,-0.06471698731184006,-0.02766118384897709,-0.007955851033329964,-0.06196391582489014,-0.007643073797225952,0.008814472705125809,-0.015673629939556122,-0.029898451641201973,0.08852683752775192,0.06312815099954605,0.0010057128965854645,-0.013550985604524612,-0.07008903473615646,0.019252002239227295,-0.03907555714249611,-0.0052376664243638515,0.006020490545779467,-0.03956281766295433,-0.044190339744091034,-0.0015475578838959336,0.04221859946846962,-0.0977870300412178,-0.05887892097234726,-0.058853667229413986,0.006713539361953735,-0.015154236927628517,-0.05133539065718651,0.04804588854312897,-0.05158821493387222,0.0003373021027073264,0.09188448637723923,-0.026759425178170204,0.07271451503038406,-2.966011015814729e-05,-0.023930691182613373,0.030753830447793007,-0.05070916563272476,-0.004339807666838169,-0.05794206261634827,-0.015651710331439972,-0.033059101551771164,-0.008630105294287205,0.003653500694781542,0.04118627309799194,0.05910032242536545,0.05949484184384346,0.0290822871029377,-0.06807724386453629,0.05257955566048622,-0.02774675376713276,-0.00931763555854559,-0.013785148039460182,0.045333247631788254,0.048696476966142654,-0.09803654998540878,0.0251657422631979,0.03180209547281265,-0.029012834653258324,0.09424801915884018,-0.029751958325505257,-0.004464007914066315,-0.02552153170108795,0.032764848321676254,0.0297164898365736,-0.009126606397330761,-0.010076594538986683,-0.05766720324754715,0.006171071901917458,-0.04284083470702171,0.019588900730013847,-0.07598690688610077,-0.05546032264828682,0.01683799736201763,0.03314492478966713,-0.025277260690927505,0.01601378060877323,-0.013536161743104458,0.0746060237288475,0.05629445239901543,-0.03797217458486557,0.0465819276869297,-0.029284251853823662,-0.06157567724585533,0.012782356701791286,-0.05114699527621269,-0.06414516270160675,0.02894546091556549,-0.07240892201662064,-0.05935179442167282,-0.006582466419786215,-0.044420819729566574,-0.04137726128101349,0.010148963890969753,-0.00588277168571949,-0.01427388284355402,-0.023805737495422363,-0.03574031963944435,0.0008946004090830684,-0.02514594979584217,0.0021109869703650475,0.016447750851511955,-0.041918735951185226,-0.003672864520922303,0.007585248909890652,-0.007996336556971073,0.07484046369791031,0.004841209389269352,-0.021705949679017067,0.004290901590138674,-0.08237297832965851,-0.026833249256014824,-0.01190259214490652,0.02190101332962513,-0.037607770413160324,0.03193817287683487,-0.0418689139187336,-0.021193329244852066,0.023097531870007515,-0.0002759462222456932,-0.02286752313375473,-0.0002774213789962232,-0.02560279704630375,-0.013418962247669697,0.008941954001784325,-0.01188751682639122,0.01402927003800869,0.015497619286179543,0.04621916264295578,-0.010494222864508629,-0.054597407579422,0.0222221277654171,0.00598879624158144,-0.03751467913389206,-0.011760699562728405,-0.03433803468942642,-0.041268955916166306,0.03224163129925728,-0.023323792964220047,0.030768103897571564,-0.04285244271159172,-0.038369741290807724,-0.03595176711678505,-0.016337046399712563,0.009720802307128906,-0.03729696199297905,0.04316725209355354,0.04972297325730324,0.0004897159524261951,0.008919036947190762,-0.03766614571213722,-0.016297779977321625,-0.007241051644086838,-0.003823308739811182,-0.004322394262999296,-0.011044285260140896,0.011362360790371895,-0.010814947076141834,0.026307187974452972,-0.05121937394142151,-0.009430166333913803,0.016593078151345253,0.007452854886651039,0.004657425452023745,0.00995516125112772,-0.002675091614946723,-0.003054072381928563,-0.046561915427446365,0.004305391106754541,-0.02535223588347435,-0.016374094411730766,-0.042003098875284195,-0.00031874870182946324,-0.0009112008847296238,-0.02140708453953266,0.03523394092917442,-0.004162740893661976,0.02011101134121418,-0.03841119259595871,0.009165228344500065,0.011162682436406612,-0.008252649568021297,0.003378818277269602,0.016965461894869804,0.0009181242785416543,-0.013458647765219212,0.02816060557961464,-0.01576649211347103,-0.033342402428388596,-0.002666955580934882,-0.020801156759262085,-0.02077232301235199,-0.028324786573648453,0.0017318099271506071,0.00835047010332346,0.03926897048950195,0.020312124863266945,-0.033318184316158295,0.0056236605159938335,-0.08290613442659378,-0.010542500764131546,0.05061713978648186,0.0169221144169569,0.026110125705599785,0.008899375796318054,-0.046691298484802246,-0.036126889288425446,0.04059608280658722,0.050020281225442886,-0.008944515138864517,-0.02954137697815895,0.018889427185058594,-0.0012311297468841076,0.009550713002681732,0.03885472193360329,-0.02435673214495182,0.03399438038468361,-0.016133541241288185,0.03112778067588806,0.05462776497006416,0.0349343977868557,0.007611369248479605,-0.034460876137018204,-0.004135508090257645,-0.007998904213309288,0.00028623000252991915,0.037412967532873154,-0.04786073416471481,0.024351203814148903,0.040616631507873535,-0.03156129643321037,0.00950316060334444,0.029474934563040733,-0.00726802134886384,0.01193329319357872,-0.022283583879470825,-0.016763929277658463,0.005646138451993465,0.010477147996425629,-0.025204293429851532,0.005611569620668888,-0.002109293360263109,0.004357494413852692,-0.036945637315511703,-0.01629534363746643,-0.04713099077343941,-0.05005061998963356,-0.05686553940176964,0.010189682245254517,-0.017314648255705833,0.03518137335777283,0.04938533529639244,-0.024145005270838737,-0.03358110412955284,0.005732620134949684,-0.02064889296889305,-0.00550502585247159,0.0023050846066325903,0.01022819709032774,-0.022555997595191002,-0.02187397889792919,-0.024289585649967194,-0.014900692738592625,0.010347803123295307,0.05164123326539993,0.009560569189488888,0.038195621222257614,-0.052078261971473694,0.044341351836919785,-0.01521159429103136,0.04112894833087921,-0.03680558502674103,0.032283563166856766,-0.021980565041303635,-0.008971680887043476,-0.04170185327529907,0.0019717407412827015,0.03512376546859741,-0.0021989108063280582,-0.02398078516125679,0.03815779834985733,-0.048951081931591034,-0.015414549969136715,-0.04201844334602356,-0.012712336145341396,-0.014634576626121998,-0.006552987266331911,-0.007030228152871132,-0.036646343767642975,0.009107477962970734,0.026925738900899887,-0.03935685753822327,-0.01437575276941061,-0.02076437696814537,-0.05590086430311203,0.05498456582427025,-0.0026816099416464567,-0.020474078133702278,-0.0036325545515865088,0.017439579591155052,0.0003811023780144751,-0.006011074408888817,0.02313762716948986,0.034106265753507614,-0.048613641411066055,0.024397876113653183,0.0374930277466774,0.003242235630750656,-0.02090139500796795,0.029117338359355927,-0.02517167665064335,-0.000525734736584127,0.006306795869022608,-0.01638466864824295,-0.018164748325943947,-0.003742697648704052,0.009761108085513115,-0.01783192716538906,0.025247301906347275,0.04499535262584686,-0.009510207921266556,-0.02057684399187565,0.03746182098984718,-0.009565265849232674,-0.0016805246705189347,-0.009841074235737324,-0.040118370205163956,-0.02108362503349781,-0.018330007791519165,0.007740709464997053,-0.01572180539369583,0.06666098535060883,-0.032869067043066025,0.0333259291946888,0.009982808493077755,0.013950894586741924,0.03610903024673462,0.017549734562635422,0.0536201111972332,-0.056884344667196274,-0.023116594180464745,-0.005820107646286488,-0.002429695799946785,-0.006602422334253788,0.024147024378180504,-0.013995404355227947,-0.01872098445892334,-0.008032207377254963,0.019266141578555107,-0.02883234992623329,0.02022838592529297,0.04667022079229355,0.0120479641482234,0.023585645481944084,-0.04002583399415016,-0.005344061180949211,0.0055696358904242516,-0.05281590297818184,0.02659701369702816,0.03317416086792946,-0.006319768726825714,-0.014090625569224358,0.04025378078222275,-0.017231175675988197,-0.005777155049145222,-0.02114463411271572,-0.014133833348751068,0.027429653331637383,0.036146678030490875,0.04474585875868797,-0.056514956057071686,-0.04785561189055443,-0.019467392936348915,-0.026054179295897484,0.006725830491632223,-0.004151836037635803,0.023927871137857437,-0.011702991090714931,0.02267419546842575,0.03894496336579323,0.03573441877961159,0.050889723002910614,-0.017193054780364037,-0.03960949555039406,0.013173471204936504,0.018474500626325607,0.0023575155064463615,0.006685619708150625,0.01302430685609579,0.030980877578258514,0.021206015720963478,-0.02732379361987114,0.02971600741147995,-0.0007412604172714055,0.03295166417956352,-0.013453341089189053,0.015205413103103638,0.0019066340755671263,0.023226050660014153,0.0316978357732296,-0.03216923028230667,-0.012640426866710186,-0.02518489584326744,0.019687099382281303,-0.03125258535146713,0.03892878070473671,0.01189883891493082,0.038361918181180954,-0.007765806280076504,0.0026142499409615993,-0.024930227547883987,-0.01798606850206852,-0.044168464839458466,-0.009271146729588509,-0.006420856341719627,0.024477893486618996,0.012443823739886284,0.035723645240068436,-0.0375877320766449,0.017383798956871033,-0.031866200268268585,-0.02654852345585823,0.01555122621357441,-0.03754718601703644,0.0016927634133026004,-0.009089131839573383,-0.03930572792887688,-0.027748819440603256,-0.01078241690993309,-0.017413530498743057,0.008009789511561394,0.028407979756593704,-0.01229226216673851,-0.026862232014536858,-0.009947904385626316,0.007865777239203453,-0.015850694850087166,0.02819778397679329,-0.004446808248758316,-0.035214751958847046,0.028275297954678535,-0.024224093183875084,0.015359904617071152,-0.0028514936566352844,-0.03407345712184906,0.02668164297938347,-0.027284037321805954,0.021461427211761475,-0.03750872239470482,-0.0074166166596114635,0.0024316783528774977,0.006208277773112059,-0.010056521743535995,-0.0005789845599792898,-0.032784223556518555,-0.027298454195261,0.00684175081551075,-0.022754011675715446,0.04047020524740219,-0.030566401779651642,-0.028195735067129135,-0.031081577762961388,-0.01801956444978714,-0.0020114323124289513,-0.024525310844182968,0.0036428344901651144,0.0024063503369688988,-0.005765391048043966,-0.015451966784894466,-0.009716053493320942,-0.04322999343276024,0.00228749867528677,0.02337963506579399,0.024748632684350014,0.012679500505328178,-0.022158894687891006,0.02632278949022293,0.0077506499364972115,-0.002807504730299115,0.027572467923164368,0.012680644169449806,0.014174072071909904,0.0030406496953219175,0.0026797254104167223,-0.01965351589024067,0.030515165999531746,0.015563233755528927,0.0033041774295270443,0.024965060874819756,0.008126265369355679,-0.0071467068046331406,-0.02331201359629631,-0.003972542472183704,-0.03511415421962738,-0.020751601085066795,0.005226260982453823,0.033606380224227905,-0.039234504103660583,-0.031476523727178574,-0.007174021564424038,0.00227129808627069,-0.009921983815729618,-0.006167980842292309,0.034975238144397736,0.009976895526051521,-0.00032826309325173497,-0.013491688296198845,-0.040223754942417145,-0.02654477395117283,-0.03446708619594574,0.008741140365600586,0.03059748001396656,0.0034509142860770226,-0.020745590329170227,-0.018335074186325073,-0.041672397404909134,0.03623301163315773,-0.005205480381846428,0.0057142977602779865,0.004061154555529356,0.0016746728215366602,0.022724172100424767,0.033375948667526245,0.013478749431669712,-0.017951320856809616,-0.02010008506476879,-0.02415459416806698,-0.005103097762912512,0.03084688074886799,-0.0447174608707428,-0.01386757381260395,-0.0009204282541759312,-0.020136287435889244,0.023590827360749245,0.002261101733893156,-0.015942180529236794,0.013673925772309303,-0.025632072240114212,-0.027874590829014778,0.010507723316550255,-0.01295037567615509,-0.05931486934423447,-0.0057871779426932335,-0.036129750311374664,-0.03787216916680336,-0.0007414804422296584,-0.05911539867520332,-0.0010697904508560896,0.024516504257917404,0.019877949729561806,0.05507650598883629,-0.06385771185159683,-0.03293255716562271,0.05244285613298416,-0.014058629050850868,-0.04343144968152046,-0.030444610863924026,0.020297259092330933,-0.05136620253324509,0.02507924474775791,0.062219008803367615,-0.02306954935193062,-0.012649450451135635,0.006057684775441885,-0.031295593827962875,0.007191316224634647,0.02814091555774212,0.005133758764714003,-0.0021044195163995028,-0.03633993864059448,-0.0335179939866066,-0.010777713730931282,0.01892947591841221,-0.024448536336421967,-0.02154570445418358,-0.03542671352624893,0.03456732630729675,-0.006376100704073906,-0.02514682337641716,0.03194000944495201,0.0027549564838409424,-0.030314873903989792,-0.036786727607250214,0.003480023005977273,0.04282788932323456,0.007916977629065514,-0.002575620776042342,0.017515284940600395,0.017774445936083794,-0.004665330983698368,-0.030523942783474922,0.012947546318173409,0.013360567390918732,-0.017280207946896553,0.022115696221590042,-0.0011558432597666979,-0.07003774493932724,0.009667040780186653,-0.03869345784187317,-0.0008336279424838722,-0.054322563111782074,-0.00644730543717742,-0.029608560726046562,-0.019247492775321007,0.01419929787516594,-0.006168934982270002,-0.016795679926872253,-0.05392463505268097,0.02422189898788929,-0.057184357196092606,-0.014592263847589493,0.028423214331269264,-0.021019136533141136,0.0014922370901331306,0.016734806820750237,0.022291405126452446,-0.04695552587509155,-0.020964084193110466,-0.014655370265245438,-0.04466712847352028,-0.006744359154254198,-0.056065768003463745,0.008736220188438892,-0.027916688472032547,0.02065795660018921,0.011611619032919407,0.026103684678673744,-0.06756719946861267,0.018396856263279915,-0.012498553842306137,0.01795179210603237,0.007982722483575344,0.016168462112545967,-0.029188115149736404,-0.023373285308480263,0.009387793950736523,0.028117172420024872,-0.02504376322031021,-0.028442854061722755,-0.01034599170088768,-0.014200425706803799,-0.05248882994055748,4.039435589220375e-05,-0.013608027249574661,0.00898658949881792,0.04286457970738411,-0.00313961086794734,0.052997298538684845,-0.03753400966525078,0.017756527289748192,-0.023495156317949295,-0.024193134158849716,0.005002215504646301,-0.01430653128772974,0.0029387837275862694,0.03906414285302162,-0.03848510980606079,-0.008360744453966618,0.04130209982395172,0.008200844749808311,-0.036154989153146744,-0.0012652907753363252,-0.04857466369867325,0.04505913704633713,0.025617200881242752,0.004038086626678705,-0.018444953486323357,-0.03081347420811653,0.003643937408924103,0.033113833516836166,-0.018349220976233482,0.002777095651254058,-0.009486204013228416,-0.0214095339179039,-0.014159439131617546,0.019889583811163902,-0.007326181046664715,-0.08003594726324081,0.02138744667172432,0.06275106221437454,-0.010533621534705162,-0.05024474114179611,0.025526106357574463,0.028195098042488098,0.03020055778324604,-0.009187806397676468,0.03314080834388733,-0.023447377607226372,-0.023417506366968155,0.020221756771206856,0.03596825152635574,0.03211485221982002,0.0017390175489708781,-0.006612734869122505,-0.011796978302299976,0.054556261748075485,0.023357314988970757,-0.023571064695715904,0.0561593733727932,0.03590166196227074,0.030889850109815598,0.029915401712059975,-0.044506870210170746,0.02023608237504959,-0.02938600443303585,-0.009326627478003502,0.008137826807796955,0.04555106163024902,-0.008421400561928749,-0.02311314456164837,0.03080534003674984,0.0018955046543851495,0.02054993063211441,0.03945426270365715,-0.05961628630757332,0.05155763402581215,0.01385093666613102,0.02566320076584816,0.04336374253034592,-0.011151446029543877,0.013184568844735622,0.0038686967454850674,-0.011333183385431767,-0.0761907547712326,-0.01956753060221672,0.03706483170390129,-0.0769258663058281,0.038387786597013474,-0.005081632640212774,0.040566831827163696,-0.027351384982466698,-0.027148282155394554,0.021716836839914322,0.0543808788061142,-0.013707236386835575,0.016996754333376884,0.027371644973754883,-0.014018950052559376,0.05241898074746132,0.0447128489613533,0.029218386858701706,0.044232871383428574,0.014735199511051178,0.012664581649005413,-0.044295769184827805,-0.018436448648571968,-0.05304993689060211,-0.026286520063877106,0.05672484636306763,0.03626900166273117,-0.019302386790513992,0.04041057452559471,0.010828981176018715,0.014174570329487324,-0.02615370787680149,-0.01949608512222767,-0.005589398089796305,0.014458040706813335,-0.010596508160233498,-0.013717293739318848,0.005329175852239132,0.009517661295831203,0.026611795648932457,0.0061784363351762295,-0.0009024417377077043,-0.049346327781677246,0.02876335382461548,0.03620164468884468,0.025292402133345604,0.022806774824857712,-0.014634914696216583,-0.00835531484335661,-0.01035319548100233,-0.00017598002159502357,-0.012699197046458721,0.008303225040435791,0.0014424383407458663,0.0374230220913887,-0.00217067776247859,-0.007456344086676836,-0.03337736800312996,0.0006550825200974941,-0.04004914313554764,0.021177997812628746,-0.00042344388202764094,0.016643472015857697,-0.010955208912491798,0.026053117588162422,-0.03782308101654053,-0.04630419611930847,-0.04374172165989876,-0.03791290894150734,0.03129890561103821,-0.015502064488828182,-0.022087037563323975,-0.0043357075192034245,0.03085806593298912,-0.015436404384672642,0.014961624518036842,-0.028486739844083786,0.05363253131508827,0.0016250982880592346,0.019552050158381462,0.0549669973552227,0.004452644381672144,-0.018930556252598763,-0.00895601138472557,-0.016513701528310776,0.01955287717282772,-0.028212931007146835,-0.00490451417863369,0.03450110927224159,0.0077568902634084225,0.02158213220536709,0.030210193246603012,-0.005483352579176426,-0.027049526572227478,-0.010196498595178127,-0.00022857499425299466,0.0019694636575877666,-0.021916765719652176,-0.05525156110525131,-0.022625934332609177,0.0018427080940455198,-0.0006578140892088413,0.03404172509908676,-0.029915926977992058,-0.0029580872505903244,-0.022754667326807976,-0.0007478350307792425,-0.03023909218609333,0.03707379847764969,0.02811579406261444,-0.00517020421102643,-0.0029643860179930925,0.026256375014781952,0.026171483099460602,0.02827448584139347,-0.042391348630189896,-0.02500658668577671,-0.008518463931977749,0.007967023178935051,-0.009459853172302246,-0.015746258199214935,0.016979003325104713,0.029246671125292778,0.03603594750165939,-0.01550277043133974,-0.006807100959122181,-0.04819934070110321,-0.01882738620042801,-0.025642145425081253,-0.011035182513296604,-0.029293539002537727,0.021035514771938324,0.02792375721037388,-0.021599868312478065,0.02432127483189106,-0.029328659176826477,-0.01821270026266575,0.02304748073220253,-0.03637072071433067,-0.025073383003473282,0.014265441335737705,0.02053144760429859,-0.012148763984441757,-0.019071534276008606,0.033786505460739136,-0.036778710782527924,0.030247550457715988,0.026712141931056976,0.04925975203514099,0.029332591220736504,0.0054869260638952255,0.02675333432853222,-0.05558451637625694,0.0006915887934155762,-0.04127029329538345,0.02200542576611042,0.03995293006300926,-0.032704077661037445,-0.04119064286351204,0.035090524703264236,0.019022632390260696,0.0013814757112413645,-0.03243264928460121,-0.07181611657142639,0.05566098913550377,-0.046958599239587784,-0.0366913340985775,-0.03280521184206009,0.0242760106921196,0.02965102531015873,-0.03712424635887146,0.03515207767486572,-0.0323466956615448,0.010037222877144814,-0.013601497747004032,0.016479788348078728,0.01697533205151558,0.03314211219549179,0.035800665616989136,-0.001752543030306697,0.009181336499750614,0.02928229607641697,-0.013868332840502262,-0.018185947090387344,-0.0036565097980201244,0.019025545567274094,0.025966094806790352,-0.017063535749912262,0.017886750400066376,0.015497559681534767,-0.018221886828541756,-0.017079632729291916,-0.025940658524632454,-0.008760472759604454,0.023507047444581985,0.007826206274330616,0.009413165971636772,-0.024722324684262276,-0.016586054116487503,-0.03651299327611923,-0.0009736274951137602,0.04479185491800308,0.012199384160339832,0.022297393530607224,-0.011424148455262184,-0.04017210379242897,0.009778803214430809,0.011800355277955532,0.019676784053444862,0.0010959090432152152,0.0013015917502343655,0.02316300757229328,-0.0028194196056574583,0.031131908297538757,0.020826485008001328,-0.009261890314519405,0.0017564501613378525,0.017527064308524132,0.03943176195025444,-0.03329721838235855,-0.001426132395863533,-0.06092331185936928,-0.01184141170233488,0.02595701813697815,0.026496661826968193,-0.040926799178123474,0.017939746379852295,0.012397447600960732,-0.012325617484748363,-0.002014766214415431,0.058072786778211594,-0.0033128783106803894,0.013773864135146141,-0.01855960674583912,0.016066912561655045,0.011556068435311317,0.007909175008535385,0.01964160054922104,-0.02811574749648571,-0.01659257709980011,0.01342766359448433,-0.02993159554898739,0.032177623361349106,0.00613690260797739,0.014114677906036377,0.010095161385834217,-0.012008153833448887,0.052678026258945465,-0.041226327419281006,0.050248388200998306,0.010597351007163525,-0.026699116453528404,-0.012006751261651516,0.006059893872588873,0.02116476371884346,0.03172207996249199,0.009004075080156326,0.01928812637925148,-0.002454461995512247,0.00042889354517683387,0.0391724593937397,-0.015278930775821209,0.014966667629778385,0.03041660226881504,-0.01448784675449133,-0.02918325737118721,0.0058542899787425995,0.05518162623047829,0.013050353154540062,0.05709611624479294,0.006099352613091469,-0.02362809143960476,-0.013082798570394516,0.02777053229510784,-0.002614077180624008,-0.017027273774147034,0.042768511921167374,0.035238996148109436,0.006330741569399834,-0.029848776757717133,0.038068950176239014,0.034738071262836456,0.019345231354236603,-0.0018522132886573672,0.02356684021651745,0.007298984564840794,0.01201971061527729,-0.01766587421298027,0.03287087380886078,0.028149353340268135,-0.03860234469175339,-0.0018338491208851337,0.012647022493183613,0.0037666079588234425,-0.025770016014575958,0.02127697691321373,0.001680473331362009,-0.023536430671811104,-0.028034599497914314,0.035983022302389145,0.035159166902303696,0.03031766042113304,0.03880496695637703,-0.010146322660148144,-0.022215748205780983,-0.03763236105442047,0.03990714251995087,0.033578045666217804,-0.02497582510113716,-0.01660897210240364,0.002124105580151081,0.025717493146657944,-0.039166130125522614,-0.04406288266181946,-0.0007176041835919023,-0.016637636348605156,0.016507895663380623,-0.03608397766947746,-0.016705691814422607,0.006567133590579033,0.009711635299026966,-0.02767949365079403,-0.02435535006225109,0.02358664944767952,-0.010427568107843399,-0.018977249041199684,-0.00871148519217968,0.004991689696907997,-0.039431583136320114,0.03404393047094345,0.02962707355618477,-0.039131443947553635,0.004668147768825293,0.0355740487575531,0.019368207082152367,-0.01707405224442482,0.022212758660316467,-0.02992994524538517,-0.0013929620618000627,-0.007217746693640947,-0.03236045315861702,0.016101332381367683,-0.04608849808573723,0.02439078502357006,-0.03609984740614891,-0.022958602756261826,-0.015114245004951954,-0.03913416340947151,-0.04133300483226776,-0.0015733521431684494,-0.030099844560027122,0.0022937313187867403,0.019561586901545525,0.014432755298912525,-0.022433755919337273,0.04175284132361412,-0.03165092691779137,-0.004493505693972111,0.02055155299603939,0.015160270035266876,-0.007824917323887348,0.011314699426293373,-0.033623065799474716,0.017971105873584747,-0.02600310929119587,0.017795443534851074,0.004974583629518747,0.010818373411893845,0.02631584368646145,0.008750278502702713,-0.042284801602363586,-0.0075525990687310696,-0.0287675391882658,-0.03261025249958038,0.021851837635040283,0.0162820965051651,-0.026241503655910492,0.010105355642735958,-0.03790779039263725,0.020135624334216118,0.03306873142719269,-0.0137178311124444,0.0355026014149189,0.0005350766587071121,-0.041247084736824036,-0.003810490481555462,0.03518088534474373,0.009215166792273521,0.019765660166740417,-0.00484852958470583,-0.010967476293444633,0.02002808265388012,-0.013315328396856785,-0.01376239862293005,0.007348949089646339,-0.016798513010144234,0.0129967937245965,0.011031615547835827,0.025558672845363617,-0.016831494867801666,-0.04102255776524544,-0.012879196554422379,0.03312147036194801,-0.02873544953763485,-0.007130774669349194,-0.01667208783328533,0.008979273028671741,0.029128307476639748,-0.03213081136345863,0.01904224418103695,0.04295789450407028,-0.03664645180106163,-0.04458381608128548,0.003539150580763817,0.0365997739136219,-0.01674354448914528,0.01359461061656475,-0.006964903324842453,0.01580982655286789,0.034677911549806595,0.0018900997238233685,0.025847095996141434,-0.003733597230166197,0.018846731632947922,0.0005990947829559445,0.003292875364422798,0.023793531581759453,0.024868885055184364,0.008182823657989502,-0.04316355288028717,-0.028027469292283058,-0.022926241159439087,0.041081372648477554,-0.004378235898911953,-0.002569156466051936,-0.03689820319414139,0.008823376148939133,-0.01008503045886755,-0.019924674183130264,-0.02706393040716648,-0.035824842751026154,-0.047869883477687836,0.013684425503015518,0.030855193734169006,0.017182914540171623,-0.01304511446505785,0.032233309000730515,-0.05820631980895996,-0.0250681284815073,0.030730262398719788,-0.0367337167263031,0.02360447496175766,0.04658086970448494,-0.04194103926420212,0.016882648691534996,-0.0022652337793260813,-0.02084100805222988,-0.014358995482325554,0.00594513351097703,0.012822977267205715,0.011063537560403347,0.05156750604510307,-0.015553794801235199,0.03042011149227619,-0.012115636840462685,0.026223074644804,0.007687957491725683,0.02678469382226467,-0.020235007628798485,0.01575237326323986,-0.0024020588025450706,0.012723718769848347,-0.010770842432975769,-0.008859172463417053,0.06134407967329025,-0.0005828202702105045,-0.009118924848735332,-0.021850857883691788,-0.02676195092499256,-0.013218557462096214,0.0005660620518028736,0.003595516085624695,0.04879479855298996,0.022296100854873657,-0.022949093952775,-0.05643303692340851,0.03294352442026138,-0.009787301532924175,0.004822855815291405,0.03660663962364197,-0.03979423642158508,0.004497169982641935,0.026837343350052834,-0.010739742778241634,-0.0051557570695877075,-0.02769266441464424,-0.02340707927942276,-0.02466006390750408,-0.00971547793596983,-0.020665684714913368,0.018724210560321808,-0.02627650648355484,0.03733009099960327,-0.01594352349638939,-0.033015038818120956,0.008489571511745453,0.018885895609855652,0.0038464253302663565,0.006572316400706768,-0.0021274283062666655,0.04092230647802353,-0.02297254279255867,-0.023602081462740898,-0.01843821071088314,-0.004173479974269867,-0.00728233577683568,-9.47256776271388e-05,0.04056980833411217,0.006215793080627918,-0.011546599678695202,-0.028845053166151047,0.0347183533012867,0.027717972174286842,-0.015888262540102005,-0.02481463924050331,0.06336067616939545,0.04290299490094185,-0.007977603003382683,-0.008079093880951405,-0.03368518501520157,0.012518308125436306,0.012535074725747108,0.008149280212819576,0.018945230171084404,0.009613092988729477,-0.029542237520217896,-0.011709864251315594,0.0057831150479614735,0.019446542486548424,0.02284109964966774,-0.0003081019385717809,0.04848996177315712,-0.04061432182788849,0.007879733107984066,0.03673681244254112,0.013237761333584785,-0.046082887798547745,-0.025720540434122086,0.03887660801410675,0.0013996000634506345,-0.01056635845452547,0.015473419800400734,0.0017691267421469092,0.0016677030362188816,-0.02146771363914013,-0.02078172191977501,-0.0014267424121499062,-0.013268818147480488,0.005678701214492321,-0.000639192818198353,0.04483568295836449,-0.02747248485684395,-0.018098611384630203,-0.012136643752455711,0.016719305887818336,0.015554009936749935,-0.004207729361951351,0.03626783937215805,-0.006778855342417955,0.0157243013381958,-0.02926974929869175,0.023716257885098457,-0.02500513382256031,-0.033245086669921875,-0.01292420644313097,0.007314733695238829,-0.0026787237729877234,0.003416955005377531,-0.01335182972252369,-0.03804584965109825,-0.012294392101466656,-0.038693368434906006,-0.008866178803145885,0.007845314219594002,0.008487380109727383,-0.006684572901576757,-0.017279528081417084,0.0073263924568891525,-0.02656489610671997,0.04210624843835831,-0.01859358511865139,0.026150159537792206,0.030403587967157364,-0.012324062176048756,0.003605225356295705,0.02438042126595974,-0.02593674324452877,0.01795230805873871,-0.011695741675794125,0.0192661602050066,0.024562198668718338,0.01581149362027645,-0.023820089176297188,-0.012355742044746876,0.002434275345876813,-0.011475637555122375,0.007698024623095989,0.019731871783733368,0.04896869137883186,-0.003427294548600912,0.013979345560073853,-0.00974367931485176,0.006969262845814228,0.0035700686275959015,0.03955690190196037,-0.00813748687505722,0.0379931777715683,-0.030159838497638702,0.024728337302803993,-0.03274470940232277,0.014048244804143906,0.01668679155409336,-0.009659149684011936,0.0003273128531873226,-0.01950143091380596,0.018140558153390884,0.028444591909646988,0.019973721355199814,-0.009272264316678047,-0.020676132291555405,0.018279563635587692,-0.026556164026260376,-0.0006257476634345949,0.02353731170296669,0.024262724444270134,0.006434554234147072,-0.0398457869887352,-0.023277759552001953,0.026044562458992004,0.027624603360891342,0.02551870606839657,-0.039139747619628906,-0.02426845021545887,-0.017928604036569595,-0.027463193982839584,0.011480908840894699,-0.008974633179605007,0.03341349959373474,0.026332715526223183,0.017818588763475418,0.01014312170445919,-0.03528681769967079,0.027081549167633057,-0.01175425760447979,0.006583624053746462,0.011753449216485023,-0.03445069119334221,-0.008773818612098694,-0.04396079108119011,-0.0008699058671481907,-0.013256490230560303,-0.033639684319496155,-0.008546990342438221,0.015923231840133667,-0.020416732877492905,0.012078589759767056,0.01303817518055439,0.000826197094283998,-0.009128624573349953,-0.015099281445145607,0.032642945647239685,0.013414843939244747,0.036998629570007324,-0.0004497179470490664,-0.03399086371064186,-0.007179976906627417,0.015283488668501377,0.023430289700627327,-0.02869180589914322,-0.025008542463183403,-0.03875521942973137,-0.014749608933925629,-0.011038418859243393,0.008462251164019108,0.0387931726872921,-0.09270865470170975,0.028467493131756783,-0.022291727364063263,0.03786543384194374,0.022192267701029778,0.11414884775876999,-0.056748151779174805,0.05028720572590828,0.01634146086871624,-0.03532024472951889,-0.051413215696811676,-0.05284310132265091,-0.003030878258869052,0.029215913265943527,0.0487326942384243,-0.047913409769535065,0.02454821951687336,-0.005959359463304281,-0.061260540038347244,0.016530126333236694,0.10944382846355438,-0.08123333007097244,0.0004301695735193789,-0.027864018455147743,-0.009860903955996037,-0.05061614513397217,0.033725664019584656,0.014495110139250755,0.005294200032949448,-0.0001035241293720901,0.012428795918822289,-0.008388948626816273,-0.07487749308347702,0.013209818862378597,-0.10289613157510757,-0.0002491098130121827,-0.019261304289102554,0.027078578248620033,-0.024826636537909508,-0.023025240749120712,0.022790350019931793,0.04858577996492386,-0.04080207645893097,-0.014460330829024315,0.08736848831176758,-0.09239890426397324,-0.0359075665473938,0.02596624754369259,-0.03927114978432655,-0.06359553337097168,-0.10169912874698639,0.12745222449302673,-0.007369609083980322,-0.03508029878139496,-0.03362084925174713,0.06663331389427185,0.06378214806318283,0.08059732615947723,0.08048819750547409,-0.004240849055349827,-0.0715472549200058,-0.07257308065891266,-0.03100689873099327,0.04222976788878441,0.0009618477779440582,0.03695356473326683,-0.02298726513981819,-0.07897798717021942,0.09221251308917999,-0.04063975438475609,-0.021912142634391785,-0.00797189585864544,0.0694463774561882,-0.0884462520480156,0.0228575412184,0.054409004747867584,0.0457652322947979,-0.018788756802678108,0.014502361416816711,0.09295134991407394,-0.11824512481689453,-0.0533381812274456,0.026470446959137917,0.05469612404704094,-0.014396407641470432,0.011871689930558205,0.0033252821303904057,0.07219066470861435,0.05884421616792679,-0.03002411499619484,-0.03376099094748497,0.006552942097187042,0.03786122426390648,-0.017544550821185112,-0.05032183974981308,-0.02898547239601612,-0.09134869277477264,0.045928582549095154,0.05550378933548927,-0.1179618164896965,0.032987140119075775,-0.019175447523593903,-0.0377003513276577,0.05971884727478027,0.07532353699207306,-0.13734015822410583,-0.032308246940374374,0.013906927779316902,-0.010840694420039654,-0.0950801819562912,0.0928657278418541,-0.0632188618183136,0.006021976005285978,0.0029310532845556736,-0.09331464767456055,-0.032064735889434814,0.042663250118494034,-0.013385859318077564,-0.011974000371992588,-0.028386270627379417,0.029346797615289688,-0.08577560633420944,0.03956286609172821,-0.02758357860147953,-0.02089051343500614,0.05642520263791084,0.0026416105683892965,-0.034621309489011765,-0.08364707231521606,0.053879231214523315,-0.005321057513356209,0.05934080854058266,-0.05661327764391899,0.07948900014162064,0.04730643332004547,-0.026485983282327652,-0.08381667733192444,0.015977932140231133,0.03831314295530319,-0.04615766555070877,0.0902697890996933,-0.005574189592152834,0.02994057722389698,0.006493480410426855,0.00951460562646389,0.016748283058404922,-0.0400351919233799,-0.0992211401462555,0.018744897097349167,0.10994649678468704,-0.12152796238660812,0.11094474792480469,-0.0789828673005104,0.006406857166439295,-0.07113421708345413,-0.0573304183781147,-0.00408810842782259,-0.018002277240157127,0.00020842626690864563,-0.08916915208101273,0.02336779423058033,0.02414843440055847,-0.05720619484782219,-0.05234474316239357,0.027905305847525597,0.06253039836883545,-0.00023667924688197672,-0.007909148931503296,-0.008572118356823921,-0.020772922784090042,-0.0660395398736,-0.03214674070477486,-0.03208433836698532,0.016527602449059486,0.010414525866508484,-0.04486142471432686,-0.008483859710395336,0.04786321520805359,-0.0016855739522725344,-0.031773023307323456,0.03587866574525833,0.019598688930273056,-0.040033888071775436,-0.012485797517001629,-0.1275375336408615,-0.05805711820721626,-0.0016185783315449953,-0.0472843199968338,0.004978938028216362,-0.0815802589058876,-0.0561327189207077,-0.09190946072340012,0.03400653973221779,0.031222503632307053,0.013934670947492123,0.06199365109205246,-0.02133857272565365,0.04909183457493782,-0.016848832368850708,0.005313915200531483,-0.029468927532434464,-0.03325477987527847,-0.05539590120315552,-0.022992368787527084,0.01398503128439188,-0.04858674108982086,-0.02935766614973545,-0.04033348709344864,-0.05390040948987007,-0.04627012088894844,-0.022791974246501923,-0.022418703883886337,0.030047237873077393,-0.03244960308074951,0.007991313003003597,-0.03005172312259674,-0.00411587068811059,0.09810797870159149,0.06121256202459335,-0.012730445712804794,-0.02839888073503971,0.05407758429646492,-0.11353656649589539,0.001688796211965382,0.012938803061842918,-0.002015123376622796,0.01901884749531746,-0.04764624312520027,0.031232686713337898,0.01876932382583618,0.08360149711370468,-0.09175163507461548,-0.024370376020669937,-0.013217533938586712,0.03249169886112213,-0.00024796463549137115,-0.06164994463324547,-0.0603657141327858,0.041500721126794815,-0.04980912432074547,0.0410773828625679,0.025382889434695244,-0.07860588282346725,-0.053192440420389175,-0.04847012832760811,0.0002710054686758667,-0.06218620017170906,0.02089446224272251,0.08134426176548004,-0.016244102269411087,-0.013720784336328506,-0.15398789942264557,0.053188715130090714,0.08714351058006287,-0.017854589968919754,0.02919004112482071,0.06325175613164902,