0.008342141285538673,-0.007091532461345196,0.0037172590382397175,0.025776004418730736,-0.026434103026986122,-0.02597605623304844,0.024745222181081772,0.004813946783542633,0.013694741763174534,0.020195025950670242,0.018540283665060997,-0.01875271089375019,0.013669518753886223,-0.015893204137682915,0.0008679061429575086,-0.022351540625095367,0.01232978980988264,-0.022292060777544975,-0.00856225285679102,-0.004146073013544083,0.0056050485000014305,0.010163161903619766,0.013936915434896946,-0.007291352842003107,-0.021869532763957977,0.0076421108096838,0.026564300060272217,-0.022345028817653656,-0.025872010737657547,-0.005418103653937578,0.016586804762482643,-0.022188110277056694,-0.01047311257570982,-0.021972082555294037,0.009152122773230076,0.011373622342944145,0.010102108120918274,0.0042356643825769424,0.010798171162605286,-0.016829567030072212,-0.015399596653878689,0.009436904452741146,-0.0191778764128685,0.011346154846251011,-0.014718473888933659,-0.028747161850333214,0.017857616767287254,0.011798013933002949,-0.006667460780590773,0.01140223816037178,0.026985013857483864,0.01236145943403244,-0.003033998189494014,-0.02109093964099884,0.01973443664610386,0.003375608939677477,0.01649921014904976,0.020924637094140053,0.007830800488591194,0.006326285656541586,0.0023465175181627274,0.0026514623314142227,0.018726002424955368,0.024324588477611542,0.0120921041816473,-0.00420801667496562,0.010490900836884975,-0.0053568752482533455,-0.004085799679160118,0.0008860016823746264,0.01681019924581051,0.024131877347826958,0.02618364430963993,-0.02408158965408802,-0.020561901852488518,-9.192165452986956e-05,0.009453028440475464,-0.01566978357732296,-0.004400776233524084,-0.005321493372321129,-0.00415183138102293,-0.011478968895971775,-0.017454147338867188,0.01861717738211155,0.028812922537326813,0.0029338307213038206,-0.008368391543626785,0.004138139542192221,-0.015450531616806984,-0.02708561345934868,-0.012474963441491127,-0.019723566249012947,0.013589165173470974,-0.008006771095097065,-0.0060804481618106365,-0.02635195478796959,-0.0007067381520755589,0.027481548488140106,0.0008256413857452571,-0.0061604902148246765,-0.02167643792927265,0.0035404888913035393,0.01633644662797451,-0.01254252903163433,-0.026587210595607758,-0.020410064607858658,-0.028378929942846298,0.0049252985045313835,-0.022808818146586418,-0.019095230847597122,0.011820727959275246,0.025691000744700432,0.01098362635821104,-0.022847238928079605,0.014907184056937695,-0.010447440668940544,-0.02831665240228176,-0.02499961480498314,-0.02080616168677807,0.015779977664351463,-0.005782931111752987,0.022532152011990547,0.017906062304973602,0.023377005010843277,0.0010008098324760795,-0.01885569468140602,-0.014165197499096394,-0.004275847226381302,-0.011650186963379383,0.026463622227311134,0.0040151197463274,0.022909682244062424,0.007618246134370565,-0.019827593117952347,0.011887159198522568,0.014559119008481503,-0.02658700756728649,0.013275675475597382,0.008909027092158794,-0.021465523168444633,0.027605706825852394,-0.02482503652572632,-0.004543702118098736,0.025602778419852257,0.02030213363468647,-0.025143710896372795,0.01872951164841652,0.028475310653448105,-0.01898646354675293,-0.019208800047636032,0.0032112151384353638,-0.013474595732986927,0.02434881404042244,-0.0009771334007382393,-0.015382511541247368,-0.0076004029251635075,0.024269841611385345,0.010528342798352242,-0.01947268657386303,-0.005422339309006929,-0.016183296218514442,0.015529931522905827,-0.003675913205370307,0.014529603533446789,0.02492249757051468,0.02247742936015129,-0.011815260164439678,-0.029238199815154076,0.0029980719555169344,-0.014245310798287392,-0.028569815680384636,0.015062598511576653,-0.025710418820381165,0.015178949572145939,-0.009590303525328636,-0.02940244786441326,0.01508665643632412,0.02815478853881359,-0.011888464912772179,0.01812581531703472,-0.011941861361265182,-0.010419256053864956,0.0249215979129076,-0.00817889254540205,-0.015111676417291164,0.003048891667276621,-0.028255164623260498,0.0051248446106910706,0.012817216105759144,-0.00026948991580866277,0.01879124529659748,-0.01795838586986065,-0.0081058694049716,0.029126936569809914,0.013606887310743332,0.021734798327088356,-8.811794396024197e-05,0.004671690985560417,0.003935418091714382,0.013768221251666546,-0.012604427523911,0.006447847932577133,-0.026407282799482346,-0.003461663844063878,0.026407627388834953,0.008845416828989983,0.010371200740337372,0.02453571930527687,0.0034980149939656258,-0.016455722972750664,-0.007709357421845198,0.02692711539566517,-0.0027049861382693052,0.017354188486933708,0.0029832266736775637,0.00860043428838253,-0.00974749680608511,0.010028749704360962,-0.0009391094208694994,0.02594956010580063,-0.004335771314799786,-0.021822825074195862,-0.019356461241841316,-0.014880652539432049,0.001020868425257504,-0.02379031479358673,-0.0019589688163250685,-0.006265614181756973,-0.00961367879062891,-0.008640983141958714,-0.02701469510793686,-0.011192651465535164,-0.011151045560836792,0.023051094263792038,0.0008584657916799188,0.012459875084459782,-0.007088483311235905,-0.009240086190402508,-0.028208604082465172,0.0007138773798942566,0.020899515599012375,0.014674304984509945,0.009738071821630001,0.01425860170274973,-0.021350860595703125,-0.00922428909689188,-0.014859525486826897,-0.013495237566530704,0.018839137628674507,-0.017908530309796333,-0.0012303648982197046,-0.004259321838617325,-0.012152285315096378,0.017009764909744263,-0.02484171651303768,-0.0012720981612801552