-0.025021012872457504,0.18159891664981842,-0.07530580461025238,-0.05564324930310249,0.009929518215358257,-0.004087371751666069,-0.0807863175868988,0.2708001732826233,-0.03807680308818817,0.017054032534360886,0.02174597606062889,0.03996942937374115,0.16054923832416534,-0.16462379693984985,-0.05136191099882126,-0.11057888716459274,-0.026412950828671455,0.05082719400525093,-0.009736987762153149,0.19830816984176636,0.06541955471038818,-0.015991980209946632,-0.035611771047115326,0.2813583016395569,0.12569481134414673,-0.05351519584655762,-0.07335201650857925,0.019688816741108894,0.07404377311468124,0.0640992596745491,-0.06911590695381165,-0.03623005002737045,0.03524598106741905,-0.03321760147809982,0.05942542105913162,-0.18059514462947845,-0.09070072323083878,-0.19836542010307312,-0.06691407412290573,0.01691741682589054,-0.17276833951473236,-0.19283612072467804,0.008664042688906193,0.07754845917224884,0.017049191519618034,0.08634305745363235,-0.06907016783952713,0.0788135901093483,-0.009582486003637314,-0.12839116156101227,-0.12134452909231186,-0.04885607212781906,0.08646134287118912,0.004400189034640789,0.05628066137433052,-0.18435871601104736,-0.010093264281749725,0.012382646091282368,0.2608847916126251,0.12230855226516724,0.07069255411624908,-0.03927765041589737,-0.04814346879720688,0.059984032064676285,-0.018947480246424675,-0.023130694404244423,-0.16839908063411713,0.11048431694507599,0.0206762608140707,-0.09594910591840744,-0.03336897864937782,0.016395799815654755,0.012330979108810425,0.109126515686512,-0.012149053625762463,-0.047734521329402924,-0.004311355762183666,0.20628896355628967,0.015536629594862461,0.059506215155124664,-0.03237371891736984,-0.03941633179783821,0.024549441412091255,0.012162565253674984,0.03161131590604782,0.002607929753139615,0.051286570727825165,-0.12464964389801025,-0.08210291713476181,0.008772946894168854,0.07761894166469574,-0.04288450628519058,-0.03810746595263481,-0.013784770853817463,-0.10866759717464447,-0.09825973212718964,0.009753378108143806,0.05108439177274704,-0.027490075677633286,0.0077933454886078835,-0.11364775151014328,-0.016248445957899094,-0.10076876729726791,-0.18440315127372742,0.0818534567952156,0.02272215113043785,-0.037759166210889816,0.0851266011595726,0.04327063262462616,-0.01683734729886055,0.011385169811546803,-0.06031156703829765,-0.014732973650097847,-0.01911401003599167,-0.02422979287803173,0.07522087544202805,0.09869346022605896,-0.06531307846307755,-0.34558767080307007,-0.07448721677064896,-0.02482038363814354,0.008464742451906204,0.03045528754591942,0.02189001813530922,0.20506714284420013,0.10888244956731796,0.0592241995036602,-0.013881517574191093,0.1122765988111496,0.0010753222741186619,0.044056739658117294,-0.03183629736304283,-0.027751367539167404,-0.13510875403881073,0.11195498704910278,0.1419723778963089,0.04802441596984863,-0.06454361230134964,0.0399150475859642,-0.008150625973939896,-0.008762679062783718,-0.13592219352722168,-0.014644819311797619,-0.14839570224285126,0.21454346179962158,0.06384385377168655,-0.051111407577991486,-0.009862344712018967,0.0018086248310282826,0.07899196445941925,0.058854758739471436,-0.060823239386081696,0.05777675658464432,-0.2374735027551651,0.1302434802055359,0.2018166184425354,-0.1376047134399414,-0.02121385931968689,-0.05798669531941414,0.03052496910095215,0.02936140075325966,0.013128562830388546,-0.15630851686000824,-0.12105575948953629,-0.08002844452857971,0.15154899656772614,0.06611385196447372,0.27642300724983215,0.07012361288070679,0.00812579970806837,-0.0038111598696559668,0.1689983755350113,0.07542330771684647,0.017601262778043747,-0.24271893501281738,-0.006686237640678883,0.022383110597729683,0.0055344379507005215,-0.008243056945502758,0.017511624842882156,-0.05096492916345596,0.10775499790906906,-0.21307490766048431,-0.08423634618520737,0.07718975841999054,0.1081276461482048,-0.1402035802602768,0.0933486819267273,-0.1390773206949234,-0.08689499646425247,-0.17501616477966309,-0.12535881996154785,0.01548130251467228,0.052641622722148895,-0.004990889225155115,0.05490522459149361,0.1461937427520752,-0.07608243077993393,0.0894165188074112,-0.025530697777867317,-0.0315733402967453,0.05723971500992775,0.13905006647109985,0.182549387216568,0.04574860632419586,-0.014380129054188728,0.044101782143116,-0.049276724457740784,0.13266733288764954,-0.06588108837604523,-0.037895333021879196,0.1719396859407425,0.04381588101387024,0.03682565689086914,0.005691182799637318,0.04647316411137581,-0.009535874240100384,-0.02370103821158409,0.0030460203997790813,0.02522118389606476,0.06335719674825668,-0.02464386448264122,0.08403842151165009,0.05112508684396744,-0.10778766870498657,0.03972814232110977,-0.07198958843946457,-0.06057053804397583,0.02601255662739277,0.04157532751560211,0.017084961757063866,-0.023960860446095467,-0.08455734699964523,0.14413124322891235,-0.08656830340623856,0.022688936442136765,-0.02823573909699917,0.09467186778783798,-0.04273008555173874,-0.10883664339780807,-0.08611225336790085,0.08553948253393173,0.029173292219638824,-0.09938471019268036,-0.0905996635556221,-0.07264293730258942,-0.1254589706659317,0.035176217555999756,0.08322005718946457,0.022980833426117897,-0.041723594069480896,0.15080368518829346,-0.04657530039548874,0.056191835552453995,0.12215031683444977,0.06893640756607056,-0.05465651676058769,-0.10882456600666046,-0.07930581271648407,0.027089135721325874,0.01087590679526329,-0.014186826534569263,0.026959538459777832,-0.02846422605216503,-0.06261259317398071,0.08728669583797455,-0.05641411617398262,0.0532432496547699,0.008141878060996532,-0.02632340043783188,0.03661124408245087,-0.11488809436559677,0.04869948327541351,0.0542224645614624,0.008104094304144382,0.12230809777975082,-0.056921832263469696,0.052473366260528564,0.0790829062461853,-0.1473689079284668,-0.12140867114067078,0.03622141107916832,0.0670369416475296,-0.09222297370433807,-0.04524575173854828,0.11790794134140015,0.019174687564373016,-0.013096563518047333,0.03105843998491764,0.16712182760238647,-0.00953895878046751,0.05244988575577736,-0.03510729968547821,0.0017588058253750205,0.08315965533256531,0.002020795363932848,-0.08914901316165924,-0.03417107090353966,-0.19403110444545746,-0.11978152394294739,0.041963208466768265,-0.06894754618406296,-0.10191185027360916,-0.007956361398100853,0.06928099691867828,0.1200164407491684,-0.02307375892996788,0.012271851301193237,-0.11012430489063263,0.0842209905385971,-0.14737212657928467,-0.05586050823330879,-0.04193568602204323,0.08451342582702637,0.0022315075621008873,0.02757345139980316,0.013433819636702538,0.004836362786591053,0.05044658109545708,-0.09986843168735504,0.1345597207546234,0.024345675483345985,-0.05277261137962341,-0.09092409163713455,0.018271554261446,-0.07050204277038574,-0.00707128643989563,-0.06032901257276535,0.01079176552593708,-0.015333698131144047,0.1392737627029419,-0.04067697376012802,0.003014476504176855,0.04144829511642456,-0.022516854107379913,-0.10748360306024551,0.05191940441727638,-0.1202704980969429,-0.08607840538024902,-0.013822786509990692,0.029324879869818687,-0.10746287554502487,-0.06341962516307831,0.014303299598395824,-0.09311298280954361,-0.03582208231091499,0.09864652156829834,-0.05103966221213341,0.05921578407287598,0.002950742607936263,0.05849786102771759,0.03425147756934166,-0.02152593433856964,0.07800300419330597,-0.003098925808444619,-0.06213771924376488,-0.06458484381437302,0.013682669028639793,-0.07141796499490738,0.030186522752046585,0.03948512300848961,0.059290919452905655,0.054495662450790405,0.055613089352846146,-0.11529599875211716,0.05282657593488693,0.112263984978199,-0.016225941479206085,-0.06350275129079819,-0.04467269033193588,0.1900487095117569,0.004399415105581284,0.06700597703456879,0.007269735913723707,0.0685257613658905,-0.08360793441534042,-0.11085792630910873,0.13628682494163513,-0.09382560849189758,-0.04005373641848564,-0.008794001303613186,-0.017198793590068817,0.008157680742442608,0.027124781161546707,0.06859766691923141,0.24017727375030518,0.03193993121385574,0.0359242781996727,-0.0021395375952124596,-0.040613818913698196,0.003078863490372896,0.0033788741566240788,-0.0844569131731987,0.023060360923409462,0.005480265244841576,-0.012839998118579388,-0.042995646595954895,0.08562275022268295,-0.0980570986866951,0.17481331527233124,-0.0636901780962944,0.003221984254196286,0.08086679130792618,-0.12322262674570084,0.013353003188967705,0.013013438321650028,-0.06363242864608765,-0.01462649367749691,0.010190482251346111,-0.04616019129753113,0.044906310737133026,-0.2717928886413574,0.009413781575858593,-0.059081412851810455,0.09542051702737808,-0.02638504095375538,-0.1230788379907608,0.1098078265786171,-0.03324684128165245,-0.03332401067018509,0.06413979083299637,0.10147345066070557,0.09839238226413727,-0.10275714844465256,-0.1057370975613594,0.005256445612758398,-0.19929060339927673,-0.0626753717660904,-0.024605438113212585,0.011735932901501656,-0.017857495695352554,0.007557339500635862,0.030908038839697838,0.027799559757113457,-0.020487993955612183,0.07657451927661896,0.04599843919277191,0.06287885457277298,-0.05182978883385658,-0.14273057878017426,0.09032534807920456,-0.03568563237786293,-0.013884116895496845,0.10208909958600998,-0.2139333337545395,0.04618872329592705,-0.03566247224807739,-0.005623552016913891,0.05814700201153755,-0.05723125860095024,-0.09330639243125916,-0.04586869105696678,-0.0681471973657608,0.02687249332666397,0.13988953828811646,-0.014240371063351631,0.06690635532140732,-0.04068014770746231,-0.051232047379016876,-0.0577385388314724,-0.12596723437309265,0.051361680030822754,0.014385836198925972,-0.11034251004457474,-0.11454100906848907,0.01896512694656849,-0.019683605059981346,-0.000743438140489161,-0.046551648527383804,-0.1101248636841774,-0.08449730277061462,-0.07768695801496506,0.016746994107961655,0.023224428296089172,-0.13129864633083344,0.0575912781059742,0.07942312955856323,-0.16218723356723785,0.0026371406856924295,0.18299318850040436,-0.13685299456119537,0.034564144909381866,0.05242811143398285,0.1564779132604599,-0.0001332023530267179,-0.270225465297699,0.14870668947696686,-0.14721842110157013,-0.14735005795955658,0.03169191628694534,-0.07749681174755096,-0.030783556401729584,-0.038206547498703,0.06887892633676529,0.11182813346385956,0.0882779136300087,0.07042434066534042,-0.12228474020957947,0.029836885631084442,-0.1083863154053688,-0.0992768332362175,0.031732045114040375,0.023203087970614433,-0.06251884251832962,-0.034911829978227615,-0.05825357511639595,0.03164435923099518,-0.03737153485417366,-0.019637715071439743,0.021452022716403008,-0.24927988648414612,-0.13521236181259155,0.06083490699529648,0.1319502890110016,-0.09649558365345001,0.0321798212826252,-0.0395967923104763,-0.042726781219244,-0.021836867555975914,0.00843456294387579,-0.15117426216602325,-0.012427147477865219,-0.07076005637645721,0.14914396405220032,0.21672795712947845,0.08673442900180817,-0.008866879157721996,-0.018994303420186043,-0.13610658049583435,0.16119666397571564,-0.09127523750066757,-0.03037705086171627,0.0955357626080513,-0.11584924161434174,0.052350565791130066,-0.03385474160313606,-0.0441141352057457,0.07834135740995407,-0.05157905071973801,0.062068451195955276,0.17144085466861725,-0.04303860291838646,-0.009691990911960602,-0.1522294133901596,0.039069630205631256,-0.15856970846652985,0.0430486686527729,-0.07496553659439087,0.0046210018917918205,-0.0021036327816545963,-0.012948472052812576,-0.018135450780391693,0.006834174506366253,0.018623793497681618,0.08651302009820938,-0.09771235287189484,0.032435789704322815,0.09099194407463074,-0.1081920713186264,0.058900732547044754,-0.11967047303915024,-0.05132538825273514,-0.07793346792459488,0.07843124866485596,-0.02524222992360592,-0.024045344442129135,-0.05002787709236145,-0.11210086941719055,-0.024915283545851707,-0.0395188145339489,0.02642117068171501,-0.1179473027586937,0.11291278898715973,0.010216052643954754,0.06067769601941109,-0.03803310915827751,0.057930368930101395,-0.15126629173755646,0.07170438766479492,0.01699860394001007,0.10568922758102417,-0.03526253253221512,-0.07990839332342148,-0.010159478522837162,-0.03538643568754196,-0.03523022681474686,0.07139401882886887,-0.009557689540088177,0.04692917689681053,-0.05938730016350746,-0.014956123195588589,0.012532727792859077,0.0366787388920784,-0.03582322970032692,0.03986065834760666,0.04719986766576767,-0.04408188909292221,0.003358361776918173,-0.10698168724775314,-0.0715283676981926,0.10993307828903198,0.017101310193538666,-0.005563617218285799,0.029533978551626205,-0.010521299205720425,0.024801868945360184,0.008981678634881973,-0.0074495840817689896,0.019129838794469833,0.05893620476126671,-0.0556647963821888,0.01849481090903282,-0.025526762008666992,0.10808082669973373,-0.026816194877028465,0.11981375515460968,-0.002279608743265271,-0.04372858256101608,-0.0987958014011383,0.01525210589170456,-0.013346773572266102,0.06034696102142334,-0.049779437482357025,0.10639933496713638,-0.09071476012468338,-0.06530486792325974,0.008395441807806492,-0.08745517581701279,0.01951613649725914,0.08584553003311157,-0.025447767227888107,-0.05309475213289261,-0.020066073164343834,-0.07983024418354034,-0.01902773790061474,-0.06085699796676636,0.045376379042863846,-0.05032330006361008,-0.03186865895986557,-0.0157802551984787,0.009744319133460522,-0.029630502685904503,0.023341543972492218,0.05041661113500595,0.04975105822086334,-0.011510061100125313,-0.09328155964612961,0.005127307493239641,-0.018832311034202576,0.02892494946718216,0.020571019500494003,0.05606410652399063,0.0008009669836610556,-0.069098100066185,-0.05211387574672699,0.033530913293361664,0.04928968474268913,0.05568366125226021,0.08072720468044281,-0.010487585328519344,0.005876458249986172,0.04681185632944107,-0.02206660993397236,0.08709653466939926,-0.008071073330938816,0.010303277522325516,0.008031520992517471,-0.007892738096415997,0.10019337385892868,0.06463939696550369,0.07281229645013809,-0.05879371985793114,0.007148061413317919,-0.08438865095376968,-0.05028694495558739,0.05923273786902428,-0.03287617117166519,0.021598679944872856,0.09627819806337357,0.10263897478580475,0.009719173423945904,-0.06660668551921844,0.06525985896587372,-0.10418637096881866,0.0735265389084816,-0.006453991401940584,-0.02116136997938156,-0.058470673859119415,-0.05365763232111931,-0.0005206016940064728,0.010674887336790562,-0.05944689363241196,0.06897500902414322,-0.06467151641845703,-0.015978338196873665,-0.07206964492797852,-0.043521516025066376,0.08523144572973251,0.04233387112617493,0.03527308627963066,0.12477050721645355,-0.028276165947318077,-0.10260970890522003,-0.0810866579413414,0.09910444170236588,-0.11195200681686401,0.041122741997241974,-0.13758349418640137,0.03203089162707329,-0.06132384017109871,-0.13076207041740417,0.007689827121794224,-0.037426769733428955,-0.06857290118932724,0.0473502054810524,0.09823662042617798,-0.07838309556245804,-0.1409229338169098,-0.053693074733018875,-0.006698833778500557,0.03387412056326866,-0.03917088359594345,0.05332137271761894,0.00257382751442492,-0.010048371739685535,-0.042463771998882294,0.010270331986248493,0.0008581994916312397,0.1086266040802002,0.17924945056438446,0.04618299752473831,-0.018196044489741325,0.02293454110622406,-0.07556982338428497,-0.013336419127881527,-0.13758419454097748,-0.050279125571250916,-0.07242850959300995,-0.037133242934942245,-0.02424568310379982,0.004854265134781599,0.0585007518529892,0.023309634998440742,-0.09583470225334167,-0.0012355229118838906,0.01163551490753889,-0.01725330390036106,-0.06938114762306213,-0.045351605862379074,0.03485875576734543,0.006809891201555729,-0.021537017077207565,0.06800084561109543,0.01308504305779934,-0.02342229150235653,0.07486837357282639,0.028390593826770782,-0.039430294185876846,0.013119329698383808,0.027137912809848785,0.029142018407583237,0.04071078449487686,-0.09014396369457245,0.017470045015215874,0.01488467212766409,0.07313168793916702,0.08138978481292725,0.034348804503679276,-0.026109645143151283,-0.1780049353837967,-0.05222253501415253,0.16615933179855347,0.10564807802438736,-0.1500602662563324,-0.04502782225608826,0.23371323943138123,-0.041861649602651596,-0.03851966932415962,0.09154750406742096,0.03490157052874565,-0.174189954996109,0.04377356171607971,0.1032586470246315,-0.05445430800318718,0.08568774163722992,-0.026590634137392044,-0.005969816353172064,0.10245079547166824,-0.01390397921204567,0.033632274717092514,-0.08842315524816513,-0.07367388159036636,0.042083874344825745,0.015574183315038681,0.03698534145951271,0.15947777032852173,0.0549788698554039,-0.14647138118743896,0.10678942501544952,0.017317013815045357,-0.020015068352222443,-0.07391351461410522,0.0022109164856374264,-0.18285395205020905,-0.08434469997882843,-0.043898217380046844,0.10397946089506149,-0.04010139778256416,-0.08721853792667389,0.0923864096403122,0.1280508041381836,0.0007649498293176293,0.13140840828418732,0.19134075939655304,-0.08498775959014893,0.015268910676240921,0.036088939756155014,-0.008004301227629185,0.040326397866010666,-0.09588842839002609,-0.04841463267803192,0.09950327128171921,0.044859472662210464,0.013791562989354134,-0.01516641303896904,-0.10223758220672607,-0.11678428947925568,0.11693204194307327,0.09747114032506943,-0.12352768331766129,0.10533503443002701,-0.20497013628482819,-0.04602670669555664,0.022076763212680817,-0.025308793410658836,0.07882615178823471,-0.02470391057431698,-0.006446297280490398,0.0018432860961183906,0.15483252704143524,-0.03817033767700195,0.13208813965320587,-0.05931868031620979,0.05757109448313713,-0.10580939799547195,-0.12558487057685852,0.1293160319328308,-0.033646322786808014,-0.013070088811218739,0.014467291533946991,0.018416740000247955,0.06161551550030708,0.033200282603502274,-0.1647886037826538,0.009506543166935444,-0.06132418289780617,-0.046046510338783264,-0.1398269683122635,0.05048847943544388,-0.05792122334241867,-0.004139428026974201,-0.025455286726355553,-0.12220683693885803,-0.07658364623785019,0.2045479565858841,0.21387629210948944,-0.02574853226542473,-0.11717558652162552,0.0948873832821846,-0.04970747232437134,0.10394246131181717,0.25320741534233093,0.03912588208913803,0.05228414013981819,0.054686885327100754,-0.0857909545302391,0.17788253724575043,-0.057109277695417404,-0.025302119553089142,0.03962654620409012,-0.031508609652519226,-0.009652715176343918,-0.14669091999530792,-0.02591717429459095,-0.1599646806716919,-0.028590574860572815,-0.22033676505088806,0.14765794575214386,0.03485511243343353,-0.12263748794794083,0.08135110139846802,-0.09616873413324356,-0.11499340087175369,-0.1569322645664215,0.23012492060661316,0.029091471806168556,0.054718829691410065,0.025929545983672142,0.08200466632843018,0.04395342245697975,0.08027610927820206,-0.08328143507242203,0.046131208539009094,-0.011405210942029953,0.04883899539709091,-0.04483496770262718,0.022582992911338806,0.0017291121184825897,-0.14548826217651367,-0.08371812850236893,-0.012147517874836922,-0.20012995600700378,0.17096677422523499,-0.18748162686824799,-0.19989852607250214,0.09449195861816406,0.09672407060861588,-0.02582915686070919,0.06174174323678017,0.0050187245942652225,-0.07482610642910004,-0.07708467543125153,0.0780433714389801,0.01241246983408928,0.10145316272974014,0.06603621691465378,-0.08221358060836792,-0.2233794629573822,0.10938987880945206,0.012018729001283646,-0.0908292829990387,0.09957431256771088,-0.119094118475914,0.16931641101837158,0.06816380470991135,-0.03953605890274048,0.014314435422420502,0.04297925904393196,0.13094116747379303,0.1762719601392746,0.042295947670936584,-0.04501110687851906,0.05810586363077164,0.033858273178339005,0.05293574929237366,-0.049688003957271576,-0.009253690019249916,1.7122074496001005e-05,-0.01316128484904766,-0.06416933238506317,0.08995787799358368,0.14957976341247559,-0.12254024296998978,0.03973226621747017,-0.08365839719772339,0.13679473102092743,-0.04442775249481201,-0.11995325237512589,0.012604250572621822,-0.021360425278544426,0.07908511906862259,0.06253993511199951,0.1172013208270073,-0.08019530028104782,-0.10011620074510574,-0.053375694900751114,-0.05572781339287758,0.03464759886264801,0.08335518836975098,0.04352688416838646,0.0303902979940176,0.06962909549474716,-0.05271150544285774,0.21045686304569244,-0.10129504650831223,-0.030791139230132103,-0.14122292399406433,-0.13511857390403748,0.011504022404551506,0.04532785341143608,0.024290744215250015,-0.1264221966266632,-0.004806900396943092,0.07598806172609329,0.06327583640813828,-0.029845701530575752,-0.045401692390441895,-0.0899403989315033,-0.06328608095645905,0.09114154428243637,-0.048638392239809036,0.005682016722857952,-0.1471133828163147,0.09753686934709549,-0.07156229019165039,-0.07416802644729614,-0.05736503377556801,0.14485158026218414,0.051403727382421494,0.2008877694606781,-0.02466973476111889,-0.00266748433932662,-0.1190817728638649,-0.12177950143814087,-0.15546712279319763,-0.073825404047966,0.07520588487386703,-0.20538128912448883,-0.2063886821269989,0.0056327274069190025,-0.053372688591480255,-0.05284351110458374,-0.0902867466211319,-0.0031085889786481857,0.1444324553012848,0.047130241990089417,-0.01898357644677162,-0.013121114112436771,0.10962634533643723,-0.07522261142730713,-0.10565970838069916,-0.024560660123825073,-0.0020624648313969374,-0.11909080296754837,0.08526214957237244,-0.08218083530664444,-0.0050027333199977875,-0.14233194291591644,-0.1469685584306717,-0.02850431762635708,-0.07423262298107147,-0.046299345791339874,-0.18872669339179993,0.11053065955638885,-0.062359344214200974,0.01494722068309784,-0.040527764707803726,0.011242133565247059,-0.032515738159418106,0.2153380811214447,0.044118523597717285,-0.03789759799838066,0.1275332272052765,-0.21803566813468933,0.015130753628909588,0.005287543870508671,0.012272713705897331,-0.09297411888837814,0.07810638844966888,0.15890862047672272,0.013051783666014671,-0.18826882541179657,0.01865961402654648,-0.01565246842801571,0.057949479669332504,0.06573259085416794,-0.06253430992364883,-0.049434613436460495,-0.09805163741111755,-0.06362102925777435,-0.06066468358039856,0.1071913093328476,-0.32489970326423645,-0.10416973382234573,0.059784185141325,-0.06504014879465103,-0.04465445131063461,-0.09445235133171082,0.17929676175117493,-0.0033945636823773384,-0.07098027318716049,0.09031025320291519,-0.0018937051063403487,-0.08390466123819351,-0.028918543830513954,-0.03307104855775833,-0.034912873059511185,0.1137857586145401,0.17723296582698822,-0.09654906392097473,0.049577780067920685,-0.011746605858206749,0.049808964133262634,-0.18397316336631775,0.1079624816775322,0.11987969279289246,0.08851595968008041,-0.023601504042744637,0.21510010957717896,-0.06038855016231537,0.07366089522838593,0.08266952633857727,-0.07809488475322723,-0.08952804654836655,-0.05700904503464699,0.14802224934101105,0.08288011699914932,0.07508622854948044,0.0027705517131835222,-0.013037478551268578,-0.03025740012526512,0.04683724790811539,0.04602152854204178,-0.1131010502576828,0.21326275169849396,0.15848439931869507,-0.06016506999731064,-0.037746746093034744,-0.2025832086801529,-0.08333870023488998,0.06745240837335587,-0.047800663858652115,0.13199499249458313,0.01911242865025997,-0.15756674110889435,0.05060506984591484,0.0939166322350502,-0.0786033496260643,-0.26584675908088684,0.07843583077192307,-0.007732169236987829,-0.017647726461291313,-0.06641307473182678,-0.04202549532055855,0.08549413830041885,-0.0770987719297409,0.004499364644289017,0.19134153425693512,-0.06136354058980942,0.1294156163930893,0.022368846461176872,0.027453133836388588,-0.18142548203468323,0.06252540647983551,-0.007753366604447365,0.050231728702783585,-0.023091072216629982,-0.03616122901439667,0.2520529329776764,-0.02528197318315506,0.08696619421243668,0.06812181323766708,-0.0729508101940155,-0.1491469442844391,-0.0024052117951214314,0.06958694756031036,0.036228470504283905,0.026753529906272888,-0.050238434225320816,-0.007956111803650856,-0.05046229436993599,-0.09972082078456879,0.009016257710754871,0.031826045364141464,0.04099462926387787,0.036094121634960175,0.06429649144411087,0.03023863583803177,-0.028567763045430183,-0.05278007686138153,-0.045389968901872635,0.06902827322483063,-0.003931370098143816,0.06165207549929619,0.06080586463212967,-0.034964606165885925,0.018002949655056,-0.009980025701224804,-0.007685342337936163,-0.04067844897508621,-0.011199490167200565,0.026050589978694916,0.018267903476953506,0.04379033297300339,-0.002747212303802371,0.054339855909347534,0.06780585646629333,-0.024298256263136864,0.0040216208435595036,-0.04674940183758736,-0.0032392286229878664,0.05792941525578499,0.03523930534720421,0.0011345873354002833,-0.04315667971968651,-0.028182823210954666,0.0328744500875473,-0.0682269036769867,0.0489540621638298,-0.0340665765106678,0.04053540900349617,0.018979761749505997,0.04207157343626022,0.019408807158470154,-0.051224369555711746,-0.016447575762867928,0.05382479727268219,-0.06109166517853737,0.03866392374038696,-0.06788226217031479,-0.06438322365283966,0.057151909917593,-0.06520889699459076,-0.02305597998201847,0.017458779737353325,0.00030806343420408666,-0.00462802778929472,0.0138379642739892,0.04723983258008957,0.01728636398911476,-0.044183939695358276,-0.00869797170162201,0.01713317073881626,0.03945872187614441,-0.04537458345293999,-0.01808895729482174,-0.02523515559732914,0.06626580655574799,0.0656413733959198,0.04884960129857063,-0.0017023516120389104,0.06989097595214844,-0.011408763006329536,-0.007117902860045433,-0.014671730808913708,-0.02175270766019821,0.07117589563131332,0.016052784398198128,0.05062451958656311,-0.05452598258852959,-0.06266812980175018,0.06549800932407379,0.0555056557059288,-0.01866595633327961,0.005405440926551819,-0.03859391063451767,-0.07046960294246674,-0.00842484924942255,0.07128050923347473,0.033185478299856186,-0.04242159426212311,-0.022817295044660568,-0.05618878826498985,-0.009835918433964252,0.06529329717159271,0.04341350868344307,-0.01860671676695347,-0.0008051174809224904,-0.019635535776615143,0.0634598359465599,0.07053613662719727,-0.0515826940536499,0.021490316838026047,-0.0662996768951416,-0.03772281855344772,-0.04908335581421852,0.06548748910427094,-0.05856253579258919,-0.01663995161652565,0.045408908277750015,0.05939052253961563,-0.05945555493235588,-0.055935315787792206,-0.05887943133711815,-0.04137920215725899,-0.05425610393285751,0.027509579434990883,-0.005351832136511803,0.057085070759058,-0.06504286080598831,-0.06123831868171692,0.054650645703077316,-0.05321837216615677,0.04773912951350212,0.06577527523040771,0.028158115223050117,0.04412848502397537,-0.04033366218209267,0.05971527844667435,0.05869770422577858,0.03917050361633301,-0.05053253099322319,-0.013956867158412933,-0.021388521417975426,-0.004554763901978731,0.06101352348923683,-0.05838130787014961,0.04704875871539116,-0.05635024234652519,-0.02974606677889824,0.05792618915438652,-0.023289574310183525,0.06837983429431915,0.03734374791383743,-0.06302841752767563,-0.05522817000746727,0.05053449422121048,0.049189161509275436,-0.06298638880252838,0.04752705991268158,0.004142331890761852,0.059528619050979614,0.06978537887334824,-0.03807270899415016,0.03790917992591858,0.07157385349273682,-0.0077063823118805885,-0.03742191195487976,-0.006003888323903084,-0.008377612568438053,-0.010215279646217823,0.03558363765478134,0.037502922117710114,0.06582911312580109,0.026332397013902664,0.03638804703950882,0.02912679687142372,0.015299987979233265,-0.03613217920064926,-0.0023025397676974535,0.028915056958794594,-0.014343381859362125,-0.04062853381037712,-0.03475567325949669,-0.04971003904938698,0.02841961570084095,0.0010024883085861802,0.006547737866640091,0.07168220728635788,0.020833732560276985,0.039944663643836975,-0.025049176067113876,-0.058081209659576416,0.05537945777177811,0.03573746979236603,0.06618911772966385,-0.03053908795118332,-0.07016468793153763,-0.03998497501015663,-0.07107818126678467,0.0049210102297365665,0.01358084101229906,-0.02566765435039997,-0.04944847151637077,0.03237948194146156,-0.029434744268655777,0.032910898327827454,-0.06299830973148346,0.04945635795593262,0.04385850206017494,0.04058510437607765,0.06305257976055145,0.10673319548368454,0.006811928004026413,-0.018001271411776543,0.04281027242541313,0.017911985516548157,0.024533767253160477,0.021641630679368973,-0.045836400240659714,0.03035290725529194,0.02726595103740692,0.061091262847185135,0.04704267159104347,-0.07085463404655457,0.06911416351795197,-0.03146589919924736,0.016845954582095146,-0.029010258615016937,-0.03153405711054802,0.005334238521754742,-0.03131614625453949,0.064207524061203,0.006944530177861452,0.005218626465648413,0.003916400484740734,0.008927624672651291,0.013909666799008846,0.04768481105566025,-0.05111788585782051,0.009842045605182648,-0.07191269099712372,0.048942435532808304,0.01850212924182415,0.04067148640751839,-0.01936137117445469,0.017080092802643776,0.04386736452579498,-0.026285041123628616,-0.03145352005958557,0.024489136412739754,-0.024681514129042625,-0.03314157575368881,-0.008619491010904312,0.047158729285001755,-0.01569351740181446,0.014123545959591866,-0.04669969156384468,-0.0037353592924773693,-0.035777751356363297,-0.06500915437936783,0.0725664272904396,-0.025470761582255363,-0.025941848754882812,0.06120765209197998,0.060558706521987915,0.04033978655934334,-0.03840400651097298,-0.026288926601409912,-0.043501704931259155,-0.007320838514715433,0.004667478147894144,-0.03563779592514038,-0.006120956502854824,-0.11971341073513031,-0.10213825106620789,-0.03515657037496567,0.0037863615434616804,-0.07738474011421204,-0.03627737984061241,-0.04108031466603279,0.0041826325468719006,-0.056392572820186615,-0.008721444755792618,-0.03401496633887291,0.05870566889643669,0.049441780894994736,0.017898015677928925,0.06344787031412125,-0.05849706754088402,-0.019815608859062195,0.07923807203769684,-0.04892316460609436,-0.09534050524234772,-0.021731054410338402,-0.055654093623161316,-0.036155663430690765,0.061680614948272705,0.017278701066970825,0.05408423766493797,0.021363958716392517,-0.03752300143241882,-0.012561163865029812,-0.020367393270134926,0.010892878286540508,0.006380957085639238,0.014979108236730099,-0.06196380406618118,-0.05665464326739311,0.0062623717822134495,-0.04825865849852562,-0.03712400421500206,-0.022908890619874,0.05856962874531746,0.03771965205669403,0.013015295378863811,0.02652079239487648,-0.06194617226719856,-0.040111735463142395,0.0406244620680809,-0.04321644455194473,0.0781705230474472,0.02719433605670929,-0.008806183002889156,0.06777802854776382,-0.024343028664588928,0.07251125574111938,0.005570899695158005,-0.04778887331485748,0.03907955810427666,0.07701675593852997,-0.03613171726465225,-0.026952650398015976,0.033599961549043655,-0.030963078141212463,-0.024973642081022263,-0.09560757130384445,-0.05585143342614174,0.02015232853591442,0.011063287034630775,-0.009171395562589169,-0.027773667126893997,0.017801480367779732,0.04199793189764023,-0.04301594942808151,-0.017448527738451958,0.023039907217025757,-0.012485623359680176,-0.02188238874077797,0.027382289990782738,0.08566824346780777,0.03220680356025696,-0.04919041320681572,0.040300171822309494,-0.0073743099346756935,0.01667408086359501,0.03606729954481125,-0.03990362584590912,0.03464874252676964,0.048123568296432495,-0.039394229650497437,0.02086605504155159,0.01894989237189293,0.05121499300003052,0.0448971763253212,-0.022412119433283806,5.923106800764799e-05,-0.07994505017995834,0.012497755698859692,0.02850506082177162,0.04248128831386566,0.02963072434067726,0.042259808629751205,-0.012600127607584,-0.048103008419275284,-0.05767820030450821,-0.03759690374135971,-0.08355621993541718,-0.03764985874295235,0.05384024232625961,-0.04965034872293472,-0.045700348913669586,0.03375352919101715,0.04927746206521988,0.050640784204006195,0.008458946831524372,0.050689876079559326,0.0020594114903360605,-0.015941159799695015,-0.0103259002789855,-0.005230054724961519,0.05243026837706566,0.028013920411467552,-0.04137031361460686,-0.037527721375226974,0.007913639768958092,-0.08045609295368195,0.20155936479568481,-0.13097751140594482,-0.01700502634048462,0.013788575306534767,0.01611139439046383,0.015761036425828934,-0.0864243134856224,0.009112558327615261,-0.06289415061473846,0.0998612716794014,0.08847296237945557,-0.10694931447505951,0.08743936568498611,-0.033988866955041885,-0.03807935118675232,-0.08022294193506241,-0.07015305757522583,-0.024710174649953842,0.10578642785549164,-0.1056954562664032,-0.038042809814214706,0.03357724845409393,-0.017925139516592026,0.09702153503894806,0.012837409041821957,-0.11419714242219925,-0.06660213321447372,-0.006703311577439308,-0.035134315490722656,0.03636033833026886,-0.020031070336699486,0.014887750148773193,0.0864403173327446,0.01616205833852291,0.011613843962550163,-0.12667112052440643,-0.0994792953133583,0.03936432674527168,0.007201438769698143,0.04973722621798515,-0.10310905426740646,-0.08703010529279709,0.06812632828950882,-0.08716973662376404,-0.021673640236258507,-0.15254761278629303,0.14858290553092957,-0.026148445904254913,-0.024323007091879845,0.009628728963434696,0.024258101359009743,-0.007198708597570658,0.05328411981463432,-0.0837203785777092,-0.004583301488310099,-0.03755680471658707,-0.08250412344932556,0.11439356952905655,0.175260528922081,-0.021417131647467613,-0.00825896393507719,0.07205035537481308,0.09948816150426865,0.14412453770637512,-0.010135548189282417,-0.002605191431939602,0.020617760717868805,0.05607243627309799,-0.0850624367594719,-0.03494502976536751,-0.16794085502624512,-0.037188153713941574,0.0012025117175653577,0.03106951154768467,0.06240401417016983,-0.14527255296707153,-0.010521531105041504,0.11028755456209183,-0.006519371643662453,-0.08216952532529831,-0.012861515395343304,0.031241921707987785,-0.07534091919660568,0.018226725980639458,-0.041910845786333084,0.09642042219638824,-0.036254819482564926,0.07897288352251053,-0.06897392868995667,-0.08102505654096603,0.06304745376110077,-0.09368398040533066,0.0373813770711422,-0.11905558407306671,-0.12072876840829849,0.01628842018544674,0.03362678363919258,-0.06938865035772324,0.0853320062160492,0.18729832768440247,0.08457636833190918,0.03020765259861946,0.05391892045736313,0.017946777865290642,-0.039183538407087326,-0.10946986824274063,0.011697202920913696,-0.05498815327882767,-0.026525123044848442,-0.056282900273799896,-0.03704363480210304,-0.028571540489792824,-0.024583447724580765,0.057383548468351364,0.012738706544041634,0.11722175031900406,0.024804849177598953,0.07514437288045883,-0.19523926079273224,0.05733197554945946,0.002595342230051756,0.021271947771310806,-0.009028098545968533,0.1873949021100998,0.0692162960767746,0.0743521973490715,-0.05686316639184952,0.1335395723581314,-0.12405255436897278,-0.04479808732867241,-0.17209544777870178,-0.0035848363768309355,0.009281747974455357,-0.04823911935091019,-0.06563498824834824,-0.06964907050132751,0.04473373666405678,-0.02705109305679798,0.0411616712808609,0.08530743420124054,0.044597823172807693,0.019306084141135216,-0.07788015902042389,-0.06524725258350372,0.08264096081256866,0.023381687700748444,-0.02353108674287796,0.05479075387120247,0.011430109851062298,-0.0417337641119957,-0.008060419000685215,0.1154894009232521,0.017185619100928307,-0.045554254204034805,0.09503452479839325,-0.0012952942634001374,0.05834357067942619,0.14699888229370117,0.04479242488741875,-0.08829854428768158,-0.02658012881875038,-0.10174716264009476,-0.10824514180421829,-0.12253351509571075,-0.12172769010066986,-0.049185968935489655,0.10704810917377472,-0.08630133420228958,0.04527731239795685,0.03425673022866249,0.027136730030179024,0.003294497961178422,0.1070629432797432,-0.023053742945194244,-0.04681118577718735,-0.05527065321803093,0.06719740480184555,-0.0009716612985357642,-0.03229457885026932,-0.006738758180290461,0.021222300827503204,0.03153740242123604,-0.003719077445566654,-0.08780164271593094,-0.14260858297348022,0.061557967215776443,0.10422420501708984,-0.022630224004387856,-0.04844837635755539,-0.08558832854032516,0.09312443435192108,0.18294665217399597,0.060915667563676834,-0.05897613614797592,-0.07744727283716202,0.10261868685483932,-0.07583988457918167,0.024778231978416443,-0.117827408015728,-0.15548521280288696,0.03958111256361008,-0.030377084389328957,0.09476138651371002,-0.16641885042190552,-0.02156698703765869,0.09267962723970413,-0.06026741489768028,-0.01893404684960842,0.1580997258424759,-0.038955263793468475,0.04873519018292427,0.14639678597450256,-0.06676498055458069,-0.031597740948200226,-0.08078178763389587,-0.058336254209280014,0.10043559223413467,0.11236496269702911,0.06504303216934204,-0.03354324772953987,-0.026797311380505562,0.02809782698750496,-0.22325542569160461,0.0864122211933136,0.0344480536878109,-0.10649439692497253,0.13716799020767212,-0.1296122521162033,0.10865231603384018,0.05974608287215233,-0.264423668384552,-0.01066069770604372,-0.01950068399310112,-0.0625893622636795,0.09688719362020493,-0.06994297355413437,-0.030134813860058784,-0.013465485535562038,-0.025449607521295547,-0.01431815605610609,-0.005974846426397562,-0.07436607033014297,-0.10156790912151337,0.05959019064903259,-0.06068529188632965,-0.020604975521564484,0.035736627876758575,0.13167467713356018,-0.06746191531419754,0.07395002990961075,0.044402625411748886,-0.0015952850226312876,-0.14394626021385193,-0.083690345287323,0.000999912153929472,0.041499488055706024,0.0401114858686924,-0.05434790253639221,-0.006262544542551041,-0.1056574285030365,-0.07158632576465607,-0.09449992328882217,-0.051346249878406525,0.1487785130739212,-0.11622335761785507,-0.06812363117933273,0.014683178626000881,0.075385682284832,0.17204906046390533,-0.05059690400958061,-0.07184936851263046,-0.06676193326711655,0.003203669562935829,-0.12843194603919983,-0.07966075837612152,-0.03319777175784111,0.10689742118120193,-0.06723319739103317,0.08160944283008575,-0.020417550578713417,0.016923777759075165,-0.09939085692167282,0.0400451235473156,-0.003876783885061741,0.01187404990196228,0.14837418496608734,0.03760170191526413,-0.09881097823381424,-0.057987358421087265,0.03652065619826317,0.028659164905548096,-0.030809421092271805,-0.004673914518207312,0.11546249687671661,0.08524103462696075,0.14786209166049957,0.004403141792863607,0.12220514565706253,0.03171079233288765,-0.04353249818086624,-0.006741470191627741,-0.12727926671504974,-0.014604116789996624,-0.025334930047392845,-0.08247292786836624,0.047458864748477936,-0.11080615967512131,-0.025046467781066895,0.11072678118944168,-0.17715856432914734,0.07786976546049118,-0.009774522855877876,0.060024745762348175,-0.018909377977252007,-0.01894770748913288,0.04760513827204704,0.043287135660648346,-0.06056179106235504,0.028432810679078102,0.28612521290779114,-0.03300381451845169,0.009712561033666134,-0.07231256365776062,0.104578398168087,0.010538819245994091,-0.20608559250831604,-0.03606031835079193,0.1172540932893753,0.01689082942903042,-0.08298429101705551,-0.0014913002960383892,-0.1472230851650238,0.07263790816068649,0.005911160726100206,0.02572507970035076,0.027501994743943214,0.33824458718299866,-0.04097513109445572,0.020407697185873985,-0.10093730688095093,-0.1444900929927826,-0.07155273854732513,-0.11810135096311569,0.003572346642613411,0.24238230288028717,0.00814402662217617,0.01890556514263153,-0.04163185507059097,-0.12100693583488464,0.11923383921384811,-0.2859739065170288,0.07664694637060165,-0.019624562934041023,-0.008772091940045357,-0.006993566639721394,0.13095802068710327,-0.08153103291988373,-0.029007837176322937,-0.028329899534583092,-0.04471547156572342,0.12275227904319763,0.06154386326670647,0.002927746158093214,0.06456805765628815,0.07912556827068329,0.00015210620767902583,-0.05505220219492912,-0.06665043532848358,0.08050229400396347,-0.02812642976641655,-0.017323240637779236,-0.024248789995908737,0.02992221713066101,-0.049234092235565186,-0.013664668425917625,-0.018812142312526703,-0.013843754306435585,0.013794204220175743,0.03593144193291664,-0.1257152408361435,0.09621287137269974,-0.014046135358512402,0.049577634781599045,0.1113966554403305,-0.23098433017730713,0.10105251520872116,-0.21795344352722168,0.020824622362852097,-0.07829801738262177,-0.12186039239168167,0.08783893287181854,0.11321337521076202,0.026261789724230766,0.05871967598795891,0.24065393209457397,-0.10450522601604462,-0.024756111204624176,0.015861190855503082,0.04818471893668175,0.0830458402633667,-0.04007118567824364,-0.21931752562522888,0.0027226335369050503,-0.028928499668836594,0.07094021886587143,0.1538800448179245,0.04649007320404053,0.1711011379957199,-0.040039461106061935,0.0008893938502296805,-0.013595156371593475,-0.060911040753126144,0.18211904168128967,-0.03914027661085129,0.004114771727472544,-0.0035555853974074125,-0.06149141117930412,0.01837690733373165,0.09739357978105545,0.037536151707172394,-0.23004715144634247,0.06640691310167313,-0.10514085739850998,-0.019772620871663094,-0.06610098481178284,0.09219663590192795,0.08391528576612473,0.11320891231298447,-0.0737181007862091,0.0268000066280365,-0.0768374353647232,-0.05378560349345207,-0.01939542032778263,-0.022409221157431602,-0.0739976093173027,0.03733774274587631,0.1008901596069336,-0.011737380176782608,-0.03776960447430611,0.016655348241329193,0.03119218535721302,-0.007212779019027948,0.0028051254339516163,0.13476985692977905,-0.02221386693418026,-0.0957103818655014,0.007353681605309248,-0.10275701433420181,-0.005492546129971743,0.06490184366703033,-0.044603146612644196,0.038446586579084396,0.04444306716322899,-0.03531234338879585,-0.09450314193964005,0.08111171424388885,0.059172622859478,0.0713435485959053,0.023014582693576813,0.040535129606723785,0.012250066734850407,0.008402623236179352,0.1313556432723999,-0.06414678692817688,0.013505400158464909,0.11606098711490631,-0.22343996167182922,0.01429557055234909,0.11183569580316544,-0.15615303814411163,-0.03626888617873192,-0.04542408511042595,-0.14899204671382904,0.10091810673475266,-0.04585772007703781,0.03254140540957451,0.16640692949295044,0.22188875079154968,-0.10409637540578842,0.06327559053897858,-0.031495001167058945,0.054225534200668335,0.020132629200816154,-0.25744861364364624,-0.09864664822816849,-0.009281400591135025,0.055197667330503464,0.2989480793476105,-0.03378981724381447,0.13797880709171295,0.02505788393318653,-0.0629536435008049,-0.026813484728336334,-0.25373685359954834,-0.038465481251478195,0.06013321131467819,-0.05699159950017929,0.010251397266983986,-0.2161930352449417,0.11468178033828735,0.03848693147301674,0.025981713086366653,-0.024034792557358742,0.1435878872871399,0.026819057762622833,0.06431198120117188,0.020168663933873177,-0.06441248953342438,0.0044324565678834915,0.27139607071876526,-0.14652326703071594,-0.11463877558708191,-0.00804442260414362,0.06790050119161606,0.08449357748031616,-0.12433185428380966,0.10482623428106308,-0.02450772002339363,0.009615070186555386,0.011700632981956005,0.015905484557151794,-0.15843114256858826,-0.08628562092781067,-0.1255175620317459,0.15376365184783936,-0.04538027569651604,-0.05910404399037361,0.07280010730028152,-0.10223761200904846,-0.08700501173734665,0.09053340554237366,-0.06841043382883072,-0.044636573642492294,0.06614898890256882,0.0856323316693306,-0.022413840517401695,-0.09735648334026337,-0.07560618966817856,-0.21853923797607422,-0.11369998753070831,0.1087605357170105,-0.04995441436767578,0.04615248367190361,-0.06583166122436523,0.003919325303286314,0.36502400040626526,0.07732903957366943,0.1907324492931366,0.2515030801296234,-0.048008207231760025,0.08331497013568878,-0.12884822487831116,-0.018526580184698105,0.07523048669099808,-0.005701756104826927,-0.08118268102407455,0.018980566412210464,-0.18441076576709747,-0.0034508639946579933,0.08116219937801361,0.05839431658387184,0.09489035606384277,-0.0477670356631279,0.03811613470315933,0.04394380748271942,0.09612570703029633,0.12242332845926285,-0.0008912237244658172,0.0603865347802639,0.13372057676315308,-0.037833038717508316,-0.027188366279006004,-0.005663392599672079,0.011407551355659962,-0.023875972256064415,-0.047420479357242584,-0.11780223995447159,0.04010847210884094,0.03683852776885033,-0.04348588362336159,0.11233731359243393,-0.022457722574472427,-0.05793437734246254,-0.09245689958333969,-0.022630983963608742,0.08348815888166428,-0.03651092201471329,0.23099832236766815,-0.06365562975406647,0.035726748406887054,0.04237719252705574,0.07380499690771103,-0.0030852495692670345,0.02179642580449581,0.1440834105014801,0.11050146073102951,-0.120883509516716,-0.05017181113362312,-0.010773944668471813,-0.10387369245290756,0.054044876247644424,-0.0030654172878712416,-0.02883177436888218,-0.013253274373710155,-0.11806758493185043,0.08020002394914627,-0.008748945780098438,0.07478561252355576,-0.1825646609067917,0.09794475138187408,-0.04444369673728943,-0.05371610075235367,-0.014750784263014793,0.06746822595596313,0.09206636995077133,0.04962485283613205,-0.0026185009628534317,-0.01952824741601944,0.010338429361581802,-0.08048436045646667,0.0621258020401001,0.007982808165252209,-0.09090673178434372,-0.12388858199119568,-0.13153775036334991,-0.04341396316885948,0.0350157767534256,0.010259173810482025,-0.07429049909114838,-0.00037536968011409044,-0.14205412566661835,-0.07864134013652802,0.07652644068002701,-0.004943971522152424,0.018984856083989143,-0.0501447394490242,-0.022554095834493637,-0.08897747099399567,-0.012019112706184387,-0.0544988252222538,0.12363013625144958,-0.0008973033400252461,-0.020292550325393677,0.060564495623111725,0.07207926362752914,0.05772829055786133,-0.059536322951316833,0.0321274995803833,-0.07674972712993622,-0.0306982584297657,0.05578252300620079,0.042564645409584045,-0.05461356043815613,-0.07167202979326248,-0.010655115358531475,-0.054437220096588135,0.05147675424814224,-0.13039866089820862,-0.03459138795733452,0.023702606558799744,0.008847145363688469,-0.007795239798724651,0.06915852427482605,-0.020752595737576485,-0.06688235700130463,0.15024052560329437,0.11482897400856018,-0.05823396146297455,0.12400368601083755,-0.1534036099910736,-0.06644977629184723,0.0551387295126915,0.058331944048404694,0.06333204358816147,-0.22424106299877167,-0.041813530027866364,-0.07215707749128342,-0.04720030352473259,0.1745380014181137,-0.015979506075382233,-0.05032152310013771,-0.1011667400598526,-0.027667811140418053,0.17069372534751892,-0.02940988913178444,0.04564082249999046,-0.06301038712263107,-0.0001113160906243138,0.020036160945892334,0.07451172173023224,0.08444851636886597,-0.06614884734153748,-0.07901155948638916,0.02518831565976143,-0.08488654345273972,0.1014401838183403,0.008168543688952923,-0.0505983904004097,-0.022019434720277786,0.0741034671664238,-0.006565968971699476,-0.1047782450914383,-0.14516645669937134,0.018753444775938988,-0.11479326337575912,0.08971390128135681,0.0017283750930801034,-0.11650104075670242,-0.028886552900075912,-0.04732418805360794,-0.056290511041879654,0.06127218157052994,0.004460019990801811,0.09285174310207367,0.19767072796821594,-0.12490402907133102,-0.04709750413894653,0.01974630355834961,0.012450091540813446,-0.06265585124492645,0.10647138953208923,-0.21140414476394653,-0.10846833884716034,-0.09474074840545654,0.02353113889694214,0.0014459992526099086,-0.06762291491031647,-0.05194377526640892,0.007000680081546307,-0.0524032898247242,0.08269531279802322,0.05119914561510086,-0.05922844260931015,-0.03032957948744297,-0.017426250502467155,0.14557747542858124,0.06867177039384842,-0.14897549152374268,0.045258957892656326,0.0430329330265522,-0.06070997193455696,0.04660199210047722,-0.08386863768100739,0.027262089774012566,0.06848651170730591,0.11299584060907364,0.004351179581135511,0.02192547172307968,-0.012005847878754139,0.02912355586886406,0.020252205431461334,-0.11558851599693298,0.07649636268615723,-0.0070732529275119305,-0.030924467369914055,-0.09756594151258469,0.05602746084332466,-0.10076885670423508,0.04427265375852585,-0.1626584827899933,0.095880888402462,-0.08977372199296951,0.011389989405870438,0.043825820088386536,-0.01831771247088909,0.10119931399822235,0.017423303797841072,0.12783975899219513,-0.28495290875434875,0.11242082715034485,-0.1364520937204361,-0.06915558129549026,0.11314737796783447,-0.061753686517477036,-0.316114604473114,0.0926775261759758,0.011793800629675388,-0.12436740845441818,-0.24478287994861603,0.001383181312121451,0.0793587788939476,-0.08284110575914383,0.1256682425737381,0.015457747504115105,-0.0350821428000927,0.2031276822090149,-0.10357430577278137,-0.010811668820679188,-0.026126818731427193,0.10383665561676025,-0.004788761958479881,-0.12480077147483826,0.0537477470934391,0.001760305487550795,0.010680224746465683,-0.11553985625505447,0.07911711931228638,-0.02009175531566143,-0.009205120615661144,-0.01223224401473999,0.12285368144512177,-0.023650765419006348,0.4221683442592621,-0.059641461819410324,0.10947886109352112,-0.0892486646771431,-0.0037026803474873304,-0.000637149962130934,0.03635203093290329,0.11758115142583847,-0.16714835166931152,0.016152311116456985,0.007230907678604126,-0.009429415687918663,0.0030644256621599197,0.20409661531448364,-0.08132787048816681,-0.08507823199033737,0.0025027438532561064,0.07476411759853363,0.1816014051437378,-0.004599407315254211,0.12990586459636688,-0.032974012196063995,-0.15458709001541138,-0.09295724332332611,0.01994313672184944,-0.06566132605075836,0.11828598380088806,0.011150170117616653,-0.05619916692376137,0.03764492645859718,0.28016674518585205,-0.035461459308862686,-0.08794257789850235,0.17646797001361847,0.05568363517522812,-0.0448501817882061,0.015586839988827705,0.0369701087474823,0.011262902989983559,0.14856109023094177,0.012534420937299728,-0.011448127217590809,-0.034480106085538864,-0.0802934393286705,-0.12026310712099075,0.11135866492986679,0.03966201841831207,0.11201845109462738,0.21680134534835815,0.022728150710463524,-0.05047782137989998,0.15653833746910095,0.22334803640842438,-0.015494775958359241,0.015784157440066338,0.13696914911270142,0.050176747143268585,0.2776312232017517,0.043015699833631516,0.09334540367126465,-0.10368862003087997,0.0055043743923306465,0.12169673293828964,0.17827297747135162,0.1949661374092102,0.15633374452590942,0.005281298886984587,-0.1127462312579155,-0.07495195418596268,0.02817635051906109,0.12031346559524536,-0.11381498724222183,0.10053116083145142,0.04484378919005394,0.010253152810037136,-0.11600017547607422,-0.09639963507652283,-0.03526123985648155,0.09085936844348907,0.1452447772026062,-0.08217763155698776,-0.1533631682395935,0.13959309458732605,0.2526003122329712,-0.04897376894950867,-0.12655173242092133,-0.20190168917179108,-0.09286734461784363,0.01039454247802496,0.036072421818971634,0.16888344287872314,-0.2044285535812378,-0.2531222403049469,0.20046335458755493,-0.23385711014270782,-0.040946006774902344,-0.05780256539583206,-0.15193644165992737,-0.05612551420927048,0.08696793019771576,0.0963277518749237,-0.08408448845148087,-0.0763646811246872,-0.15500740706920624,0.08451640605926514,-0.045762937515974045,0.2096424549818039,-0.13947349786758423,0.015466208569705486,-0.10700445622205734,0.1174110397696495,-0.016946347430348396,-0.11498656868934631,-0.04812006652355194,-0.06414052098989487,-0.04750947654247284,-0.007174591533839703,0.014958190731704235,-0.06112119182944298,-0.19060580432415009,-0.08878948539495468,-0.0819522887468338,-0.15940004587173462,-0.2552596926689148,0.07082352787256241,-0.030586840584874153,-0.02154414728283882,0.07950405031442642,0.010607946664094925,0.14855749905109406,0.002105400897562504,-0.021926917135715485,-0.0027950676158070564,-0.05784166231751442,-0.23445609211921692,0.0009911650558933616,0.03706829249858856,-0.1536647379398346,-0.07097910344600677,0.07847572863101959,0.07345984131097794,-0.13428376615047455,-0.046070508658885956,-0.12385421991348267,-0.006372143980115652,-0.08626201003789902,0.014241477474570274,-0.18306982517242432,0.022693779319524765,0.05794337019324303,-0.03411805257201195,-0.15402129292488098,-0.006606034003198147,0.1008421778678894,0.049048956483602524,-0.12115196138620377,-0.15674591064453125,0.003113472368568182,0.014304724521934986,-0.035272035747766495,0.03683961182832718,-0.10391935706138611,0.14355170726776123,0.11539326608181,0.026085836812853813,-0.0148910041898489,0.04907423257827759,-0.13941539824008942,0.1015220358967781,-0.11637329310178757,-0.19366280734539032,-0.004783065058290958,-0.10261190682649612,0.11715659499168396,-0.11924595385789871,-0.030105510726571083,-0.05522305890917778,-0.028954297304153442,0.037118759006261826,-0.0719577968120575,0.005814254749566317,-0.07956933975219727,0.047422293573617935,-0.01204110961407423,-0.0526164248585701,-0.030702093616127968,0.04732979089021683,0.04078169912099838,0.010009042918682098,0.0391136035323143,0.053133439272642136,0.0641523078083992,0.1793791651725769,-0.1821325719356537,0.11560807377099991,-0.08234335482120514,-0.014040091075003147,0.09507938474416733,-0.005495247896760702,0.007662968244403601,0.06098971143364906,0.10394395142793655,-0.13961726427078247,-0.05177010968327522,-0.10297298431396484,0.04182538017630577,-0.018483063206076622,-0.03970000147819519,0.0704837217926979,-0.09340904653072357,-0.15748628973960876,0.06804584711790085,-0.267862468957901,0.10182557255029678,-0.008217062801122665,-0.11686112731695175,-0.04086450859904289,0.10416211187839508,-0.28747400641441345,0.025537671521306038,-0.10639464855194092,0.1690162867307663,0.10028514266014099,0.21251823008060455,-0.09030386060476303,0.15277844667434692,-0.07638581842184067,-0.06060618907213211,0.06027385592460632,-0.04559359326958656,0.10689923167228699,-0.11294668912887573,0.03665345162153244,-0.05340825021266937,0.013986026868224144,0.16909722983837128,-0.11446809768676758,-0.11170423775911331,0.21472594141960144,-0.1847432553768158,-0.1656690388917923,-0.07960435003042221,-0.04371745139360428,-0.09518931806087494,0.06572957336902618,-0.0635867640376091,-0.11685722321271896,-0.06616146117448807,-0.005748923867940903,-0.06071208044886589,0.15931834280490875,0.13893012702465057,-0.05602997913956642,-0.09067460894584656,-0.09584315121173859,0.0429094024002552,0.030807312577962875,-0.001084906980395317,-0.011104307137429714,0.16925029456615448,0.12287218868732452,0.17983776330947876,-0.21866503357887268,-0.0360734649002552,-0.1372329592704773,-0.08132170885801315,0.013212466612458229,0.08606663346290588,0.06511205434799194,0.02995450422167778,-0.005116927437484264,0.02694154717028141,-0.010380902327597141,-0.25390884280204773,-0.022076476365327835,-0.08754082769155502,-0.1776099056005478,0.1757691204547882,0.07400410622358322,-0.0006772107444703579,0.11100349575281143,0.06427221745252609,0.10489607602357864,0.11056141555309296,0.10389050096273422,0.06274355947971344,0.015081562101840973,-0.010388250462710857,0.06024983897805214,0.10668838024139404,0.004593240562826395,-0.04641059413552284,-0.005600559059530497,0.14190255105495453,-0.12813414633274078,-0.24500149488449097,0.023543482646346092,-0.06002785637974739,-0.0480133481323719,-0.052052222192287445,0.014440837316215038,0.05970117822289467,-0.06242953985929489,0.06314349174499512,0.10998672991991043,-0.009444491006433964,0.16230618953704834,0.002480647526681423,0.09645941853523254,-0.1310521811246872,0.04675799980759621,-0.043151888996362686,-0.0886317789554596,-0.0707910805940628,-0.06124047935009003,-0.055472180247306824,-0.17595309019088745,-0.1346949338912964,-0.019542785361409187,0.015029722824692726,0.25817015767097473,0.3257658779621124,-0.05964938551187515,-0.06452399492263794,-0.29136162996292114,-0.09097309410572052,0.15141290426254272,-0.15820616483688354,-0.18818612396717072,0.11392860114574432,0.06026608869433403,0.03949758782982826,-0.047233663499355316,-0.024332676082849503,0.04385317116975784,0.09064489603042603,-0.07111608982086182,-0.1896168440580368,0.007835736498236656,0.10421579331159592,0.17967985570430756,0.11190567910671234,-0.028899522498250008,0.0002832073369063437,0.06702667474746704,-0.032346755266189575,-0.013855538330972195,0.11199336498975754,0.13650454580783844,-0.1777539849281311,-0.06674463301897049,-0.11485078930854797,0.048730023205280304,0.013668395578861237,0.08924385905265808,0.0278167724609375,0.08448456227779388,-0.17467591166496277,0.00093053188174963,0.060475464910268784,0.04601693153381348,-0.05890084430575371,0.08461354672908783,0.08757074922323227,0.005996928550302982,0.2584947943687439,-0.03636090084910393,0.14254947006702423,-0.10472071170806885,0.04326736181974411,0.033157214522361755,-0.020068155601620674,0.043871719390153885,0.0765325054526329,0.028929520398378372,0.05844355747103691,-0.10200528055429459,0.0068634916096925735,-0.003867360297590494,0.16780498623847961,-0.178142711520195,-0.0659886971116066,0.04618484526872635,0.0863773450255394,0.024427954107522964,0.1718205213546753,-0.0585213378071785,0.0732453241944313,0.0554221011698246,-0.014914841391146183,-0.19678601622581482,-0.17431935667991638,0.041100550442934036,-0.08650267869234085,0.0017934725619852543,0.07988244295120239,-0.045932698994874954,0.038151588290929794,-0.028879554942250252,-0.03055025450885296,0.011087112128734589,0.007929718121886253,-0.0050588566809892654,0.04382934793829918,-0.07782896608114243,-0.015726160258054733,0.1393144279718399,0.022249214351177216,0.11024477332830429,-0.09100458770990372,0.11170226335525513,-0.06791503727436066,0.004797028843313456,-0.11400532722473145,0.05641767382621765,-0.059327803552150726,-0.0574929341673851,0.032056692987680435,0.0636095330119133,-0.07236088812351227,0.058689530938863754,-0.03126000985503197,0.017890246585011482,0.09072019159793854,-0.0632372796535492,0.09248382598161697,0.11863336712121964,-0.13107146322727203,-0.04687117040157318,0.03958091884851456,-0.08233755826950073,0.04690900444984436,0.23253948986530304,0.020052161067724228,0.011391514912247658,0.042680852115154266,0.08034629374742508,0.0665353387594223,-0.02212262898683548,-0.10538320988416672,0.06798406690359116,0.1621933877468109,0.10419782996177673,0.09699596464633942,0.15188106894493103,-0.08134717494249344,-0.1669677346944809,0.06349263340234756,-0.03742595016956329,0.06225559860467911,-0.026018982753157616,-0.11787952482700348,-0.001578237279318273,0.1452006697654724,-0.027237046509981155,-0.04081255942583084,0.032928600907325745,0.08276814222335815,-0.08187136054039001,0.019379857927560806,-0.09049928933382034,0.06375200301408768,0.12136441469192505,0.03293483331799507,-0.03708852082490921,0.12465496361255646,-0.13134540617465973,-0.0024200931657105684,-0.008830295875668526,-0.05986621230840683,-0.02795463055372238,-0.07707354426383972,-0.009136316366493702,0.025056302547454834,0.011565878987312317,-0.12709762156009674,-0.050101760774850845,-0.005547245964407921,-0.014574635773897171,0.04000461846590042,0.2210763841867447,0.01826728880405426,-0.05889026075601578,0.02898486517369747,-0.07696413993835449,-0.08946462720632553,0.033229388296604156,0.05274592712521553,-0.010818651877343655,0.07166674733161926,0.028284845873713493,-0.000612838426604867,-0.12558534741401672,0.022731341421604156,-0.0789029523730278,0.03471478447318077,-0.12294839322566986,0.09204133599996567,-0.09259948879480362,-0.006142256315797567,-0.04487800598144531,-0.04367176815867424,-0.12098614126443863,0.06574145704507828,-0.13259007036685944,0.12534044682979584,-0.06064946576952934,0.1949256807565689,0.03798960521817207,0.08386962115764618,-0.07546643167734146,0.1746767908334732,0.11805722117424011,-0.08339622616767883,-0.004250831436365843,-0.04840276390314102,-0.008192392997443676,0.13254599273204803,0.1326971799135208,-0.04398489370942116,-0.04642108827829361,0.03278275579214096,0.009755643084645271,-0.17758285999298096,-0.12044677138328552,-0.08568570762872696,0.011311314068734646,0.050484880805015564,0.0494641549885273,-0.029258213937282562,-0.01908109150826931,-0.06727644801139832,0.05077948793768883,0.09031704068183899,-0.0588768869638443,0.20765380561351776,-0.13933435082435608,0.11647595465183258,-0.05498382821679115,0.03643229231238365,-0.04194889962673187,-0.04315352067351341,0.074158675968647,-0.03867100551724434,0.06894829869270325,-0.04281897097826004,0.06531238555908203,-0.02703625150024891,-0.02282729372382164,-0.04848147928714752,0.07459461688995361,0.04357171803712845,-0.05300900712609291,0.06910485029220581,-0.05982585623860359,0.05960551276803017,0.044013023376464844,0.018222874030470848,-0.026536716148257256,-0.06727120280265808,0.03867235779762268,0.0546131432056427,0.07737407833337784,0.0073204608634114265,-0.04140979051589966,0.059003885835409164,-0.061213698238134384,-0.018352823331952095,-0.053782012313604355,0.07231631129980087,0.002623159671202302,0.023457763716578484,-0.06593985110521317,-0.009086605161428452,-0.011422185227274895,0.00764326099306345,0.008480636402964592,-0.002483506454154849,-0.02767067402601242,0.06800022721290588,0.008755196817219257,0.034026850014925,-0.026055466383695602,0.034729503095149994,0.012126469984650612,-0.02045801281929016,-0.01768481358885765,0.03213971480727196,-0.014964240603148937,0.02947092615067959,-0.04168911650776863,-0.041016049683094025,-0.0028385696932673454,-0.06803376227617264,-0.006567187607288361,-0.028494909405708313,-0.01743532344698906,-0.06241023167967796,0.03364605829119682,-0.06288018822669983,0.035304244607686996,0.01856146939098835,0.07718423008918762,-0.0039046318270266056,0.027661217376589775,-0.04234757274389267,0.08504988253116608,-0.0003619459457695484,-0.03526846691966057,-0.013726911507546902,0.0024020029231905937,0.030639413744211197,0.021458197385072708,0.011255132965743542,0.05638368800282478,0.03849285468459129,0.06657380610704422,0.010855082422494888,-0.023751819506287575,0.007997512817382812,-0.027260979637503624,-0.026202939450740814,0.04626205563545227,-0.016504034399986267,0.03193502128124237,-0.03805067017674446,0.06987304240465164,0.11544332653284073,0.012934217229485512,0.03238175809383392,0.03344099596142769,0.0030582966282963753,0.04012675955891609,-0.01303761824965477,0.044339194893836975,-0.03825949877500534,0.053411293774843216,-0.011276602745056152,0.034732162952423096,0.006798590067774057,0.0459345318377018,-0.02716693840920925,-0.0032438982743769884,0.021793842315673828,0.001945413532666862,0.011830126866698265,-0.013719814829528332,-0.039413418620824814,-0.04594334587454796,0.021910980343818665,0.01072719506919384,0.03692726790904999,0.030967148020863533,0.061015333980321884,0.020819012075662613,0.007285130210220814,0.011669228784739971,0.010165350511670113,-0.002617086051031947,-0.02470865100622177,0.0359237864613533,-0.04744451120495796,-0.0796300396323204,-0.02560308948159218,0.02276448905467987,-0.003827230306342244,0.029303105548024178,0.028356583788990974,-0.00530408788472414,0.005073613952845335,0.06040152534842491,-0.026802796870470047,-0.04337337613105774,0.0779273584485054,-0.025514185428619385,0.03020886331796646,-0.01685703545808792,0.0358029380440712,-0.038723550736904144,0.028949575498700142,0.011228952556848526,0.02982226200401783,0.020174624398350716,-0.013601116836071014,-0.03170081600546837,-0.07668193429708481,-0.10916631668806076,-0.023694317787885666,-0.04823821783065796,0.020343707874417305,0.05117339640855789,-0.0193682499229908,-0.03277271240949631,0.007526511326432228,0.07239376753568649,-0.05291823670268059,0.025214122608304024,0.04711205139756203,0.05889701843261719,-0.008031336590647697,0.002568831667304039,0.056701868772506714,0.011901017278432846,0.008240211755037308,0.08897439390420914,-0.012663960456848145,0.022191300988197327,0.0520583800971508,0.03498765453696251,0.07782112807035446,0.02422378957271576,-0.01291924063116312,0.047723427414894104,0.04988358914852142,-0.07281279563903809,0.0330609530210495,0.02389729954302311,0.07680584490299225,-0.04513988643884659,0.013153315521776676,-0.05564470589160919,-0.050731830298900604,-0.02871539443731308,0.02485426887869835,-0.03909042850136757,0.04607624560594559,-0.05765853822231293,0.11304186284542084,-0.07703752815723419,0.044940605759620667,-0.0314134806394577,-0.048617202788591385,0.04665067046880722,-0.008875724859535694,-0.04493202269077301,0.18830536305904388,-0.15932439267635345,-0.09455174207687378,-0.008585079573094845,-0.07016966491937637,-0.013741725124418736,0.1529296189546585,-0.023374782875180244,0.020639915019273758,-0.024308577179908752,-0.02963172271847725,0.09941037744283676,0.08973980695009232,0.0677320584654808,0.08429146558046341,-0.17270953953266144,-0.0005224734195508063,-0.05131607875227928,0.09029649198055267,-0.04984336346387863,-0.10702871531248093,-0.07661577314138412,0.0693177729845047,0.02494686096906662,0.014088917523622513,0.07416602224111557,-0.11348877847194672,-0.13885661959648132,0.006113117560744286,0.0037883506156504154,-0.024527693167328835,-0.1257847547531128,0.010431908071041107,-0.02705848589539528,-0.00787903368473053,0.06542443484067917,0.06803623586893082,-0.007037206552922726,-0.043252114206552505,-0.016459187492728233,0.05709272623062134,-0.14863719046115875,0.05874648317694664,0.04463118687272072,-0.020662391558289528,-0.06539464741945267,-0.11511889100074768,-0.07540197670459747,0.11683693528175354,0.025392524898052216,0.1375260055065155,-0.0017191468505188823,-0.17649555206298828,0.0789850652217865,-0.01736045628786087,-0.10465662181377411,0.010069688782095909,-0.05939478054642677,-0.01575985923409462,-0.14728283882141113,0.03471862152218819,0.007497847080230713,0.15931877493858337,0.17257839441299438,-0.015195013023912907,-0.017355578020215034,0.030319351702928543,-0.04221976920962334,-0.05169526860117912,0.0029307380318641663,0.09625222533941269,-0.030722014605998993,0.09343349933624268,0.01869923621416092,-0.07006551325321198,-0.06949492543935776,-0.014740072190761566,-0.03760141134262085,0.04475799947977066,-0.09466990828514099,-0.07302606105804443,-0.13642115890979767,0.04800409823656082,0.05159614235162735,-0.05913252383470535,-0.11150570958852768,0.05716690421104431,0.16893206536769867,0.11337185651063919,-0.0015598637983202934,-0.11827442795038223,0.20141685009002686,-0.05209900811314583,-0.07773824036121368,-0.05510368198156357,0.1537134051322937,0.11289335787296295,0.12042173743247986,-0.04174068197607994,0.03384558483958244,-1.8746854038909078e-05,0.18983636796474457,-0.1649821549654007,0.10582009702920914,-0.035561028867959976,0.18058766424655914,-0.139324352145195,-0.016095871105790138,0.10919483006000519,0.0029023983515799046,-0.039904505014419556,0.0802868977189064,0.015719493851065636,-0.06377050280570984,-0.08469392359256744,0.03454869985580444,-0.20261448621749878,-0.14462165534496307,0.003851342713460326,0.07208439707756042,0.02099715545773506,0.10950823128223419,0.1018223762512207,0.055999405682086945,0.07362299412488937,0.11557140201330185,-0.12655852735042572,-0.059985898435115814,-0.08391722291707993,-0.09460263699293137,0.02641868218779564,0.05778562277555466,0.018455421552062035,0.052972227334976196,0.03411230072379112,-0.035969775170087814,-0.09572019428014755,-0.0318496972322464,0.08375302702188492,0.16552142798900604,-0.03923512622714043,0.04399360716342926,0.12362586706876755,0.12432128936052322,-0.0928846001625061,0.2188277542591095,-0.12889906764030457,-0.06268295645713806,-0.0009956490248441696,-0.06237954646348953,-0.12956775724887848,0.01641431823372841,-0.16233980655670166,-0.15960094332695007,0.012535660527646542,-0.06833691895008087,0.025133248418569565,0.11178747564554214,-0.13303455710411072,-0.03468930721282959,0.2643936574459076,-0.05088736489415169,0.051946450024843216,0.048158809542655945,-0.012262783944606781,-0.034102775156497955,-0.0008614057442173362,-0.0666324719786644,0.16830334067344666,-0.10068430751562119,-0.06643140316009521,0.03265783190727234,-0.026180068030953407,0.018447700887918472,-0.04724029451608658,0.1394151747226715,-0.16526727378368378,-0.18551689386367798,-0.2196682244539261,0.023193730041384697,-0.14288021624088287,-0.04275805130600929,0.1041351705789566,0.0534469336271286,0.014453641138970852,-0.05304652824997902,-0.04372818395495415,0.05652288720011711,0.023561999201774597,-0.022739682346582413,0.011510179378092289,0.021536804735660553,-0.08588318526744843,0.08354239910840988,0.018483402207493782,-0.0944046601653099,0.022378023713827133,0.10485178232192993,-0.0056726220063865185,0.018948562443256378,-0.006393667310476303,-0.07552989572286606,0.056071504950523376,0.04720999673008919,-0.044362518936395645,-0.04990960657596588,0.09199288487434387,0.042005568742752075,0.09105432778596878,0.03176519274711609,-0.11844304949045181,0.007916080765426159,0.02525186538696289,0.0273540411144495,-0.017923768609762192,0.08628451079130173,-0.031131073832511902,0.057306304574012756,0.06040024384856224,0.10422322899103165,0.07528281211853027,0.04352718964219093,-0.015063471160829067,0.07869231700897217,-0.03475869074463844,-0.03720805421471596,-0.04947309568524361,0.023695025593042374,-0.023812387138605118,0.004919599741697311,-0.08550124615430832,-0.15290938317775726,0.07985401153564453,-0.08152450621128082,0.050513263791799545,0.11129409074783325,-0.06283121556043625,-0.014613395556807518,0.06914766877889633,0.008516564033925533,-0.0017175928223878145,-0.05079865828156471,0.0044068992137908936,0.042844902724027634,0.024539045989513397,-0.046484123915433884,-0.017848912626504898,0.042554497718811035,-0.011321408674120903,-0.042101770639419556,-0.036188337951898575,0.03777226060628891,-0.014321161434054375,-0.0024933330714702606,-0.06618839502334595,0.0711279958486557,-0.026881016790866852,-6.427668267861009e-05,-0.001923329895362258,-0.045558031648397446,0.027817049995064735,0.05114324390888214,-0.07684334367513657,-0.00016582105308771133,0.056590735912323,0.03560606762766838,0.0014352079015225172,0.03001229465007782,-0.08256099373102188,-0.019253555685281754,0.04519246146082878,0.05553336441516876,0.051349297165870667,0.009231933392584324,-0.02432136982679367,0.029277412220835686,0.07845940440893173,-0.06364162266254425,-0.006475915666669607,-0.07588180154561996,-0.06641002744436264,-0.06458169966936111,0.08917456865310669,0.0026338682509958744,-0.08122263103723526,0.09116126596927643,-0.03468123823404312,0.0033176203723996878,0.0020749843679368496,-0.003393659833818674,0.04157981649041176,0.04219105467200279,-0.09639792144298553,0.027351748198270798,0.05232936516404152,0.0661265105009079,0.08377433568239212,0.034406568855047226,0.10065804421901703,-0.02771124616265297,0.025427110493183136,-0.0921500101685524,-0.03659657761454582,0.006327898241579533,0.08211632072925568,-0.03900710120797157,-0.06136295199394226,-0.00030859498656354845,-0.03186345472931862,-0.005716380663216114,0.03007148578763008,-0.09209152311086655,0.05602956935763359,0.0264888983219862,-0.0633888691663742,-0.013875537551939487,0.031153395771980286,0.14061234891414642,-0.05834363400936127,-0.000720736978109926,-0.01945328526198864,0.08977708220481873,-0.004065684974193573,-0.06010373681783676,-0.05200953781604767,0.019577641040086746,0.00010662860586307943,-0.05600912123918533,-0.05845005065202713,0.012103663757443428,-0.0005450772005133331,-0.07370425760746002,-0.07739665359258652,-0.01979285478591919,-0.06268920749425888,0.05062362551689148,-0.015581195242702961,-0.010435187257826328,-0.011541751213371754,0.08794428408145905,-0.027677327394485474,-0.06333978474140167,0.0063069481402635574,-0.01415235735476017,0.0376228392124176,0.09429530054330826,-0.002539298962801695,-0.06080508604645729,0.032046400010585785,-0.024239035323262215,-0.05960517376661301,0.029064441099762917,0.020795699208974838,-0.013311206363141537,0.01628052070736885,0.049474429339170456,0.021872809156775475,0.040373750030994415,0.07937338203191757,-0.017535297200083733,0.018821507692337036,-0.008082857355475426,0.04291325435042381,-0.052339259535074234,0.019073139876127243,-0.026441005989909172,-0.06533675640821457,-0.06949862837791443,-0.05707273259758949,0.07053770124912262,0.06359338015317917,-0.0506141297519207,-0.02460487373173237,0.010907033458352089,-0.006820399779826403,-0.07718504965305328,0.032682593911886215,-0.1171388179063797,0.02417447790503502,-0.00048801046796143055,-0.02001851797103882,-0.11390420794487,-0.15426231920719147,-0.11279156059026718,0.0019682003185153008,0.07813311368227005,-0.042551372200250626,0.0978131890296936,-0.008970986120402813,-0.05661493167281151,0.029614144936203957,0.022537844255566597,0.07694683223962784,-0.08269745856523514,-0.015739474445581436,-0.05351991951465607,0.00513853132724762,-0.09620492160320282,-0.05749654024839401,-0.03704393655061722,-0.024783222004771233,-0.10989206284284592,0.08001835644245148,-0.09430360794067383,0.0389082096517086,-0.058892663568258286,0.037352848798036575,-0.04870769381523132,-0.08400653302669525,-0.17309759557247162,-0.07340289652347565,-0.17549172043800354,0.10500959306955338,-0.09719134867191315,-0.08907110244035721,0.0863974466919899,-0.04781174287199974,0.04665081202983856,-0.022832632064819336,-0.13397829234600067,-0.0029581659473478794,-0.2986909747123718,0.008671924471855164,-0.03382079303264618,0.04497772455215454,0.18520376086235046,-0.22058804333209991,-0.02468916028738022,0.02883167751133442,-0.10185796767473221,-0.07504346966743469,-0.0774504691362381,-0.023463550955057144,0.07702387124300003,-0.042868826538324356,0.005309565924108028,0.17281284928321838,0.24439723789691925,0.07673437893390656,-0.09964096546173096,0.03176451101899147,-0.022293705493211746,-0.095781609416008,0.11270139366388321,0.012500378303229809,0.16018682718276978,-0.014372930862009525,-0.14872387051582336,0.21683695912361145,0.02231168933212757,0.015794983133673668,0.05848950892686844,-0.087413489818573,-0.24129481613636017,0.057747356593608856,-0.00907936692237854,-0.024329455569386482,-0.05628993362188339,0.06678588688373566,0.0839536041021347,-0.15910662710666656,0.02337605133652687,0.005586192011833191,0.1226765587925911,0.0005530882044695318,-0.0820811316370964,0.04507854953408241,0.12729395925998688,-0.07224604487419128,-0.0797814354300499,0.11004190146923065,0.15504996478557587,-0.03291843459010124,0.02443651668727398,0.0513586550951004,0.039047546684741974,0.0006836234824731946,-0.09872512519359589,0.0001811306574381888,-0.10787445306777954,-0.024423394352197647,-0.05556505545973778,0.03774847462773323,0.0747382789850235,0.06099938973784447,0.10832974314689636,0.045869264751672745,-0.08049054443836212,-0.29828503727912903,-0.025719627737998962,-0.07496270537376404,-0.021158570423722267,0.06230678781867027,-0.08710931241512299,0.010227339342236519,0.14293567836284637,0.0527728870511055,0.0062095848843455315,-0.006371222902089357,-0.13747040927410126,0.019900284707546234,-0.21254944801330566,-0.013080819509923458,0.04867420718073845,-0.02510199323296547,-0.00802787858992815,0.11899934709072113,-0.008699566125869751,0.0913948342204094,-0.0692232996225357,0.2283923625946045,-0.13879506289958954,0.019894026219844818,-0.02401922643184662,-0.0013410073006525636,0.012843847274780273,0.046474751085042953,-0.048325832933187485,-0.12733854353427887,-0.08370364457368851,-0.10815945267677307,0.17235560715198517,0.11080582439899445,0.03249124437570572,-0.008992664515972137,-0.05652542784810066,0.03691192343831062,0.17569796741008759,-0.10891157388687134,-0.07258665561676025,-0.11045674234628677,-0.033867646008729935,0.0034895059652626514,-0.021600868552923203,0.14112131297588348,0.2308470606803894,-0.003704979084432125,-0.07994997501373291,0.03290284425020218,-0.08812814205884933,-0.11143440008163452,0.16783878207206726,0.06419233232736588,0.04025331884622574,-0.25011828541755676,0.12491200864315033,-0.09713535010814667,0.030689220875501633,-0.021804844960570335,-0.09244608134031296,0.09199494123458862,0.024364158511161804,0.030278705060482025,-0.1211065798997879,0.009171966463327408,-0.024644676595926285,0.03859083354473114,0.05375061556696892,-0.09729377925395966,-0.02514561451971531,-0.0500372089445591,0.27299764752388,0.019046463072299957,-0.04897219315171242,-0.1411045789718628,-0.029071033000946045,-0.1943279206752777,0.029996361583471298,0.09836085885763168,-0.07370555400848389,-0.04313574358820915,-0.11452185362577438,-0.027570322155952454,0.08336516469717026,0.026449400931596756,-0.022886047139763832,-0.030360078439116478,-0.04347439855337143,-0.01337613444775343,0.04583673179149628,-0.039358142763376236,0.05978158861398697,-0.04513425752520561,-0.005413780454546213,-0.001522232312709093,0.018940098583698273,-0.021957412362098694,-0.039799030870199203,0.030648278072476387,-0.0698130801320076,-0.06273690611124039,0.01338791660964489,0.011715158820152283,0.000339078571414575,0.022344214841723442,-0.06398293375968933,-0.059767819941043854,-0.054155703634023666,-0.046341411769390106,-0.024517320096492767,-0.009272388182580471,0.06524785608053207,-0.03907831385731697,0.030783383175730705,-0.023788651451468468,0.027845386415719986,0.03914851322770119,0.08596718311309814,0.017231252044439316,-0.0058228448033332825,-0.06215180456638336,0.037998538464307785,0.06801420450210571,0.04011287912726402,0.012057974934577942,-0.06612083315849304,0.05090431496500969,-0.06665301322937012,-0.029369672760367393,-0.040086641907691956,-0.037093114107847214,0.04593546688556671,0.02949860878288746,0.06322185695171356,0.0723346695303917,0.022212574258446693,-0.02051807940006256,-0.058949582278728485,-0.07573162019252777,0.04386846348643303,0.011951294727623463,-0.06315243244171143,0.004299838095903397,0.007428585551679134,-0.05076312646269798,-0.05360895022749901,0.02446860447525978,0.00027366343419998884,-0.015420024283230305,0.032656505703926086,0.034355249255895615,0.017962319776415825,0.007268473040312529,-0.06037253513932228,-0.037033699452877045,0.0873710885643959,-0.04239878058433533,0.020640455186367035,0.054078198969364166,-0.045807864516973495,0.011378076858818531,0.043197762221097946,0.005300832446664572,0.062336698174476624,0.06309974193572998,0.06923394650220871,0.06861049681901932,-0.014092671684920788,-0.011326679028570652,0.0798945352435112,-0.006081511732190847,0.06729522347450256,0.049894168972969055,-0.004266934469342232,-0.01822839118540287,0.04734085127711296,-0.044233039021492004,0.04502681642770767,-0.00014901961549185216,0.0034509040415287018,-0.08651477098464966,-0.038864899426698685,0.042315781116485596,-0.05645066127181053,0.017534710466861725,-0.04600517824292183,-0.05925232172012329,0.07571113109588623,-0.06162124127149582,-0.047661278396844864,-0.04896539822220802,-0.0550268180668354,0.037645306438207626,0.06057334318757057,-0.06572350114583969,-0.017860883846879005,-0.06582163274288177,0.03869469463825226,0.060826003551483154,-0.06099579855799675,-0.021164175122976303,-0.006122003309428692,0.009565699845552444,0.04163018614053726,0.028154823929071426,0.05029501020908356,-0.022548293694853783,-0.04878184571862221,-0.06426975876092911,-0.015107396058738232,0.03557412698864937,0.05504333972930908,-0.024984264746308327,-0.017240187153220177,0.059852346777915955,0.013017185032367706,0.005112220998853445,0.05409519374370575,0.013102238066494465,0.02966013178229332,0.04609852284193039,0.0010678855469450355,-0.024923846125602722,-0.012745908461511135,0.04448438808321953,-0.032458413392305374,-0.05826655775308609,-0.01612882874906063,0.013676153495907784,0.0016621797112748027,0.02048446238040924,0.00296009867452085,0.055720627307891846,0.049327507615089417,0.011258471757173538,-0.013566465117037296,-0.05738862231373787,-0.015450382605195045,-0.026508767157793045,0.08756813406944275,-0.006679193582385778,0.060272861272096634,-0.05993269383907318,-0.028419265523552895,-0.03366228938102722,-0.012559162452816963,-0.08046507090330124,0.042568549513816833,0.05588746443390846,0.00010981572995660827,-0.05952465161681175,0.016718789935112,0.029570335522294044,0.0332619771361351,-0.05610636621713638,0.06427910923957825,-0.03227221965789795,-0.029637079685926437,-0.017851607874035835,-0.04733512923121452,-0.01981121487915516,0.07511234283447266,-0.007842793129384518,0.07275552302598953,-0.03407803922891617,0.07407952845096588,-0.00826897844672203,-0.018934104591608047,0.05198679119348526,0.0488051101565361,0.029287198558449745,-0.01980363205075264,0.001579408417455852,0.050142802298069,0.050962116569280624,-0.006646544672548771,0.01562082301825285,-0.1583404541015625,-0.10352721065282822,0.07019517570734024,0.03290146216750145,-0.0695992261171341,-0.027861153706908226,0.13988931477069855,-0.04486244544386864,0.026117727160453796,-0.033642157912254333,-0.009575610980391502,0.11203479021787643,0.038113851100206375,-0.2338988184928894,-0.0332215242087841,-0.015426411293447018,0.0052101099863648415,-0.04253396391868591,0.0705171748995781,-0.05074681341648102,0.08569745719432831,0.017252227291464806,0.11501768231391907,0.03884201496839523,-0.012958023697137833,-0.05552331358194351,0.06298808008432388,-0.09118777513504028,-0.0017040928360074759,-0.010221757926046848,0.17421647906303406,0.06203965097665787,0.013103446923196316,-0.13243378698825836,0.024718092754483223,-0.12318696826696396,-0.04124070703983307,-0.048971790820360184,-0.17395566403865814,-0.04807734861969948,0.01010851189494133,0.07133762538433075,-0.02982710674405098,0.06547311693429947,0.09234116971492767,0.012452783063054085,-0.04992905631661415,0.05436645820736885,0.002104567363858223,0.08769914507865906,0.11285942047834396,-0.035876717418432236,-0.06068231537938118,0.10221707820892334,-0.0316971018910408,0.18898989260196686,-0.021808413788676262,0.02767716906964779,0.04224861040711403,0.1506769359111786,-0.04411981627345085,0.13377143442630768,-0.033819474279880524,-0.16980305314064026,0.043881986290216446,-0.03901086375117302,0.05719412490725517,-0.06677030771970749,0.04984742030501366,0.044775526970624924,-0.02083270065486431,0.12889224290847778,0.250253826379776,0.020662331953644753,0.06267731636762619,-0.0758296549320221,-0.05048254504799843,-0.06335114687681198,0.17430537939071655,-0.07979664951562881,0.0027112867683172226,0.11143672466278076,-0.05180366709828377,0.0710667297244072,0.1221388727426529,-0.12336219847202301,-0.21263708174228668,0.005685482174158096,0.03869571536779404,0.051358990371227264,0.03415635600686073,0.04508491978049278,-0.08662210404872894,-0.025972288101911545,0.03243735805153847,0.0644281879067421,0.07313724607229233,-0.0752091184258461,0.004362885374575853,0.029987912625074387,0.12055577337741852,0.026888860389590263,0.024075252935290337,0.007777409628033638,-0.08122529089450836,0.03246014192700386,-0.01307704672217369,0.047979146242141724,-0.07525549829006195,0.012373372912406921,0.06950788199901581,-0.006679708603769541,-0.022966718301177025,0.06537555903196335,-0.0033995406702160835,0.06944461166858673,0.017693083733320236,-0.030970459803938866,-0.1630626916885376,0.07501474022865295,0.07038900256156921,0.030834808945655823,0.024072598665952682,0.06425672769546509,0.08611675351858139,0.22846490144729614,-0.042517803609371185,0.13781560957431793,0.10301971435546875,-0.0011113093933090568,0.017860468477010727,-0.00311041041277349,-0.1777256429195404,-0.008676099590957165,0.0768895074725151,0.004643168766051531,-0.030997874215245247,0.017734484747052193,0.015199034474790096,-0.0036546543706208467,0.07121835649013519,0.035528138279914856,0.025964030995965004,0.10007276386022568,0.07586977630853653,0.11213196069002151,-0.0476166270673275,-0.08866682648658752,0.051640622317790985,-0.07678055018186569,-0.09617101401090622,-0.03427360579371452,-0.06858624517917633,-0.03050280548632145,0.042732737958431244,0.07043980807065964,0.03318868204951286,-0.049720294773578644,0.1441316455602646,0.08525877445936203,0.0664980411529541,-0.1188846230506897,-0.009334031492471695,0.047874387353658676,0.09136004000902176,-0.02196209877729416,0.021834032610058784,-0.03568652644753456,-0.06890212744474411,0.0495607852935791,0.12972791492938995,-0.08745051175355911,-0.06142773479223251,0.017725560814142227,0.12253833562135696,0.042592331767082214,0.0090857595205307,0.006383799947798252,0.08990099281072617,0.15634499490261078,0.06088605523109436,-0.0430917888879776,0.00737973116338253,-0.18677856028079987,-0.047989457845687866,0.04396094009280205,0.009649841114878654,-0.03088732808828354,0.012055614963173866,0.031017588451504707,-0.05057651549577713,0.18880166113376617,0.4200364351272583,-0.07438696175813675,-0.011806861497461796,-0.09923321008682251,-0.01609514094889164,0.06344703584909439,-0.05715835094451904,-0.04614115506410599,0.08040837943553925,0.07165680080652237,0.05186931788921356,-0.21938739717006683,-0.1365373581647873,-0.12348341196775436,-0.03163082152605057,0.06724328547716141,0.03799969702959061,-0.09589511901140213,-0.09672814607620239,-0.02084079198539257,0.06882533431053162,0.1358279585838318,-0.030567478388547897,0.060945961624383926,-0.009888344444334507,-0.07330619543790817,-0.007840650156140327,-0.028099287301301956,-0.13992999494075775,-0.09850271046161652,-0.01328959222882986,0.1651766002178192,0.12060724943876266,0.0777815505862236,0.043845050036907196,-0.18227288126945496,0.028843669220805168,-0.054075099527835846,-0.2372480034828186,0.08374015241861343,-0.20934103429317474,-0.04684896022081375,0.31620970368385315,-0.04248208552598953,-0.19018062949180603,0.03622286766767502,0.3474961817264557,-0.014744553714990616,0.08059197664260864,0.0205682422965765,0.10148341208696365,-0.20211604237556458,-0.05172761529684067,-0.13369254767894745,0.14937347173690796,0.10473645478487015,0.010091465897858143,0.08615133911371231,9.108067024499178e-05,0.10603264719247818,-0.19633617997169495,0.05797510966658592,0.0762249231338501,0.05642080679535866,0.02232620306313038,0.01301545836031437,0.025194076821208,-0.05862320214509964,-0.07837656140327454,0.0835181400179863,-0.2095530480146408,0.03290785104036331,0.24661926925182343,-0.0673222616314888,0.06598278135061264,-0.09890568256378174,0.27735957503318787,0.02896556258201599,0.07805298268795013,-0.19317574799060822,0.03101220913231373,-0.0028351028449833393,-0.2655986547470093,-0.04480784013867378,0.12845885753631592,0.1893976777791977,0.054416216909885406,-0.014414246194064617,-0.05960590019822121,-0.18212123215198517,-0.03991641849279404,0.03553261235356331,-0.03375837579369545,0.04510345309972763,0.04784770682454109,-0.17992281913757324,-0.17067836225032806,0.059803370386362076,0.08776441961526871,0.1125682145357132,0.07405121624469757,0.1588517278432846,-0.04542664438486099,-0.002998305018991232,-0.06719636172056198,0.0077885654754936695,-0.28237462043762207,-0.002327678259462118,-0.10489871352910995,0.13119879364967346,0.06258804351091385,-0.06767608970403671,-0.10876574367284775,0.01739570125937462,0.12459716945886612,0.021802430972456932,-0.01256487425416708,-0.036368634551763535,-0.11917150765657425,0.10631632804870605,0.1283397674560547,0.008450530469417572,0.078391894698143,0.11966486275196075,0.06054219976067543,0.1482444554567337,-0.035216301679611206,0.09006823599338531,-0.015600474551320076,0.05432363599538803,0.009659714065492153,0.00286721158772707,0.027921553701162338,0.019423414021730423,-0.16657884418964386,0.05166015774011612,-0.11599064618349075,-0.1727314591407776,-0.022520601749420166,0.09202548116445541,-0.030032873153686523,-0.01685325801372528,-0.07155030965805054,-0.12167876213788986,0.1231275126338005,0.0553152896463871,0.04335674270987511,-0.1167009025812149,-0.1101723164319992,-0.07982856035232544,0.041660115122795105,-0.15475617349147797,0.0782427191734314,-0.13448049128055573,0.1395808309316635,-0.18984125554561615,-0.13633158802986145,0.014801372773945332,0.11867602914571762,-0.06583381444215775,0.003977561369538307,-0.12125689536333084,0.21815289556980133,0.06796775758266449,-0.24511121213436127,0.02487058937549591,-0.019850969314575195,0.055665675550699234,0.11001767963171005,0.03415568545460701,-0.18400222063064575,0.08075930178165436,0.0843399241566658,-0.02193749137222767,0.005350881721824408,-0.056610021740198135,0.035847458988428116,0.293562650680542,-0.020528359338641167,0.06385848671197891,0.03356826305389404,-0.06474345177412033,-0.043361518532037735,-0.013163293711841106,-0.06864205002784729,-0.004153703339397907,0.019626909866929054,-0.1007862314581871,0.1008751392364502,0.019329683855175972,0.11211329698562622,0.17369870841503143,0.010857968591153622,-0.1402091383934021,0.06641872972249985,-0.08077199757099152,0.18195247650146484,-0.1095304787158966,0.1266709864139557,0.21797975897789001,0.014828699640929699,-0.0019162928219884634,0.05735398456454277,-0.05542151629924774,-0.04532270506024361,-0.08053245395421982,0.004278548993170261,-0.01906805858016014,0.10231706500053406,0.005005124490708113,-0.16673476994037628,0.02700214833021164,-0.10786417871713638,-0.07077967375516891,-0.05120571330189705,-0.08817480504512787,0.08696858584880829,0.014266083016991615,-0.06842028349637985,-0.04874774068593979,-0.09317935258150101,0.050354089587926865,0.05640031769871712,0.08784922957420349,-0.011279392056167126,-0.025280673056840897,-0.10891614109277725,0.09500410407781601,0.06614688783884048,0.007115129381418228,-0.213075652718544,0.11368852108716965,-0.0415545217692852,0.026816869154572487,-0.05972032994031906,0.017072996124625206,-0.02684292569756508,0.014050295576453209,-0.026071254163980484,0.1656571626663208,0.08673982322216034,-0.015950387343764305,0.049305498600006104,0.059585362672805786,0.08301615715026855,-0.2031252533197403,-0.182833731174469,-0.13449722528457642,-0.12814201414585114,0.09684138000011444,0.07662518322467804,0.08560039848089218,0.07334195822477341,0.05500870198011398,-0.11677864193916321,0.17767958343029022,0.19395247101783752,0.13067348301410675,0.023394791409373283,-0.0036872324999421835,0.01844390295445919,0.11333280801773071,0.16307350993156433,0.04855849966406822,-0.05402563139796257,-0.007854652591049671,0.06239410489797592,-0.11671317368745804,-0.09423213452100754,0.13803765177726746,0.15793173015117645,-0.11771827191114426,0.015790188685059547,-0.05583900213241577,-0.0906340703368187,-0.036373380571603775,-0.1547807902097702,0.10937657207250595,0.014787107706069946,-0.015817565843462944,-0.16382911801338196,-0.0034503350034356117,-0.05096835643053055,-0.05702827498316765,0.13112466037273407,-0.19510269165039062,-0.1027490571141243,-0.041252851486206055,0.14741189777851105,0.02208307385444641,0.0895138755440712,-0.017159605398774147,-0.03686656802892685,0.07469963282346725,0.1870836615562439,-0.02960488200187683,-0.04142694175243378,0.10985866189002991,-0.014709907583892345,-0.10272639244794846,0.058064788579940796,0.012440546415746212,-0.09404271095991135,0.04012469947338104,0.059794679284095764,0.0136030875146389,-0.03199028968811035,-0.051405131816864014,0.2242538332939148,0.025326227769255638,0.038852281868457794,0.08311504870653152,-0.08078406751155853,-0.04853331297636032,-0.08143507689237595,-0.011187506839632988,-0.02573460340499878,0.146238774061203,-0.0057337163016200066,-0.07229070365428925,-0.039145421236753464,0.06355748325586319,-0.003728174138814211,0.036225367337465286,-0.053389787673950195,-0.07894028723239899,0.03035668469965458,-0.06201207637786865,0.015423337928950787,-0.026003612205386162,-0.028338560834527016,-0.05420704931020737,-0.024060582742094994,-0.01832634024322033,-0.0355643555521965,0.005473993718624115,-0.015972523018717766,-0.10177413374185562,0.13210172951221466,-0.006007767282426357,0.08730541169643402,-0.01389290764927864,0.1955830156803131,0.018916334956884384,-0.001340867136605084,0.009923313744366169,-0.05671030655503273,0.00044942853855900466,0.05036954581737518,-0.023059746250510216,-0.1288936585187912,-0.08657101541757584,0.012105599045753479,-0.017209572717547417,0.10977582633495331,0.06693501770496368,0.0729047879576683,-0.07142326980829239,-0.009710412472486496,0.03537873923778534,-0.036594223231077194,-0.07213342934846878,-0.2753644287586212,-0.10068262368440628,0.015171445906162262,-0.14757974445819855,-0.01139579713344574,0.015278748236596584,0.0940745621919632,-0.04344603419303894,0.06283333152532578,-0.1682104468345642,0.02731243520975113,-0.06159159541130066,-0.11951034516096115,-0.062033552676439285,0.020360080525279045,-0.06531315296888351,0.019454950466752052,0.11203611642122269,0.02873714081943035,0.04205766320228577,-0.04437456652522087,-0.043082740157842636,-0.010017319582402706,0.04206464812159538,0.015524623915553093,-0.09713391959667206,0.01112053357064724,0.01699535734951496,0.05378647521138191,0.038980793207883835,-0.06119835749268532,-0.03950267285108566,0.10913500934839249,-0.041584115475416183,-0.021253449842333794,0.009285200387239456,0.045159030705690384,0.08349607139825821,0.0042864009737968445,-0.1584034562110901,-0.052603207528591156,-0.030604679137468338,0.0026286300271749496,0.012246987782418728,0.0735446885228157,-0.012917807325720787,-0.07127846777439117,-0.007496540434658527,0.01850222237408161,0.02508094348013401,0.018280575051903725,-0.010070275515317917,-0.10087961703538895,-0.06898800283670425,0.004862945061177015,-0.053700096905231476,0.06930013746023178,0.01099858433008194,-0.025326423346996307,0.014284810982644558,-0.09435931593179703,-0.050713710486888885,0.027348915114998817,-0.04300728067755699,0.014747575856745243,-0.11130455881357193,-0.2391834855079651,-0.07405178248882294,-0.0043281614780426025,0.012853000313043594,0.01881171017885208,-0.07132939249277115,-0.001950697391293943,0.02492203190922737,-0.13095073401927948,-0.0167401023209095,0.03126702085137367,0.12610678374767303,0.06875503063201904,0.0030801144894212484,0.09805790334939957,0.04039460048079491,-0.07842302322387695,-0.09187600761651993,-0.024705644696950912,0.10136128962039948,0.07868196070194244,0.02655661106109619,-0.022129641845822334,0.07361779361963272,0.051119111478328705,0.05731980875134468,0.04314342886209488,-0.016911085695028305,-0.02270980179309845,-0.10616506636142731,-0.01959996111690998,-0.13207583129405975,0.01812155544757843,0.12404688447713852,0.08753159642219543,0.057296160608530045,-0.07181362062692642,0.007138971239328384,-0.07861827313899994,0.05145413428544998,0.045311685651540756,-0.01308998093008995,-0.025184789672493935,-0.037985995411872864,0.0012368764728307724,0.03656725585460663,0.004525674041360617,-0.10213814675807953,-0.03276686370372772,0.005844659171998501,0.014380604960024357,0.020067458972334862,0.013439647853374481,0.0573635995388031,-0.0759689211845398,-0.0671333447098732,-0.006690748035907745,-0.149625763297081,-0.05781608074903488,0.037052981555461884,-0.04732125252485275,0.04627618566155434,0.07070233672857285,0.06795468926429749,-0.020946750417351723,0.06519611924886703,-0.001635506865568459,0.05612245202064514,-0.04757019877433777,0.0045941551215946674,0.025982078164815903,0.18955650925636292,-0.014156676828861237,-0.11305327713489532,0.05994423106312752,-0.00908695813268423,0.04730483144521713,-0.02398037537932396,0.021973449736833572,-0.03340738266706467,-0.020868180319666862,0.021277258172631264,0.19923657178878784,-0.1321393996477127,0.0895245149731636,0.02083907090127468,-0.031838420778512955,0.03196299448609352,0.028620829805731773,-0.05665890872478485,-0.00786628294736147,0.03497171029448509,0.033177200704813004,0.0889524519443512,0.008130582980811596,-0.11586689203977585,-0.08906104415655136,-0.04095848649740219,0.029279273003339767,0.08669423311948776,-0.04850500449538231,0.04271250218153,0.08887840807437897,-0.020458614453673363,0.03084402158856392,-0.02297814004123211,-0.047022487968206406,-0.10986888408660889,0.14848782122135162,-0.05950845777988434,-0.01230745017528534,0.06531272828578949,-0.13846176862716675,0.11897362023591995,-0.04421309381723404,-0.056726954877376556,0.0306689590215683,0.06525833904743195,-0.03439562767744064,0.0345308855175972,0.0003165136440657079,-0.06443320214748383,0.014050114899873734,-0.004505129996687174,-0.014073486439883709,0.0037420799490064383,0.059667736291885376,-0.10447366535663605,0.05818982794880867,0.1295861005783081,-0.10433382540941238,0.14927728474140167,-0.12932175397872925,-0.030603712424635887,-0.09912245720624924,-0.03141427040100098,-0.006909735966473818,-0.03135676681995392,-0.137002632021904,0.0646066665649414,0.05478376895189285,-0.04802533984184265,-0.06889556348323822,-0.022373685613274574,0.03310653194785118,-0.12205041199922562,0.07414630800485611,0.13728371262550354,0.031862352043390274,-0.06925278156995773,0.0377199687063694,-0.018446553498506546,-0.023021019995212555,0.015969205647706985,0.0537903718650341,-0.16418316960334778,0.06766221672296524,0.035988371819257736,0.061566099524497986,-0.12842565774917603,-0.10216782987117767,0.07331753522157669,0.010650049895048141,0.19038842618465424,0.027070997282862663,0.017729373648762703,0.23222890496253967,-0.1117972806096077,-0.04796876013278961,-0.09522999823093414,0.04106854647397995,-0.06158532574772835,0.07309950143098831,0.11367298662662506,0.028753099963068962,0.060327112674713135,-0.0640382170677185,0.033903442323207855,0.07071570307016373,0.02143336832523346,-0.14039599895477295,0.03600349649786949,0.24062207341194153,0.15100911259651184,0.14540477097034454,0.08296910673379898,0.08064041286706924,-0.07651779800653458,0.11763837933540344,-0.040026113390922546,0.01153990812599659,0.07080090045928955,0.06515993177890778,-0.018207665532827377,-0.0693846270442009,-0.062303099781274796,-0.11253254115581512,-0.030218593776226044,-0.06816250085830688,-0.06101439520716667,-0.07158774137496948,0.056262630969285965,0.08247576653957367,0.18365105986595154,-0.04714638739824295,-0.09393833577632904,0.11643318831920624,-0.030890585854649544,-0.09257324039936066,-0.008112581446766853,-0.05075599253177643,0.1617247462272644,-0.010022647678852081,0.039756689220666885,0.021869493648409843,-0.0803217962384224,-0.031883206218481064,0.1995641440153122,-0.0920712798833847,-0.12042366713285446,-0.06705167889595032,-0.1380675882101059,-0.03717656433582306,-0.008223583921790123,-0.0005453871563076973,0.04547775909304619,-0.06606854498386383,-0.03857121616601944,-0.007999555207788944,-0.024900535121560097,0.034470170736312866,0.023916928097605705,0.017335398122668266,-0.015057623386383057,-0.030265649780631065,-0.020096953958272934,-0.06264591962099075,-0.03295068442821503,0.11571132391691208,-0.2317327857017517,0.05982820689678192,-0.07521937042474747,-0.0025659026578068733,0.04515968635678291,-0.025794917717576027,0.06161945313215256,-0.03888022154569626,0.15453097224235535,-0.005621211603283882,-0.010711207054555416,-0.03513306751847267,0.10509753972291946,0.06212887912988663,-0.09747042506933212,-0.06802033632993698,0.13516107201576233,-0.058226995170116425,-0.147852823138237,-0.03905254974961281,-0.013860518112778664,-0.03585921600461006,0.1661960631608963,-0.07769820839166641,-0.08674846589565277,0.05992574617266655,-0.22472165524959564,0.009334074333310127,0.0353725366294384,0.026080725714564323,-0.02272985875606537,0.07904744148254395,-0.06106715276837349,0.0016976958140730858,-0.03321100026369095,0.23352394998073578,-0.09168507903814316,-0.027866361662745476,-0.027218256145715714,-0.0549287386238575,0.06228580325841904,-0.1250450164079666,-0.02105197310447693,0.03761383891105652,0.013663670048117638,0.03381472826004028,0.03084634616971016,-0.07260753214359283,0.014438515529036522,0.06814131140708923,-0.01568460278213024,0.10741391032934189,0.011300033889710903,0.08869412541389465,0.06669799983501434,-0.04047041013836861,0.08038638532161713,0.050126444548368454,0.07745186984539032,-0.14504753053188324,-0.04719322919845581,-0.05533897876739502,0.09192947298288345,-0.06473001092672348,-0.15035668015480042,-0.0717523992061615,0.14094339311122894,-0.036651741713285446,-0.02380772866308689,-0.09427724778652191,-0.05444415286183357,-0.04873371869325638,-0.04852992296218872,-0.02079562470316887,0.0596124492585659,0.048579003661870956,-0.01516652200371027,-0.005543773993849754,0.171630859375,0.06119517236948013,-0.07814537733793259,-0.01436799205839634,0.13042813539505005,-0.10886841267347336,0.033592790365219116,0.005465522408485413,-0.10239845514297485,-0.08202067017555237,0.02769339270889759,-0.03764188662171364,0.03870927542448044,0.08903762698173523,0.05569906160235405,0.04457814246416092,0.01762406900525093,0.021549254655838013,-0.09033402055501938,0.11071159690618515,-0.11519541591405869,-0.03025602549314499,-0.01910843700170517,-0.09021149575710297,-0.011682139709591866,-0.09066634625196457,0.07662077248096466,0.05791002884507179,-0.013516008853912354,0.11644113063812256,0.09919089823961258,0.05871432274580002,0.06429047137498856,-0.0796695277094841,-0.06448191404342651,0.1430547833442688,-0.04262756183743477,0.0031903625931590796,-0.0114983469247818,0.014168132096529007,