0.015599910169839859,0.016451971605420113,-0.005220472812652588,0.018999604508280754,-0.01295401994138956,0.02299637719988823,0.0014157689874991775,0.0031138143967837095,0.023539870977401733,0.010015218518674374,0.005913975182920694,-0.0070641255006194115,0.0058302809484303,0.011717741377651691,-0.009469735436141491,-0.031023237854242325,-0.009649394080042839,0.007220428436994553,0.02877400815486908,0.022767724469304085,0.010163743980228901,-0.00947329867631197,0.017489559948444366,-0.03387988731265068,-0.018953781574964523,-0.007228936068713665,0.028660394251346588,0.03375403210520744,-0.017409294843673706,0.020150654017925262,-0.006414494942873716,0.009522306732833385,-0.010165583342313766,0.02160322293639183,0.00976581685245037,-0.008471493609249592,0.019239280372858047,-0.02768794819712639,0.016283119097352028,0.0036784971598535776,0.025077536702156067,0.02470707893371582,-0.0033531365916132927,-0.010261144489049911,0.006902989931404591,0.02192319557070732,-0.010738421231508255,-0.0032407857943326235,0.030769776552915573,-0.01825246401131153,0.032029807567596436,0.02365175262093544,0.03205437958240509,0.010872527956962585,-0.0021089082583785057,0.019430113956332207,0.02191835083067417,-0.015602254308760166,-0.018168894574046135,0.0006916441489011049,0.02879643440246582,-0.03029016964137554,0.0184814240783453,-0.01701517589390278,-0.002674598479643464,0.014317496679723263,0.006572210695594549,-0.015868445858359337,-0.003127223812043667,0.008232543244957924,0.026514610275626183,0.026816628873348236,0.02754446491599083,0.021496571600437164,0.009054047986865044,0.016510101035237312,-0.01694728247821331,-0.023930728435516357,5.9709258493967354e-05,0.022934839129447937,-0.0061648148111999035,-0.017033256590366364,-0.030936839058995247,0.010040013119578362,0.002236231230199337,-0.007407546509057283,0.033654339611530304,0.0007355409325100482,-0.020437560975551605,0.0063469866290688515,-0.024485621601343155,-0.028988773003220558,-0.008310182020068169,0.003726696828380227,0.007304070983082056,0.009631245397031307,-0.011334060691297054,-0.011886092834174633,-0.005136579740792513,0.03379206359386444,0.030947960913181305,-0.004105804953724146,0.029864761978387833,-0.01939397305250168,0.0009330548928119242,-0.03241754323244095,-0.010628403164446354,-0.007521794177591801,-0.01863713562488556,0.00589456083253026,-0.028139585629105568,-0.018082911148667336,0.02526816725730896,-0.026036784052848816,0.015348642133176327,-0.028514403849840164,0.02431580051779747,0.02774309180676937,0.022002488374710083,0.0151237016543746,-0.0062018390744924545,0.01270592212677002,0.011387686245143414,-0.023189587518572807,-0.019645990803837776,-0.024956881999969482,-0.012742270715534687,0.009929350577294827,-0.03241174668073654,0.0034021211322396994,-0.03212396427989006,-0.03110821731388569,-0.012600243091583252,0.01316485833376646,-0.024861613288521767,-0.018808720633387566,0.005017777439206839,0.016356684267520905,-0.03143256902694702,0.01963089406490326,-0.029331309720873833,-0.029826756566762924,-0.016751274466514587,0.030017517507076263,0.019516421481966972,0.0037541580386459827,0.015697035938501358,-0.02418552339076996,0.0325557179749012,0.008440645411610603,0.020273998379707336,0.011927884072065353,0.0023016021586954594,0.02588772401213646,-0.015333445742726326,0.028070464730262756,0.02025078982114792,-0.018924953415989876,-0.012809742242097855,-0.02411758154630661,-0.020126985386013985,-0.03380538523197174,0.018839368596673012,0.013456697575747967,-0.03110433556139469,-0.01863056980073452,0.012439558282494545,-0.02364673651754856,0.01966245472431183,0.028881384059786797,0.022707700729370117,0.003510603914037347,0.015941590070724487,0.024655714631080627,0.009256032295525074,-0.011740257032215595,0.03391199931502342,-0.0016408736119046807,-0.023289386183023453,-0.02499767206609249,0.004125045612454414,0.026335854083299637,-0.004570821765810251,-0.01975654996931553,-0.01297878660261631,0.030081871896982193,0.011375471018254757,0.011468030512332916,-0.030597198754549026,-0.007631481159478426,-0.03268196061253548,-0.027344513684511185,-0.030220676213502884,-0.013889206573367119,0.03381243720650673,-0.013396533206105232,0.02944430522620678,-0.023506857454776764,0.02663143165409565,0.028580257669091225,0.030814776197075844,-0.021702848374843597,-0.025412667542696,-0.01563342846930027,-0.006169421132653952,0.02204710617661476,0.007325121201574802,-0.015485736541450024,0.024262582883238792,-0.015079117380082607,0.016047215089201927,0.02904522605240345,-0.023740792647004128,-0.011099999770522118,-0.003596497932448983,0.0031780251301825047,0.01921180635690689,0.004828060511499643,-0.00028534699231386185,-0.005644368007779121,0.02576206624507904,-1.588484701642301e-05,-0.002097871620208025,-0.011084411293268204,-0.029143061488866806,-0.0067759607918560505,-0.009116675704717636,-0.012540658935904503,0.01833253540098667,0.008738493546843529,0.008918944746255875,0.01338229514658451,0.03355664387345314,-0.03387429192662239,-0.013534431345760822,0.0038043861277401447,-0.003942547831684351,0.02597338892519474,-0.016796955838799477,0.019199304282665253,-0.019607800990343094,-0.018728667870163918,-0.011751295998692513,-0.015369389206171036,-0.024148426949977875,0.01344944816082716,0.03124428726732731,0.01360812596976757,0.019392481073737144,0.026108108460903168,0.03330221399664879,-0.014591732993721962,-0.033219896256923676,-0.027752237394452095,0.012318659573793411,-0.02267419546842575,-0.013220439665019512,0.012289279140532017,-0.0031194949988275766,-0.01714833825826645,0.0005171264056116343,-0.025420302525162697,-0.027636943385004997,0.026677144691348076,-0.008415188640356064,0.001953455386683345,-0.0038913891185075045,0.027228429913520813,-0.01612805761396885,-0.027635570615530014,-0.0077410792000591755,0.006189437583088875,0.025500962510704994,-0.015219008550047874,-0.020483309403061867,-0.007361256051808596,-0.0262845978140831,0.007244020234793425,-0.021395597606897354,0.0059922318905591965,-0.0330621711909771,0.009392784908413887,0.018507150933146477,0.00472015468403697,-0.0076162549667060375,0.019662244245409966,0.014163587242364883,-0.017900891602039337,0.014573106542229652,0.028849055990576744,0.014028748497366905,-0.022533170878887177,0.027708396315574646,-0.011073688045144081,0.017369141802191734,-0.02177329733967781,0.018460804596543312,0.023061782121658325,0.005740678869187832,-0.0021951866801828146,-0.016472849994897842,0.020808560773730278,0.0005166109185665846,0.029061151668429375,0.03401046618819237,-0.030571073293685913,-0.010983006097376347,0.02135874330997467,0.022872749716043472,-0.004101736471056938,0.0002899711253121495,-0.0022458857856690884,-0.02621813863515854,0.020794695243239403,-0.011668140068650246,0.016344521194696426,0.015550047159194946,-0.00901509914547205,-0.030339814722537994,-0.010467255488038063,0.012782144360244274,0.001669394550845027,0.01853226125240326,0.03208848834037781,0.0018353185150772333,-0.014416311867535114,0.007348396349698305,-0.013203911483287811,0.022476568818092346,-0.00411137705668807,0.028945423662662506,0.013877466320991516,-0.009122376330196857,0.020392341539263725,-0.01596914976835251,-0.018787838518619537,0.022623388096690178,-0.02796248532831669,0.014832681976258755,-0.011261751875281334,-0.019867468625307083,0.009865972213447094,0.031062189489603043,0.03145262226462364,0.01620706170797348,-0.02011263370513916,0.008604665286839008,0.010165282525122166,-0.032574769109487534,-0.0052677784115076065,-0.020282922312617302,0.01379487942904234,-0.015866782516241074,0.031240245327353477,-0.03135412558913231,0.001179969753138721,-0.0034552167635411024,-0.023043645545840263,-0.009882629849016666,-0.01797550544142723,0.030443016439676285,-0.03372383490204811,-0.003093881532549858,-0.026357170194387436,-0.008955561555922031,-0.03052099607884884,-0.013055497780442238,0.016123469918966293,0.02575373277068138,-0.013397341594099998,0.026738997548818588,0.009573803283274174,0.0011520788539201021,0.023980384692549706,-0.011262406595051289,-0.03102547489106655,0.031044939532876015,0.01954629272222519,-0.01214643195271492,0.026509681716561317,0.016393449157476425,0.02371542528271675,0.027211282402276993,0.021924663335084915