0.03088984452188015,-0.0015301431994885206,0.026357080787420273,-0.004143151454627514,-0.020014429464936256,0.043512362986803055,0.021700281649827957,0.005832773633301258,-0.0404081717133522,0.04882652312517166,0.02021346613764763,-0.08187460154294968,0.03860386088490486,-0.05616398900747299,0.03524360433220863,-0.038940731436014175,0.03912557661533356,0.029865749180316925,-0.014907648786902428,0.049071066081523895,-0.00116385193541646,0.14905866980552673,0.12365236133337021,-0.0258198082447052,-0.011164439842104912,-0.015549398958683014,0.0008533640066161752,-0.000685269886162132,0.004171275533735752,0.030846256762742996,-0.0009673107997514307,-0.1068577691912651,0.02163597010076046,0.06566500663757324,0.04497614502906799,0.07638688385486603,0.02476724237203598,0.049551185220479965,0.043191082775592804,-0.0063660177402198315,0.00207292172126472,-0.013750306330621243,-0.09573867172002792,0.032895706593990326,-0.1171661838889122,-0.026609381660819054,0.11921228468418121,-0.032084789127111435,-0.02878415957093239,0.01153127197176218,0.027372237294912338,0.019572768360376358,-0.021074896678328514,-0.02355792745947838,0.022840915247797966,-0.13073725998401642,0.004596298560500145,-0.028998233377933502,0.0018634290900081396,0.0016835916321724653,0.03603724390268326,0.0013282132567837834,0.0017381360521540046,-0.0815444365143776,-0.01568547636270523,-0.0268660020083189,0.04752100631594658,0.06637552380561829,-0.02791769988834858,-0.1093781366944313,0.0114280441775918,0.017001764848828316,-0.0442189984023571,-0.05029711127281189,0.06459817290306091,-0.023028451949357986,0.02099003829061985,0.06738492101430893,-0.034203194081783295,0.03878135234117508,0.05100854113698006,0.004096386022865772,0.07020478695631027,-0.1494886875152588,-0.09156825393438339,0.015960220247507095,-0.057983946055173874,-0.1253049671649933,0.06966985017061234,-0.033535320311784744,-0.058870382606983185,-0.07953377068042755,-0.046678222715854645,0.029998499900102615,-0.007325429935008287,-0.04532388597726822,-0.010900085791945457,-0.04205276817083359,-0.026381410658359528,-0.059963081032037735,-0.07919779419898987,-0.05106928199529648,-0.07166603207588196,0.001428005052730441,-0.006924554239958525,-0.0664057731628418,-0.015578001737594604,-0.026147684082388878,-0.0019489206606522202,-0.09430579841136932,0.030261870473623276,0.0013960272772237659,0.06443798542022705,-0.053183648735284805,-0.051309116184711456,-0.030348893254995346,0.03171870484948158,-0.03670388087630272,0.08205023407936096,-0.00022608134895563126,0.010027715004980564,-0.03281925246119499,-0.017257386818528175,0.04826422408223152,0.06601637601852417,-0.05078921839594841,-0.0019136432092636824,-0.01638234220445156,0.016249898821115494,-5.870065069757402e-05,0.14715149998664856,0.005172500386834145,0.03872039169073105,0.03137578070163727,-0.017909271642565727,-0.020502902567386627,-0.018619388341903687,-0.017012279480695724,-0.13087840378284454,0.07454492896795273,0.06386342644691467,-0.0032093229237943888,0.045080769807100296,0.0056058974005281925,-0.030243393033742905,-0.008177843876183033,-0.0013760224683210254,0.14663831889629364,-0.013327941298484802,-0.03552927449345589,-0.038861632347106934,0.02913764677941799,0.1497887670993805,0.00464040320366621,-0.0653163343667984,-0.0029414515011012554,0.03787228837609291,-0.040892671793699265,0.02167431265115738,0.01729647070169449,-0.0027015330269932747,-0.02349848486483097,-0.11721081286668777,0.0033391506876796484,-0.07447141408920288,-0.03463482856750488,0.03901130333542824,0.011384467594325542,0.039649415761232376,-0.043767452239990234,0.03353968635201454,0.03909137472510338,0.07817194610834122,0.042514074593782425,0.127412348985672,-0.05923965200781822,0.0328439325094223,0.07486545294523239,-0.025318237021565437,-0.029507704079151154,-0.038882043212652206,-0.02055233158171177,0.03357718139886856,-0.03755348548293114,-0.023065198212862015,0.020361268892884254,0.06432144343852997,0.02779749035835266,0.09541402012109756,-0.03427997604012489,-0.07580657303333282,0.007085971534252167,0.001071785343810916,0.029514798894524574,0.023323627188801765,0.06169925630092621,-0.06857937574386597,-0.08575855940580368,-0.03058512508869171,-0.016687950119376183,-0.02453196607530117,-0.027599766850471497,0.10340103507041931,0.015226578339934349,0.0020140514243394136,-0.011558903381228447,-0.05848156288266182,-0.052169907838106155,-0.009841572493314743,0.06329609453678131,0.08477671444416046,-0.035435132682323456,-0.02545267529785633,-0.017178112640976906,-0.03910134732723236,0.0026763698551803827,-0.04148120805621147,-0.011213686317205429,0.02210300788283348,0.0211916696280241,-0.0037370792124420404,-0.013381353579461575,-0.039468251168727875,-0.03544292226433754,0.02926613576710224,-0.01475959550589323,-0.13521012663841248,-0.04927018657326698,-0.09714768826961517,-0.021169422194361687,-0.03801104053854942,-0.03647448122501373,0.04375287890434265,-0.0296133141964674,0.05068086087703705,0.046193234622478485,-0.11745024472475052,-0.04184437915682793,0.04567837715148926,0.03936034440994263,0.007779071107506752,-0.17380215227603912,0.03408351540565491,0.016996948048472404,0.07408395409584045,-0.031017309054732323,-0.09634879231452942,-0.025587858632206917,-0.0014384461101144552,-0.03269106149673462,0.05474022030830383,-0.02383883111178875,0.0035868948325514793,0.025837605819106102,0.043124355375766754,0.018140340223908424,0.013753469102084637,-0.042149145156145096,-0.01414464134722948,-0.03226726874709129,-0.035469356924295425,-0.006442587822675705,0.04846321791410446,-0.15013915300369263,-0.020925849676132202,-0.09729677438735962,-0.009989661164581776,-0.10736329853534698,0.010222645476460457,0.04344724491238594,-0.03027544729411602,0.0689672976732254,-0.05984119325876236,-0.007920943200588226,0.032024484127759933,0.025272788479924202,-0.011215057224035263,0.11125555634498596,0.07652124762535095,-0.009648007340729237,-0.018568161875009537,-0.023111235350370407,0.07734660059213638,-0.030203789472579956,0.026539834216237068,-0.0750313401222229,-0.006531869526952505,0.020736632868647575,-0.026772888377308846,0.015729840844869614,-0.018720272928476334,0.10286155343055725,-0.0063909320160746574,-0.029435982927680016,0.05641822889447212,-0.129415825009346,-0.01528796274214983,0.02993847243487835,-0.03397330641746521,-0.04036661610007286,-0.04657354950904846,0.08238964527845383,-0.04378240182995796,0.05991865321993828,-0.055531010031700134,-0.015937937423586845,0.013505338691174984,0.003298240015283227,0.003428267315030098,0.010050015524029732,0.017382564023137093,-0.01177765242755413,-0.017377980053424835,-0.07687640190124512,-0.03790471702814102,-0.05208604410290718,0.025580061599612236,0.08974213153123856,0.07393322885036469,0.022900983691215515,-0.050739191472530365,-0.04447126388549805,0.06620041280984879,0.11501464992761612,0.08188720792531967,-0.011374576017260551,-0.08970240503549576,-0.0363389253616333,-0.015629462897777557,-0.13050366938114166,0.03110249899327755,0.07681240886449814,0.05960336700081825,-0.0802643820643425,-0.01938297413289547,0.07563583552837372,0.006983595434576273,-0.10601644963026047,-0.03233921527862549,0.06596024334430695,0.17721959948539734,0.0319996140897274,0.11020710319280624,-0.03609572350978851,-0.016055500134825706,-0.08401219546794891,-0.008912302553653717,-0.06875640153884888,0.06806236505508423,-0.029388831928372383,-0.05432426184415817,0.03222097456455231,-0.053233079612255096,0.012812759727239609,0.030539298430085182,-0.02219224162399769,-0.02124694548547268,-0.021342258900403976,0.06624150276184082,0.24846886098384857,-0.020073942840099335,0.014493774622678757,0.18399490416049957,-0.06123967096209526,-0.11406078189611435,-0.008088270202279091,-0.08906306326389313,-0.03299940750002861,-0.07053050398826599,0.0308618675917387,0.006280233152210712,0.11190333962440491,0.1312280148267746,-0.026125237345695496,-0.03734537586569786,0.022566135972738266,0.0939481258392334,0.04251820221543312,-0.001312989043071866,-0.08805721998214722,0.032827019691467285,0.03389668092131615,0.017462823539972305,-0.08142523467540741,0.11114399135112762,0.03709065169095993,-0.0415954664349556,0.011350241489708424,-0.038299258798360825,-0.030223313719034195,-0.018876900896430016,-0.019524261355400085,-0.05443815886974335,-0.005062938202172518,0.08791805058717728,0.012398014776408672,-0.016928499564528465,-0.008552175015211105,-0.03476517274975777,0.05201292783021927,-0.008300259709358215,0.003556611482053995,-0.003574472153559327,-0.033703580498695374,0.04533097892999649,0.05857611447572708,-0.17052805423736572,0.07208994776010513,0.02141227386891842,0.007956666871905327,0.007211472373455763,0.04305276274681091,-0.0010341412853449583,0.04752528294920921,-0.026185058057308197,0.09155955910682678,-0.12734460830688477,-0.04656565934419632,-0.007117466535419226,-0.017953531816601753,-0.03445805609226227,-0.08207651972770691,-0.07139401137828827,0.07062089443206787,-0.03258654475212097,0.06483270227909088,-0.001608000136911869,-0.06927904486656189,0.08021469414234161,0.05012030154466629,0.07666893303394318,0.10656986385583878,0.11816171556711197,-0.02021844871342182,0.027149273082613945,0.07802994549274445,-0.019941290840506554,-0.04877825826406479,-0.006373018492013216,-0.08181124180555344,-0.17048582434654236,0.0037640605587512255,0.009124964475631714,-0.006068816874176264,-0.15651890635490417,0.12707838416099548,0.14911113679409027,-0.12145109474658966,0.03958960622549057,0.014797556214034557,0.08002910763025284,0.013633683323860168,-0.014576024375855923,-0.03125164285302162,-0.12429704517126083,-0.03808017075061798,0.1461898386478424,-0.10700609534978867,-0.017568714916706085,0.0267422404140234,0.0336545892059803,-0.09817640483379364,-0.017059698700904846,0.05681716650724411,0.08975530415773392,-0.058097295463085175,0.02679615281522274,-0.07817395031452179,-0.11623843759298325,-0.09317774325609207,-0.025662600994110107,-0.03574125096201897,0.0408451110124588,0.10604709386825562,0.06689676642417908,-0.037064336240291595,0.0801214724779129,0.02364259958267212,-0.026419226080179214,-0.03162253648042679,-0.05144139751791954,-0.0698486715555191,-0.012721079401671886,0.05795712769031525,-0.047468654811382294,0.026925308629870415,0.02057749032974243,0.07249318063259125,0.11492804437875748,0.033245187252759933,0.030377216637134552,-0.03409206494688988,-0.032247528433799744,0.14089229702949524,-0.02726447954773903,0.03980648145079613,-0.10498698800802231,0.03742079809308052,0.11565828323364258,0.056183986365795135,0.033809930086135864,-0.13217832148075104,-0.06183509901165962,-0.020541340112686157,-0.05986282601952553,0.0996909961104393,-0.07675725966691971,-0.005793201737105846,0.03745625168085098,-0.14373362064361572,-0.037702687084674835,0.002210041042417288,-0.07554147392511368,-0.03779207170009613,0.05331018939614296,0.02082713320851326,-0.11043716222047806,-0.00962651427835226,-0.03840355947613716,-0.04320443421602249,0.001149327028542757,0.08194268494844437,-0.05341190844774246,0.040141940116882324,-0.05017164349555969,0.057116348296403885,-0.006432900670915842,-0.02351350151002407,-0.020306671038269997,-0.012010223232209682,0.0028925840742886066,-0.08087828010320663,0.03466448187828064,-0.029407991096377373,0.02069794572889805,-0.002539383014664054,0.012500413693487644,-0.037754252552986145,0.10480286180973053,0.075808085501194,-0.029251815751194954,-0.0042391628958284855,0.14779838919639587,0.037084151059389114,-0.012042783200740814,-0.02137860283255577,0.006281762383878231,-0.02887115627527237,-0.03591110184788704,-0.042049653828144073,-0.0382746160030365,0.011787690222263336,-0.030164390802383423,0.10946831852197647,-0.034408800303936005,-0.021965518593788147,0.03813977167010307,-0.06039634719491005,0.03263411670923233,-0.052652936428785324,-0.011229032650589943,0.0075301313772797585,0.008972332812845707,-0.029710453003644943,-0.03311547636985779,0.003960438538342714,-0.04151970520615578,-0.014415483921766281,-0.028897998854517937,-0.03301145136356354,-0.06955720484256744,0.04321474954485893,-0.013547468930482864,0.028838081285357475,-0.006825748831033707,0.0028429378289729357,-0.08029020577669144,-0.038444384932518005,0.06982330977916718,0.05628146231174469,0.05982808396220207,-0.01946801319718361,-0.058217450976371765,0.023623913526535034,-0.06569109112024307,0.22633987665176392,-0.04622284322977066,0.061501652002334595,0.050723783671855927,-0.09112024307250977,-0.05173187330365181,0.01443817000836134,-0.023368628695607185,-0.031195104122161865,-0.10907334834337234,-0.10362018644809723,-0.06585968285799026,-0.18135900795459747,-0.0605303980410099,0.07367588579654694,-0.0156797394156456,0.12865835428237915,-0.07726029306650162,-0.04179619625210762,0.025574957951903343,0.06627092510461807,-0.057861339300870895,-0.10185278207063675,0.033845312893390656,0.006120758596807718,-0.041144244372844696,0.018111756071448326,-0.013696608133614063,0.016977306455373764,0.0915423259139061,-0.0788530707359314,-0.04451112821698189,-0.08753533661365509,-0.12087146192789078,-0.016601283103227615,-0.034551333636045456,-0.04935481399297714,-0.002107504988089204,-0.012495383620262146,0.0053221601992845535,-0.0029635485261678696,0.018246812745928764,0.16712570190429688,0.0413748100399971,0.06348945200443268,-0.04114723578095436,-0.04453213885426521,-0.0305543951690197,0.12941676378250122,0.0003700899251271039,0.002698536030948162,-0.04951319471001625,0.08121180534362793,-0.023543836548924446,0.012382525950670242,0.09095025807619095,0.12345128506422043,-0.12776586413383484,-0.03916255757212639,0.01579306088387966,-0.014102951623499393,-0.08100883662700653,-0.08862230181694031,-0.07958445698022842,-0.041458629071712494,0.010965030640363693,0.014329635538160801,0.18831227719783783,0.018392065539956093,0.018355565145611763,-0.010205842554569244,0.017290310934185982,0.03481605276465416,0.1451680213212967,-0.03873392567038536,-0.03552272170782089,0.04285254701972008,0.11313234269618988,0.035797711461782455,-0.07032643258571625,-0.03122633509337902,0.011985323391854763,0.09456868469715118,-0.06934751570224762,-0.14256365597248077,-0.28808534145355225,-0.041788965463638306,0.09268287569284439,-0.05347038805484772,0.03953035920858383,0.08234504610300064,-0.000597157166339457,0.031515926122665405,-0.03180341795086861,0.03942611813545227,-0.13467611372470856,0.05887859687209129,0.038812704384326935,-0.03677259385585785,-0.1102684810757637,0.028496040031313896,-0.01631472259759903,-0.01569226011633873,0.05142751336097717,-0.0971805527806282,0.01631670445203781,0.06924161314964294,-0.0013026659144088626,0.006756664719432592,-0.0681212916970253,0.07474824786186218,-0.012091037817299366,0.003038958180695772,-0.03410206362605095,-0.010060729458928108,0.09494979679584503,-0.09451866149902344,-0.09104977548122406,-0.03912828490138054,0.0307932086288929,-0.026755651459097862,0.05530770495533943,-0.010641081258654594,0.0577109195291996,0.03716729208827019,0.14929601550102234,0.007948333397507668,0.17767451703548431,-0.12309864163398743,0.012753283604979515,-0.02894330583512783,0.010273654013872147,0.0038531681057065725,0.08716809749603271,-0.040202751755714417,0.0698041021823883,0.021890688687562943,-0.05238667130470276,0.035133473575115204,0.1630961149930954,0.007572838105261326,0.033207863569259644,-0.013042055070400238,-0.05901043117046356,0.06380508840084076,0.14672979712486267,0.008505485951900482,0.137251615524292,0.03552304208278656,0.1633511334657669,0.025512555614113808,-0.00695418706163764,0.14616338908672333,0.003670750418677926,0.00396313052624464,-0.09638570994138718,0.020277053117752075,0.02270638756453991,0.19681593775749207,-0.07044435292482376,-0.06741820275783539,-0.02889174595475197,-0.035177916288375854,0.0020698432344943285,0.12627550959587097,-0.017913030460476875,0.02717788703739643,-0.12099123001098633,0.0723850205540657,0.05406200513243675,0.018902283161878586,-0.05970657989382744,-0.12252587825059891,0.07156021893024445,-0.14284640550613403,-0.08220046758651733,-0.10169424116611481,0.08416014164686203,0.03367443382740021,-0.021754760295152664,-0.02251916006207466,-0.0529559850692749,-0.08472493290901184,0.00410208385437727,-0.005120623856782913,-0.05904523655772209,-0.019525617361068726,0.11535632610321045,0.007778049446642399,-0.14198985695838928,-0.013344737701117992,0.0011695318389683962,0.0007482095388695598,0.13961933553218842,0.019077826291322708,-0.14672525227069855,-0.00665366230532527,0.02406473271548748,-0.034329332411289215,0.010631571523845196,0.02784530073404312,-0.09214257448911667,-0.0174078531563282,-0.057687558233737946,0.14069274067878723,0.05405544489622116,-0.024502558633685112,-0.018284430727362633,0.06572955846786499,-0.07086111605167389,-0.1746157854795456,0.03138790279626846,-0.011546389199793339,-0.01041403878480196,-0.013740567490458488,0.0397014357149601,0.08388049900531769,0.06519777327775955,0.035634737461805344,-0.09371737390756607,0.06608235090970993,0.07523567229509354,-0.09470167011022568,0.04547839239239693,-0.05568687617778778,-0.04426176846027374,0.028309296816587448,-0.026061713695526123,-0.03806154057383537,0.06115449592471123,0.0735253095626831,-0.1032232865691185,-0.041220080107450485,0.04208815470337868,0.0199523214250803,-0.011806361377239227,0.035430196672677994,-0.03813914954662323,0.03763512149453163,-0.027970969676971436,0.03409266471862793,-0.018970243632793427,-0.1768370270729065,0.02169007807970047,-0.024528667330741882,0.08426480740308762,-0.04184965789318085,-0.0873040035367012,-0.19564779102802277,0.019857311621308327,0.021853545680642128,-0.06798873841762543,-0.0570254847407341,-0.019289329648017883,-0.02726931683719158,0.12345460057258606,-0.0571896918118,0.025256728753447533,-0.06739320605993271,-0.02062053047120571,0.06387395411729813,0.0797777995467186,-0.12359149754047394,-0.013704076409339905,-0.020143253728747368,-0.02345973066985607,-0.029064694419503212,0.06593899428844452,0.011868681758642197,-0.0038756257854402065,0.006296385545283556,-0.07184743136167526,0.002447746228426695,0.04424690827727318,-0.021631620824337006,-0.006972447503358126,0.028619904071092606,0.06759551912546158,-0.07393091917037964,-0.11664621531963348,-0.07920552045106888,-0.04211980849504471,0.0064588007517158985,0.1533806473016739,-0.04875744506716728,-0.01326113659888506,0.04428211227059364,0.019997868686914444,0.0004825193900614977,0.004630378447473049,-0.07037895172834396,0.003634288441389799,-0.006547636352479458,-0.024238448590040207,-0.04634174704551697,0.002942766062915325,-0.038523923605680466,-0.04154256358742714,-0.003430549753829837,0.017865486443042755,0.02111176773905754,-0.036114320158958435,0.049171917140483856,-0.012137964367866516,-0.014794204384088516,0.02069028653204441,-0.1229240894317627,-0.027530647814273834,-0.006209508050233126,0.11247576773166656,-0.052140288054943085,0.04136084392666817,0.09161318838596344,-0.019385896623134613,0.03662903606891632,0.01791732758283615,0.03971032053232193,-0.059391506016254425,0.128495454788208,-0.05504164099693298,-0.08448857069015503,-0.06104474514722824,0.08572064340114594,0.18656690418720245,-0.0226982980966568,0.1332520693540573,-0.03009667992591858,0.01505738403648138,0.008004013448953629,0.16345365345478058,0.028802642598748207,0.021134214475750923,-0.10490226745605469,0.04185910522937775,-0.033276304602622986,-0.018924672156572342,-0.013293188065290451,0.0018245429964736104,0.002996831201016903,0.052574608474969864,-0.05933113023638725,-0.12457732856273651,0.019729454070329666,-0.011899073608219624,0.037740886211395264,-0.015380758792161942,0.07779354602098465,-0.06286893784999847,-0.0770181268453598,-0.06579947471618652,0.23669283092021942,0.006128429435193539,0.11440712958574295,0.03852354735136032,-0.009779061190783978,-0.0793764591217041,0.04576989635825157,-0.03670189529657364,0.021105224266648293,-0.08706838637590408,-0.10665739327669144,-0.008200003765523434,0.007416901644319296,-0.04065984860062599,-0.032345000654459,-0.02306671440601349,0.03545030578970909,0.11633852124214172,-0.18561753630638123,-0.0010256391251459718,-0.059015534818172455,-0.044359706342220306,0.012175215408205986,0.05447202920913696,0.019189555197954178,0.15211999416351318,0.016714084893465042,0.023764170706272125,-0.11296619474887848,-0.040809083729982376,0.06946118175983429,-0.03943048045039177,-0.0042795464396476746,-0.07214555144309998,-0.030390020459890366,0.03363489732146263,0.015518701635301113,0.09581389278173447,0.04470381885766983,-0.020388102158904076,-0.13133203983306885,-0.07210903614759445,-0.15681670606136322,0.11034685373306274,-0.08332651853561401,0.04068184643983841,0.06052557751536369,0.06787079572677612,0.016867760568857193,0.041726451367139816,-0.06516184657812119,0.02507879212498665,-0.1222711056470871,0.06303179264068604,-0.005842264741659164,-0.036619413644075394,-0.11396006494760513,0.05642475187778473,-0.06499700248241425,-0.08974839001893997,0.04992751404643059,0.004711946472525597,0.14652186632156372,-0.060753826051950455,0.0308077372610569,0.13424992561340332,0.0035375808365643024,0.245603546500206,-0.10090655833482742,0.022318348288536072,-0.04531053453683853,0.02372441627085209,-0.05316847562789917,0.06446262449026108,-0.00605548033490777,0.0017980431439355016,-0.1331140697002411,0.1721639782190323,-0.09185788035392761,-0.10291536152362823,-0.03595054894685745,-0.14079006016254425,-0.0010351797100156546,0.06532864272594452,0.12592947483062744,0.09619282186031342,-0.03411024436354637,-0.09515681117773056,-0.10581637173891068,-0.046339813619852066,0.024822214618325233,0.010227659717202187,-0.024387726560235023,-0.03901907056570053,-0.17509721219539642,-0.007007009349763393,0.0715130865573883,0.04513229802250862,-0.047947488725185394,-0.006695315707474947,0.19076047837734222,-0.04974448308348656,-0.05428764969110489,-0.1310417503118515,0.14418566226959229,0.07711289077997208,0.09437031298875809,0.039561860263347626,-0.01611829176545143,0.025141224265098572,-0.052996549755334854,-0.07196773588657379,-0.009699205867946148,-0.06829742342233658,0.1196151077747345,-0.0013137208297848701,-0.029842322692275047,-0.04153833165764809,-0.050688643008470535,0.023644335567951202,-0.07493727654218674,-0.010904340073466301,-0.024725953117012978,0.015987951308488846,-0.04159589856863022,0.05944787710905075,0.18479585647583008,0.05011520907282829,0.0795811340212822,-0.1733454465866089,0.017912065610289574,0.04471774026751518,-0.05501838028430939,-0.030082955956459045,0.05501677095890045,0.0410018190741539,0.06416403502225876,-0.1007731556892395,-0.05580586567521095,-0.011439033783972263,-0.05514301359653473,0.0015749875456094742,0.02158079296350479,-0.07838807255029678,-0.013779561035335064,-0.01496948953717947,-0.15121309459209442,-0.021898303180933,0.0846085473895073,-0.19611646234989166,0.012882059440016747,-0.15510480105876923,-0.10433648526668549,0.020173389464616776,-0.0156515184789896,-0.010468520224094391,0.07943323254585266,0.028777185827493668,0.059045691043138504,-0.0024283642414957285,-0.04938693344593048,-0.06429757177829742,-0.01764158345758915,-0.10953176021575928,-0.01860475167632103,-0.04645463824272156,0.05462828651070595,-0.16073396801948547,0.004560320172458887,0.16780714690685272,-0.017674757167696953,-0.026286734268069267,0.051824260503053665,0.14239740371704102,-0.13694822788238525,0.030986305326223373,-0.10121296346187592,0.184860959649086,-0.054787106812000275,0.16576683521270752,0.028894245624542236,0.10941356420516968,-0.01113008800894022,0.014454212039709091,0.024711309000849724,-0.09693113714456558,-0.019986091181635857,0.11144286394119263,-0.004916246514767408,0.02744591049849987,0.0482599139213562,-0.06611568480730057,-0.08131644129753113,-0.05774253234267235,0.00916394405066967,0.1036989837884903,0.005300522781908512,-0.13705039024353027,-0.2728554904460907,0.10585226863622665,0.016572097316384315,0.1502682864665985,0.14654859900474548,-0.07767187058925629,-0.03502100706100464,-0.16827666759490967,0.0641806349158287,0.07807156443595886,0.07541152834892273,0.10047047585248947,0.03917605057358742,-0.07079090923070908,-0.10394027084112167,-0.056618187576532364,-0.05640638247132301,0.007141427136957645,0.03265928104519844,-0.06869511306285858,0.03774026781320572,0.16539962589740753,0.04608318209648132,-0.045003920793533325,0.06749432533979416,0.10024707019329071,-0.09617973119020462,0.04522527754306793,0.04891115427017212,0.06958061456680298,-0.04667670652270317,-0.04391178861260414,0.05470261722803116,0.0782749205827713,0.04418028146028519,0.12317021191120148,0.08344114571809769,0.0030939264688640833,-0.06386703997850418,0.01975349336862564,0.13844414055347443,-0.017013775184750557,0.007074166554957628,-0.012229641899466515,0.20610442757606506,-0.13820381462574005,0.09957695007324219,-0.08446888625621796,0.035998981446027756,-0.03801137953996658,-0.011390271596610546,-0.0749509409070015,-0.09527420252561569,0.10205429792404175,-0.015082168392837048,0.001018272596411407,0.14060993492603302,0.07083715498447418,0.019084570929408073,0.023861952126026154,0.18408416211605072,-0.0012467813212424517,-0.09109284728765488,-0.05555291101336479,0.14824548363685608,0.1105174645781517,-0.010929414071142673,0.12604105472564697,0.002961421851068735,-0.14969708025455475,0.03684717416763306,0.0934089794754982,0.03759445622563362,0.0747990682721138,-0.007798571605235338,0.01909978687763214,-0.07329872250556946,0.016307417303323746,0.2793137729167938,-0.04576476290822029,0.07073476910591125,0.08825085312128067,0.0364374965429306,-0.03130171447992325,-0.010129071772098541,-0.09516952186822891,0.06821516156196594,-0.15437638759613037,0.05862853303551674,-0.12510395050048828,0.01561039313673973,-0.16306118667125702,-0.051945220679044724,0.04839754477143288,-0.04154473915696144,-0.09408057481050491,-0.14982649683952332,0.18927371501922607,-0.02355835773050785,-0.13960851728916168,0.033200040459632874,0.08898193389177322,-0.031009942293167114,0.03882317617535591,0.14736129343509674,-0.0739150121808052,0.017304806038737297,0.003923699259757996,0.08146002143621445,0.12620776891708374,-0.0047428784891963005,-0.18812701106071472,0.09985802322626114,0.14182239770889282,0.048675477504730225,0.034013599157333374,-0.029142241925001144,-0.019806504249572754,0.0374264158308506,-0.07084707915782928,-0.021264564245939255,0.023866519331932068,0.14894947409629822,-0.09106695652008057,0.1368318796157837,0.051171623170375824,0.005399477668106556,-0.04189283773303032,-0.23307126760482788,-0.03755578398704529,-0.00858188234269619,0.024067139253020287,-0.16655166447162628,0.0026845927350223064,0.12747234106063843,-0.024698805063962936,-0.03827698901295662,-0.02344176545739174,0.1396552175283432,-0.05820911377668381,0.04512841999530792,-0.010092540644109249,-0.056994836777448654,-0.04977162554860115,0.09953974187374115,-0.010906624607741833,-0.10746176540851593,-0.05755329504609108,0.07477039843797684,0.025949103757739067,0.02381003275513649,0.029789498075842857,0.14042697846889496,0.07986443489789963,-0.041547905653715134,0.03013540990650654,-0.014597108587622643,0.0432637557387352,-0.054032422602176666,-0.10234133899211884,0.06339780241250992,-0.009546366520226002,-0.01813039928674698,0.01824025809764862,0.1012895330786705,0.03196624293923378,0.07393212616443634,0.049509093165397644,0.0018479530699551105,-0.04274534806609154,0.01525154896080494,-0.012107618153095245,0.06188638508319855,0.08435983210802078,0.0660967081785202,-0.011767406947910786,0.032436538487672806,-0.08478494733572006,-0.016134150326251984,0.10319499671459198,-0.08769921213388443,-0.012039246037602425,0.05872160196304321,-0.030166441574692726,0.05901532247662544,0.1735110580921173,0.055939167737960815,0.03974020481109619,-0.04779404401779175,-0.04313875362277031,-0.06771469116210938,-0.002319137565791607,-0.01936015859246254,0.08195337653160095,-0.0965907871723175,0.030857210978865623,-0.04261749982833862,0.008771251887083054,-0.02986169047653675,-0.017461946234107018,-0.13996613025665283,0.04375765472650528,-0.017190488055348396,0.1076902225613594,-0.026615947484970093,-0.1157778725028038,-0.0188829954713583,0.13772611320018768,-0.03656119480729103,-0.07031189650297165,-0.05575498193502426,-0.11427517980337143,-0.017989395186305046,-0.00374869117513299,0.004002126399427652,-0.04828477278351784,-0.19473247230052948,-0.09763002395629883,0.0737650915980339,-0.06512470543384552,0.033609483391046524,-0.05684027075767517,-0.1105167493224144,0.03088505193591118,0.10724279284477234,0.012539813295006752,-0.01014083344489336,0.04792734980583191,-0.007876223884522915,0.0534374862909317,-0.03097037598490715,-0.1732756644487381,0.0581459105014801,-0.15044139325618744,-0.02106311172246933,-0.06469158083200455,0.0315147340297699,-0.04498033970594406,0.03384281322360039,-0.0760231465101242,-0.07613033801317215,0.06979364156723022,0.018554620444774628,-0.050635047256946564,0.028688767924904823,0.06558698415756226,-0.0026250944938510656,-0.10175181925296783,-0.02915853075683117,-0.06334975361824036,-0.0036587421782314777,0.010139062069356441,0.06899481266736984,-0.0040560089983046055,-0.06971289217472076,-0.005624977871775627,0.014319046400487423,-0.029951753094792366,0.05599415302276611,-0.047738488763570786,-0.03028387576341629,0.003914756700396538,-0.0383480042219162,-0.0036758568603545427,-0.11200021952390671,0.03696835786104202,-0.019999025389552116,0.032433267682790756,0.05278580263257027,0.03722970187664032,-0.014789813198149204,0.11654364317655563,-0.0520760640501976,0.14471317827701569,0.07618958503007889,-0.05653271824121475,-0.055066876113414764,-0.04267537593841553,0.033007729798555374,0.0021492107771337032,0.058374349027872086,0.024168752133846283,-0.0355464331805706,-0.07179810851812363,-0.056997139006853104,-0.09497201442718506,-0.00271823862567544,0.038223572075366974,-0.050657421350479126,-0.004608817398548126,0.10057578235864639,0.007495687808841467,-0.01933915913105011,-0.06688623130321503,-0.035509295761585236,0.020191829651594162,0.038444310426712036,-0.0735333189368248,-0.01440653670579195,0.023407261818647385,0.02949824184179306,-0.11274083703756332,0.05007297918200493,-0.01783735118806362,-0.059160079807043076,0.005816243588924408,0.011584236286580563,0.06407852470874786,0.026749830693006516,-0.22544018924236298,-0.03772605210542679,-0.004447333514690399,0.08936113864183426,0.005855686962604523,0.020582085475325584,0.09153230488300323,-0.0622989684343338,0.18415257334709167,-0.048207953572273254,0.04975341632962227,0.03323417901992798,-0.12045522779226303,0.04659569263458252,-0.08261822164058685,0.06743694841861725,-0.022350981831550598,0.04642164707183838,0.03238971531391144,0.04250865802168846,0.026227610185742378,-0.14589467644691467,-0.003830541856586933,-0.018466059118509293,-0.13174869120121002,-0.10394371300935745,0.013929945416748524,-0.023849325254559517,-0.01347669679671526,0.09036662429571152,0.01138363778591156,-0.009461715817451477,-0.027335718274116516,-0.006529971957206726,-0.06257851421833038,-0.14708344638347626,-0.14158859848976135,-0.08219921588897705,0.10633079707622528,-0.03574726730585098,0.043284859508275986,0.039316728711128235,0.044237397611141205,0.0697764903306961,-0.12270452082157135,-0.06639733910560608,0.07266821712255478,-0.00724740931764245,0.010838421992957592,-0.15611916780471802,-0.008448258973658085,-0.03410499170422554,0.05534859746694565,-0.12247615307569504,0.017272407189011574,0.009363501332700253,-0.043477293103933334,0.009299284778535366,-0.03157445415854454,0.004169198218733072,0.006454950664192438,0.10051652789115906,-0.13838966190814972,-0.06939338147640228,-0.0552486889064312,-0.029155943542718887,-0.04476574435830116,-0.058017879724502563,-0.07470879703760147,0.038858912885189056,-0.030767641961574554,-0.028741031885147095,-0.0015479943249374628,-0.13288186490535736,-0.03908071666955948,0.018217112869024277,0.036314260214567184,0.03503204882144928,-0.018462402746081352,-0.1875859647989273,-0.0011716573499143124,-0.03328955918550491,0.025355400517582893,0.24276448786258698,-0.181565061211586,0.03888722509145737,-0.11592060327529907,0.04185857996344566,-0.05523262917995453,0.08943568915128708,-0.07524111121892929,0.011175429448485374,0.020125720649957657,0.0377301350235939,-0.017374197021126747,0.010257437825202942,-0.02726520225405693,0.012772554531693459,0.14360128343105316,0.08564823120832443,-0.001965062692761421,-0.07296370714902878,-0.01036200113594532,-0.09171486645936966,0.010345980525016785,-0.13720197975635529,-0.06158885359764099,0.04335908591747284,0.09798368811607361,0.041595458984375,-0.07808857411146164,-0.04275472089648247,0.14786933362483978,0.019524669274687767,-0.07972323894500732,-0.1473882496356964,-0.01494751125574112,-0.0397980660200119,0.06586947292089462,-0.006718466058373451,-0.014908171258866787,-0.00022689485922455788,0.006443391088396311,0.04222485423088074,0.009851437993347645,0.03759164363145828,0.032613836228847504,0.026158954948186874,0.09433237463235855,0.005364172626286745,0.0014874793123453856,0.13444852828979492,-0.046206727623939514,0.04100104421377182,-0.005170935764908791,0.025910310447216034,0.08279495686292648,0.12866181135177612,-0.0846361592411995,-0.045326635241508484,0.02790025994181633,-0.02990458533167839,-0.036459993571043015,0.10572667419910431,-0.0043448181822896,-0.027540698647499084,-0.009106098674237728,-0.08234386891126633,0.007744091097265482,0.05247285217046738,0.15144672989845276,-0.05825559049844742,-0.08718296885490417,0.1501518338918686,0.09367797523736954,-0.0007113463943824172,0.010709299705922604,-0.019722625613212585,0.1754893809556961,-0.13243693113327026,-0.03662319481372833,-0.0372929722070694,0.038154229521751404,-0.021876128390431404,-0.10341186821460724,-0.002043904270976782,-0.030810534954071045,0.0007657003588974476,-0.05692083016037941,0.03324238210916519,0.09168579429388046,-0.05537186563014984,-0.028805801644921303,0.05768270045518875,-0.0056002032943069935,0.03231239691376686,-0.07697606831789017,-0.015345369465649128,0.014326666481792927,0.08839767426252365,-0.1045914813876152,0.04708103835582733,0.013063470833003521,0.05827140063047409,-0.01115171518176794,-0.08403736352920532,-0.02299974486231804,-0.005033133085817099,0.0685829222202301,-0.12296582758426666,-0.11592534184455872,-0.00838909950107336,-0.013446545228362083,-0.0031112050637602806,-0.026024481281638145,-0.016751181334257126,0.07486923038959503,0.06681375205516815,0.0352049358189106,-0.0519220270216465,0.15187740325927734,0.08714378625154495,-0.07931385189294815,0.07694985717535019,0.02489010989665985,-0.028422916308045387,-0.06057659536600113,0.006846356671303511,-0.07563003897666931,-0.03099883906543255,-0.01495612133294344,-0.012871529906988144,-0.041001275181770325,-0.16351711750030518,0.08235340565443039,0.16633310914039612,-0.05087891221046448,0.08763352036476135,0.055494096130132675,-0.0498213991522789,-0.016537422314286232,-0.00873954501003027,-0.021910570561885834,0.00023777229944244027,-0.02078472077846527,-0.06317562609910965,-0.11875106394290924,0.012734833173453808,0.015072078444063663,-0.007750555872917175,-0.047921072691679,-0.04043683409690857,0.030529320240020752,0.06720665097236633,-0.032925233244895935,0.04127625748515129,-0.09136807173490524,0.1420631855726242,-0.037182822823524475,0.046265218406915665,-0.04588816687464714,-0.0788995772600174,-0.07138478755950928,-0.04561273753643036,-0.15654882788658142,-0.02086017280817032,-0.06809129565954208,0.033227138221263885,0.04336626082658768,0.08812402933835983,-0.06637194752693176,0.015753723680973053,0.03147125244140625,-0.029792122542858124,-0.095692478120327,0.08226668834686279,0.008132146671414375,0.028722008690238,-0.027494752779603004,0.03804941847920418,-0.0006980113103054464,-0.03206222876906395,-0.0074550253339111805,-0.010225756093859673,-0.054269276559352875,0.03758986294269562,-0.03111220896244049,0.037780847400426865,0.010436656884849072,-0.07976948469877243,0.02062564715743065,0.10526058077812195,-0.19389984011650085,-0.025999391451478004,0.09938181191682816,0.0015516432467848063,-0.010909732431173325,0.15361906588077545,-0.029299724847078323,-0.020550450310111046,0.017623674124479294,0.021976785734295845,-0.1329232156276703,0.11924109607934952,0.02857315167784691,0.07422561943531036,0.0709429532289505,-0.009769176132977009,-0.0366261787712574,0.01129102986305952,-0.005582697223871946,0.014187543652951717,0.057817768305540085,0.007312515750527382,-0.10453823208808899,-0.10891246050596237,-0.08753468096256256,-0.05943156033754349,0.0036876017693430185,-0.11920444667339325,-0.03394091874361038,-0.0791483223438263,-0.030488111078739166,0.044901929795742035,-0.14418552815914154,0.016630474478006363,0.14770469069480896,-0.13188986480236053,0.0697249248623848,0.06022481620311737,0.07406596839427948,-0.16637234389781952,-0.08844034373760223,-0.03484964370727539,0.027245264500379562,-0.07069490104913712,0.17535972595214844,-0.12353856861591339,-0.09171707183122635,-0.012796208262443542,0.0418882854282856,0.02349103055894375,0.0009214393794536591,-0.04981724172830582,0.07523778825998306,-0.065317802131176,0.011632394976913929,-0.08570285886526108,0.08297010511159897,-0.045828256756067276,0.01684449426829815,-0.06624197959899902,-0.010639794170856476,-0.007423487491905689,0.007496255915611982,0.017264047637581825,0.08213632553815842,-0.07113096117973328,0.07740576565265656,0.03440229594707489,-0.033442288637161255,0.04746933653950691,0.03363262116909027,-0.0060183038003742695,0.03073088638484478,0.0030798381194472313,0.037843216210603714,0.1812695562839508,0.0873701348900795,-0.0209050215780735,-0.03514673560857773,0.030106857419013977,0.02559710294008255,0.009927595034241676,0.025241101160645485,0.03025588020682335,-0.01865190826356411,-0.06653531640768051,0.018877172842621803,-0.0157802514731884,-0.05019310861825943,-0.03786316514015198,-0.10925787687301636,0.04118657112121582,0.01931813918054104,0.01995292864739895,0.00433723209425807,0.035466842353343964,-0.028924452140927315,-0.03413626179099083,-0.017294948920607567,-0.012430733069777489,-0.026303892955183983,-0.04673811420798302,-0.0505274273455143,-0.060668300837278366,0.07471933960914612,0.05115631967782974,-0.02140064164996147,0.021505514159798622,0.1436758041381836,0.03460307419300079,-0.010953669436275959,-0.022441811859607697,0.044051043689250946,0.027879761531949043,-0.05826084315776825,0.06466318666934967,-0.046109698712825775,0.006888162810355425,-0.10637495666742325,0.007169600576162338,-0.005090292077511549,0.07014744728803635,-0.029707133769989014,0.08056560903787613,0.018827592954039574,-0.05021568015217781,-0.03346044942736626,0.037441153079271317,-0.009545650333166122,0.03867689147591591,-0.013414501212537289,0.007611941546201706,-0.05638352781534195,0.022166449576616287,0.027255302295088768,-0.08334175497293472,0.005985952913761139,0.027071891352534294,-0.050527848303318024,0.08350010216236115,0.10280435532331467,0.015987293794751167,-0.00017167313490062952,0.08104955404996872,-0.018535898998379707,-0.13441841304302216,-0.06840945780277252,0.06850536912679672,0.03791240230202675,0.1588049978017807,-0.08354244381189346,0.0810806155204773,-0.03793420270085335,0.06251665204763412,-0.007564304396510124,0.019524287432432175,-0.10198627412319183,-0.005576545838266611,0.005173628218472004,-0.07576540857553482,0.0100697698071599,-0.007032147143036127,-0.02773948386311531,-0.09399409592151642,-0.09857487678527832,-0.0921405479311943,-0.04805230349302292,-0.0618412084877491,0.06406497210264206,0.021742429584264755,0.04099925979971886,0.03752901777625084,0.00042520707938820124,0.1445671021938324,-0.0068850209936499596,0.16534258425235748,-0.12591959536075592,-0.038415029644966125,-0.07684842497110367,0.002432635985314846,0.08189617097377777,0.04625674709677696,-0.09540335088968277,0.021778712049126625,0.05556464195251465,0.025726759806275368,-0.024895401671528816,0.0924806296825409,-0.030283506959676743,0.08536113053560257,0.029802247881889343,-0.16446776688098907,-0.01367050688713789,0.019521081820130348,-0.018206346780061722,-0.03477446362376213,0.0034683896228671074,0.09183427691459656,-0.068649522960186,-0.06368312984704971,0.017336931079626083,-0.0885903388261795,-0.024250846356153488,-0.05285625904798508,0.07927315682172775,-0.1478026658296585,-0.01430496945977211,-0.05544506013393402,0.014783079735934734,-0.025897115468978882,0.018563508987426758,0.11678685247898102,-0.04267313703894615,-0.017182257026433945,-0.04014838859438896,0.018301835283637047,-0.03310319036245346,-0.03536849841475487,0.08130515366792679,0.141389399766922,-0.006396416574716568,-0.0028340197168290615,-0.005038731265813112,0.031381312757730484,-0.08690308034420013,-0.04224351420998573,0.019059019163250923,0.04053764045238495,-0.04396413639187813,0.020174989476799965,-0.03349319472908974,0.012428644113242626,-0.031527966260910034,0.03139244019985199,-0.0030603145714849234,0.03528475761413574,0.03201722353696823,-0.041887316852808,-0.05592271313071251,-0.05299558490514755,0.006539531983435154,-0.059927474707365036,-0.02363145351409912,-0.024155445396900177,0.09854325652122498,-0.08173735439777374,0.03812495619058609,0.06633864343166351,-0.10857529193162918,-0.052905090153217316,-0.07334449887275696,-0.05552033707499504,-0.14181733131408691,0.07560589164495468,0.03678949922323227,0.02156253531575203,-0.0833788737654686,-0.01922857202589512,-0.05487195402383804,0.03702234476804733,0.06195534020662308,-0.08408422768115997,-0.09323009848594666,0.05980506166815758,0.11069893836975098,0.006380201783031225,-0.12078142911195755,-0.07028531283140182,-0.05074126645922661,0.07096687704324722,-0.09570880979299545,0.04167276993393898,-0.016628170385956764,0.025554761290550232,-0.08473022282123566,0.043028268963098526,-0.010867014527320862,0.03601250424981117,0.051097091287374496,0.013388112187385559,0.03289627283811569,-0.07958777993917465,-0.023446863517165184,-0.05903981626033783,-0.05122869834303856,-0.046419408172369,0.037003010511398315,-0.010707361623644829,-0.08893103897571564,0.041761014610528946,0.09151261299848557,-0.07397056370973587,0.15489064157009125,-0.08150608837604523,-0.02287866361439228,0.09515446424484253,0.024927308782935143,0.04861624166369438,0.08643194288015366,0.07949953526258469,0.08303939551115036,-0.024099430069327354,-0.10475683957338333,0.028033873066306114,0.02764682099223137,0.04359762370586395,0.0008429237641394138,0.05374634638428688,0.16022947430610657,0.11591311544179916,0.03094535507261753,-0.03880072385072708,-0.10833323746919632,0.0413391999900341,0.04120568558573723,0.14828647673130035,-0.0019133134046569467,-0.032335903495550156,-0.04142918437719345,-0.04879283532500267,-0.048687152564525604,0.0026186227332800627,0.02569974586367607,0.04114122688770294,-0.015224368311464787,-0.018899735063314438,0.06097111105918884,-0.027460042387247086,0.04077104851603508,-0.007878260686993599,0.0646219253540039,0.012189074419438839,-0.06698814034461975,-0.004060119856148958,0.024737313389778137,0.003609592095017433,-0.0675438940525055,-0.02646907977759838,0.005894077476114035,-0.0765015259385109,-0.10177399963140488,-0.013725443743169308,-0.11091609299182892,0.09376277029514313,0.010779612697660923,0.0046878717839717865,-0.0982956811785698,-0.005536058451980352,0.014934522099792957,-0.019894013181328773,0.1055033728480339,0.02794267050921917,0.05289044976234436,-0.0996793806552887,0.05581263452768326,0.08161021023988724,0.036677777767181396,0.007653674576431513,0.08127924799919128,0.036141734570264816,0.0027992669492959976,-0.0652143582701683,-0.02669818140566349,0.024781608954072,-0.06930369138717651,0.010579573921859264,-0.008448361419141293,-0.08315912634134293,0.12133263796567917,0.03120807372033596,-0.040582939982414246,0.0007477611652575433,0.035859718918800354,-0.033019714057445526,-0.05040673166513443,0.04805019870400429,-0.03250708431005478,-0.13900798559188843,0.07677514851093292,0.0020472260657697916,-0.057698991149663925,-0.020607996731996536,0.021496456116437912,-0.04459105059504509,0.010854489170014858,-0.038390982896089554,-0.09405787289142609,-0.0043356954120099545,-0.043100856244564056,-0.0723399817943573,-0.05641196295619011,0.007067174185067415,-0.11798145622015,0.04187993332743645,-0.020569531247019768,-0.008837039582431316,-0.07338777929544449,-0.10267924517393112,0.0017604664899408817,0.11098980903625488,0.06755417585372925,0.05779016762971878,-0.046839263290166855,0.0594075545668602,0.021356401965022087,-0.03488900884985924,-0.046942662447690964,0.031216416507959366,-0.04919247329235077,-0.06429699063301086,0.06394932419061661,-0.04135045409202576,-0.06660336256027222,0.17324091494083405,0.07805785536766052,-0.005861904006451368,-0.09261014312505722,-0.061373207718133926,0.08848431706428528,0.07838652282953262,0.05237850919365883,0.018288059160113335,-0.037127621471881866,-0.019923066720366478,0.0063927993178367615,0.11592196673154831,0.023182962089776993,-0.025798503309488297,0.03530455380678177,-0.11355873197317123,0.05947117879986763,-0.017383798956871033,-0.11343994736671448,-0.050468768924474716,-0.17497418820858002,-0.0029853316955268383,0.009804346598684788,0.08181393146514893,-0.010378079488873482,0.0007393370615318418,-0.043338220566511154,-0.17856766283512115,-0.09348689019680023,0.020468447357416153,0.03597680479288101,-0.07729610800743103,-0.03769588842988014,0.10172189772129059,0.04450033977627754,-0.010882462374866009,-0.04399922862648964,-0.10594024509191513,0.06842340528964996,-0.034332871437072754,0.06751644611358643,0.022630734369158745,0.02598954550921917,-0.015803394839167595,0.030100690200924873,-0.04710302874445915,-0.0048836227506399155,0.03211833909153938,0.05548444762825966,0.009766188450157642,0.009606895036995411,-0.0014432031894102693,0.012628708966076374,0.011361191980540752,-0.015172459185123444,-0.11232712119817734,-0.05714879557490349,-0.01903076469898224,0.09023731201887131,-0.08233971148729324,-0.0766996443271637,-0.053849849849939346,0.09731805324554443,-0.001779642654582858,0.037495601922273636,0.001364234951324761,-0.04854031279683113,0.006425542291253805,0.0013590240851044655,-0.04191354289650917,0.011321812868118286,0.018894420936703682,-0.017227867618203163,0.03510209545493126,-0.14020828902721405,-0.014167258515954018,-0.039000336080789566,0.032894112169742584,0.07554884254932404,0.0017619834979996085,0.022035634145140648,0.015183024108409882,-0.07471875101327896,-0.02470695786178112,-0.005988155957311392,-0.12454582750797272,0.020567478612065315,-0.02368875965476036,0.016880419105291367,-0.014690572395920753,-0.04679466411471367,0.053347148001194,-0.03796706348657608,0.04747657850384712,-0.00920693390071392,0.025216836482286453,0.056097231805324554,-0.054417647421360016,0.1322871595621109,-0.026613453403115273,0.022139692679047585,-0.07849892973899841,-0.03683027625083923,-0.09365848451852798,-0.018372753635048866,-0.03232342749834061,-0.00415348494425416,0.06267397850751877,0.10856646299362183,0.04921361804008484,0.03727979585528374,-0.04335084557533264,-0.13216543197631836,0.022843219339847565,0.009035925380885601,-0.01679467037320137,-0.056679755449295044,-0.03959066420793533,-0.03010849840939045,0.05895860865712166,-0.034829627722501755,-0.06823839247226715,0.010098690167069435,0.03687606006860733,0.11708342283964157,0.011668574064970016,0.0055904872715473175,-0.0203313697129488,0.04184706509113312,-0.0739319697022438,0.061855245381593704,0.012132013216614723,-0.009393117390573025,0.1622268557548523,-0.08499916642904282,-0.008758027106523514,-0.06493686139583588,0.06772204488515854,-0.02587609738111496,0.01437354926019907,-0.0419941283762455,-0.01569295860826969,0.05544128641486168,0.054669734090566635,0.11576437205076218,0.031350456178188324,-0.003064761869609356,-0.07899263501167297,-0.006316701415926218,-0.07004882395267487,0.04867177456617355,-0.05539382994174957,0.10951090604066849,-0.06367673724889755,-0.022458257153630257,0.03768877312541008,0.04679558798670769,-0.09469403326511383,-0.10933664441108704,0.030705638229846954,-0.09498310089111328,0.006961161270737648,0.05830002576112747,-0.006459305062890053,-0.013455665670335293,-0.016567528247833252,0.05816291272640228,-0.0032791653648018837,0.06387972831726074,-0.012245137244462967,-0.014593837782740593,-0.024219227954745293,0.0434277206659317,0.12728440761566162,-0.013499193824827671,0.16766245663166046,0.057221610099077225,-0.02308495342731476,0.1816515177488327,0.013058825396001339,0.09922181814908981,-0.019294489175081253,0.02677043527364731,0.017236053943634033,-0.07553748041391373,0.06884752213954926,0.07577279955148697,-0.09155008941888809,0.030225126072764397,0.003539696102961898,-0.002279799897223711,-0.06087285280227661,-0.021730875596404076,-0.13291361927986145,-0.04420294612646103,0.010172774083912373,-0.056883491575717926,-0.022785043343901634,-0.007691677659749985,0.04154778644442558,0.05223743990063667,-0.09547057747840881,-0.07399974763393402,0.0006144739454612136,-0.11265799403190613,-0.00018957897555083036,0.022485623136162758,0.019567430019378662,0.03599392622709274,-0.019184570759534836,-0.02385007217526436,-0.15305714309215546,-0.03862036392092705,0.06532797962427139,-7.091125007718801e-05,-0.012334484606981277,-0.04472903907299042,-0.11529023945331573,0.06626135110855103,0.058169230818748474,0.04964142292737961,0.031084774062037468,-0.008167335763573647,-0.04195113852620125,0.02928120829164982,-0.01334951352328062,0.027108632028102875,0.03429390862584114,-0.0017397475894540548,0.05769310146570206,-0.03354298695921898,0.07804179191589355,0.07643325626850128,-0.0849454402923584,0.01637745089828968,0.013446913100779057,0.06233357638120651,0.08089589327573776,-0.10933326184749603,-0.04556024819612503,0.08825903385877609,-0.026416031643748283,-0.028612257912755013,-0.01571439579129219,0.0020083824638277292,-0.011376162990927696,0.22718051075935364,0.0043174587190151215,-0.021236602216959,-0.048847198486328125,0.007360910065472126,0.0005019429954700172,-0.006342512089759111,-0.052236903458833694,0.05186647176742554,-0.07419095188379288,-0.046616148203611374,-0.007093448657542467,-0.03245164081454277,0.03185718506574631,0.012956351973116398,-0.03536657243967056,-0.02370782382786274,0.06044468283653259,-0.02634565159678459,-0.008669277653098106,0.016602929681539536,0.08716730773448944,0.040970880538225174,0.04310787841677666,0.0164105836302042,-0.09512007236480713,0.1304771900177002,0.1162429004907608,0.017458729445934296,-0.032779060304164886,0.03339475393295288,-0.08528624475002289,0.10003089904785156,0.06664729863405228,0.01981559954583645,-0.0013190687168389559,0.04847881570458412,0.061058130115270615,0.03820124268531799,-0.0480184480547905,0.028351495042443275,0.014480745419859886,-0.19712889194488525,-0.09314342588186264,0.13371974229812622,-0.14299453794956207,-0.1287083774805069,-0.10695672780275345,-0.03374592959880829,0.03409487381577492,0.025728076696395874,-0.021935107186436653,-0.13439367711544037,0.003086040262132883,-0.014155412092804909,-0.057737499475479126,-0.019563881680369377,-0.0070045036263763905,-0.009849127382040024,-0.007459830492734909,-0.0674554631114006,0.0031479084864258766,-0.016956010833382607,-0.007084931246936321,-0.003631364554166794,0.025582896545529366,-0.013131357729434967,0.021027153357863426,0.042488232254981995,-0.10578764230012894,-0.01819027215242386,0.02784772962331772,-0.009596089832484722,0.02898995205760002,0.012655683793127537,0.0597134493291378,-0.034248124808073044,-0.08376383781433105,0.0029254232067614794,0.0016206346917897463,0.08812092244625092,-0.0779867172241211,-0.0957765206694603,-0.03928731009364128,-0.006001390516757965,-0.03240792080760002,0.03929823264479637,-0.002927347319200635,0.0526399128139019,0.005099132657051086,-0.07725732773542404,-0.038175247609615326,-0.02294108085334301,0.026041364297270775,0.016225945204496384,-0.02837318368256092,-0.06516161561012268,-0.02946132980287075,-0.062291469424963,0.008776227943599224,0.048561740666627884,0.00820170622318983,-0.02718733437359333,0.016671985387802124,-0.041893891990184784,-0.012281851842999458,0.07587356120347977,0.012844025157392025,0.04764643311500549,0.004439415410161018,-0.016399504616856575,0.03132074698805809,0.08157511055469513,0.03020634315907955,0.05294133722782135,-0.012802462093532085,0.017106402665376663,-0.0024852920323610306,0.03931320086121559,-0.03817513957619667,-0.009338045492768288,0.03130403533577919,-0.058620233088731766,0.00312301074154675,0.06854263693094254,0.023165661841630936,-0.05668918788433075,-0.026238877326250076,0.0497068390250206,0.017404714599251747,0.019760482013225555,-0.005131972022354603,0.08810649812221527,0.009172167629003525,0.018109679222106934,-0.02616095170378685,0.04658640921115875,0.01694427616894245,0.002832018071785569,-0.00016410491662099957,-0.013564321212470531,0.09482818096876144,0.04032403603196144,-0.07291687279939651,0.029429398477077484,-0.02397536113858223,0.025787435472011566,-0.021906374022364616,0.007428788114339113,0.04424943029880524,-0.05872336030006409,0.0442127101123333,0.02606605738401413,-0.015983903780579567,0.013507562689483166,-0.0716472715139389,0.1811913698911667,0.1893911361694336,-0.0014156842371448874,-0.014671918004751205,-0.020503750070929527,-0.04886795952916145,0.03074408695101738,-0.062070079147815704,-0.0348433293402195,-0.046606387943029404,0.039351046085357666,0.06639173626899719,0.12636502087116241,-0.0009299174416810274,-0.009136754088103771,-0.007899206131696701,-0.01162121631205082,-0.04045236483216286,-0.07524527609348297,-0.008181542158126831,-0.051063332706689835,-0.03886494040489197,0.0866539403796196,-0.1630009412765503,-0.06717703491449356,0.09173952788114548,-0.16190898418426514,-0.004925199784338474,-0.018495608121156693,0.1439203917980194,-0.013093190267682076,-0.0011808308772742748,-0.10653248429298401,-0.0014831211883574724,-0.029835890978574753,0.0004379338352009654,0.003004938131198287,0.10838393867015839,-0.0603431835770607,0.05180322751402855,0.07293068617582321,0.021678699180483818,0.032154932618141174,0.037328220903873444,0.02230891026556492,0.01179518923163414,-0.009095996618270874,-0.008182507939636707,-0.07711022347211838,-0.013803154230117798,0.0013938449556007981,-0.07896125316619873,0.049679048359394073,0.061727821826934814,0.03405894339084625,0.015842488035559654,-0.07817476242780685,-0.028877640143036842,-0.002093298127874732,-0.0377957709133625,-0.01896263100206852,-0.09480085223913193,-0.00741440849378705,0.02937331423163414,0.0031318345572799444,0.0005907679442316294,-0.009736754931509495,0.010739696212112904,-0.05082642659544945,-0.03964974358677864,0.10004159063100815,-0.0465858168900013,0.11932230740785599,-0.06445127725601196,0.008228417485952377,-0.008945591747760773,0.10418793559074402,0.008343372493982315,0.016468219459056854,0.006486504804342985,-0.01845269463956356,-0.05204825475811958,-0.003256359603255987,-0.07719273120164871,0.008535875007510185,-0.08289550989866257,-0.022851334884762764,0.03682113438844681,-0.11795555800199509,0.01949184015393257,-0.0018608553800731897,0.05448511615395546,0.02013583667576313,0.0058724586851894855,-0.04580408334732056,-0.02160227857530117,-0.032032374292612076,0.0001619419053895399,-0.023250605911016464,-0.0026710652746260166,-0.09886088222265244,-0.05076801776885986,0.0433264784514904,0.04668402299284935,-0.05070691928267479,0.007609002757817507,0.018188130110502243,-0.07642319053411484,0.04502004384994507,-0.010266533121466637,0.056526560336351395,0.0268576480448246,-0.02803744003176689,0.023115821182727814,-0.07347358018159866,0.021069513633847237,-0.017123010009527206,0.09098952263593674,0.012778154574334621,-0.07861656695604324,-0.02533542551100254,0.03153650090098381,-0.09676817059516907,0.05457969009876251,0.02475190907716751,0.03575613349676132,-0.10870928317308426,0.02504228986799717,-0.019705232232809067,-0.020805008709430695,0.03914640098810196,-0.01679375395178795,-0.010010950267314911,-0.024970289319753647,0.02256898209452629,-0.031780488789081573,-0.0880911648273468,-0.10359804332256317,0.03844348341226578,0.05265237018465996,-0.0015662978403270245,-0.045676976442337036,-0.029003387317061424,-0.017755333334207535,0.04824283346533775,-0.006807947065681219,0.018491188064217567,0.008750835433602333,-0.023495439440011978,0.02409130334854126,-0.017889942973852158,-0.15889118611812592,0.07769204676151276,-0.018963949754834175,-0.07133979350328445,0.006059016566723585,0.02912021242082119,0.10350228101015091,-0.021733209490776062,0.020102066919207573,0.010035909712314606,-0.02067410573363304,-0.03395617753267288,-0.03865646943449974,-0.0074802543967962265,0.025174427777528763,-0.019435342401266098,0.03279709070920944,0.04527055472135544,-0.04157911241054535,-0.020557692274451256,-0.00773279182612896,-0.05502808466553688,-0.007095179986208677,0.031506821513175964,0.01753515563905239,-0.0031366480980068445,-0.0021541996393352747,-0.03444124758243561,-0.0646635890007019,-0.11060111969709396,-0.04579544439911842,-0.019352959468960762,-0.010576301254332066,0.07567641884088516,-0.0432458370923996,0.0623040497303009,-0.12669497728347778,-0.025190573185682297,-0.031008634716272354,0.07014040648937225,-0.1463266909122467,-0.10628440976142883,0.038065217435359955,-0.03443190082907677,0.050398752093315125,-0.014670846983790398,0.011583101004362106,-0.023692181333899498,0.010347556322813034,-0.11137788742780685,0.0028778864070773125,-0.15638580918312073,0.023043649271130562,-0.03574423864483833,-0.02131294459104538,-0.09564584493637085,0.07535446435213089,-0.025077642872929573,-0.016813285648822784,-0.050455544143915176,-0.020298823714256287,0.06172129139304161,-0.060801271349191666,-0.046244796365499496,-0.012784836813807487,0.043947484344244,-0.06964648514986038,-0.02636115252971649,-0.09613736718893051,0.025916684418916702,0.062304433435201645,-0.004158796742558479,0.10342884808778763,-0.026760518550872803,0.09471642225980759,0.03758934140205383,-0.03337251767516136,0.029897771775722504,0.06148131936788559,-0.048704855144023895,-0.04972320422530174,-0.01907670684158802,0.02355278469622135,0.021354705095291138,0.07170470058917999,-0.029598413035273552,0.028045613318681717,-0.023781420662999153,-0.07787401229143143,0.0867353230714798,0.06145874783396721,-0.016417505219578743,0.07722847908735275,0.042644061148166656,-0.03397947922348976,0.04062196984887123,-0.06098030135035515,0.0005564456223510206,-0.010296237654983997,0.0268818698823452,-0.003524629632011056,0.07029375433921814,-0.11664999276399612,0.06048839911818504,-0.07132373005151749,0.019923027604818344,-0.016791541129350662,0.027865227311849594,-0.020201425999403,-0.04306894168257713,-0.012528752908110619,-0.06318101286888123,-0.00495395390316844,0.019341876730322838,0.05788005515933037,-0.03961091488599777,-0.06948705017566681,0.017200104892253876,-0.07185386121273041,0.04069870337843895,-0.03334985300898552,0.009019591845571995,0.013295095413923264,0.046641528606414795,-0.006201132666319609,-0.13637873530387878,-0.023512447252869606,0.014421310275793076,0.01847986690700054,0.04023166745901108,-0.09137243777513504,-0.0745876207947731,0.02240907773375511,-0.062248751521110535,0.1099957600235939,0.0989057794213295,0.11093184351921082,0.011379684321582317,-0.035901326686143875,0.050719380378723145,-0.08921851217746735,-0.05266949534416199,-0.10093824565410614,-0.0022239491809159517,0.147785946726799,-0.011442922055721283,0.008826237171888351,0.09043560922145844,0.07571854442358017,0.2027462273836136,0.01110768225044012,0.08627437055110931,-0.004867431242018938,-0.04930429905653,-0.038242749869823456,-0.004686082247644663,8.145347237586975e-06,0.10976621508598328,-0.00770014151930809,0.037108760327100754,0.012018527835607529,-0.13173773884773254,0.04453916847705841,-0.07521739602088928,-0.06887173652648926,-0.1151033416390419,-0.04456300288438797,0.020438358187675476,0.012204066850244999,-0.06478829681873322,0.07745110243558884,0.011561975814402103,0.052163366228342056,-0.06958553194999695,0.007519120816141367,0.07199305295944214,0.03417866304516792,-0.03989176079630852,-0.011723514646291733,0.011591151356697083,0.012308824807405472,-0.013841369189321995,-0.08838176727294922,-0.021406255662441254,0.11960959434509277,0.07167647778987885,0.003678880864754319,0.047720711678266525,0.04901941493153572,0.022665180265903473,-0.035131990909576416,-0.04297921806573868,0.012065443210303783,0.061584316194057465,0.03612073138356209,0.026072317734360695,0.04940664395689964,-0.045247115194797516,-0.07183631509542465,-0.17399859428405762,0.011324710212647915,0.005569087341427803,-0.05806265026330948,-0.08070357143878937,0.011021178215742111,0.025961503386497498,-0.10510373115539551,0.008471540175378323,0.11249696463346481,-0.08222586661577225,-0.051162295043468475,0.1144615113735199,-0.04688010737299919,-0.16012312471866608,0.027153512462973595,0.11607499420642853,-0.04238661378622055,0.05497309938073158,0.07676400244235992,-0.054670002311468124,0.008304672315716743,0.020808162167668343,-0.07540897279977798,0.09571830183267593,-0.024707531556487083,0.07625679671764374,-0.05184638872742653,0.019502941519021988,-0.0452241376042366,0.028793176636099815,0.03730178251862526,0.06146784499287605,0.03668060153722763,0.05001525953412056,0.10186023265123367,-0.10696221143007278,-0.019638262689113617,-0.0457993745803833,-0.02501031383872032,0.11740580946207047,-0.06902731209993362,0.01820765994489193,0.008679280057549477,0.006084453780204058,-0.03418147936463356,-0.029520388692617416,0.04752673581242561,-0.12513458728790283,0.05322529003024101,0.03267603740096092,-0.03741896152496338,0.14280153810977936,0.11046941578388214,-0.09835589677095413,0.12933741509914398,-0.00910226535052061,-0.04312952607870102,0.0955195352435112,-0.02551531419157982,0.06396019458770752,0.07368600368499756,0.017297931015491486,-0.04249412566423416,-0.1295713484287262,0.04690869152545929,0.03706175461411476,-0.05152719467878342,0.001291841035708785,-0.07946701347827911,-0.06112564355134964,-0.018522152677178383,-0.012490080669522285,0.14122048020362854,-0.10636976361274719,0.021861812099814415,-0.0697750374674797,-0.037314314395189285,0.055960360914468765,-0.13028357923030853,0.034486036747694016,-0.02925313450396061,-0.01849282532930374,0.12689298391342163,-0.10687277466058731,0.13472828269004822,-0.0020762719213962555,-0.012571795843541622,-0.027763711288571358,-0.1491248458623886,0.04317673668265343,0.0063961828127503395,-0.058922991156578064,0.11004828661680222,0.023231733590364456,0.0029495530761778355,0.05312837287783623,-0.10154147446155548,-0.07411259412765503,-0.11543826758861542,0.04257173463702202,0.016333825886249542,-0.06651812791824341,0.009202474728226662,0.02855745144188404,-0.09248483180999756,0.2591807544231415,0.026242008432745934,-0.022703900933265686,0.14145751297473907,0.0008439122466370463,-0.14044491946697235,-0.10568996518850327,-0.1291123777627945,0.01404398400336504,-0.046419985592365265,0.0426335409283638,-0.1015058308839798,0.041652508080005646,-0.012954574078321457,0.09442291408777237,0.03291863948106766,0.058323606848716736,0.057825956493616104,-0.0670069083571434,-0.053142860531806946,0.12824814021587372,-0.16409429907798767,0.07445395737886429,-0.007942687720060349,0.06954851001501083,-0.0989006757736206,0.021770330145955086,0.06308039277791977,0.01310049556195736,0.0903492271900177,-0.02845246158540249,-0.09589028358459473,0.017476297914981842,0.03613689914345741,0.013928406871855259,-0.010751103982329369,0.14829082787036896,-0.012356839142739773,-0.023674897849559784,-0.03347230330109596,0.10343636572360992,-0.01864452287554741,0.017376380041241646,0.016764529049396515,-0.021262723952531815,0.10421206802129745,0.04654127359390259,0.013720027171075344,-0.05965275317430496,-0.10718274116516113,0.03383293002843857,0.05854525417089462,0.08931409567594528,0.16694822907447815,0.18696612119674683,-0.04291786625981331,0.04700566828250885,0.0771859660744667,-0.021030863747000694,-0.0492917075753212,0.056845344603061676,0.0160435289144516,-0.017605578526854515,0.04016655683517456,0.10879244655370712,-0.015119657851755619,0.07129967212677002,0.01638011634349823,0.034467913210392,0.03689556196331978,0.07956741005182266,-0.003386974800378084,-0.00542505644261837,0.03516164422035217,-0.08159182220697403,-0.10006315261125565,-0.025773825123906136,-0.0275303665548563,-0.07261693477630615,0.1446823924779892,0.11636985838413239,-0.02420905791223049,0.01551701221615076,-0.11917901784181595,-0.00022867691586725414,-0.01341400295495987,0.008315620012581348,-0.03600285202264786,0.02599104680120945,-0.028299754485487938,-0.05658308416604996,0.0010215477086603642,-0.021560389548540115,0.0692497119307518,-0.02328111045062542,0.0010105798719450831,0.0360112339258194,-0.025503862649202347,0.07212382555007935,0.05932332202792168,0.022051943466067314,0.018801875412464142,0.06552085280418396,-0.009326265193521976,0.03967985510826111,0.019825352355837822,-0.014345582574605942,0.011909033171832561,0.008378123864531517,-0.0979204773902893,-0.09014002978801727,0.054237354546785355,0.029409699141979218,-0.08722686022520065,-0.0544683039188385,0.04441045969724655,0.027790380641818047,0.024806242436170578,0.005250672809779644,-0.005092182662338018,-0.018422508612275124,-0.018747149035334587,-0.022095073014497757,-0.003339440794661641,-0.017923349514603615,-0.0018310546875,-0.013305623084306717,-0.09247090667486191,-0.0063505619764328,-0.050677310675382614,0.036174967885017395,-0.02039474993944168,0.02228010818362236,-0.025664372369647026,0.028056837618350983,0.014496208168566227,-0.038244374096393585,0.032380860298871994,0.04094875603914261,-0.03554731234908104,0.041885748505592346,0.04688013345003128,0.012372126802802086,-0.009829130955040455,0.08620130270719528,0.058128759264945984,-0.0653112456202507,-0.0016595851629972458,0.0019047890091314912,0.026372699066996574,0.03672919422388077,0.08331462740898132,0.027197081595659256,0.03289860114455223,-0.09788087755441666,-0.014980676583945751,0.03361508622765541,-0.12538915872573853,-0.004765797406435013,0.010199650190770626,0.049992889165878296,0.01003746036440134,0.006706480402499437,0.024323657155036926,0.034974075853824615,0.056816719472408295,0.07353188097476959,0.034754376858472824,0.010710830800235271,0.005811192095279694,0.019942650571465492,-0.07532954216003418,-0.12456608563661575,0.009395167231559753,0.009157823398709297,0.11876527965068817,-0.0036157984286546707,-0.0037400652654469013,0.001342826639302075,-0.059017665684223175,-0.040912166237831116,-0.03914962336421013,0.03847862780094147,-0.05459900572896004,0.037597447633743286,-0.056342341005802155,-0.00044639984844252467,0.021392419934272766,-0.025908764451742172,0.00036911890492774546,-0.14067231118679047,-0.005056509282439947,0.11013757437467575,-0.017372112721204758,0.07286142557859421,-0.046878255903720856,-0.02658287063241005,-0.07346265763044357,-0.028577018529176712,-0.0063786557875573635,-0.21040895581245422,-0.0693327784538269,-0.05039110407233238,0.0035827630199491978,0.001593543915078044,0.11626680195331573,0.07026050984859467,-0.14881107211112976,0.013150247745215893,0.004620371386408806,-0.040308788418769836,-0.016792496666312218,-0.009840849786996841,0.09156031161546707,-0.016521818935871124,0.04828127101063728,-0.00888899713754654,0.014778346754610538,-0.017083702608942986,-0.014213927090168,0.02146921493113041,0.06442833691835403,0.044008053839206696,0.04787486791610718,0.0699472576379776,0.03901439905166626,0.008957017213106155,-0.12774218618869781,-0.07018335163593292,0.07298131287097931,-0.038842398673295975,0.03914792835712433,0.0602601058781147,0.0069108810275793076,-0.0816451758146286,0.028016839176416397,0.03868071734905243,0.030659133568406105,0.05461857095360756,0.03525013476610184,0.0004769476945511997,-0.06869009882211685,0.027506746351718903,-0.08475811034440994,-0.06704668700695038,-0.08220107853412628,-0.03104301728308201,-0.01825476624071598,-0.012012113817036152,0.06353804469108582,0.01932896487414837,-0.08480584621429443,-0.01944580487906933,0.02916765585541725,-0.027067147195339203,-0.01170312613248825,0.019977856427431107,-0.040289878845214844,0.058756519109010696,-0.039835453033447266,0.10718141496181488,-0.06864231824874878,-0.0031295064836740494,0.04629391431808472,-0.010684612207114697,-0.031532175838947296,-0.011672071181237698,-0.03846023231744766,-0.06411980837583542,0.07038581371307373,-0.04502326622605324,-0.006020710337907076,-0.07259803265333176,0.015193057246506214,0.02755483239889145,0.05410466715693474,-0.028911983594298363,-0.04243149235844612,-0.04161977395415306,0.033605512231588364,0.014952371828258038,-0.01660371944308281,0.043876755982637405,-0.021075287833809853,-0.025425201281905174,-0.09820617735385895,0.022371243685483932,-0.0017535882070660591,-0.07050629705190659,-0.024236058816313744,0.0012712717289105058,-0.04199368879199028,0.04306493327021599,-0.020438341423869133,-0.0771447941660881,0.03125020116567612,0.03883504867553711,0.01465982012450695,0.034898292273283005,0.04434329271316528,-0.08151517063379288,-0.05098794400691986,-0.034334808588027954,0.05499609559774399,-0.013916720636188984,-0.05639581009745598,-0.08633819222450256,-0.05906779319047928,0.0302329882979393,0.07057590782642365,0.04812663421034813,-0.05523981526494026,-0.04422968998551369,0.03844285011291504,-0.0026005529798567295,0.004641505423933268,0.01874559186398983,-0.0866590216755867,-0.09390006959438324,-0.006946750916540623,0.013916991651058197,-0.10044783353805542,-0.021659035235643387,-0.06987883895635605,-0.02842598408460617,0.017463786527514458,0.020558934658765793,0.0010158084332942963,0.0011470369063317776,0.010699059814214706,0.0015509836375713348,-0.11121723800897598,0.00453609973192215,0.010545596480369568,1.6004021745175123e-05,0.0209234356880188,-0.0793868824839592,0.004917333368211985,0.01786179095506668,-0.04994582012295723,-0.06776805967092514,-0.05658688023686409,0.010571043938398361,-0.012022551149129868,-0.016833411529660225,0.01788969524204731,0.03784077614545822,0.02463226020336151,-0.022584760561585426,0.01088592130690813,0.040264640003442764,-0.05509871989488602,-0.06147881969809532,0.020854858681559563,-0.010286770761013031,-0.013865048065781593,0.04873758926987648,0.015698261559009552,-0.026243694126605988,-0.04204181581735611,0.1249430924654007,-0.0011930842883884907,-0.06500115990638733,-0.030654076486825943,-0.047432418912649155,-0.05354142189025879,-0.0768275037407875,0.010456491261720657,-0.05740015581250191,-0.03948836028575897,0.026610922068357468,-0.012505167163908482,0.032529041171073914,-0.0663297176361084,0.04936638101935387,0.002194337546825409,-0.0799345150589943,-0.014196653850376606,-0.03834253549575806,-0.02770216204226017,-0.026841524988412857,-0.08650188893079758,0.03436889499425888,-0.0017423698445782065,0.05882713571190834,-0.11654364317655563,-0.08285845071077347,-0.01006794348359108,-0.009336905553936958,-0.045419104397296906,0.07122683525085449,0.008889594115316868,0.06019873917102814,-0.029846349731087685,-0.040474824607372284,-0.016193419694900513,0.12898162007331848,-0.02185376174747944,0.058867450803518295,0.02094457484781742,-0.0701620802283287,-0.07177579402923584,-0.03284107521176338,0.013105166144669056,-0.03421182557940483,-0.00021097194985486567,-0.00016837996372487396,-0.08954113721847534,-0.010313446633517742,0.057618193328380585,-0.04035011678934097,-0.03325395658612251,-0.04514321684837341,-0.030382631346583366,0.006583979353308678,-0.029525451362133026,0.0461597815155983,-0.0007447461830452085,-0.06367333233356476,-0.03376813232898712,-0.026096777990460396,0.031499482691287994,0.030063657090067863,-0.0024455427192151546,0.019675474613904953,-0.040922120213508606,-0.06930322200059891,0.013999322429299355,0.030065130442380905,-0.07911974936723709,-0.026004895567893982,-0.08501919358968735,-0.01370224542915821,-0.11769787222146988,-0.056393224745988846,0.000905813358258456,-0.05120499059557915,-0.02335532382130623,-0.022463930770754814,0.01869329623878002,-0.009584221057593822,0.020908834412693977,0.016989292576909065,-0.029694722965359688,-0.06977391242980957,-0.015284378081560135,-0.02101445384323597,-0.02060379646718502,0.016277704387903214,0.0006049062358215451,0.08227277547121048,0.004725351929664612,0.1500413417816162,-0.04539629444479942,0.019211608916521072,-0.13424228131771088,-0.049385443329811096,0.011784568428993225,0.09072602540254593,0.1242615133523941,-0.08241942524909973,-0.018480312079191208,0.06631007045507431,-0.03965143486857414,0.014845085330307484,-0.03832075372338295,-0.03665391728281975,-0.003914501052349806,0.030439741909503937,-0.07503023743629456,0.05624179169535637,0.01589253731071949,0.021845567971467972,-0.001017825910821557,-0.0023162723518908024,0.04104015603661537,0.057739656418561935,0.02691749483346939,-0.03295179456472397,0.04475652053952217,-0.030404459685087204,-0.04458398371934891,0.03294820711016655,0.08255256712436676,0.029866941273212433,0.096584253013134,-0.007616522256284952,0.0003597192117013037,-0.017343800514936447,-0.020464865490794182,0.009823393076658249,0.06122801452875137,-0.1017066165804863,-0.02371273934841156,0.01979680545628071,-0.02832977846264839,0.01114565134048462,0.008088990114629269,0.06596209853887558,-0.004014071077108383,0.0757938027381897,0.015069596469402313,0.002368189161643386,-0.04008881747722626,0.052191220223903656,0.047764427959918976,0.0036493209190666676,-0.047232531011104584,-0.026180069893598557,0.023157453164458275,-0.04962345212697983,0.02805623784661293,0.040240488946437836,0.012502312660217285,0.046909209340810776,-0.04540928453207016,-0.0006030958611518145,-0.009509420953691006,0.025733793154358864,0.011932860128581524,0.012165474705398083,-0.045548487454652786,0.01600896194577217,-0.01955304481089115,0.007118736393749714,0.06563690304756165,-0.015988174825906754,-0.036917317658662796,0.039746712893247604,0.02597552351653576,-0.0033486983738839626,0.049181073904037476,-0.023443499580025673,0.030541475862264633,-0.06159809231758118,0.04045644402503967,-0.03415222093462944,0.0721985325217247,0.08008021861314774,0.009093737229704857,0.020120859146118164,0.07657365500926971,-0.020826319232583046,-0.002982666250318289,0.036915574222803116,-0.010444293729960918,-0.03378862515091896,-0.01848243735730648,-0.004444820340722799,-0.03662962466478348,-0.02080852910876274,0.025166798382997513,0.024936029687523842,0.025802286341786385,0.020781783387064934,0.07059581577777863,0.055588994175195694,0.08582933247089386,-0.0025880211032927036,0.05890602618455887,-0.006311764474958181,0.07492921501398087,-0.044285405427217484,0.07908391207456589,0.0638076663017273,0.009624854661524296,-0.059173744171857834,0.018264276906847954,0.0056143091060221195,-0.03155745565891266,-0.01991894841194153,0.04243028536438942,0.023075267672538757,0.04465639218688011,-0.038312338292598724,-0.02055303193628788,-0.13222801685333252,-0.06446850299835205,0.0414515882730484,-0.04958266392350197,0.013630892150104046,-0.047937579452991486,-0.11284597218036652,-0.002357576973736286,0.023245804011821747,-0.025466827675700188,-0.1497238725423813,-0.013146374374628067,-0.08235175907611847,-0.12282641977071762,0.04137049987912178,-0.08466798067092896,-0.01286259200423956,-0.048048075288534164,-0.042957860976457596,-0.021400779485702515,0.07519984990358353,-0.03235914185643196,-0.028022103011608124,0.0250954981893301,-0.030944453552365303,0.007326509803533554,-0.07841832935810089,-0.03087107464671135,-0.013400707393884659,0.04688376933336258,-0.1061372384428978,-0.11956744641065598,0.005754963960498571,-0.019294429570436478,0.039436329156160355,0.09018426388502121,0.02787530981004238,-0.06216835975646973,-0.0694236233830452,-0.01295305322855711,-0.02859775349497795,0.034538909792900085,-0.02120690792798996,0.1483868509531021,-0.02105039730668068,-0.03769127279520035,-0.03991725668311119,0.1336870789527893,0.00017793395090848207,0.03128959238529205,-0.11984141170978546,0.012063723057508469,-0.0012961209286004305,-0.004887180402874947,0.09626047313213348,-0.003039376810193062,0.027500176802277565,-0.04099467769265175,-0.0526505783200264,0.026074597612023354,-0.01543115172535181,-0.04708343371748924,0.016760893166065216,0.010659666731953621,-0.10753554850816727,0.04387945309281349,0.008984808810055256,-0.06499258428812027,-0.027547325938940048,0.021662922576069832,0.06796669214963913,0.016870083287358284,-0.02300797589123249,0.08772923052310944,-0.024762887507677078,-0.01916232332587242,0.01108293142169714,-0.11910994350910187,-0.06359276920557022,-0.03834705427289009,-0.060476191341876984,0.0048868595622479916,0.04448495805263519,-0.07899995893239975,-0.1020466536283493,0.055284783244132996,0.03307017311453819,-0.0285791102796793,-0.01793534681200981,0.03964672610163689,0.02254289947450161,-0.008127911016345024,-0.06126958131790161,0.005560137797147036,-0.06204662472009659,0.03598971664905548,-0.007663634140044451,-0.0019414093112573028,0.0351715013384819,-0.10544247180223465,0.049595363438129425,0.08049705624580383,0.03126230835914612,-0.012512345798313618,-0.021755555644631386,-0.049937307834625244,-0.029096130281686783,0.06802351027727127,-0.051140159368515015,0.08374656736850739,-0.007874011993408203,-0.022400101646780968,-0.10385505110025406,-0.022121157497167587,0.008448196575045586,0.07374974340200424,0.01879492960870266,-0.0704803541302681,0.07470390945672989,0.030543707311153412,0.03736523911356926,-0.012283478863537312,-0.055171217769384384,0.06323684006929398,-0.013888171873986721,0.003939775284379721,0.02254565991461277,-0.022059759125113487,-0.0068404399789869785,-0.02023068629205227,-0.001996138133108616,-0.005373156629502773,0.02022811956703663,0.010226212441921234,0.09090717881917953,0.08540623635053635,-0.017574992030858994,-0.002953964052721858,-0.0018112922552973032,0.022340767085552216,0.04931633546948433,0.05799327790737152,0.02085777558386326,0.02761572040617466,-0.013397067785263062,-0.00017581053543835878,0.013264453038573265,0.032318856567144394,0.01923147775232792,0.025142980739474297,0.053892526775598526,-0.00788066629320383,0.08382915705442429,0.013667872175574303,0.10881166905164719,0.0016819908050820231,0.04124733805656433,-0.010118566453456879,0.04248323291540146,0.012904315255582333,0.025697199627757072,-0.014953925274312496,0.016449062153697014,-0.038945477455854416,-0.015870055183768272,0.053340476006269455,-0.028100689873099327,0.04340526834130287,-0.02319236285984516,-0.007359225302934647,-0.004415735136717558,0.03844144940376282,0.019967682659626007,0.07785981893539429,-0.004045154899358749,-0.00925002247095108,0.05634438246488571,0.09046351164579391,-0.0052253552712500095,0.033618226647377014,-0.017111053690314293,-0.02687346190214157,-0.029279736801981926,-0.0037324093282222748,0.035257190465927124,-0.00059996556956321,0.003110958030447364,-0.016149887815117836,-0.029255542904138565,-0.05921441316604614,0.04731350392103195,-0.049203529953956604,0.01692967303097248,0.12016451358795166,0.04078880697488785,0.030101967975497246,0.041872765868902206,-0.02385571412742138,-0.013416895642876625,0.024405587464571,0.04704347997903824,0.03391468524932861,0.02047211304306984,-0.015162189491093159,-0.03973487392067909,-0.03537897393107414,0.03994857519865036,-0.028032228350639343,-0.04680749401450157,0.07071773707866669,0.01946342922747135,0.0031798542477190495,0.022864412516355515,0.021560287103056908,0.026182714849710464,0.012268186546862125,-0.12425458431243896,-0.03151630982756615,-0.0020874436013400555,-0.07036276161670685,-0.04138169065117836,0.0005658293375745416,0.08164823800325394,0.017554456368088722,0.01992269977927208,-0.08399420976638794,0.009301656857132912,0.048288874328136444,-0.036363665014505386,0.058463022112846375,-0.03632962703704834,-0.01650197058916092,-0.03232036903500557,-0.05308200418949127,-0.011806325986981392,0.0006423130398616195,-0.009803660213947296,0.09780049324035645,0.033667080104351044,-0.04253422096371651,0.012131772004067898,0.017599353566765785,0.06889395415782928,-0.04431935027241707,0.030413638800382614,-0.039815403521060944,-0.0008935978985391557,-0.005554001312702894,0.013992756605148315,-0.1066928431391716,0.0250098817050457,0.04600052163004875,0.026921575888991356,-0.03989459574222565,0.07100085914134979,-0.05025313422083855,0.07113157212734222,0.1327913999557495,-0.11570148915052414,0.14168000221252441,-0.08768709003925323,-0.08046678453683853,0.028102632611989975,-0.10092611610889435,0.11107224225997925,0.02781127765774727,0.014798509888350964,-0.013206726871430874,-0.0010709110647439957,-0.022151850163936615,0.042916130274534225,-0.03787847235798836,0.05089889466762543,-0.04508291929960251,0.0764264240860939,0.037231720983982086,-0.043246496468782425,0.08195197582244873,-0.002013880293816328,0.03549550101161003,0.031274814158678055,0.04098859429359436,0.020123640075325966,-0.12158149480819702,0.1703595221042633,-0.006046588998287916,-0.07158370316028595,-0.06485705822706223,-0.052908431738615036,-0.0939958393573761,-0.0917484238743782,-0.11423061788082123,-0.09112091362476349,0.04025090113282204,-0.002255696337670088,0.10958133637905121,-0.0427674725651741,-0.1310754418373108,-0.0072423615492880344,0.018664319068193436,-0.006307195872068405,0.00372782233171165,-0.006855452433228493,-0.10056786984205246,0.04028183966875076,0.031411852687597275,-0.11073149740695953,-0.1610395461320877,-0.16645342111587524,-0.08827756345272064,0.03717828169465065,-0.17528901994228363,-0.05266280844807625,0.09233716875314713,0.01891680248081684,0.06640387326478958,-0.17832815647125244,0.025499871000647545,-0.026168828830122948,-0.031640537083148956,0.02445886842906475,-0.011361655779182911,0.009456521831452847,-0.10407805442810059,-0.038407474756240845,0.05042349919676781,0.03269648179411888,0.04008123278617859,-0.034278228878974915,0.015221238136291504,-0.07567601650953293,0.05301394313573837,0.03009497933089733,-0.010500906966626644,0.11240656673908234,0.09064674377441406,0.0876430943608284,0.07431924343109131,-0.0360812209546566,-0.08869300037622452,0.07667671144008636,0.023925945162773132,0.2092398852109909,0.005530017893761396,0.0001739721919875592,0.018120698630809784,-0.01591126248240471,0.08246511965990067,-0.028703171759843826,0.03335348516702652,0.049319759011268616,-0.1313573569059372,-0.10105736553668976,0.03753254562616348,-0.013603740371763706,0.10418757796287537,0.11849835515022278,0.009954669512808323,-0.023771604523062706,0.003739319508895278,0.016988173127174377,0.04527988284826279,-0.12701651453971863,-0.09682431071996689,-0.035472046583890915,0.06624557077884674,-0.027937017381191254,-0.07472940534353256,-0.11770030856132507,-0.008000445552170277,0.0832691416144371,0.014598988927900791,0.04006991907954216,-0.030743878334760666,-0.09970977157354355,4.696514952229336e-05,-0.018569646403193474,0.03094540722668171,-0.05333324894309044,-0.05035294219851494,-0.09716106206178665,0.01359204575419426,-0.01613466441631317,0.1246137022972107,0.008288448676466942,0.18949198722839355,0.04652303457260132,-0.033752039074897766,0.005190315190702677,0.06907746195793152,-0.09759865701198578,-0.03655176982283592,-0.020530520007014275,-0.01132606714963913,-0.03674016892910004,0.256300151348114,-0.09360138326883316,0.05996842682361603,0.15503746271133423,-0.042081501334905624,-0.1036100834608078,-0.023856837302446365,-0.03084448166191578,-0.027821717783808708,0.07402442395687103,0.054147616028785706,0.006925519555807114,-0.06956066936254501,0.0678420141339302,0.055301886051893234,-0.07163781672716141,0.027669962495565414,-0.014965555630624294,0.007138419430702925,-0.06635793298482895,0.016185717657208443,0.06326942890882492,0.05019751191139221,-0.01435768511146307,0.0630287304520607,0.010000559501349926,-0.07147194445133209,0.029494725167751312,-0.04366078972816467,-0.06595053523778915,0.06944882869720459,0.06139979884028435,0.14616407454013824,0.0194118469953537,-0.036482829600572586,-0.07553844898939133,0.005246019456535578,0.049053747206926346,-0.05417437478899956,0.02828342095017433,-0.056447457522153854,-0.001960011897608638,-0.009660887531936169,0.005073572508990765,-0.009850605390965939,0.05973723530769348,0.009629280306398869,-0.03907410800457001,-0.0839201882481575,-0.06425034999847412,-0.003019060008227825,-0.0365632027387619,-0.007165882270783186,0.0233461894094944,-0.006860434077680111,-0.0480598621070385,0.0453435480594635,0.0387309268116951,-0.05428837612271309,0.04047224298119545,-0.02936183474957943,0.12386526167392731,0.0013917664764449,0.005444078706204891,-0.027636496350169182,-0.038895707577466965,0.007627122104167938,0.039607517421245575,-0.02301528863608837,-0.10013160109519958,-0.05671321228146553,0.045321669429540634,0.177104651927948,0.06258957087993622,-0.06323567777872086,-0.039177656173706055,0.11194796860218048,0.029558688402175903,-0.01366792805492878,-0.015853457152843475,0.1231502965092659,-0.05888693034648895,-0.01703154295682907,0.04875129461288452,-0.022699372842907906,0.02064509131014347,-0.06841977685689926,-0.00420402130112052,0.13419614732265472,-0.06849361956119537,0.031578872352838516,-0.04714697599411011,-0.12405043095350266,-0.07584969699382782,-0.08578407019376755,-0.0069165476597845554,-0.05208605155348778,0.04761325940489769,0.15455545485019684,0.03600367158651352,-0.05041227489709854,0.037508659064769745,-0.1687944531440735,-0.024943461641669273,0.0010459775803610682,0.03638196736574173,0.008098947815597057,-0.0768628865480423,0.07235229015350342,0.01564425602555275,0.014191378839313984,0.15960322320461273,0.02022634632885456,-0.0553167425096035,-0.07614872604608536,0.12046515941619873,0.03203364089131355,0.017956633120775223,0.14819368720054626,-0.17713582515716553,-0.05596637353301048,0.02939562126994133,-0.059571053832769394,0.040104132145643234,-0.1918245106935501,0.06122055649757385,-0.04128261283040047,0.032722100615501404,0.07929078489542007,-0.03329236060380936,-0.047185834497213364,-0.006781269330531359,0.031040586531162262,-0.0674319937825203,-0.17727522552013397,-0.03482779115438461,-0.10914704948663712,-0.04509083181619644,0.07723160088062286,-0.0050216373056173325,0.09205318242311478,-0.0006070235394872725,-0.04231657832860947,-0.10408805310726166,-0.009312462992966175,-0.043801046907901764,-0.03334125503897667,0.07937521487474442,0.14865051209926605,0.0018880418501794338,-0.053538352251052856,0.16926224529743195,-0.06363069266080856,-0.11887720972299576,-0.12036552280187607,-0.030664663761854172,0.053121428936719894,-0.029359513893723488,-0.07481136173009872,-0.06474896520376205,-0.06335854530334473,0.11612612754106522,-0.1522243171930313,-0.0018474386306479573,-0.019279183819890022,-0.08918389678001404,0.07847089320421219,0.057750213891267776,0.0048696729354560375,0.04442552849650383,0.004718370269984007,-0.004433611407876015,0.1188463419675827,0.01447810884565115,0.14731772243976593,-0.10487991571426392,-0.11732711642980576,0.13649554550647736,0.002363045932725072,0.0048686242662370205,-0.13687872886657715,-0.05674131587147713,-0.013565314933657646,-0.017801200971007347,0.11810886114835739,-0.11772006005048752,0.021172042936086655,0.042389966547489166,-0.041178952902555466,0.06555134057998657,-0.017289375886321068,-0.04491100460290909,-0.047538306564092636,0.007894781418144703,-0.08462783694267273,0.04215313494205475,-0.15019197762012482,0.011629240587353706,0.17660219967365265,0.1866561323404312,-0.11948588490486145,0.06093611568212509,-0.10067397356033325,-0.1650850772857666,0.0600200816988945,-0.1264893114566803,-0.04803862050175667,-0.14077512919902802,0.13283972442150116,-0.07222137600183487,-0.001845075050368905,-0.09359612315893173,-0.0002515577943995595,-0.05110946670174599,-0.03719634562730789,0.03957252576947212,0.10048848390579224,0.1374807208776474,-0.20065349340438843,0.04422342777252197,0.025757519528269768,-0.10372256487607956,-0.02652130089700222,-0.060371123254299164,0.21102295815944672,0.026765210554003716,-0.027669884264469147,-0.006027340888977051,-0.17911477386951447,0.034359514713287354,0.06904225051403046,-0.007126843556761742,0.07251942902803421,0.018681343644857407,0.0938253328204155,0.1618863344192505,0.06828051805496216,-0.18646368384361267,0.014321190305054188,0.041027769446372986,-0.05319217965006828,0.04993889480829239,-0.1390904039144516,0.15315067768096924,-0.031673118472099304,-0.06676627695560455,0.11556079238653183,0.09203784912824631,-0.033885251730680466,0.013906530104577541,-0.030035000294446945,-0.055503394454717636,-0.04764235019683838,0.14336101710796356,-0.0017722700722515583,-0.10734548419713974,-0.01711878925561905,0.1344667375087738,-0.08690639585256577,0.11647253483533859,-0.08058285713195801,-0.02778366208076477,-0.030168555676937103,0.14787884056568146,0.08656914532184601,0.038514479994773865,0.06585314869880676,-0.23507647216320038,0.08069988340139389,0.07479338347911835,0.0661114826798439,-0.14574888348579407,0.09025980532169342,0.022322623059153557,-0.06587300449609756,0.060048285871744156,0.05145522952079773,0.003433561185374856,-0.10213574022054672,-0.11708317697048187,-0.13550813496112823,-0.10439897328615189,0.16089828312397003,-0.01726415939629078,-0.06035903841257095,-0.022937152534723282,0.02931339666247368,-0.07343967258930206,-0.1960735321044922,-0.06712605059146881,0.050929732620716095,0.18415632843971252,0.03513503819704056,0.09217505156993866,0.16768768429756165,0.14864838123321533,-0.10826809704303741,0.0031213073525577784,-0.07849058508872986,0.053966179490089417,-0.042290929704904556,0.009819140657782555,-0.22090022265911102,0.014432509429752827,0.22631338238716125,-0.06471562385559082,-0.11874759197235107,-0.14858762919902802,0.04563264921307564,-0.10544776171445847,-0.09203819930553436,0.05670921131968498,-0.14140000939369202,-0.013050544075667858,0.11807262152433395,-0.09989239275455475,0.019969632849097252,-0.23198816180229187,-0.057639364153146744,0.1361674964427948,0.05090486630797386,0.1773516982793808,-0.11813773959875107,-0.00010334618855267763,-0.024426117539405823,-0.017086153849959373,-0.04299034923315048,0.041156429797410965,0.030007990077137947,0.07494837045669556,0.06311974674463272,0.034399837255477905,-0.02664610743522644,0.045543037354946136,0.08602440357208252,-0.0242470670491457,0.02843242511153221,0.15262635052204132,-0.02360217086970806,0.0062368037179112434,0.19229644536972046,0.0467519648373127,0.00204355432651937,0.047036536037921906,0.047669846564531326,-0.09242182970046997,0.18439322710037231,0.1586693972349167,-0.030244039371609688,0.0317557118833065,-0.06328271329402924,-0.12110061943531036,0.06757982075214386,-0.1700878143310547,-0.0587632991373539,0.14558041095733643,-0.043447546660900116,-0.052966371178627014,0.08898308873176575,0.0686560794711113,-0.006606054957956076,0.20493754744529724,-0.19296295940876007,0.12190217524766922,0.13124549388885498,0.15365903079509735,0.05880884453654289,0.09924304485321045,0.057494159787893295,-0.20700886845588684,-0.04000244662165642,-0.02085559070110321,-0.08598913997411728,0.03279237449169159,0.004126818384975195,-0.03331433981657028,-0.15421952307224274,-0.19906161725521088,0.012841151095926762,-0.030359381809830666,-0.12153298407793045,0.03447752073407173,-0.1090797707438469,0.054530732333660126,0.0919681116938591,0.10770707577466965,0.14692285656929016,-0.06677456945180893,-0.04774569720029831,-0.09205028414726257,-0.01043497584760189,0.07794071733951569,0.14978823065757751,0.0387166291475296,-0.03790276125073433,-0.058735936880111694,0.021218491718173027,0.0066675604321062565,-0.03300078585743904,-0.03153573349118233,0.038420818746089935,0.036758456379175186,0.023621192201972008,-0.01971331797540188,0.0629679262638092,-0.034485507756471634,-0.02894136868417263,-0.08940177410840988,-0.15118639171123505,-0.044179126620292664,0.02923583798110485,-0.0707123801112175,0.03891151398420334,-0.0165905449539423,-0.025743747130036354,0.0005583636811934412,-0.10911164432764053,0.07635673880577087,0.010378706268966198,-0.08432669192552567,0.015847375616431236,-0.17775650322437286,-0.0128359105437994,-0.062414173036813736,-0.00082075857790187,0.025446085259318352,-0.0009246492991223931,-0.001520165940746665,-0.023425430059432983,0.09299177676439285,0.055626243352890015,0.003681552829220891,-0.061883602291345596,-0.026242585852742195,0.0147445322945714,0.03561015427112579,-0.006274522747844458,-0.02332567423582077,0.18172083795070648,-0.014277663081884384,-0.0205015130341053,0.06168212741613388,-0.019921958446502686,0.010589519515633583,-0.017892884090542793,0.041367433965206146,-0.06851349025964737,0.018709760159254074,-0.06789609789848328,-0.02424779161810875,-0.032061029225587845,-0.007089938502758741,0.08061064779758453,-0.02796759456396103,0.05155900493264198,0.016241032630205154,0.042155925184488297,-0.020202387124300003,0.027530815452337265,0.13785122334957123,0.03461065515875816,-0.0027876892127096653,0.10468323528766632,0.005202888511121273,-0.04892383888363838,-0.006455962546169758,0.08084370195865631,0.1915724277496338,-0.05865601450204849,0.0444038026034832,0.0733204185962677,-0.09353358298540115,0.009769297204911709,-0.02509993314743042,-0.04804769903421402,0.03395073115825653,0.01188909076154232,0.060482803732156754,-0.0410100594162941,0.024105200543999672,-0.056366391479969025,0.08550495654344559,0.053887080401182175,-0.03191510960459709,0.1079372987151146,-0.003723867004737258,0.0889928936958313,0.001223163097165525,0.013333548791706562,-0.06020555645227432,0.06742199510335922,2.964881969091948e-05,-0.1470675766468048,-0.10431456565856934,-0.039893608540296555,0.038824569433927536,-0.006456250324845314,-0.014767843298614025,-0.004635509103536606,0.10964833945035934,-0.15027791261672974,0.17407314479351044,0.10826204717159271,-0.054037906229496,0.0032418216578662395,0.08957748860120773,-0.0034108152613043785,0.02082223817706108,0.07647053897380829,-0.10523080080747604,0.1411769539117813,0.03921942785382271,0.09147211164236069,-0.009510412812232971,0.0959353968501091,-0.3040306270122528,0.06997212767601013,0.019775381311774254,0.028616486117243767,0.16720949113368988,0.01949484646320343,-0.012265454046428204,0.30330899357795715,0.005050817504525185,0.021802043542265892,0.12322789430618286,0.0049344380386173725,0.0124274343252182,-0.006950842682272196,-0.05648469179868698,-0.06358417123556137,0.00848378799855709,-0.07017409056425095,-0.014669920317828655,0.03436998650431633,0.05565010756254196,-0.0012850596103817225,-0.037329357117414474,0.03363082930445671,-0.01777159795165062,0.006699304562062025,0.05515103414654732,0.054077692329883575,-0.03848231956362724,0.044806089252233505,-0.0071912105195224285,0.003832775168120861,0.043347232043743134,-0.06972701847553253,-0.007328826934099197,0.000741979107260704,0.06307946145534515,-0.015062172897160053,0.115903839468956,-0.051617581397295,-0.02834273688495159,-0.007012057118117809,0.004763850010931492,-0.005174707621335983,0.026228146627545357,-0.02866983413696289,0.08711268752813339,-0.00653621694073081,0.02272825315594673,0.12773999571800232,-0.04350237175822258,0.03973500803112984,0.026909327134490013,0.012407121248543262,0.014392725192010403,0.029676487669348717,0.02421852946281433,0.05877021327614784,0.019843852147459984,-0.005867924075573683,0.051587797701358795,-0.06605066359043121,-0.02020793780684471,0.01852385699748993,0.08410847932100296,-0.01049062330275774,0.10849422216415405,-0.038735825568437576,0.02543819509446621,0.11151211708784103,0.01950039528310299,0.002608381910249591,0.036074213683605194,0.036386799067258835,-0.04205759987235069,-0.06539661437273026,0.0016544575337320566,-0.06652513146400452,-0.0021737143397331238,-0.011242705397307873,0.048785168677568436,-0.03603249415755272,-0.044289544224739075,-0.030877232551574707,-0.030717996880412102,0.041933879256248474,-0.09378930926322937,-0.00546552799642086,0.078707754611969,-0.02485279180109501,0.014663847163319588,-0.0012111356481909752,-0.07387440651655197,-0.046556245535612106,-0.0566054992377758,-0.06678684800863266,0.03116540238261223,-0.06378713250160217,0.02220848947763443,-0.009853148832917213,0.036179110407829285,-0.07153593748807907,-0.010257379151880741,-0.04400583356618881,0.007168998941779137,-0.03155655413866043,-0.04132838919758797,0.08040841668844223,0.061001792550086975,0.040606409311294556,0.11506718397140503,-0.03169817104935646,0.06326920539140701,0.0286071989685297,0.05107332020998001,0.04745456948876381,0.010319241322577,-0.0563340038061142,0.04461970925331116,0.004697246477007866,-0.05347989872097969,-0.036883533000946045,-0.020796921104192734,-1.5084991900948808e-05,0.0675506740808487,-0.06878776848316193,0.04460954666137695,0.08443459868431091,0.07916489988565445,0.13081324100494385,-0.06563813239336014,0.016149576753377914,0.074740469455719,-0.03329627588391304,-0.02913902886211872,-0.09752947092056274,0.04651205614209175,0.03972210735082626,0.023341279476881027,-0.011782228015363216,0.041075725108385086,0.058179162442684174,-0.030476627871394157,-0.0237796138972044,0.030975354835391045,-0.06519272923469543,-0.08791575580835342,0.03946499899029732,-0.06678137183189392,-0.04707896336913109,-0.014691651798784733,-0.02031087502837181,0.09291362017393112,0.012825279496610165,0.09226282685995102,0.04949550703167915,0.10048673301935196,-0.03888191655278206,0.07217410951852798,-0.054410047829151154,0.001990716904401779,-0.004137341398745775,-0.04579063877463341,-0.08532440662384033,0.03148077428340912,-0.00047080189688131213,0.023720331490039825,-0.07366059720516205,-0.09989284723997116,0.04602783918380737,-0.04171422868967056,-0.0636337473988533,-0.06767120212316513,-0.05916969105601311,0.03310488164424896,-0.013268903829157352,0.04684241861104965,-0.05392841622233391,-0.06766457110643387,-0.1027028039097786,-0.011300341226160526,0.027989760041236877,0.07894451171159744,-0.032297682017087936,0.009836459532380104,0.01523586269468069,-0.029373256489634514,0.009667911566793919,-0.060853756964206696,-0.002747185295447707,-0.045495375990867615,-0.0766623243689537,0.06460598856210709,-0.004549372009932995,-0.04411986470222473,-0.10116134583950043,-0.005273078568279743,-0.013739114627242088,-0.11893010884523392,-0.05792098119854927,-0.02973458357155323,-0.004120423458516598,-0.07852837443351746,0.010891334153711796,-0.0477675162255764,-0.011457583867013454,-0.04145664721727371,-0.06013507768511772,-0.013344424776732922,0.02228005975484848,-0.0241839736700058,0.11476820707321167,-0.011402786709368229,0.0073988535441458225,0.018799688667058945,-0.057038791477680206,-0.0578179806470871,0.015782086178660393,0.04381556063890457,-0.00778029952198267,0.07989988476037979,-0.007086160592734814,0.027348844334483147,0.023432539775967598,-0.027287989854812622,0.011798327788710594,-0.011743167415261269,-0.027083493769168854,-0.02249990403652191,-0.0120325218886137,-0.007261977531015873,0.11193648725748062,0.03312719985842705,0.017165333032608032,-0.006095514632761478,0.016687987372279167,-0.06567057967185974,-0.03451608866453171,-0.030136631801724434,0.05360255762934685,0.02210661582648754,0.013985315337777138,0.019304968416690826,-0.06246720254421234,0.038392599672079086,-0.030877182260155678,-0.07674206048250198,0.004304515663534403,0.0032370160333812237,0.014883662573993206,0.015257853083312511,-0.04289858788251877,0.06120355427265167,-0.0695684626698494,-0.0448005385696888,0.058171529322862625,-0.002011716365814209,-0.02380906231701374,0.0039618657901883125,-0.07663308829069138,0.015097014605998993,0.08903895318508148,0.04133756831288338,-0.011389343999326229,-0.018388140946626663,0.02608911506831646,0.034898824989795685,-0.0004254444211255759,0.16864120960235596,0.025859467685222626,0.15380185842514038,0.0629894882440567,0.029517143964767456,-0.06649208068847656,-0.036019619554281235,0.028715288266539574,-0.07873886823654175,0.008803138509392738,0.06374147534370422,-0.0009915584232658148,-0.06035474315285683,0.050518497824668884,0.03358343616127968,-0.011081160046160221,-0.06332077085971832,-0.05084947869181633,-0.05883803963661194,-0.0026730720419436693,0.04982297122478485,-0.008043916895985603,-0.035312991589307785,0.076968252658844,0.06414572149515152,0.10961872339248657,0.01987168937921524,0.03899584710597992,0.002148411702364683,-0.010830532759428024,0.10956393927335739,-0.0034744716249406338,-0.011520614847540855,-0.04421394690871239,0.0382910780608654,0.14355772733688354,-0.03327523544430733,0.027764802798628807,-0.009063402190804482,0.03321288526058197,-0.017741646617650986,0.038758475333452225,0.11421798914670944,-0.017952127382159233,0.01589701697230339,-0.0363784097135067,-0.03486877679824829,-0.01404529344290495,