-0.05061231926083565,-0.00841554719954729,0.09547100961208344,-0.023183630779385567,-0.08058023452758789,-0.011875418946146965,-0.273193895816803,-0.021123921498656273,-0.10176543146371841,0.0002218035515397787,-0.04796094447374344,-0.12275219708681107,-0.06838107109069824,0.09169492870569229,0.2152981460094452,0.21838697791099548,-0.042586687952280045,0.01742534339427948,-0.20238910615444183,0.032567303627729416,-0.04855173081159592,-0.047135401517152786,0.04622386768460274,0.05913659930229187,0.234947070479393,-0.21634063124656677,0.0004587058210745454,-0.18055316805839539,-0.025539221242070198,-0.0028557961340993643,0.025318074971437454,0.09558112919330597,-0.013818793930113316,-0.0178541149944067,-0.007799814455211163,0.129505455493927,-0.05097392201423645,0.1783684343099594,-0.047908537089824677,-0.02216455526649952,-0.07049510627985,-0.020308449864387512,0.16474613547325134,-0.04711942747235298,0.02680964395403862,0.09897902607917786,-0.04260515049099922,0.023222874850034714,0.06491097062826157,-0.1257053017616272,-0.005098274908959866,-0.043462563306093216,0.060080140829086304,0.00576087087392807,-0.09630945324897766,-0.060182247310876846,0.035837363451719284,-0.031084204092621803,0.1277529001235962,-0.02325705625116825,0.09816188365221024,0.04063614830374718,-0.005442040041089058,0.006497904658317566,-0.0810142531991005,0.16756542026996613,-0.012089267373085022,0.014339899644255638,-0.13092084228992462,-0.07007773220539093,0.0383073091506958,-0.02377203479409218,-0.019546696916222572,-0.05484969541430473,0.02446955069899559,0.08280862867832184,0.0015930760418996215,-0.029371632263064384,-0.15528149902820587,0.15675409138202667,-0.020339692011475563,0.07532757520675659,-0.0875353291630745,-0.11750932037830353,0.032191358506679535,-0.12348175048828125,-0.010585173964500427,-0.03309682756662369,-0.035689905285835266,-0.26502612233161926,-0.09245748817920685,0.04106581211090088,0.04816177114844322,0.08854766935110092,-0.004409861750900745,-0.004332234617322683,-0.030924860388040543,0.01462029293179512,0.0026131244376301765,-0.15024903416633606,-0.04567850008606911,0.0343065969645977,0.016733316704630852,-0.13998988270759583,-0.10197648406028748,-0.09516537934541702,0.019500527530908585,0.11738631874322891,-0.11939714103937149,-0.015065130777657032,0.08043289929628372,-0.09624245762825012,-0.0763067975640297,-0.011857408098876476,-0.06590656191110611,-0.16650357842445374,-0.002098598051816225,0.04719902202486992,0.07851670682430267,0.07735241204500198,-0.1183699518442154,-0.053732097148895264,-0.02910696715116501,0.08816449344158173,-0.0030807610601186752,0.15909194946289062,-0.00672869710251689,-0.10097336024045944,0.034066393971443176,0.017477888613939285,-0.12833066284656525,0.04713869467377663,-0.014149196445941925,0.014030934311449528,0.014127330854535103,-0.08563665300607681,-0.01519765518605709,-0.020126720890402794,0.011242114007472992,-0.09473316371440887,-0.00901010725647211,-0.10383103042840958,0.10108701884746552,-0.04752158746123314,-0.021542483940720558,0.05216673016548157,-0.043314170092344284,0.0009476733393967152,0.07629463076591492,0.1911899894475937,-0.006518011912703514,0.015518424101173878,0.02274230308830738,-0.196183443069458,0.0024337638169527054,0.07533633708953857,-0.01325284130871296,0.10648496448993683,-0.07870126515626907,-0.07457339018583298,0.2591273784637451,-0.01327573787420988,-0.1558636873960495,-0.06050923839211464,-0.0025023757480084896,0.03169923648238182,0.11723005771636963,0.02983662113547325,-0.15687541663646698,-0.009765615686774254,-0.13773392140865326,-0.05959583818912506,0.06239807978272438,-0.021020112559199333,-0.024477843195199966,0.07080713659524918,0.026740483939647675,-0.004320282954722643,-0.045626409351825714,-0.03502240031957626,-0.045216698199510574,-0.12967486679553986,-0.08455336093902588,0.052743103355169296,-0.10993219166994095,-0.11222711205482483,-0.00428599352017045,-0.08301708102226257,0.06061669811606407,-0.03381647169589996,-0.06358225643634796,0.05043685436248779,-0.0008488737512379885,-0.036356423050165176,0.10173378139734268,-0.04106871038675308,-0.049823589622974396,0.04108020290732384,-0.0049773408100008965,-0.09023523330688477,0.04148769751191139,-0.025976086035370827,-0.0007180074462667108,-0.04245304316282272,0.06016046181321144,0.015090801753103733,-0.04186158999800682,0.011613428592681885,-0.0390889048576355,-0.015948917716741562,-0.07857053726911545,0.15488697588443756,0.00022358176647685468,0.08021160960197449,-0.06310427933931351,-0.1160738617181778,0.05662668123841286,0.017377721145749092,0.15519706904888153,-0.03671574220061302,0.10004854202270508,0.050335053354501724,0.0779588520526886,-0.026877008378505707,-0.02878984995186329,0.05448947846889496,0.025535983964800835,0.000982011086307466,-0.04036635532975197,0.12323120981454849,0.09670254588127136,-0.017206313088536263,0.03451110050082207,-0.00307517871260643,0.05397207662463188,-0.10764025896787643,0.016874782741069794,0.055261652916669846,0.0019198034424334764,-0.009823913685977459,0.016107194125652313,0.0220402330160141,0.06793976575136185,-0.007322169374674559,-0.061212215572595596,-0.07952248305082321,0.007806668523699045,-0.09782156348228455,0.023236284032464027,-0.006701818201690912,-0.02978832647204399,-0.09268491715192795,0.1321612298488617,-0.04499291628599167,0.10183899849653244,0.04445410519838333,0.1635991781949997,-0.029194151982665062,-0.05762971192598343,-0.0032125674188137054,-0.06133940443396568,-0.10334687680006027,-0.020355509594082832,0.10961612313985825,-0.008388848975300789,-0.07621271163225174,-0.014617113396525383,0.10032866150140762,-0.14988699555397034,-0.00529836118221283,-0.131885826587677,-0.01211482286453247,0.07640762627124786,0.027659399434924126,0.008580181747674942,0.017245670780539513,-0.045994095504283905,0.0972779393196106,-0.08049269765615463,0.016548093408346176,0.018240900710225105,-0.251466304063797,-0.08480864763259888,0.07233119010925293,-0.0006869055796414614,-0.000900648592505604,-0.07034371048212051,0.017763715237379074,-0.050379909574985504,-0.14371539652347565,0.06026953086256981,-0.060809992253780365,0.037487372756004333,0.033014945685863495,-0.00910707376897335,-0.0018866474274545908,0.07285820692777634,-0.038646548986434937,0.0485367588698864,-0.013711628504097462,0.07217688858509064,-0.006976492237299681,0.028800932690501213,0.09362222999334335,-0.0020203255116939545,0.009987734258174896,0.12163673341274261,0.18415671586990356,-0.1997227817773819,-0.10558278113603592,-0.029687274247407913,0.03218788281083107,0.26074784994125366,-0.037448350340127945,-0.007352898363023996,0.18285255134105682,0.14413028955459595,0.15395501255989075,0.03161732479929924,-0.13658133149147034,0.060113389045000076,0.15280000865459442,-0.07461806386709213,-0.007443738169968128,-0.013128761202096939,0.09318990260362625,0.1917923092842102,-0.042258940637111664,0.020765038207173347,0.012381680309772491,-0.04546613246202469,0.08026252686977386,-0.049998197704553604,0.11159063130617142,-0.002847088035196066,-0.11101610958576202,0.021944966167211533,-0.12817975878715515,-0.10774469375610352,0.012559576891362667,-0.007108898833394051,0.0616791658103466,0.059806160628795624,0.14159241318702698,0.10170868784189224,-0.008089295588433743,-0.08874420076608658,-0.0427599772810936,-0.04125405475497246,-0.030983099713921547,-0.017417913302779198,-0.015696464106440544,-0.00027258932823315263,0.06392674148082733,0.03714681789278984,0.04388032481074333,0.08162208646535873,0.07921352237462997,-0.008493105880916119,0.009794819168746471,0.007095279172062874,-0.060700204223394394,-0.08482153713703156,-0.07175368815660477,0.06458143144845963,-0.03980178013443947,-0.05998004600405693,-0.0312416460365057,0.05594538897275925,0.021209007129073143,0.049331992864608765,0.016960401087999344,-0.043565746396780014,-0.0023238358553498983,-0.015008230693638325,-0.0755407065153122,-0.02900344878435135,0.10249342024326324,-0.07051554322242737,0.008520959876477718,0.013657981529831886,-0.025098809972405434,0.040545739233493805,0.10582470893859863,0.12094559520483017,0.02130148559808731,-0.05751706287264824,-0.056976575404405594,-0.029728330671787262,-0.03915033116936684,0.0028291940689086914,-0.029382267966866493,0.012668970040977001,0.006147143431007862,-0.01929689571261406,-0.053695473819971085,-0.0197299774736166,0.0020867858547717333,-0.0262929555028677,-0.07380682975053787,-0.031835850328207016,0.08009765297174454,0.055291466414928436,-0.06290318071842194,-0.027063289657235146,-0.07075342535972595,-0.2437916249036789,-0.03815113380551338,-0.03727942705154419,-0.08298908174037933,-0.021830830723047256,-0.07880902290344238,-0.024388840422034264,0.011914798989892006,0.04930601269006729,0.0219777449965477,0.03535759449005127,-0.03564468026161194,-0.045138560235500336,-0.13704611361026764,0.04820060729980469,-0.037297822535037994,0.07224264740943909,-0.040141694247722626,0.011411381885409355,-0.06590427458286285,0.018270378932356834,0.09107334166765213,0.1613798290491104,-0.04164374619722366,0.019937962293624878,-0.005414547398686409,0.11738839745521545,0.1132468730211258,-0.135984405875206,0.059936486184597015,-0.04573183134198189,0.07321533560752869,0.10491533577442169,0.05533484369516373,-0.07879111915826797,-0.09847602993249893,-0.07362007349729538,0.005440677050501108,0.15092581510543823,-0.06688722968101501,-0.01828797347843647,0.025524433702230453,0.08741793781518936,0.047977544367313385,0.04123355820775032,0.059891894459724426,-0.0287922415882349,-0.005031116772443056,-0.06010059639811516,0.009394391439855099,-0.05146123468875885,0.08379606157541275,0.013480447232723236,-0.009475205093622208,0.031446315348148346,0.04018117114901543,-0.06853727996349335,-0.05032701790332794,0.15635862946510315,0.06271831691265106,-0.08808208256959915,0.011441766284406185,0.005771654192358255,-0.09146690368652344,0.04096704721450806,-0.051430635154247284,0.08148157596588135,0.03351118415594101,0.036522239446640015,-0.033950891345739365,-0.0687539204955101,-0.08230073750019073,0.16465149819850922,-0.07612888514995575,-0.04459037631750107,-0.03914135321974754,0.07126371562480927,0.05176197364926338,0.10025560855865479,-0.033992040902376175,0.06068192794919014,-0.07130821794271469,-0.04026762396097183,0.08447722345590591,0.006138237658888102,0.06414085626602173,0.05256640911102295,-0.01540982536971569,-0.0020939346868544817,-0.06151348724961281,-0.08776164054870605,-0.09039347618818283,0.011251082643866539,0.01245471928268671,0.034164849668741226,0.008479012176394463,-0.08982255309820175,-0.055624544620513916,0.008003885857760906,0.08157344907522202,-0.06406949460506439,-0.047691185027360916,-0.00636059558019042,-0.0684218555688858,-0.04467187076807022,-0.017950240522623062,0.01797567307949066,0.050637051463127136,0.021195413544774055,-0.04306931793689728,-0.05127044394612312,0.012410913594067097,0.04035625979304314,0.020910019055008888,-0.03900999575853348,0.02357005700469017,-0.000299639068543911,0.04442264884710312,0.003089783014729619,-0.03545108065009117,0.01729363203048706,-0.06504061818122864,0.07313266396522522,-0.026903467252850533,0.010227269493043423,0.012349946424365044,-0.035426560789346695,-0.03608096018433571,0.04678298905491829,-0.05022573098540306,0.020110003650188446,0.05003749579191208,-0.006894848309457302,-0.053484849631786346,-0.014470472931861877,-0.045583344995975494,-0.0004885164089500904,-0.040695708245038986,0.059798721224069595,-0.0868620052933693,-0.030196625739336014,0.05587341636419296,0.04106918349862099,-0.023413756862282753,0.037736762315034866,0.026910794898867607,0.03664177283644676,0.03330119699239731,0.034554626792669296,-0.03200070932507515,-0.029512016102671623,0.07364443689584732,0.007575997617095709,-0.08193115890026093,0.05998579040169716,0.039424099028110504,-0.012867402285337448,-0.045711468905210495,-0.02372470498085022,-0.05068768560886383,0.04906646907329559,-0.0015717879869043827,-0.027805712074041367,-0.05588893964886665,0.0019374140538275242,0.01911335252225399,-0.04427957162261009,-0.013721683993935585,0.020155230537056923,-0.02231069840490818,-0.08588198572397232,0.024045225232839584,0.07362208515405655,-0.0404801182448864,0.0122560765594244,0.13274261355400085,0.004064429085701704,-0.0016606464050710201,-0.07193920761346817,-0.1149381622672081,0.03847204148769379,-0.010945281013846397,0.03101395256817341,0.04390430077910423,-0.12450384348630905,-0.07330052554607391,-0.04165004566311836,-0.03117244876921177,0.033660512417554855,0.055218666791915894,0.09005274623632431,-0.06323428452014923,0.046081822365522385,-0.017845366150140762,0.02872890792787075,-0.11851835250854492,-0.03876466676592827,-0.024003654718399048,0.06008748710155487,0.056992560625076294,-0.057972975075244904,0.045633476227521896,-0.02940344624221325,-0.07717445492744446,-0.08681050688028336,-0.034029521048069,-0.00681143905967474,-0.009733322076499462,-0.011734690517187119,-0.015272069722414017,-0.04212498292326927,-0.1518631875514984,0.08332163095474243,-0.033522482961416245,0.06315234303474426,-0.12459193915128708,0.11923621594905853,0.026030687615275383,0.016358966007828712,0.09926094859838486,0.009261054918169975,0.0934981182217598,0.02120007388293743,-0.03339620307087898,-0.016234273090958595,0.007403608411550522,0.06174648553133011,-0.04374096915125847,0.022493427619338036,0.05695189908146858,-0.03882809355854988,0.05731254443526268,-0.006291718687862158,-0.06634248048067093,-0.260780394077301,0.0077829789370298386,0.10439601540565491,-0.009239468723535538,-0.017546145245432854,0.015082272700965405,0.05095893517136574,0.06893033534288406,-0.05160123109817505,-0.22366435825824738,0.22717608511447906,-0.26232266426086426,-0.12813135981559753,-0.27561089396476746,-0.06282958388328552,-0.07096260786056519,0.09359574317932129,-0.06313704699277878,0.11483968049287796,0.007077311165630817,0.0778379887342453,0.16937421262264252,0.1515287309885025,-0.017163578420877457,-0.10516886413097382,0.10472128540277481,0.0420040525496006,0.00954730249941349,-0.015547619201242924,-0.039554793387651443,0.0015791244804859161,0.10496386140584946,-0.12228237837553024,-0.07043429464101791,0.03701592609286308,-0.007420215290039778,0.12142965942621231,0.131245955824852,-0.014116799458861351,-0.1000470221042633,-0.28601908683776855,-0.20726847648620605,-0.23407456278800964,0.057130202651023865,-0.07539740204811096,0.07310689985752106,-0.11228256672620773,0.007851439528167248,-0.02320801466703415,0.020096754655241966,-0.009460220113396645,0.1284337341785431,-0.10008791089057922,-0.09068980813026428,-0.1504344642162323,0.2187059372663498,-0.03066183812916279,-0.04918624460697174,-0.08306211233139038,-0.18274791538715363,-0.15321379899978638,0.06656371057033539,-0.013068101368844509,-0.059340495616197586,-0.23951837420463562,-0.019729306921362877,0.046226248145103455,-0.011120743118226528,-0.15420658886432648,-0.2965849041938782,-0.17206664383411407,0.06560412049293518,-0.0105573246255517,-0.044267620891332626,0.03852606937289238,0.04935726895928383,0.16297882795333862,0.08593172580003738,-0.04814344644546509,0.003547669854015112,-0.07865456491708755,-0.053283657878637314,0.016510270535945892,0.02870960719883442,-0.083885058760643,0.19422835111618042,0.03728184476494789,-0.03818889707326889,0.10541754961013794,0.058928024023771286,-0.04243925213813782,0.22791317105293274,-0.21980316936969757,-0.14752991497516632,0.09668652713298798,-0.22307553887367249,-0.035141345113515854,0.08564995974302292,0.12039467692375183,0.04235704988241196,-0.08129557967185974,-0.1409623771905899,0.005699664819985628,-0.1342262625694275,-0.14880093932151794,-0.03961406648159027,-0.03642234578728676,-0.03236443176865578,-0.14758676290512085,-0.13182002305984497,-0.004748919513076544,0.013920036144554615,0.11785537004470825,-0.06864704191684723,-0.02274133265018463,-0.09593155235052109,0.16972336173057556,0.025026915594935417,-0.05820026248693466,-0.11556541919708252,-0.1359468698501587,-0.03777605667710304,0.020229095593094826,0.15920959413051605,0.023509183898568153,-0.03420323505997658,-0.14354656636714935,-0.25717616081237793,0.0966070368885994,-0.014165579341351986,-0.009427166543900967,0.11251305788755417,-0.035683076828718185,0.21032865345478058,0.06385111808776855,0.030900783836841583,0.071566142141819,-0.11411287635564804,0.06751558184623718,0.06861881166696548,0.05813178792595863,-0.005083470605313778,0.05741943418979645,-0.04817439243197441,-0.1990063488483429,-0.022620994597673416,0.011926613748073578,-0.06834540516138077,-0.04326087608933449,-0.1298133134841919,0.2195376455783844,-0.07590849697589874,-0.13135801255702972,-0.2792559266090393,-0.015948781743645668,0.0029671690426766872,-0.137014701962471,0.08267920464277267,-0.16504615545272827,-0.15072201192378998,-0.01502543780952692,-0.2484676092863083,-0.04405111074447632,0.0473126657307148,0.1436154991388321,0.01896125264465809,0.046134840697050095,0.127360001206398,0.1718166619539261,-0.08416073024272919,-0.06942100077867508,-0.04589415714144707,0.0732845738530159,0.09684779495000839,0.0020870338194072247,-0.08675719797611237,0.1772354543209076,0.13372702896595,0.05064307898283005,-0.1849154829978943,0.00606803223490715,-0.030701762065291405,0.009056275710463524,0.003045212710276246,0.06029660254716873,0.12043415755033493,-0.1438351422548294,-0.018608517944812775,-0.018191415816545486,0.0029256262350827456,-0.12739558517932892,0.052695613354444504,-0.06891833990812302,0.013668406754732132,0.002893541008234024,0.0005475227953866124,-0.1275937557220459,-0.08775699883699417,0.0009685229160822928,0.019750067964196205,-0.00555378058925271,-0.0790911540389061,-0.004237170331180096,0.0023933404590934515,0.06192213296890259,0.057597216218709946,-0.0033148215152323246,-0.01155784260481596,-0.09039594233036041,0.06654267758131027,0.09549201279878616,-0.14308089017868042,-0.04619978368282318,-0.022603658959269524,-0.07653647661209106,0.02506677433848381,-0.01803651824593544,0.20165704190731049,-0.1037459746003151,-0.10843125730752945,-0.037900444120168686,0.0015683273086324334,-0.054451148957014084,0.025869879871606827,-0.06823685020208359,-0.03593401610851288,0.009638117626309395,-0.01647907868027687,-0.058804307132959366,0.002522005932405591,-0.11951405555009842,-0.06636397540569305,-0.0833849310874939,-0.18444806337356567,-0.07764551788568497,-0.14747482538223267,-0.004670943599194288,-0.09099925309419632,-0.09682624042034149,-0.24471522867679596,0.10925968736410141,0.06361453235149384,0.029184546321630478,0.03968580812215805,0.07333400845527649,0.12126349657773972,-0.03673882782459259,-0.08589562773704529,0.04831909015774727,-0.024790354073047638,-0.1738966852426529,0.11414402723312378,0.07067205756902695,0.016730865463614464,-0.017942165955901146,-0.021331341937184334,0.1171078160405159,-0.012667402625083923,-0.06858818978071213,-0.24666619300842285,0.060132499784231186,0.023682525381445885,-0.11876288801431656,-0.03707590699195862,-0.13160745799541473,0.02047341875731945,0.06841540336608887,0.2146688550710678,-0.0748748779296875,0.04163634777069092,-0.048023246228694916,-0.0561036579310894,-0.020128022879362106,0.04018130525946617,-0.24476571381092072,-0.1229124590754509,-0.035597480833530426,0.1741870939731598,-0.05148635432124138,0.007803681306540966,-0.019417405128479004,-0.04876159876585007,-0.2454511970281601,-0.0641440600156784,0.013841290026903152,-0.00011423184332670644,0.021882189437747,0.02800421230494976,0.02132217027246952,-0.1593511700630188,-0.24840158224105835,-0.14020384848117828,0.06933839619159698,-0.01862899586558342,-0.0361318439245224,-0.06009962037205696,-0.1388494223356247,0.03977014124393463,-0.14021001756191254,-0.04167701303958893,-0.04895760118961334,0.02877013012766838,-0.08291362971067429,-0.19898094236850739,-0.003512764349579811,0.15694938600063324,-0.0112152686342597,0.02334187552332878,-0.05209752172231674,-0.07028330862522125,-0.015358040109276772,-0.02350553870201111,0.20131318271160126,-0.03726058453321457,0.04398788511753082,0.08125130087137222,-0.18601134419441223,-0.16549080610275269,-0.011051512323319912,-0.036127969622612,-0.026958778500556946,-0.05871421843767166,-0.1210533007979393,-0.025886399671435356,-0.060320258140563965,0.20447516441345215,0.07463712245225906,0.06843556463718414,0.008227570913732052,0.07142622023820877,0.19708764553070068,-0.03676353767514229,0.00040032650576904416,-0.03720230981707573,0.10564963519573212,0.06783308833837509,-0.015819935128092766,0.12601546943187714,0.07148712128400803,-0.023866575211286545,0.06157393380999565,0.05142170190811157,0.009877808392047882,-0.11472231894731522,-0.0873451679944992,0.06794637441635132,0.02598169632256031,0.07070617377758026,0.08808201551437378,0.02673773653805256,0.03998897969722748,-0.17461512982845306,-0.02121179923415184,-0.058162420988082886,-0.09533240646123886,-0.06026780232787132,-0.08148504048585892,-0.0017916314536705613,-0.03530074283480644,-0.03362918272614479,0.012539559975266457,-0.1294771134853363,0.10239709168672562,0.06195402145385742,-0.057312097400426865,-0.03105878457427025,-0.1728791743516922,0.07855614274740219,-0.026491815224289894,-0.02116975747048855,-0.05196019262075424,-0.0911906361579895,-0.010162483900785446,0.008089859038591385,0.07697810977697372,-0.031052829697728157,-0.004982594400644302,-0.06353890895843506,-0.09054651856422424,0.06982354074716568,-0.012474028393626213,-0.1436070054769516,-0.07092996686697006,-0.051707059144973755,-0.08723913133144379,0.08477126806974411,-0.06106490641832352,-0.027975697070360184,-0.04507774859666824,-0.16549931466579437,0.0799366682767868,0.01838219165802002,-0.07315591722726822,-0.02363572083413601,-0.018668515607714653,-0.13283708691596985,0.0064348080195486546,-0.028781984001398087,-0.14631019532680511,0.041397541761398315,0.05379917472600937,0.07045421749353409,0.036266401410102844,-0.0925791785120964,-0.03937619552016258,-0.0689893364906311,0.17768236994743347,-0.047439031302928925,0.013659194111824036,0.21354854106903076,0.1322953999042511,0.13957804441452026,-0.05480875074863434,-0.1692773550748825,-0.017428413033485413,0.020724860951304436,-0.12818649411201477,-0.07833398878574371,-0.023380039259791374,0.12464265525341034,-0.11936702579259872,0.03907834738492966,0.011994991451501846,0.009363248944282532,-0.07669958472251892,-0.04815104976296425,-0.19282685220241547,-0.06323999166488647,-0.045626912266016006,-0.10882730036973953,0.09562499821186066,0.05988847836852074,0.0020578019320964813,0.15172772109508514,-0.08165191859006882,-0.1021948829293251,-0.2276274859905243,-0.09959252178668976,-0.026021603494882584,0.06784436851739883,0.19176635146141052,0.07229543477296829,-0.03441339358687401,0.019319169223308563,-0.019360888749361038,-0.051691148430109024,-0.023717068135738373,0.18761363625526428,-0.0969192162156105,0.044838856905698776,-0.05565393343567848,-0.16581399738788605,-0.014056787826120853,0.011070886626839638,0.13947780430316925,-0.07653716951608658,-0.18961350619792938,-0.05897365137934685,-0.0237240232527256,0.02745847962796688,-0.06213465705513954,0.01086995005607605,-0.006753161549568176,-0.027805855497717857,0.04972415044903755,-0.012526486068964005,-0.17492243647575378,-0.10190651565790176,-0.009689914993941784,-0.052607934921979904,0.26526346802711487,0.027116570621728897,-0.04329485073685646,0.12503167986869812,-0.000360284058842808,-0.006945896428078413,-0.07712867856025696,-0.07247664034366608,-0.1469651162624359,-0.07576429098844528,0.16817793250083923,0.06458143889904022,-0.023846767842769623,0.06567180901765823,0.0972372367978096,0.05521213263273239,0.07057670503854752,0.032044872641563416,-0.1827077716588974,-0.12413790822029114,-0.047511182725429535,-0.05601762607693672,-0.06257867068052292,-0.03685735538601875,0.002885820809751749,0.0017600269056856632,-0.016808688640594482,-0.005762782879173756,0.012699279934167862,0.054022204130887985,0.15252894163131714,-0.1634216010570526,-0.08976547420024872,-0.08433838933706284,-0.050427138805389404,-0.05273721367120743,-0.08221527934074402,0.05511283501982689,-0.018483325839042664,0.028400961309671402,0.17269277572631836,0.009005909785628319,0.022091690450906754,-0.03665163367986679,-0.03629197180271149,-0.009089143946766853,0.023962225764989853,-0.03291182592511177,0.0626780241727829,0.03272790089249611,0.06979110836982727,-0.026051798835396767,-0.024874920025467873,0.058234620839357376,0.004240076523274183,-0.01054181344807148,-0.031150931492447853,0.03496886044740677,0.014628336764872074,-0.014256324619054794,-0.048109233379364014,0.04238322749733925,-0.060060806572437286,-0.06574587523937225,-0.10692305862903595,-0.009903187863528728,-0.11186475306749344,-0.09044795483350754,-0.13007161021232605,0.05690516158938408,-0.09289507567882538,0.0018824104918166995,0.05315264314413071,0.048033084720373154,-0.026135606691241264,-0.0604831799864769,-0.009240874089300632,-0.0050798566080629826,-0.0525873526930809,0.021405991166830063,0.0199965201318264,-0.028480179607868195,-0.03583839163184166,0.061804480850696564,0.03609827905893326,0.03764333575963974,-0.0068006375804543495,0.05517403781414032,-0.11631568521261215,0.04597539082169533,-0.02195635810494423,-0.03509585186839104,-0.01895434968173504,-0.0926799401640892,-0.024395624175667763,0.020798757672309875,-0.02087368071079254,-0.012387493625283241,0.004368787631392479,-0.047570206224918365,-0.03442728519439697,0.031298622488975525,0.04565560445189476,-0.008496141992509365,0.008351010270416737,0.00605169590562582,-0.019773026928305626,-0.1540229469537735,0.07556198537349701,-0.13923659920692444,0.03164353594183922,0.0468326173722744,-0.13376875221729279,0.049296218901872635,0.10607929527759552,0.1559365689754486,0.008053326047956944,0.09679461270570755,-0.04734024405479431,0.11503109335899353,-0.10568376630544662,-0.03641502186655998,-0.03208737447857857,0.0038344827480614185,-0.12066017091274261,-0.01358054019510746,-0.00822247564792633,-0.12017091363668442,0.11207662522792816,0.008957208134233952,0.015895670279860497,-0.11547424644231796,-0.04528646543622017,-0.06630569696426392,-0.10982569307088852,-0.09791562706232071,0.08202360570430756,-0.16046738624572754,0.015239461325109005,-0.043461874127388,0.036666955798864365,0.0012174962321296334,-0.007848851382732391,0.005199058912694454,0.09773683547973633,-0.003474666504189372,0.014882534742355347,-0.22371602058410645,0.060941144824028015,0.023314310237765312,-0.0406598262488842,0.08381412923336029,0.01854689233005047,0.02719460055232048,0.028648346662521362,0.1540302187204361,-0.13225916028022766,0.09032780677080154,0.007185966242104769,0.04028308019042015,0.18813934922218323,0.0721149817109108,-0.07004915922880173,-0.008008415810763836,0.04571746289730072,-0.18364866077899933,-0.14714661240577698,-0.06599625945091248,0.02816920168697834,0.36820340156555176,-0.01808926835656166,0.04074391350150108,0.04885780066251755,-0.1448444277048111,0.0169802438467741,0.13533487915992737,-0.0005866133142262697,0.11193989962339401,-0.026116352528333664,0.132210835814476,-0.03217093273997307,0.04111459106206894,0.08509733527898788,0.021798543632030487,-0.09629623591899872,0.04928084835410118,0.018083183094859123,-0.029295191168785095,-0.09419764578342438,-0.022040653973817825,0.02542838267982006,-0.08033562451601028,0.07312751561403275,-0.05309779942035675,-0.04969463497400284,-0.08148636668920517,-0.11180347204208374,0.05982262268662453,0.05847923085093498,0.09337173402309418,0.06654176115989685,-0.06282621622085571,0.07235442101955414,0.008394964039325714,0.051378268748521805,-0.084348164498806,0.11541896313428879,0.08829599618911743,-0.044802941381931305,0.09414146840572357,0.09864966571331024,-0.09477370977401733,-0.032685037702322006,0.05746614187955856,0.04257716238498688,-0.03493504226207733,-0.030131010338664055,0.05914109945297241,0.003052353858947754,0.00811864249408245,0.011041661724448204,0.03369927406311035,0.09899015724658966,0.062212638556957245,0.04089672490954399,0.018672073259949684,0.10857194662094116,-0.028793923556804657,-0.018573159351944923,-0.014647359028458595,-0.07494282722473145,-0.0783100500702858,-0.1446615606546402,0.024939948692917824,-0.00394879374653101,0.026245273649692535,0.07106925547122955,0.04259634017944336,0.047775425016880035,-0.032004181295633316,-0.04992232471704483,0.019641226157546043,-0.002905668457970023,0.00591526972129941,0.09680157899856567,-0.00759513583034277,0.09190130978822708,0.08515119552612305,-0.00302134919911623,-0.08726242184638977,0.03037213534116745,0.07435648143291473,-0.0051862322725355625,-0.006286878604441881,-0.08754461258649826,0.005674061831086874,-0.11034230142831802,0.15494191646575928,0.007683868054300547,-0.08777681738138199,-0.03997621685266495,0.014669034630060196,-0.024743366986513138,0.08471541106700897,0.07176154106855392,-0.06694631278514862,0.09596925228834152,0.03716643899679184,0.06737643480300903,0.01107268687337637,0.07894747704267502,0.08817914128303528,0.008751913905143738,-0.05242675170302391,-0.07933161407709122,0.0642392560839653,0.09690956771373749,0.00916693452745676,0.03315357491374016,-0.008718416094779968,-0.0521409697830677,-0.040187984704971313,0.021467357873916626,0.03616020455956459,0.10168297588825226,-0.10329709947109222,-0.001566654653288424,-0.012430583126842976,0.03130472078919411,-0.16500036418437958,-0.09585041552782059,0.023711565881967545,-0.004988562781363726,0.02872670814394951,0.10972131043672562,-0.013810135424137115,-0.0377957746386528,0.00590143259614706,0.02444521337747574,0.025473013520240784,0.11631143093109131,0.009014997631311417,0.03374335169792175,0.023910801857709885,0.026847921311855316,0.004631876014173031,0.04399450495839119,-0.035769760608673096,0.07504969090223312,-0.05589344725012779,-0.03456971049308777,-0.030361242592334747,0.2058081477880478,-0.2055235505104065,0.0488821379840374,0.04241829738020897,-0.05265074223279953,0.023562666028738022,0.07836665213108063,0.10062434524297714,-0.08784133940935135,-0.09645642340183258,0.11413431912660599,-0.1346268355846405,0.05909465625882149,0.030561411753296852,-0.07224530726671219,0.059399791061878204,0.01257140003144741,0.01026913896203041,0.09034954756498337,0.04512221738696098,0.04434549808502197,-0.028566423803567886,0.013332592323422432,-0.1552170366048813,0.007419889327138662,-0.0001880582858575508,-0.03679434582591057,0.010464690625667572,-0.09772387892007828,0.06355426460504532,0.07763764262199402,-0.0931309163570404,0.11663123220205307,-0.06400574743747711,-0.20754703879356384,0.06634379178285599,-0.052100203931331635,0.12679049372673035,0.032987114042043686,0.003009767970070243,0.09451695531606674,-0.01662025973200798,-0.10280976444482803,-0.017386775463819504,-0.0009275228367187083,0.13431333005428314,0.0671335756778717,-0.015497922897338867,-0.021723806858062744,-0.019951840862631798,0.08136609941720963,-0.02444753237068653,-0.020851941779255867,0.06844307482242584,0.04237174615263939,0.013985838741064072,0.037480760365724564,0.006732543930411339,0.04607238247990608,-0.0009615871822461486,0.012960430234670639,-0.00883906614035368,-0.01665414124727249,-0.034652698785066605,-0.0484260655939579,0.027656463906168938,0.04322640597820282,0.04458870738744736,-0.01174562331289053,0.06345055252313614,0.012339611537754536,0.004806906916201115,-0.02314295433461666,-0.0003620509523898363,0.012650157324969769,-0.0711866021156311,0.07917406409978867,0.07790664583444595,0.059435561299324036,-0.04156842827796936,0.07523501664400101,-0.04417641833424568,0.041528791189193726,-0.006180096883326769,-0.0332065187394619,-0.02762039750814438,0.06788811087608337,-0.03863689675927162,-0.07825429737567902,0.02299634926021099,0.018395382910966873,-0.07835213840007782,-0.058197516947984695,0.042889632284641266,0.00874244049191475,0.03199145570397377,-0.00882100872695446,-0.028641434386372566,-0.09133927524089813,-0.057127729058265686,-0.06589765846729279,-0.0010754988761618733,-0.002822775859385729,0.05636563524603844,0.02436116524040699,-0.007723576854914427,-0.029561210423707962,-0.055424049496650696,-0.053895022720098495,-0.0642603263258934,0.0684453696012497,0.02601812593638897,0.02066098339855671,0.05081987753510475,0.011319024488329887,0.04707004502415657,-0.024558981880545616,-0.025196753442287445,0.048301126807928085,-0.05140915885567665,-0.035051386803388596,0.03682184964418411,-0.01551990769803524,0.0028230445459485054,0.029025282710790634,-0.04834602028131485,0.026661673560738564,0.03247358649969101,-0.11212467402219772,0.07922865450382233,0.008700357750058174,0.0034041099715977907,0.052844349294900894,0.015244313515722752,0.041021209210157394,0.17617635428905487,0.009250616654753685,0.01582740806043148,0.06129629909992218,0.17169484496116638,0.17735208570957184,-0.06956075876951218,0.13950346410274506,-0.00207014218904078,-0.12421919405460358,-0.03348420560359955,0.015943987295031548,0.0059903282672166824,0.04624928906559944,0.08070995658636093,0.043542105704545975,-0.001180829363875091,0.017817983403801918,0.05697120353579521,-0.07390386611223221,0.025115445256233215,0.07125616073608398,0.00044122469262219965,0.06972073763608932,0.04127180948853493,0.04412036016583443,0.026928819715976715,-0.04019877314567566,-0.1432895064353943,-0.008793143555521965,-0.03882104903459549,0.00020240675075910985,0.07638470828533173,0.0685904398560524,-0.06973982602357864,-0.05614186450839043,-0.0028039650060236454,0.03938447684049606,-0.020883630961179733,-0.15058448910713196,0.06437284499406815,-0.019836902618408203,-0.0958414077758789,-0.0501689612865448,-0.030820729210972786,-0.10813193768262863,0.03456467390060425,-0.05292309448122978,-0.0809861496090889,-0.08258284628391266,0.05158226564526558,0.0379202663898468,0.12269880622625351,0.07275766134262085,0.00596109451726079,0.002269462216645479,0.06928345561027527,-0.0502266064286232,0.11301378905773163,-0.042838431894779205,-0.03946712985634804,-0.08082062005996704,0.01397540234029293,-0.05419594794511795,0.09304528683423996,0.07633357495069504,-0.03763195127248764,0.01638185791671276,-0.08456812798976898,0.03965152055025101,-0.015317519195377827,0.024831216782331467,0.004309976939111948,-0.0103576285764575,-0.07114914059638977,0.047055959701538086,-0.03717689961194992,0.1206582635641098,-0.0989176481962204,0.033626142889261246,-0.006131467875093222,-0.07908415794372559,0.057520415633916855,0.012303212657570839,-0.015799475833773613,0.10293960571289062,-0.044048331677913666,-0.08709411323070526,-0.024421976879239082,-0.1547171026468277,0.005772648844867945,0.015410267747938633,0.054391540586948395,-0.0552833117544651,-0.1527935117483139,-0.054100167006254196,-0.026051096618175507,0.07052639871835709,0.05988507345318794,0.011504782363772392,-0.008786804042756557,-0.02656695805490017,0.0030842593405395746,0.06266018003225327,-0.0077287876047194,-0.05492820218205452,-0.12314479798078537,0.03244061768054962,-0.04430645704269409,-0.08494843542575836,-0.038576554507017136,0.04589449614286423,0.0257622841745615,0.05950121209025383,0.008558339439332485,-0.08430029451847076,-0.06655155122280121,-0.013080911710858345,-0.033152028918266296,-0.002356721553951502,-0.015709340572357178,0.10303814709186554,-0.05577531456947327,0.022494491189718246,0.09472306072711945,0.014857922680675983,-0.05169020965695381,-0.04450127109885216,-0.020772818475961685,-0.0866507738828659,0.05921958386898041,0.03457840904593468,-0.1040421724319458,0.00900951586663723,-0.09046898037195206,0.07757233083248138,0.007963263429701328,0.08253730833530426,-0.012256297282874584,-0.02448633685708046,0.008137928321957588,-0.0229716245085001,0.02080504409968853,-0.025122730061411858,0.005350415129214525,-0.007471963297575712,0.01961573399603367,-0.013050507754087448,0.0033760839141905308,-0.060957346111536026,-0.07133698463439941,-0.059387970715761185,0.05563296005129814,0.0032943529076874256,-0.037007007747888565,-0.06999410688877106,-0.05921097844839096,-0.0009495250415056944,-0.10692575573921204,-0.010214429348707199,0.04328145086765289,-0.04571320861577988,-0.07497096806764603,-7.429331890307367e-05,0.06037336215376854,-0.03888018801808357,0.07185668498277664,-0.02199815772473812,-0.005922467447817326,-0.05068100988864899,-0.025190796703100204,0.04398195073008537,0.046791497617959976,-0.025833746418356895,0.11173857003450394,-0.05294507369399071,-0.0007485493551939726,-0.06300301849842072,0.0012192060239613056,0.04541138932108879,-0.0775173157453537,-0.05127339065074921,0.04453186318278313,-0.017005013301968575,-0.03648616001009941,-0.043357815593481064,0.07978125661611557,-0.021855928003787994,0.10765340179204941,0.06664469838142395,-0.09591441601514816,0.0013963556848466396,0.02466161921620369,-0.03813164681196213,-0.09671251475811005,0.07590266317129135,0.11038181185722351,0.015412628650665283,-0.07774396985769272,-0.0428406186401844,-0.0720573291182518,-0.046000104397535324,-0.04636605083942413,0.04808640852570534,-0.03498203307390213,0.0027490840293467045,0.05812107026576996,-0.0420590415596962,0.05507534369826317,-0.04295668751001358,-0.029100988060235977,-0.03310081362724304,0.07783970236778259,-0.0001287442137254402,0.007433118764311075,0.06989274173974991,0.06698226928710938,-0.00744596915319562,-0.0030815950594842434,-0.09123798459768295,-0.0191408172249794,0.05105835944414139,-0.029868025332689285,-0.011257302947342396,0.01300885807722807,0.03465494513511658,0.0339043028652668,0.03904980793595314,-0.06948487460613251,0.08166930079460144,-0.014350195415318012,0.037059444934129715,-0.02502591907978058,0.10103585571050644,0.026211051270365715,0.00912146270275116,-0.013925449922680855,-0.013053028844296932,0.01966899074614048,-0.00307723181322217,0.044857196509838104,0.06015186011791229,0.04426317289471626,0.004748196806758642,0.004745878279209137,0.07592914998531342,0.054361529648303986,-0.032007548958063126,-0.023988567292690277,-0.014290246181190014,0.028463033959269524,0.0460493266582489,-0.04296790435910225,0.04259307682514191,0.09337838739156723,-0.03663371130824089,-0.024528035894036293,0.04339279606938362,-0.0046388255432248116,0.007676813751459122,0.1326616108417511,0.04383540153503418,-0.027861520648002625,0.004706015810370445,-0.003001563949510455,-0.005331448279321194,0.026395512744784355,-0.031504783779382706,0.04708020016551018,0.026545807719230652,0.050611283630132675,0.0050011295825243,-0.004457081202417612,0.0358051098883152,-0.007001196034252644,-0.03649120777845383,0.023191992193460464,-0.06877325475215912,-0.0802500769495964,-0.015557551756501198,0.020095396786928177,0.04046759754419327,0.050191838294267654,-0.021287064999341965,0.0019743817392736673,0.05764181166887283,0.013288837857544422,0.03098219260573387,-0.026361588388681412,-0.04764481633901596,0.03103782795369625,0.056970372796058655,-0.01325900200754404,0.0041440753266215324,0.001416581217199564,-0.04731984809041023,0.053605832159519196,0.03878117352724075,-0.028409771621227264,-0.06929299980401993,0.023297019302845,-0.01808391697704792,-0.0013363772304728627,-0.004005334340035915,0.024424757808446884,-0.037582047283649445,-0.04273105040192604,-0.03308742493391037,-0.0014151438372209668,0.013227933086454868,-0.0740739181637764,0.05928410589694977,-0.10497818142175674,0.019495710730552673,-0.04055030643939972,0.08366060256958008,0.05179937556385994,0.06714742630720139,0.024346821010112762,-0.0329994298517704,0.029462013393640518,-0.04331004247069359,-0.06456034630537033,-0.016948848962783813,0.0179261714220047,0.01736081950366497,0.04081640765070915,-0.046981699764728546,-0.05217285454273224,-0.07528605312108994,0.06955602765083313,0.053715161979198456,0.027330903336405754,-0.08424893021583557,0.01128939725458622,-0.0013656485825777054,-0.030864162370562553,0.08496976643800735,0.005031943321228027,0.07174549251794815,-0.1144452914595604,0.021355021744966507,-0.06489882618188858,-0.0629434734582901,-0.09921592473983765,-0.030853981152176857,0.009326103143393993,0.029587052762508392,0.10358601808547974,-0.035607174038887024,-0.00705193355679512,0.07696196436882019,0.09066128730773926,-0.03415156900882721,-0.006176195107400417,-0.060575976967811584,0.07098808139562607,0.0277053602039814,0.03052387572824955,0.011285430751740932,-0.0075987037271261215,0.03852962329983711,-0.015217931941151619,0.06723201274871826,-0.12535417079925537,-0.04390930011868477,-0.09647984057664871,0.004691763315349817,0.07779335230588913,0.02010955661535263,0.005127255339175463,-0.029395855963230133,-0.008581521920859814,0.019256362691521645,-0.08130776882171631,-0.09641316533088684,-0.07082702964544296,-0.0038223802112042904,0.21646751463413239,0.031264372169971466,0.03545120730996132,-0.017399976029992104,0.05491865798830986,0.13810747861862183,-0.16686014831066132,-0.005167155060917139,0.01474746409803629,0.07666037231683731,-0.08011678606271744,0.06632473319768906,0.057129740715026855,-0.03217191994190216,-0.03418603911995888,0.024359270930290222,0.20453190803527832,-0.06834518909454346,0.0023054219782352448,-0.11407992988824844,0.02598106861114502,0.016731996089220047,-0.04559865966439247,0.0036576148122549057,0.04606720060110092,-0.19935300946235657,-0.09659326076507568,0.035759955644607544,0.010947165079414845,-0.06372738629579544,0.16849634051322937,0.10317512601613998,0.001638547284528613,0.09306488931179047,0.010981470346450806,-0.01127303671091795,0.03793726861476898,-0.05724203214049339,-0.05528517812490463,0.017670385539531708,-0.06059565395116806,0.008020580746233463,-0.08914490044116974,0.08816646039485931,-0.011917276307940483,-0.02971724234521389,-0.007540413644164801,0.16210201382637024,0.18252436816692352,-0.08676083385944366,0.08727025240659714,-0.09499112516641617,0.07859057933092117,-0.02616758644580841,-0.01782125234603882,0.0632610023021698,-0.031210720539093018,-0.05195298790931702,0.04162362217903137,-0.061976052820682526,-0.07393775135278702,0.029101425781846046,0.0067101698368787766,0.007552136667072773,-0.1702205240726471,-0.007273177150636911,0.04039730504155159,-0.015621243976056576,0.004633493721485138,0.041287533938884735,-0.06815627962350845,0.02385520190000534,-0.06724891066551208,-0.027684500440955162,0.008760909549891949,-0.011422459967434406,-0.10963279008865356,0.1580515205860138,-0.14312680065631866,-0.004168626852333546,0.0562516488134861,0.02101759985089302,-0.06605986505746841,0.048052746802568436,0.04801354929804802,0.029865708202123642,0.16417019069194794,0.07668881863355637,-0.00829049851745367,0.08474470674991608,0.030289826914668083,-0.13724756240844727,0.10215087234973907,-0.03232918679714203,-0.04876819625496864,-0.006218476686626673,-0.016802746802568436,-0.03816872090101242,0.08540528267621994,0.14942535758018494,-0.009115869179368019,0.13597255945205688,0.05331822857260704,0.1512891948223114,0.01500143576413393,0.07379672676324844,-0.080977663397789,-0.0005525823216885328,-0.19609788060188293,0.08152039349079132,-0.13045765459537506,-0.12870143353939056,-0.12250585854053497,0.06749550253152847,-0.01710897870361805,-0.1377670168876648,-0.12287600338459015,0.009589656256139278,-0.009217622689902782,0.06132853031158447,0.012236732989549637,0.00792855117470026,0.01234994363039732,0.00856064073741436,-0.0826953649520874,-0.10485170036554337,-0.1738927811384201,-0.004622023552656174,0.016170622780919075,-0.00272121699526906,-0.07955286651849747,0.03882183879613876,0.15741772949695587,-0.07996640354394913,-0.05218684300780296,0.0359564945101738,-0.07205867767333984,0.00493808276951313,0.16146984696388245,0.07915068417787552,0.06845651566982269,-0.09780101478099823,-0.16420206427574158,0.1822677105665207,-0.041524436324834824,-0.11132799834012985,-0.10920099914073944,-0.003688977099955082,-0.0027558496221899986,-0.11901095509529114,-0.15925325453281403,-0.014808186329901218,0.08066292107105255,-0.013331950642168522,-0.000851068296469748,0.2116968184709549,0.010468306951224804,-0.05188779532909393,-0.06192998215556145,0.0175704937428236,-0.06387738883495331,-0.011789281852543354,-0.07945093512535095,0.03158283606171608,0.02875819243490696,-0.27991804480552673,-0.020787125453352928,-0.0008126583998091519,0.11739126592874527,0.02144000306725502,-0.08753667026758194,0.0473041869699955,0.08232723921537399,-0.029173752292990685,-0.1342688649892807,-0.08949818462133408,-0.00877754669636488,-0.021895553916692734,0.02580762654542923,0.017800025641918182,0.08940793573856354,-0.01646748185157776,-0.06123010441660881,0.08373340219259262,-0.05434820428490639,-0.0030645362567156553,-0.00370659027248621,-0.056487198919057846,0.01885726861655712,-0.05973653122782707,-0.07169192284345627,0.06723526865243912,0.00972750224173069,-0.07482996582984924,0.003927064128220081,-0.05693564936518669,-0.020974114537239075,-0.009496472775936127,0.0855351984500885,0.017582617700099945,0.01016242615878582,-0.0334644690155983,0.008974442258477211,0.04599843546748161,0.03038129210472107,0.14591896533966064,-0.04413842782378197,0.0850345641374588,0.009943565353751183,0.0063627720810472965,0.012601284310221672,-0.007109346333891153,-0.00162484438624233,-0.05643197521567345,-0.0032668032217770815,0.12144053727388382,-0.010414225049316883,0.0301803145557642,0.10008351504802704,-0.019909929484128952,0.11234238743782043,-0.022616524249315262,-0.03436470404267311,-0.042562179267406464,0.11039941757917404,0.1361691653728485,-0.032548706978559494,0.06042416766285896,-0.11917072534561157,-0.055056020617485046,-0.07085110247135162,0.010278877802193165,-0.04926394671201706,-0.02957386150956154,-0.016834424808621407,-0.03741329908370972,0.005635614972561598,0.1174280121922493,-0.013500075787305832,0.010226921178400517,-0.022016314789652824,0.1284414678812027,0.013850037939846516,0.023236041888594627,0.12490493804216385,0.08889860659837723,0.05592365562915802,0.20114585757255554,-0.03608734905719757,-0.07249880582094193,0.06628173589706421,0.013360315933823586,0.20512518286705017,0.08963996171951294,0.2871217429637909,-0.14434239268302917,-0.02202523499727249,-0.0005616325652226806,-0.04941447451710701,-0.2045164406299591,-0.24725067615509033,0.12425783276557922,0.07182493805885315,0.003125431714579463,0.036842312663793564,-0.007537920493632555,-0.015844332054257393,0.04367351531982422,-0.014518439769744873,-0.16076761484146118,-0.13388340175151825,0.03815146163105965,0.07023085653781891,0.0008979262784123421,0.020308731123805046,-0.21453002095222473,-0.03751886636018753,0.06496641039848328,-0.07107646763324738,0.049993835389614105,0.053248826414346695,0.05661267042160034,0.014773024246096611,0.046253494918346405,0.08151090145111084,0.03590339422225952,0.07336759567260742,0.10337436944246292,-0.08663562685251236,-0.050205834209918976,-0.052699413150548935,0.0463666133582592,0.20476923882961273,-0.00030720647191628814,-0.22953860461711884,0.022625958546996117,0.018231166526675224,-0.0983833521604538,-0.22414717078208923,-0.08154842257499695,-0.15811817348003387,-0.1005767285823822,-0.06850475817918777,0.07454251497983932,0.24156121909618378,-0.020227497443556786,-0.03376409411430359,0.022525431588292122,0.025962166488170624,-0.06545545905828476,0.038646623492240906,-0.005797071848064661,0.052875250577926636,-0.018778303638100624,-0.06296373903751373,-0.01261967048048973,-0.050201158970594406,0.008832071907818317,-0.060214437544345856,0.024192849174141884,-0.04030325636267662,0.007844376377761364,-0.08206307142972946,0.0071480185724794865,-0.04384656250476837,-0.03925241529941559,-0.05358627438545227,-0.056580401957035065,0.047649744898080826,0.024452978745102882,-0.034050460904836655,-0.04479832202196121,0.0025045673828572035,-0.04342545568943024,0.012576080858707428,0.03720583766698837,-0.013554145582020283,0.05758536979556084,-0.00853206031024456,-0.04480373486876488,-0.12832234799861908,0.04576277732849121,-0.012009997852146626,0.000808206619694829,-0.02575201354920864,-0.10453859716653824,-0.015595659613609314,0.1004762053489685,0.038919348269701004,0.027083327993750572,-0.0397387333214283,-0.037984803318977356,0.04056459292769432,0.06215188652276993,0.02611490525305271,-0.006922892760485411,-0.0344446562230587,0.04642654210329056,-0.042354777455329895,0.08514201641082764,0.010304907336831093,-0.03227102383971214,0.02506166510283947,-0.028903618454933167,0.001363150542601943,0.014174753800034523,-0.025140022858977318,0.027914121747016907,0.02434130199253559,0.032992955297231674,-0.04268631711602211,-0.002389615634456277,0.006972346920520067,-0.025301748886704445,0.074305459856987,-0.05788196250796318,-0.03317907452583313,-0.018149757757782936,0.0232712309807539,0.0016006574733182788,-0.01731639914214611,-0.0639125406742096,-0.029735436663031578,-0.06170007213950157,0.06254348158836365,0.034469518810510635,-0.038999948650598526,0.02313169091939926,0.04552319273352623,0.07808424532413483,0.04701007902622223,-0.0021519409492611885,0.032752688974142075,-0.03853115811944008,0.024609694257378578,-0.031430285423994064,-0.009269705042243004,-0.05244471877813339,-0.061343636363744736,-0.0006158917676657438,-0.03321506083011627,-0.02789858914911747,-0.02898639254271984,-0.010356025770306587,0.09800974279642105,0.05474342033267021,-0.03554971516132355,-0.033156245946884155,-0.002580351196229458,-0.07346757501363754,-0.02184997871518135,0.08657725900411606,0.0014901577960699797,-0.03734888881444931,-0.013849821873009205,0.04269521310925484,-0.041086673736572266,-0.03511933982372284,0.06769635528326035,-0.0264230128377676,-0.0021096488926559687,-0.029891163110733032,0.025585507974028587,-0.011945104226469994,-0.024247752502560616,-0.003904265584424138,-0.03472644463181496,-0.03134039789438248,-0.038374099880456924,0.05123915150761604,0.011069823987782001,-0.09784484654664993,-0.06521974503993988,-0.02243673801422119,-0.014398369938135147,-0.03248923644423485,-0.05356673151254654,0.0005956329987384379,-0.021359171718358994,0.0008531993953511119,0.05105886980891228,0.05399926379323006,-0.02334054931998253,-0.0020257679279893637,0.012919062748551369,-0.03073800355195999,0.0746472179889679,0.04718703031539917,0.04292744770646095,-0.05205434188246727,-0.007735694758594036,0.009657349437475204,-0.024590585380792618,0.04716014117002487,0.03788645938038826,-0.019738059490919113,-0.03301239013671875,-0.009356066584587097,0.03070092387497425,0.03394876793026924,0.05837630107998848,-0.023948462679982185,-0.011374208144843578,0.04168451577425003,-0.024804987013339996,-0.02291426807641983,0.08638185262680054,0.04154558479785919,-0.04952021688222885,-0.05101689323782921,0.07405594736337662,0.029225602746009827,-0.013059982098639011,-0.05690297484397888,-0.040374599397182465,-0.047261230647563934,-0.04057133197784424,-0.05189787223935127,-0.014673817902803421,-0.03153209760785103,0.006152159068733454,-0.02524598129093647,-0.020978620275855064,0.02405710145831108,0.033643558621406555,-0.010998831130564213,0.07007300108671188,0.044689103960990906,-0.04676147922873497,0.004529597703367472,-0.009763444773852825,-0.03706976771354675,0.01903669349849224,-0.04583229497075081,0.021061982959508896,0.03637199103832245,-0.050163280218839645,-0.012080906890332699,0.061322618275880814,-0.015384228900074959,0.013388879597187042,0.1019309014081955,0.059829432517290115,-0.02660982869565487,-0.01819661445915699,0.0038668217603117228,0.03002689592540264,0.03004336543381214,0.011974630877375603,-0.01403010729700327,0.03990386053919792,-0.011555016040802002,-0.022981958463788033,0.02493431605398655,-0.08863157033920288,0.06145330145955086,-0.020328493788838387,-0.0422646664083004,-0.023828018456697464,-0.04604148492217064,-0.01800137385725975,0.05747213959693909,0.00912465900182724,0.050457898527383804,0.06704160571098328,-0.06959470361471176,-0.025221511721611023,0.07192286103963852,-0.009354746900498867,-0.05288292467594147,0.021684812381863594,0.03039841540157795,0.054026324301958084,0.04983425885438919,-0.044384077191352844,0.03511232137680054,0.022693458944559097,-0.013850511983036995,0.061445895582437515,-0.04830530285835266,0.008616727776825428,0.017930997535586357,0.01868669129908085,-0.04378153383731842,0.0019366247579455376,0.02720002643764019,0.043766871094703674,0.014781840145587921,-0.027723869308829308,0.05216052383184433,0.003179906401783228,0.036555688828229904,0.00867461133748293,-0.05408541113138199,-0.03172251582145691,-0.0283888541162014,0.03430861607193947,-0.04810626804828644,-0.010796270333230495,-0.008707611821591854,-0.032782237976789474,-0.004015340004116297,0.06203993037343025,0.001701550791040063,-0.021787773817777634,-0.05155724287033081,0.02099248394370079,0.08492229878902435,0.05499035120010376,-0.012437018565833569,-0.015577055513858795,-0.03857161104679108,0.04566125571727753,-0.03193863481283188,-0.0560288280248642,0.006618749350309372,-0.052998654544353485,0.03546309843659401,-0.04696471616625786,0.06098640710115433,-0.023709703236818314,-0.00808700267225504,-0.07575947046279907,-0.05085703358054161,-0.008730301633477211,0.04177215322852135,0.03597152233123779,-0.04154209792613983,0.039238713681697845,0.02027415670454502,0.02641129493713379,-0.03864366188645363,-0.022456880658864975,0.04202239587903023,0.00014257722068578005,-0.04844307526946068,-0.01560530811548233,-0.018074974417686462,0.05426701903343201,-0.044138189405202866,0.0566084161400795,0.01822543889284134,-0.06125686690211296,-0.07906907796859741,0.019361848011612892,0.034542519599199295,-0.03618425130844116,0.050694361329078674,-0.020186927169561386,0.0360381081700325,-0.058721303939819336,-0.06774601340293884,-0.055422987788915634,-0.0455235093832016,0.021972524002194405,-0.0706728920340538,0.021222345530986786,0.043674640357494354,0.03491693735122681,0.013409208506345749,-0.06487537175416946,0.02871524915099144,0.006641221232712269,0.04228713735938072,0.04109152406454086,0.04282791540026665,0.12353421002626419,0.09802393615245819,0.06823200732469559,-0.10249055176973343,0.07873889803886414,0.04041478782892227,-0.12484787404537201,0.07413268834352493,0.023877287283539772,-0.02207343466579914,-0.06541555374860764,0.04068949818611145,-0.07619467377662659,-0.07842857390642166,0.18673858046531677,-0.004093588329851627,0.021015988662838936,-0.02820749580860138,-0.06196676567196846,-0.10653774440288544,-0.034172866493463516,0.13159123063087463,-0.00975586473941803,-0.0359194241464138,0.03953607752919197,0.008800647221505642,0.032406967133283615,-0.02516714483499527,0.042722977697849274,-0.044813401997089386,-0.015128926374018192,-0.018206629902124405,-0.016980985179543495,0.031208138912916183,0.033725690096616745,0.03759700804948807,0.007683377247303724,0.02834908291697502,-0.12077450007200241,0.0049982997588813305,0.011569486930966377,0.022328432649374008,0.07355169206857681,0.025763073936104774,-0.049069903790950775,0.016720876097679138,-0.07522755861282349,-0.02365453913807869,0.011265754699707031,-0.01115978043526411,0.012146765366196632,-0.02015969343483448,0.09797908365726471,0.05845867097377777,0.05121183022856712,0.10082218050956726,0.04222547262907028,0.15355773270130157,0.04615461826324463,0.06902828067541122,0.008767500519752502,-0.053201887756586075,0.04073677957057953,0.04806137830018997,0.026586594060063362,0.012486647814512253,0.04788071662187576,0.002594531746581197,0.06555385142564774,0.015485654585063457,0.004049404989928007,0.022261856123805046,0.03062305599451065,-0.008851774968206882,0.026403138414025307,0.03741404786705971,-0.02765015885233879,0.06226419284939766,0.05418919399380684,-0.02156400866806507,-0.020053964108228683,-0.011934613808989525,-0.0754135325551033,0.06260956078767776,-0.06875298172235489,-0.0037303376011550426,-0.02074926160275936,0.059268202632665634,-0.002354513155296445,0.014792531728744507,0.015318713150918484,-0.022944917902350426,0.03674850985407829,0.08376199752092361,-0.08119017630815506,-0.03599539026618004,-0.029304729774594307,-0.021196017041802406,0.016488654538989067,-0.06474988907575607,0.04665103182196617,-0.035146307200193405,-0.04367108270525932,-0.019749760627746582,-0.06893543899059296,-0.01176005695015192,0.03387012332677841,-0.032679688185453415,-0.009772957302629948,-0.010135890915989876,-0.0441104881465435,0.08626268059015274,0.04778137430548668,0.11162380129098892,0.09179047495126724,0.13883095979690552,-0.057669512927532196,-0.039497196674346924,0.08213288336992264,-0.10955172032117844,-0.01641889475286007,-0.12386734783649445,-0.06403420865535736,0.10062211006879807,-0.07417872548103333,0.030376052483916283,-0.01275024563074112,0.027762440964579582,0.0045057255774736404,0.03206614404916763,0.00036832632031291723,-0.04411299526691437,-0.08934112638235092,-0.04690438508987427,-0.016368862241506577,-0.11320541054010391,0.060268282890319824,0.02201482094824314,0.030143477022647858,-0.01009372528642416,0.014835480600595474,-0.08207041770219803,-0.13460634648799896,0.07646902650594711,0.019591346383094788,0.03180010989308357,-0.06729022413492203,0.0020286189392209053,-0.06671393662691116,0.03373128920793533,-0.0060682338662445545,-0.006274742539972067,-0.0036544513422995806,-0.09586074948310852,0.0009531195973977447,0.08326198905706406,0.032346710562705994,-0.08826091140508652,0.06703370809555054,-0.12008311599493027,0.004754174500703812,0.044018134474754333,0.026589104905724525,-0.0853762999176979,0.0749499574303627,0.02670777402818203,-0.048597197979688644,0.050964947789907455,-0.026027189567685127,-0.04155529662966728,-0.030756987631320953,0.011680198833346367,-0.04987582564353943,-0.03451031446456909,0.020073575899004936,-0.05814273655414581,0.06792069971561432,0.01684298738837242,-0.14286677539348602,-0.007871754467487335,-0.10856783390045166,-0.02533610165119171,-0.09683072566986084,-0.06224198266863823,0.053483746945858,-0.00401845620945096,-0.002663607709109783,-0.05818534269928932,0.012617086991667747,-0.12387204170227051,0.02721523493528366,-0.015311777591705322,-0.019189683720469475,-0.009486301802098751,-0.02492736466228962,-0.02535187266767025,-0.06134342402219772,-0.005465694237500429,-0.01858619600534439,-0.06500378996133804,-0.009836030192673206,0.027663081884384155,0.02692090906202793,0.0167149156332016,-0.04133572056889534,-0.003365245182067156,0.008860216476023197,-0.07806236296892166,-0.05912794545292854,-0.04537343233823776,0.06031809374690056,-0.026769792661070824,-0.022175109013915062,-0.03284531459212303,-0.04304511472582817,0.10649185627698898,0.04822080209851265,0.021154219284653664,0.040510255843400955,0.11403381079435349,-0.014622152782976627,0.08938167989253998,-0.00673392741009593,-0.0030216234736144543,-0.08939987421035767,0.07758374512195587,0.06033341586589813,0.012456463649868965,0.03880038857460022,-0.042835842818021774,-0.03471919521689415,0.03772024065256119,0.019101984798908234,0.04588174819946289,-0.03561578691005707,-0.017471374943852425,-0.027351532131433487,0.024736657738685608,0.14705508947372437,-0.03541196882724762,0.02889985777437687,-0.004564785864204168,-0.06781379133462906,-0.0012454116949811578,0.09627239406108856,0.043913353234529495,0.013339120894670486,0.03962816298007965,-0.0012633888982236385,-0.13226933777332306,-0.021519312635064125,0.09647031873464584,0.06658220291137695,-0.008859869092702866,-0.028838612139225006,0.05483437702059746,-0.024924149736762047,-0.008165134117007256,-0.014208032749593258,0.04115263745188713,-0.09253375977277756,0.07530989497900009,0.08704259991645813,0.1753000169992447,0.055483829230070114,0.04240889847278595,-0.06957311183214188,-0.013586454093456268,-0.10317235440015793,-0.10085861384868622,0.04053467884659767,0.04937473684549332,-0.014934446662664413,-0.1115829274058342,0.11995382606983185,-0.028360432013869286,-0.0369897298514843,0.026930799707770348,-0.0692625343799591,0.009761781431734562,0.23611372709274292,0.0063902344554662704,0.025081392377614975,0.0341038852930069,0.00037063437048345804,0.021653657779097557,0.006315356586128473,0.04549739882349968,-0.030637500807642937,-0.10851286351680756,-0.06524340063333511,0.04253920167684555,0.055593617260456085,0.03249019384384155,-0.044268473982810974,0.015354684554040432,0.10243729501962662,-0.014104989357292652,0.03887830674648285,-0.04761175811290741,0.024071091786026955,-0.08427377045154572,0.07569992542266846,-0.016971688717603683,-0.08304902911186218,0.03813965991139412,-0.07159076631069183,-0.016599036753177643,0.009905955754220486,-0.025366555899381638,-0.0745227113366127,0.04361451417207718,0.03037644922733307,-0.009810398332774639,-0.0794968381524086,0.02403390407562256,-0.04935280978679657,-0.07349509000778198,-0.0037759006954729557,-0.02281690202653408,0.0035277444403618574,-0.018955303356051445,-0.11597278714179993,-0.02242026850581169,-0.1544775515794754,-0.016711894422769547,0.012468825094401836,-0.08753057569265366,-0.0075637404806911945,-0.006666162982583046,-0.011507060378789902,-0.021939273923635483,-0.03884941339492798,0.005854541435837746,0.024484198540449142,0.059986863285303116,0.054476723074913025,-0.02736036106944084,-0.030507737770676613,0.11478868871927261,0.04374245926737785,0.046623796224594116,-0.07206699252128601,0.03392491489648819,-0.042417943477630615,0.0570855475962162,-0.072909414768219,-0.032943245023489,0.09283070266246796,-0.040414948016405106,-0.05435633286833763,-0.055541496723890305,-0.023043394088745117,-0.10412266105413437,-0.008716225624084473,-0.042068783193826675,0.029579080641269684,0.01764344610273838,-0.07196533679962158,-0.01795719936490059,0.05292081460356712,-0.020379194989800453,0.021406229585409164,-0.07807761430740356,-0.05419378727674484,-0.005748232360929251,-0.06439584493637085,0.030379554256796837,-0.03716184198856354,-0.06096574291586876,-0.02783672884106636,-0.0748237669467926,0.05722125619649887,0.04847084358334541,0.0038961274549365044,0.006241310853511095,-0.023603694513440132,-0.06849907338619232,0.13666380941867828,-0.08190259337425232,-0.0571829117834568,-0.08185691386461258,-0.10080086439847946,-0.127286896109581,-0.023035986348986626,-0.03910387307405472,-0.03514063358306885,0.05865670368075371,0.0175668653100729,0.008345589973032475,0.005290445405989885,-0.04144284874200821,0.05479700490832329,-0.0231756791472435,-0.01115513127297163,0.11473556607961655,-0.0011897191870957613,0.006714402697980404,-0.1103731095790863,0.07566248625516891,0.005499826744198799,-0.03502700477838516,-0.04957330599427223,0.03744912147521973,0.08156497031450272,-0.006138263735920191,-0.07102351635694504,0.09105462580919266,-0.10798864811658859,0.057327184826135635,-0.015458463691174984,-0.0006094067939557135,0.14943863451480865,0.019255083054304123,0.05871962383389473,-0.07493529468774796,0.04307321459054947,0.040340084582567215,-0.035528555512428284,0.07641665637493134,-0.036435630172491074,0.014357022941112518,-0.03239572048187256,0.030550014227628708,-0.005155844148248434,0.02299300581216812,0.0043663689866662025,-0.09656328707933426,0.03012033738195896,0.0017000905936583877,-0.10522162914276123,-0.00751472357660532,0.0017707266379147768,0.10262859612703323,-0.013326134532690048,-0.11901789903640747,0.03655290603637695,-0.04268168285489082,0.02135082706809044,-0.07866086810827255,-0.01742592081427574,0.027988005429506302,-0.04801308736205101,-0.012679683044552803,0.04378407448530197,-0.005429133772850037,-0.08477079123258591,-0.04779747501015663,-0.017955617979168892,0.07154601067304611,0.05340548977255821,-0.0454876683652401,-0.19390280544757843,0.07256152480840683,-0.04829343780875206,-0.10012432932853699,0.027905886992812157,0.0595007948577404,0.00566557003185153,-0.020515508949756622,-0.06999597698450089,0.007262001745402813,-0.09413231164216995,0.018858637660741806,0.06061462312936783,-0.08218764513731003,-0.00731578329578042,-0.05158020928502083,-0.0024019877891987562,-0.04689241200685501,-0.038065701723098755,-0.06548198312520981,0.018438590690493584,0.09349613636732101,0.0695280209183693,0.06713464111089706,-0.006347175687551498,-0.03363557159900665,-0.1529655009508133,0.026502827182412148,-0.014490708708763123,-0.023850610479712486,-0.008989375084638596,-0.15210041403770447,-0.09052795171737671,0.09219585359096527,0.02517266571521759,0.065339095890522,0.020852914080023766,-0.019182438030838966,-0.04473809525370598,-0.00537661649286747,0.065402552485466,-0.0799727514386177,0.05200934782624245,-0.10038411617279053,0.012649488635361195,0.08083957433700562,0.008150513283908367,0.04608418792486191,0.023699704557657242,0.06344098597764969,0.021764125674962997,0.07752294093370438,0.02357099950313568,0.08402657508850098,0.054972920566797256,0.05813663452863693,-0.04932801425457001,0.05760020390152931,-2.1050553186796606e-05,0.04695693403482437,-0.037280742079019547,-0.03175375983119011,-0.017894936725497246,0.009862595237791538,0.003375149331986904,0.020723853260278702,-0.04305336996912956,0.05165400728583336,0.040242258459329605,-0.042750436812639236,0.003150208620354533,0.021251196041703224,0.005547717679291964,0.014549024403095245,0.06282583624124527,0.028773019090294838,0.050852272659540176,0.042103685438632965,0.06931094080209732,-0.006097770761698484,-0.029680805280804634,-0.07305122166872025,0.02938649244606495,-0.0021936497651040554,-0.1041746661067009,0.051078103482723236,0.036113932728767395,0.01404623407870531,-0.05471256747841835,0.0061494954861700535,-0.04208198934793472,-0.027075452730059624,0.0418371818959713,0.06803473830223083,-0.02482379786670208,-0.04349907860159874,-0.02649514377117157,-0.06152675300836563,0.07761818915605545,-0.045646701008081436,0.023694276809692383,-0.05070607736706734,0.054623767733573914,-0.019783277064561844,-0.04200780391693115,0.06967652589082718,-0.11312582343816757,-0.03427061066031456,0.007804620545357466,0.0020642464514821768,0.07850666344165802,-0.04152223840355873,-0.031150609254837036,-0.049221672117710114,0.02495083399116993,-0.0010434152791276574,-0.008678881451487541,0.009472478181123734,-0.08391010016202927,-0.07290786504745483,-0.05199868604540825,0.031056785956025124,0.013887734152376652,-0.03177667036652565,0.06604470312595367,0.10087054967880249,0.024872731417417526,-0.014948404394090176,-0.01930074952542782,-0.11352469027042389,-0.019525419920682907,0.057220447808504105,0.09141585975885391,0.012102211825549603,0.08544956892728806,0.06845217943191528,-0.08888376504182816,0.03637054190039635,-0.034875333309173584,0.039754774421453476,0.008359606377780437,0.05561627075076103,-0.03834845870733261,-0.019974596798419952,-0.015607072040438652,-0.014264296740293503,0.03558771684765816,-0.02417593263089657,0.10555413365364075,-0.006192510947585106,-0.039832837879657745,0.07129719853401184,-0.04054078459739685,-0.02271782048046589,0.11008275300264359,0.022574229165911674,-0.06159393861889839,-0.061117518693208694,0.10371802002191544,0.04843747988343239,0.04949616268277168,0.04164836183190346,0.013569085858762264,-0.022179028019309044,-0.04087788984179497,-0.04155130311846733,0.009571922942996025,-0.06684984266757965,-0.014486847445368767,-0.04580136016011238,-0.017017854377627373,0.008761041797697544,0.05601796507835388,0.05411212518811226,-0.0021232368890196085,0.04661371931433678,0.0138148944824934,-0.04627205431461334,-0.024006154388189316,-0.007196235470473766,-0.048403460532426834,0.009979451075196266,0.03918207809329033,-0.04503917321562767,0.018339009955525398,-0.006218601483851671,0.05194878578186035,-0.15842151641845703,-0.11244918406009674,0.019777530804276466,-0.05200757458806038,-0.01764366775751114,-0.09632471203804016,-0.17587774991989136,-0.0814700722694397,0.06541868299245834,-0.0754668191075325,-0.1314745545387268,-0.08015056699514389,-0.040395308285951614,0.03895590081810951,-0.00904563907533884,0.060506995767354965,0.017801964655518532,-0.0849875658750534,0.08161428570747375,0.005139430519193411,0.02763221599161625,0.09240441024303436,-0.04695042967796326,0.0699121281504631,-0.048740454018116,-0.06340856850147247,0.041759077459573746,0.01019390020519495,0.12925966084003448,0.08446929603815079,0.057413678616285324,0.15057778358459473,-0.015606017783284187,0.017689786851406097,-0.07352028787136078,0.07413441687822342,0.07428407669067383,0.17748694121837616,0.015921272337436676,0.03850826993584633,0.04006604477763176,0.04740669205784798,0.07737665623426437,0.0330972746014595,-0.019026288762688637,0.01957281120121479,0.04894275590777397,0.05679458752274513,-0.16178274154663086,0.09931490570306778,0.03579576686024666,0.05640634521842003,-0.16713955998420715,0.10491853952407837,0.060764312744140625,0.0994250625371933,-0.0725448876619339,0.09774857759475708,-0.01160301361232996,-0.0524660088121891,-0.0828370451927185,-0.011549843475222588,0.12047319859266281,-0.0013398634037002921,0.014079217799007893,0.15026627480983734,-0.03770730271935463,-0.043144769966602325,-0.14902883768081665,0.02053903602063656,0.04680134356021881,0.033801861107349396,0.14379097521305084,0.14529089629650116,-0.005383518058806658,0.13080058991909027,-0.012226108461618423,-0.06222754716873169,0.005236752796918154,0.08246219158172607,-0.06727477163076401,0.10429512709379196,0.015885114669799805,0.10008514672517776,-0.016768602654337883,0.059494499117136,-0.024054966866970062,0.031355902552604675,-0.04666884243488312,-0.04448907449841499,0.006821969524025917,-0.030224967747926712,0.024417448788881302,0.04451313614845276,0.08274946361780167,-0.13291457295417786,-0.028666745871305466,0.10445903241634369,0.004413025453686714,0.06623272597789764,0.0966629907488823,0.10551656037569046,-0.00623884703963995,-0.10506004840135574,0.1083737164735794,-0.10221792012453079,-0.05909578502178192,-0.041423868387937546,0.018666556105017662,0.020456383004784584,0.03126085177063942,0.007313448004424572,0.025463920086622238,-0.13054528832435608,-0.0028772796504199505,0.029871715232729912,0.10094104707241058,-0.14745403826236725,-0.08772023767232895,-0.14944171905517578,0.012581880204379559,-0.10022382438182831,0.09516255557537079,0.027789361774921417,-0.1861552745103836,0.0954851284623146,-0.07296815514564514,0.14055031538009644,0.018753835931420326,-0.012132787145674229,0.09745556861162186,0.06656382977962494,0.015339082106947899,0.09009438008069992,-0.02384529449045658,-0.0855456292629242,0.03892337903380394,0.08635822683572769,0.04458041861653328,0.0515538789331913,-0.03802629932761192,-0.0738597884774208,-0.06302810460329056,-0.0009380113333463669,-0.0706881582736969,0.033260077238082886,-0.08692232519388199,-0.10322858393192291,0.03426438942551613,0.028159920126199722,-0.06863581389188766,0.04002867266535759,0.052841685712337494,-0.1457718312740326,-0.03308321163058281,0.0011820598738268018,-0.010452300310134888,0.09851864725351334,-0.07144449651241302,-0.07388096302747726,-0.022105973213911057,-0.009965636767446995,0.02397722192108631,-0.09993775188922882,0.01889352686703205,-0.09004613757133484,0.07706111669540405,-0.0814729556441307,0.004964246414601803,0.07976099848747253,-0.06381450593471527,0.028837095946073532,0.025020238012075424,0.024962596595287323,0.10827255994081497,-0.009686531499028206,-0.06836884468793869,-0.048209045082330704,0.05749114602804184,0.08473166823387146,0.049212705343961716,0.08338266611099243,0.006683358922600746,-0.07789657264947891,-0.10411659628152847,-0.07501579076051712,-0.15448027849197388,-0.05846673622727394,0.01638815738260746,0.018274370580911636,0.016257071867585182,0.05225718021392822,0.11517205834388733,0.06744758784770966,-0.018912896513938904,-0.11459024995565414,0.131911039352417,0.1121935322880745,0.025832263752818108,-0.0285455584526062,0.04474825784564018,0.11639886349439621,0.09484253078699112,-0.0018806253792718053,0.046212296932935715,-0.010111868381500244,0.018112963065505028,0.06964484602212906,0.002129732631146908,-0.054316602647304535,-0.028021566569805145,0.05271533131599426,0.010736130177974701,-0.023276112973690033,0.1243615373969078,-0.061350997537374496,-0.012440900318324566,0.00904981791973114,-0.076788030564785,0.049577511847019196,0.0030878372490406036,0.03593921288847923,0.05964785814285278,0.00634494936093688,-0.05254117026925087,-0.007195248268544674,0.08395405858755112,0.057728420943021774,0.021389106288552284,0.046156059950590134,0.04013657942414284,0.036182668060064316,0.035003479570150375,-0.02219998463988304,-0.024559693410992622,-0.07875651121139526,-0.03725627064704895,0.08077307045459747,0.07782202214002609,0.11875584721565247,0.016499940305948257,0.030618373304605484,-0.06808644533157349,-0.039975397288799286,-0.018865525722503662,-0.0011824253015220165,-0.04205961525440216,0.019061006605625153,0.009711128659546375,0.06086203455924988,0.09296537190675735,-0.05501629412174225,-0.017672009766101837,0.00998133048415184,0.006493669468909502,-0.04014914482831955,-0.12885251641273499,0.019744597375392914,-0.16394558548927307,0.19137577712535858,0.1521930694580078,0.014975648373365402,0.026719696819782257,0.0615079402923584,-0.05838523060083389,-0.04980883374810219,-0.07364808768033981,-0.03590970113873482,-0.020665613934397697,0.023541441187262535,-0.11265970021486282,-0.05873893201351166,0.05670975521206856,-0.013771864585578442,0.036651819944381714,0.16648490726947784,0.0714150220155716,-0.13393279910087585,-0.016674714162945747,0.01715747080743313,-0.01947157271206379,-0.010461367666721344,-0.11303830146789551,-0.06805980950593948,-0.054663196206092834,0.0702381432056427,-0.015756700187921524,0.00788686703890562,0.015096711926162243,0.08878879994153976,-0.018807699903845787,-0.00827813521027565,-0.05195489153265953,-0.04204988852143288,0.005580941215157509,0.0894789770245552,0.04891005530953407,0.022480417042970657,0.09398692101240158,-0.03625683858990669,-0.050390467047691345,0.0668807402253151,-0.10833722352981567,0.08159168809652328,0.054370470345020294,0.018786201253533363,-0.05247257277369499,-0.09275776147842407,-0.06498204171657562,-0.05585482344031334,0.010050238110125065,0.04514472559094429,-0.011199264787137508,-0.096450574696064,0.006569636985659599,0.039922650903463364,-0.11883053928613663,-0.07153940945863724,-0.06659048795700073,-0.12053132802248001,-0.05121892690658569,-0.03640848398208618,-0.14604948461055756,-0.014369643293321133,-0.0030626594088971615,0.11859246343374252,0.06941932439804077,0.03708093240857124,0.013409605249762535,0.12353028357028961,0.17423999309539795,2.5765097234398127e-05,-0.10517474263906479,-0.0801013857126236,-0.0366884283721447,-0.03303062170743942,0.027854114770889282,-0.07772637158632278,-0.04513395205140114,0.055862534791231155,0.13766711950302124,0.10629202425479889,-0.07611853629350662,0.05474616959691048,-0.11954503506422043,-0.012030104175209999,0.03283126279711723,0.08004248142242432,-0.04215199500322342,0.07290145009756088,0.03893288969993591,0.14720585942268372,-0.21045571565628052,-0.017333006486296654,-0.07132820785045624,0.04839541018009186,0.06214478984475136,0.0152317238971591,-0.014925234019756317,0.11055595427751541,0.053627222776412964,0.04734501615166664,0.028588781133294106,-0.10492698103189468,-0.058225084096193314,0.054885927587747574,0.10118255019187927,-0.02610592544078827,0.03161318972706795,0.05156169831752777,-0.0697966068983078,0.010143095627427101,0.02403918467462063,0.023583849892020226,-0.053641337901353836,0.01426352933049202,0.11363983899354935,-0.005827132146805525,0.03529486060142517,-0.013333959504961967,-0.08712555468082428,0.029537897557020187,-0.13137288391590118,0.09837870299816132,-0.04206160083413124,-0.007744987960904837,0.09911344945430756,0.01817047782242298,-0.006115592550486326,0.028418298810720444,0.015510737895965576,0.024290934205055237,-0.033845800906419754,0.06323474645614624,0.002061103703454137,-0.06769729405641556,0.049944277852773666,-0.0037650461308658123,-0.11628694087266922,-0.06136640906333923,-0.010347535833716393,0.08158264309167862,-0.031581249088048935,0.04808077961206436,0.013815972954034805,0.025387272238731384,0.13875438272953033,-0.03266701474785805,0.03309959918260574,0.012097641825675964,0.03489990532398224,-0.07452859729528427,-0.02772822603583336,-0.09186211228370667,-0.01635666936635971,0.02176458202302456,-0.09444255381822586,0.028365736827254295,-0.042305994778871536,0.04867807775735855,0.015073400922119617,-0.04159019514918327,-0.09681369364261627,-0.10442181676626205,-0.02064465545117855,-0.06532316654920578,0.024340463802218437,0.05179738253355026,0.02402692846953869,0.009660989977419376,-0.08136093616485596,-0.10104412585496902,-0.11013738065958023,-0.06275387108325958,-0.018876124173402786,0.04446457326412201,0.029168205335736275,-0.048383526504039764,-0.06922154128551483,0.011669489555060863,-0.09299366176128387,-0.04508000239729881,-0.0032478533685207367,-0.07741440832614899,0.06393305212259293,-0.017043324187397957,-0.058085791766643524,0.002890561940148473,-0.08762779831886292,0.04449894279241562,0.20452798902988434,0.09462639689445496,0.018444688990712166,0.08163087069988251,-0.0561499148607254,-0.009951934218406677,0.08266513794660568,-0.10069243609905243,-0.015874160453677177,-0.02753582037985325,0.07686738669872284,-0.05236358195543289,-0.12064395844936371,0.08331826329231262,-0.1022263616323471,-0.009497459046542645,0.10952414572238922,0.13238003849983215,-0.10598258674144745,-0.12275568395853043,-0.015377553179860115,-0.040774550288915634,-0.16732673346996307,-0.06827530264854431,-0.1259368658065796,0.03594738990068436,0.08202403038740158,-0.06672906130552292,0.11323108524084091,-0.049875594675540924,-0.08189312368631363,-0.11658745259046555,0.031706880778074265,-0.0220780186355114,0.08548691868782043,-0.04944892227649689,-0.009937792085111141,-0.050637830048799515,0.08372717350721359,0.07884945720434189,-0.04454505816102028,0.008575568906962872,0.022879203781485558,0.09739229828119278,0.05104416236281395,0.06168787553906441,-0.08756200224161148,-0.07104600220918655,0.12373778223991394,-0.02676994353532791,0.09024304896593094,0.09095540642738342,-0.022844498977065086,0.05165170133113861,0.08316334336996078,0.025461973622441292,0.07292986661195755,-0.03703806921839714,-0.014200656674802303,0.06872379779815674,0.03366238996386528,-0.03981711342930794,-0.03737374395132065,0.02905011549592018,0.0035846850369125605,0.026225179433822632,0.11358614265918732,-0.018211206421256065,0.036322273313999176,-0.057171981781721115,0.01154373399913311,-0.02218526415526867,-0.047363534569740295,0.02756059356033802,0.04534804821014404,-0.022829510271549225,0.0811615064740181,-0.05923561751842499,0.15421134233474731,0.02027210034430027,0.01647188514471054,0.09863313287496567,-0.03488541394472122,-0.01738300919532776,0.021133428439497948,0.0007810637471266091,0.09361708909273148,0.10668258368968964,-0.0008723329519852996,0.049098044633865356,-0.03776956722140312,-0.04995664209127426,0.09312379360198975,0.03614974766969681,0.06535430997610092,0.04533920809626579,0.09329946339130402,-0.03712226077914238,0.000610787479672581,-0.05322568863630295,-0.00781810563057661,0.0009453417151235044,-0.01795846037566662,0.1946437656879425,-0.005078192800283432,-0.05600377172231674,0.05760928615927696,0.02330564521253109,0.012102042324841022,0.002778566675260663,0.017637234181165695,0.05117568001151085,0.009758329018950462,0.023055771365761757,0.02870233543217182,-0.06966943293809891,-0.001328423386439681,-0.017347408458590508,-0.0541115440428257,0.012743907980620861,0.0747397318482399,-0.07818540185689926,0.07330627739429474,0.03084508329629898,-0.04616837576031685,0.029546767473220825,-0.05420902743935585,0.03837236389517784,-0.07949835807085037,0.020924873650074005,-0.0011663418263196945,0.04364096000790596,-0.06987670063972473,-0.07685188949108124,-0.08199698477983475,0.024758847430348396,-0.04720864072442055,0.009203322231769562,-8.48010677145794e-05,-0.10431943833827972,0.0877303034067154,-0.011335304006934166,0.027109351009130478,-0.006240817718207836,-0.09725407510995865,-0.1073104664683342,0.09151558578014374,-0.01569053903222084,-0.04528062418103218,-0.057725466787815094,-0.005125042051076889,0.026474716141819954,-0.06068994477391243,0.028825940564274788,-0.026162350550293922,-0.05662091076374054,-0.05254194512963295,0.0210723839700222,0.0019368831999599934,0.08296769857406616,-0.10870059579610825,0.011518865823745728,-0.020145200192928314,0.031420692801475525,0.08049041777849197,0.08404455333948135,-0.0058221532963216305,-0.016180094331502914,0.07791754603385925,0.01230864692479372,0.015374662354588509,-0.05410153791308403,-0.0220873411744833,-0.0659361183643341,0.029597193002700806,-0.03304295614361763,-0.027173226699233055,-0.10771574825048447,-0.024607710540294647,0.10822950303554535,0.051537975668907166,0.017815623432397842,-0.08190739154815674,0.019809657707810402,-0.008309220895171165,-0.04463278874754906,-0.022548113018274307,-0.03363736346364021,-0.025298992171883583,-0.021445030346512794,0.07367939502000809,-0.020518174394965172,0.007850081659853458,0.0182181429117918,-0.025727245956659317,-0.03226494416594505,0.029673486948013306,-0.08363457769155502,-0.06586222350597382,0.02987019158899784,0.06977398693561554,0.0206768698990345,-0.15082335472106934,-0.03849495202302933,-0.05756738409399986,-0.06775593757629395,0.01781545579433441,-0.05329819396138191,-0.07143722474575043,-0.03584805503487587,0.08773446828126907,0.11208797991275787,0.08672045171260834,0.10308510810136795,-0.052294470369815826,0.11129611730575562,-0.0957828164100647,0.12430187314748764,-0.04038982093334198,-0.07425715774297714,0.016904516145586967,0.06872177124023438,-0.11374647170305252,-0.07828067243099213,-0.07832857221364975,-0.04616992175579071,0.05165761709213257,0.007866743952035904,0.07302916795015335,0.19542916119098663,-0.2096269577741623,-0.13022436201572418,-0.023731473833322525,0.08167441189289093,0.02031410112977028,-0.03094475157558918,0.044632118195295334,-0.03291439637541771,0.21390141546726227,-0.03260033205151558,-0.00864290352910757,0.02779559977352619,0.1182718575000763,-0.04233221709728241,0.07695510238409042,0.07001685351133347,-0.06564100086688995,-0.07941137254238129,-0.02969702146947384,-0.011650578118860722,-0.09440672397613525,-0.05337847024202347,-0.08252210170030594,0.14762036502361298,0.007114503998309374,-0.028075044974684715,-0.11299030482769012,-0.06965071707963943,0.06744407117366791,0.0031454728450626135,-0.05056532099843025,-0.012724931351840496,0.10700138658285141,0.06101589277386665,-0.058641914278268814,0.03779194876551628,-0.007716847117990255,-0.01606420986354351,0.026555413380265236,-0.07850860059261322,-0.09765686839818954,-0.03559143468737602,-0.10015735030174255,-0.054364342242479324,0.014820070937275887,-0.16589325666427612,0.04203362017869949,-0.10313408076763153,-0.05661184713244438,0.0040897186845541,-0.048364486545324326,0.010653624311089516,-0.10260272771120071,-0.025715751573443413,-0.034075602889060974,0.0030296945478767157,-0.013696589507162571,-0.066475048661232,-0.037644799798727036,-0.08245494216680527,-0.06934110820293427,-0.013537971302866936,0.05698096379637718,-0.007166719995439053,-0.11430516093969345,0.022281859070062637,-0.16434335708618164,0.03586140275001526,0.001001834636554122,-0.03437124565243721,-0.10924890637397766,0.054833848029375076,-0.12923426926136017,0.1151035875082016,-0.07062812894582748,0.08566559106111526,-0.07222164422273636,0.015020506456494331,0.0828271210193634,-0.019858183339238167,-0.13024307787418365,0.004952904302626848,0.018741613253951073,-0.16921459138393402,0.04475371539592743,-0.0641615241765976,0.10962392389774323,0.07326628267765045,-0.00560934841632843,-0.05001270771026611,0.1026831567287445,-0.0810958743095398,-0.02310517616569996,0.043550603091716766,-0.036953967064619064,0.03993275761604309,0.04429566115140915,0.046934809535741806,0.04674755781888962,-0.02990425005555153,-0.0220801904797554,0.005536741577088833,-0.026397740468382835,0.07801590859889984,0.049746446311473846,-0.07731872797012329,0.12986958026885986,0.14931365847587585,-0.07310716807842255,-0.12059800326824188,-0.008569270372390747,0.03519018366932869,0.0715971365571022,-0.05988428741693497,0.17561174929141998,-0.04391033947467804,0.07298458367586136,-0.006242453586310148,0.021486075595021248,-0.10579164326190948,-0.0054522911086678505,-0.15665657818317413,0.003417795058339834,0.015043226070702076,0.02964288368821144,-0.06508798152208328,-0.08045271039009094,-0.08517385274171829,-0.0479934886097908,0.12801362574100494,0.021960563957691193,0.032945629209280014,-0.07453785836696625,-0.055196721106767654,-0.045064590871334076,0.04950222745537758,0.01992097496986389,-0.09033751487731934,-0.04461492598056793,0.040375325828790665,0.018824102357029915,0.02458767406642437,-0.07771006226539612,-0.027834270149469376,0.02888222597539425,-0.0054892548359930515,0.12641534209251404,0.10723241418600082,0.07390730828046799,0.1304202675819397,-0.0019248202443122864,0.05365537106990814,0.052209433168172836,-0.013251231051981449,0.12459661066532135,-0.0588751882314682,-0.04357358068227768,0.008374960161745548,-0.05193960294127464,-0.06886977702379227,0.017458979040384293,-0.010752998292446136,-0.07432929426431656,0.03158019855618477,0.00645572692155838,0.05927122384309769,0.042749177664518356,-0.04795461893081665,0.01072222925722599,-0.004880600143224001,-0.03833292797207832,0.057075172662734985,-0.047184057533741,0.026170307770371437,0.04587286338210106,-0.023209942504763603,0.032231006771326065,0.051312658935785294,-0.035576313734054565,-0.05750563368201256,0.0001921658986248076,-0.06567971408367157,0.12812164425849915,-0.004854852333664894,-0.005757935345172882,0.018724869936704636,0.08381275832653046,0.048291999846696854,-0.003541822312399745,0.017847873270511627,0.06731460988521576,-0.015516864135861397,-0.034293755888938904,0.071278877556324,0.025218330323696136,0.03200506418943405,-0.012202409096062183,0.0839986801147461,0.12912069261074066,0.013844351284205914,-0.008920281194150448,-0.01950971595942974,0.03995365649461746,0.004887355491518974,0.1051388680934906,0.04716695100069046,-0.08486038446426392,-0.008773403242230415,-0.018781134858727455,-0.00693749263882637,0.09921986609697342,0.012148271314799786,-0.012899860739707947,0.02847449481487274,-0.0044026863761246204,0.05096009373664856,0.024622619152069092,-0.021088499575853348,-0.07745818048715591,-0.0813547819852829,-0.07083725184202194,-0.0023926508147269487,0.052560172975063324,-0.014992457814514637,-0.040548887103796005,0.010566659271717072,0.03508974611759186,-0.1265089511871338,-0.11469929665327072,0.14999845623970032,0.10694747418165207,-0.04075620323419571,-0.04899413883686066,0.09684353321790695,0.016729388386011124,0.016202257946133614,-0.0328640379011631,0.05800645425915718,-0.09609510749578476,0.038298532366752625,-0.017068680375814438,-0.007147610653191805,-0.011256334371864796,-0.007830453105270863,-0.035075221210718155,-0.028721366077661514,-0.08775626122951508,-0.05350543186068535,0.054096199572086334,-0.14106696844100952,0.1403152346611023,0.10882032662630081,0.06443630903959274,-0.01873810775578022,0.09497351199388504,0.015307185240089893,-0.051632609218358994,-0.07490847259759903,-0.062329649925231934,-0.04849076271057129,-0.01082699280232191,-0.16334012150764465,-0.11540376394987106,-0.010229423642158508,-0.025506574660539627,0.0641946941614151,-0.039287567138671875,-0.027432506904006004,-0.011076731607317924,-0.1291433423757553,0.030084706842899323,0.03631572052836418,0.1112319603562355,-0.18834611773490906,-0.009305277839303017,-0.05571619048714638,0.04728439077734947,-0.010738596320152283,0.03125735744833946,0.11917995661497116,0.015814440324902534,-0.08944889158010483,0.1050572618842125,0.06474144756793976,0.04179571196436882,-0.028452904894948006,-0.03009643405675888,0.03839771822094917,-0.015727611258625984,0.004144963342696428,0.005643327254801989,-0.007226908579468727,0.08118393272161484,-0.014410186558961868,-0.04884287342429161,-0.02099684625864029,0.023758938536047935,0.00514650996774435,-0.1135161817073822,0.034034889191389084,0.11193150281906128,0.0668463334441185,-0.10862019658088684,-0.03459785506129265,-0.03983371704816818,-0.03273700177669525,0.04922999441623688,0.009008543565869331,0.0010452141286805272,0.036767520010471344,-0.06071363016963005,-0.018015097826719284,-0.006493533495813608,-0.03377339988946915,-0.047907453030347824,0.008911431767046452,0.011485719121992588,-0.008608388714492321,0.05945008620619774,-0.09944945573806763,0.06928470730781555,0.039631180465221405,0.03246122971177101,0.018618687987327576,0.011464102193713188,0.058649465441703796,-0.01763235777616501,-0.008905306458473206,-0.12350830435752869,-0.06440090388059616,-0.029725002124905586,-0.05238020047545433,0.021698398515582085,0.0052866549231112,-0.04117225483059883,0.08427008241415024,-0.06188125163316727,0.005219083279371262,-0.001633885083720088,0.01777474209666252,0.05984649062156677,0.04281114041805267,0.0895313248038292,0.034648552536964417,0.029076965525746346,-0.07127832621335983,0.001433615805581212,0.013437814079225063,-0.017767099663615227,0.017890721559524536,0.056840527802705765,-0.01091991737484932,-0.004963645711541176,0.09311390668153763,-0.013826591894030571,0.06156677380204201,0.012015903368592262,-0.0324878916144371,-0.07755889743566513,-0.02181916870176792,0.03491491824388504,-0.0820607841014862,-0.015922842547297478,-0.072106271982193,-0.012352721765637398,-0.08060967922210693,0.1052183285355568,-0.038273539394140244,-0.024900950491428375,0.012570170685648918,0.029908370226621628,0.007628794759511948,0.016211677342653275,-0.08899558335542679,0.00010475154704181477,0.037326373159885406,0.026952270418405533,0.00992170162498951,0.035006433725357056,0.06654903292655945,0.0646110400557518,0.043716106563806534,-0.035386163741350174,-0.02785574644804001,-0.003946299664676189,0.04981517046689987,0.00650806026533246,0.03462477773427963,0.014836740680038929,0.003394682426005602,-0.015503832139074802,-0.025788268074393272,0.1294572949409485,0.040798068046569824,0.046640247106552124,-0.0827021449804306,0.11864600330591202,-0.031047657132148743,0.019476331770420074,-0.002915934193879366,-0.024299897253513336,0.07529408484697342,-0.014663356356322765,-0.0369211807847023,-0.02086629532277584,0.08132755756378174,0.06908251345157623,0.019238105043768883,0.04649857431650162,-0.04705124348402023,-0.0075474572367966175,0.08297451585531235,-0.011677565984427929,0.08388341963291168,-0.017851928249001503,-0.006908264942467213,-0.04032944142818451,0.00898699089884758,-0.03733332082629204,-0.07108379900455475,0.04368593543767929,-0.04570186883211136,0.11640992015600204,-0.041811712086200714,-0.08656899631023407,-0.00822308100759983,-0.0899425819516182,-0.0684484988451004,-0.06311014294624329,-0.05258563160896301,0.05862807109951973,0.043300166726112366,0.048258841037750244,-0.02001371420919895,-0.08336909115314484,-0.00842595100402832,-0.0411713607609272,-0.034807417541742325,0.042121756821870804,0.028178827837109566,0.0780271664261818,-0.00585007993504405,-0.051185499876737595,0.04261094331741333,-0.030453426763415337,0.0318121500313282,-0.04480910301208496,0.055751606822013855,0.0590306892991066,-0.08087673783302307,0.0547199547290802,0.03858760744333267,-0.09723163396120071,0.015230556018650532,-0.03572652116417885,-0.008696398697793484,-0.02582208253443241,0.041331786662340164,-0.02577766217291355,0.0192306786775589,0.06192323565483093,0.018295884132385254,0.0003933252301067114,0.0029615045059472322,-0.05369850620627403,-0.03962111845612526,-0.02244906686246395,0.008422194048762321,0.0194845013320446,0.09945045411586761,-0.0483880490064621,-0.04959768429398537,0.0021779926028102636,0.0012619158951565623,0.021136440336704254,-0.06537842005491257,-0.021382823586463928,-0.048722993582487106,0.029465239495038986,-0.06916962563991547,0.03169669583439827,0.021949296817183495,-0.04332398250699043,0.0034942282363772392,0.026700027287006378,0.010475141927599907,0.008418496698141098,0.017163550481200218,0.039638932794332504,-0.05103267729282379,-0.02272726595401764,0.0003008440544363111,-0.029169097542762756,-0.024675587192177773,-0.0013913027942180634,-0.01712595857679844,0.004731651861220598,-0.009837262332439423,-0.011143926531076431,0.050602156668901443,-0.028801770880818367,-0.0005586641491390765,-0.01384107954800129,-0.032892365008592606,-0.003829421941190958,-0.024499334394931793,0.04847341775894165,-0.013591159135103226,0.03484218940138817,-0.04376198723912239,-0.031879741698503494,-0.02814219892024994,-0.031665679067373276,0.01674950122833252,-0.028688043355941772,0.01760040409862995,0.01660805568099022,0.08825180679559708,0.03093036822974682,0.041585471481084824,-0.04200826957821846,0.0190165713429451,0.05155634135007858,-0.02863777056336403,-0.047887321561574936,0.04145599529147148,-0.012385008856654167,0.042777128517627716,0.016783136874437332,0.06714929640293121,0.006283781491219997,-0.0036462259013205767,0.04287806153297424,-0.04016583412885666,0.03363658860325813,-0.03596131131052971,0.03883285075426102,0.08215656876564026,-0.05244516581296921,-0.018310649320483208,0.026018427684903145,0.03636469691991806,-0.04076865315437317,0.04102593660354614,0.06199337914586067,-0.008604428730905056,-0.040071193128824234,-0.10536866635084152,-0.005169203504920006,-0.05131605640053749,0.019361121580004692,-0.02289557084441185,-0.04620750993490219,-0.03648243099451065,0.003449505427852273,-0.01136783603578806,-0.052920643240213394,0.07899811863899231,0.03366388380527496,0.03958577290177345,-0.038549259305000305,0.021353118121623993,0.014560945332050323,0.03839772567152977,-0.0006864735041745007,-0.10643186420202255,-0.08647213131189346,0.021445106714963913,-0.00900717917829752,-0.013133760541677475,0.04587257280945778,-0.06350593268871307,0.02963821031153202,0.015194443054497242,0.029866155236959457,-0.04749046638607979,-0.016480062156915665,-0.04577159881591797,0.05526447296142578,-0.04130260646343231,-0.09941435605287552,-0.047147590667009354,-0.027023715898394585,-0.010615694336593151,0.04159615933895111,0.0807381421327591,0.09675279259681702,-0.0420597605407238,-0.017105860635638237,-0.05995110049843788,0.0008935346268117428,-0.01869632676243782,-0.04034319892525673,-0.08575445413589478,-0.04520624503493309,-0.005098165012896061,-0.09533941000699997,-0.02589358016848564,0.038843609392642975,-0.015013317577540874,0.07654496282339096,0.019229605793952942,-0.09151895344257355,0.026683086529374123,-0.07074591517448425,-0.13511361181735992,0.04539697989821434,0.021305540576577187,0.09447147697210312,-0.07202077656984329,-0.033921681344509125,0.027435868978500366,0.14157627522945404,-0.17571094632148743,-0.02446168102324009,-0.18535712361335754,0.02672177366912365,0.10180112719535828,0.14766690135002136,0.03410879522562027,-0.0028533018194139004,0.11513610929250717,0.2363012284040451,-0.033739421516656876,0.010764074511826038,0.1295383721590042,0.02709989808499813,-0.09200727194547653,-0.018377255648374557,-0.010406452231109142,-0.018666237592697144,0.10563743114471436,-0.011758373118937016,-0.00412563793361187,-0.0970984622836113,-0.0777115672826767,0.07910334318876266,0.21817588806152344,0.03268205374479294,-0.0964021235704422,-0.03232479840517044,0.10748574882745743,-0.114003486931324,0.0503203384578228,-0.01942342333495617,-0.10813431441783905,0.10632860660552979,-0.008030957542359829,0.1337285190820694,0.01804431900382042,-0.04247874766588211,-0.06742444634437561,0.04041939973831177,-0.015303242020308971,0.10786271095275879,0.11041729152202606,-0.08876155316829681,0.05908391624689102,0.1313006430864334,-0.08192956447601318,0.08806999027729034,-0.12327708303928375,-0.09892378747463226,-0.08283398300409317,0.0426313616335392,-0.10104778409004211,0.07559414207935333,-0.05124519020318985,0.14214351773262024,0.06765352934598923,0.02326180599629879,-0.021453702822327614,0.1208157017827034,-0.15987594425678253,-0.04304008558392525,-0.05541498586535454,0.027382448315620422,-0.01656601019203663,-0.012752987444400787,-0.19090791046619415,0.056681077927351,0.03095267526805401,0.03567986562848091,-0.010337685234844685,0.0322297029197216,-0.2051226943731308,-0.033503457903862,-0.13051094114780426,0.07600249350070953,0.013733981177210808,-0.16280370950698853,0.15456821024417877,-0.13659343123435974,-0.03308814764022827,-0.025262141600251198,0.14506341516971588,-0.12103383243083954,0.04289983585476875,-0.034624285995960236,-0.12637683749198914,0.020708581432700157,-0.04407335817813873,-0.015741730108857155,-0.03609151765704155,-0.1114363968372345,-0.15603119134902954,0.12860515713691711,0.020190410315990448,-0.17982210218906403,0.03972499817609787,-0.033940281718969345,-0.16387802362442017,0.03214239329099655,0.0843820571899414,-0.05361393466591835,0.04631653055548668,0.06910544633865356,-0.04847007244825363,-0.024861473590135574,0.003908176906406879,-0.05515790730714798,0.0019335424294695258,0.0095057412981987,0.03458574041724205,-0.060146182775497437,0.1466287225484848,0.11573026329278946,0.03143782541155815,0.02125542424619198,0.04521971568465233,-0.22877806425094604,0.1024932712316513,-0.030060263350605965,-0.045132651925086975,-0.12466040998697281,-0.006578451953828335,-0.043348491191864014,-0.012878017500042915,0.1095622107386589,-0.08544407784938812,0.06400851160287857,0.1778811514377594,-0.204193577170372,-0.010288335382938385,-0.08879854530096054,0.05808604136109352,0.07985152304172516,-0.15841969847679138,0.08753456920385361,-0.026958061382174492,-0.18261940777301788,0.028574300929903984,-0.08430895954370499,0.2673483192920685,0.007180746644735336,-0.02902584709227085,-0.024396633729338646,0.023324351757764816,-0.15011785924434662,-0.09419222921133041,0.0021987922955304384,-0.11065346747636795,-0.1464916467666626,0.03153224289417267,-0.1508125513792038,0.028143368661403656,-0.056287042796611786,-0.05157243087887764,-0.06426624208688736,0.009055614471435547,0.014242133125662804,-0.07562433928251266,-0.07229708135128021,0.08789124339818954,0.13463720679283142,0.002587467897683382,0.030179094523191452,-0.07467211782932281,-0.1647690236568451,-0.057187557220458984,0.3276766836643219,-0.06073431670665741,0.13812269270420074,0.06233994662761688,0.006637414917349815,-0.013270669616758823,-0.04528380557894707,-0.015442326664924622,-0.03868044912815094,0.14618061482906342,0.06926122307777405,-0.04748889431357384,0.15482643246650696,0.06555192172527313,0.07953805476427078,0.04810509458184242,0.08866555988788605,0.061554890125989914,-0.059762369841337204,0.04388471692800522,0.0037399111315608025,0.04614560306072235,0.06784668564796448,0.0378289632499218,0.023328742012381554,-0.10711363703012466,-0.008779733441770077,0.006789366714656353,0.1338668316602707,0.2557980418205261,-0.06470153480768204,-0.05868092551827431,0.004145235288888216,0.027969444170594215,0.0535360723733902,0.02859477885067463,0.11177509278059006,-0.1085943877696991,0.02771676518023014,0.08491642028093338,0.23506700992584229,-0.009147708304226398,0.009491203352808952,-0.02977573126554489,0.011810410767793655,0.0772470012307167,0.049483995884656906,-0.0006958902813494205,-0.05421872064471245,-0.008646693080663681,-0.036936789751052856,0.07172707468271255,0.018630683422088623,0.11193129420280457,0.028463168069720268,-0.055737417191267014,-0.03771645948290825,0.04276697337627411,0.034418947994709015,0.018454357981681824,0.09498284757137299,0.0026203070301562548,0.040180567651987076,0.09701892733573914,-0.17100010812282562,-0.03561842814087868,0.00047082966193556786,-0.03146651014685631,0.012911065481603146,0.046280499547719955,-0.016056008636951447,0.038222864270210266,0.021628504619002342,-0.015527918934822083,-0.0180205050855875,0.06460839509963989,0.1210426390171051,0.06812750548124313,-0.007311660330742598,0.08983205258846283,-0.11071502417325974,0.002774665132164955,-0.19683919847011566,-0.1512642353773117,0.09432917833328247,-0.08011423051357269,0.027318542823195457,0.0001766137283993885,-0.04079039394855499,0.0837172120809555,-0.01831553503870964,0.04540112987160683,-0.044713858515024185,0.05189274251461029,0.1617392748594284,0.04090892896056175,-0.043652068823575974,0.2330673635005951,-0.049973323941230774,0.037118759006261826,-0.014325455762445927,-0.0030039064586162567,0.05991368368268013,-0.010853772982954979,-0.09678603708744049,0.02724382095038891,-0.1644681990146637,-0.008968695998191833,-0.048995111137628555,-0.07328082621097565,-0.12244591116905212,0.0006033498211763799,0.004935299977660179,0.0489339753985405,-0.06518504023551941,-0.07197721302509308,0.02464544028043747,-0.10501659661531448,-0.030865944921970367,0.08225732296705246,-0.14913839101791382,0.03467689827084541,-0.03727692365646362,-0.08349214494228363,0.053214266896247864,0.11378906667232513,0.0031646036077290773,-0.18308515846729279,-0.01904505304992199,-0.04771146923303604,-0.15131273865699768,0.031077131628990173,0.05336933955550194,-0.014216986484825611,-0.12721019983291626,0.09103894978761673,-0.04568694159388542,0.028585705906152725,-0.03108467534184456,