-0.009288301691412926,-0.029822945594787598,-0.014996420592069626,-0.022527918219566345,0.012585761025547981,-0.020347725600004196,0.0010363991605117917,-0.02534257434308529,0.0009020348079502583,0.02970646694302559,-0.021770872175693512,-0.0254916213452816,0.010863376781344414,0.02393445186316967,-0.02742924913764,0.002945033134892583,-0.0025426438078284264,-0.014174006879329681,0.020756796002388,-0.028709230944514275,0.014480049721896648,-0.008653859607875347,-0.012272929772734642,-0.0025704416912049055,-0.0013597359647974372,-0.030507637187838554,-0.02384984865784645,-0.019077230244874954,-0.026043379679322243,0.00015081850870046765,0.012543389573693275,0.027997812256217003,-0.033231135457754135,0.017385320737957954,-0.0015562326880171895,-0.01604500040411949,0.031565554440021515,-0.021562237292528152,0.03345535323023796,0.0323365218937397,0.010959025472402573,-0.008194763213396072,-0.020874852314591408,-0.004828832112252712,-0.004965068306773901,0.007641663774847984,0.01662077009677887,-0.024889931082725525,0.016332706436514854,-0.0005573809030465782,-0.022636137902736664,-0.004492220003157854,0.016791556030511856,0.01752278581261635,-0.0095828203484416,0.006277528125792742,0.017315872013568878,-0.01101581659168005,0.014273429289460182,0.019212571904063225,0.021276311948895454,0.011347044259309769,-0.005308506079018116,-0.0225493423640728,0.016673540696501732,0.03224341198801994,0.02286061830818653,-0.015491609461605549,-0.006067916285246611,-0.025867203250527382,-0.023894930258393288,-0.007996896281838417,-0.017730731517076492,-0.028114063665270805,0.020728494971990585,0.0028206156566739082,0.03315877541899681,-0.01480590458959341,-0.006508150603622198,0.010512428358197212,-0.031171618029475212,0.029558559879660606,0.0021567295771092176,-0.02736360765993595,-0.015524826943874359,-0.02971414476633072,0.024886300787329674,-0.031701330095529556,-0.021123593673110008,-0.012634780257940292,-0.023160893470048904,0.02157421223819256,0.0034482376649975777,0.01515183411538601,-0.013078156858682632,-0.0038859338965266943,0.011158933863043785,0.023854797706007957,0.0038966143038123846,0.01746971718966961,0.010743197053670883,-0.01239713467657566,0.020544180646538734,0.006033996120095253,-0.02660798840224743,0.01764923706650734,-0.006376958452165127,0.031732525676488876,-0.018061473965644836,0.005561338737607002,0.021898329257965088,0.015257410705089569,-0.0333288237452507,0.017883384600281715,0.016158565878868103,0.009617001749575138,0.0005060213734395802,3.9937105611898005e-05,0.018598034977912903,-0.019523335620760918,0.022389182820916176,0.00954404752701521,-0.031875815242528915,-0.022169610485434532,0.033975858241319656,0.03311319276690483,0.023259541019797325,0.01321472693234682,-0.025266604498028755,0.004254069644957781,-0.009108718484640121,-0.03012937307357788,0.004843361210078001,0.01268609706312418,-0.014150203205645084,-0.03079015202820301,0.021831339225172997,-0.02984379604458809,-0.0022231615148484707,0.020550498738884926,-0.01257878728210926,0.023754196241497993,-0.00671525439247489,0.006397474557161331,0.02035994455218315,-0.011924583464860916,0.031128818169236183,0.006202192511409521,0.011304446496069431,-0.023923560976982117,0.022998936474323273,0.016941731795668602,0.02330978773534298,-0.030979664996266365,-0.01615997403860092,-0.020406574010849,-0.0009446080657653511,0.0021061182487756014,0.01826363056898117,-0.02909957431256771,0.028055567294359207,0.012985246255993843,0.0211962778121233,-0.014341783709824085,0.027508269995450974,-0.02662537433207035,0.003994780592620373,0.013913885690271854,-0.009805365465581417,-0.033065423369407654,0.0024675431195646524,0.018032070249319077,-0.0017454213229939342,-0.030163459479808807,-0.030310124158859253,-0.0011270312825217843,-0.02652079239487648,0.026392316445708275,-0.023568369448184967,0.025263184681534767,-0.013404317200183868,0.006504442542791367,0.02671877108514309,0.03365494683384895,0.002391743939369917,-0.012205783277750015,-0.0020879514049738646,-0.0002701868652366102,-0.01375625655055046,0.0020564356818795204,-0.013624964281916618,0.026550253853201866,0.030409250408411026,0.012804179452359676,0.024009523913264275,-0.008695367723703384,-0.01641254499554634,0.01650845631957054,0.009144138544797897,0.030247202143073082,0.026631873100996017,-0.019923483952879906,0.02711242064833641,0.025604169815778732,-0.022124743089079857,0.018927423283457756,0.027435438707470894,-0.006960220634937286,-0.01929170824587345,0.022051390260457993,-0.016631582751870155,-0.01759028062224388,0.033199962228536606,-0.02476019412279129,-0.005787322763353586,-0.014903837814927101,0.004634739365428686,0.025148814544081688,0.023916257545351982,0.02788878045976162,-0.019346604123711586,0.00618488946929574,0.027321750298142433,-0.01091786753386259,0.028112007305026054,-0.03175470605492592,0.028170544654130936,-0.02109304815530777,0.019902434200048447,0.02895846962928772,-0.004020058549940586,-0.026585837826132774,-0.03214571252465248,0.01096949353814125,-0.003881078213453293,0.011034773662686348,-0.014266781508922577,-0.009351199492812157,0.019630474969744682,-0.010379129089415073,0.020140647888183594,-0.017212746664881706,0.03040635772049427,-0.015374851413071156,-0.02640586532652378,0.014078824780881405,0.010479660704731941,-0.031675878912210464,-0.004986410494893789,0.0007819723687134683,0.005882683210074902,0.001186057343147695,0.027496783062815666,0.01741735450923443,0.02426016889512539,0.015090081840753555,-0.026474811136722565,0.02703230455517769,0.020996933802962303,0.03302547335624695,-0.017688438296318054,-0.026881949976086617,0.032999832183122635,-0.0038338201120495796,0.025281501933932304,0.015571814961731434,0.005176348611712456,0.01589670032262802,0.0020081244874745607,-0.002086629392579198,0.01537261437624693,-0.01668165810406208,0.009562231600284576,0.029563922435045242,-0.023856177926063538,0.007232108619064093,-0.013250558637082577,0.026844847947359085,-0.01719324104487896,-0.02687539905309677,0.004624476656317711,0.005741758272051811,-0.016619054600596428,0.029641419649124146,-0.03125879913568497,0.012573396787047386,0.012944321148097515,0.007528434973210096,0.03298959881067276,0.017729448154568672,0.020396754145622253,-0.013540783897042274,0.004200260154902935,0.026045741513371468,0.010524287819862366,-0.01771368272602558,0.0031288161408156157,-0.004911881871521473,0.031186362728476524,0.008483776822686195,0.030823254957795143,0.0025291170459240675,-0.01649709977209568,-0.017327098175883293,-0.008100735023617744,0.013883959501981735,0.005011707078665495,-0.010474675334990025,-0.0151603939011693,-0.03388230502605438,-0.0071562910452485085,0.011482857167720795,-0.0032410856802016497,-0.017239846289157867,-0.027530435472726822,-0.0022997711785137653,0.026858197525143623,0.0214934553951025,0.013750526122748852,0.018617965281009674,-0.013225254602730274,0.026022735983133316,-0.03190632537007332,-0.018362004309892654,0.03273352235555649,0.02890067733824253,-0.03104223869740963,-0.033967193216085434,0.022805536165833473,0.015007282607257366,-0.014797461219131947,-0.015095211565494537,-0.02530079521238804,-0.015826689079403877,0.00712251104414463,-0.0010555409826338291,-0.004394434858113527,-0.021895479410886765,-0.0023621944710612297,-0.020419040694832802,0.012517579831182957,0.022948529571294785,-0.01258908025920391,0.031223652884364128,0.012789788655936718,-0.013159014284610748,0.023156706243753433,0.03017394430935383,0.004018966108560562,0.0032138817477971315,0.0014420854859054089,0.024227062240242958,-0.000777898880187422,-0.0066634672693908215,0.03190732002258301,-0.01949000544846058,0.03359198197722435,0.005042168311774731,-0.014602329581975937,0.0033363027032464743,-0.018774863332509995,-0.004529046826064587,0.022516731172800064,-0.002295986982062459,-0.029310356825590134,0.03140232339501381,-0.014889639802277088,-0.02970259264111519,0.009590104222297668,0.011573635041713715,-0.0077041154727339745,-0.02627856843173504,-0.028952479362487793,0.02917572297155857,0.012583382427692413,0.0304124616086483,-0.003886881750077009,0.010290046222507954,0.03145582228899002,-0.004989268258213997,-0.009976704604923725,-0.013643058016896248,-0.011925920844078064,-0.016969621181488037