0.0035110015887767076,-0.02432476170361042,-0.008594440296292305,-0.004105960950255394,0.02319372072815895,0.018402284011244774,-0.008795601315796375,-0.019420871511101723,0.0068164998665452,0.021402508020401,-0.008165411651134491,0.028756268322467804,-0.00594312883913517,-0.005125800613313913,-0.021644851192831993,-0.022577932104468346,0.02742842026054859,-0.031101640313863754,-0.002748883329331875,0.008006477728486061,0.014516571536660194,0.0035575530491769314,0.02301199734210968,-0.009890473447740078,0.03375401720404625,0.01084547396749258,-0.0009068609215319157,-0.007606689352542162,0.011317210271954536,-0.025782782584428787,-0.022381501272320747,-0.012716993689537048,-0.011313986964523792,-0.004951861687004566,-0.006832199636846781,0.03232290595769882,-0.019252439960837364,0.01548015233129263,-0.013110381551086903,-0.03256247937679291,0.028850773349404335,0.015156394802033901,-0.00890590250492096,-0.023442255333065987,-0.020571768283843994,0.010044854134321213,0.020761998370289803,0.001346149598248303,0.017745226621627808,-0.013504025526344776,0.0036160515155643225,0.005587161052972078,0.013022548519074917,0.018323590978980064,-0.013145558536052704,0.004049178212881088,0.028813812881708145,0.011402815580368042,-0.02696022391319275,0.01590345986187458,0.027540503069758415,-0.026008129119873047,-0.034015558660030365,-0.00028261684929020703,0.029827412217855453,-0.009810509160161018,0.013859442435204983,-0.00518014095723629,0.002652612281963229,0.030937789008021355,0.008599648252129555,-0.003141378052532673,-0.026970084756612778,-0.022199315950274467,0.000941651698667556,-0.011661692522466183,-0.033456407487392426,-0.023477628827095032,-0.01219016034156084,0.018640434369444847,0.023731369525194168,0.0045818155631423,-0.024968311190605164,0.0251737292855978,-0.03128647804260254,0.00511673791334033,0.028852615505456924,0.0019368970533832908,0.003162882523611188,0.023255737498402596,-0.017984477803111076,0.0023427128326147795,0.009944950230419636,0.007127732038497925,0.026309899985790253,0.026203228160738945,-0.01969934068620205,0.01407494954764843,-0.023707887157797813,0.023081742227077484,0.015928979963064194,0.029366599395871162,-0.007826229557394981,-0.028564834967255592,-0.02865341119468212,-0.019133618101477623,0.0077571505680680275,0.0044168937020003796,0.029627418145537376,-0.031362492591142654,0.0012909231008961797,0.021527260541915894,0.033292148262262344,-0.024029986932873726,0.020820342004299164,0.0016898838803172112,0.02519097924232483,-0.02767251245677471,0.002239731838926673,-0.024103621020913124,-0.02102615125477314,0.01926460675895214,-0.006996547803282738,-0.020226458087563515,0.024967359378933907,-0.006653831340372562,-0.009982672519981861,-0.01187034510076046,-0.03010106086730957,0.019023800268769264,-0.028905391693115234,-0.009912323206663132,-0.028191151097416878,-0.025033215060830116,-0.03303022310137749,0.027948182076215744,-0.005907345097512007,-0.03235098719596863,0.028845755383372307,0.005198607221245766,0.000606029643677175,0.005780096631497145,-0.02022738941013813,-0.016801152378320694,0.014932439662516117,0.0022848329972475767,0.011556320823729038,0.02654198929667473,0.028588231652975082,0.03340708464384079,-0.03070303611457348,0.02268550917506218,0.028752336278557777,0.016972608864307404,0.010059783235192299,-0.028275679796934128,0.03330381587147713,-0.019082816317677498,0.031810443848371506,0.015396114438772202,0.021811841055750847,-0.017013590782880783,0.01451372541487217,0.007588788401335478,-0.019202694296836853,-0.02830938622355461,0.03397422283887863,-0.009861312806606293,0.015859302133321762,-0.022268889471888542,0.014259690418839455,-0.002334919758141041,-0.011735101230442524,-0.011217348277568817,-0.03397781401872635,0.016392841935157776,0.024384306743741035,0.022627266123890877,0.009031493216753006,-0.009195629507303238,-0.028430141508579254,-0.011291537433862686,-0.0004253656370565295,-0.028388142585754395,0.008674496784806252,0.006166055798530579,-0.01186408381909132,0.005111373960971832,0.017343958839774132,0.008624766021966934,0.002377946861088276,0.03216175734996796