-0.0007422930211760104,-0.030596358701586723,-0.008385180495679379,0.02477879822254181,0.002240641973912716,0.018082207068800926,-0.0015219766646623611,0.031304605305194855,-0.02435859851539135,-0.031381651759147644,0.0036455292720347643,-0.018493130803108215,-0.016658883541822433,-0.015157371759414673,0.00793091207742691,-0.026228968054056168,-0.03507286682724953,-0.002193101914599538,-0.014178784564137459,0.024418389424681664,-0.002647648798301816,0.015516174957156181,-0.016240261495113373,6.298701919149607e-05,0.0039566620253026485,0.013108460232615471,0.002103108214214444,0.03091043420135975,-0.027140220627188683,0.006969415117055178,-0.020518425852060318,0.025263844057917595,-0.008085210807621479,0.031980760395526886,0.003258356126025319,-0.008366117253899574,-0.018355833366513252,-0.004348171874880791,0.032676853239536285,-0.0042427596636116505,-0.030850015580654144,-0.021303649991750717,0.019266989082098007,-0.004288254771381617,-0.023640325292944908,0.03598904609680176,0.029907958582043648,0.018064651638269424,-0.03519662097096443,0.02995768003165722,-0.015033312141895294,0.01651845872402191,-0.03481431305408478,0.016304010525345802,-8.399811486015096e-05,0.005945056676864624,-0.0011726543307304382,0.01595802791416645,0.023407993838191032,-0.02139967307448387,0.01686839945614338,-0.0004778615548275411,0.007530728355050087,-0.031026791781187057,0.03355379402637482,-0.03457011282444,0.0073351385071873665,0.02056538499891758,0.03508608415722847,-0.0025351925287395716,-0.020147161558270454,-0.030482834205031395,-0.024943875148892403,0.03585846722126007,0.026509543880820274,0.004931950476020575,0.018875787034630775,-0.014550709165632725,-0.00765904551371932,0.026065992191433907,0.036612506955862045,-0.01356275100260973,-0.023825516924262047,-0.02069222554564476,0.009751624427735806,0.022700706496834755,-0.03679699823260307,-0.0008367649861611426,0.00038916320772841573,0.0069889710284769535,-0.005898325704038143,-0.03626447543501854,0.006583110429346561,-0.022803211584687233,-0.028958456590771675,0.03067740984261036,0.03599607199430466,0.01510984729975462,0.031303521245718,-0.004891089629381895,0.009252124466001987,0.01012685801833868,-0.008309423923492432,0.029498565942049026,0.013744067400693893,-0.026529179885983467,0.012471568770706654,0.03520688787102699,0.019978201016783714,0.004744735546410084,0.022329796105623245,-0.00685366103425622,0.006884444039314985,-0.006500388029962778,0.01404871791601181,-0.036637887358665466,-0.021061820909380913,-0.00495868269354105,0.019947823137044907,-0.006664576008915901,-0.011281466111540794,-0.0010594605701044202,-0.008588539436459541,0.016853123903274536,-0.024617351591587067,-0.002353522228077054,-0.002036787336692214,0.006517185363918543,0.03416861966252327,0.017481466755270958,-0.03268570080399513,-0.005398462060838938,0.025716181844472885,0.028085334226489067,0.03037712350487709,-0.02884776145219803,0.01596779190003872,-0.005699890200048685,0.021727265790104866,0.0026472751051187515,0.0010104315588250756,-0.019060024991631508,-0.034581661224365234,-0.030960969626903534,-0.03552957624197006,0.0033633855637162924,-0.03333255276083946,-0.025375939905643463,-0.006703365594148636,-0.02229424938559532,0.01986934058368206,0.0053311665542423725,0.028151510283350945,-0.007146598771214485,-0.027731439098715782,0.0039667049422860146,0.002435321221128106,-0.008859498426318169,-0.019635986536741257,0.020403709262609482,0.022882675752043724,-0.005204498767852783,0.014739909209311008,0.005257133860141039,-0.006091201212257147,0.0029274725820869207,0.00901755876839161,0.031995560973882675,-0.01658426783978939,-0.022673295810818672,0.028056062757968903,-0.010827838443219662,-0.008008557371795177,-0.02897019125521183,0.012192809954285622,0.031957659870386124,-0.008892555721104145,-0.025599149987101555,-0.022761469706892967,-0.018675217404961586,-0.0031369663774967194,0.033218350261449814,0.024011539295315742,0.035022977739572525,0.01854380965232849,-0.010937342420220375,0.01171227265149355,0.016443835571408272,-0.025131620466709137,-0.02895357646048069,-0.008399373851716518,0.021163539960980415,0.029092924669384956,0.01464879885315895,-0.010505648329854012,-0.02213107980787754,0.005512075964361429,0.005763110239058733,0.015901360660791397,0.027978219091892242,0.02532459981739521,0.022989468649029732,-0.02066439390182495,0.004433528054505587,0.014732898212969303,0.014580849558115005,0.009869994595646858,0.02652258425951004,-0.021107032895088196,0.024682171642780304,0.01674376241862774,0.0024670404382050037,-0.030487986281514168,-0.03608403354883194,0.028483938425779343,0.023388706147670746,0.02255319245159626,0.019804716110229492,-0.013323823921382427,-0.00282528274692595,-0.02971186488866806,0.008707189001142979,0.005660674534738064,0.025301925837993622,-0.009796597994863987,0.0017201679293066263,0.03330598771572113,-0.03661224991083145,-0.03408939763903618,0.015043170191347599,-0.01958010531961918,-0.024372482672333717,-0.02915763668715954,-0.022067030891776085,0.0237813051789999,-0.03437936678528786,-0.009914405643939972,0.03372851014137268,0.010188287124037743,-0.02454342134296894,0.020097490400075912,0.0251083355396986,0.03670915961265564,0.02738892287015915,-0.02452017553150654,-0.00779337203130126,-0.0027970538940280676,0.010033838450908661,-0.030145088210701942,0.015978217124938965,0.02833445742726326,0.0209052674472332,-0.015711547806859016,0.012559953145682812,-0.0028727632015943527,-0.029718928039073944