0.07849086076021194,0.042521361261606216,0.14241936802864075,0.05996532738208771,-0.04419824108481407,0.10672307759523392,-0.07425360381603241,-0.02894059382379055,-0.09815118461847305,0.06382463127374649,-0.0806228518486023,-0.08903226256370544,0.0269041508436203,0.05598478019237518,0.056962158530950546,0.14093279838562012,-0.018115296959877014,0.17831143736839294,-0.01772645115852356,-0.020815718919038773,0.09529177099466324,0.05295258015394211,-0.047329213470220566,-0.05507466569542885,0.01177264004945755,0.11229521781206131,0.12934567034244537,0.02113807015120983,0.043587762862443924,0.01458656508475542,-0.030263157561421394,0.05250196531414986,-0.04256707429885864,0.06428039073944092,0.05522441491484642,-0.05922600254416466,0.0848013386130333,0.04373491555452347,0.19275297224521637,0.17503872513771057,0.05426642298698425,-0.21849098801612854,0.2017165869474411,-0.018284989520907402,0.020751601085066795,0.0547809898853302,-0.024694014340639114,-0.03114781156182289,0.007949015125632286,0.014042714610695839,-0.013256573118269444,-0.000822606380097568,-0.12664347887039185,-0.11126675456762314,-0.024119673296809196,0.01964573562145233,-0.09396430850028992,0.11838378012180328,-0.08897669613361359,0.027037162333726883,0.09123855084180832,-0.027157850563526154,0.11174475401639938,-0.049692314118146896,0.02933276630938053,0.04828304424881935,-0.030967867001891136,0.047894880175590515,0.023792805150151253,0.016121789813041687,-0.019380882382392883,-0.05456097051501274,-0.013778451830148697,0.06541243940591812,-0.019704511389136314,-0.012972494587302208,0.07404261082410812,-0.1512480527162552,-0.09493938088417053,-0.06425989419221878,0.15621024370193481,-0.0313306599855423,-0.03292990103363991,0.10493330657482147,0.031252022832632065,-0.08151207864284515,-0.027311250567436218,0.08648383617401123,0.05147527530789375,0.09012230485677719,-0.15032480657100677,0.014086250215768814,-0.03437765687704086,0.05916675552725792,-0.027370326220989227,0.07987450063228607,-0.10820562392473221,-0.10034549981355667,-0.0011975941015407443,0.05176330357789993,0.03636087849736214,0.038888175040483475,-0.061636120080947876,0.2266031801700592,-0.050485558807849884,0.04049229249358177,0.11044041812419891,0.11414618045091629,0.02153162471950054,-0.06553330272436142,0.010310860350728035,-0.0701957419514656,0.04023776203393936,-0.007206741254776716,-0.1463981568813324,-0.034582994878292084,0.07421337813138962,0.11538843810558319,0.04416940361261368,-0.10130739957094193,0.038710832595825195,0.06824466586112976,0.06232312321662903,-0.025118252262473106,0.04711436107754707,-0.018770992755889893,0.005726924631744623,0.016023077070713043,0.08802410960197449,0.09843272715806961,-0.0036190373357385397,-0.10096656531095505,-0.07349849492311478,-0.03288595750927925,0.08748357743024826,-0.027930038049817085,-0.021429160609841347,0.02270628698170185,0.06009620428085327,0.11548785865306854,0.20556211471557617,-0.04904065281152725,0.08151281625032425,0.045813556760549545,-0.19151805341243744,0.23080536723136902,-0.02105705626308918,0.08337917178869247,0.04014098271727562,-0.028896018862724304,-0.07482824474573135,-0.040601033717393875,0.008511689491569996,0.004631027579307556,0.025006460025906563,-0.08510512113571167,-0.009685413911938667,0.012469802983105183,-0.08765783905982971,-0.25841835141181946,0.048162609338760376,-0.1561402529478073,-0.023784944787621498,0.10648265480995178,-0.0509977713227272,0.048278432339429855,0.0018127476796507835,0.0622810497879982,-0.11022762209177017,0.13969340920448303,0.04908996820449829,-0.061433520168066025,-0.055681198835372925,-0.04993654042482376,0.06674942374229431,0.06008666753768921,-0.0482475608587265,0.010125060565769672,-0.09350068867206573,-0.11377734690904617,0.11925874650478363,0.08247841149568558,0.0019196372013539076,-0.04810521751642227,-0.017855839803814888,0.13946960866451263,0.1199553832411766,-0.04570803418755531,-0.013111421838402748,0.07770148664712906,0.05813881754875183,-0.041542407125234604,-0.07079147547483444,-0.08280294388532639,-0.13672572374343872,-0.06452616304159164,0.0016114700119942427,-0.13739511370658875,-0.022054757922887802,-0.11670901626348495,0.05437663942575455,0.06929808855056763,-0.06525234133005142,0.038548555225133896,0.2655662000179291,-0.10027383267879486,-0.16067840158939362,0.03151163086295128,0.006108911707997322,-0.18065139651298523,-0.046623311936855316,-0.03132690116763115,0.019881069660186768,-0.0413707010447979,-0.110702745616436,-0.2785092890262604,-0.059034477919340134,-0.05337067320942879,-0.03485210984945297,0.06773661822080612,0.06745084375143051,-0.3462684452533722,0.03828327730298042,0.11313408613204956,-0.11528680473566055,0.12413465976715088,0.0116912592202425,-0.08850099891424179,0.0317792147397995,-0.15110421180725098,-0.013742836192250252,0.2176356464624405,0.033267177641391754,0.022902296856045723,-0.17499075829982758,-0.04799793288111687,0.02633771114051342,-0.1056298092007637,0.057407546788454056,0.0034378147684037685,-0.12624159455299377,-0.030714161694049835,-0.012624840252101421,0.11811769008636475,-0.1909281462430954,0.08799034357070923,-0.06171383708715439,-0.07853487133979797,-0.18570908904075623,0.16133204102516174,-0.15446589887142181,-0.11370807886123657,-0.13084067404270172,0.04302206262946129,0.00742309307679534,-0.09674931317567825,0.054020293056964874,0.04996794834733009,-0.09456801414489746,-0.05907922983169556,-0.027585137635469437,0.022140592336654663,0.029890302568674088,-0.047589682042598724,0.12376377731561661,-0.1485629826784134,-0.14798834919929504,0.04184429347515106,0.003284980310127139,0.026603972539305687,0.018194355070590973,-0.10053703933954239,-0.09329034388065338,-0.0198367889970541,-0.07895217835903168,-0.03229338675737381,-0.0326983816921711,0.008725415915250778,-0.23723763227462769,-0.024246325716376305,-0.03111744299530983,-0.16952821612358093,-0.07279232889413834,-0.024654991924762726,-0.04735861346125603,-0.23557431995868683,-0.14034608006477356,-0.0720389187335968,0.03939308971166611,0.0610208697617054,0.05168359354138374,0.10066457837820053,0.1420249342918396,-0.17245326936244965,-0.14039407670497894,-0.017613211646676064,0.06580742448568344,-0.009188377298414707,-0.1751752346754074,0.1381724327802658,-0.2408207505941391,-0.0094777075573802,-0.0029253901448100805,-0.05765213072299957,0.040254585444927216,-0.10411697626113892,0.0344279408454895,-0.14807629585266113,-0.2955494523048401,-0.06602619588375092,-0.08889102190732956,0.030289972200989723,-0.043653544038534164,-0.024756597355008125,-0.0025130556896328926,0.02733997441828251,-0.0415700264275074,0.041976843029260635,-0.006283131428062916,0.14280389249324799,-0.03257254511117935,0.007730436976999044,-0.06939341872930527,-0.05350763723254204,0.18538156151771545,-0.12804533541202545,0.20728924870491028,-0.13962601125240326,-0.0023389665875583887,-0.018207289278507233,-0.033169083297252655,-0.06106199696660042,0.013157451525330544,0.2206491231918335,0.0760563313961029,-0.029371220618486404,-0.11830621212720871,-0.12489054352045059,0.0003414334496483207,-0.07331546396017075,0.027840713039040565,-0.015001337043941021,0.020817484706640244,-0.09292508661746979,-0.20371778309345245,0.05436159670352936,-0.19216756522655487,-0.23699961602687836,-0.1027061864733696,-0.01992584392428398,0.0733749121427536,0.01682707667350769,-0.13183850049972534,-0.16386853158473969,-0.17044387757778168,-0.055348850786685944,0.11462220549583435,-0.08534596115350723,0.06603863835334778,-0.19578523933887482,-0.13919080793857574,0.01201608870178461,-0.23214074969291687,0.08139106631278992,-0.05312551185488701,-0.11029430478811264,0.03779975697398186,0.03579651936888695,-0.09781507402658463,0.08579238504171371,-0.22115127742290497,-0.09515336900949478,-0.03586937114596367,0.047587424516677856,-0.0005118062836118042,0.03623085469007492,0.24644486606121063,0.01739121414721012,-0.05823052302002907,0.0024787168949842453,-0.01719784550368786,-0.0034898025915026665,-0.021100925281643867,-0.12745417654514313,0.0009734427439980209,-0.11368212103843689,0.1557168811559677,-0.13909441232681274,0.12832202017307281,0.03363492339849472,-0.03975002467632294,-0.06453477591276169,-0.04367956146597862,-0.06764868646860123,-0.032225366681814194,0.12827152013778687,-0.10517552495002747,-0.0007901043863967061,0.06965793669223785,-0.004752558656036854,-0.1748439371585846,-0.027762005105614662,0.05631120502948761,0.04597325623035431,0.019932154566049576,-0.07776090502738953,0.1987341344356537,-0.024709109216928482,-0.0027464982122182846,0.03229488059878349,0.08681877702474594,-0.12738321721553802,0.0027672271244227886,0.29545629024505615,0.21357791125774384,0.028451373800635338,-0.07129252701997757,0.1567782610654831,-0.010250183753669262,-0.09609638899564743,-0.10842644423246384,0.06967078894376755,-0.07150070369243622,-0.08149366825819016,0.06457982957363129,0.07684382051229477,-0.07978883385658264,-0.032451555132865906,-0.05500246584415436,0.042396195232868195,-0.14222098886966705,-0.0029446901753544807,0.2161046266555786,-0.1501735895872116,0.02106744796037674,0.11370602995157242,0.0778200700879097,0.08470653742551804,-0.0446404293179512,-0.21931420266628265,0.1290033906698227,-0.06842005252838135,-0.00302355969324708,-0.21940815448760986,0.0284244567155838,0.01697821170091629,0.17923662066459656,-0.08760401606559753,-0.017998190596699715,0.04979126155376434,0.02871202863752842,0.05685952305793762,0.14478765428066254,0.16383475065231323,0.05724699795246124,0.02046162076294422,-0.2532009482383728,0.1547202616930008,0.09315312653779984,0.013410728424787521,-0.1884726881980896,0.014521120116114616,0.01646677777171135,0.30254292488098145,-0.001506775850430131,0.21107864379882812,-0.04462140426039696,0.025953765958547592,-0.0012419972335919738,-0.09896653145551682,-0.07391060143709183,-0.1179589182138443,-0.13010849058628082,0.07999441027641296,0.09498941153287888,-0.16199426352977753,0.024983448907732964,-0.00043523963540792465,0.13416844606399536,0.17467084527015686,-0.03589450940489769,0.0634910985827446,-0.09021424502134323,0.030970243737101555,-0.1278308928012848,-0.1281152069568634,0.003914915956556797,-0.19436000287532806,-0.09964612871408463,-0.059572357684373856,-0.14271993935108185,-0.029731987044215202,0.20496878027915955,-0.05681423470377922,-0.01964171603322029,-0.07146093249320984,-0.02044348604977131,0.11960271000862122,-0.017668427899479866,0.011370114982128143,-0.12975381314754486,0.09649232774972916,0.2296055257320404,0.20480391383171082,0.03199603036046028,0.06235058233141899,-0.09302031248807907,0.03176223859190941,-0.1182190328836441,0.016172531992197037,0.10177678614854813,-0.08339539915323257,-0.062257010489702225,0.08321750164031982,-0.058094777166843414,-0.11084751039743423,0.025487344712018967,-0.00427413173019886,-0.07929334044456482,-0.03330756351351738,-0.06736654788255692,0.04374518245458603,-0.38280001282691956,0.11854351311922073,0.0980471819639206,-0.03842464089393616,0.04409993439912796,-0.06837338954210281,-0.10953683406114578,0.30516135692596436,0.0696282908320427,0.1752912402153015,0.07731419056653976,-0.10292217880487442,-0.021548984572291374,0.09361851960420609,-0.12390951067209244,0.09202627837657928,0.01804499328136444,0.04024685174226761,-0.12370706349611282,0.05190311372280121,0.2772935926914215,-0.047887496650218964,-0.09287669509649277,0.07706686109304428,0.23035968840122223,-0.16191954910755157,-0.10660268366336823,0.18397581577301025,-0.004013089928776026,-0.0038410623092204332,-0.027307972311973572,-0.11615531891584396,0.07912694662809372,-0.13743430376052856,0.09687673300504684,0.09516647458076477,-0.018254851922392845,-0.024561110883951187,0.013559116050601006,0.08888985216617584,-0.06919562071561813,-0.05405815690755844,0.035044603049755096,0.06540631502866745,0.12230236828327179,-0.13009367883205414,-0.16733525693416595,0.02726476825773716,0.04200734943151474,-0.03779111057519913,-0.10748986154794693,0.003415280021727085,0.0385776124894619,0.09372632205486298,0.025769226253032684,-0.3359057307243347,0.16284285485744476,-0.051045116037130356,-0.024806030094623566,-0.06417027860879898,0.04198947548866272,0.0681825652718544,-0.16819313168525696,-0.05169111490249634,0.03390565142035484,-0.07308681309223175,0.048364076763391495,0.09959537535905838,0.07424845546483994,-0.05122753605246544,0.09816110879182816,0.18138937652111053,0.12322147935628891,-0.07096008956432343,-0.005901820491999388,-0.030859045684337616,0.02040678635239601,0.13603800535202026,0.08860796689987183,-0.05482567846775055,0.07938709855079651,-0.054071202874183655,0.01486951857805252,0.3915073275566101,-0.003696769941598177,-0.07643524557352066,-0.08364707231521606,-0.029988300055265427,-0.025540374219417572,0.031500138342380524,-0.16793541610240936,-0.10569228231906891,0.06402889639139175,0.030592938885092735,-0.002083846600726247,-0.028027033433318138,0.09613407403230667,0.04405438154935837,0.06376323848962784,-0.142232745885849,-0.10597380995750427,-0.08612110465765,0.05950198695063591,-0.1035606637597084,0.021082105115056038,-0.12530513107776642,0.003907119855284691,-0.017131082713603973,0.09355055540800095,-0.10694960504770279,-0.01509422343224287,0.002315882593393326,0.08113137632608414,0.0947117879986763,0.0413028746843338,0.11712166666984558,-0.13799919188022614,-0.09387195110321045,-0.23202866315841675,-0.04197389632463455,-0.08523809164762497,0.05696207657456398,0.011696911416947842,0.024411799386143684,-0.14887255430221558,-0.07674143463373184,0.08996162563562393,0.10552266240119934,0.16371414065361023,0.03814831003546715,-0.007503627799451351,0.03593308478593826,0.05343424901366234,-0.19162017107009888,0.11846215277910233,-0.2313394546508789,0.0998951867222786,-0.17389021813869476,0.012829435057938099,0.005286199972033501,0.1246022954583168,0.05656801164150238,0.06337184458971024,0.25857219099998474,-0.13008038699626923,-0.17131832242012024,0.19551609456539154,-0.11023776978254318,-0.08336487412452698,0.08445034176111221,0.03331400081515312,0.05117666348814964,-0.0280348788946867,-0.04842222109436989,-0.13545124232769012,-0.023703420534729958,0.050283439457416534,0.09237929433584213,0.008119519799947739,-0.0443442165851593,-0.02926407754421234,0.07422040402889252,0.19994479417800903,-0.012317436747252941,-0.13082030415534973,0.10647597163915634,-0.04222346469759941,-0.05204349383711815,-0.02139335498213768,0.007701182272285223,0.09784789383411407,-0.06471003592014313,-0.2705187499523163,-0.04126746952533722,-0.17785924673080444,0.06742486357688904,0.046034667640924454,0.07271932065486908,0.01302428636699915,-0.03862140700221062,0.20274363458156586,-0.07373165339231491,0.01425322238355875,-0.12322812527418137,0.18454380333423615,0.01969005912542343,-0.2769249379634857,-0.1537749022245407,-0.020713448524475098,0.0383724570274353,0.0184643492102623,-0.010332906618714333,-0.18597720563411713,-0.165147066116333,-0.10277608036994934,-0.08972960710525513,-0.026136236265301704,0.03873368352651596,-0.0738539844751358,0.0961412638425827,-0.08704818040132523,-0.041156426072120667,-0.25216615200042725,0.008079783990979195,-0.059710580855607986,-0.045107144862413406,0.12680959701538086,-0.07587731629610062,-0.11482793092727661,0.08580870926380157,-0.04683874174952507,-0.014767695218324661,0.1387377679347992,0.09511628746986389,-0.06307658553123474,0.04471816122531891,0.09994767606258392,-0.16001620888710022,0.3224756419658661,0.3791332542896271,-0.033355649560689926,0.07447585463523865,0.10402307659387589,-0.09390661120414734,0.054555147886276245,-0.09747371077537537,0.012618682347238064,0.038633521646261215,-0.11301438510417938,-0.05342961475253105,0.10676620900630951,-0.0090287234634161,0.10332123190164566,0.04051203653216362,0.04395969584584236,0.11102309823036194,-0.1686602532863617,-0.08613362908363342,-0.0943136215209961,0.27970054745674133,-0.019154522567987442,-0.0041111246682703495,-0.10762850940227509,-0.046986885368824005,-0.06479669362306595,-0.09543115645647049,-0.034210626035928726,0.08830637484788895,-0.1526029407978058,-0.04597168043255806,-0.10368265211582184,-0.03960033133625984,-0.031185099855065346,0.0634903535246849,-0.036043617874383926,-0.040365442633628845,-0.3257555067539215,-0.06768190860748291,0.11654055863618851,-0.1498318761587143,-0.3308256268501282,-0.1723329722881317,-0.08365913480520248,-0.07973509281873703,-0.2328302264213562,-0.10221082717180252,-0.1368350088596344,-0.05424084514379501,-0.09478621184825897,0.0020585006568580866,0.03949679806828499,0.11915750801563263,-0.1323118954896927,0.04724007844924927,0.006851663812994957,-0.17088501155376434,-0.06564939022064209,-0.0033665760420262814,-0.09282013773918152,-0.10323792695999146,0.013429762795567513,-0.026131831109523773,-0.10267342627048492,0.02403365820646286,0.073626309633255,0.14160442352294922,0.12861113250255585,-0.0159489456564188,-0.0769767090678215,-0.2649795711040497,-0.12313315272331238,-0.08574095368385315,-0.006839826703071594,-0.20168641209602356,-0.08632215857505798,-0.02104824222624302,0.07731026411056519,0.04783119633793831,-0.06399684399366379,-0.25845569372177124,-0.012521852739155293,0.11091047525405884,0.13678660988807678,0.03767163306474686,-0.07820624113082886,-0.22928079962730408,0.03134753182530403,-0.09185417741537094,0.07636763900518417,-0.15084201097488403,0.05117408558726311,0.12774719297885895,-0.08347757160663605,-0.07699129730463028,-0.019122950732707977,0.09867382794618607,-0.05700160562992096,-0.2056826800107956,-0.12912578880786896,0.10242864489555359,-0.22087831795215607,-0.05778942257165909,-0.16687259078025818,-0.013038606382906437,-0.024938568472862244,0.17908307909965515,-0.019382627680897713,0.046023495495319366,0.048011962324380875,-0.04559686407446861,0.04560922458767891,0.1219257339835167,0.09224151819944382,0.02475631795823574,0.0030917106196284294,-0.06285914033651352,0.2880084216594696,0.07036859542131424,0.16284731030464172,0.06515240669250488,0.06800387799739838,-0.11607760936021805,0.017939502373337746,0.07913675159215927,0.1591893881559372,0.035770878195762634,0.16047421097755432,-0.10378963500261307,-0.17999298870563507,0.28044092655181885,0.12809720635414124,-0.04904211312532425,0.2019995003938675,0.09944531321525574,0.1354244202375412,-0.08689219504594803,0.332638680934906,-0.08021511137485504,-0.04917274788022041,0.16006112098693848,0.013160230591893196,-0.0022177817299962044,-0.24649086594581604,-0.0972708985209465,-0.021009409800171852,0.10336662083864212,-0.09729935228824615,-0.004602908156812191,-0.03310849517583847,-0.04998404160141945,0.28200003504753113,0.09178874641656876,-0.19483156502246857,0.15468817949295044,-0.05487257242202759,-0.06006447225809097,-0.021249447017908096,0.21680974960327148,0.08646845817565918,0.2111884355545044,0.017998814582824707,-0.1715870052576065,-0.03065783716738224,0.07558438926935196,-0.13835647702217102,0.08527230471372604,0.06256692111492157,-0.051711246371269226,-0.004151248373091221,-0.10190197080373764,-0.09077292680740356,-0.019616518169641495,-0.03316774219274521,0.1260472685098648,-0.11480455100536346,0.0008692687260918319,-0.21052438020706177,-0.17234963178634644,-0.016572721302509308,0.2411837875843048,-0.2538425326347351,-0.0048660533502697945,-0.09171096980571747,0.031101828441023827,-0.08686753362417221,-0.24927088618278503,-0.16450394690036774,-0.02402854710817337,-0.1992059350013733,0.15074744820594788,0.14379526674747467,-0.26563867926597595,-0.05052800476551056,-0.1257282793521881,-0.0033248101826757193,-0.05689716711640358,-0.027485623955726624,-0.31304723024368286,-0.020614059641957283,-0.02399596944451332,0.06938187777996063,-0.05782211571931839,-0.2746427059173584,0.20738263428211212,-0.08068746328353882,0.14597754180431366,0.18581730127334595,-0.027580324560403824,0.1502230167388916,0.025006700307130814,0.14579921960830688,0.08908350020647049,0.12017520517110825,-0.09537465125322342,0.0398358590900898,-0.0795459970831871,0.07392655313014984,0.104537732899189,-0.02063760906457901,0.06944437325000763,0.027451157569885254,0.0505233034491539,0.01466633751988411,0.06873120367527008,0.03278089314699173,0.014595000073313713,0.048498284071683884,0.06373579800128937,0.00940652471035719,-0.06232141703367233,-0.09350482374429703,-0.08961577713489532,0.03652326017618179,-0.02185148186981678,-0.06476196646690369,0.09240143746137619,0.007161417510360479,-0.014431065879762173,-0.0010505171958357096,-0.006889771204441786,0.09643334150314331,-0.038836125284433365,-0.036950744688510895,0.020893335342407227,0.024770697578787804,-0.03045344352722168,-0.015227586030960083,-0.06694404780864716,0.028253234922885895,0.04929615557193756,-0.04326902702450752,0.038604579865932465,-0.021297268569469452,-0.07678607851266861,-0.022725319489836693,0.05772833153605461,-0.014005686156451702,-0.03438027948141098,0.014185777865350246,-0.009104801341891289,0.1064131110906601,0.11425751447677612,-0.016495222225785255,0.01472796592861414,0.049988698214292526,-0.10029203444719315,-0.017438625916838646,0.009267316199839115,-0.03851927071809769,0.031192705035209656,0.027643602341413498,-0.013194299302995205,0.007196424994617701,-0.01203079428523779,-0.005577536765486002,-0.01696017198264599,-0.002716359216719866,0.03257947787642479,0.02897920086979866,0.08963101357221603,-0.029479511082172394,-0.036228373646736145,-0.04245598986744881,-0.008850501850247383,0.00342927104793489,0.06826525926589966,-0.01576545462012291,-0.014818267896771431,0.060138046741485596,-0.007169205229729414,-0.10444808006286621,-0.07324626296758652,-0.052124880254268646,-0.04808834195137024,-0.032369304448366165,0.08985999971628189,0.07668053358793259,0.06802212446928024,0.07345230132341385,-0.009347764775156975,-0.01132253184914589,-0.03255486488342285,-0.04657410830259323,-0.10252048075199127,-0.01680770330131054,0.08321310579776764,0.004014918114989996,-0.03210163861513138,0.037734534591436386,0.09918241202831268,0.0712374597787857,0.01322384737432003,0.011505933478474617,0.03386217728257179,-0.0597122460603714,-0.006342890672385693,-0.055099572986364365,-0.06426449865102768,0.04087911173701286,0.019641632214188576,-0.08414740860462189,-0.01989804580807686,0.04042313992977142,0.0004039071500301361,0.03908028081059456,0.021730268374085426,0.0010511516593396664,-0.008113809861242771,0.06263966858386993,-0.021968187764286995,0.008123603649437428,-0.05772021785378456,0.029857439920306206,0.017186127603054047,-0.03966255486011505,0.08282947540283203,-0.07324028015136719,0.038802094757556915,-0.005771791096776724,0.014371893368661404,-0.019677123054862022,-0.04904169589281082,-0.04231477156281471,0.008364127017557621,-0.016501422971487045,0.0072395955212414265,-0.07109206914901733,0.025930171832442284,0.0030192804988473654,-0.07397409528493881,0.020194554701447487,0.016540950164198875,0.0006862702430225909,0.040951747447252274,-0.02853498049080372,0.055800750851631165,-0.01838533766567707,-0.07926306873559952,-0.06293606758117676,0.06475162506103516,-0.06257163733243942,0.04531855881214142,0.013516467995941639,0.06468183547258377,0.010802404023706913,-0.03564111515879631,-0.08575888723134995,-0.0368974469602108,-0.06182330101728439,-0.09171147644519806,0.04659819230437279,0.0550462044775486,0.01730317436158657,-0.023723121732473373,-0.029727376997470856,-0.02878228947520256,0.0019897674210369587,-0.0439106747508049,0.037968769669532776,-0.016960954293608665,0.04978625848889351,0.09904559701681137,-0.029414216056466103,-0.08207298815250397,0.05386519804596901,-0.02955738827586174,-0.05155135691165924,-0.06406889855861664,0.07198352366685867,0.02252446860074997,0.0880286768078804,0.04329349100589752,-0.004331727512180805,-0.03992950916290283,0.01398063451051712,-0.03379025310277939,-0.09638255089521408,-0.028362290933728218,0.03686519339680672,-0.03328126668930054,0.08628211915493011,0.04926063492894173,0.05103214085102081,-0.010946768335998058,-0.071562260389328,-0.09565063565969467,-0.005961449351161718,-0.02010045386850834,0.058580316603183746,0.03654460981488228,0.03494446724653244,0.0602782778441906,-0.07257171720266342,0.06813660264015198,-0.023117119446396828,0.05187882483005524,0.022451326251029968,-0.0594019778072834,0.0015965692000463605,-0.029924491420388222,0.045169051736593246,-0.007395807188004255,-0.022546377032995224,-0.014160959050059319,0.06050807982683182,0.058391351252794266,0.041379690170288086,-0.012585216201841831,0.0040249596349895,-0.00878630205988884,0.003321064170449972,0.03815443813800812,0.028619349002838135,0.05470244586467743,-0.008817129768431187,-0.04931336268782616,0.037740349769592285,-0.0060444180853664875,0.05131646990776062,0.023424338549375534,-0.049212731420993805,-0.03565649315714836,-0.06586428731679916,-0.053085703402757645,-0.009427378885447979,0.0011599805438891053,0.03589167818427086,-0.0028793313540518284,0.051362935453653336,0.019510574638843536,-0.0019527716794982553,0.037786245346069336,-0.03685707971453667,-0.03909451141953468,0.05929122492671013,-0.022767527028918266,0.0065497481264173985,0.07016488909721375,-0.033421535044908524,-0.07225333899259567,-0.05015014857053757,-0.028047822415828705,-0.04300375655293465,-0.012449613772332668,0.04313553497195244,-0.013704593293368816,-0.06883843243122101,0.06766755878925323,-0.006179667543619871,-0.0575590543448925,0.04332631826400757,0.04183167591691017,0.07164939492940903,-0.04010821506381035,0.028731806203722954,-0.013306011445820332,0.022185541689395905,-0.06312232464551926,-0.06127604469656944,-0.07084164023399353,0.033674124628305435,0.06171683967113495,0.016665609553456306,0.06542885303497314,0.012180729769170284,-0.016229495406150818,0.013782058842480183,-0.04735275357961655,-0.033216338604688644,0.04723164439201355,-0.028775224462151527,0.008417448960244656,0.015855882316827774,-0.07287417352199554,0.028090817853808403,0.001597842201590538,-0.050382908433675766,0.04405032470822334,0.03865106403827667,-0.04052673652768135,-0.03874034807085991,0.03293110430240631,-0.013820440508425236,-0.023714058101177216,0.059237465262413025,0.02993626706302166,-0.020823495462536812,-0.0036488559562712908,0.043235573917627335,-0.07107700407505035,-0.033670730888843536,0.050352487713098526,-0.03208985924720764,0.04969175532460213,-0.0519067607820034,0.05726444348692894,-0.01786007545888424,-0.03675343096256256,0.06498054414987564,0.04758794978260994,0.020959917455911636,0.06523988395929337,0.06963247805833817,-0.005662233103066683,0.02134404145181179,0.05974632129073143,-0.013398219831287861,0.06805428117513657,-0.05039134994149208,0.023497270420193672,0.01396635826677084,-1.9664739738800563e-05,-0.002741822972893715,0.025559429079294205,-0.044126011431217194,0.03974366933107376,0.06650257110595703,0.04850463569164276,0.04427829757332802,-0.0416262149810791,0.05952410772442818,0.02342519536614418,-0.043952908366918564,0.024488383904099464,-0.04054742306470871,-0.06182939559221268,-0.0665116086602211,-0.06997703015804291,0.056647635996341705,-0.04512510076165199,0.02934831753373146,-0.0058924490585923195,0.015543317422270775,-0.04953915625810623,-0.06098593771457672,0.006701881531625986,0.06177064776420593,0.023806028068065643,0.018513187766075134,0.031806930899620056,0.03712965175509453,-0.07243616878986359,-0.06693414598703384,-0.01604035124182701,-0.056874699890613556,0.018125003203749657,0.034187089651823044,-0.029078710824251175,0.0550152026116848,0.044439274817705154,0.0014523271238431334,0.021125320345163345,-0.06201152876019478,-0.013017678633332253,0.05233364179730415,0.04459140822291374,0.06250825524330139,0.06397899985313416,0.03953691944479942,-0.04760139063000679,0.012030559591948986,0.0312841571867466,-0.05653651803731918,-0.03638657554984093,0.029986737295985222,0.026031166315078735,0.002423413097858429,0.059215690940618515,-0.006670848466455936,-0.01174065750092268,-0.06416506320238113,0.02782457508146763,0.019162889569997787,-0.05919026583433151,-0.01960482820868492,-0.018842356279492378,-0.018164997920393944,-0.03004920855164528,0.018432609736919403,0.04476436227560043,0.06332835555076599,0.023058436810970306,0.11847475916147232,-0.27559319138526917,0.025092851370573044,-0.004225165583193302,0.03862380608916283,-0.012908472679555416,0.07221047580242157,-0.10882584005594254,0.07998759299516678,-0.02837892808020115,-0.005635969806462526,0.08034418523311615,0.2135389894247055,-0.2140035182237625,0.09839330613613129,-0.0717153325676918,-0.024534011259675026,-0.08680910617113113,-0.10562579333782196,0.20726069808006287,-0.09064572304487228,0.10819905996322632,0.19902272522449493,-0.0022510974667966366,0.039713382720947266,-0.19451802968978882,0.0006028201896697283,-0.13284450769424438,0.020662231370806694,-0.12746962904930115,-0.024853989481925964,0.10495341569185257,-0.01160422433167696,0.029628723859786987,-0.02406088262796402,-0.09118751436471939,0.013480164110660553,-0.03412996977567673,-0.10518410056829453,-0.07146864384412766,0.08147235214710236,0.2151445895433426,-0.05691150575876236,0.09368696808815002,-0.0032907710410654545,-0.02577838860452175,0.14890986680984497,0.003107315395027399,0.024296674877405167,-0.01990611106157303,0.03864240273833275,0.15552324056625366,-0.03706417605280876,0.03302604332566261,0.1622338443994522,-0.24149473011493683,-0.038377124816179276,0.02585928700864315,0.17127029597759247,2.09259451366961e-05,-0.010295220650732517,-0.08287040144205093,-0.004817542620003223,0.02060738578438759,-0.049575354903936386,0.11313258856534958,-0.025612344965338707,-0.04151265323162079,0.0037974859587848186,0.03481213375926018,-0.17448148131370544,-0.20179249346256256,-0.03543578088283539,-0.1282634735107422,0.006472098641097546,0.03701743111014366,-0.14814156293869019,-0.030618377029895782,0.027172615751624107,0.14522598683834076,-0.25082987546920776,-0.030091848224401474,-0.12006096541881561,0.23917792737483978,-0.045889414846897125,-0.04457719251513481,-0.09783216565847397,0.00971205998212099,-0.023403987288475037,-0.03869984671473503,-0.07377562671899796,0.04890220984816551,0.09371781349182129,0.08365017920732498,0.10411780327558517,-0.15127161145210266,0.15500080585479736,0.033785708248615265,-0.023042863234877586,-0.03555690869688988,-0.0945252925157547,0.13042816519737244,0.24325494468212128,-0.03480736166238785,-0.009725281037390232,-0.07970023155212402,-0.11848511546850204,-0.12246217578649521,0.09112025797367096,-0.04140559956431389,-0.1950109601020813,-0.06059776991605759,-0.011732950806617737,0.07706639915704727,-0.010934079997241497,0.025829192250967026,0.2765026390552521,-0.05542194843292236,0.10748572647571564,-0.10173237323760986,-0.05775996670126915,-0.030376993119716644,0.010772503912448883,0.13035398721694946,-0.06445810943841934,-0.07199935615062714,0.035908184945583344,-0.06615130603313446,0.06717506051063538,0.08201456815004349,-0.02403585985302925,0.07970313727855682,-0.1133817657828331,-0.16245946288108826,-0.008309707045555115,0.054313912987709045,-0.031337834894657135,-0.03864969685673714,0.10149595886468887,0.13511262834072113,0.038604140281677246,-0.16351960599422455,0.035042114555835724,0.0724622905254364,-0.06657850742340088,0.11691310256719589,0.08331674337387085,-0.03977186605334282,0.14979858696460724,-0.10179496556520462,-0.0948510393500328,0.05493699386715889,0.01716071367263794,0.07241953164339066,-0.10067007690668106,-0.09172354638576508,0.046817533671855927,0.04584047943353653,0.16318847239017487,0.0026494301855564117,0.032029058784246445,0.051060982048511505,-0.08123677223920822,-0.08954081684350967,0.015152775682508945,-0.01172042079269886,-0.009914910420775414,-0.17958010733127594,-0.05289356783032417,-0.05932670831680298,-0.07760529965162277,-0.030962472781538963,-0.06524234265089035,0.03311130777001381,-0.0341070182621479,0.08082018047571182,-0.05771907418966293,0.02930157631635666,-0.19398145377635956,0.06930209696292877,-0.090563103556633,0.014841335825622082,-0.07126209884881973,-0.09788376092910767,-0.14203938841819763,-0.09425027668476105,0.20187722146511078,0.026424366980791092,-0.014181893318891525,-0.05737144127488136,-0.02803794853389263,-0.06354284286499023,0.3201480805873871,0.08592178672552109,-0.12221650034189224,-0.05770033970475197,0.011568012647330761,0.056726694107055664,-0.009169429540634155,-0.02259369008243084,0.3774588406085968,-0.052169136703014374,-0.003334186039865017,0.026550674811005592,0.2891491949558258,0.028426432982087135,-0.12534552812576294,0.052475109696388245,0.06204276531934738,0.010480131022632122,-0.025676965713500977,0.08945848792791367,0.0353873036801815,0.19517245888710022,0.10824726521968842,-0.056258752942085266,0.05260562151670456,-0.01982167176902294,-0.21319831907749176,-0.006192764267325401,-0.056680068373680115,-0.002073572250083089,-0.0992577001452446,0.21562843024730682,0.1847766786813736,0.19060097634792328,-0.08602692186832428,-0.06624607741832733,-0.11500561237335205,-0.13253705203533173,-0.016606885939836502,0.050612885504961014,-0.008580554276704788,0.03227773308753967,-0.11131031811237335,-0.05406031385064125,0.07273799180984497,0.011996671557426453,0.009851358830928802,-0.06794248521327972,0.22431735694408417,0.08631963282823563,0.050598423928022385,-0.1107252985239029,-0.041908200830221176,-0.06744999438524246,0.2688714265823364,0.12385579943656921,0.022506460547447205,-0.15939511358737946,0.004800593480467796,0.07115636020898819,0.14353132247924805,-0.14308933913707733,0.07841002196073532,-0.0699971467256546,-0.054312869906425476,0.13905566930770874,-0.01592722162604332,0.052148979157209396,-0.1532832682132721,-0.10604222863912582,-0.02886226586997509,0.05002743750810623,0.102157361805439,0.03520984947681427,-0.0260960441082716,-0.061099421232938766,-0.29324081540107727,0.13314662873744965,0.1826958954334259,0.1691334843635559,0.015213413164019585,-0.091434046626091,-0.06088171526789665,-0.014252116903662682,0.021755017340183258,-0.09500020742416382,0.15424035489559174,-0.060547783970832825,0.04843250662088394,-0.10330265015363693,-0.03128417581319809,-0.006696639582514763,-0.030062906444072723,0.16572237014770508,0.018844125792384148,-0.014088225550949574,0.021958084776997566,0.08200046420097351,0.01336302887648344,0.0718623548746109,-0.11480516195297241,0.13149923086166382,0.01637953147292137,0.03795752674341202,0.21108056604862213,-0.013415073975920677,-0.027743028476834297,0.07939979434013367,0.12004657834768295,0.025898434221744537,0.043728750199079514,-0.11417388916015625,-0.026677722111344337,0.058756377547979355,-0.002538754139095545,0.04945042356848717,-0.1286671757698059,-0.051147036254405975,0.00077052041888237,0.03537179157137871,0.02908414974808693,-0.0760892704129219,-0.044740401208400726,-0.010036952793598175,0.07251913845539093,-0.03294454514980316,0.26887959241867065,0.16494540870189667,-0.11466411501169205,0.13288001716136932,-0.1339147537946701,0.058202847838401794,0.06889718025922775,0.017879264429211617,-0.15590541064739227,-0.058700624853372574,0.15508736670017242,-0.03838641569018364,0.18107342720031738,0.3121178448200226,-0.025085313245654106,-0.06198003515601158,-0.03766823932528496,-0.027217039838433266,0.022062595933675766,-0.02388249710202217,-0.10558866709470749,0.04360990971326828,0.05660934001207352,0.07897092401981354,0.04607994854450226,0.12897419929504395,0.012342964299023151,-0.1626771241426468,-0.024381373077630997,-0.024163872003555298,-0.034670449793338776,-0.002541902009397745,0.16803231835365295,0.010445975698530674,0.020238041877746582,0.036101628094911575,0.10174494981765747,0.05735131353139877,0.1665552407503128,-0.011355350725352764,0.04796683043241501,-0.017942344769835472,-0.06958358734846115,0.031011221930384636,-0.08465473353862762,-0.06617864966392517,-0.07628364861011505,0.06466667354106903,-0.12135301530361176,-0.05795339494943619,-0.08267932385206223,-0.07635293155908585,0.13647745549678802,0.021909959614276886,-0.10308415442705154,-0.04096359387040138,0.016088776290416718,0.12188612669706345,-0.033843573182821274,-0.09242047369480133,-0.07417111843824387,0.07955747097730637,0.11426307260990143,-0.03173493966460228,-0.006074804347008467,0.02443470060825348,0.10106080770492554,-0.13485458493232727,0.0032246827613562346,-0.09043540060520172,-0.1146814301609993,0.010334335267543793,-0.02636895515024662,-0.13137087225914001,0.022072330117225647,-0.05115092918276787,-0.1642313301563263,0.28134673833847046,-0.18866446614265442,0.005046220030635595,-0.033640358597040176,-0.059679675847291946,0.134014293551445,0.18372780084609985,0.10164864361286163,-0.22270746529102325,0.0710604339838028,-0.1225256696343422,-0.12720531225204468,-0.013480180874466896,-0.061898402869701385,0.13373656570911407,0.07591503113508224,0.09651074558496475,0.1346817910671234,0.21555504202842712,0.03222284093499184,-0.036878082901239395,-0.010129197500646114,0.060633305460214615,-0.11574618518352509,0.12642131745815277,-0.02817474864423275,-0.049068886786699295,-0.04576210677623749,0.14676295220851898,-0.018788577988743782,0.14227411150932312,0.005837663542479277,0.0766749382019043,-0.10417819023132324,0.05231562629342079,-0.05050574243068695,0.07560212910175323,0.20348455011844635,0.23610058426856995,-0.03917882964015007,0.04396159574389458,0.1219136118888855,-0.019504563882946968,-0.19086959958076477,-0.03583604097366333,-0.1311984807252884,-0.20055080950260162,0.04056164622306824,-0.18041473627090454,-0.09161866456270218,-0.23372866213321686,0.009423826821148396,-0.18971802294254303,-0.0066804103553295135,-0.20304766297340393,0.2859756648540497,0.0035091203171759844,0.07145526260137558,-0.1264028400182724,-0.01814872771501541,0.015287595801055431,-0.17411088943481445,-0.06556949019432068,-0.29799684882164,-0.046130042523145676,-0.06120717152953148,0.06807165592908859,-0.20428381860256195,-0.03685322403907776,-0.10754376649856567,-0.004574734717607498,-0.05015184357762337,0.12396060675382614,-0.0024722826201468706,-0.1379631757736206,-0.01646406017243862,0.06638142466545105,0.015125345438718796,0.17088215053081512,-0.29645782709121704,-0.0883328765630722,-0.10660485923290253,0.021568456664681435,0.12489622086286545,0.04243655502796173,-0.04152229428291321,-0.40134263038635254,-0.0747794657945633,-0.11357652395963669,-0.16018842160701752,-0.014367735013365746,0.1925038844347,-0.28636330366134644,0.009234540164470673,-0.04030073806643486,-0.05337423458695412,0.040910761803388596,0.062090180814266205,0.03373319283127785,-0.12326472252607346,-0.049597032368183136,0.06752806901931763,-0.1863434761762619,0.008230635896325111,-0.16514386236667633,-0.03213891386985779,0.2284885197877884,0.16678602993488312,0.2771078050136566,0.10972316563129425,0.017963191494345665,-0.048932842910289764,0.003194908844307065,-0.24184954166412354,0.08192438632249832,0.017194166779518127,-0.16637367010116577,0.17935021221637726,-0.0006848265184089541,-0.11580250412225723,0.00867730937898159,-0.11576463282108307,-0.1950473189353943,0.22370797395706177,-0.14656206965446472,0.061070676892995834,0.1142314225435257,-0.2767389416694641,0.09044668078422546,0.031145041808485985,0.08332853764295578,0.0326034314930439,0.19298745691776276,-0.056640129536390305,0.01598963513970375,-0.19796481728553772,0.058044206351041794,0.12493544816970825,0.05072116479277611,0.029979826882481575,0.17937956750392914,-0.15616372227668762,-0.1977439969778061,-0.1933920681476593,-0.016775507479906082,-0.03438708931207657,-0.0806751400232315,0.47113296389579773,0.016561809927225113,-0.0054943556897342205,0.15206705033779144,0.542926549911499,-0.02839888632297516,0.09941868484020233,0.0971299260854721,-0.011338806711137295,0.07531251013278961,-0.2149272859096527,0.0864178016781807,-0.12625117599964142,0.07205613702535629,-0.19607245922088623,-0.07198011875152588,-0.06398846954107285,-0.12338142096996307,0.027711259201169014,-0.045135386288166046,-0.030043525621294975,-0.18587586283683777,-0.11292490363121033,0.0007327842758968472,-0.04039007052779198,0.2774285078048706,-0.12360905855894089,0.043607983738183975,0.01117274072021246,-0.10603141039609909,0.04919769614934921,-0.11842644959688187,0.03428150713443756,-0.1747402399778366,0.07554426789283752,0.02482851967215538,0.31587788462638855,0.060682956129312515,0.025264013558626175,0.03648030757904053,-0.07209613174200058,-0.016822928562760353,0.017324557527899742,0.04095949977636337,-0.08121389150619507,0.11468702554702759,-0.12141723185777664,0.237264022231102,0.024643395096063614,0.009157699532806873,0.019500505179166794,0.062115807086229324,0.04060159996151924,0.1947762668132782,0.004086076747626066,-0.033759333193302155,0.08282765001058578,-0.0395263247191906,0.024118196219205856,0.08335158973932266,-0.013599262572824955,0.23717519640922546,-0.027316197752952576,-0.1494227796792984,0.14599467813968658,-0.08518409729003906,-0.07519904524087906,-0.05107766017317772,0.003692242782562971,-0.05792742222547531,0.21135984361171722,0.1782418042421341,0.1645365208387375,-0.1930202692747116,0.04663243144750595,0.0230298712849617,-0.02581290900707245,-0.03479963168501854,-0.25333866477012634,0.22641466557979584,0.021786166355013847,0.04805051162838936,0.017279308289289474,0.10588356852531433,-0.07671240717172623,-0.07861698418855667,0.12257932871580124,0.1099921241402626,-0.05202392861247063,0.2799963653087616,-0.014536761678755283,-0.06794924288988113,0.3692048490047455,0.2135305255651474,-0.1950220763683319,0.06218872591853142,0.0950385108590126,0.03286680579185486,-0.004537463188171387,0.012429386377334595,-0.1167903020977974,-0.07644403725862503,0.01656947284936905,-0.05600716173648834,-0.277526319026947,0.12146660685539246,-0.17832039296627045,-0.06468310207128525,0.03583092615008354,0.030459566041827202,0.0545894093811512,-0.1474878191947937,0.07537952810525894,0.1198892891407013,0.1380193829536438,0.11366192996501923,-0.15879173576831818,-0.03255295008420944,0.0676046758890152,0.11623923480510712,0.06780418008565903,-0.11062707006931305,0.07998036593198776,0.09286466985940933,-0.05271393060684204,-0.09814142435789108,-0.01764562726020813,0.12220019847154617,0.20303325355052948,0.18479567766189575,-0.03765631094574928,-0.07068145275115967,0.011383169330656528,0.2190769463777542,0.1480974555015564,-0.1444740891456604,-0.08781297504901886,-0.08305034786462784,-0.13363178074359894,0.16072027385234833,-0.2289489358663559,0.011677654460072517,0.024990037083625793,-0.054908636957407,-0.1856837123632431,0.253469318151474,0.003509010188281536,-0.02739446982741356,-0.12102054059505463,-0.02261817455291748,0.0635477751493454,0.14740191400051117,-0.13830465078353882,0.0006125228828750551,0.061476100236177444,-0.03457428887486458,0.08768182247877121,-0.23961442708969116,-0.23526915907859802,-0.11148744821548462,-0.04154607653617859,-0.1657053530216217,0.14411652088165283,0.16985192894935608,0.00898701325058937,0.22006990015506744,-0.1374155431985855,0.0003911199455615133,0.031552791595458984,0.0667840987443924,0.17767322063446045,0.03162789344787598,0.11506009846925735,-0.26204216480255127,0.15127505362033844,0.15861272811889648,0.04704507440328598,-0.14648500084877014,-0.025016065686941147,-0.19080592691898346,-0.03396417200565338,-0.06274016946554184,0.08456437289714813,-0.13540898263454437,0.08286652714014053,-0.025674035772681236,-0.19831420481204987,-0.17563728988170624,0.07749905437231064,-0.0019320836290717125,0.1785460263490677,0.053775493055582047,-0.1258266717195511,-0.013809800148010254,-0.022916365414857864,0.0801173746585846,0.06634245812892914,0.0024677494075149298,0.0592009574174881,-0.04932503029704094,-0.031197937205433846,0.10080256313085556,0.04276777058839798,-0.20289890468120575,0.09383164346218109,-0.1651209443807602,0.04330446198582649,0.02692815475165844,0.09877312928438187,-0.07279574126005173,-0.08550829440355301,-0.033715300261974335,-0.05663376674056053,-0.016960646957159042,0.048629846423864365,-0.06436960399150848,0.2397552728652954,-0.0006873381789773703,-0.0682486817240715,0.0728522390127182,-0.08162958920001984,-0.15058766305446625,0.008906819857656956,-0.10311924666166306,-0.13924439251422882,0.027706101536750793,0.08585739880800247,0.029098324477672577,0.06862825900316238,0.07269736379384995,0.030433103442192078,-0.016003988683223724,-0.12210783362388611,-0.014588799327611923,-0.17719802260398865,-0.036581892520189285,-0.10743753612041473,0.011589337140321732,-0.14479494094848633,0.09696429967880249,-0.030613761395215988,0.1825600564479828,-0.0495726615190506,-0.002952795708552003,0.08091629296541214,-0.08067923039197922,0.01324909832328558,0.035721927881240845,-0.21383537352085114,-0.06432708352804184,-0.054678939282894135,0.019359556958079338,-0.07680874317884445,0.24247629940509796,0.02057681232690811,0.42544543743133545,-0.1413729041814804,-0.052651457488536835,0.007286020554602146,-0.2097640484571457,-0.05876122787594795,0.10863795876502991,-0.07247772812843323,-0.22028174996376038,0.07736637443304062,-0.0729643702507019,-0.16797807812690735,0.14047686755657196,-0.027766402810811996,-0.09472693502902985,-0.14246098697185516,0.051070183515548706,0.09703844785690308,-0.11465892195701599,-0.033056117594242096,0.11422792077064514,0.0681997686624527,-0.3790270686149597,0.14352017641067505,-0.07882868498563766,-0.1517602503299713,0.042833078652620316,0.1369810402393341,-0.08033459633588791,-0.07474628835916519,-0.09138461947441101,-0.1148780956864357,0.01000234391540289,0.0038140357937663794,0.17384786903858185,-0.01405923068523407,-0.3565729856491089,0.06602244824171066,-0.017022382467985153,0.009141841903328896,0.09935478866100311,0.09465999156236649,0.0773138776421547,-0.04888296499848366,-0.138528972864151,0.04068697243928909,-0.0169086791574955,-0.004405570216476917,-0.06553393602371216,-0.014913342893123627,0.05164141580462456,0.2617287337779999,-0.043302636593580246,-0.060372523963451385,0.06464280933141708,0.034214086830616,-0.03313019126653671,-0.1869969516992569,-0.10425923019647598,0.041464272886514664,0.05051851645112038,-0.03670605272054672,0.1287548542022705,0.06510534137487411,-0.045384570956230164,0.015477640554308891,-0.058301910758018494,-0.024944210425019264,0.010167539119720459,0.13066083192825317,0.027412747964262962,-0.09953435510396957,-0.059323329478502274,-0.0653000921010971,-0.039559926837682724,0.02927171252667904,0.1140730232000351,0.019387004896998405,0.16851048171520233,-0.10270989686250687,0.1960316300392151,0.17439761757850647,0.007152786944061518,-0.03400576114654541,-0.1115959957242012,-0.15509864687919617,-0.09300810843706131,-0.07090549170970917,-0.24354635179042816,0.06987293809652328,0.029966028407216072,0.019375482574105263,0.004251443315297365,-0.03268889710307121,-0.11480280756950378,0.036367230117321014,0.0782589241862297,0.24105344712734222,-0.1977209448814392,0.06726956367492676,-0.0025332928635179996,0.04812319576740265,0.06597903370857239,-0.061730653047561646,0.1794482320547104,-0.026470737531781197,-0.2760145962238312,0.0799914225935936,-0.07293969392776489,0.06845615804195404,-0.296876460313797,-0.2893213927745819,0.20687668025493622,0.004245370626449585,-0.09399755299091339,-0.2456817328929901,0.10044746100902557,-0.038640592247247696,-0.07438565790653229,-0.14519192278385162,-0.03868638724088669,0.09794770926237106,0.12103400379419327,-0.2317466139793396,0.28934192657470703,0.18643154203891754,-0.17975634336471558,-0.14678731560707092,0.0197246503084898,0.2903938293457031,0.2852393686771393,-0.020334923639893532,0.1048775389790535,-0.030199335888028145,-0.15481022000312805,-0.03343328461050987,-0.021424826234579086,-0.034922078251838684,-0.024853283539414406,-0.047223445028066635,-0.06999343633651733,0.2955549955368042,-0.031227337196469307,-0.017994685098528862,0.10505802929401398,0.16688135266304016,-0.06890026479959488,-0.19576099514961243,-0.14151249825954437,0.027037711814045906,-0.20645718276500702,0.22349371016025543,0.07899793982505798,-0.12769509851932526,-0.13309751451015472,-0.07819443941116333,-0.023299425840377808,-0.21354325115680695,0.12425239384174347,-0.01574081927537918,-0.2191246598958969,-0.02696935459971428,-0.07101603597402573,-0.2007060945034027,0.053130317479372025,-0.1463068276643753,-0.07814396917819977,-0.05726117268204689,-0.23559094965457916,0.2199244201183319,-0.1145164743065834,0.09361419081687927,0.011091130785644054,0.14095427095890045,-0.05673731863498688,0.2182975709438324,-0.3444605767726898,0.043531205505132675,-0.08674859255552292,0.15387502312660217,-0.10280507057905197,-0.11468283832073212,-0.15492816269397736,-0.14326801896095276,0.2810550034046173,-0.21129755675792694,-0.04267280921339989,-0.025748027488589287,-0.09085933119058609,-0.152964249253273,-0.11112995445728302,-0.0028532363940030336,-0.1488279402256012,-0.002218103501945734,0.11234023422002792,0.08281677216291428,-0.006664505694061518,-0.0865338146686554,0.19559523463249207,-0.14660228788852692,-0.11208271980285645,-0.11253923177719116,0.13384276628494263,0.09816237539052963,0.258645623922348,-0.017980115488171577,-0.13997730612754822,-0.12824125587940216,-0.25034838914871216,-0.025158975273370743,-0.10628023743629456,-0.1593741774559021,0.01772669330239296,-0.011029976420104504,-0.03223603963851929,-0.13595497608184814,-0.021942276507616043,0.19934923946857452,0.1585438847541809,-0.08078327029943466,0.1320464015007019,-0.22474007308483124,-0.03339308872818947,-0.01153889112174511,-0.0021427450701594353,-0.11407693475484848,-0.14308084547519684,0.052614033222198486,0.11892790347337723,0.14742684364318848,-0.14536544680595398,0.06001288443803787,0.17483676970005035,0.11890865117311478,-0.30898919701576233,0.2821592092514038,-0.015244823880493641,0.009298260323703289,0.012921754270792007,-0.08270562440156937,0.03220945969223976,-0.11011162400245667,0.07996460795402527,-0.07181251794099808,0.12103016674518585,0.08311236649751663,0.1054103821516037,-0.07922475785017014,0.27220621705055237,0.056289684027433395,0.12054084241390228,-0.2013702392578125,-0.11122477799654007,0.19697074592113495,0.026203136891126633,0.054446518421173096,-0.004573336802423,-0.04452551528811455,-0.2501131296157837,0.05688191205263138,0.07299663126468658,-0.02069009654223919,-0.33012810349464417,0.12993782758712769,-0.08857036381959915,0.16661205887794495,0.13062305748462677,0.15204352140426636,0.13390770554542542,-0.13340890407562256,0.11622738093137741,0.05106106773018837,0.02153221145272255,0.0467538982629776,-0.2619211673736572,-0.06470304727554321,-0.0690859779715538,-0.029170330613851547,0.20399531722068787,-0.06214503198862076,0.04427926987409592,0.023639457300305367,0.03050951659679413,0.10859020799398422,-0.046827614307403564,0.01993531920015812,-0.07630901783704758,0.27103662490844727,-0.03879286348819733,0.12820187211036682,0.2240813672542572,-0.27788957953453064,-0.04546366259455681,-0.025092553347349167,0.20072677731513977,-0.0043677473440766335,-0.05327201634645462,0.056498367339372635,0.025000954046845436,-0.008294811472296715,-0.10200711339712143,-0.08873492479324341,0.27609315514564514,-0.07212892174720764,-0.08358723670244217,0.14566802978515625,0.09498680382966995,0.06450166553258896,0.15589091181755066,0.05601447820663452,-0.1072499081492424,-0.21246573328971863,0.09356306493282318,0.007126112934201956,-0.014269246719777584,0.2149336338043213,0.14686629176139832,-0.27073532342910767,-0.25091636180877686,-0.24406766891479492,-0.2026667594909668,0.061739254742860794,-0.1332392543554306,-0.026056570932269096,0.15720106661319733,-0.24219125509262085,0.10015945136547089,0.2226039469242096,0.10203464329242706,0.04390374571084976,-0.02948300540447235,-0.17944559454917908,0.07229287177324295,-0.18114249408245087,0.1260417401790619,-0.15735946595668793,-0.095136359333992,0.10822544246912003,-0.0032389997504651546,0.027801159769296646,0.1706465631723404,-0.18192483484745026,-0.020943686366081238,0.09593990445137024,-0.05636482685804367,-0.1975722759962082,0.23440679907798767,0.19366207718849182,0.005705897696316242,-0.019051963463425636,0.1193644106388092,0.019201332703232765,0.059481870383024216,0.050146955996751785,0.19645552337169647,0.11582257598638535,0.12769588828086853,-0.2570115029811859,0.039017319679260254,-0.10113882273435593,-0.24405938386917114,-0.08046450465917587,0.12386884540319443,-0.13629251718521118,-0.00872918963432312,0.020820967853069305,0.04269503802061081,-0.048932451754808426,0.11824972927570343,0.02826857753098011,0.10563478618860245,0.041444331407547,0.045029863715171814,-0.041116200387477875,-0.07944037020206451,-0.008105902001261711,-0.030905455350875854,-0.029455086216330528,-0.12456448376178741,0.04460856691002846,0.011109885759651661,-0.0025414766278117895,0.08701547235250473,0.011926484294235706,-0.24591758847236633,-0.12964791059494019,0.0665423572063446,-0.039300911128520966,-0.0528281144797802,0.02013785019516945,0.012976525351405144,-0.16133952140808105,-0.16367974877357483,-0.03632873296737671,-0.18261055648326874,-0.11272383481264114,0.01155145838856697,-0.12206434458494186,-0.12265148013830185,0.026850825175642967,-0.007965999655425549,0.0554514043033123,-0.06771408021450043,-0.23568940162658691,0.07564503699541092,-0.13304503262043,-0.17291633784770966,-0.08221907168626785,-0.10414774715900421,0.2869550883769989,0.08466535806655884,0.12202215939760208,-0.1639113575220108,-0.060464851558208466,-0.0019292813958600163,0.14421696960926056,-0.061943020671606064,-0.10882511734962463,0.08887345343828201,0.11408158391714096,-0.0975976213812828,-0.034845560789108276,-0.08943526446819305,-0.1303459256887436,-0.07731550931930542,0.08949480950832367,0.17534205317497253,-0.12085738033056259,0.037601251155138016,0.12714049220085144,0.04451696202158928,-0.007930786348879337,-0.15088649094104767,0.0665929839015007,-0.10291507095098495,-0.0872444361448288,0.0891113132238388,-0.20797117054462433,-0.041696179658174515,0.04749380052089691,-0.29489845037460327,-0.05005092918872833,0.11934009939432144,0.13836678862571716,-0.16139930486679077,-0.06338313966989517,0.18800747394561768,0.1260063499212265,-0.004930906929075718,-0.29870060086250305,0.02690349891781807,0.0006564558134414256,-0.04738887771964073,-0.0005278874887153506,-0.06189877912402153,-0.07464484125375748,-0.1084621399641037,-0.0733649730682373,0.03971162810921669,-0.05106787756085396,0.06828703731298447,-0.06481072306632996,-0.18545711040496826,-0.15867409110069275,0.06634429842233658,0.06435510516166687,-0.008662725798785686,-0.007447288371622562,-0.11684462428092957,-0.007117131724953651,-0.05924564227461815,-0.023347746580839157,-0.2034846395254135,0.28406569361686707,0.012410818599164486,0.0020548494067043066,-0.08933258801698685,-0.03763295337557793,-0.046262748539447784,0.17155790328979492,0.011835429817438126,0.1312870979309082,0.01095559448003769,-0.042363811284303665,0.06124440208077431,0.038578540086746216,-0.045547984540462494,-0.04838046431541443,0.0001719142310321331,-0.12149834632873535,0.04478461667895317,0.12787677347660065,0.0024644751101732254,-0.10909555852413177,0.009855340234935284,-0.2583136558532715,0.006204367149621248,-0.031644854694604874,-0.0009249277645722032,0.014702090993523598,-0.006907227449119091,-0.3178487718105316,-0.03053675964474678,0.016200464218854904,-0.06922166049480438,0.07559394091367722,-0.03002971038222313,-0.03302621468901634,0.14656034111976624,0.2418498992919922,-0.09655919671058655,-0.04635359346866608,-0.020980827510356903,0.012398540042340755,-0.0891946405172348,0.15715284645557404,-0.17767532169818878,-0.0296673271805048,-0.008078684099018574,-0.11745311319828033,-0.057352758944034576,0.03904879465699196,0.1743209958076477,-0.05395277962088585,0.0396667905151844,0.2597237527370453,-0.13842317461967468,-0.024794334545731544,0.15009282529354095,-0.11441145837306976,-0.04673313722014427,-0.2894178628921509,-0.14452162384986877,-0.13222968578338623,0.09319548308849335,0.07728887349367142,-0.11828702688217163,-0.12944577634334564,-0.06865725666284561,-0.01669103279709816,-0.09340691566467285,-0.4077257513999939,0.23907285928726196,0.10151496529579163,-0.16168113052845,0.010563240386545658,-0.18016056716442108,0.08990069478750229,-0.02653372474014759,-0.1827317178249359,0.06817978620529175,-0.18182066082954407,-0.0004627456655725837,0.10652410984039307,-0.03576673939824104,0.030003614723682404,0.06694714725017548,-0.17497900128364563,0.14414994418621063,-0.0751601979136467,0.005681687965989113,0.15740735828876495,0.21171033382415771,0.08034390211105347,0.30873775482177734,-0.06904346495866776,-0.08277364820241928,0.10037735104560852,0.10879480838775635,-0.05234961584210396,0.012880846858024597,-0.037345610558986664,0.043101295828819275,-0.034585077315568924,0.08762259781360626,0.033249903470277786,-0.09021260589361191,-0.0612395703792572,0.18139483034610748,-0.09311826527118683,-0.08973947912454605,0.04927244037389755,0.2616129219532013,-0.2804105877876282,-0.29639118909835815,0.15231287479400635,0.022185740992426872,-0.07896151393651962,0.0757983848452568,-0.03043612651526928,0.22238899767398834,-0.1304955780506134,0.20124027132987976,0.03288601338863373,0.09722107648849487,-0.16810408234596252,0.17930300533771515,-0.12059351056814194,-0.2072501927614212,-0.27794766426086426,-0.10306134819984436,0.09860308468341827,0.03557196632027626,-0.10263299942016602,-0.13303188979625702,-0.2268003523349762,-0.3494180738925934,-0.09142474830150604,-0.008294695056974888,-0.20773538947105408,0.04479743167757988,-0.09857252985239029,-0.29428091645240784,0.20692084729671478,-0.1925196349620819,-0.06759588420391083,-0.077410988509655,0.10333998501300812,0.0346686951816082,-0.21398359537124634,0.10536118596792221,-0.1666930615901947,0.056893546134233475,-0.07456827908754349,-0.023728299885988235,-0.08429896086454391,-0.2551634907722473,0.02207547426223755,-0.159264475107193,0.17259445786476135,0.31557798385620117,-0.10729489475488663,0.13266824185848236,0.08894553780555725,0.29737281799316406,0.07104790955781937,-0.1713288426399231,0.1098049134016037,0.2130396068096161,0.017652064561843872,0.17615355551242828,-0.042944323271512985,-0.11780443787574768,-0.05753467231988907,-0.12290626764297485,0.10065807402133942,-0.11458759754896164,-0.18153177201747894,0.05471767112612724,-0.08062182366847992,0.016859106719493866,0.19330696761608124,0.192409485578537,-0.03092120587825775,0.1444321572780609,-0.08242730796337128,0.0051181805320084095,-0.03839033842086792,-0.07967663556337357,0.06896413862705231,-0.22179211676120758,0.05971537157893181,0.09166330099105835,0.017221571877598763,-0.17003023624420166,-0.22461767494678497,0.11663154512643814,-0.06868574768304825,-0.1612667590379715,-0.0691739171743393,-0.12903201580047607,0.13229325413703918,0.21286001801490784,0.13491830229759216,-0.031230207532644272,0.33827313780784607,-0.1839529424905777,0.08480671793222427,-0.018994884565472603,0.04698503389954567,0.023765668272972107,-0.060908518731594086,-0.15258875489234924,0.10050136595964432,0.015567147172987461,-0.08063884824514389,-0.2703872323036194,-0.01671314798295498,-0.15280093252658844,0.06688977777957916,0.10285692662000656,0.20005066692829132,0.09472477436065674,0.07382574677467346,-0.049531206488609314,-0.02177603915333748,-0.24400657415390015,0.0009966498473659158,-0.05392248556017876,-0.11169105768203735,-0.22979694604873657,-0.20347003638744354,-0.1906256377696991,-0.13967210054397583,-0.2199321687221527,0.39935335516929626,-0.043742500245571136,0.20504556596279144,0.020818913355469704,-0.015176655724644661,0.050985392183065414,0.006720415782183409,-0.21090373396873474,0.01613825373351574,-0.08681314438581467,-0.005601721815764904,-0.06113177165389061,0.07063992321491241,-0.054902806878089905,-0.04327690601348877,0.07330586016178131,0.0465807244181633,0.08957820385694504,-0.3295516073703766,-0.2034958451986313,0.1059986874461174,0.08731529116630554,-0.10282337665557861,0.1471741646528244,-0.1980780065059662,0.12564218044281006,0.03123575635254383,0.0006668596179224551,-0.2215489000082016,0.0727829784154892,0.29481327533721924,-0.08586745709180832,-0.15911796689033508,-0.0856780931353569,-0.0228373184800148,-0.03141697123646736,0.27356868982315063,-0.13569657504558563,0.01076238602399826,-0.08663863688707352,-0.14067789912223816,0.18410594761371613,0.13126423954963684,-0.01777060329914093,0.055993057787418365,-0.07886610925197601,0.1917314976453781,-0.2758585214614868,0.00671090604737401,-0.24315209686756134,-0.015080459415912628,-0.05895309895277023,0.14883320033550262,-0.16171441972255707,-0.03432891145348549,-0.007503277622163296,0.0685029923915863,0.14321298897266388,-0.026700584217905998,-0.029014600440859795,-0.05335046350955963,-0.04673198610544205,-0.11851727962493896,0.2762017548084259,0.09994244575500488,-0.12026114016771317,-0.1784433275461197,0.0269240103662014,0.018459293991327286,-0.21019084751605988,0.21312318742275238,0.07768885046243668,-0.11078740656375885,0.20141571760177612,0.04090776666998863,-0.1612817496061325,-0.11572127789258957,-0.1195562556385994,0.0051999203860759735,-0.09566944092512131,-0.07338908314704895,0.061861515045166016,-0.11781594902276993,-0.17445969581604004,0.15558524429798126,-0.036043681204319,0.01787102222442627,0.06216426566243172,-0.004128485918045044,-0.30155864357948303,-0.15050280094146729,0.06347721070051193,0.12847758829593658,0.07482673227787018,-0.000864084460772574,0.19199468195438385,0.042275577783584595,-0.1317247748374939,0.014894453808665276,-0.18608731031417847,0.004747514147311449,0.02872196026146412,-0.042816244065761566,0.07366354018449783,-0.15784648060798645,-0.10327468812465668,0.1426512748003006,-0.046339329332113266,-0.1402852088212967,0.03136827424168587,-0.08393985033035278,-0.05436579883098602,-0.0023251830134540796,0.02474021166563034,0.1353539675474167,0.1466924101114273,-0.027849707752466202,0.01253615040332079,-0.012731020338833332,-0.09577254951000214,0.22087717056274414,-0.09176427870988846,-0.030980566516518593,0.22470372915267944,-0.006891671568155289,0.010637381114065647,-0.08897540718317032,0.06675342470407486,0.06682109832763672,-0.0333869643509388,-0.02169528789818287,0.059148263186216354,-0.0008313474827446043,-0.034274980425834656,0.056891895830631256,0.0762837827205658,-0.1251075267791748,-0.07893411070108414,0.0491027869284153,-0.22997573018074036,-0.09373577684164047,0.06947623193264008,0.17902225255966187,-0.18888162076473236,-0.09018629789352417,-0.1165219321846962,0.0660535916686058,0.17149300873279572,0.026111790910363197,-0.03536060452461243,0.21327731013298035,0.15259021520614624,-0.076229527592659,0.22770561277866364,0.03826183080673218,-0.06663048267364502,-0.05882306024432182,-0.06255484372377396,-0.06700783222913742,-0.106049083173275,-0.3252691328525543,-0.09187357872724533,-0.1649424433708191,0.14901266992092133,-0.11937850713729858,0.1761118471622467,-0.2307419627904892,-0.07772259414196014,0.10103307664394379,0.13133712112903595,-0.06114717945456505,0.0054992265067994595,0.05781480297446251,0.10927613824605942,0.12418980896472931,-0.04052982106804848,0.07746738195419312,0.1564599722623825,0.04709987714886665,0.1366334706544876,-0.03161786124110222,-0.058523114770650864,-0.040631942451000214,-0.01776534877717495,0.07384064048528671,-0.04465186223387718,0.2620069086551666,-0.12544624507427216,-0.3632414937019348,-0.25197339057922363,-0.01090092584490776,0.0402168370783329,-0.11280371993780136,-0.22126884758472443,-0.12982767820358276,0.16083915531635284,-0.04982753098011017,-0.12465088069438934,-0.06385806202888489,0.217975452542305,-0.052460841834545135,-0.056043997406959534,0.1708821952342987,0.02628803811967373,-0.0842348113656044,0.14835548400878906,-0.07718494534492493,3.4050317481160164e-06,0.030649123713374138,-0.1388530135154724,0.2538503408432007,-0.16951408982276917,-0.1568707525730133,0.07597396522760391,-0.05823379382491112,-0.11119330674409866,0.031113965436816216,-0.013475709594786167,0.009769964031875134,0.0721781849861145,0.18292567133903503,-0.4112054109573364,-0.11378499865531921,-0.010835363529622555,0.02174830622971058,0.04259832203388214