-0.006406229920685291,0.03623175248503685,0.009241495281457901,-0.05446913093328476,-0.0038447969127446413,-0.0294900331646204,0.043246299028396606,-0.00386412744410336,0.0046107047237455845,0.0345439538359642,0.028275568038225174,-0.03666770085692406,0.013695931993424892,0.024506917223334312,-0.0163711104542017,0.03627484664320946,-0.02158714272081852,-0.02808242104947567,0.051088228821754456,0.027662308886647224,0.031628578901290894,0.001057522720657289,0.043907638639211655,-0.001973929349333048,0.010546224191784859,0.05437443405389786,0.022288061678409576,0.015651291236281395,-0.03317321464419365,-0.013881882652640343,-0.024951333180069923,0.033022116869688034,0.04599315673112869,0.04574763402342796,-0.012974110431969166,0.0434788279235363,0.04845679923892021,-0.015331119298934937,-0.029213275760412216,-0.0007718168199062347,0.01586305908858776,0.00370008684694767,0.04988574981689453,-0.02595953270792961,-0.0047040595673024654,-0.013008634559810162,0.03476127237081528,-0.0089301448315382,0.04903282970190048,-0.0049025011248886585,0.012257305905222893,0.03433670476078987,0.024523703381419182,-0.03160914406180382,-0.0379750058054924,-0.040812473744153976,-0.014845084398984909,0.0016557100461795926,0.03711022436618805,-0.0552741214632988,-0.0001591666368767619,-0.03926332667469978,0.024797916412353516,0.030339332297444344,-0.01113789901137352,0.030098456889390945,0.02510734833776951,0.054438814520835876,0.04096701741218567,-0.005873100366443396,0.018755141645669937,-0.028296269476413727,0.04980821907520294,-0.03767143189907074,-0.021019568666815758,0.03956569731235504,0.05262548103928566,0.013831531628966331,0.023685095831751823,-0.008616995066404343,0.049133285880088806,0.04234785586595535,0.020417891442775726,-0.017878850921988487,-0.03613121062517166,-0.0390949621796608,0.03881024941802025,-0.003848114749416709,0.05538232997059822,-0.01951879821717739,-0.009291165508329868,0.0020537120290100574,-0.039802439510822296,-0.0328548438847065,0.052692919969558716,-0.03042958676815033,-0.050311241298913956,0.027836697176098824,0.041950520128011703,0.039296332746744156,0.0034713619388639927,0.01312160026282072,0.03737972304224968,-0.020891962572932243,0.006678074132651091,0.007990190759301186,0.002887258306145668,0.0006606552051380277,0.012776099145412445,0.01036863587796688,-0.012427633628249168,0.036192022264003754,0.03944737836718559,0.04242066293954849,0.04237388074398041,-0.05340614169836044,0.035249702632427216,0.05527433380484581,-0.025715725496411324,-0.049481697380542755,0.048071835190057755,0.0012127108639106154,-0.028142722323536873,-0.04915006086230278,-0.002802064409479499,0.010517262853682041,0.011706190183758736,-0.013244528323411942