0.003868876723572612,-0.006996388081461191,-0.09870247542858124,-0.10451032966375351,-0.014167046174407005,0.055516187101602554,-0.06503034383058548,0.04363137111067772,0.0721600130200386,0.07847096771001816,-0.009495250880718231,0.09609895199537277,0.09341621398925781,0.04977277293801308,-0.05604676902294159,0.007506914436817169,0.08467939496040344,-0.022182267159223557,0.023324312642216682,0.1154073178768158,-0.04983776807785034,-0.10153696686029434,-0.07578764110803604,-0.07586929202079773,0.04600146785378456,-0.06620846688747406,0.09600046277046204,0.0028316485695540905,0.023830337449908257,0.0014206420164555311,-0.03693929687142372,-0.011826490052044392,-0.0631105974316597,-0.04179654270410538,0.05398480221629143,0.06669869273900986,-0.04001235589385033,-0.03189000487327576,-0.052739571779966354,0.08131185173988342,0.06959512084722519,0.030370937660336494,-0.028847504407167435,0.011262141168117523,0.08890289068222046,-0.06880829483270645,0.02107875421643257,0.03834089636802673,0.057194508612155914,-0.009688811376690865,0.010501417331397533,-0.003703078720718622,0.03775181621313095,-0.179127499461174,0.2542251944541931,-0.02428388223052025,-0.08149752020835876,-0.13927090167999268,0.14612506330013275,0.14661893248558044,-0.024681853130459785,0.024293474853038788,0.0014133690856397152,-0.00237593287602067,-0.0234205462038517,-0.0575052909553051,0.19253383576869965,0.007047563791275024,-0.02591613307595253,-0.05517144128680229,0.20740075409412384,-0.03819653019309044,0.019224882125854492,0.0084296353161335,-0.03289850056171417,-0.08652602881193161,-0.13697710633277893,-0.0009405866730958223,0.1329120546579361,0.07432571798563004,0.057534415274858475,0.019297674298286438,-0.010868689976632595,-0.032397348433732986,0.005083139985799789,-0.05098073184490204,0.11547911912202835,0.020478295162320137,-0.0148161007091403,0.22914832830429077,-0.20896181464195251,-0.1887451559305191,0.06021008640527725,0.0034162537194788456,0.0314154177904129,0.019876990467309952,-0.022630339488387108,-0.035725921392440796,0.22994552552700043,-0.05653277784585953,-0.0039926194585859776,0.023860473185777664,0.1358494758605957,0.04340233653783798,-0.02391502447426319,0.053582753986120224,0.027778713032603264,-0.008608915843069553,-0.24331851303577423,0.02220379374921322,0.12139630317687988,-0.03600649908185005,0.04169347509741783,-0.011642001569271088,-0.13785618543624878,-0.1502290666103363,0.06310630589723587,0.04005899652838707,-0.06926597654819489,-0.12505097687244415,-0.006510436534881592,0.12475060671567917,-0.3997635543346405,-0.17175684869289398,0.005512448027729988,0.027505625039339066,0.22116900980472565,-0.015156876295804977,0.013791567645967007,0.03673143684864044,-0.09528498351573944,-0.031108487397432327,-0.06462125480175018,0.010087556205689907,0.2475375533103943,0.06478419154882431,-0.05377073585987091,0.025233225896954536,0.002373902825638652,0.057452764362096786,0.044921427965164185,-0.029388751834630966,0.2835197448730469,0.03207721188664436,0.12003863602876663,0.02329166978597641,-0.04456523060798645,0.0022349138744175434,0.19575415551662445,0.06794349104166031,-0.11439309269189835,-0.12781338393688202,0.07533460855484009,0.1378081887960434,-0.09737040102481842,0.07836119085550308,0.07755430042743683,-0.019813504070043564,-0.02706523984670639,0.13264839351177216,-0.007198389153927565,-0.06517232954502106,-0.08837853372097015,0.12111884355545044,0.10085771232843399,0.052139442414045334,-0.03851734474301338,-0.009358178824186325,0.09745288640260696,0.14429619908332825,-0.025746019557118416,0.059229906648397446,0.06905782967805862,0.044701557606458664,0.04463065415620804,-0.03451529145240784,0.03935571014881134,0.016218800097703934,0.03687707707285881,-0.041747089475393295,0.030717818066477776,-0.0022823356557637453,0.022996120154857635,-0.0469396635890007,0.0053561413660645485,0.007004966493695974,0.07433494180440903,-0.1287422627210617,0.08478205651044846,0.009647135622799397,0.007598055526614189,-0.013478979468345642,-0.02802700363099575,0.041123975068330765,0.10636498779058456,-0.0533461719751358,0.020378947257995605,0.017470264807343483,0.045269500464200974,0.05007319897413254,-0.05000372603535652,-0.04257315397262573,-0.03641203045845032,0.05168122053146362,0.010460732504725456,0.055183641612529755,0.035324182361364365,-0.02062961459159851,0.14703886210918427,0.03068097122013569,0.06912931054830551,-0.0660700723528862,-0.01410018652677536,-0.08047126978635788,0.00918319821357727,0.004348432179540396,0.05763505399227142,0.01563074253499508,-0.057133592665195465,-0.14411164820194244,-0.06211727112531662,0.0447450689971447,0.01914612203836441,0.05856379121541977,0.01661420799791813,0.0788179486989975,-0.07018182426691055,0.012734757736325264,-0.08438260108232498,-0.04166591912508011,-0.03275912255048752,0.0015475167892873287,-0.007919637486338615,-0.048954036086797714,0.019849196076393127,-0.007092934101819992,0.05854713171720505,-0.07339033484458923,-0.12977024912834167,0.0715671256184578,0.09994573891162872,-0.014416496269404888,-0.07269703596830368,0.011149298399686813,-0.058253414928913116,0.08149507641792297,0.006601457484066486,0.02342432551085949,-0.009517828933894634,0.03605526313185692,-0.02379455417394638,0.06274934113025665,-0.016473941504955292,0.01664796471595764,0.20432205498218536,0.14424186944961548,0.06618154048919678,0.023239921778440475,0.07003054767847061,0.04987787827849388,-0.08140704780817032,0.08840154111385345,-0.04134812951087952,0.022982900962233543,0.011137598194181919,0.031190035864710808,0.033731356263160706,-0.18143974244594574,0.10263747721910477,0.05881841480731964,-0.09454649686813354,0.047522060573101044,-0.005335437133908272,-0.0033565356861799955,0.07240105420351028,0.05771724134683609,-0.04447139427065849,0.16455212235450745,-0.04076296463608742,0.0004653126234188676,0.051381129771471024,0.018155593425035477,0.04697691276669502,0.367273211479187,-0.050532545894384384,-0.029513554647564888,0.12639617919921875,0.035059813410043716,-0.05087878182530403,0.09071225672960281,-0.10898236185312271,0.1559285670518875,-0.04214497655630112,-0.004020241089165211,0.14338047802448273,0.06487283855676651,-0.021050116047263145,0.01453204732388258,-0.030016744509339333,-0.06589248031377792,-0.10321494936943054,-0.034888558089733124,-0.05333797633647919,-0.06613005697727203,0.13097073137760162,-0.019963381811976433,0.09715632349252701,0.0671599954366684,0.07094418257474899,0.02979399636387825,0.04460931569337845,-0.06448082625865936,-0.05759686976671219,-0.09959757328033447,0.004808046855032444,0.333143949508667,-0.043768227100372314,-0.057408131659030914,0.009495488367974758,-0.06728285551071167,0.09511470049619675,0.008398766629397869,-0.044554680585861206,-0.00876444112509489,-0.00851278007030487,0.005002699326723814,0.11580651998519897,0.025080136954784393,0.08664745092391968,-0.07566161453723907,0.0179826021194458,0.029025545343756676,0.13869233429431915,-0.0141453230753541,0.09817180782556534,0.00501505471765995,-0.002788036596029997,-0.013805245980620384,0.04964186251163483,-0.11197204142808914,0.004649680107831955,-0.1520966738462448,-0.051212966442108154,-0.010561589151620865,0.11187450587749481,-0.01058922614902258,-0.006352778524160385,0.011184560135006905,0.03357235714793205,-3.2655872928444296e-05,0.018089957535266876,-0.06030432879924774,-0.030014175921678543,0.04832072556018829,0.044404398649930954,-0.008315851911902428,-0.061195455491542816,-0.021348413079977036,0.11596378684043884,-0.04022172838449478,0.028636900708079338,0.011251210235059261,-0.0005850186571478844,0.04832234978675842,-0.07904502749443054,-0.03512965142726898,-0.03310048207640648,0.07538707554340363,0.11955167353153229,-0.014090648852288723,0.03635367378592491,0.0063958014361560345,0.024379780516028404,0.01527857780456543,-0.007480611093342304,-0.058062586933374405,0.056221455335617065,-0.054846614599227905,0.10756489634513855,-0.05645919218659401,-0.008704003877937794,0.016113322228193283,0.051557499915361404,-0.022772686555981636,-0.018507912755012512,0.011922131292521954,-0.033798832446336746,-0.04739730432629585,-0.15563564002513885,-0.010027017444372177,0.013336578384041786,-0.03145928680896759,-0.019336774945259094,-0.08633537590503693,-0.02467191405594349,-0.0743451714515686,-0.012609567493200302,0.13076511025428772,-0.02533365599811077,0.03437260538339615,0.026592208072543144,0.03285057842731476,0.03180735930800438,0.052993979305028915,0.058783844113349915,-0.04062427580356598,-0.11471083015203476,0.17154061794281006,0.013861606828868389,0.005293820984661579,0.007904925383627415,0.03240868076682091,0.007374950684607029,-0.05158219859004021,-0.03532486781477928,-0.01185654941946268,-0.06620809435844421,-0.16533821821212769,0.10283111780881882,-0.1020147055387497,0.05232233554124832,0.057535845786333084,0.06113447621464729,-0.041530873626470566,-0.0013216063380241394,-0.02127118408679962,-0.012171279639005661,0.11905597895383835,-0.15388144552707672,0.1252754181623459,0.1022295132279396,0.0734175592660904,-0.01943456381559372,0.03588871285319328,-0.13231590390205383,-0.09363653510808945,0.1343080848455429,-0.03209219127893448,-0.04612041264772415,-0.04642247408628464,0.015075629577040672,0.08441927284002304,-0.1885884702205658,0.02823556959629059,8.442977559752762e-05,-0.031015567481517792,-0.0255647711455822,-0.025771765038371086,0.00462040351703763,0.03471845015883446,-0.03277362883090973,-0.02369697205722332,-0.0906742736697197,0.023011498153209686,-0.055763572454452515,0.04199226573109627,-0.005326949991285801,0.03348381072282791,-0.03542047366499901,0.028679504990577698,0.1095944195985794,0.030547067523002625,0.07149307429790497,-0.10547591000795364,-0.07990863919258118,-0.027430925518274307,0.01802094653248787,-0.04088061675429344,0.045078832656145096,-0.09363684058189392,0.004035952500998974,-0.06840290874242783,-0.08548518270254135,0.07216855138540268,0.03439723327755928,-0.08591090887784958,0.03546631708741188,0.011520522646605968,0.10169830173254013,-0.13289569318294525,0.04356057941913605,-0.1551332324743271,-0.09928373247385025,0.10397136211395264,-0.06902104616165161,-0.09166084229946136,0.12224382162094116,-0.08902627974748611,-0.01667064242064953,-0.009583652019500732,-0.013586534187197685,0.04014603793621063,0.01843527890741825,-0.10715988278388977,-0.02646809071302414,-0.07265865802764893,-0.031017305329442024,-0.029534360393881798,0.0766708180308342,0.0003209291317034513,0.0970151424407959,0.05441005155444145,-0.03255288302898407,0.006843492388725281,-0.0018429607152938843,-0.04280420392751694,-0.05978437513113022,0.06114060804247856,0.0019249024335294962,0.023011192679405212,-0.014668351970613003,0.03922482952475548,-0.03702809661626816,0.01817159354686737,-0.013636788353323936,0.07855944335460663,-0.060114745050668716,0.003663142677396536,0.021652325987815857,0.00584029033780098,-0.08317837119102478,0.10297083109617233,0.008406179957091808,-0.004769585095345974,-0.0031585432589054108,-0.08527623116970062,-0.07085435837507248,-0.04500310495495796,-0.037069279700517654,-0.006607706658542156,0.03725169599056244,0.048276130110025406,0.011108782142400742,-0.09743884950876236,0.0026551061309874058,-0.023129615932703018,0.0199679397046566,-0.06345526874065399,-0.15234391391277313,-0.07872562855482101,0.01751178316771984,-0.02831004559993744,0.015960711985826492,0.013989917002618313,-0.03602321818470955,0.11859380453824997,0.08483411371707916,-0.02547895349562168,0.022588733583688736,-0.05009534955024719,-0.10249142348766327,-0.0018098214641213417,0.04256763681769371,0.015161060728132725,0.007559188175946474,-0.09735964983701706,-0.10751679539680481,0.054619867354631424,-0.019257642328739166,0.013215548358857632,-0.030330555513501167,-0.03563502058386803,-0.0018658818444237113,-0.005375240463763475,-0.2707971930503845,0.03596637770533562,-0.02986486442387104,0.04582153633236885,-0.1074882224202156,-0.0635870024561882,0.022379225119948387,-0.12231893092393875,0.04466422647237778,-0.0458521731197834,-0.05102963000535965,0.032890405505895615,-0.10923972725868225,0.060726117342710495,0.035553500056266785,0.02269241027534008,0.0587221123278141,-0.04520370438694954,-0.33003687858581543,0.02164355479180813,-0.03194638714194298,-0.11880310624837875,-0.010312166064977646,0.05119781196117401,0.024108193814754486,0.001471464871428907,-0.11463358998298645,-0.0980517566204071,0.06564678251743317,-0.025312047451734543,-0.05894304811954498,0.24257461726665497,-0.20447079837322235,-0.023296890780329704,-0.04568639025092125,-0.07015009969472885,-0.014363439753651619,-0.09715265780687332,0.08630365133285522,-0.062398530542850494,0.05416927486658096,-0.021596219390630722,-0.024676451459527016,-0.004014224279671907,-0.016668010503053665,0.013620452955365181,-0.10159090906381607,0.1074368879199028,-0.025062676519155502,-0.07835178822278976,0.10132454335689545,-0.06581038981676102,-0.05826051905751228,0.012708510272204876,-0.03391622006893158,0.018373090773820877,-0.10766517370939255,0.026060491800308228,0.00933818519115448,0.023042159155011177,0.10776522755622864,0.0226859413087368,0.06521495431661606,0.12190189212560654,0.06808744370937347,-0.06557151675224304,0.034177012741565704,-0.12539492547512054,-0.021460318937897682,-0.048832472413778305,-0.014935975894331932,0.037010978907346725,0.03874817118048668,-0.004096458200365305,0.013985390774905682,0.04159124195575714,-0.05829927697777748,-0.053521305322647095,-0.12811049818992615,0.005349915940314531,0.07599908113479614,-0.05839945003390312,0.03786826506257057,-0.17130275070667267,-0.004954708274453878,-0.060167767107486725,-0.0004704379243776202,-0.02971572056412697,-0.052692946046590805,0.019508570432662964,-0.07513798773288727,0.07660842686891556,-0.005101495888084173,0.04521806538105011,0.02723742462694645,0.06186310574412346,0.040333330631256104,0.04949711263179779,-0.05514828860759735,0.037552524358034134,0.028499707579612732,0.0104707982391119,0.027093306183815002,-0.016839297488331795,-0.056631941348314285,0.030829237774014473,-0.1480465829372406,0.058067403733730316,-0.010446001775562763,0.05202903226017952,0.010444781742990017,-0.027865266427397728,0.14023758471012115,0.008749835193157196,-0.02296748198568821,-0.09294762462377548,-0.13801711797714233,0.007120676338672638,0.019584035500884056,0.10073981434106827,0.05560622736811638,-0.1104511171579361,-0.12980857491493225,0.0394899807870388,-0.08035369217395782,0.006945556029677391,0.027756037190556526,0.049487169831991196,0.00747578265145421,0.08679845929145813,-0.01082071103155613,-0.012434826232492924,-0.006601229775696993,0.02535981498658657,-0.041192326694726944,-0.040492888540029526,0.022488657385110855,-0.015179759822785854,0.008349564857780933,-0.1167692020535469,-0.0020550484769046307,-0.015146003104746342,-0.030782297253608704,-0.10442712903022766,0.08421241492033005,0.041227854788303375,-0.05188799649477005,-0.020219838246703148,-0.1259843111038208,0.02327616512775421,0.03519149497151375,0.2098691612482071,-0.0065987370908260345,-0.028800787404179573,-0.11857662349939346,0.01612214371562004,-0.2633184492588043,0.015380221419036388,-0.04114742949604988,0.050636325031518936,0.02532917447388172,0.11305000633001328,-0.0044071124866604805,0.07051949203014374,-0.07984183728694916,0.04401430860161781,-0.10912864655256271,-0.13825035095214844,0.030291836708784103,-0.02292582020163536,-0.15955528616905212,-0.03452247381210327,0.05871879309415817,-0.08885053545236588,0.08342591673135757,0.02267855405807495,0.04881727695465088,0.042532678693532944,-0.0739704966545105,-0.08767390251159668,-0.07154449820518494,-0.03667151927947998,0.0021556857973337173,0.2007729560136795,0.06482671946287155,0.09129159897565842,-0.14991013705730438,-0.023415882140398026,-0.2416728287935257,-0.05299462005496025,-0.098052479326725,-0.017121026292443275,0.12381678074598312,-0.04928961023688316,0.03868801146745682,-0.0777607411146164,-0.015557298436760902,0.07155674695968628,-0.10272800922393799,-0.14245371520519257,-0.017493203282356262,0.02020925097167492,-0.08807098865509033,0.06399477273225784,0.1570264846086502,-0.04865642264485359,0.012910516001284122,0.06216336041688919,0.23708122968673706,0.0459115132689476,0.1154315248131752,-0.07795245200395584,-0.04503779858350754,-0.015476751141250134,0.03118724189698696,0.1876690834760666,0.19484296441078186,-0.005367243196815252,-0.09015294164419174,0.03819546476006508,-0.18737073242664337,0.019573647528886795,-0.03606843203306198,-0.09385443478822708,0.051393259316682816,0.1398533284664154,0.09161265194416046,0.06336445361375809,0.009035642258822918,-0.0018363604322075844,0.023475902155041695,-0.18635128438472748,0.05134160444140434,0.01963079534471035,0.11208184063434601,0.09540398418903351,0.016901789233088493,0.003489632625132799,0.010858433321118355,0.025630047544836998,0.05485327169299126,0.008393433876335621,-0.03678382188081741,-0.06628596037626266,0.045594047755002975,0.008132770657539368,-0.010831932537257671,-0.0023601597640663385,0.027997862547636032,0.032741010189056396,-0.04318616911768913,-0.034593380987644196,-0.026310153305530548,-0.00013870665861759335,0.08960606902837753,0.005189820658415556,0.03640776872634888,0.013952542096376419,0.081686832010746,-0.047832462936639786,-0.03917566314339638,-0.013761181384325027,-0.006019915919750929,0.02900010719895363,-0.027114592492580414,0.026012880727648735,0.047335248440504074,-0.028548501431941986,0.053845204412937164,0.1242150217294693,0.05139637738466263,-0.018324779346585274,0.019050035625696182,-0.0032912984024733305,-0.013580447994172573,-0.06593561917543411,0.054606035351753235,0.01756039820611477,-0.020379889756441116,0.014062603004276752,0.03366374596953392,-0.012139583006501198,0.03893528878688812,0.06449494510889053,-0.041211701929569244,-0.02546403743326664,0.017210355028510094,-0.031689830124378204,-0.044808972626924515,0.015557566657662392,0.13294437527656555,-0.06592407077550888,-0.012876685708761215,-0.04877179488539696,0.04408657178282738,-0.11619627475738525,0.06598471105098724,-0.01432290580123663,0.03750587999820709,-0.04163898527622223,0.017692582681775093,0.03902694582939148,-0.0288689024746418,-0.004088031128048897,0.050736311823129654,0.03455565124750137,0.014996967278420925,-0.04146943986415863,-0.047245584428310394,-0.0008552101207897067,0.014830822125077248,-0.029945138841867447,-0.037112727761268616,-0.016216924414038658,0.010852341540157795,-0.011345434933900833,-0.0025663082487881184,-0.0505262166261673,0.000855687481816858,-0.06031588464975357,-0.037700116634368896,0.10632657259702682,-0.03470522165298462,-0.034611232578754425,0.05416291207075119,-0.02485845610499382,0.029659835621714592,-0.118448905646801,0.02381345070898533,0.016055075451731682,0.09927352517843246,0.012889957055449486,-0.08266854286193848,0.05553468316793442,-0.02294873632490635,-0.04233989119529724,0.018745435401797295,-0.059994883835315704,0.060960233211517334,-0.031943079084157944,0.07474540919065475,0.02270813286304474,0.025170184671878815,0.05257222428917885,-0.026507563889026642,-0.009878084063529968,-0.08978044986724854,0.03880841284990311,0.06087842211127281,-0.017484167590737343,-0.05022096633911133,-0.03480169177055359,-0.04757697135210037,0.049140144139528275,-0.049728915095329285,0.04456760361790657,0.04263143986463547,-0.1334572583436966,0.04219954460859299,-0.0028952639549970627,-0.02564943954348564,0.03190792724490166,-0.05498996376991272,0.08102969080209732,0.007235745433717966,0.023529604077339172,-0.04624444618821144,0.057510919868946075,-0.004811157938092947,0.010316400788724422,-0.04862269014120102,-0.08002089709043503,-0.10197346657514572,-0.0039051079656928778,-0.021234925836324692,-0.015575811266899109,0.040342625230550766,-0.03830695152282715,-0.009380074217915535,-0.00669578043743968,0.08726165443658829,-0.006596449296921492,0.012610793113708496,0.04418803006410599,-0.013978388160467148,0.019714202731847763,0.0019736657850444317,0.03885863348841667,-0.024698477238416672,-0.05342196300625801,0.007686348631978035,0.004720672965049744,-0.03855375200510025,-0.006330120377242565,-0.007139016408473253,0.05017700046300888,0.0024772891774773598,-0.07399959117174149,0.04983130097389221,-0.08111061900854111,0.014139770530164242,0.01687760092318058,0.03430824354290962,0.015473310835659504,0.05711551010608673,0.01455726008862257,0.01303572952747345,0.056770388036966324,0.043221816420555115,0.07597680389881134,0.07759097963571548,-0.005957735236734152,0.0290285162627697,0.005997896660119295,0.008336792699992657,0.010832482017576694,-0.017031004652380943,0.07609093189239502,-0.00862555205821991,0.007235735654830933,0.06799199432134628,0.11723059415817261,0.012218666262924671,0.06615423411130905,-0.015889454632997513,-0.02699233405292034,-0.005208340939134359,0.01155395433306694,0.06212000548839569,0.03206360340118408,-0.022070640698075294,0.011559801176190376,0.014832738786935806,-0.021355515345931053,0.08411910384893417,-0.015062225982546806,-0.005933316424489021,0.037468694150447845,-0.014421059750020504,0.07379647344350815,0.03506816551089287,-0.006076380610466003,0.07196062803268433,0.026159469038248062,-0.04374430701136589,-0.00033000981784425676,0.034874074161052704,-0.05762661620974541,0.0028140489012002945,0.01479617040604353,0.007844709791243076,-0.04757218435406685,0.003915666602551937,0.024356327950954437,-0.10283086448907852,-0.015257877297699451,-0.006618802901357412,0.01620541140437126,0.07432585209608078,0.05646663159132004,0.0003257050411775708,0.06328172236680984,0.0041063036769628525,0.0425431914627552,-0.02844538912177086,-0.0023205445613712072,0.07912067323923111,-0.08430302888154984,-0.005553615279495716,0.025484338402748108,0.011293132789433002,0.029048606753349304,0.06660440564155579,-0.022227240726351738,0.02408115565776825,-0.0033984037581831217,0.006891942583024502,-0.023263297975063324,-0.008881260640919209,-0.06193443760275841,0.09512107819318771,0.020900998264551163,0.054547592997550964,0.06890728324651718,0.09615328907966614,0.009232498705387115,0.06292398273944855,-0.0824141651391983,-0.031051667407155037,0.013341890648007393,-0.013191064819693565,-0.02934160642325878,0.009142836555838585,0.024239880964159966,-0.028103511780500412,-0.003244084073230624,-0.04871556535363197,-0.001089121913537383,-0.05925302952528,0.05040619894862175,-0.07069369405508041,0.06055939570069313,-0.02607571706175804,0.033674899488687515,-0.03419503942131996,-0.014083778485655785,-0.042162638157606125,-0.018925223499536514,-0.025587446987628937,-0.025545550510287285,0.002648834139108658,0.020184576511383057,0.013538413681089878,-0.06040694937109947,-0.0346529521048069,0.07760071009397507,-0.0016027544625103474,-0.07043398916721344,-0.021327974274754524,0.04538421332836151,0.011629736050963402,-0.03660721704363823,0.02805284969508648,0.006398612167686224,0.0418357215821743,-0.07523304969072342,0.033425696194171906,-0.043288931250572205,0.032906293869018555,0.04350593313574791,0.029048874974250793,-0.017563121393322945,-0.010270773433148861,-0.032118916511535645,-0.014535007998347282,0.016103163361549377,-0.01949438452720642,-0.01207797508686781,-0.017389222979545593,-0.006583092734217644,0.00820250529795885,-0.015689978376030922,0.021688101813197136,-0.008716629818081856,-0.021339502185583115,-0.010605755262076855,-0.03810640797019005,0.0636090487241745,0.005109340883791447,-0.04811587929725647,-0.030847487971186638,0.0272287018597126,0.005628050770610571,0.005922791548073292,0.007838299497961998,0.029149407520890236,-0.05169059708714485,-0.0034465501084923744,0.03844200819730759,-0.06856024265289307,-0.039851222187280655,-0.020207636058330536,-0.049210287630558014,0.017663074657320976,0.07769226282835007,-0.029226524755358696,-0.02457628957927227,-0.01735188625752926,-0.1160002052783966,0.004566416144371033,-0.01039224211126566,-0.0036266299430280924,0.02618355304002762,-0.03915656730532646,-0.04435345157980919,0.06057935580611229,-0.05592978000640869,0.06592021882534027,0.02652757428586483,0.04269576445221901,-0.03294685110449791,-0.05812199413776398,0.028569210320711136,0.04401874542236328,-0.017661063000559807,-0.0008948729955591261,-0.0003186245448887348,-0.13184961676597595,0.00047481886576861143,-0.07362132519483566,0.011295625939965248,0.0027990855742245913,-0.047825463116168976,0.01395220123231411,-0.03978423774242401,0.047671880573034286,-0.028062405064702034,-0.09570440649986267,0.035128477960824966,0.003194486489519477,-0.0224437452852726,0.06473493576049805,0.04466470330953598,0.02768484503030777,-0.03187250345945358,0.010142602026462555,-0.0002060765982605517,0.045499224215745926,0.09560593217611313,-0.1061483770608902,-0.012454994954168797,-0.044671524316072464,-0.003118885215371847,-0.044050432741642,-0.0744893029332161,0.038473598659038544,-0.008042922243475914,-0.032120466232299805,-0.03127440810203552,-0.05936581641435623,-0.030055945739150047,0.02698768675327301,0.07656971365213394,-0.029406767338514328,0.010336278937757015,-0.009037063457071781,-0.03487543389201164,-0.05399381369352341,0.023829208686947823,-0.05033149570226669,0.009257863275706768,-0.10920512676239014,-0.010436308570206165,0.013015098869800568,0.04690956696867943,0.049719203263521194,0.029927505180239677,0.01021923590451479,0.0205990057438612,-0.030994949862360954,0.08070191740989685,-0.04061838984489441,-0.042068783193826675,0.030906446278095245,0.0102676497772336,-0.022941647097468376,-0.02251250483095646,-0.016442326828837395,-0.03463584557175636,0.011555529199540615,-0.09272308647632599,-0.007834332063794136,-0.06332504749298096,-0.022148968651890755,0.002740192925557494,0.01429656334221363,-0.014748100191354752,-0.05242898687720299,-0.08178400993347168,-0.03458140417933464,0.04872911423444748,0.027677789330482483,0.0245804563164711,-0.06758508831262589,0.006931793875992298,-0.08417392522096634,0.08252060413360596,-0.05267791822552681,-0.011856645345687866,0.027441417798399925,-0.010256958194077015,-0.03754870966076851,0.008938372135162354,0.03686194494366646,-0.04222738742828369,0.034857187420129776,0.03176230564713478,0.020607098937034607,0.01929900422692299,0.01609635166823864,-0.0030914682429283857,0.05429089069366455,0.060949742794036865,0.022105416283011436,-0.024492532014846802,-0.04291175678372383,0.02697950042784214,-0.04613296687602997,-0.0035554079804569483,0.027811063453555107,0.008271845988929272,-0.009523579850792885,0.054887596517801285,-0.020912181586027145,0.001108143711462617,-0.04086422920227051,0.034837208688259125,0.005451947450637817,-0.03932957723736763,0.013201555237174034,-0.0027949532959610224,0.006769894622266293,-0.01373051106929779,-0.10547955334186554,-0.05164146050810814,-0.03778621926903725,-0.0013907207176089287,0.06446818262338638,0.004788089543581009,-0.008138671517372131,-0.023095492273569107,-0.04102620854973793,-0.03924855962395668,-0.02367078885436058,-0.048008475452661514,-0.0637454241514206,0.008868088014423847,-0.04694691300392151,0.10927481949329376,-0.05135088041424751,0.04267329350113869,0.014334739185869694,-0.09463060647249222,0.03737697750329971,-0.026179000735282898,-0.006943750660866499,0.009423713199794292,0.015789536759257317,0.0117490254342556,-0.053868237882852554,-0.009346027858555317,-0.02353130280971527,-0.003109648125246167,-0.02624940499663353,-0.022910133004188538,0.04589196667075157,-0.10304110497236252,-0.03845680132508278,-0.050734326243400574,0.008041363209486008,-0.034394167363643646,-0.04667896404862404,-0.06883641332387924,0.03222498670220375,0.068946972489357,0.008970535360276699,-0.02210512012243271,-0.045208901166915894,0.015046630054712296,-0.13041234016418457,0.07515878975391388,0.002184119774028659,0.012203425168991089,0.032508738338947296,-0.029509946703910828,0.015150366351008415,-0.031145509332418442,-0.05387367308139801,0.00956761371344328,-0.022920016199350357,0.03908975422382355,-0.02802840806543827,-6.402264261851087e-05,-0.051179636269807816,-0.0660395398736,0.009001732803881168,0.026700664311647415,0.10266637057065964,-0.11711810529232025,-0.03311903029680252,0.03014414757490158,-0.059908974915742874,-0.03301836550235748,-0.004808227531611919,-0.027124132961034775,-0.025532212108373642,0.04335833713412285,-0.018803894519805908,-0.027012109756469727,-0.0030114497058093548,0.05656833201646805,0.016353456303477287,-0.004348663613200188,0.008733409456908703,0.10010617226362228,0.03464467078447342,0.01398397795855999,-0.012169921770691872,0.056595295667648315,-0.013757961802184582,-0.022101255133748055,-0.03503372147679329,-0.045178141444921494,0.0002841584791895002,-0.043931376188993454,0.011851223185658455,-0.0100495470687747,-0.017599139362573624,-0.06303765624761581,-0.044110413640737534,0.001958531327545643,-0.09033460915088654,0.07977548241615295,-0.009332165122032166,-0.053060565143823624,-0.02211301401257515,-0.069818876683712,-0.07274244725704193,0.01001508068293333,0.0004044247907586396,-0.10792507231235504,0.04905029386281967,0.0250405240803957,-0.01728094555437565,-0.002651451388373971,0.07774631679058075,-0.02532358653843403,-0.08094587177038193,0.05343650281429291,0.005221650004386902,-0.06112999469041824,0.005423438269644976,-0.02433750592172146,-0.033794205635786057,-0.03999127075076103,-0.024721404537558556,-0.07944691926240921,-0.04037889465689659,-0.061582837253808975,0.009896060451865196,0.019878312945365906,0.018142670392990112,0.04079883173108101,-0.010904614813625813,0.09296314418315887,-0.037667982280254364,-0.03528871387243271,-0.03033760003745556,-0.02473003789782524,-0.054546765983104706,0.005953632760792971,-0.023462587967514992,-0.028375759720802307,0.038390230387449265,0.023146523162722588,0.023579390719532967,-0.020337790250778198,-0.035729266703128815,0.022429214790463448,-0.0019497084431350231,-0.013980665244162083,0.03850673511624336,0.0035245034378021955,-0.005875122267752886,0.007568007800728083,-0.02619405835866928,-0.036719825118780136,-0.04346432536840439,-0.04105956107378006,-0.03135592117905617,0.006994086783379316,-0.004902823828160763,0.006538934540003538,-0.024262623861432076,-0.05754781514406204,0.03258315101265907,-0.050454992800951004,0.06912840902805328,-0.032319020479917526,0.00712230708450079,0.00375995016656816,-0.022854788228869438,-0.02678399533033371,-0.04527867212891579,-0.04196804761886597,0.02310064807534218,0.03454095870256424,-0.020783036947250366,-0.0545806847512722,-0.0003955534484703094,-0.004081917926669121,-0.05600067600607872,-0.0667501911520958,-0.03369380906224251,-0.01488875038921833,-0.001026538317091763,-0.03759511932730675,0.1334700733423233,-0.04828781262040138,-0.020878512412309647,-0.041961830109357834,-0.0011981460265815258,-0.024045387282967567,0.012028420343995094,0.009529013186693192,0.016408462077379227,0.11551878601312637,0.01823706179857254,-0.01786447875201702,0.025644565001130104,-0.03878350183367729,0.00981507170945406,-0.05387413501739502,-0.12620314955711365,0.022667482495307922,-0.012013143859803677,-0.043318409472703934,-0.07900158315896988,-0.0005664413329213858,-0.03435208275914192,0.04767835885286331,-0.022515181452035904,-0.04734846204519272,0.03475451469421387,-0.07595526427030563,-0.02055724896490574,0.08227786421775818,0.04397108405828476,-0.021066930145025253,0.03173966705799103,0.05224347487092018,-0.006232560146600008,-0.0499035120010376,0.01621730998158455,0.021976539865136147,-0.017930932343006134,-0.017422519624233246,-0.06343990564346313,0.03209301456809044,-0.03648868948221207,-0.01882019266486168,0.030854498967528343,0.04393363371491432,-0.06215234100818634,0.0488954558968544,-0.027049057185649872,0.016071828082203865,-0.021247144788503647,0.0036617175210267305,-0.013645201921463013,-0.012640085071325302,-0.04687010496854782,-0.026819856837391853,-0.009601307101547718,-0.03987116739153862,0.07525742799043655,0.006959257181733847,-0.059671010822057724,-0.009155871346592903,-0.02350149117410183,-0.010275039821863174,0.0020489776507019997,0.04854997619986534,0.03792041540145874,0.045079004019498825,0.02767319418489933,-0.016384532675147057,-0.02266739122569561,-0.029811397194862366,-0.1118301972746849,-0.07648822665214539,0.04109986871480942,-0.024052919819951057,0.07771600782871246,0.014043202623724937,0.08362849801778793,0.011624746955931187,0.04888279363512993,-0.008705448359251022,0.016644440591335297,-0.08206414431333542,-0.050374746322631836,0.0332706943154335,0.02081627957522869,-0.10664143413305283,0.01980787143111229,0.07736965268850327,0.005226218141615391,0.03681173175573349,-0.013526893220841885,-0.010649163275957108,-0.0016212768387049437,-0.009111599065363407,0.11376658827066422,0.038987308740615845,-0.034656524658203125,-0.0009436440304853022,-0.030237648636102676,0.04302727431058884,-0.0034286598674952984,-0.020702218636870384,-0.03864852711558342,0.02711489424109459,0.06776697933673859,0.05102074518799782,-0.008228196762502193,-0.03086353838443756,0.03175249695777893,-0.004898868501186371,0.05433990806341171,-0.03363845497369766,-0.01950141228735447,-0.04783688113093376,0.09677617996931076,-0.003589435014873743,0.0069804005324840546,-0.05688757076859474,0.0330549031496048,0.026213550940155983,-0.05728333070874214,-0.014387596398591995,-0.00937717966735363,0.035668376833200455,-0.005557396449148655,-0.0037001476157456636,0.003449643962085247,0.03346134349703789,-0.013928082771599293,0.00023690574744250625,0.034671712666749954,-0.02095063403248787,0.015950525179505348,-0.021015740931034088,-0.03305496647953987,-0.06726173311471939,0.007483154069632292,0.027911251410841942,0.061049576848745346,-0.00037643552059307694,-0.02423073537647724,-0.01183884497731924,-0.055800676345825195,-0.020256228744983673,-0.019462397322058678,-0.006999565288424492,-0.008394445292651653,-0.0006125958170741796,0.00447928486391902,0.018868301063776016,-0.02770511992275715,-0.03279745206236839,-0.014464307576417923,0.021543318405747414,0.010665028356015682,0.0004972390015609562,0.01900513656437397,0.01654854044318199,-0.01266159676015377,-0.003571224631741643,-0.010625855065882206,0.01410843338817358,-0.02928284741938114,-0.028021080419421196,0.00021635735174641013,0.023052742704749107,-0.024960195645689964,-0.03755595535039902,-0.014117536135017872,-0.03583574295043945,-0.009308000095188618,0.007643907330930233,0.0036270900163799524,0.02734934538602829,0.031815581023693085,0.00492844358086586,0.009736686944961548,0.035830073058605194,0.0199274942278862,-0.029752830043435097,-0.0221968125551939,0.005662698298692703,0.0012012756196781993,-0.039029136300086975,0.008388039655983448,0.03915342688560486,-0.017932305112481117,-0.013221675530076027,0.02143981121480465,0.030354483053088188,-0.009937192313373089,-0.01678895205259323,0.039807580411434174,0.0038503543473780155,-0.016354631632566452,0.015865478664636612,0.015801040455698967,0.010771107859909534,-0.016435658559203148,-0.012999210506677628,0.016678061336278915,-0.0037901776377111673,0.004999137949198484,0.0013758590212091804,0.03841015696525574,0.03198802471160889,0.020141128450632095,-0.019727734848856926,-0.004815359599888325,-0.021635975688695908,-0.016256418079137802,-0.030930589884519577,0.0186481773853302,0.02689596265554428,0.02671726420521736,0.01643301732838154,0.0100394356995821,-0.03567987307906151,0.027373934164643288,-0.021696152165532112,-0.006543773226439953,-0.021428288891911507,0.02216193452477455,0.0004959816578775644,-0.0020433259196579456,-0.029369760304689407,0.006885793060064316,-0.0023986403830349445,0.0006820136914029717,0.019028831273317337,-0.009343108162283897,-0.027057847008109093,0.001104941708035767,-0.0014827516861259937,-0.016516180709004402,-0.03637853264808655,0.02083306945860386,0.033050693571567535,0.00850957166403532,-0.03519240394234657,-0.0097286906093359,-0.034175511449575424,-0.02817600779235363,-0.030629673972725868,0.02057507447898388,-0.02275865338742733,-0.015083249658346176,-0.025625089183449745,-0.01646299660205841,0.008681644685566425,0.008962804451584816,0.011706209741532803,-0.04162653908133507,-0.03376905247569084,-0.023844538256525993,-0.014959360472857952,0.0422746017575264,-0.0040181889198720455,-0.031300634145736694,0.004100041929632425,0.008818876929581165,0.0015920817386358976,-0.021536076441407204,0.032027509063482285,0.029114913195371628,0.006555579602718353,0.013158287853002548,0.01411484181880951,0.03486884385347366,-0.023418733850121498,0.014408602379262447,0.0010354697005823255,-0.03161388263106346,-0.011649619787931442,0.0037507619708776474,-0.025546174496412277,0.00862427894026041,-0.013848941773176193,-0.0027805352583527565,-0.009645774029195309,-0.02629794180393219,0.0034812132362276316,0.011331925168633461,0.01980087347328663,0.03348849341273308,-0.023994937539100647,-0.014254434034228325,-0.027810916304588318,0.016394270583987236,-0.012055356055498123,-0.017663387581706047,0.033117808401584625,0.005933188367635012,-0.0328495092689991,0.0337526872754097,0.020969301462173462,0.02358783408999443,-0.04678395017981529,-0.03951127827167511,0.023575713858008385,-0.014050163328647614,-0.03279491513967514,0.0025666553992778063,-0.004410002380609512,0.0315682590007782,-0.0007916369359008968,-0.04028170183300972,0.019729532301425934,0.004746442660689354,-0.011705268174409866,-0.024304378777742386,-0.017152877524495125,-0.02638336271047592,-0.022011304274201393,-0.02568894252181053,-0.023704243823885918,0.008311247453093529,-0.02405027113854885,0.037796586751937866,0.005557824391871691,0.0006963631603866816,-0.023730149492621422,0.016009772196412086,0.023322733119130135,0.01477961428463459,0.04720764234662056,0.023432498797774315,0.011202367953956127,-0.011757861822843552,-0.024586454033851624,-0.020739680156111717,0.008075602352619171,-0.013946172781288624,-0.040281184017658234,-0.037092939019203186,0.014526285231113434,0.005422229412943125,-0.010919449850916862,-0.012741809710860252,-0.026146549731492996,0.03458596020936966,-0.01862926408648491,-0.024773038923740387,6.253492028918117e-05,0.016410160809755325,-0.02338068000972271,0.029332870617508888,0.014773599803447723,0.034936390817165375,0.0023998201359063387,-0.030931076034903526,0.03776294365525246,-0.007252109702676535,-0.006687122397124767,-0.015363668091595173,-0.026258153840899467,0.010132869705557823,-0.0035658718552440405,-0.0009054525289684534,0.024020399898290634,-0.020371856167912483,-0.01654275320470333,0.021649416536092758,-0.029244454577565193,0.01110015157610178,-0.028427481651306152,0.03350401297211647,-0.025831691920757294,-0.003654849249869585,0.019243547692894936,-0.026963302865624428,-0.02077382057905197,0.00764692947268486,0.01848607510328293,-0.005189056508243084,0.0027819599490612745,-0.012487674131989479,-0.012905004434287548,0.006093298085033894,0.03331523388624191,0.013707512058317661,-0.01279315073043108,-0.000921502010896802,-0.0025109644047915936,0.021146077662706375,-0.018535567447543144,-0.01709969900548458,0.0023733798880130053,0.007273333612829447,-0.005470975302159786,0.011737928725779057,-0.006926461588591337,0.0048193978145718575,0.020490216091275215,0.005442707799375057,-0.013555703684687614,-0.019750358536839485,0.008463338017463684,-0.014271993190050125,-0.010561575181782246,-0.0027059982530772686,0.00013388754450716078,-0.029306961223483086,-0.026577677577733994,-0.00686029065400362,-0.030886592343449593,-0.037777479737997055,0.032382335513830185,0.01831444352865219,0.004801935516297817,0.00892491266131401,0.046616703271865845,0.0170741006731987,-0.033097028732299805,-0.013643654063344002,-0.01802314631640911,0.0007833240088075399,-0.033456698060035706,-0.014343197457492352,0.03551220893859863,0.017042700201272964,-0.027576344087719917,0.046033311635255814,-0.012446562759578228,0.006414853502064943,0.022168055176734924,-0.013952764682471752,0.009693479165434837,0.002587397349998355,-0.0029448873829096556,0.034861404448747635,0.020219357684254646,-0.01359384786337614,-0.03471527621150017,-0.022417884320020676,-0.001118347398005426,0.009011276997625828,0.005501026287674904,0.012675398960709572,0.02857244946062565,0.005147213581949472,0.03207363933324814,0.016271395608782768,-0.01044386625289917,0.01747898943722248,0.011023754253983498,0.011409261263906956,0.008371077477931976,-0.03065314143896103,0.015443630516529083,-0.016701845452189445,0.016727689653635025,-0.01658032089471817,0.011606648564338684,0.0012168481480330229,-0.039872076362371445,0.016064388677477837,0.048607468605041504,-0.01234864816069603,0.03519914299249649,0.0037439113948494196,-0.02918303944170475,-0.02574199065566063,0.026331886649131775,0.011949161067605019,-0.04151437431573868,0.004909161012619734,0.027629252523183823,-0.017858898267149925,-0.012905082665383816,0.03662308678030968,0.009701874107122421,-0.027513114735484123,0.022237418219447136,-0.01425850484520197,0.006870991550385952,0.03803401067852974,-0.0030581578612327576,0.0014761906350031495,0.0029202690348029137,0.012536718510091305,-0.027472464367747307,-0.01482759602367878,0.037944551557302475,0.007863909937441349,-0.01077965460717678,-0.04663649946451187,-0.028654063120484352,0.01825830154120922,0.009507163427770138,0.01189073920249939,0.014594082720577717,-0.036686383187770844,0.0019436116563156247,-0.029641330242156982,0.016609277576208115,0.0015747130382806063,0.03034655749797821,0.04862483963370323,0.004426490515470505,-0.015916891396045685,-0.040084321051836014,-0.026572396978735924,-0.02579771913588047,-0.018815582618117332,0.010960780084133148,0.02712131291627884,-0.043966297060251236,0.010202779434621334,0.0074324714951217175,-0.011599043384194374,-0.02976215071976185,0.010263406671583652,0.03192175552248955,0.010146419517695904,-0.00387720949947834,0.016238117590546608,0.0028460484463721514,-0.035148411989212036,0.02089427411556244,0.005265075247734785,-0.03890359774231911,-0.0257754847407341,-0.022285180166363716,0.037270110100507736,-0.04340340569615364,-0.027261313050985336,-0.025867369025945663,-0.024215299636125565,0.009959870018064976,0.005754454061388969,-0.01741163246333599,-0.008791767992079258,-0.035270433872938156,0.03499326482415199,-0.017656506970524788,0.008967540226876736,0.03218720853328705,-0.038657139986753464,-0.044592566788196564,0.002026667818427086,0.025001900270581245,0.037696585059165955,0.013749837875366211,0.0023178188130259514,-0.03326589614152908,-0.015762101858854294,-0.024728059768676758,0.023459257557988167,-0.026446469128131866,0.004366680514067411,-0.017369503155350685,-0.03279349207878113,0.007634796667844057,0.013938878662884235,-0.005771420896053314,-0.02281818352639675,0.0014623163733631372,0.046494804322719574,-0.03260435163974762,-0.003635846311226487,0.005003893282264471,0.030619235709309578,0.0021313366014510393,-0.01847316138446331,-0.0039293197914958,-0.013002581894397736,-0.012781399302184582,-0.03712385520339012,-0.02678494341671467,-0.030763013288378716,-0.018502386286854744,0.018269041553139687,-0.009991778060793877,-0.013552150689065456,0.03212859854102135,0.00014424475375562906,0.027482859790325165,0.03645322099328041,-0.020099008455872536,-0.03474368155002594,0.03469032049179077,0.022937919944524765,0.015061517246067524,-0.036119695752859116,-0.014026588760316372,-0.03048812597990036,0.019279617816209793,-0.0020263842307031155,-0.006856011226773262,0.029668599367141724,-0.005506664980202913,-0.00097807333804667,0.00990221742540598,0.013866434805095196,0.026612265035510063,0.026584040373563766,-0.022563433274626732,-0.015173431485891342,-0.01976843737065792,-0.002995667513459921,-0.0199339147657156,-0.007908140309154987,-0.0002519685076549649,-0.016653621569275856,0.016927378252148628,-0.021741174161434174,-0.030194366350769997,0.00407782755792141,0.03279509395360947,-0.000545069866348058,0.010966996662318707,-0.007246673572808504,0.018089236691594124,0.008452039211988449,0.016134241595864296,0.00580985564738512,0.014571376144886017,0.01607721485197544,-0.006426551379263401,0.030321625992655754,-0.01342580746859312,0.022411003708839417,0.016476990655064583,-0.025260699912905693,-0.006312449928373098,-0.05612405389547348,0.035402730107307434,0.027754463255405426,0.014650519005954266,-0.010939998552203178,0.02173115871846676,0.025539705529808998,-0.011038470081984997,0.005653461907058954,0.03621901944279671,-0.025233440101146698,0.021227391436696053,0.010732263326644897,-0.017175516113638878,0.004712882451713085,0.016826050356030464,0.013585767708718777,0.03612607717514038,-0.016198351979255676,-0.0022719406988471746,0.0037120599299669266,-0.02573404274880886,-0.008999836631119251,-0.0070381248369812965,-0.032327353954315186,0.001148216426372528,0.023258112370967865,-0.013402992859482765,-0.032404445111751556,-0.03251928091049194,-0.000702525139786303,0.028408486396074295,0.03557649627327919,0.005350926890969276,0.013585985638201237,-0.03881431370973587,-0.011010119691491127,0.005804298911243677,-0.02356753684580326,0.005492727737873793,-0.027068184688687325,0.018830478191375732,0.02447490021586418,0.002247877884656191,-0.03268488869071007,-0.023482389748096466,0.019668487831950188,0.035990260541439056,0.001977657899260521,0.0027461485005915165,0.009296119213104248,0.02740934118628502,-0.003727927803993225,-0.015344412066042423,-0.008243928663432598,-0.004615444224327803,-0.015722030773758888,-0.015307274647057056,0.033135510981082916,0.010760962963104248,-0.013118148781359196,0.0021819069515913725,-0.029189376160502434,-0.002576698549091816,-0.03511945530772209,-0.0012899672146886587,-0.021985940635204315,-0.007755514234304428,0.015087004750967026,0.015017210505902767,0.025624556466937065,-0.0005313334404490888,-0.02380204014480114,0.009666990488767624,-0.007313658017665148,-0.023146629333496094,-0.03013438731431961,0.039267852902412415,0.022774087265133858,-0.0015511050587520003,0.024198343977332115,0.023857368156313896,-0.010293127037584782,0.025926416739821434,0.029856203123927116,-0.01154718641191721,0.0071121822111308575,-0.027626708149909973,0.024223878979682922,0.013051889836788177,-0.026036018505692482,0.015604797750711441,-0.023363390937447548,-0.022849978879094124,0.024253366515040398,-0.03865674510598183,0.01736452616751194,0.002761891344562173,-0.015528383664786816,-0.019727088510990143,0.03866902366280556,-0.009280814789235592,0.005250316578894854,-0.0035462528467178345,-0.032588716596364975,-0.022397251799702644,-0.014919750392436981,0.003553524613380432,-0.028865059837698936,0.009321802295744419,0.026032811030745506,-0.0033680261112749577,-0.03249946981668472,-0.001035090652294457,0.028002901002764702,0.008469508960843086,0.02269895002245903,0.015914490446448326,-0.015335701406002045,0.02458330988883972,0.01826227456331253,-0.0012354309437796474,-0.037403978407382965,0.0088515505194664,-0.034401897341012955,0.0006505268393084407,-0.012672007083892822,0.004498238209635019,0.042134836316108704,-0.016100386157631874,0.021543091163039207,0.01709066517651081,0.028263511136174202,0.04393131658434868,-0.005341218784451485,-0.014569463208317757,0.02005823515355587,-0.02519627846777439,-0.017523804679512978,-0.019499270245432854,0.011666848324239254,0.01553624402731657,-0.009702309034764767,-0.0341205932199955,-0.005503504071384668,-0.04051203280687332,0.030279727652668953,0.03821352869272232,0.005150186363607645,-0.025353703647851944,0.016100192442536354,-0.006637325510382652,-0.025556465610861778,-0.012555170804262161,0.0010632869089022279,0.02536185272037983,0.0003538551682140678,-0.030602267012000084,-0.03237414360046387,0.014733110554516315,0.004985096864402294,0.022991737350821495,-0.013832461088895798,0.010930530726909637,0.02841094881296158,-0.02750832960009575,-0.015326907858252525,-0.03446760028600693,-0.010563773103058338,0.020466381683945656,-0.020830051973462105,0.020322812721133232,-0.005441849585622549,-0.00034373096423223615,0.00026287222863174975,-0.011718500405550003,-0.02208739146590233,0.002826381241902709,-0.009482099674642086,-0.018291400745511055,-0.032058410346508026,0.0037438487634062767,-0.0022703269496560097,0.019364187493920326,-0.02395767532289028,0.009930839762091637,0.0039530484937131405,0.018983015790581703,-0.003803240368142724,-0.006007705349475145,-0.00843464583158493,-0.0018275666516274214,0.03511069715023041,-0.028125284239649773,0.0128768440335989,0.039544727653265,0.0368768684566021,-0.017104189842939377,0.02638409473001957,0.023044360801577568,0.00405026925727725,0.03708041459321976,-0.004924101755023003,-0.01730230636894703,0.015221535228192806,-0.018863217905163765,-0.006415707990527153,-0.0035415354650467634,-0.00032974101486615837,0.0005714497528970242,-0.016136856749653816,-0.03802186995744705,0.009916195645928383,0.019279856234788895,0.018722450360655785,0.004784252494573593,0.006145942956209183,0.024558819830417633,0.02378304861485958,-0.02051766961812973,-0.03585154190659523,0.001049137208610773,0.0023617707192897797,-0.015182148665189743,-0.03383591026067734,-0.024853521957993507,0.02748280018568039,0.020293401554226875,-0.009054850786924362,-0.035557303577661514,0.0032970402389764786,-0.018932482227683067,-0.007586653344333172,-0.02030245214700699,-0.02729751169681549,-0.00553810503333807,-0.006174555979669094,0.006603824440389872,-0.029711229726672173,-0.0066743032075464725,0.00982140563428402,0.02699258178472519,0.025648200884461403,-0.035334713757038116,-0.0012575066648423672,-0.00234757037833333,-0.005123727023601532,-0.0008523762808181345,0.015440050512552261,-0.0319792814552784,-0.0073697250336408615,0.03863142430782318,-0.03698963299393654,0.03917587175965309,0.034205060452222824,-0.01337612047791481,-0.0264010950922966,0.0005645994679071009,0.024071330204606056,-0.02184547483921051,-0.01755383051931858,-0.010223926045000553,-0.027590133249759674,-0.0031321949791163206,-0.026770232245326042,-0.0053655714727938175,0.00782761164009571,-0.009801576845347881,0.013115502893924713,0.013256620615720749,-0.009586147964000702,-0.004602536093443632,0.0035118390806019306,0.012904001399874687,-0.019714713096618652,-0.019301963970065117,-0.034450750797986984,-0.04316091164946556,0.031009534373879433,-0.019413424655795097,-0.0020143515430390835,0.012062056921422482,0.010912621393799782,0.03593665361404419,-0.033475883305072784,0.02702302858233452,-0.026713229715824127,0.024772942066192627,0.019904745742678642,-0.010204830206930637,-0.004412624053657055,-0.0216261874884367,-0.017058221623301506,-0.006424477323889732,-0.022954881191253662,0.04128217697143555,-0.0007260336424224079,-0.004001623950898647,-0.004197758622467518,0.033633649349212646,0.006542279850691557,-0.0235077366232872,-0.027692584320902824,0.02154567465186119,0.025438010692596436,0.032576657831668854,-0.011865620501339436,0.005444533657282591,-0.030988391488790512,-0.04383118450641632,0.0008983191219158471,0.02955302968621254,-0.0225504282861948,0.020443569868803024,0.006023723632097244,0.00472089322283864,-0.005398167762905359,-0.011084848083555698,0.027027685195207596,-0.018217185512185097,0.009446727111935616,-0.0021807679440826178,-0.03365916758775711,0.03664375841617584,-0.06492477655410767,0.03319235146045685,-0.02103576250374317,-0.020497942343354225,-0.028896700590848923,-0.008859293535351753,-0.01297072134912014,-0.024501044303178787,0.05460551753640175,0.028887799009680748,-0.01247241348028183,-0.00796803180128336,-0.05144067853689194,-0.011817212216556072,-0.010748166590929031,0.05377357453107834,-0.035782694816589355,-0.01750802807509899,-0.03966977074742317,-0.01145792193710804,-0.028821291401982307,-0.016539646312594414,0.02371317334473133,-0.05649344250559807,0.024217849597334862,-0.042376503348350525,0.018655788153409958,-0.04043927788734436,-0.0793357789516449,-0.046371303498744965,0.027708610519766808,0.01476912759244442,0.06236504390835762,-0.002207494806498289,0.015538379549980164,0.07932887971401215,-0.0542098730802536,-0.029849449172616005,0.032931823283433914,0.01676679216325283,0.02764570526778698,0.0029172596987336874,0.02280001901090145,0.003623598488047719,0.012814978137612343,-0.025685282424092293,0.0028962702490389347,0.01930219866335392,0.02649368718266487,-0.009479331783950329,-0.050632722675800323,0.009092127904295921,-0.039461176842451096,0.020853085443377495,0.0021795802749693394,-0.021137651056051254,-0.029000692069530487,-0.009223969653248787,0.01141316257417202,-0.013593284413218498,-0.011943395249545574,0.010292557999491692,0.052915286272764206,-0.003171580145135522,-0.029909474775195122,0.021034827455878258,0.0043434384278953075,-0.059945691376924515,-0.03578969091176987,-0.06525012850761414,0.08180700242519379,-0.016057511791586876,0.014717891812324524,-0.03296416252851486,0.01211042981594801,-0.03922019526362419,-0.029565325006842613,-0.04150541126728058,0.009928897954523563,-0.008307610638439655,0.005372823216021061,-0.03464686498045921,-0.01357619371265173,-0.034502193331718445,-0.013335191644728184,0.04592791572213173,-0.011242563836276531,-0.01684674061834812,-0.09297680854797363,-0.018634187057614326,0.0016724603483453393,-0.059956930577754974,-0.02185332030057907,0.01989641971886158,-0.05394613742828369,0.059156496077775955,0.021031217649579048,-0.029255418106913567,-0.037547074258327484,0.01869693212211132,-0.004894327837973833,-0.0469241701066494,-0.029627270996570587,-0.021839654073119164,0.037760715931653976,-0.0574592724442482,0.041667625308036804,0.03317506983876228,0.0011519868858158588,-0.018132369965314865,0.020862599834799767,0.022181576117873192,-0.022566277533769608,0.02958945371210575,0.003460709238424897,-0.06232510879635811,-0.019637158140540123,0.0058961594477295876,0.08077208697795868,0.0007316500414162874,-0.034226927906274796,0.02115090936422348,0.021725283935666084,0.03419873118400574,-0.07547245174646378,0.005097148474305868,0.013417530804872513,-0.033571843057870865,0.0016869993414729834,0.009151081554591656,-0.0012742289109155536,0.06359949707984924,-0.04154251515865326,0.029207846149802208,0.0016586314886808395,0.005985997151583433,0.03159603849053383,-0.04431825503706932,-0.026749132201075554,0.023456988856196404,-0.014409239403903484,-0.021795259788632393,0.02423010766506195,0.03605103865265846,0.056930821388959885,0.022317303344607353,0.006013997830450535,0.0673062726855278,-0.012396402657032013,0.0017902507679536939,-0.02874789759516716,-0.0180036723613739,-0.037106797099113464,0.033652856945991516,-0.0047850520350039005,0.004680074751377106,-0.0539911612868309,0.050907835364341736,0.0044134389609098434,-0.054738786071538925,-0.06058567017316818,0.03006918914616108,-0.0007964340620674193,-0.10032834857702255,-0.006488829385489225,0.04221199452877045,-0.06549762934446335,-0.01881309412419796,0.027154909446835518,0.09165804833173752,-0.018174603581428528,0.008356460370123386,0.023416053503751755,0.02198026329278946,0.003238522680476308,-0.008908919058740139,-0.01588526740670204,-0.042221471667289734,0.012116359546780586,0.017989927902817726,0.0036306711845099926,-0.009193762205541134,-0.04029177874326706,0.011497948318719864,-0.018708432093262672,-0.01286998949944973,0.0003151806886307895,0.06690428406000137,-0.04518498480319977,0.016689196228981018,0.07526032626628876,-0.04820585623383522,-0.033326953649520874,-0.0072695487178862095,-0.010840042494237423,0.06794999539852142,0.0015446905745193362,0.06673749536275864,-0.00277465907856822,0.027404097840189934,-0.04922078177332878,0.05639016255736351,0.015159178525209427,0.047486498951911926,0.010557452216744423,0.08971195667982101,-0.003235146403312683,0.0034942287020385265,0.025631245225667953,-0.09359157085418701,-0.027501484379172325,-0.012146800756454468,0.02138485014438629,0.03196525201201439,-0.060347024351358414,0.062194038182497025,0.06993845850229263,0.042527008801698685,-0.01878173090517521,-0.009107147343456745,-0.06262373924255371,-0.015819601714611053,-0.018004318699240685,-0.037667885422706604,-0.018354782834649086,-0.0032067636493593454,-0.031888220459222794,-0.00032899598591029644,-0.0169217586517334,-0.022679390385746956,-0.031614597886800766,0.00010742586164269596,-0.04008450731635094,0.0075021847151219845,0.006005095783621073,0.03857269138097763,0.012764501385390759,0.039768069982528687,0.0029539321549236774,-0.009454863145947456,0.055679526180028915,-0.013506856746971607,-0.0467151440680027,0.0073635270819067955,-0.1010826900601387,0.005486557260155678,-0.05078615993261337,-0.03361574932932854,-0.04296503961086273,-0.020948953926563263,0.0560406856238842,-0.005223170854151249,0.010448734275996685,0.011315467767417431,0.009282568469643593,-0.006887604016810656,-0.07220114022493362,-0.0003177065518684685,5.205129127716646e-06,-0.02479526400566101,-0.006286801770329475,-0.027649065479636192,-0.07994130998849869,-0.040921900421381,0.012871269136667252,0.07072519510984421,-0.05759555846452713,-0.010221685282886028,-0.058243781328201294,0.030903659760951996,-0.020091844722628593,0.009614348411560059,-0.059425175189971924,0.024747300893068314,0.0012541210744529963,-0.02881011553108692,-0.02997685968875885,-0.05976283922791481,-0.03367900103330612,0.015028993599116802,0.05596164986491203,0.021491097286343575,-0.03619194030761719,0.007324909791350365,0.06837691366672516,0.030073177069425583,0.01771826110780239,0.044866062700748444,-0.005053558386862278,0.0715569406747818,0.011337924748659134,-0.0002162113960366696,-0.061979733407497406,-0.07034837454557419,0.005956134293228388,0.022114699706435204,0.049566928297281265,-0.03459068760275841,-0.01635170727968216,-0.06060791015625,0.01806982047855854,0.022994769737124443,0.004177694208920002,-0.0031365409959107637,-0.006997858174145222,-0.04388593137264252,0.0037970803678035736,0.0348275825381279,0.010034659877419472,-0.005523973610252142,0.07385332137346268,-0.08687534928321838,0.05545424297451973,0.0092409523203969,-0.03242989629507065,0.022270821034908295,-0.051892105489969254,-0.035296835005283356,-0.04513261467218399,-0.0488213412463665,0.02023794688284397,-0.04501279816031456,0.006391812115907669,0.007323830388486385,0.02889641560614109,-0.007787536364048719,0.03224509209394455,0.039623260498046875,-0.04633871838450432,0.06356756389141083,0.021192962303757668,-0.045144516974687576,0.025951357558369637,-0.017611023038625717,0.035741232335567474,0.022707564756274223,-0.03575602173805237,-0.0018176506273448467,-0.06041300296783447,0.03863845393061638,-0.002207906451076269,0.006772934924811125,0.013309631496667862,0.03763487562537193,0.07005304098129272,-0.0359288714826107,-0.032045602798461914,0.026408908888697624,-0.026292426511645317,0.0079094422981143,0.039267100393772125,0.014108283445239067,0.04674839228391647,-0.054961204528808594,-0.04341350123286247,-0.026109475642442703,-0.02818414382636547,0.005113003775477409,0.010574438609182835,0.0016072028083726764,-0.017571358010172844,0.024344777688384056,-0.04128628969192505,-0.022162752225995064,-0.01763453520834446,-0.017844634130597115,-0.0371638685464859,0.03160518780350685,-0.04185056313872337,-0.03896870091557503,-0.060459401458501816,-0.07607129961252213,0.041163936257362366,0.01091453991830349,0.031717684119939804,0.07452571392059326,-0.010188010521233082,-0.03578675165772438,-0.038489747792482376,0.012261506170034409,0.028840234503149986,-0.009891633875668049,-0.0046495781280100346,0.055094484239816666,0.03483673185110092,-0.0025144864339381456,0.012638167478144169,-0.006419111974537373,-0.01213707122951746,0.029502203688025475,-0.012954451143741608,0.029320722445845604,-0.050183653831481934,-0.028178857639431953,0.02197660505771637,-0.04962994158267975,0.010640974156558514,0.08344250917434692,-0.036459553986787796,-0.03885526955127716,0.03159528970718384,0.07894841581583023,-0.0759221687912941,0.010598525404930115,-0.023068483918905258,0.0007388495723716915,-0.07066451758146286,-0.04885299876332283,0.03510775417089462,0.03146104887127876,0.03826918825507164,-0.10011308640241623,0.01971440762281418,-0.010584219358861446,-0.02445245534181595,-0.06613373011350632,0.024108389392495155,-0.01597808487713337,0.0064543928019702435,-0.015405816026031971,-0.052121687680482864,-0.00046437891433015466,-0.010516693815588951,0.02370736561715603,-0.027578694745898247,0.010698573663830757,0.03178035840392113,-0.02913922443985939,0.028493622317910194,0.026426594704389572,-0.02720506675541401,-0.025336310267448425,-0.057615555822849274,0.018189823254942894,-0.1062152236700058,0.021784910932183266,0.009103657677769661,-0.05214843526482582,-0.05078573524951935,-0.07048015296459198,-0.004929408431053162,0.020194251090288162,-0.02629399485886097,-0.041024114936590195,0.006846610922366381,-0.004537379369139671,0.02812456712126732,-0.03993827477097511,0.005263004917651415,0.05944203957915306,-0.01135372743010521,-0.010829385370016098,0.02095596119761467,-0.04781891405582428,-0.04148489609360695,-0.00874666403979063,0.04827430471777916,-0.05726191774010658,0.016422810032963753,-0.05870920419692993,-0.023705312982201576,0.002869060728698969,0.0037817477714270353,-0.00630529597401619,-0.011018597520887852,-0.02884371019899845,0.04686766490340233,-0.03713884949684143,0.09761850535869598,0.001052594161592424,0.0021758652292191982,0.07340508699417114,0.02931085415184498,-0.011407587677240372,0.02746204473078251,0.07555696368217468,-0.047541141510009766,0.013197455555200577,0.009701281785964966,0.12133541703224182,0.02648996002972126,-0.037781376391649246,0.011788468807935715,0.04700624197721481,-0.03171585872769356,0.03552800789475441,-0.06807608902454376,0.0064537846483290195,-0.04965788125991821,-0.028211958706378937,0.010363942943513393,0.008281532675027847,-0.03946133702993393,-0.01594936102628708,0.00208248826675117,-0.039996884763240814,-0.007804288994520903,0.0001733698882162571,0.05757901817560196,0.008033939637243748,0.007441203109920025,0.000442430202383548,0.03465796262025833,0.00449433084577322,0.02571740932762623,0.00291755935177207,-0.013275313191115856,0.009655898436903954,-0.008557274006307125,0.003004086669534445,-0.009401383809745312,0.0029897144995629787,0.06028449907898903,0.07025712728500366,-0.05074794590473175,0.06848792731761932,0.004936574026942253,-0.01305756438523531,0.010057799518108368,0.03173794224858284,0.006104905623942614,0.00867592915892601,-0.0424354188144207,0.011787239462137222,-0.047403156757354736,-0.012793638743460178,-0.020713405683636665,-0.08603041619062424,0.048437684774398804,-0.04474702104926109,0.019326139241456985,-0.013176682405173779,0.04307136312127113,-0.012761524878442287,-0.04917394369840622,-0.027691328898072243,0.07235945016145706,-0.040083833038806915,0.022414177656173706,-0.009665354155004025,0.003138946834951639,0.010283146053552628,-0.03850970417261124,-0.047538332641124725,-0.025364333763718605,-0.013634910807013512,-0.006692191120237112,0.025915442034602165,0.01892230659723282,0.013123597018420696,-0.005665011238306761,-0.008472495712339878,0.04167253151535988,0.03221522271633148,0.08317217975854874,0.018710818141698837,0.01032821461558342,0.029359688982367516,-0.015918703749775887,-0.0011613446986302733,0.07685236632823944,0.017337799072265625,0.031968072056770325,0.0005900785909034312,-0.013255296275019646,0.05920488387346268,-0.045446764677762985,0.08662218600511551,0.0594424344599247,-0.028249841183423996,-0.040132977068424225,-0.02379358932375908,-0.004189419560134411,-0.049744173884391785,0.018884003162384033,0.04736332967877388,0.07487422227859497,-0.007588445208966732,-0.0520453117787838,-0.03020099177956581,-0.03317444026470184,0.06499852240085602,-0.018109150230884552,0.0009039515862241387,-0.07891940325498581,-0.0021628530230373144,-0.017372023314237595,-0.008259815163910389,0.04213959351181984,-0.03252347186207771,-0.036303576081991196,-0.009463053196668625,-0.11516524851322174,0.0029885289259254932,0.046599168330430984,-0.028895197436213493,-0.1034565269947052,0.05489017441868782,0.07294288277626038,-0.012724896892905235,-0.06768551468849182,0.019694633781909943,-0.03097405657172203,-0.04651479795575142,0.03918100520968437,-0.010513680055737495,0.010688629001379013,0.12356794625520706,-0.030560210347175598,-0.03684770315885544,-0.024516526609659195,0.036573704332113266,-0.018107814714312553,0.008794305846095085,0.010353576391935349,-0.019224626943469048,0.025130899623036385,-0.021233491599559784,0.014705346897244453,0.010508694685995579,-0.028709905222058296,-0.07650846987962723,0.023899244144558907,-0.05156248062849045,-0.0717274397611618,-0.028473714366555214,0.046556781977415085,0.040515054017305374,0.023236416280269623,0.016917025670409203,-0.010026165284216404,0.06691405922174454,0.026498956605792046,0.021893993020057678,0.017402738332748413,0.012251999229192734,-0.054643403738737106,0.016197863966226578,-0.026328517124056816,0.03298983350396156,0.013470974750816822,0.055281635373830795,-0.027248216792941093,-0.0008808796992525458,0.02511337213218212,0.05897534638643265,0.014765924774110317,-0.030371570959687233,0.006488383281975985,0.014222515746951103,-0.05044042691588402,-0.022957487031817436,-0.016860857605934143,0.012707119807600975,-0.038453616201877594,-0.025647981092333794,-0.01002427376806736,-0.014198525808751583,0.04214722290635109,0.019428299739956856,0.05496450141072273,0.03633206710219383,-0.033559203147888184,-0.014163131825625896,-0.018131062388420105,0.009310686029493809,0.020673880353569984,0.02664685808122158,-0.06031234189867973,-0.0498245432972908,-0.008984632790088654,-0.018257947638630867,-0.01633000373840332,0.006939270533621311,-0.020134465768933296,0.027986571192741394,0.03626687452197075,0.025928406044840813,0.03947116807103157,0.03300070762634277,-0.001605974743142724,-0.02042168192565441,-0.010501222684979439,0.017972443252801895,-0.04374266788363457,0.019258905202150345,0.019366510212421417,-0.037815168499946594,-0.03988879546523094,-0.03535499423742294,0.03517681360244751,0.10870331525802612,-0.02700764685869217,0.027216888964176178,-0.01313147135078907,0.046292081475257874,0.0243698600679636,0.02054693177342415,0.014698727987706661,-0.002300848253071308,-0.07792612165212631,-0.044639959931373596,0.009059371426701546,0.005624095909297466,-0.04708407074213028,0.027396203950047493,-0.03861990198493004,-0.0014163654996082187,0.013043748214840889,-0.05975810065865517,0.06364915519952774,-0.03404974192380905,0.06603192538022995,-0.04505561292171478,0.004527410492300987,-0.0002093863149639219,0.05018095672130585,0.04454418271780014,0.03411528095602989,-0.010359684005379677,-0.09395190328359604,0.009763473644852638,0.0719340443611145,-0.006582866422832012,0.00042422174010425806,0.03426242992281914,0.005446618888527155,-0.06518037617206573,-0.0844859629869461,0.021737823262810707,0.03416276350617409,0.015279053710401058,-0.02237045206129551,0.008597685024142265,0.04402092471718788,-0.024715913459658623,-0.0632065013051033,0.021055439487099648,0.016756249591708183,-0.016640909016132355,0.018049782142043114,-0.06755779683589935,-0.06035414710640907,-0.015183730982244015,0.03408358618617058,-0.06502453982830048,0.014852210879325867,-0.016321860253810883,0.03384607285261154,-0.021478192880749702,0.030516693368554115,-0.021930204704403877,0.0457940511405468,0.044615596532821655,0.03630485385656357,0.01832682266831398,-0.04583931341767311,0.004709071014076471,0.014310651458799839,-0.09649746119976044,-0.03538784757256508,-0.01775285042822361,0.016474321484565735,0.06278713792562485,0.011094809509813786,0.01266337651759386,-0.04289086535573006,-0.027386387810111046,-0.012713663280010223,0.09899146854877472,-0.0365796759724617,0.032264865934848785,-0.0010474072769284248,-0.07283761352300644,0.021900590509176254,0.01763061434030533,0.05098669230937958,-0.014245173893868923,-0.0091496417298913,0.024837007746100426,0.050903405994176865,0.044813141226768494,-0.01729646883904934,0.025439485907554626,-0.01802048273384571,0.04488736763596535,-0.01913427747786045,0.04851282387971878,0.004487889353185892,0.04478234052658081,-0.00924241915345192,-0.024109678342938423,-0.05226100608706474,0.008071879856288433,0.00203972146846354,0.06463149189949036,0.04084939882159233,-0.04457133263349533,-0.01806468702852726,-0.07207439839839935,0.048334751278162,-0.02019006758928299,-0.01445874571800232,-0.11355040967464447,0.048122063279151917,-0.022171154618263245,-0.01663714088499546,-0.009320635348558426,-0.060037676244974136,0.0026517955120652914,-0.07213712483644485,-0.019403016194701195,0.027262624353170395,0.049678560346364975,-0.00988265872001648,0.009830078110098839,-0.0703732818365097,0.07110631465911865,-0.04407805949449539,-0.11041778326034546,0.023869626224040985,-0.05374382436275482,-0.02071976661682129,0.01926470920443535,0.00044173444621264935,-0.04711776226758957,-0.005877764895558357,0.07092723995447159,0.11840424686670303,0.04497183859348297,-0.011383199132978916,-0.08163858950138092,-0.02941301092505455,-0.07322998344898224,0.02375638298690319,0.04103527590632439,-0.021716013550758362,0.024188635870814323,0.029003318399190903,0.030546734109520912,-0.05379784479737282,-0.024751778692007065,-0.11476321518421173,0.042799197137355804,-0.012433827854692936,0.03379525989294052,-0.022384248673915863,0.05975131317973137,-0.04559731483459473,-0.13182328641414642,0.029955865815281868,0.07882668823003769,-0.002904173219576478,0.09166234731674194,0.06086890026926994,-0.015696831047534943,0.0033558232244104147,0.009253391064703465,-0.009567933157086372,0.054485026746988297,-0.0006765177240595222,-0.009538018144667149,-0.033515285700559616,-0.031904492527246475,-0.04503728821873665,-0.05277537554502487,-0.009399717673659325,-0.025226052850484848,-0.02092447131872177,0.053825534880161285,-0.0046071517281234264,-0.02430359087884426,-0.12316179275512695,-0.008361897431313992,-0.07035847753286362,-0.06506166607141495,-0.006169768515974283,0.16942757368087769,-0.007999437861144543,0.059125516563653946,0.03535265848040581,-0.1427762806415558,-0.08575596660375595,0.10904230177402496,0.04263501241803169,0.018937330693006516,-0.21298764646053314,0.171212837100029,0.09487682580947876,0.01256173849105835,0.005792138632386923,-0.018195178359746933,-0.13103128969669342,-0.028592348098754883,-0.037527818232774734,-0.08398871123790741,-0.07349040359258652,-0.1143881157040596,-0.027227383106946945,0.04723108559846878,-0.08551716059446335,0.004280666820704937,-0.011996051296591759,-0.0063657015562057495,-0.047010116279125214,0.06619291007518768,-0.009819858707487583,0.0006347300368361175,0.026312094181776047,0.0083320839330554,-0.03796682879328728,-0.021108772605657578,-0.031180275604128838,-0.0159344170242548,-0.08932377398014069,0.12390062212944031,-0.045372072607278824,0.04478021711111069,0.05097120627760887,0.02874436229467392,-0.08040431141853333,-0.04274865612387657,-0.008976503275334835,0.005328366998583078,0.1760934740304947,-0.03834133595228195,0.04843327775597572,0.04468389227986336,0.0028428006917238235,0.07204204797744751,-0.043517954647541046,0.12667082250118256,-0.07508085668087006,-0.08219517022371292,0.008702283725142479,-0.007763341534882784,-0.057703692466020584,0.019038306549191475,-0.0715317577123642,-0.006484521087259054,0.0016346476040780544,-0.018919123336672783,-0.03259088844060898,-0.051248468458652496,-0.04981379210948944,0.05996224284172058,0.05371649190783501,-0.13877397775650024,-0.082403264939785,0.010261209681630135,0.08959207683801651,-0.05098199471831322,0.17245353758335114,-0.065981924533844,-0.009770387783646584,0.033952970057725906,-0.150376096367836,0.044233161956071854,-0.0280296690762043,0.013533788733184338,0.004134682007133961,-0.028225667774677277,0.021755041554570198,-0.0038125221617519855,0.015107531100511551,-0.08896716684103012,-0.01666027307510376,0.02009151130914688,-0.047775059938430786,0.027780206874012947,-0.016024788841605186,0.02782483585178852,0.012549413368105888,-0.008059307001531124,-0.01649637520313263,-0.001986249815672636,0.012608655728399754,0.07502783834934235,0.050800178200006485,-0.032564397901296616,-0.002475271001458168,0.06436160951852798,-0.04783627390861511,0.034985609352588654,0.061986710876226425,0.006479312665760517,0.026039324700832367,-0.10161560773849487,0.10092273354530334,0.07342914491891861,-0.14910927414894104,-0.03355654701590538,-0.039840444922447205,0.09600994735956192,-0.05580475553870201,-0.05366033688187599,0.01662694290280342,-0.1681807041168213,-0.030916541814804077,0.018485751003026962,-0.04311440885066986,-0.026750868186354637,0.043724145740270615,-0.14560769498348236,0.015646586194634438,0.05264302343130112,-0.0044756499119102955,0.038730837404727936,0.055908285081386566,0.12092345952987671,-0.022190101444721222,6.217579357326031e-05,-0.05750160291790962,0.029071321710944176,0.052556537091732025,-0.04096714034676552,0.010196016170084476,0.017112677916884422,0.021181371062994003,0.018268445506691933,-0.10709068924188614,0.04096516966819763,-0.01182580180466175,0.13075299561023712,-0.028033999726176262,-0.04116126894950867,0.005469566211104393,0.11074350029230118,-0.024536456912755966,-0.1854066401720047,-0.011795473285019398,-0.017264457419514656,-0.029160253703594208,0.011619746685028076,-0.07035579532384872,-0.05550118535757065,-0.015526860021054745,-0.06092166155576706,0.060098759829998016,0.055841170251369476,-0.07534060627222061,0.005344336852431297,-0.18804700672626495,-0.028087612241506577,0.07678108662366867,0.007384586613625288,0.029211604967713356,-0.02660796046257019,0.055242836475372314,-0.0010236178059130907,2.8206733986735344e-05,-0.05001607909798622,-0.13276630640029907,-0.024400226771831512,0.16421227157115936,0.14070861041545868,-0.009188482537865639,-0.05474274978041649,0.03173895925283432,0.2481895089149475,0.03367292881011963,0.18073619902133942,-0.06333763897418976,0.01799403503537178,-0.04058573395013809,-0.002343157073482871,0.22472944855690002,-0.006866893265396357,0.026868635788559914,-0.043893374502658844,0.01197115145623684,-0.02292989008128643,0.11111194640398026,-0.10545162856578827,-0.0771062821149826,-0.005236723460257053,-0.0835498720407486,0.04462343081831932,0.07532059401273727,-0.060031790286302567,0.09694583714008331,0.0016077429754659534,-0.0012834970839321613,-0.043348588049411774,0.07366710156202316,-0.008778199553489685,0.10817612707614899,-0.05955715849995613,0.1295553296804428,0.06262051314115524,0.008913497440516949,0.03587263077497482,0.02840082161128521,-0.04329586774110794,0.09153727442026138,-0.014043298549950123,-0.05668172240257263,-0.17287160456180573,-0.07224036753177643,0.13234685361385345,-0.009249266237020493,-0.11882241070270538,-0.026287594810128212,0.01161140389740467,-0.07710375636816025,0.11213846504688263,0.0598883293569088,0.007995315827429295,-0.08478640019893646,-0.06851636618375778,-0.07551061362028122,-0.05899956822395325,-0.01753436028957367,0.009592078626155853,-0.02435237541794777,-0.006048453040421009,-0.0781254693865776,0.012626534327864647,0.00716997217386961,0.10080279409885406,0.024442963302135468,0.0664585754275322,0.0242668054997921,-0.05338191241025925,0.023109206929802895,0.04077838733792305,0.08189812302589417,-0.024492476135492325,-0.030116213485598564,0.01618127152323723,-0.004260890185832977,0.009784641675651073,0.006494230590760708,0.025551266968250275,-0.034530289471149445,0.05269164964556694,0.05967435985803604,-0.04855779930949211,-0.0356433130800724,-0.022360125556588173,0.04582144692540169,0.005820862948894501,-0.09674060344696045,-0.004362781066447496,-0.08721040934324265,0.02911638841032982,-0.02769996039569378,-0.033496081829071045,-0.00936149712651968,0.0407731756567955,-0.16472308337688446,-0.009699173271656036,-0.08783242851495743,0.05474279448390007,0.06254953145980835,-0.04858125001192093,-0.044547099620103836,0.05280296504497528,-0.04497992992401123,0.026484543457627296,-0.08031857758760452,0.04999947175383568,-0.00917873252183199,-0.03991491347551346,-0.06004168838262558,-0.03711391240358353,0.03031819686293602,-0.02200097031891346,-0.05292981490492821,-0.09315338730812073,0.125398188829422,0.04484793543815613,0.03013763390481472,-0.07121074199676514,0.03173596039414406,0.002121345605701208,-0.0661519467830658,0.07434853911399841,-0.04277932643890381,0.023715440183877945,0.04035458341240883,0.012998243793845177,-0.07251472771167755,0.06462825834751129,-0.0802285373210907,-0.09332732856273651,0.022900747135281563,-0.06952056288719177,0.07838954031467438,-0.002852149773389101,-0.06146010756492615,-0.0029499840456992388,0.028547881171107292,-0.008160393685102463,0.03465292975306511,-0.0447978712618351,0.032613035291433334,-0.10808531194925308,-0.003235084004700184,-0.053752999752759933,0.0907135084271431,-0.10562179982662201,-0.028480565175414085,-0.039621226489543915,0.0032342923805117607,-0.019492847844958305,0.03140043839812279,0.08357586711645126,-0.04809044301509857,-0.04231385141611099,0.04388409107923508,0.0034216546919196844,0.07292252033948898,-0.06821605563163757,-0.03546086326241493,0.06021547317504883,0.05035078153014183,0.05688844993710518,-0.03524840995669365,0.11347590386867523,-0.07109144330024719,0.016699904575943947,-0.059363141655921936,-0.009019508957862854,0.08183859288692474,-0.019930269569158554,0.10824582725763321,0.07752615958452225,0.04194904863834381,-0.06457685679197311,0.001217999728396535,-0.05503897741436958,0.019799526780843735,-0.0400516577064991,0.016402650624513626,0.04376671463251114,-0.16704361140727997,-0.012016634456813335,0.05580882355570793,-0.08232644945383072,-0.010331934317946434,-0.028701459988951683,0.04765744507312775,-0.04324856773018837,-0.023822801187634468,0.008160131052136421,-0.0033959837164729834,-0.04956452548503876,0.0923161581158638,-0.03649664297699928,-0.03810519725084305,0.023646291345357895,-0.013065344654023647,-0.035627275705337524,-0.027963383123278618,0.009668300859630108,-0.0871272161602974,0.05239274352788925,0.08457251638174057,0.14039990305900574,-0.023443561047315598,-0.07155745476484299,0.02997615747153759,-0.0798286646604538,0.0050288001075387,0.05195337533950806,-0.051755089312791824,-0.03958044573664665,-0.13052503764629364,-0.01700473763048649,-0.03502344340085983,-0.061120759695768356,-0.021528806537389755,-0.0715588852763176,0.017648346722126007,-0.09894676506519318,0.039287250488996506,-0.01690584607422352,-0.0529482364654541,-0.041606929153203964,-0.03939349204301834,0.08147469162940979,-0.029965108260512352,-0.052780501544475555,0.04738437011837959,0.05810261145234108,0.03644769266247749,-0.030491653829813004,0.002630963921546936,0.002089788904413581,0.014818095602095127,-0.05168208107352257,0.05565956234931946,-0.004319883417338133,0.000759473885409534,0.033547189086675644,-0.004029449541121721,-0.012163612060248852,-0.016832970082759857,-0.03354368358850479,0.011965836398303509,0.009996186010539532,-0.01598534546792507,-0.06945221871137619,-0.06348752230405807,0.017343325540423393,-0.019224882125854492,-0.005854318384081125,-0.04475750774145126,-0.005731628276407719,0.0792824998497963,0.09583808481693268,-0.046846844255924225,-0.020395619794726372,0.0027021337300539017,0.04398871585726738,-0.005069737788289785,0.1392722725868225,0.08908404409885406,-0.036332663148641586,0.014782815240323544,-0.036875542253255844,-0.10667954385280609,0.07798627763986588,-0.006827581208199263,-0.03346420079469681,-0.013461768627166748,-0.0708627924323082,-0.0807662159204483,-0.0397467166185379,0.10536456108093262,-0.04444600269198418,-0.0010816389694809914,0.0031535266898572445,-0.04567035287618637,-0.041115324944257736,-0.06633903086185455,0.04860307648777962,-0.053221650421619415,-0.03171943873167038,-0.06829627603292465,-0.050367794930934906,0.1362505406141281,0.014408967457711697,-0.047537751495838165,-0.019631365314126015,0.012976052239537239,0.08502723276615143,0.07761381566524506,0.07151518017053604,-0.022058524191379547,-0.020052297040820122,0.07905985414981842,-0.2003335803747177,-0.019846435636281967,0.11256337910890579,0.06449372321367264,-0.045915570110082626,-0.02629753388464451,-0.02031704969704151,-0.14013883471488953,-0.1050276979804039,0.09634436666965485,-0.07403936237096786,0.09252303838729858,0.022823534905910492,-0.0023545960430055857,0.014805136248469353,-0.13427700102329254,-0.015686897560954094,0.03241993486881256,-0.08496967703104019,-0.03941803425550461,-0.09406813234090805,0.05235420539975166,-0.002342156134545803,0.0571775957942009,-0.04411274939775467,-0.037924401462078094,0.13772611320018768,0.009988917037844658,0.1908436268568039,0.012759766541421413,-0.01925639808177948,0.06042998284101486,-0.08964157104492188,-0.035879794508218765,0.0502619594335556,0.008370163850486279,-0.02120262011885643,-0.0015356088988482952,-0.05512215942144394,-0.08751306682825089,-0.1558496356010437,0.059091903269290924,0.06095846742391586,-0.01483926735818386,-0.029147453606128693,-0.022352734580636024,0.022329911589622498,-0.011297336779534817,-0.040574293583631516,0.05820774286985397,-0.03304832801222801,0.08437202870845795,0.09041593223810196,-0.02062690630555153,-0.13478782773017883,0.0820242241024971,0.027246126905083656,-0.0324573814868927,-0.06182157248258591,-0.03603489696979523,-0.1011604592204094,0.015919974073767662,-0.009137357585132122,0.07300551980733871,0.0052985502406954765,0.022449271753430367,0.047253165394067764,-0.03580360859632492,0.09152886271476746,-0.03168293088674545,0.07667041569948196,-0.04745236039161682,0.15849323570728302,0.05120445787906647,0.09276822209358215,-0.159226655960083,0.0735054537653923,0.03360465168952942,0.021180668845772743,-0.0006305642309598625,0.015752354636788368,-0.00477893091738224,-0.09447726607322693,0.0074171326123178005,-0.024461690336465836,-0.001548263244330883,0.0014389967545866966,-0.057715967297554016,-0.012713850475847721,0.0435611829161644,0.0009988573146983981,0.053338322788476944,-0.09526360034942627,0.06568675488233566,0.0009157471940852702,-0.01234361995011568,-0.021286312490701675,0.018118420615792274,0.04941987618803978,-0.004437676630914211,0.069362573325634,0.0018772896146401763,0.10214239358901978,-0.0709301084280014,0.009018518961966038,-0.08308480679988861,-0.0594186894595623,-0.058660250157117844,-0.07959067076444626,0.03713876008987427,-0.1240743026137352,0.06886416673660278,-0.028084296733140945,-0.0001521885278634727,0.07334960997104645,-0.018967654556035995,-0.04641236364841461,-0.013578185811638832,-0.08857829868793488,-0.04422528296709061,-0.0027112055104225874,0.005414401181042194,0.05141712352633476,0.017167920246720314,0.0043415529653429985,0.02306157909333706,-0.0023361919447779655,0.06219468638300896,-0.0016129498835653067,0.04992445185780525,-0.008554773405194283,0.01643601432442665,0.11893416196107864,0.010645830072462559,0.07381568849086761,0.07792793214321136,0.20351798832416534,-0.007995258085429668,0.018223710358142853,0.008352545090019703,-0.04094569385051727,-0.0034784204326570034,-0.052208978682756424,0.05541684851050377,-0.0323016420006752,-0.026477757841348648,-0.04639740288257599,-0.002660652156919241,-0.10195094347000122,-0.003628009930253029,-0.057344093918800354,0.04904404282569885,0.04631883278489113,0.06865344941616058,-0.004909136798232794,-0.014172679744660854,-0.01929534785449505,0.07599213719367981,0.0003158988256473094,-0.07632804661989212,0.014765072613954544,0.06863436847925186,-0.044954363256692886,-0.10555139183998108,0.08697439730167389,-0.016303377225995064,0.03603106737136841,-0.11907295137643814,-0.11657463014125824,0.04526902362704277,0.007968110032379627,-0.02980172634124756,0.03125353530049324,0.07427151501178741,-0.019100908190011978,0.10537401586771011,0.01928587444126606,-0.022279392927885056,0.1585472971200943,0.04257165640592575,-0.0753747969865799,-0.00270021497271955,-0.048399899154901505,0.02955048345029354,0.04062001779675484,-0.026237791404128075,-0.011490830220282078,0.008781420066952705,-0.08204419165849686,0.08704622834920883,-0.02791457436978817,0.07080483436584473,-0.1278546303510666,0.027121692895889282,0.014013011939823627,-0.037493254989385605,0.029348300769925117,0.023926060646772385,0.08235187083482742,0.03452959656715393,0.137265145778656,0.05423664674162865,-0.09250868856906891,-0.06942823529243469,-0.0043726046569645405,0.042256489396095276,-0.018521780148148537,-0.07952583581209183,-0.028437981382012367,-0.02245442196726799,0.07633815705776215,-0.17537055909633636,0.023783434182405472,0.04411842301487923,-0.10182676464319229,0.010504132136702538,0.02436029352247715,0.03496687114238739,0.0955243930220604,0.022955311462283134,-0.049105994403362274,0.06241847947239876,-0.014024424366652966,-0.005422752816230059,-0.031950801610946655,-0.017014125362038612,-0.027510201558470726,-0.0651981458067894,0.01929645799100399,-0.0062591880559921265,0.0160127691924572,0.08349179476499557,0.21941114962100983,0.0161568745970726,0.06912717968225479,-0.1380928009748459,-0.09123299270868301,0.00155934679787606,-0.03596602752804756,-0.11366025358438492,0.01540133636444807,-0.012141846120357513,0.039743825793266296,0.03216131776571274,-0.0689597874879837,0.004767154343426228,0.003612902946770191,-0.04948269575834274,0.03646638244390488,0.022606605663895607,-0.0018375841900706291,0.0306695606559515,-0.006230073049664497,-0.09533093124628067,-0.010344387032091618,-0.05729835852980614,-0.018061941489577293,0.07801102846860886,-0.1011544018983841,0.024478312581777573,-0.04682207107543945,0.015685254707932472,0.006228774320334196,-0.021981025114655495,-0.08701269328594208,-0.12992273271083832,0.07923080027103424,-0.033592451363801956,0.027320915833115578,-0.15535478293895721,0.047854989767074585,-0.03378244861960411,0.04579291120171547,0.05948580428957939,0.11873523145914078,0.04436086490750313,-0.052952054888010025,-0.12253132462501526,0.037155941128730774,0.0692092552781105,0.06910662353038788,0.02060023695230484,0.09913374483585358,0.006283917464315891,-0.10184576362371445,0.01167012844234705,-0.0007185483118519187,-0.08252619951963425,0.05945032089948654,0.09643910825252533,0.03320761024951935,0.05089874565601349,0.08717245608568192,0.03791678324341774,-0.08781267702579498,-0.12026822566986084,0.10277046263217926,-0.04101385548710823,-0.0028931046836078167,-0.0837693139910698,0.09090758115053177,-0.08106698840856552,-0.05139413848519325,0.06659232825040817,-0.00525626027956605,0.001475286902859807,0.08482923358678818,-0.14257553219795227,0.016235362738370895,-0.04158554971218109,-0.038105398416519165,-0.14456194639205933,-0.009055699221789837,0.023234009742736816,0.08316588401794434,0.18259616196155548,-0.14165528118610382,-0.037945959717035294,0.019954489544034004,-0.026189465075731277,-0.026583673432469368,0.05848996341228485,0.003647224046289921,0.05897227302193642,0.12687399983406067,0.0053099533542990685,-0.03899989649653435,-0.1254996806383133,0.0844942107796669,0.14171041548252106,-0.0945361852645874,-0.010104107670485973,-0.02558993548154831,-0.019858313724398613,0.009092167019844055,0.05979901924729347,0.052855245769023895,-0.006405525840818882,0.02923271618783474,0.09644031524658203,-0.08282245695590973,-0.10790856182575226,-0.09924881160259247,0.0747007504105568,0.008227761834859848,-0.00354270008392632,-0.02391795441508293,0.053791120648384094,-0.16689129173755646,0.09234561026096344,-0.018946707248687744,-0.06481306254863739,-0.09039952605962753,-0.018768208101391792,0.07679464668035507,-0.04681478068232536,-0.06500520557165146,-0.03665817901492119,-0.06534723192453384,-0.0636366754770279,0.05750687047839165,0.043332289904356,0.04345137998461723,-0.14058180153369904,-0.05606776475906372,-0.1459059715270996,-0.04589056223630905,0.17089980840682983,0.04776156693696976,0.06487888842821121,0.16649454832077026,0.13791023194789886,-0.04448568448424339,-0.12014876306056976,0.11427496373653412,-0.07912086695432663,0.013875841163098812,0.04141395911574364,0.15625779330730438,-0.02001803368330002,0.07876469194889069,0.015688657760620117,-0.03604600578546524,0.01129727903753519,-0.017989587038755417,-0.07529724389314651,-0.07255537062883377,0.06943406164646149,-0.057574156671762466,-0.02061159722507,-0.004536561667919159,-0.08200276643037796,-0.03326985239982605,0.048079218715429306,-0.004332604352384806,-0.0026353257708251476,-0.015187482349574566,-0.08371870219707489,0.0076224650256335735,0.0682518482208252,-0.007841246202588081,0.018255356699228287,0.02730523608624935,-0.06825519353151321,-0.002100694226101041,0.06385509669780731,-0.009993729181587696,0.15950652956962585,0.11000970751047134,-0.037862662225961685,-0.07143469899892807,-0.035334523767232895,0.11470681428909302,0.06627248227596283,-0.008197884075343609,-0.035659417510032654,-0.009744868613779545,-0.11165304481983185,0.05168286710977554,0.015183934941887856,-0.0256574135273695,-0.009210112504661083,-0.020835276693105698,0.021762318909168243,-0.01857556775212288,-0.19219288229942322,0.0718524232506752,0.042746853083372116,0.014751866459846497,-0.08990450203418732,-0.050036944448947906,0.013428756035864353,-0.06065434217453003,0.01639700122177601,-0.1084471270442009,-0.035340119153261185,-0.00670255720615387,-0.010078144259750843,0.01217781100422144,0.1137426570057869,-0.016008367761969566,0.062204569578170776,0.022477367892861366,-0.04171028733253479,0.1617686152458191,0.023118700832128525,-0.019431306049227715,-0.08380058407783508,0.006160663906484842,-0.01757054217159748,0.03940768167376518,-0.0006649002898484468,-0.03687911853194237,0.03781246766448021,-0.02322605438530445,0.10241079330444336,-0.12485310435295105,-0.02598007395863533,0.05104398727416992,0.039066512137651443,0.09021853655576706,-0.02715478278696537,-0.016471518203616142,-0.03457893803715706,0.00566545594483614,-0.0497467964887619,-0.02965187095105648,-0.017564840614795685,0.05716927349567413,-0.1028318777680397,0.07017527520656586,0.03634282946586609,0.03943697363138199,-0.050666891038417816,-0.03980112820863724,0.13754276931285858,0.06142740324139595,0.07098450511693954,-0.0011266256915405393,-0.017397388815879822,0.028466958552598953,-0.036900416016578674,-0.01507057249546051,0.035212442278862,0.051642511039972305,-0.003505976404994726,0.025237716734409332,0.09584235399961472,0.0033786960411816835,0.02013646997511387,0.0036420661490410566,-0.052183300256729126,-0.024798694998025894,-0.07617022097110748,-0.09521684050559998,-0.12213950604200363,0.05075812339782715,-0.017489837482571602,0.02338789775967598,-0.11254578828811646,0.11159846186637878,-0.06338123232126236,0.050117991864681244,0.05192701518535614,0.015680378302931786,-0.010454325005412102,-0.0668676495552063,-0.006067967042326927,0.1521299034357071,0.03119039535522461,-0.022908568382263184,0.01235800888389349,0.08269413560628891,-0.07772877812385559,-0.03899090364575386,-0.03083127737045288,0.0584578812122345,0.03501465544104576,0.06371722370386124,-3.37420788127929e-05,0.0651208758354187,-0.10338569432497025,0.03506981208920479,0.052479688078165054,-0.02602066472172737,-0.06264772266149521,-0.03575468808412552,-0.17577019333839417,0.0026295252609997988,0.023829620331525803,-0.04112507402896881,-0.0429251529276371,-0.06988337635993958,0.09077014029026031,-0.12284514307975769,0.10682843625545502,-0.0633201152086258,-0.03259054198861122,0.020815154537558556,-0.06973692029714584,-0.05383647233247757,0.058275848627090454,-0.03598858043551445,0.009806351736187935,0.016235804185271263,-0.052493322640657425,-0.02106085792183876,0.054253701120615005,0.009334687143564224,-0.0325763002038002,0.006570329889655113,-0.09001831710338593,0.008075335994362831,-0.016342835500836372,-0.05025359243154526,0.034035712480545044,-0.03176992014050484,-0.05358957499265671,0.013029835186898708,0.08571101725101471,-0.017071375623345375,-0.03562013432383537,-0.009925381280481815,-0.06570329517126083,0.029548177495598793,-0.028864167630672455,-0.09439276158809662,-0.022006312385201454,0.09702087938785553,-0.06127970293164253,0.10712004452943802,-0.07243411242961884,-0.08157113194465637,0.11015500873327255,0.004483729600906372,0.023923838511109352,-0.02721714973449707,0.0522204153239727,0.018155954778194427,0.08979834616184235,0.0190950445830822,-0.003518796293064952,0.007097896654158831,-0.038999684154987335,0.13428126275539398,-0.014425978064537048,-0.05608860030770302,0.05215292051434517,0.023945197463035583,0.08209756761789322,-0.08084898442029953,0.0771489143371582,0.005378874018788338,0.018736258149147034,-0.12636050581932068,-0.10040086507797241,0.013670804910361767,0.05303069204092026,0.0359172523021698,-0.0452442392706871,-0.032716069370508194,0.04225541651248932,-0.045135460793972015,-0.05697629600763321,0.09120181202888489,0.07523274421691895,-0.026596805080771446,0.09489431232213974,-0.03160528838634491,0.06134108453989029,-0.09267249703407288,0.02698875591158867,0.04981251433491707,-0.034379784017801285,0.00659760320559144,-0.05533343553543091,0.06185220927000046,-0.0731017217040062,0.02944202907383442,0.029412999749183655,-0.05282727628946304,0.0763552114367485,-0.054116055369377136,0.027791690081357956,-0.003775215009227395,0.013240361586213112,-0.07721365988254547,-0.0048852828331291676,-0.04195934161543846,0.00870127696543932,0.031842537224292755,-0.1591319888830185,-0.10092343389987946,0.047479595988988876,-0.11053597927093506,-0.007621139287948608,-0.0020633486565202475,0.00624767504632473,-0.006817111745476723,0.1020764634013176,-0.12182909995317459,0.028735268861055374,-0.08425300568342209,0.048559464514255524,0.048390720039606094,-0.029843105003237724,-0.0052072471007704735,-0.09124196320772171,0.054866112768650055,-0.09351139515638351,-0.07169877737760544,0.1798330694437027,0.03369986265897751,0.021725155413150787,-0.10334796458482742,-0.03312569111585617,-0.019752779975533485,-0.020260408520698547,-0.14923863112926483,-0.10557376593351364,-0.01702425256371498,-0.07251015305519104,-0.14551541209220886,-0.03817829117178917,0.014311658218502998,-0.023075908422470093,-0.07160551100969315,-0.042620398104190826,-0.017754502594470978,-0.05102361738681793,-0.007845998741686344,0.14898143708705902,0.012524900026619434,-0.039925601333379745,0.06904570758342743,-0.03321879357099533,0.042361970990896225,0.03748214617371559,0.03014926053583622,0.09179390221834183,0.03013753890991211,0.054886698722839355,-0.029741719365119934,0.10222789645195007,-0.013698622584342957,0.00019612317555584013,0.08638457208871841,0.03781433776021004,-0.028889698907732964,-0.03500913828611374,-0.10586787015199661,-0.023928552865982056,-0.0679612010717392,-0.017346272245049477,-0.05490826442837715,0.08353349566459656,-0.02763715758919716,-0.07841090112924576,0.0578475147485733,-0.06369727849960327,0.019767822697758675,-0.05323602631688118,0.007509735878556967,-0.13428117334842682,0.00151464669033885,-0.008286996744573116,0.050953883677721024,0.015437998808920383,-0.009349927306175232,-0.013063529506325722,-0.016924520954489708,-0.1403295397758484,0.02284182608127594,0.00576279079541564,-0.05731373652815819,0.08861516416072845,-0.0466492585837841,0.023141775280237198,-0.0382668636739254,0.0051528033800423145,-0.044159483164548874,-0.04601668193936348,-0.03568696603178978,-0.0132971266284585,-0.039379797875881195,0.12425809353590012,-0.07702908664941788,0.04563102871179581,0.05354136973619461,0.029375167563557625,-0.11466190963983536,-0.06386128813028336,0.03502880036830902,0.028161542490124702,0.038732074201107025,-0.03863021731376648,0.011413139291107655,0.006174463778734207,-0.02161344513297081,0.019743241369724274,0.023283857852220535,0.02892310917377472,-0.06175517290830612,-0.02449146844446659,0.0031522023491561413,-0.07297993451356888,0.07212701439857483,0.015844345092773438,-0.03693849965929985,0.08577442169189453,0.06557651609182358,0.013721640221774578,-0.01976328343153,0.0035793555434793234,-0.009941520169377327,-0.04059538245201111,-0.043266188353300095,0.20116916298866272,-0.05703343451023102,-0.01327663753181696,0.1003713458776474,-0.04271560534834862,-0.061451662331819534,0.0390198715031147,0.011774851940572262,-0.011245904490351677,0.012629465200006962,0.06469204276800156,-0.029329078271985054,0.03235306963324547,-0.023006204515695572,-0.01898857392370701,-0.08236368745565414,0.03450365364551544,0.06128529831767082,0.04088648036122322,-0.07986762374639511,0.06548449397087097,-0.0771065503358841,0.019376736134290695,-0.025406744331121445,0.1315358579158783,0.19689473509788513,-0.0002523164148442447,-0.043004054576158524,0.005819868762046099,0.09367452561855316,-0.05177447944879532,-0.07942929863929749,-0.06190969794988632,0.058977026492357254,0.12976843118667603,-0.006767843849956989,-0.007326800841838121,0.037245336920022964,-0.03272780030965805,0.12124539166688919,-0.04783722013235092,0.031029146164655685,-0.0036939671263098717,-0.032258350402116776,-0.1322535276412964,0.08191076666116714,0.0260563213378191,-0.13150618970394135,-0.016207832843065262,-0.0733824372291565,-0.023694278672337532,0.015740681439638138,0.08887968957424164,-0.06852768361568451,0.07923213392496109,-0.06757992506027222,0.04933736473321915,0.12448515743017197,0.02993077039718628,0.0011469555320218205,-0.021437399089336395,-0.017333224415779114,0.039681170135736465,-0.12419797480106354,-0.041898760944604874,0.02093145251274109,0.034040626138448715,0.022420862689614296,0.04348115995526314,0.16103464365005493,-0.018888382241129875,0.07840602844953537,-0.02651216648519039,-0.0007287085754796863,-0.05271812155842781,-0.02829321287572384,0.007316091097891331,-0.08655969053506851,0.001337127760052681,-0.05027037113904953,-0.03772219270467758,-0.051178961992263794,-0.021122898906469345,0.014035170897841454,0.03274489566683769,-0.09821195155382156,-0.03471431881189346,-0.03950675576925278,-0.012081818655133247,-0.06053349748253822,0.08500716835260391,-0.037837911397218704,0.02372320182621479,0.14586257934570312,0.11126477271318436,0.016565384343266487,0.01167632918804884,0.11676233261823654,-0.017151329666376114,-0.021419864147901535,0.04429998621344566,-0.07170715928077698,-0.03533262386918068,-0.09436682611703873,6.688873691018671e-05,0.018359849229454994,0.014032358303666115,0.01644034869968891,-0.02288263663649559,-0.06797272711992264,0.00014764946536161005,0.005150154698640108,0.01969636231660843,0.019275404512882233,-0.05847230181097984,-0.03694668039679527,-0.04329966381192207,-0.04037369415163994,-0.03944304957985878,0.005813563708215952,-0.14072832465171814,0.07181686908006668,-0.054417066276073456,-0.04183407872915268,0.07202088087797165,-0.07052212208509445,0.00025518477195873857,0.06522653996944427,-0.028276540338993073,0.10702124238014221,0.02333686873316765,0.055729787796735764,-0.007831454277038574,0.06193859502673149,-0.0362764447927475,-0.07444319128990173,-0.008435576222836971,0.03842883184552193,0.03338645398616791,0.14474697411060333,0.013909125700592995,0.00036076788092032075,-0.010689552873373032,-0.03334038704633713,-0.01893295906484127,-0.013688785023987293,0.15026576817035675,0.07584282010793686,-0.05290078744292259,0.15191668272018433,0.08063163608312607,0.060549475252628326,0.03428496792912483,-0.01940249651670456,-0.0031829369254410267,-0.03373970091342926,0.05128210037946701,-0.1404218077659607,0.019464364275336266,0.09843502193689346,-0.016650058329105377,-0.028544779866933823,0.01736045815050602,-0.06758558750152588,0.03230689838528633,0.07702173292636871,0.009283747524023056,-0.0622759684920311,-0.07663337141275406,0.010348514653742313,-0.018564477562904358,0.0705469623208046,-0.03641844540834427,0.04623929038643837,-0.05945703387260437,0.03392772004008293,-0.025437436997890472,-0.04274091124534607,0.04794146865606308,0.032336533069610596,0.10501125454902649,-0.05089660733938217,-0.032324451953172684,0.0215152520686388,0.07455860823392868,0.010367587208747864,0.055321961641311646,-0.004821868613362312,-0.021950097754597664,-0.05304136872291565,-0.1229921355843544,0.03327890858054161,0.049142394214868546,0.04999935254454613,-0.020672405138611794,-0.07848450541496277,0.11152667552232742,0.12908799946308136,-0.0003117882297374308,0.008451110683381557,-0.02262725867331028,-0.01937638223171234,-0.09543726593255997,0.018074313178658485,-0.05299919843673706,-0.08565285801887512,-0.009259953163564205,-0.00016501743812114,-0.038162220269441605,0.021628906950354576,-0.06380756944417953,-0.24335375428199768,0.017867248505353928,0.07361502945423126,0.03439102694392204,-0.10882261395454407,-0.1257132738828659,-0.10022474080324173,0.06245432049036026,-0.048375021666288376,-0.022228039801120758,-0.09133792668581009,0.08168694376945496,-0.12570820748806,-0.054475337266922,-0.024753721430897713,-0.01837703213095665,0.014081177301704884,0.057895611971616745,0.10533089190721512,-0.022943701595067978,-0.01845880039036274,0.013910275883972645,0.010273058898746967,0.07130291312932968,-0.15676434338092804,-0.06847625225782394,-0.04913154989480972,-0.027574170380830765,0.026986990123987198,-0.03395342081785202,0.005499657709151506,0.04708263278007507,-0.0443139486014843,0.10720498114824295,0.0017550981137901545,