-0.009625316597521305,0.021781500428915024,0.001348536228761077,0.004357749130576849,0.030646689236164093,-0.01853282004594803,0.01861187256872654,-0.02339874394237995,0.013371220789849758,-0.002089140238240361,0.026447055861353874,-0.019178060814738274,-0.006206746678799391,0.002890498610213399,-0.02234805002808571,-0.02865833230316639,0.022715609520673752,0.023715240880846977,-0.013743937015533447,0.001858672359958291,-0.014841570518910885,-0.03527888283133507,-0.01956193707883358,0.019759666174650192,-0.0066286190412938595,0.03608344867825508,0.009048955515027046,-0.0018624975346028805,-0.03227989748120308,-0.01850430853664875,-0.035093341022729874,-0.0241251178085804,-0.03695731237530708,-0.028504813089966774,-0.0077875107526779175,-0.0029797011520713568,-0.006159803364425898,-0.03812475875020027,-0.02562611736357212,0.035251617431640625,0.002276903949677944,-0.037262339144945145,-0.038442473858594894,0.00951496884226799,-0.009577186778187752,0.017606819048523903,-0.006644187029451132,-0.030594175681471825,-0.010204032994806767,0.01656871847808361,0.0012526471400633454,-0.019845321774482727,-0.038832999765872955,-0.027231551706790924,0.03506651148200035,0.0274192001670599,-0.03369668871164322,-0.02539326436817646,-0.02355710044503212,-0.022026818245649338,-0.0012071779929101467,0.029810789972543716,0.008415404707193375,-0.0032417932525277138,-0.03578411415219307,-0.03743014112114906,4.1861039790092036e-05,-0.021594999358057976,-0.010368939489126205,-0.011641427874565125,-0.03211013972759247,0.01020575501024723,-0.0019417309667915106,0.0381699800491333,-0.011221438646316528,-0.03535819798707962,-0.024865686893463135,-0.010659889318048954,0.010646984912455082,0.021313797682523727,-0.0025777968112379313,0.02758435346186161,0.03432166948914528,0.010133313946425915,-0.028215108439326286,0.03581807389855385,0.025557253509759903,0.023574819788336754,-0.02674207277595997,0.007769780233502388,0.005908170249313116,0.028947601094841957,-0.004354754462838173,-0.025250941514968872,0.018923446536064148,-0.018339945003390312,0.023060064762830734,-0.007491922937333584,-0.03308415040373802,-0.007574163377285004,0.008981524035334587,0.028022244572639465,-0.024498887360095978,-0.03753899037837982,0.02669520489871502,-0.033485330641269684,-0.0003021441516466439,0.03625941649079323,-0.02068757824599743,-0.03377275541424751,-0.010517439804971218,-0.009113889187574387,-0.02753261849284172,0.007952488027513027,0.03482513874769211,0.038265760987997055,0.0023673195391893387,-0.014862703159451485,-0.025368494912981987,0.014881602488458157,0.029600048437714577,0.01819848082959652,0.037963297218084335,-0.03771963343024254,-0.027825500816106796,0.03515719622373581,0.015461231581866741,-0.018620187416672707,0.031899143010377884,-0.03225002437829971,-0.007664490956813097,-0.032883331179618835,-0.01784486696124077,0.026424257084727287,-0.027753222733736038,0.03003324382007122,0.020105233415961266,-0.020595163106918335,0.006687598302960396,-0.011233512312173843,-0.014513800852000713,0.006233118940144777,0.02277577854692936,-0.020183207467198372,-0.02954566292464733,0.011418808251619339,-0.027954529970884323,0.0050244019366800785,0.011367423459887505,0.035957299172878265,0.03800439462065697,-0.010136440396308899,0.015964709222316742,-0.01567864790558815,0.039060138165950775,-0.0008909680182114244,-0.03875834122300148,0.03578422591090202,0.01533504668623209,0.010555250570178032,-0.01217969972640276,0.0056101190857589245,-0.022589469328522682,-0.028051886707544327,0.0211501345038414,-0.016523361206054688,0.0018328647129237652,-0.02027871087193489,0.024087727069854736,-0.025949474424123764,0.024632195010781288,0.024621855467557907,0.02269783429801464,-0.010290542617440224,0.031106121838092804,-0.013402203097939491,0.029372530058026314,0.019310379400849342,-0.0256637129932642,0.004189133644104004,0.01306441705673933,0.02141449972987175,-0.004503687843680382,-0.026988660916686058,0.02491750568151474,0.0038408206310123205,-0.03639097139239311,0.010670149698853493,-0.006317810155451298,0.034185800701379776,0.014740804210305214,0.01965591125190258,-0.03116980753839016,-0.002185746096074581,-0.0163717083632946,-0.029350942000746727,-0.01841440238058567,0.013100129552185535,0.0334751233458519,0.03647586330771446,0.02063613012433052,-0.029495179653167725,-0.015038516372442245,-0.019737448543310165,0.008802042342722416,0.024230964481830597,-0.016046039760112762,-0.0017345165833830833,0.0014747234527021646,0.0385480672121048,-0.006640356965363026,0.013637236319482327,0.02952553890645504,-0.03581630066037178,0.03681770712137222,-0.020526036620140076,0.031206531450152397,-0.0015756988432258368,-0.001222156104631722,-0.025948092341423035,-0.03562711551785469,-0.02445308305323124,-0.013085462152957916,0.015155722387135029,0.00831532571464777,0.030961867421865463,0.007114366628229618,0.026734044775366783,-3.905699486494996e-06,0.029452867805957794,0.028670167550444603,0.016797132790088654,0.02570781484246254,0.02515111118555069,-0.018680622801184654,-0.023799065500497818,0.0023545233998447657,-0.01747787371277809,0.010842841118574142,-0.026406705379486084,-0.03171456977725029,0.005174622405320406,0.03926803171634674,-0.02575223706662655,0.00450531393289566,-0.023414455354213715,-0.02595709078013897,0.03150222823023796,0.02263074740767479,0.02231159619987011,-0.020721139386296272,-0.02165258303284645,0.02297130413353443,-0.026275958865880966,-0.030792109668254852,0.0018281396478414536