-0.12815509736537933,0.07456229627132416,0.03360443562269211,-0.07253139466047287,-0.08252974599599838,0.13016071915626526,-0.07772061973810196,0.13371379673480988,-0.0978049784898758,0.06675638258457184,-0.17055745422840118,0.059054795652627945,0.14047011733055115,0.13683490455150604,-0.15432621538639069,-0.08548218756914139,-0.12301856279373169,-0.10488147288560867,-0.043101780116558075,-0.015707410871982574,-0.07109572738409042,-0.09879665076732635,-0.010695296339690685,0.028179176151752472,-0.032889921218156815,0.005554011557251215,0.011158921755850315,-0.014606853947043419,0.08698021620512009,0.025457069277763367,-0.028351085260510445,-0.17774665355682373,-0.09854085743427277,-0.031460441648960114,0.08023062348365784,0.008662084117531776,-0.1861478090286255,0.00017167098121717572,-0.03892106935381889,0.08784352242946625,-0.06058741733431816,0.17527656257152557,-0.04414430633187294,0.07430180162191391,0.04448101297020912,0.1655028909444809,-0.05272724851965904,0.05315827578306198,-0.14115026593208313,0.048125799745321274,0.0793989971280098,0.18296465277671814,0.2968738377094269,0.02658751606941223,0.0033770764712244272,-0.12694962322711945,-0.04217808321118355,0.04373795911669731,0.01570335030555725,-0.08698902279138565,-0.10199375450611115,-0.0114346444606781,-0.17441818118095398,0.1327524483203888,0.16404525935649872,-0.05347704887390137,0.13010962307453156,-0.010505623184144497,0.03494669869542122,0.020595373585820198,0.08471091836690903,-0.10055805742740631,-0.027280621230602264,-0.11782290041446686,0.008859911002218723,-0.002286938251927495,0.10924089699983597,-0.03519948199391365,0.104196697473526,0.011656739749014378,-0.07778226584196091,-0.05045102536678314,0.20558738708496094,0.11863831430673599,0.019342297688126564,-0.055068716406822205,-0.03959294408559799,-0.33832091093063354,-0.0005370775470510125,-0.09628318250179291,-0.16124148666858673,-0.03995011746883392,-0.03101133555173874,-0.07691626995801926,-0.13600270450115204,0.044563304632902145,0.0969601571559906,0.08884869515895844,0.07313431799411774,-0.02815374732017517,0.02059297263622284,0.10669473558664322,0.14122776687145233,-0.11525589227676392,-0.0005136907566338778,-0.051397956907749176,0.08906564861536026,0.25899165868759155,-0.0906614288687706,-0.04991243779659271,-0.06503880023956299,-0.045098926872015,-0.05828073248267174,-0.08212578296661377,0.07019495964050293,0.005597099661827087,0.09084118902683258,-0.0678720772266388,0.0861910730600357,0.04696790128946304,-0.17235742509365082,-0.07450320571660995,0.04067569598555565,0.039317332208156586,0.0411287397146225,-0.062101103365421295,-0.21700960397720337,0.14037318527698517,-0.11560238152742386,-0.10195793211460114,0.007973886094987392,-0.05275023356080055,0.06984389573335648,-0.05730113014578819,-0.026796838268637657,-0.06076635420322418,-0.17486585676670074,0.03511165454983711,0.03726787120103836,0.0839129090309143,-0.10450441390275955,0.09470837563276291,0.060133591294288635,-0.03748689591884613,0.032850231975317,-0.08226457983255386,-0.002820823574438691,0.08855728805065155,-0.00057788792764768,0.19545134902000427,0.008593455888330936,-0.1045038253068924,0.050507139414548874,0.10066352784633636,-0.07897045463323593,-0.02416582778096199,-0.0758901834487915,0.06295778602361679,0.22278302907943726,0.004030871670693159,-0.05462506040930748,0.0862056314945221,0.009447362273931503,-0.15073782205581665,-0.1593472808599472,0.22296589612960815,0.0652455985546112,-0.06928322464227676,-0.15898780524730682,-0.005764118395745754,-0.1850578486919403,-0.010281901806592941,0.1926945149898529,-0.08886665850877762,0.033532556146383286,-0.07416709512472153,-0.008160068653523922,-0.06437535583972931,-0.00910987239331007,-0.13986022770404816,-0.10813601315021515,0.010433357208967209,-0.2006932497024536,0.03324459493160248,0.09322760999202728,-0.15470275282859802,0.043204132467508316,-0.19895122945308685,0.08140026777982712,0.0051847193390131,0.12022758275270462,-0.008591138757765293,0.033830009400844574,-0.1845897138118744,0.02263963222503662,-0.0005863980622962117,-0.051568176597356796,-0.049587879329919815,0.010454533621668816,-0.1988193690776825,0.19218209385871887,0.032554637640714645,0.025112349539995193,-0.0629928931593895,0.10276597738265991,-0.1803428828716278,0.0799112319946289,-0.05667947977781296,-0.04298142343759537,0.020838702097535133,-0.026186106726527214,-0.15687760710716248,0.05485832691192627,0.018470071256160736,-0.018663659691810608,0.02927139773964882,-0.02175043895840645,-0.17308257520198822,0.06899741291999817,0.07070118188858032,-0.03156926482915878,0.07152335345745087,0.03171401843428612,-0.08058664202690125,0.1562800407409668,0.19315607845783234,0.09028997272253036,-0.07720791548490524,0.00574183976277709,-0.19028526544570923,0.1381724774837494,-0.22272519767284393,-0.11129317432641983,-0.0805368646979332,0.19183732569217682,0.028697248548269272,-0.04760665446519852,-0.06144065037369728,0.05733441933989525,-0.12269774824380875,-0.043177828192710876,-0.012215888127684593,0.08336646109819412,-0.11942385137081146,0.034562185406684875,0.05664697289466858,-0.03398425504565239,0.21781033277511597,-0.020836317911744118,0.06389062106609344,0.14724546670913696,0.059108342975378036,0.00888770166784525,-0.09887348860502243,0.09345676749944687,0.011770573444664478,0.07618403434753418,-0.01697877049446106,0.08738023042678833,0.05228450894355774,-0.005847292952239513,0.039857957512140274,0.14783473312854767,0.06720316410064697,0.1000853031873703,0.0790005624294281,-0.011055567301809788,0.05267219617962837,-0.12544608116149902,-0.006019094958901405,-0.06663193553686142,-0.09588108211755753,0.0896577313542366,-0.03600834310054779,-0.0241340771317482,-0.02593708410859108,-0.021772824227809906,0.10862582921981812,0.06249532103538513,0.021318210288882256,-0.08636095374822617,-0.19270941615104675,0.14640331268310547,0.1263715624809265,-0.01887594349682331,-0.04990937188267708,0.10307290405035019,-0.17572136223316193,-0.019585970789194107,0.07576948404312134,-0.07619433104991913,0.1519879698753357,0.024571435526013374,0.21078872680664062,-0.11662820726633072,0.1742774397134781,-0.10308245569467545,-0.004464917816221714,-0.13279786705970764,0.18702970445156097,0.14620481431484222,0.008223997429013252,-0.022019734606146812,-0.08574842661619186,-0.06904546916484833,0.07526016980409622,-0.046527620404958725,-0.05904030427336693,-0.10387353599071503,0.05843645706772804,-0.1152556762099266,0.042118847370147705,0.004304870963096619,0.08175324648618698,-0.07515273988246918,0.038845550268888474,0.0634591281414032,-0.044999487698078156,-0.043360386043787,-0.005022829864174128,-0.04879520833492279,0.10641922056674957,0.014396574348211288,0.16419510543346405,-0.019794581457972527,-0.00196155346930027,-0.05356842651963234,-0.10765766352415085,0.1061394214630127,0.006985349580645561,0.1143231987953186,0.08832984417676926,-0.019292211160063744,0.1308422088623047,0.010462525300681591,-0.048375993967056274,0.045726675540208817,-0.03028133697807789,-0.04102061316370964,0.040941230952739716,-0.027784470468759537,-0.03249509260058403,0.005402227398008108,-0.13282054662704468,0.15463075041770935,0.15995153784751892,0.019033297896385193,0.08695350587368011,-0.18047089874744415,0.02114034816622734,-0.024764101952314377,-0.012135992757976055,-0.007694891653954983,-0.019396930932998657,-0.05386190488934517,0.017687682062387466,0.1290237456560135,-0.01339984592050314,-0.04865339398384094,-0.045815516263246536,0.0035066292621195316,-0.14148060977458954,0.053700849413871765,0.10536223649978638,-0.02941284142434597,0.03685580566525459,-0.06944909691810608,-0.08394813537597656,-0.07513203471899033,-0.035601817071437836,0.02598416991531849,-0.013646972365677357,0.015482129529118538,0.04277213290333748,-0.13170480728149414,0.14775238931179047,0.056032080203294754,0.08743627369403839,0.1911393404006958,0.053243186324834824,-0.030544321984052658,-0.0468476228415966,0.07120291143655777,0.1540888100862503,0.2757534980773926,-0.06550074368715286,0.03071052022278309,0.012637156993150711,-0.16761626303195953,0.09317123144865036,-0.012458637356758118,0.1641264706850052,-0.10817990452051163,-0.01770646497607231,0.030652282759547234,0.10265446454286575,-0.1437893956899643,-0.2387041598558426,-0.07881798595190048,-0.03424590826034546,0.006570936646312475,0.24428439140319824,0.10250647366046906,-0.24023771286010742,0.2059377282857895,0.054106347262859344,0.14533621072769165,0.05187465250492096,-0.14807915687561035,0.3186742961406708,0.18024341762065887,-0.03854898735880852,-0.14927995204925537,-0.1623784601688385,-0.12664881348609924,0.10589209198951721,-0.08064747601747513,-0.2318686693906784,0.014196635223925114,-0.07865897566080093,0.2589069604873657,0.4272743761539459,0.0821392834186554,-0.0941896066069603,-0.025923309847712517,-0.0022709830664098263,-0.0009748864104039967,0.057910993695259094,0.0782550796866417,0.19974125921726227,0.07313374429941177,-0.027454854920506477,-0.14085689187049866,0.2905869483947754,-0.08825978636741638,-0.1481771022081375,-0.21159259974956512,-0.04506200551986694,-0.18833667039871216,-0.3414851725101471,-0.03366387262940407,-0.1055096760392189,-0.15909640491008759,-0.05935852602124214,-0.10637936741113663,-0.17260554432868958,-0.07137898355722427,-0.0429266057908535,0.11110766977071762,-0.021878380328416824,0.14873851835727692,-0.02978803589940071,-0.04430386796593666,-0.12178115546703339,-0.015012397430837154,0.12281430512666702,-0.018293773755431175,0.09811046719551086,-0.05732438713312149,0.028293440118432045,0.021788639947772026,-0.026747943833470345,0.1595979630947113,0.034054774791002274,0.08210718631744385,0.004165311343967915,0.0836944580078125,-0.07819301635026932,0.0028406830970197916,-0.030820494517683983,-0.23763559758663177,-0.07967672497034073,-0.008230451494455338,-0.07422114908695221,0.017381489276885986,0.0371822789311409,-0.3670409619808197,0.17534556984901428,-0.004496853798627853,0.024690693244338036,-0.1430809497833252,-0.2066812366247177,-0.013369757682085037,0.03668596222996712,-0.006171352230012417,0.057244639843702316,-0.00016304475138895214,-0.056584134697914124,0.1928689032793045,0.013882776722311974,0.2383989691734314,-0.19184927642345428,-0.02739086002111435,-0.08390825986862183,-0.13240648806095123,-0.0450897254049778,0.05206746608018875,-0.108507439494133,-0.07588008791208267,0.04291447624564171,-0.025755535811185837,0.12870091199874878,0.056798968464136124,-0.09687457233667374,-0.07375843077898026,0.09563783556222916,-0.03870835900306702,0.07417400181293488,-0.17219038307666779,-0.15184195339679718,0.1368187814950943,-0.016192343086004257,0.1661047339439392,0.06901954859495163,-0.12254182249307632,-0.19341528415679932,-0.10537826269865036,-0.018939435482025146,-0.08454269170761108,0.0766565129160881,-0.024870896711945534,-0.04491109400987625,-0.16969792544841766,-0.1255388855934143,-0.04730503261089325,0.02591007947921753,-0.05727849900722504,-0.04350568726658821,-0.05654865875840187,0.10662934929132462,-0.20301881432533264,0.2453131079673767,0.09613685309886932,-0.05684368312358856,0.06541351228952408,0.20288734138011932,-0.21920432150363922,-0.2518293857574463,-0.2931596040725708,0.12322652339935303,0.019156023859977722,-0.00831452663987875,0.20164036750793457,0.11823154240846634,-0.0947912335395813,0.01947638764977455,0.15752853453159332,0.05331426113843918,0.021647267043590546,0.07418547570705414,-0.0594036802649498,0.2300824075937271,0.0031672765035182238,-0.035533640533685684,-0.06760336458683014,-0.21753853559494019,0.020667316392064095,0.07257044315338135,-0.07376920431852341,-0.025897163897752762,0.11487490683794022,-0.30151307582855225,0.05704297125339508,0.057549409568309784,-0.06111603602766991,0.050993625074625015,0.037988465279340744,-0.12566174566745758,-0.10201980918645859,0.1234244629740715,-0.1368507295846939,0.0957944318652153,-0.1416894644498825,-0.07402753084897995,0.09567835927009583,-0.20263585448265076,-0.02936479263007641,0.1279781311750412,-0.12311860918998718,-0.009192475117743015,0.13141778111457825,0.2121783196926117,-0.017445312812924385,-0.03375447914004326,-0.0029355091974139214,0.03782207891345024,-0.04441094398498535,0.018291132524609566,0.15570756793022156,0.1082458421587944,-0.27268022298812866,0.14318348467350006,-0.12499315291643143,-0.04018126428127289,0.05282704904675484,-0.09442885220050812,-0.16148383915424347,0.02098507434129715,0.2060844600200653,-0.038964852690696716,-0.08051105588674545,0.09312620759010315,0.03275134414434433,-0.18958865106105804,0.06050131842494011,0.10909049212932587,0.018416445702314377,-0.00010837896843440831,0.1628359705209732,0.10864710807800293,-0.061081551015377045,0.12959936261177063,-0.09335286915302277,-0.12626583874225616,0.1913617104291916,0.05720009654760361,-0.1887659728527069,0.07402745634317398,0.12638746201992035,-0.0334286130964756,-0.14317744970321655,0.004280236549675465,-0.15930047631263733,-0.05727846175432205,-0.054787397384643555,-0.11457403004169464,-0.06926272809505463,0.11706730723381042,0.03520775958895683,0.04321867227554321,-0.05531822144985199,-0.17450393736362457,-0.005849244073033333,-0.13047367334365845,-0.016411658376455307,-0.16807821393013,-0.04299960657954216,0.125828817486763,-0.0748111754655838,0.4057835638523102,-0.06863708049058914,0.05637740343809128,0.2584972679615021,-0.10954033583402634,0.1761547327041626,-0.18763606250286102,0.01708231493830681,-0.19053848087787628,-0.18463221192359924,-0.10313139110803604,0.021419400349259377,0.005032481625676155,-0.10037483274936676,0.22405081987380981,-0.13497668504714966,-0.263335645198822,0.2484864741563797,0.13565506041049957,-0.05045448616147041,-0.04980988800525665,-0.07027874886989594,0.028896473348140717,-0.050100188702344894,-0.038396045565605164,-0.15214470028877258,-0.13581639528274536,-0.3088389039039612,0.05578697472810745,0.15921705961227417,0.03320648521184921,0.07672125846147537,0.13521386682987213,0.11774153262376785,-0.0050679766573011875,-0.2070329487323761,0.013971241191029549,-0.2624823749065399,-0.019400067627429962,0.05725173279643059,0.1728857010602951,0.04477088525891304,0.05771513655781746,-0.007020279299467802,-0.16286228597164154,0.1442982256412506,-0.07738271355628967,-0.15790961682796478,0.08833189308643341,-0.04199453070759773,0.00023862638045102358,0.01944585144519806,-0.03279910981655121,-0.017539948225021362,0.0009581466438248754,0.26258358359336853,-0.40377411246299744,-0.08015347272157669,-0.009538856334984303,0.08547775447368622,0.03676246479153633,0.06786471605300903,0.026874452829360962,-0.049907781183719635,0.1394580453634262,-0.12402543425559998,-0.16916969418525696,0.20888380706310272,0.07800876349210739,-0.16331154108047485,0.15876546502113342,0.011797088198363781,-0.3890853524208069,-0.1920461356639862,0.12519003450870514,0.03996500372886658,0.4895337224006653,0.00781291350722313,-0.15538157522678375,0.021770764142274857,-0.34981998801231384,0.018499702215194702,-0.08667243272066116,-0.23359884321689606,0.05880953371524811,-0.02014192007482052,0.2724606990814209,0.0365024209022522,0.10105718672275543,0.14328612387180328,-0.0259013120085001,0.05802556499838829,-0.16168294847011566,0.005186840891838074,0.02957902103662491,0.1690775603055954,-0.0656435638666153,0.12519538402557373,-0.18831098079681396,0.07816991955041885,-0.0726265013217926,0.07583215087652206,-0.10978000611066818,-0.01650448516011238,0.07353785634040833,-0.027222879230976105,0.1608271598815918,-0.04636290669441223,-0.049621276557445526,-0.04067579284310341,-0.05155562609434128,-0.1677493453025818,-0.04782691225409508,-0.056610703468322754,0.1814119666814804,0.09057817608118057,0.09291479736566544,-0.3442089557647705,-0.074984110891819,0.020261023193597794,-0.07700172811746597,-0.11508302390575409,-0.04562245309352875,-0.3396811783313751,0.07170411944389343,0.02544378489255905,-0.09822661429643631,0.03981126472353935,-0.4409884512424469,0.17580783367156982,-0.22092849016189575,-0.04035297408699989,-0.08574628829956055,-0.006522169336676598,-0.056181520223617554,-0.03224926441907883,-0.09156982600688934,0.038089901208877563,-0.045692287385463715,0.2359190434217453,-0.06478779762983322,0.05322890728712082,0.05818735435605049,-0.025735294446349144,-0.03702414780855179,-0.2215903103351593,0.07017117738723755,-0.036728065460920334,0.18420913815498352,-0.12275350838899612,-0.09343215823173523,-0.10871382057666779,-0.08522510528564453,-0.017670175060629845,-0.03010106272995472,-0.0225572120398283,0.04557047039270401,-0.03682350739836693,-0.06383361667394638,-0.15723010897636414,-0.02264418639242649,-0.039978671818971634,0.026794569566845894,-0.0391627699136734,-0.12218866497278214,0.12272559106349945,-0.023452112451195717,-0.15187247097492218,-0.20691698789596558,0.08214990049600601,-0.15916134417057037,-0.056421373039484024,0.02215633913874626,-0.012564176693558693,0.03139388933777809,0.06633440405130386,0.02158103883266449,0.15692637860774994,-0.020225556567311287,-0.009445293806493282,0.03538684919476509,0.061935070902109146,0.15586015582084656,-0.06214045360684395,-0.02325841411948204,-0.06763073801994324,0.06822512298822403,0.21445995569229126,0.12505994737148285,0.02744433470070362,0.05622350797057152,0.014804636128246784,0.19229821860790253,0.05776485800743103,-0.0632590502500534,-0.00465348782017827,-0.034227464348077774,0.14430256187915802,-0.07826515287160873,-0.16507872939109802,-0.031982507556676865,0.16271795332431793,-0.00648847920820117,0.0023813978768885136,-0.04124718904495239,-0.03693686053156853,-0.004261515568941832,0.2704800069332123,-0.1163741797208786,-0.10144133865833282,0.012640229426324368,0.036823492497205734,-0.03810785338282585,-0.033079616725444794,0.18023158609867096,-0.021120399236679077,0.17151525616645813,-0.09869512915611267,0.00527148088440299,0.022068019956350327,0.020741678774356842,-0.02945464476943016,-0.09324857592582703,-0.09092482924461365,0.18048346042633057,0.3426908850669861,0.04157879203557968,-0.0702408105134964,0.07272177934646606,0.2570098042488098,-0.11206305772066116,-0.069089375436306,0.043206438422203064,-0.10945118218660355,0.06907548010349274,0.1183498203754425,-0.09059540182352066,-0.11777090281248093,-0.05854283273220062,-0.28600209951400757,0.019175618886947632,-0.0030573613476008177,-0.0500791110098362,0.01829441264271736,-0.11187104135751724,0.06014326959848404,0.02086990512907505,0.15030044317245483,0.10678455978631973,0.18150801956653595,0.03161867335438728,-0.0195759367197752,-0.11098410934209824,0.027369461953639984,-0.06178872659802437,0.23147402703762054,0.08894433826208115,-0.179888054728508,-0.012354850769042969,0.05667581409215927,-0.14888717234134674,-0.03914802893996239,-0.012896429747343063,0.09852610528469086,0.03716379404067993,0.24919049441814423,0.021324293687939644,0.12097148597240448,0.05594472214579582,0.08555278182029724,0.2313452810049057,0.09653932601213455,-0.024296587333083153,0.07588595896959305,-0.01240495964884758,-0.19387218356132507,-0.18506617844104767,0.11114596575498581,0.06348271667957306,-0.0009996382286772132,-0.13388235867023468,-0.025330500677227974,-0.16901013255119324,0.15750762820243835,0.1009690910577774,-0.19898346066474915,-0.011284440755844116,-0.08028814941644669,-0.0635676234960556,-0.08023504912853241,-0.01573742739856243,0.011318323202431202,-0.051688726991415024,0.13489575684070587,0.04017874598503113,-0.0015348875895142555,-0.034494880586862564,-0.055103134363889694,-0.03850226476788521,0.13993439078330994,0.025007862597703934,-0.04065704718232155,0.04804849252104759,-0.034766972064971924,-0.08762400597333908,0.06548772752285004,0.0703391283750534,0.006491846404969692,-0.10364968329668045,-0.009224790148437023,0.03539581969380379,0.0776439905166626,-0.08185046911239624,-0.1808299720287323,-0.05555800721049309,-0.17787928879261017,0.2591959238052368,0.07786750048398972,0.07133641839027405,-0.03862692415714264,0.017658893018960953,-0.09359622001647949,-0.05862439051270485,-0.10285380482673645,-0.056859564036130905,0.057835593819618225,0.08962421864271164,-0.1401595175266266,-0.4023649990558624,-0.07583287358283997,0.0921274945139885,-0.06181754544377327,0.0065108309499919415,-0.04979290813207626,0.2068258672952652,-0.0274360291659832,0.08205969631671906,-0.07197057455778122,0.07999324798583984,0.038096148520708084,-0.04219742864370346,0.008058803156018257,0.1268969178199768,0.07436492294073105,-0.16250914335250854,-0.07288822531700134,-0.13366355001926422,-0.025574522092938423,-0.0828312411904335,0.07322487980127335,0.10679850727319717,-0.024365227669477463,-0.08542032539844513,-0.0378868542611599,0.3111640214920044,-0.10985758900642395,-0.07921002060174942,0.16738145053386688,-0.08862587809562683,0.05621789023280144,0.19586148858070374,0.048640865832567215,-0.04021839797496796,0.07581248879432678,-0.13564185798168182,0.02250014618039131,0.023464569821953773,-0.02312975935637951,0.07429959625005722,0.05751832574605942,0.06640155613422394,-0.21439145505428314,0.053467217832803726,-0.02044644020497799,0.11226517707109451,-0.020479610189795494,0.18295398354530334,-0.02397383749485016,0.10495173931121826,0.06590660661458969,0.2565307021141052,-0.28641384840011597,0.08707401156425476,0.1037474200129509,-0.08587709814310074,-0.25993362069129944,0.12199298292398453,0.018667003139853477,-0.011952842585742474,0.07703351229429245,0.2186661660671234,0.2501363158226013,-0.03415622189640999,-0.008880497887730598,0.042329803109169006,-0.08956075459718704,-0.056724563241004944,-0.17585060000419617,-0.19449357688426971,0.12211696803569794,0.15154391527175903,0.11624544858932495,0.15011721849441528,0.14117799699306488,0.11248591542243958,0.04840870946645737,0.19484607875347137,0.040084440261125565,-0.019258415326476097,-0.13650155067443848,-0.13919736444950104,0.12031751871109009,-0.20408987998962402,-0.00973015557974577,0.03828449919819832,0.007279250305145979,0.15811346471309662,0.07616064697504044,0.03563059866428375,0.18049883842468262,-0.06732276827096939,0.04778977856040001,-0.021952755749225616,-0.0723702609539032,0.04058916121721268,-0.14872202277183533,0.21235625445842743,-0.1799744963645935,0.007626821286976337,0.021133005619049072,-0.0035332425031811,-0.15878501534461975,0.11016696691513062,0.04934973642230034,0.0918736606836319,-0.01538048591464758,-0.043000586330890656,-0.014881577342748642,0.057805661112070084,0.1498420238494873,0.3415279984474182,-0.08837989717721939,0.04090749844908714,0.027792368084192276,-0.09660404175519943,-0.09726154059171677,0.09714901447296143,0.0036070055793970823,0.06158869341015816,-0.015633869916200638,0.017361996695399284,-0.06886548548936844,0.0997261181473732,-0.005443314090371132,-0.11851318925619125,-0.014973272569477558,-0.08789563179016113,0.08707152307033539,0.04382140934467316,-0.12414001673460007,0.29297947883605957,-0.21368451416492462,0.06733905524015427,-0.06442097574472427,0.24176901578903198,-0.1925605982542038,0.1247885525226593,0.3530254364013672,-0.06718691438436508,-0.17576374113559723,-0.02127361111342907,-0.08867476135492325,-0.06686362624168396,0.16308604180812836,-0.04358982294797897,0.1750497668981552,-0.08661696314811707,0.2812715768814087,-0.03603283315896988,-0.23223523795604706,-0.1155557855963707,-0.028004303574562073,0.1531415432691574,-0.043604638427495956,-0.06426077336072922,-0.16337774693965912,-0.04126903787255287,-0.058013029396533966,-0.02184387668967247,0.10132811218500137,-0.06376846134662628,-0.06693395972251892,0.025562409311532974,-0.1602465808391571,-0.025104470551013947,0.27203047275543213,-0.016725553199648857,-0.07150377333164215,-0.019737858325242996,0.00035022245720028877,0.015359805896878242,0.05072920769453049,0.024223098531365395,0.11164329200983047,0.07556843757629395,0.21368199586868286,0.06962380558252335,-0.1512741595506668,-0.06255923956632614,0.09379330277442932,-0.008192085660994053,0.00940015446394682,0.05631694570183754,-0.09094350785017014,-0.07080845534801483,0.056962087750434875,-0.005471265409141779,-0.1614731401205063,0.03746730834245682,-0.05594435706734657,0.017160004004836082,-0.0645054429769516,0.04981813207268715,-0.05144636332988739,-0.06984007358551025,0.029398873448371887,-0.054407913237810135,0.04999178275465965,0.15742015838623047,0.011684914119541645,0.07992593199014664,0.015864096581935883,0.010596711188554764,-0.04403577744960785,0.03878546506166458,-0.011265787295997143,-0.04121255874633789,-0.03179255872964859,-0.02932014875113964,-0.12696927785873413,-0.007338653318583965,-0.10396139323711395,0.05098436400294304,-0.007988565601408482,0.031809087842702866,-0.019371163100004196,-0.10577502846717834,0.05842089653015137,0.0043235342018306255,0.022804586216807365,-0.10523460060358047,-0.11648375540971756,0.1481264978647232,0.03654371201992035,-0.019184285774827003,0.22011493146419525,-0.06952197849750519,0.12558984756469727,-0.06243962049484253,-0.07083551585674286,-0.17028124630451202,-0.07162418216466904,0.08851156383752823,0.10323592275381088,0.011012483388185501,-0.08479862660169601,0.08486312627792358,0.10777100920677185,0.16280540823936462,0.04252289608120918,0.09453121572732925,-0.21047450602054596,-0.11757685244083405,0.01863609440624714,-0.009695334360003471,-0.018795765936374664,-0.0719660222530365,-0.03370656818151474,-0.16210846602916718,0.00823920127004385,0.04981585219502449,-0.10538984090089798,-0.007486899849027395,0.03900167718529701,0.0469413660466671,-0.06379272788763046,-0.12070060521364212,0.06187858805060387,0.05580613389611244,-0.2582726776599884,0.08326731622219086,0.07959262281656265,0.08097897469997406,-0.06978438049554825,-0.021415214985609055,0.11956782639026642,-0.006894230376929045,-0.05367020145058632,0.08245231211185455,-0.056448232382535934,-0.12023049592971802,-0.08155021071434021,-0.03971530869603157,0.1912672519683838,-0.1521720588207245,0.16567549109458923,0.16411420702934265,0.07490802556276321,0.09008990228176117,-0.0019820232409983873,-0.02255292236804962,-0.02362814173102379,-0.007966124452650547,-0.08799763023853302,0.17581310868263245,-0.15804347395896912,-0.08868078887462616,0.04995937645435333,-0.015794310718774796,-0.04909273982048035,0.05031301826238632,-0.05474942922592163,-0.02848178707063198,0.017792969942092896,0.04359477013349533,-0.012892527505755424,0.12885059416294098,0.04879600182175636,-0.022070713341236115,0.06235054135322571,-0.07252183556556702,0.06915184110403061,0.09221269190311432,-0.023762565106153488,0.014969131909310818,-0.06019430235028267,0.05564383789896965,0.08961395174264908,0.08407482504844666,0.1812245100736618,0.02133612520992756,0.0868801549077034,0.07085391879081726,-0.008082393556833267,-0.006531762890517712,-0.03304276987910271,-0.0042008813470602036,-0.137953519821167,0.0982094332575798,0.1376904547214508,-0.06531492620706558,-0.011484349146485329,-0.12310165911912918,-0.12606413662433624,0.005935318302363157,0.006262762006372213,-0.04802217707037926,0.04905839264392853,0.1187867671251297,0.06201598048210144,-0.037596266716718674,-0.05931774526834488,0.04567253589630127,-0.08009687066078186,-0.030375996604561806,0.06610985845327377,-0.1887267827987671,-0.08025214821100235,0.005583669524639845,-0.03503165394067764,-0.08272846788167953,-0.17239341139793396,-0.11229462921619415,-0.007129789795726538,-0.05734126642346382,0.06682558357715607,-0.05401870608329773,-0.033120349049568176,-0.013609986752271652,-0.010690735653042793,0.11982527375221252,0.02967086434364319,-0.061465829610824585,0.11940935254096985,0.0512225516140461,-0.1335417628288269,0.07456497848033905,0.017833353951573372,0.09930863976478577,0.06043316796422005,0.03844798728823662,-0.14004144072532654,0.04828079044818878,0.05739089474081993,0.07134608179330826,-0.05475190654397011,0.06435250490903854,0.13709059357643127,0.24249280989170074,0.11459193378686905,-0.0480489656329155,0.07825848460197449,0.008618997409939766,0.05187144875526428,-0.07304176688194275,-0.21894867718219757,-0.018664464354515076,0.037944257259368896,-0.1505385935306549,-0.030722150579094887,0.047232698649168015,-0.01788509450852871,0.00705206673592329,-0.026224840432405472,-0.031103888526558876,-0.13617157936096191,0.020610617473721504,0.0028367284685373306,-0.34018099308013916,-0.020121129229664803,-0.06794916093349457,0.0479392409324646,-0.13610759377479553,-0.12502099573612213,-0.10986945033073425,-0.08088111877441406,0.09009096026420593,0.07782534509897232,0.24591417610645294,0.02062704786658287,-0.01027634460479021,-0.0915846973657608,-0.07051704823970795,0.1030581146478653,-0.14682234823703766,0.1143549308180809,0.0650053322315216,-0.014434796757996082,-0.11647681146860123,0.0024073366075754166,0.06774093210697174,0.11976659297943115,0.2943783700466156,-0.0445563830435276,0.03992924094200134,-0.09141351282596588,-0.017738502472639084,0.05378951132297516,0.08206219971179962,-0.16244369745254517,0.08005189895629883,-0.017170999199151993,-0.018592339009046555,-0.08734500408172607,0.015848783776164055,0.03474832698702812,0.030013367533683777,-0.029070960357785225,0.08044958114624023,0.1723880171775818,0.4309696853160858,0.09744323790073395,-0.04241703450679779,-0.11937108635902405,-0.18036805093288422,-0.007918492890894413,-0.06691686809062958,0.10152745246887207,0.056075092405080795,-0.1896427422761917,-0.06078227609395981,0.07987787574529648,0.003991102799773216,-0.1644914448261261,0.00349814398214221,0.1367867887020111,-0.13150252401828766,-0.03559113293886185,0.02622034400701523,-0.0897308960556984,0.01736108772456646,-0.08276554942131042,-0.10513577610254288,-0.050012893974781036,0.24836432933807373,0.06203510984778404,-0.04400821402668953,0.02214936353266239,0.06359302997589111,-0.05212710052728653,0.008322139270603657,-0.19412314891815186,-0.26229211688041687,-0.013256051577627659,-0.18804357945919037,0.10833573341369629,-0.009172364138066769,0.10264039784669876,-0.03838543966412544,0.14499147236347198,-0.19523298740386963,0.0992579385638237,-0.011494025588035583,0.06009931489825249,0.07302650809288025,-0.10883330553770065,0.15367265045642853,0.17635135352611542,-0.2746632397174835,-0.0019251253688707948,0.0016963740345090628,-0.15423345565795898,0.12421663850545883,-0.023218076676130295,0.025374190881848335,-0.1991746425628662,0.034587565809488297,-0.04651784151792526,0.0894932895898819,-0.028709586709737778,-0.09408442676067352,-0.13145509362220764,0.03186904266476631,-0.10467109084129333,-0.051747877150774,-0.18719449639320374,0.05641870200634003,0.0007299411809071898,-0.07170851528644562,-0.22295953333377838,0.026379337534308434,0.0802244171500206,-0.14815141260623932,0.21620382368564606,0.0365959107875824,-0.00957756582647562,-0.049851443618535995,-0.06325419247150421,0.13478606939315796,-0.08397901058197021,-0.04457707703113556,-0.10182536393404007,-0.11519461870193481,0.11763203144073486,0.058765262365341187,0.22298595309257507,0.019492577761411667,0.006608746014535427,-0.28284233808517456,-0.11059397459030151,-0.03790510818362236,-0.07685183733701706,0.007719729095697403,-0.02053608000278473,0.00213257921859622,-0.15791866183280945,-0.1377939134836197,-0.07018778473138809,0.24162361025810242,-0.13004790246486664,-0.15581971406936646,-0.1648944616317749,-0.003320697695016861,0.20994482934474945,0.04480066895484924,-0.08730732649564743,0.13306333124637604,-0.1143762394785881,-0.06328482180833817,0.05029363930225372,-0.10467535257339478,0.014152799732983112,0.17353622615337372,0.06588719040155411,-0.01577882096171379,0.16635394096374512,-0.09049704670906067,0.096922867000103,-0.03141983970999718,-0.09416563808917999,0.011407263576984406,-0.05977500602602959,0.0766858160495758,-0.06263336539268494,0.0642567127943039,0.0712163969874382,0.011434083804488182,0.013846702873706818,0.25992313027381897,0.002016924787312746,0.040705882012844086,0.21166837215423584,-0.03514451906085014,-0.1814786046743393,-0.038281332701444626,0.15811359882354736,0.05187004432082176,0.21194306015968323,-0.12552301585674286,-0.053543854504823685,-0.02735692635178566,-0.04879147931933403,-0.03417892009019852,0.02284579910337925,-0.15071386098861694,-0.08552750945091248,0.011836200021207333,-0.10606727749109268,-0.0428030788898468,0.1750868260860443,0.05662018805742264,-0.09161745756864548,0.03066650964319706,0.020167384296655655,0.0032879235222935677,-0.16241462528705597,0.005319864489138126,-0.020254451781511307,-0.15910372138023376,-0.048738569021224976,-0.012741933576762676,0.033636853098869324,0.14971281588077545,0.06805986166000366,0.20952974259853363,0.014346114359796047,0.13319450616836548,0.1832432746887207,0.15607376396656036,-0.15383346378803253,0.09594643115997314,0.10047933459281921,0.14552344381809235,0.0430031418800354,0.0852271020412445,-0.0627414658665657,0.14367707073688507,0.1994979828596115,0.051224853843450546,-0.18636317551136017,-0.14807704091072083,0.04494548588991165,0.0795539990067482,0.2463918775320053,-0.06205620989203453,-0.028128856793045998,0.031890276819467545,0.05916687101125717,0.13850468397140503,-0.004005511291325092,-0.01231584046036005,-0.22357258200645447,0.0001346852513961494,-0.11083850264549255,0.2152324914932251,0.2038729190826416,-0.030809272080659866,0.04779656231403351,-0.0790654718875885,-0.3058675229549408,0.01402918342500925,-0.043715234845876694,0.09638885408639908,-0.21817804872989655,-0.03533119708299637,0.05103600025177002,0.18325676023960114,-0.14290344715118408,0.05252120643854141,-0.015200823545455933,-0.0580468475818634,-0.08005170524120331,-0.012567870318889618,-0.06340260803699493,-0.16007202863693237,0.1465216726064682,0.15684248507022858,0.09576812386512756,-0.10516766458749771,0.11781889945268631,0.05712103843688965,-0.03986481577157974,-0.1748885214328766,0.10677698254585266,-0.05378609895706177,0.05700397491455078,-0.19887036085128784,-0.0848996490240097,-0.038755882531404495,0.0879802331328392,0.04675285518169403,0.23498542606830597,-0.06446793675422668,-0.02331843227148056,0.22405028343200684,0.1637105792760849,-0.09173411130905151,-0.21839553117752075,0.16884572803974152,-0.17961198091506958,-0.1700707972049713,-0.04906850308179855,-0.02638242207467556,0.13675343990325928,-0.14164038002490997,0.11344383656978607,0.07450040429830551,0.0866326093673706,-0.042034048587083817,-0.0552695170044899,0.10099899023771286,-0.07847832143306732,0.07384838163852692,0.06860893964767456,0.016753464937210083,0.18842332065105438,0.0026208728086203337,-0.2155185341835022,0.1680157333612442,-0.011464464478194714,0.07589709013700485,-0.06747251749038696,-0.16150031983852386,0.12354149669408798,-0.0015500672161579132,0.0908096507191658,-0.0074547105468809605,-0.004864674061536789,0.2861458957195282,0.05291406810283661,-0.16775093972682953,-0.03390900790691376,-0.02620003931224346,0.030846156179904938,0.006583492737263441,0.20988792181015015,0.09685197472572327,-0.06655977666378021,-0.028901074081659317,0.053485412150621414,-0.15465019643306732,-0.05324660986661911,-0.08034800738096237,-0.015001785010099411,-0.019492994993925095,0.04774927720427513,-0.17354469001293182,0.06740149110555649,0.17985883355140686,-0.052248161286115646,-0.08071602880954742,-0.07842972129583359,-0.11404824256896973,0.4884171187877655,-0.03861881420016289,-0.15175268054008484,0.14482666552066803,-0.1288011223077774,0.0535520575940609,-0.013781724497675896,0.052507370710372925,-0.14033657312393188,-0.07636809349060059,0.021803395822644234,0.08394786715507507,-0.011971098370850086,-0.11311367899179459,0.35900357365608215,-0.00044627708848565817,0.04558885842561722,-0.07256637513637543,0.15160930156707764,0.09423454105854034,0.14848913252353668,0.27469325065612793,-0.02583249844610691,0.14351961016654968,0.03633987158536911,-0.0046457694843411446,0.05545416101813316,0.04365617781877518,0.06812117993831635,0.21025170385837555,0.38187283277511597,-0.18387295305728912,0.2157936841249466,0.1653316468000412,0.03701343387365341,0.10680998116731644,-0.2244008332490921,-0.005113455466926098,0.07489876449108124,-0.013205651193857193,0.02776874043047428,0.05010506138205528,0.05362284556031227,-0.13691118359565735,0.06530020385980606,-0.04859957471489906,0.19699323177337646,-0.00667298911139369,0.08892641961574554,0.16802377998828888,0.10435571521520615,-0.0928119346499443,-0.18227383494377136,-0.04650317505002022,0.02895819954574108,0.06416913121938705,-0.08337083458900452,-0.07901418954133987,0.13204124569892883,-0.014990365132689476,-0.013203243725001812,-0.09549494087696075,0.1385011076927185,0.08267047256231308,0.00828184187412262,-0.028637735173106194,-0.03017314523458481,-0.02127157710492611,-0.029447942972183228,-0.16370494663715363,0.05647436901926994,-0.17337265610694885,0.052973732352256775,0.11943601816892624,-0.02301647886633873,-0.16167542338371277,-0.0036955191753804684,0.04882736876606941,-0.04965406656265259,0.016242176294326782,-0.06865294277667999,0.006892903242260218,-0.05856286734342575,-0.06551793217658997,-0.05723922327160835,0.16684861481189728,0.13300447165966034,0.06768374890089035,-0.09696336090564728,0.02486375905573368,0.00028748661861754954,-0.012102728709578514,0.05613662675023079,-0.009972700849175453,0.015420801006257534,-0.2974221706390381,0.12287255376577377,0.056705377995967865,0.0566042922437191,0.09385969489812851,0.24577194452285767,0.013174301944673061,0.026582779362797737,0.07093560695648193,0.04724157229065895,0.03140709176659584,0.0616312138736248,-0.03610080108046532,-0.05612701177597046,-0.12345507740974426,0.025893444195389748,-0.0533578023314476,-0.06820454448461533,-0.12917517125606537,0.12266575545072556,-0.10574008524417877,0.05157770216464996,0.10065306723117828,-0.057235609740018845,-0.010932901874184608,0.06688322871923447,0.0354718379676342,-0.008984874933958054,-0.056897372007369995,-0.02472982183098793,0.020477749407291412,-0.02006600983440876,0.20120491087436676,0.13464435935020447,-0.1260840743780136,0.05645595118403435,0.010816343128681183,0.02517440728843212,0.03298984095454216,-0.128927543759346,-0.14743047952651978,-0.017478125169873238,-0.2335338294506073,0.05080551281571388,-0.037262845784425735,-0.0034153086598962545,-0.04688548669219017,-0.06503510475158691,-0.05193584784865379,0.14252275228500366,0.03609875962138176,-0.02383042499423027,-0.10806535929441452,0.041665542870759964,0.02472974918782711,0.08580251783132553,-0.007325040642172098,0.028279229998588562,-0.15066742897033691,0.1974092572927475,-0.18226300179958344,-0.0874672457575798,0.06583648920059204,0.01512403879314661,0.030132364481687546,0.03492140397429466,-0.07922922819852829,-0.2783365249633789,-0.28375428915023804,0.03127700090408325,-0.056116022169589996,-0.11340813338756561,-0.06502138078212738,-0.32565608620643616,-0.05570892617106438,0.17698290944099426,-0.16306211054325104,0.011375173926353455,0.05874479562044144,-4.810135578736663e-06,-0.03973688930273056,-0.009955769404768944,0.2960691750049591,-0.04870660603046417,-0.12983368337154388,-0.2620444595813751,0.021931177005171776,-0.3959615230560303,0.030670471489429474,0.04737338423728943,-0.14689616858959198,0.19842197000980377,0.04426926001906395,0.15812505781650543,0.002746978309005499,-0.046199120581150055,0.00586959021165967,0.027962101623415947,0.02303435653448105,0.008269868791103363,0.006023877765983343,-0.051283080130815506,-0.0879160612821579,0.18097302317619324,0.08363619446754456,0.20649103820323944,0.13733220100402832,0.07202880084514618,-0.002282223431393504,0.15780487656593323,-0.05249623954296112,0.14979258179664612,-0.024174479767680168,0.03919372335076332,-0.036028362810611725,-0.07593189179897308,-0.053958866745233536,0.17580266296863556,0.0805283933877945,-0.2136683613061905,-0.012975502759218216,-0.0015385368606075644,-0.07876577228307724,-0.12275431305170059,-0.12270496040582657,-0.3134579360485077,0.15684926509857178,0.04045327380299568,-0.004618764389306307,-0.007332570850849152,0.04101279377937317,0.09459572285413742,0.08507747203111649,-0.10627331584692001,0.008898738771677017,0.18783046305179596,0.16588996350765228,-0.0650951936841011,-0.212288498878479,0.007339327596127987,0.08217975497245789,-0.022981291636824608,0.06948496401309967,0.12902462482452393,-0.05656065419316292,-0.12101512402296066,-0.12292599678039551,0.0369286984205246,0.2267264425754547,-0.040241338312625885,0.011090192012488842,0.0486198365688324,0.06296864151954651,0.04072389379143715,-0.0018431858625262976,0.1964697241783142,0.08254584670066833,0.024652939289808273,-0.17798790335655212,0.010480879805982113,0.07694411277770996,-0.11750837415456772,-0.1350744217634201,-0.01613115333020687,-0.13046510517597198,-0.05932360887527466,-0.01949566788971424,0.02155941352248192,0.0020133615471422672,-0.04211169481277466,-0.07460450381040573,0.03800882771611214,0.01574280671775341,0.16777686774730682,0.08312054723501205,-0.03695400059223175,0.1158350482583046,-0.044907063245773315,-0.048096492886543274,0.012081529945135117,-0.25883519649505615,-0.002292925026267767,-0.0807541087269783,-0.023523153737187386,-0.14371709525585175,0.06524553894996643,-0.12136293202638626,-0.1978701800107956,0.025256209075450897,-0.1338609755039215,-0.008546869270503521,-0.035039473325014114,-0.049259550869464874,-0.1271308958530426,0.12993435561656952,0.13164754211902618,0.046095047146081924,-0.02170390449464321,0.13562534749507904,-0.21030983328819275,-0.07061992585659027,-0.031373489648103714,0.030810076743364334,0.011683356016874313,0.14310599863529205,-0.03647339344024658,0.10467799007892609,0.0748523622751236,0.044839248061180115,0.06769821047782898,0.019994141533970833,-0.26783761382102966,0.09611204266548157,0.08906873315572739,0.03159105032682419,0.04847556725144386,0.04128815233707428,0.022068070247769356,-0.06605180352926254,-0.08269856125116348,-0.10075041651725769,-0.0014575399691239,0.10081905871629715,0.381407767534256,0.020931301638484,0.04279390349984169,0.05539916455745697,-0.05613642930984497,-0.02823833003640175,-0.03840576112270355,0.03497101739048958,-0.0063478900119662285,0.14601898193359375,0.15121044218540192,-0.04867684096097946,0.0837596133351326,0.051606159657239914,0.24668388068675995,-0.019645534455776215,-0.08129744976758957,0.09630022943019867,0.0868249386548996,0.04823825880885124,-0.08223173767328262,0.04744476452469826,-0.04090325906872749,-0.04734596610069275,-0.04211534932255745,0.0009309739689342678,-0.05260714143514633,-0.17619940638542175,-0.17506136000156403,-0.009839345701038837,-0.010680674575269222,0.09102198481559753,0.041320059448480606,-0.0931340679526329,0.090131014585495,-0.0578995980322361,-0.023798517882823944,-0.1261180341243744,0.016654081642627716,0.011328323744237423,-0.053359661251306534,-0.05532199889421463,0.11722584068775177,0.06991741061210632,0.018214654177427292,0.018940025940537453,-0.04862487316131592,0.014001685194671154,0.050178468227386475,-0.012206199578940868,0.23627245426177979,0.1124524176120758,0.0645093247294426,-0.027467751875519753,0.12456203997135162,-0.04961873218417168,0.0413796491920948,-0.0939592495560646,0.03616657108068466,0.17359894514083862,0.011473381891846657,0.17708897590637207,0.07395946979522705,-0.011554653756320477,-0.017610078677535057,-0.0787104144692421,-0.08104904741048813,-0.06574682146310806,-0.09645898640155792,0.13686957955360413,-0.01968148536980152,-0.15735483169555664,0.021921897307038307,0.17270570993423462,0.18224291503429413,0.0036600136663764715,-0.06357695162296295,0.10979495197534561,0.11247406899929047,0.0057336315512657166,0.0703214704990387,-0.0378621481359005,-0.1462527960538864,-0.026742011308670044,-0.09799478948116302,-0.08115020394325256,-0.020344771444797516,0.14860637485980988,-0.06603562086820602,0.05883453041315079,-0.009975221008062363,-0.045732513070106506,0.12659068405628204,-0.07953744381666183,-0.01355423592031002,0.12363830208778381,0.11060202866792679,-0.14778245985507965,0.035147786140441895,0.09753593802452087,-0.0591009147465229,0.0140476543456316,-0.0744548812508583,-0.135230153799057,-0.16633351147174835,-0.022855401039123535,-0.008988531306385994,-0.20052003860473633,-0.08973493427038193,0.05192583054304123,-0.0441107302904129,-0.06916330009698868,-0.06571000069379807,-0.03645283728837967,0.11287861317396164,0.143584743142128,0.005131611600518227,0.17771686613559723,0.03938890993595123,-0.021011700853705406,0.014282040297985077,0.10098445415496826,0.0377160906791687,0.02580946311354637,0.01162197720259428,0.16636137664318085,-0.06138315796852112,-0.08837993443012238,-0.12538203597068787,0.13769428431987762,-0.02337566390633583,-0.06668854504823685,-0.09112969785928726,0.11386292427778244,0.06052778661251068,0.016505714505910873,0.07870396226644516,0.0467396154999733,-0.13407482206821442,0.1431039720773697,0.22905074059963226,0.19393274188041687,-0.18636631965637207,0.04565533623099327,-0.10664815455675125,-0.02453572303056717,-0.07824953645467758,0.16500520706176758,-0.12347839027643204,-0.06608302891254425,-0.17349813878536224,0.03200457617640495,0.09143826365470886,-0.06882940977811813,-0.08440305292606354,0.006895569618791342,0.015834737569093704,0.02433353289961815,0.2095353901386261,0.10776253789663315,-0.07193488627672195,-0.1405443549156189,0.10376022011041641,0.15505163371562958,-0.09500296413898468,0.1416781097650528,0.1412971466779709,0.026200123131275177,0.3470330536365509,-0.03055889904499054,-0.11294125765562057,-0.10702516883611679,0.17513012886047363,0.16830725967884064,0.12101346999406815,0.07109673321247101,0.09368783980607986,-0.05205923318862915,0.03994937613606453,-0.09769583493471146,-0.02755788154900074,-0.03781687468290329,0.15961244702339172,0.012856575660407543,0.14106200635433197,-0.22955933213233948,-0.04693420231342316,-0.19151201844215393,0.15424884855747223,-0.35903647541999817,-0.10432964563369751,-0.08477843552827835,0.3267534375190735,0.060864828526973724,0.12906937301158905,-0.0006665859837085009,-0.15395119786262512,-0.014990948140621185,-0.003564088838174939,-0.05614084750413895,0.025171533226966858,0.029951833188533783,-0.11406455934047699,0.11993872374296188,-0.07064349204301834,0.053394291549921036,0.06319253146648407,0.2695406973361969,0.0487486831843853,-0.08195248991250992,0.0424119234085083,-0.05214777588844299,-0.08439742028713226,-0.16441814601421356,0.02437778003513813,0.03671330213546753,0.03024989366531372,0.03904249519109726,0.08290844410657883,-0.23872420191764832,0.1685394048690796,-0.005243477411568165,0.07217960804700851,0.23228013515472412,0.03674311190843582,0.22720502316951752,0.02062833309173584,-0.20082008838653564,0.13720473647117615,-0.057266294956207275,-0.20005905628204346,0.1300504058599472,0.051747459918260574,-0.20984436571598053,-0.07551524043083191,0.171873077750206,-0.04557941481471062,-0.07830801606178284,0.02355910837650299,-0.07214751839637756,0.07634305208921432,0.15840931236743927,-0.29585471749305725,-0.11709687113761902,0.11028238385915756,-0.12954160571098328,-0.043799493461847305,-0.07175064831972122,0.24596911668777466,-0.10945688188076019,0.12298964709043503,0.08914944529533386,0.046649061143398285,-0.02251330576837063,-0.13420331478118896,0.14049482345581055,-0.024874724447727203,-0.06717509776353836,0.05068682134151459,0.08227453380823135,0.0511237196624279,0.016634564846754074,-0.09491633623838425,-0.17036040127277374,0.10394672304391861,0.019588373601436615,-0.035567861050367355,-0.07921997457742691,0.04046429693698883,-0.06577126681804657,-0.06149354949593544,0.1950988918542862,0.26175621151924133,-0.1475071907043457,-0.08459662646055222,-0.025539357215166092,-0.10749953240156174,-0.12594515085220337,0.04234742745757103,-0.006026210263371468,0.12501709163188934,-0.023849429562687874,0.09530606120824814,-0.09940703213214874,-0.214830681681633,-0.028758028522133827,0.16053640842437744,0.13184167444705963,-0.17082610726356506,-0.12061295658349991,0.007122224196791649,0.009862289763987064,0.07521820068359375,-0.020338136702775955,-0.12156366556882858,-0.02703990414738655,0.030597543343901634,-0.09713509678840637,-0.011851588264107704,-0.03279820829629898,0.04125677049160004,0.08155910670757294,-0.2363073080778122,0.026266969740390778,0.17389686405658722,-0.1462453007698059,-0.050938285887241364,-0.04653136432170868,0.25810179114341736,0.003480775747448206,0.05487619712948799,0.061951711773872375,0.10080882161855698,-0.09799971431493759,0.1004662737250328,-0.1447024643421173,-0.0895567238330841,0.07959020882844925,-0.015216530300676823,0.04411960020661354,0.18145723640918732,-0.003985454794019461,-0.09184163808822632,0.012402710504829884,0.13859519362449646,-0.05790232494473457,-0.011552136391401291,-0.14365024864673615,-0.0370430164039135,8.438722579739988e-05,0.14312036335468292,-0.12845970690250397,0.19997690618038177,-0.15770114958286285,0.00847054086625576,-0.0972367599606514,-0.09756465256214142,-0.02329477109014988,0.00030802248511463404,-0.08704815059900284,-0.16857926547527313,0.2635134756565094,-0.08796398341655731,-0.03508811444044113,0.02930169552564621,-0.055919717997312546,-0.19274745881557465,-0.11835318058729172,0.08542638272047043,-0.20186422765254974,-0.13307835161685944,-0.01036750990897417,-0.007906782440841198,-0.1306997835636139,0.10024559497833252,0.04308455437421799,-0.08712581545114517,-0.014663852751255035,0.13822421431541443,-0.02011162042617798,0.06572243571281433,-0.09168771654367447,0.09850914031267166,0.07961130142211914,0.2735915184020996,-0.037968091666698456,0.10613147914409637,0.0811929702758789,0.02893911860883236,-0.04934428259730339,0.19463981688022614,-0.11883550137281418,-0.07308939844369888,-0.12054425477981567,-0.04878411069512367,-0.09464104473590851,-0.2384236454963684,-0.06876053661108017,0.03201175481081009,-0.1306842565536499,-0.143307626247406,0.012592107988893986,-0.042792513966560364,-0.04641861841082573,-0.1258062869310379,0.036655064672231674,-0.06113000586628914,-0.05429338291287422,-0.16041046380996704,-0.03265325352549553,0.175489142537117,-0.15777082741260529,-0.04650015011429787,-0.2199409306049347,0.07218404859304428,0.016567377373576164,0.23351384699344635,0.054874956607818604,-0.029460879042744637,-0.009017623960971832,-0.24567732214927673,-0.17673030495643616,-0.22343546152114868,0.01980312168598175,-0.17009559273719788,-0.02359977550804615,-0.002414271468296647,-0.16225622594356537,-0.1253594309091568,-0.016467176377773285,0.045034587383270264,-0.0484764464199543,-0.045518651604652405,-0.07922735065221786,-0.13292326033115387,0.01415631640702486,0.026857974007725716,-0.09832719713449478,0.22746706008911133,-0.11793361604213715,0.013830799609422684,0.045904867351055145,-0.012653992511332035,0.18153820931911469,0.06247679144144058,-0.03417809680104256,0.16869983077049255,-0.04624055698513985,0.08609975129365921,0.014656316488981247,-0.10494290292263031,-0.03819351643323898,0.16448988020420074,-0.21439078450202942,-0.10838831961154938,0.13299725949764252,-0.05012403801083565,0.03699171543121338,0.001454399898648262,0.11978674679994583,0.00562985148280859,-0.10134320706129074,-0.18001551926136017,-0.0508987158536911,0.1015649139881134,0.014826683327555656,-0.009566384367644787,-0.13048645853996277,-0.029793092980980873,0.02847428061068058,0.14803935587406158,-0.026206422597169876,-0.16926699876785278,-0.18515326082706451,0.025085167959332466,-0.28998440504074097,-0.013872209005057812,0.10834845155477524,-0.020396646112203598,0.11710181832313538,-0.03498103469610214,0.02851996198296547,0.11183585971593857,-0.09688421338796616,0.07438318431377411,-0.008956915698945522,0.015901826322078705,0.030080588534474373,-0.11170319467782974,-0.006034997291862965,0.03377717360854149,-0.10136155039072037,-0.21221189200878143,0.05550376698374748,-0.018654366955161095,-0.07518002390861511,-0.005610848311334848,-0.08723525702953339,0.03193112090229988,0.08478806167840958,-0.10012219846248627,0.13163159787654877,-0.07025720924139023,0.05538089945912361,-0.08861040323972702,-0.08715670555830002,0.04949994385242462,-0.12996353209018707,-0.06175753474235535,0.049761608242988586,-0.07541514188051224,-0.05817682668566704,0.12775777280330658,-0.005991206504404545,0.044437017291784286,0.06106627359986305,-0.02441331185400486,-0.06110326945781708,-0.11258477717638016,-0.14256854355335236,-0.09055263549089432,0.2558121085166931,0.11465267091989517,0.10174255073070526,0.030229849740862846,-0.08866887539625168,0.08087462186813354,-0.09887558221817017,0.035127054899930954,0.022861437872052193,0.02325473539531231,0.05497026816010475,-0.16679714620113373,-0.09174444526433945,-0.08530797064304352,-0.1972017139196396,-0.1542159616947174,-0.06722111254930496,-0.03999723494052887,-0.11840680986642838,0.10773912817239761,-0.07423616945743561,0.06812933832406998,-0.03408055007457733,0.04531977325677872,-0.08335278928279877,0.1419350951910019,0.1298588514328003,0.08362238109111786,-0.031604886054992676,0.07234038412570953,-0.14527535438537598,-0.07909148931503296,-0.17722821235656738,0.05002300441265106,-0.138507679104805,0.10454006493091583,-0.0778949037194252,-0.014101211912930012,-0.04503798484802246,-0.2229662388563156,0.04020778462290764,-0.1146760955452919,0.20914612710475922,-0.010669251903891563,0.12492457032203674,-0.07382261753082275,-0.1330179125070572,-0.019695164635777473,0.04857061058282852,-0.08220213651657104,0.05747886374592781,0.07988764345645905,0.05046790465712547,-0.015285142697393894,-0.05004172772169113,0.04429962486028671,0.20664656162261963,0.02911653183400631,0.05150846391916275,0.05950957164168358,0.05369069054722786,-0.22273576259613037,0.16994686424732208,-0.010484471917152405,-0.04539158195257187,-0.03611515462398529,-0.050631485879421234,0.014869761653244495,-0.17332173883914948,-0.04140602797269821,0.1411689817905426,-0.07439694553613663,-0.07038822770118713,0.08157829195261002,0.15766984224319458,0.06574933975934982,-0.08808581531047821,-0.04395800456404686,0.10179518908262253,-0.07864131033420563,-0.032598596066236496,0.08322451263666153,-0.07348325103521347,0.03431513160467148,-0.059556543827056885,-0.10441254824399948,0.03491908684372902,-0.03566640242934227,-0.004382506012916565,-0.032116472721099854,-0.0018871808424592018,0.052546776831150055,-0.024214940145611763,-0.07243383675813675,-0.0329648032784462,0.03365378826856613,-0.11757592111825943,-0.029044760391116142,-0.07875305414199829,0.003228354500606656,0.12476403266191483,-0.1714644432067871,-0.028101781383156776,0.04526430368423462,0.12891224026679993,0.002573856385424733,0.20213280618190765,-0.02428409643471241,0.02181329019367695,0.11066019535064697,-0.02114277519285679,0.2207377552986145,0.03521395102143288,-0.19912374019622803,-0.010476566851139069,-0.10241428017616272,0.12236419320106506,-0.021606523543596268,0.014308073557913303,0.010477036237716675,0.17014245688915253,0.07766322791576385,0.01673443615436554,-0.010709680616855621,0.13944141566753387,-0.16319864988327026,-0.16580766439437866,-0.08461949974298477,0.06996716558933258,0.07887633889913559,0.11489167809486389,-0.07665448635816574,-0.01232586707919836,-0.08082558214664459,-0.0425441712141037,-0.07095570862293243,-0.020091528072953224,0.15819227695465088,-0.021841026842594147,-0.033349186182022095,0.024015678092837334,-0.19665707647800446,-0.10875121504068375,-0.07070446759462357,0.21233738958835602,-0.08483319729566574,0.09714305400848389,-0.007404053583741188,0.06623074412345886,0.1685503125190735,-0.04646127671003342,-0.03372908756136894,-0.011937469244003296,-0.13772372901439667,0.01684003882110119,-0.051814865320920944,0.014111892320215702,-0.08775097131729126,0.05415600165724754,0.08581912517547607,-0.06222615763545036,0.04739035665988922,-0.04120400547981262,-0.013440688140690327,-0.2587265372276306,0.02013869397342205,-0.00472618592903018,-0.11710558086633682,0.050299227237701416,0.17093737423419952,0.13021472096443176,-0.10771262645721436,-0.025393513962626457,0.07325499504804611,0.14035284519195557,-0.047219522297382355,-0.08444883674383163,-0.17942646145820618,-0.11179304122924805,-0.029420815408229828,0.017807472497224808,0.04665883257985115,-0.1023867055773735,0.0077937752939760685,-0.05957132205367088,-0.0152378398925066,0.1008593887090683,-0.07153332233428955,0.09518790245056152,0.07137280702590942,-0.09239470958709717,0.09404686093330383,0.034236010164022446,-0.3065226972103119,-0.0014461468672379851,-0.03299012407660484,-0.12702907621860504,-0.03695017099380493,0.08248259872198105,0.07452867925167084,-0.03049890510737896,-0.010128861293196678,0.021780241280794144,0.015290300361812115,-0.0860586017370224,0.0478077158331871,0.03424810618162155,0.12528128921985626,-0.14424745738506317,0.17496728897094727,0.04283582791686058,0.0217055082321167,-0.16052235662937164,-0.01744149625301361,-0.02475028485059738,0.13871821761131287,-0.07091698050498962,0.0007099478971213102,-0.05420442298054695,-0.06107448413968086,-0.015612434595823288,-0.07110072672367096,0.02869253419339657,0.23819440603256226,0.014767011627554893,-0.1277587115764618,-0.08557375520467758,-0.05393490567803383,0.04396327957510948,-0.11929948627948761,-0.15888525545597076,0.06991063803434372,-0.15427565574645996,-0.0993431955575943,0.21686382591724396,0.015708763152360916,0.1252073049545288,-0.10084865242242813,0.3100068271160126,0.029956499114632607,0.1957658976316452,0.10670352727174759,0.15143035352230072,0.036692194640636444,0.06375680863857269,0.07710836827754974,0.13702106475830078,0.14113637804985046,-0.19281938672065735,-0.1595291793346405,-0.055932432413101196,-0.04310416430234909,-0.06669648736715317,0.16899162530899048,-0.045575302094221115,0.03413355350494385,-0.017524825409054756,-0.038614772260189056,0.25285524129867554,-0.1069120392203331,0.03434843569993973,-0.02717478945851326,-0.16560034453868866,-0.027355056256055832,0.2439814805984497,-0.0730191320180893,0.059937529265880585,-0.045457951724529266,0.1253538578748703,-0.071949303150177,-0.0013787037460133433,-0.007788722403347492,-0.12053188681602478,0.02624482288956642,0.017145641148090363,-0.15148013830184937,0.04592098295688629,0.10099075734615326,0.09602315723896027,-0.10979946702718735,0.2019454836845398,-0.12924040853977203,0.012105580419301987,0.04791902005672455,0.158409982919693,0.03969528526067734,0.02130107209086418,0.055031467229127884,-0.23010866343975067,0.05962839722633362,0.15451963245868683,0.08347494155168533,-0.07865193486213684,0.2094600945711136,-0.01741155982017517,0.17813719809055328,0.07010335475206375,0.29403576254844666,0.09851157665252686,0.08290645480155945,0.11317102611064911,0.2714027464389801,0.16647829115390778,-0.024992145597934723,-0.16476674377918243,0.19863730669021606,0.10082725435495377,-0.011947596445679665,-0.070213183760643,-0.12924829125404358,-0.21549928188323975,0.2391410917043686,0.04702721908688545,-0.15615709125995636,-0.03644588217139244,-0.07823695987462997,0.5832731127738953,0.06312791258096695,-0.07746268063783646,0.003166751004755497,-0.304691344499588,-0.12331388890743256,0.3089839518070221,-0.05204338580369949,0.09478811919689178,0.1696716845035553,0.1867668181657791,-0.10261129587888718,-0.05907519906759262,0.25817546248435974,0.410847008228302,0.11320921778678894,-0.07546492666006088,-0.051600243896245956,0.01658492721617222,0.22952190041542053,0.05880129337310791,-0.02806270681321621,-0.168599933385849,-0.09276241809129715,0.03665558621287346,-0.18600532412528992,-0.12099231034517288,0.040538687258958817,0.07986323535442352,0.14231519401073456,0.1432068943977356,0.4215583801269531,-0.11085239052772522,-0.04378927871584892,-0.0009550433023832738,-0.0037601906806230545,-0.07541715353727341,-0.13427065312862396,0.11455700546503067,-0.2476658970117569,0.01985989697277546,0.04483073949813843,0.06318662315607071,0.022543827071785927,-0.01429774984717369,0.05949876084923744,-0.1841508150100708,0.010107959620654583,-0.20555448532104492,-0.1339244246482849,-0.11551633477210999,0.10536621510982513,-0.02971320040524006,-0.07042165100574493,0.09706483781337738,0.1928684264421463,0.17330189049243927,-0.09349353611469269,-0.1623910516500473,-0.003423578105866909,0.016144488006830215,-0.024677250534296036,-0.05072363093495369,0.06497596204280853,-0.1388888657093048,0.006729155778884888,-0.004575506784021854,0.01912171021103859,-0.17895929515361786,0.014553898945450783,-0.22029010951519012,-0.01744833216071129,0.032762035727500916,0.08884645998477936,0.11498492956161499,-0.1509750485420227,0.1766873002052307,0.05571362003684044,0.04005777835845947,0.011965352110564709,0.10261698812246323,-0.03297337144613266,0.13457399606704712,-0.03804353252053261,0.003864071797579527,0.07582733035087585,-0.1386091262102127,-0.13063758611679077,-0.21729335188865662,0.16220591962337494,0.14523763954639435,0.004844025243073702,-0.008611719124019146,0.11527709662914276,0.23615555465221405,0.08902591466903687,-0.0823909342288971,-0.12833154201507568,0.13050882518291473,-0.16376453638076782,0.19735980033874512,0.03872703015804291,0.05659376084804535,-0.0636335089802742,0.025048989802598953,-0.04147282615303993,-0.06800459325313568,-0.08109641075134277,-0.05659497529268265,0.14535459876060486,-0.11126946657896042,0.06048727408051491,0.004230994265526533,0.00027531711384654045,0.06524644792079926,-0.009704718366265297,-0.10803776234388351,0.16208913922309875,-0.054066773504018784,0.07450252771377563,0.01495135948061943,-0.09878185391426086,0.16538099944591522,-0.24223323166370392,0.12351422011852264,0.14009195566177368,0.12768030166625977,0.01673715189099312,-0.02196626551449299,0.1576143503189087,0.21384857594966888,0.20159073173999786,-0.1371113657951355,-0.13369353115558624,-0.096718929708004,0.08648756891489029,0.004030278883874416,-0.06276627629995346,0.18898427486419678,0.016405373811721802,-0.08826753497123718,-0.14236466586589813,0.03682553768157959,0.040221989154815674,0.004583629313856363,-0.03607260435819626,0.12043092399835587,0.026011841371655464,-0.055703114718198776,0.20448105037212372,-0.008574746549129486,-0.07354333251714706,-0.0520830936729908,0.06711877882480621,-0.08419579267501831,0.20801763236522675,0.1740090399980545,0.0786728709936142,-0.07448204606771469,-0.04354718327522278,0.09370000660419464,0.07217931747436523,-0.06204826384782791,0.14403145015239716,-0.11933532357215881,-0.00513563584536314,-0.0063542467541992664,-0.03188331425189972,0.13338077068328857,-0.04057912528514862,-0.013184890151023865,-0.03631078824400902,-0.07404416054487228,0.17527054250240326,0.10291403532028198,0.12136497348546982,0.028211582452058792,0.01800270564854145,0.05858093500137329,0.24685798585414886,0.04867291823029518,0.09295764565467834,0.10899230092763901,0.1349378079175949,-0.14355304837226868,-0.01945520006120205,0.02174270525574684,-0.01654871739447117,0.13523484766483307,0.0356832779943943,-0.095261350274086,0.1217389702796936,-0.06318453699350357,-0.1040051206946373,0.08563597500324249,-0.057989489287137985,-0.1294451206922531,0.11982567608356476,0.046316225081682205,0.018217584118247032,0.12076714634895325,0.031120773404836655,-0.013326101005077362,-0.10734029114246368,0.060574598610401154,0.009032869711518288,0.09303028136491776,-0.0030021951533854008,-0.026756256818771362,-0.0906192883849144,-0.1221994087100029,0.03580425679683685,0.27179476618766785,-0.1564740538597107,-0.02617718279361725,-0.09467139095067978,-0.06885708123445511,0.02701394446194172,-0.10051357001066208,0.02023250237107277,0.15551058948040009,0.040479470044374466,0.07152549177408218,0.10492759943008423,-0.1441970318555832,0.003219312522560358,0.005856422241777182,0.11918069422245026,0.09813794493675232,-0.07223203033208847,0.11236046254634857,0.14802631735801697,0.05761785805225372,-0.07499855011701584,0.11834101378917694,-0.06440461426973343,-0.10642731189727783,-0.0010811917018145323,-0.17590725421905518,0.10013365000486374,0.12999826669692993,-0.1547098606824875,-0.07860805839300156,-0.11883603036403656,0.23271282017230988,0.10946891456842422,-0.02410576120018959,-0.1456102877855301,0.0020530899055302143,0.014668062329292297,0.04063377156853676,0.13073985278606415,0.037715498358011246,-0.01557358168065548,0.06479021161794662,-0.04440774396061897,-0.012082768604159355,0.0007664267322979867,-0.22033466398715973,0.18229766190052032,-0.11891494691371918,-0.22213663160800934,-0.034692518413066864,-0.16526399552822113,-0.21024958789348602,0.01292098592966795,-0.09048158675432205,-0.00703519256785512,-0.06554549187421799,-0.07736276835203171,-0.03635258972644806,-0.08901353925466537,-0.06532136350870132,-0.024678880348801613,0.14634105563163757,-0.13609588146209717,-0.017965378239750862,-0.04937959089875221,-0.027973676100373268,-0.03735397011041641,-0.028818385675549507,0.093194879591465,0.10835031419992447,0.017806606367230415,-0.019592927768826485,-0.0006521918112412095,0.06736214458942413,-0.018295148387551308,0.023710303008556366,0.07438864558935165,-0.1847226321697235,0.004245269112288952,0.009908497333526611,-0.10336299985647202,-0.016056109219789505,0.07991629093885422,-0.013200125657022,0.1461971551179886,-0.09978535026311874,0.24230892956256866,-0.19984088838100433,0.23451223969459534,-0.08881816267967224,-0.03564899414777756,-0.023227591067552567,-0.040268365293741226,0.1774010956287384,0.05733489245176315,0.13476677238941193,-0.210587278008461,-0.02026817947626114,0.16473110020160675,0.06487327069044113,-0.02620083838701248,0.05494389310479164,-0.003524349769577384,-0.08078069239854813,0.019834058359265327,0.017679488286376,-0.07478874921798706,0.019829101860523224,-0.05522160977125168,-0.01341965515166521,0.05810416489839554,-0.19427822530269623,0.16924428939819336,0.1653149276971817,-0.15313643217086792,0.04682846739888191,-0.0016419441672042012,-0.06186540052294731,-0.06498190015554428,-0.05391724035143852,-0.0953930988907814,-0.07089013606309891,-0.04759856313467026,-0.06348327547311783,0.023355331271886826,0.03076256439089775,0.186961367726326,0.07473534345626831,0.003159556072205305,0.1889718472957611,0.10091502964496613,-0.14008663594722748,-0.020639609545469284,-0.05817659571766853,0.03583349660038948,0.17727801203727722,-0.17578823864459991,-0.02894236333668232,-0.06150054931640625,0.09939686208963394,0.1964036226272583,0.01396822277456522,-0.09089665114879608,0.0355021134018898,-0.03712007775902748,0.11631929129362106,-0.014615262858569622,0.05540051683783531,-0.1016782745718956,-0.1268841028213501,-0.10753551870584488,-0.02559073269367218,-0.07428228110074997,0.11539892852306366,0.003936663269996643,-0.0018740847008302808,0.005371891427785158,0.06147303804755211,0.09347354620695114,0.061093203723430634,0.005035074893385172,0.02896975912153721,-0.049257807433605194,-0.06948444992303848,-0.049122340977191925,0.036082763224840164,-0.10122344642877579,-0.021437162533402443,0.03538535535335541,-0.033696625381708145,0.11542308330535889,-0.24719339609146118,0.06960326433181763,0.0008917744853533804,-0.019534096121788025,-0.08383184671401978,-0.09251010417938232,0.20590466260910034,0.1417553573846817,-0.09006937593221664,-0.07338655740022659,-0.03237161785364151,-0.16275617480278015,-0.03419092670083046,0.0008584508905187249,0.07876909524202347,-0.0014981532003730536,0.05822380632162094,0.10422000288963318,-0.17181307077407837,0.14189355075359344,-0.0735846757888794,-0.050234392285346985,-0.1793329119682312,-0.010955099947750568,0.22168415784835815,0.19079875946044922,0.2842715084552765,-0.06534247100353241,0.19463112950325012,0.11942952871322632,-0.11080680042505264,-0.0510445311665535,-0.19515827298164368,-0.22189240157604218,0.12376582622528076,-0.08861881494522095,-0.006394343450665474,-0.03533503785729408,-0.10489826649427414,-0.056261803954839706,0.13838228583335876,0.14652720093727112,-0.058168210089206696,-0.07000449299812317,-0.03662630915641785,-0.12733037769794464,0.059340525418519974,-0.2058168202638626,-0.051896486431360245,0.023531625047326088,-0.08244983851909637,-0.05233626812696457,0.1114397794008255,-0.1882401555776596,-0.11071888357400894,-0.027753738686442375,0.11358674615621567,0.06606095284223557,-0.19070953130722046,-0.059958796948194504,0.14290466904640198,-0.1458657830953598,-0.0009336997754871845,0.31558215618133545,0.08497831225395203,0.37549638748168945,-0.10884521901607513,0.04117443040013313,0.17008912563323975,0.0830840915441513,-0.1548195779323578,-0.09029881656169891,0.12861268222332,0.08604171872138977,0.1127086952328682,0.11709865182638168,0.3087245225906372,-0.1210404708981514,0.21713539958000183,-0.10081050544977188,0.16312025487422943,0.022499078884720802,-0.05211242288351059,0.09106696397066116,0.07941016554832458,0.07273222506046295,-0.01232828851789236,-0.19195887446403503,0.04135018214583397,0.19354791939258575,0.27589941024780273,-0.14102841913700104,-0.08137595653533936,0.21937395632266998,0.3207899034023285,-0.11774633824825287,0.2930097281932831,-0.023700306192040443,-0.010849072597920895,0.04308554157614708,-0.1401907056570053,0.01184488832950592,0.1854947805404663,-0.050390467047691345,0.09916342049837112,-0.021355774253606796,-0.08085417747497559,-0.15697191655635834,0.0005174698308110237,0.18368610739707947,-0.13699971139431,-0.03960436210036278,0.2697826027870178,0.180683434009552,0.07663904130458832,0.04006002098321915,-0.16904227435588837,-0.020675286650657654,-0.10083526372909546,0.05935888737440109,0.01625705510377884,-0.08118604868650436,0.117646224796772,0.16194821894168854,0.002313210628926754,-0.02838391624391079,0.4034351706504822,-0.06316109001636505,0.03190816566348076,-0.2722141444683075,0.11424942314624786,0.19927722215652466,-0.04619172215461731,-0.25280052423477173,0.045164357870817184,0.08130387961864471,-0.11758709698915482,-0.046537742018699646,-0.000272109144134447,0.1271887719631195,-0.18414875864982605,-0.025730352848768234,0.010802880860865116,0.1892978698015213,-0.06053188443183899,-0.21716520190238953,0.10863134264945984,0.07122279703617096,0.006046002730727196,-0.13607905805110931,0.037971220910549164,0.1311207413673401,0.15324988961219788,0.11764342337846756,0.0483013391494751,0.06546720862388611,-0.1284126192331314,0.07813723385334015,0.0852079913020134,-0.04279590770602226,-0.053003184497356415,0.1010383889079094,-0.10279566049575806,-0.030743055045604706,-0.13548915088176727,-0.06794428825378418,-0.09090171754360199,0.03670963644981384,0.11137395352125168,0.14921511709690094,0.043918829411268234,0.08087947964668274,-0.07252218574285507,0.031896449625492096,0.37317025661468506,0.031095203012228012,-0.03515559807419777,-0.2515720725059509,-0.22815650701522827,0.06978679448366165,0.1094403937458992,0.1816253960132599,0.1364763379096985,-0.1307898908853531,-0.4302472770214081,0.008097577840089798,-0.024435710161924362,-0.09058327972888947,0.07209379971027374,0.14858664572238922,-0.0858820229768753,0.3789525330066681,0.09811058640480042,-0.21254777908325195,0.07552880048751831,-0.02611887827515602,0.14058804512023926,0.12748819589614868,-0.06626217067241669,0.13471359014511108,0.005360329523682594,-0.07766198366880417,0.016169458627700806,-0.016951145604252815,-0.004714068956673145,-0.10720956325531006,-0.004814012907445431,0.17883703112602234,-0.09411236643791199,-0.12142879515886307,-0.07833169400691986,-0.1553661823272705,0.2386995404958725,-0.09056099504232407,0.1860540211200714,-0.12623627483844757,0.16810621321201324,-0.21960178017616272,-0.09577453881502151,0.013978216797113419,0.02846204675734043,0.013893631286919117,0.27824294567108154,-0.07286634296178818,-0.1602635532617569,0.03397819399833679,0.05752009153366089,0.15835735201835632,-0.06346799433231354,0.3298516273498535,0.017188280820846558,0.38851675391197205,-0.10457851737737656,0.269320011138916,-0.10659929364919662,0.0022552120499312878,-0.12284482270479202,0.08615873008966446,0.36842384934425354,-0.15848775207996368,0.19423680007457733,0.09648773819208145,0.03825615346431732,-0.08982972800731659,0.3374984860420227,-0.11981072276830673,0.1725284308195114,0.006871568039059639,0.030796723440289497,-0.15720610320568085,-0.01941472478210926,-0.12788549065589905,0.1136164516210556,-0.008810043334960938,-0.001650673570111394,0.025530098006129265,0.02568807825446129,-0.10926690697669983,0.0827721655368805,-0.09226331114768982,0.08844505250453949,0.04088428616523743,0.03734239190816879,-0.30651670694351196,-0.035641711205244064,0.016265761107206345,-0.12166476249694824,-0.0927419513463974,-0.27586162090301514,0.14234454929828644,0.09630628675222397,-0.011273272335529327,0.07970728725194931,-0.04070177674293518,-0.21828800439834595,-0.008434283547103405,0.020491864532232285,0.02914924919605255,0.10822932422161102,0.01156532671302557,0.1020510122179985,-0.04331927374005318,-0.10396471619606018,-0.034060489386320114,-0.07012732326984406,0.18544691801071167,-0.06640291213989258,0.024732545018196106,0.026089418679475784,-0.03652258217334747,0.02054467983543873,-0.012675212696194649,0.17628087103366852,0.04826485738158226,-0.026912584900856018,-0.06294792890548706,0.04611679166555405,0.021586554124951363,-0.047975681722164154,0.05140422284603119,0.0996939018368721,-0.039058879017829895,-0.06422886252403259,0.0430050790309906,-0.0964522510766983,0.08011852949857712,-0.08287063986063004,-0.06938961148262024,-0.22590872645378113,0.2424423098564148,0.2256603240966797,0.059257782995700836,-0.02071877010166645,-0.020713569596409798,0.007958788424730301,-0.15577432513237,0.23825491964817047,-0.09458495676517487,0.0904277116060257,0.03941110521554947,-0.02422531694173813,0.019487427547574043,-0.09494714438915253,-0.015239176340401173,-0.053284067660570145,-0.37113404273986816,-0.04180833324790001,0.1478559374809265,0.018844949081540108,-0.07750236988067627,-0.06907298415899277,0.23316679894924164,0.17867158353328705,0.07991815358400345,-0.03866981342434883,-0.26782867312431335,-0.06269386410713196,-0.12385288625955582,-0.003993581980466843,-0.09179690480232239,0.0972970724105835,-0.10221195966005325,-0.07058729976415634,0.11606161296367645,-0.04933880269527435,-0.020983103662729263,0.08805723488330841,-0.10230798274278641,0.12490244209766388,0.04428113251924515,0.07185439020395279,-0.06875737756490707,0.02544468641281128,-0.016773255541920662,-0.03456263616681099,0.07757638394832611,-0.03593664616346359,0.05003011226654053,-0.0495445616543293,0.010733315721154213,0.002959336619824171,0.051634203642606735,-0.09302561730146408,0.04148073494434357,-0.03152771294116974,0.03927948325872421,-0.003429132280871272,0.0022199510131031275,-0.030211802572011948,0.04495767131447792,-0.19831345975399017,0.11829198151826859,0.10070604085922241,0.18908096849918365,0.06837555766105652,-0.09039854258298874,0.29317861795425415,-0.07586415857076645,-0.0025383164174854755,0.031445324420928955,-0.08244430273771286,0.2546713650226593,-0.0010937214829027653,-0.08606433123350143,0.2065293937921524,0.16155202686786652,-0.13416260480880737,-0.03598388656973839,-0.12272711098194122,-0.04781319200992584,0.04383907839655876,-0.12490812689065933,-0.0030272817239165306,0.06894958764314651,-0.11012807488441467,0.1093401089310646,0.11428707838058472,0.040945470333099365,-0.19740678369998932,-0.06815759092569351,0.0634438619017601,-0.1386791318655014,-0.010629403404891491,-0.036954592913389206,-0.016816362738609314,0.047669701278209686,-0.07927501946687698,-0.11838380992412567,-0.07950003445148468,0.08661731332540512,-0.05375424027442932,-0.053509440273046494,0.006509553175419569,-0.11488623917102814,0.18761663138866425,-0.06893999129533768,0.10402678698301315,0.12545184791088104,0.046848148107528687,0.05881272256374359,-0.06806202232837677,0.2147977352142334,0.07600537687540054,0.07141590118408203,-0.09325408935546875,-0.07321655005216599,-0.07170040160417557,-0.005612389650195837,0.28668856620788574,-0.08238016813993454,0.027793187648057938,-0.11431026458740234,-0.1459524929523468,0.13598749041557312,-0.1176222488284111,-0.04049023240804672,-0.2408980280160904,0.15427906811237335,-0.037787798792123795,-0.005270162131637335,0.05974498763680458,-0.005043025594204664,-0.08255532383918762,-0.0804985910654068,0.12237940728664398,0.009807191789150238,-0.07297604531049728,0.07202781736850739,0.0274214968085289,-0.022578071802854538,0.04452899470925331,-0.09691379964351654,-0.060201335698366165,-0.09598949551582336,0.1563899964094162,-0.026810960844159126,-0.05397660285234451,-0.07575085759162903,0.14961963891983032,-0.06914904713630676,0.03552279621362686,-0.15799929201602936,-0.03624924272298813,0.12284008413553238,0.02367102913558483,-0.06318997591733932,-0.0022921545896679163,-0.017083628103137016,-0.05318398028612137,0.13707388937473297,0.2363797426223755,0.0815521702170372,-0.11585249751806259,0.07852480560541153,-0.11335255950689316,0.09827978163957596,0.11042743921279907,-0.14557839930057526,-0.21907232701778412,-0.03789345920085907,0.08425786346197128,0.23353591561317444,0.08902036398649216,0.028715843334794044,-0.20377083122730255,0.019421108067035675,0.012652680277824402,-0.17551718652248383,-0.06536635011434555,0.0784422755241394,-0.018361568450927734,0.08113869279623032,0.17756399512290955,-0.15176047384738922,0.061991240829229355,0.008850229904055595,0.3161269724369049,0.1547207534313202,-0.057480838149785995,-0.09453323483467102,0.05498576536774635,-0.058297786861658096,-0.05503783002495766,-0.03701779991388321,-0.07090463489294052,-0.08132390677928925,0.0015848791226744652,0.18971984088420868,-0.04656769335269928,-0.05873067304491997,-0.007669300772249699,-0.02174064703285694,-0.054650694131851196,-0.16800479590892792,-0.03309289738535881,0.08176420629024506,0.011006150394678116,-0.07312233746051788,-0.006579267326742411,0.06303989142179489,-0.06304198503494263,-0.03655802458524704,-0.19034434854984283,-0.1473887711763382,0.24453206360340118,-0.057438671588897705,-0.007325475569814444,0.10819835960865021,0.01759709045290947,-0.10512761026620865,-0.018859317526221275,-0.23585738241672516,0.09133276343345642,-0.06735467165708542,0.016038451343774796,-0.2214704006910324,0.026124946773052216,0.028864357620477676,-0.26019570231437683,-0.23838357627391815,0.3079714775085449,-0.016390446573495865,0.09918536245822906,0.0013254089280962944,-0.0031730071641504765,0.07787030190229416,-0.04033327475190163,-0.0851893499493599,-0.2077280879020691,-0.034619737416505814,-0.111508809030056,-0.14635694026947021,-0.0917181745171547,-0.003279058262705803,-0.0001554032787680626,-0.061471618711948395,0.015873678028583527,0.014434177428483963,0.1828266829252243,0.030523912981152534,0.056229621171951294,-0.09644079953432083,-0.030310997739434242,-0.3377498686313629,-0.1184743344783783,-0.21949079632759094,-0.020825181156396866,-0.01437783520668745,-0.23361006379127502,-0.050414398312568665,0.014050477184355259,-0.11327792704105377,0.1766212433576584,-0.11410476267337799,-0.09369832277297974,0.0840521901845932,0.11225327104330063,-0.15328705310821533,-0.029756726697087288,0.02589176408946514,0.14667877554893494,-0.002222876064479351,0.04979172348976135,0.15242846310138702,-0.023440660908818245,-0.016650713980197906,0.1410410851240158,0.0022136138286441565,0.01883697882294655,0.010638692416250706,0.13013127446174622,-0.047277554869651794,0.07107187807559967,-0.08849142491817474,-0.0022242669947445393,0.1447000801563263,-0.2454981654882431,0.07134567946195602,-0.08491997420787811,0.11025729030370712,0.11794625967741013,-0.17566341161727905,-0.06546781957149506,0.015414859168231487,0.03241376206278801,-0.0668729618191719,-0.05241914093494415,-0.09547783434391022,-0.04958190396428108,-0.06656444817781448,0.02395535446703434,-0.13873688876628876,-0.016321862116456032,0.02293637953698635,-0.10670363157987595,0.1419237107038498,-0.19672080874443054,0.2668323814868927,-0.05683330446481705,-0.2963787615299225,0.03046382963657379,0.0023893851321190596,0.2532796859741211,-0.04436402767896652,0.12115710228681564,0.05871223658323288,-0.015270919539034367,0.04177672788500786,-0.19618180394172668,0.14779439568519592,-0.18751895427703857,0.0660380944609642,0.04141039401292801,-0.098979152739048,0.025116436183452606,-0.002215581014752388,-0.11142861843109131,-0.05127885565161705,0.07152249664068222,-0.09144660830497742,-0.19564960896968842,-0.16950926184654236,-0.058647677302360535,0.025386566296219826,-0.07836290448904037,0.10383214801549911,0.14327161014080048,0.07751727849245071,-0.2365490347146988,0.06327628344297409,-0.05168141424655914,0.21578861773014069,0.09681733697652817,-0.05523526296019554,-0.06649180501699448,-0.03323264420032501,0.27269116044044495,-0.12923528254032135,0.017245294526219368,-0.017279472202062607,-0.12485240399837494,0.08709441125392914,-0.21008409559726715,-0.03782477602362633,0.09319140017032623,0.09786764532327652,-0.07235629111528397,0.17088577151298523,0.18282945454120636,-0.0013065616367384791,-0.10322916507720947,0.2649756968021393,-0.11881684511899948,-0.08044920861721039,0.09280817210674286,-0.13627992570400238,0.016022106632590294,0.07526468485593796,0.24640421569347382,0.029133981093764305,0.13022850453853607,-0.03207293897867203,0.13157522678375244,0.10065634548664093,0.1436450034379959,-0.05851113796234131,0.026011113077402115,-0.031568072736263275,0.018308592960238457,0.1924496591091156,-0.2700568735599518,-0.07525044679641724,0.0823969691991806,-0.02308894321322441,0.174435093998909,-0.060917675495147705,-0.06963042914867401,0.12219937890768051,0.061513710767030716,0.23174767196178436,0.21637433767318726,0.14327754080295563,-0.19268900156021118,0.0676821619272232,0.03217099606990814,-0.09075489640235901,-0.0889793187379837,0.10040472447872162,-0.02543899416923523,0.021403834223747253,-0.1474670022726059,-0.10981009900569916,-0.20694990456104279,-0.046138960868120193,-0.0562535859644413,-2.684036735445261e-05,-0.08499415218830109,0.009446037001907825,0.018469056114554405,0.11108134686946869,-0.04034552723169327,0.015691839158535004,0.16720503568649292,0.1421331912279129,0.028239654377102852,0.06285228580236435,-0.004399273544549942,0.04991519823670387,-0.20122994482517242,-0.15330830216407776,-0.109211765229702,0.08407361805438995,0.25941815972328186,0.040032122284173965,0.07010955363512039,-0.010123508982360363,-0.01491291169077158,-0.07004804164171219,0.06000978499650955,-0.0953814685344696,0.055767741054296494,0.06853826344013214,-0.07715743035078049,-0.04768327996134758,-0.040862321853637695,-0.18458904325962067,0.056909289211034775,-0.05857932195067406,0.052525222301483154,-0.12171812355518341,0.11783374845981598,-0.01195337250828743,-0.030031347647309303,0.07010886073112488,0.1584985852241516,0.20927970111370087,-0.2707189619541168,-0.2065778225660324,-0.01518227718770504,-0.004855161067098379,0.0004956673365086317,-0.12244629859924316,-0.08369270712137222,0.028629126027226448,0.04035048931837082,-0.033028941601514816,-0.015097612515091896,0.18912571668624878,-0.08666562288999557,-0.04659731686115265,0.0476800799369812,-0.06805983930826187,-0.11917668581008911,0.0431448332965374,0.04812140762805939,0.14818313717842102,-0.041965123265981674,0.14584936201572418,0.031582534313201904,0.05725966766476631,0.01712069846689701,-0.08591724187135696,0.02395501546561718,0.007088129408657551,0.0006842489819973707,-0.044558558613061905,-0.08814052492380142,-0.14045049250125885,-0.019933858886361122,-0.07447174191474915,-0.002651849528774619,0.2286204993724823,0.09962265193462372,0.20220203697681427,-0.042370982468128204,0.04397420585155487,0.4002375900745392,0.1523188054561615,-0.3155163824558258,-0.0007507781265303493,-0.026699213311076164,0.10468820482492447,-0.029015401378273964,-0.022726228460669518,-0.028386017307639122,-0.02313314937055111,0.05985717847943306,-0.01903640478849411,0.02641240507364273,-0.07030502706766129,0.08485586941242218,-0.03579961881041527,0.06444132328033447,0.16185665130615234,0.22935548424720764,0.11848175525665283,0.18683484196662903,0.18432758748531342,0.06521552056074142,0.0504002682864666,-0.07166309654712677,0.3167700469493866,0.048489414155483246,0.0007693556835874915,0.03891788795590401,-0.2040967345237732,-0.14710013568401337,0.13810701668262482,-0.05269297584891319,0.05097366124391556,0.04771212860941887,0.0020993761718273163,0.1433483213186264,0.07459650933742523,0.14765018224716187,-0.027127645909786224,0.12604191899299622,-0.07229729741811752,0.10554761439561844,-0.2778709828853607,-0.06980298459529877,0.037812329828739166,0.115412138402462,0.26486730575561523,-0.016252176836133003,-0.11315691471099854,0.06332073360681534,0.07485682517290115,-0.003362043993547559,-0.1089521050453186,-0.28306031227111816,-0.12493329495191574,0.020522575825452805,-0.08851473778486252,0.2845277786254883,0.015634529292583466,-0.2622249126434326,0.08881955593824387,0.013209592550992966,0.043354663997888565,0.14565478265285492,0.015918124467134476,-0.02082403004169464,-0.1113198772072792,-0.12658950686454773,-0.133737713098526,0.1633663773536682,0.11543790996074677,0.07376284152269363,0.051692768931388855,-0.1600876748561859,-0.08835887908935547,-0.06662987172603607,-0.1079922690987587,0.19671127200126648,0.11503972858190536,0.09232665598392487,-0.01819554716348648,-0.011145721189677715,0.33060121536254883,0.29252392053604126,-0.08986101299524307,0.026730652898550034,-0.020641356706619263,-0.020438987761735916,0.009600118733942509,-0.13872341811656952,0.05916748568415642,-0.04872751608490944,-0.144515722990036,0.0377427339553833,-0.06140042468905449,0.07770300656557083,0.0867404192686081,0.2043837010860443,0.2593989372253418,-0.05969265103340149,0.10450297594070435,-0.12285055220127106,0.12319783121347427,0.024205757305026054,0.07809355854988098,0.01441084872931242,0.13161060214042664,-0.14781397581100464,-0.06753721833229065,0.17505548894405365,0.055863142013549805,-0.02889815717935562,-0.026215439662337303,-0.14456495642662048,-0.12742464244365692,0.05918462947010994,0.09511798620223999,0.20539407432079315,-0.004555754363536835,0.18838872015476227,0.0687888041138649,-0.07865017652511597,-0.16864129900932312,0.25852903723716736,0.03948979452252388,-0.06091466173529625,-0.06208471953868866,0.030339796096086502,0.011217848397791386,0.04962330311536789,0.17256900668144226,0.01237671822309494,-0.09704773873090744,-0.015090140514075756,-0.07397069782018661,0.010792547836899757,-0.04514509066939354,0.040095288306474686,-0.09009109437465668,-0.048408057540655136,0.15369950234889984,-0.03549153730273247,-0.017199773341417313,-0.034122493118047714,-0.04966825619339943,0.0063648521900177,0.054701853543519974,0.016400426626205444,-0.0881534144282341,-0.057742949575185776,0.02734806016087532,-0.0694161057472229,-0.152187317609787,0.07909835129976273,-0.05395737290382385,-0.0840287059545517,0.011311388574540615,0.0880410224199295,-0.11506626009941101,0.0003955544962082058,0.1244286298751831,0.042594511061906815,-0.13033778965473175,0.08722623437643051,0.13386547565460205,-0.2222832441329956,0.04287204518914223,0.0755612775683403,-0.22875893115997314,0.24396981298923492,0.03208691254258156,-0.06410491466522217,0.22219502925872803,-0.08576899766921997,-0.040604714304208755,0.34624049067497253,-0.012604485265910625,-0.03487183898687363,-0.08143635839223862,-0.1186039075255394,0.06108859181404114,-0.012065608985722065,-0.05863538384437561,0.03193623945116997,0.01846730150282383,-0.023218795657157898,0.05362313240766525,0.06858715415000916,0.04263245314359665,0.12763237953186035,-0.00043868404463864863,-0.24842491745948792,0.03485451638698578,0.14743274450302124,-0.03470480069518089,-0.04417805001139641,-0.217279851436615,0.043772175908088684,-0.07148861885070801,-0.11742550879716873,-0.16897568106651306,0.0002679537865333259,0.13416433334350586,0.20044001936912537,-0.1563781350851059,-0.12076452374458313,0.14749880135059357,-0.10496583580970764,0.05500640720129013,-0.22828933596611023,-0.12237083166837692,-0.17186002433300018,-0.12123244255781174,0.09546787291765213,-0.049359045922756195,0.05790551006793976,0.061293989419937134,0.03465639799833298,0.00864288117736578,0.06469926983118057,0.12073780596256256,-0.17885074019432068,0.10068169981241226,0.36967459321022034,0.04436038061976433,-0.05290603265166283,0.1584155559539795,0.05237477272748947,-0.1540352702140808,-0.18836376070976257,-0.022099636495113373,-0.00603431835770607,0.22529909014701843,0.10342305898666382,0.041861504316329956,0.11472214013338089,0.11293894797563553,0.20135341584682465,0.18983711302280426,-0.020801469683647156,-0.1095704510807991,-0.1521425098180771,0.00653305696323514,-0.13241620361804962,-0.0947616770863533,0.10233486443758011,-0.005148268770426512,-0.05646270513534546,0.036893364042043686,0.15920528769493103,0.0533934086561203,-0.3022215962409973,-0.08616048097610474,-0.3820810317993164,0.11070384830236435,-0.18319129943847656,-0.0856919065117836,-0.32735177874565125,0.09697331488132477,0.2723507881164551,-0.09054363518953323,-0.03544176369905472,0.09435290098190308,-0.056363388895988464,-0.01738671399652958,-0.2870637774467468,0.10861701518297195,-0.12077486515045166,-0.23019182682037354,0.07599116116762161,0.06653431057929993,-0.008555956184864044,-0.41617390513420105,-0.016680298373103142,0.004647747613489628,-0.16049142181873322,-0.02544476091861725,0.1010456308722496,-0.17176443338394165,0.15566200017929077,-0.04298270121216774,-0.10269621014595032,-0.21588988602161407,-0.06023668497800827,-0.0957307517528534,-0.02266785502433777,0.09392477571964264,-0.00792903546243906,-0.21413852274417877,-0.18502271175384521,0.021963967010378838,0.052943985909223557,0.1702520251274109,0.20785902440547943,-0.14678838849067688,-0.17043331265449524,0.006146916653960943,-0.11104190349578857,0.0733795091509819,0.1595570147037506,-0.048539161682128906,0.07038644701242447,0.01826377585530281,0.051424380391836166,-0.14147408306598663,-0.01156538911163807,-0.1970931440591812,-0.03927391767501831,-0.06529663503170013,0.03177303820848465,-0.18405498564243317,-0.32304832339286804,0.08412621170282364,0.10019070655107498,-0.24087564647197723,0.16480080783367157,-0.2299734354019165,0.1434098184108734,0.1042957454919815,0.04906595125794411,0.21566414833068848,-0.003434191457927227,0.04465422406792641,0.025284532457590103,-0.18534383177757263,0.053495049476623535,-0.08398184925317764,0.05516062676906586,-0.044235069304704666,-0.08328618854284286,0.09632943570613861,-0.21119585633277893,-0.12433268129825592,0.07795527577400208,-0.10727214813232422,-0.025095095857977867,-0.12731494009494781,-0.02344048023223877,0.009656552225351334,0.06839393824338913,0.023371336981654167,0.13962702453136444,-0.11900676041841507,0.1757451444864273,-0.07162008434534073,0.009814895689487457,-0.04558262601494789,0.14720596373081207,-0.04181135445833206,-0.17559555172920227,0.04777766019105911,0.10358695685863495,-0.2324298620223999,-0.02196856215596199,0.16677668690681458,0.14635242521762848,0.08661112189292908,-0.3108440339565277,-0.00972383189946413,-0.02978082001209259,-0.011286369524896145,0.025824053213000298,-0.03122987598180771,-0.14033746719360352,-0.09816201776266098,0.06718087196350098,0.06894534081220627,0.053330957889556885,0.06336081773042679,-0.11102324724197388,-0.19830414652824402,-0.27406829595565796,-0.048126738518476486,-0.1588560938835144,0.06583719700574875,-0.029100915417075157,0.10102833062410355,-0.18514429032802582,0.014996453188359737,0.07007168978452682,-0.259672611951828,0.0973103791475296,0.04583505168557167,0.010825127363204956,-0.08557283878326416,-0.10117306560277939,0.1707731932401657,-0.00648573599755764,-0.3951113820075989,0.027978485450148582,-0.013477199710905552,-0.056585028767585754,-0.15611843764781952,-0.1363091617822647,-0.17058849334716797,0.20766526460647583,-0.17473047971725464,0.0939997211098671,-0.12157977372407913,0.02591514214873314,0.06479984521865845,-0.0636773556470871,0.05843071639537811,-0.18082237243652344,-0.2804114520549774,0.2768588960170746,-0.06604303419589996,-0.38222450017929077,0.08681196719408035,0.037843551486730576,-0.013270843774080276,0.05104188621044159,0.027468273416161537,-0.011402327567338943,-0.07372096180915833,-0.10892155021429062,0.007100953254848719,0.054244641214609146,-0.03170768544077873,-0.06930612772703171,-0.07551301270723343,0.0022683360148221254,0.05413726717233658,-0.04948170483112335,0.02629789523780346,0.025687705725431442,0.03937654197216034,-0.08853264898061752,-0.020584704354405403,-0.07127600163221359,0.0893273875117302,0.04742949455976486,-0.007719965651631355,-0.09176008403301239,-0.009358284994959831,0.0016139561776071787,0.03607102110981941,-0.013199662789702415,-0.03971794992685318,0.036900732666254044,0.12007715553045273,0.013059388846158981,0.0018879289273172617,-0.08330447971820831,-0.040722522884607315,-0.08199670165777206,0.08633333444595337,0.042523276060819626,0.07046899944543839,-0.011296328157186508,-0.017849860712885857,-0.06960497796535492,0.049982521682977676,0.06444805860519409,0.0424191914498806,0.03970435634255409,-0.030734769999980927,-0.05135795474052429,-0.03310253471136093,-0.052150875329971313,-0.010429947637021542,-0.025539329275488853,-0.0060004484839737415,-0.0820402204990387,0.11970409005880356,-0.030485747382044792,-0.047716010361909866,0.03153187036514282,0.08628745377063751,0.12495390325784683,-0.07424017041921616,-0.06795484572649002,0.01901952363550663,-0.1119057908654213,0.07232286781072617,-0.013142136856913567,-0.09071066230535507,0.09284036606550217,0.05231441184878349,0.057199351489543915,-0.07349550724029541,0.06252103298902512,0.019426191225647926,-0.005346160847693682,-0.050664518028497696,0.07087313383817673,0.010805215686559677,0.015528981573879719,-0.037875495851039886,-0.03235165402293205,0.017683574929833412,-0.009502807632088661,-0.05347209796309471,0.056849509477615356,-0.002124217338860035,-0.06720751523971558,0.0326446034014225,0.006935990881174803,0.08447957038879395,-0.04867339879274368,0.018958941102027893,0.10584501922130585,0.10408135503530502,-0.07468774169683456,-0.07864119857549667,-0.011732781305909157,-0.035177234560251236,0.03708364814519882,0.001539766788482666,-0.08489017188549042,0.015126749873161316,-0.03694448620080948,0.04698923975229263,-0.0668768510222435,0.0970601961016655,0.08528105169534683,0.015762193128466606,0.020860927179455757,-0.014534644782543182,0.10812872648239136,0.032905563712120056,0.07634245604276657,-0.006390396971255541,-0.034102316945791245,-0.10082452744245529,0.06501758843660355,-0.008810537867248058,-0.003279336728155613,0.06240835040807724,0.04975472390651703,0.04613304138183594,-0.00529257720336318,-0.01753757894039154,0.08326629549264908,0.05841261148452759,0.06574697047472,0.03864987567067146,-0.01194232888519764,0.06681573390960693,-0.05756779760122299,-0.01327512226998806,0.13306580483913422,0.012319360859692097,0.014807352796196938,0.05209483206272125,-0.05118482559919357,0.07064378261566162,-0.03578275069594383,-0.02591445855796337,-0.021694814786314964,0.01275575440376997,0.0037246723659336567,-0.051618725061416626,0.08627213537693024,0.052468784153461456,-0.08848334848880768,0.0261157788336277,0.04381873831152916,0.005358366761356592,0.014217866584658623,-0.016358783468604088,-0.030080074444413185,0.067835733294487,0.016203245148062706,0.013905636966228485,-0.05603212118148804,-0.01698831096291542,0.0346374586224556,0.08664947748184204,-0.07400258630514145,0.04669870063662529,0.0053713819943368435,-0.008742139674723148,-0.007246135268360376,-0.006839236710220575,0.09911909699440002,0.023513251915574074,0.044810205698013306,-0.01424449309706688,0.02800726518034935,0.05408215522766113,0.031122013926506042,0.010716278105974197,0.07177107781171799,-0.0831451341509819,0.08117387443780899,-0.011331161484122276,0.010912218131124973,0.002471216255798936,-0.03893780708312988,-0.09418681263923645,0.025886913761496544,-0.06759480386972427,-0.02220485731959343,-0.13930465281009674,0.09994929283857346,0.08910834789276123,0.05599743872880936,0.08817337453365326,0.09105793386697769,0.03868015855550766,0.1846674084663391,0.05781596153974533,-0.07154631614685059,0.08102129399776459,-0.055247511714696884,-0.017122961580753326,-0.021005213260650635,0.09464108198881149,0.018878763541579247,0.0629931315779686,-0.07083133608102798,-0.019602468237280846,0.1314559429883957,-0.17132160067558289,0.10217386484146118,0.05865514278411865,-0.033256810158491135,0.04014280438423157,-0.0020078676752746105,0.029599910601973534,-0.004563544876873493,0.08596310764551163,0.015357550233602524,0.1010456308722496,0.060163404792547226,0.0024870869237929583,-0.04544945806264877,0.07460035383701324,0.0823034718632698,0.05222161486744881,-0.030820610001683235,0.03213134780526161,0.0072381808422505856,0.015164976008236408,0.14496983587741852,-0.04136121645569801,0.07560789585113525,-0.0938892811536789,-0.08729041367769241,-0.027058174833655357,-0.0826873853802681,-0.0164056234061718,-0.039188284426927567,-0.07210785895586014,0.3135969042778015,0.05687280371785164,0.1469503790140152,-0.10245098918676376,0.040079668164253235,-0.09132900089025497,0.135623961687088,-0.006597542203962803,0.00703004514798522,0.13417574763298035,-0.0730540081858635,0.06442525237798691,0.15173953771591187,-0.030791614204645157,-0.05074276775121689,0.11201541870832443,-0.04449012875556946,-0.02351335808634758,-0.028073573485016823,-0.08221057802438736,-0.02176453359425068,0.08594826608896255,0.00023546046577394009,-0.12487413734197617,-0.09888985008001328,-0.006357468198984861,0.09954741597175598,0.002691330388188362,-0.017154404893517494,0.027132049202919006,0.0626307800412178,0.060148004442453384,-0.07420896738767624,0.050224464386701584,0.0039764102548360825,-0.021907668560743332,0.06428791582584381,0.027375847101211548,0.16193531453609467,0.00193362170830369,-0.02474123239517212,0.06680275499820709,-0.10411392897367477,-0.11415448039770126,-0.13578741252422333,0.019947778433561325,0.05822652578353882,0.10400574654340744,0.038093581795692444,0.01101731602102518,0.001327714417129755,-0.007772555574774742,-0.041225217282772064,0.016800645738840103,-0.06326199322938919,0.012619842775166035,0.0194650050252676,0.0007478607585653663,0.11249710619449615,-0.09374494850635529,-0.027497950941324234,0.005846376996487379,-0.05464048683643341,-0.12338775396347046,-0.0791885033249855,-0.02249838411808014,-0.0035184265580028296,0.036579009145498276,-0.06907344609498978,0.10914972424507141,-0.04504397511482239,-0.08429445326328278,0.044724296778440475,0.021338345482945442,-0.08650216460227966,-0.10952973365783691,0.030309511348605156,-0.01704825647175312,-0.0566219724714756,-0.034251876175403595,-0.04416469857096672,-0.04090964421629906,0.031031658872961998,0.08232984691858292,-0.014722445048391819,-0.0011116467649117112,0.09262999147176743,0.11822778731584549,0.15672387182712555,-0.08156983554363251,0.03305443376302719,-0.0880141407251358,-0.11254122853279114,0.003246558364480734,-0.01577691361308098,-0.10183900594711304,0.034785330295562744,-0.06895296275615692,-0.12689976394176483,0.006187105551362038,-0.04277707636356354,0.04245804622769356,-0.08020841330289841,0.09296825528144836,0.0633033737540245,-0.043306149542331696,-0.0010177906369790435,-0.03768131881952286,-0.00885544903576374,-0.025259703397750854,-0.13836032152175903,0.04520800709724426,0.0017382828518748283,-0.06928582489490509,0.12996037304401398,-0.04357985407114029,0.1053454726934433,-0.026797762140631676,-0.044845085591077805,-0.049378667026758194,0.07289674133062363,0.01860642246901989,-0.017226148396730423,-0.03216022253036499,-0.10081994533538818,-0.01961977407336235,0.12113682925701141,-0.008781090378761292,-0.007296039257198572,-0.14157375693321228,-0.04421965777873993,0.014439066872000694,0.05902776122093201,-0.13236606121063232,0.10810007899999619,-0.016942234709858894,-0.046760860830545425,-0.1359439641237259,0.06731650233268738,-0.009258383885025978,-0.1517944037914276,-0.08830837905406952,0.10389939695596695,0.1616217941045761,-0.02509472891688347,0.0131229804828763,-0.09262173622846603,0.1269143521785736,0.07882664352655411,-0.0539729967713356,-0.019560737535357475,-0.035035666078329086,0.05320243164896965,-0.11435364186763763,0.0797552540898323,-0.03912292793393135,-0.06735384464263916,-0.02957332320511341,-0.05748986452817917,0.10397792607545853,0.044169165194034576,0.009660502895712852,0.057416461408138275,-0.08550094813108444,-0.021541571244597435,-0.08176260441541672,-0.09712164103984833,-0.04502248764038086,0.06140954792499542,0.051057130098342896,0.04264695197343826,0.048618875443935394,-0.08857707679271698,0.04661299288272858,0.060974813997745514,0.058510664850473404,0.05527661368250847,0.01187215931713581,-0.031688392162323,-0.026274273172020912,0.06270154565572739,-0.11691564321517944,0.019878843799233437,0.020356513559818268,0.06131770834326744,-0.08269748091697693,-0.2983531951904297,-0.049675166606903076,0.16785982251167297,0.1255943328142166,-0.01280610729008913,0.0853622779250145,-0.022304518148303032,0.0013849865645170212,-0.13594330847263336,