0.005097269546240568,1.4601931979996152e-05,-0.02275858446955681,-0.023823801428079605,-0.02357655018568039,-0.02528672106564045,0.008532566018402576,0.025763381272554398,0.032567303627729416,-0.018055178225040436,0.029382377862930298,0.02225911058485508,-0.013213152065873146,-0.02630716934800148,-0.010045736096799374,-0.00643365690484643,0.006186139769852161,-0.036948852241039276,-0.011377728544175625,-0.03858192265033722,-0.02210175059735775,-0.024508023634552956,0.03248843550682068,0.019336415454745293,0.0235267486423254,-0.02532944828271866,-0.004310916643589735,0.03060469962656498,-0.026541369035840034,-0.023133104667067528,0.008209433406591415,0.03906898573040962,0.02955394610762596,-0.002065843902528286,-0.0013537324266508222,0.032744091004133224,0.014875945635139942,0.02664446271955967,-0.014139469712972641,-0.014931656420230865,-0.034967370331287384,-0.018705792725086212,-0.0011473535560071468,0.005402302835136652,0.020408974960446358,-0.0331445187330246,0.03061589226126671,0.026584256440401077,-0.011739972978830338,-0.022295918315649033,0.02572157233953476,0.03873006999492645,0.00821732822805643,-0.01564958691596985,0.00793003011494875,0.006662661209702492,0.035356517881155014,0.02071220614016056,0.027710091322660446,0.014201671816408634,0.00748484255746007,0.021746013313531876,-0.00021397953969426453,0.0018098818836733699,-0.00348292151466012,0.013805120252072811,-0.035813432186841965,0.030262889340519905,-0.005675784777849913,-0.016833147034049034,-0.027032095938920975,0.028914686292409897,0.019666850566864014,0.009676656685769558,-0.0035684253089129925,-0.03002002276480198,0.026462256908416748,-0.035708777606487274,-0.029853539541363716,0.027502764016389847,0.011073778383433819,-0.024546366184949875,0.012551378458738327,0.023180657997727394,0.02336832694709301,0.006004511844366789,0.005787098780274391,-0.0297901201993227,0.03784204646945,-0.005296982359141111,0.009900031611323357,-0.0018196012824773788,-0.0263069961220026,-0.022485138848423958,-0.016525227576494217,-0.006076442543417215,0.009393250569701195,0.024189142510294914,-0.013815096579492092,0.016279052942991257,0.0210407841950655,0.0332249216735363,-0.023685352876782417,0.032398905605077744,-0.025085071101784706,-0.01750892587006092,0.00626063346862793,0.004432649351656437,-0.011410477571189404,-0.030282486230134964,0.0036879677791148424,0.011372190900146961,-0.035032209008932114,0.03831779584288597,0.01051874365657568,-0.024106811732053757,-0.03905023634433746,-0.012044047005474567,-0.03111388348042965,0.012778736650943756,-0.028976179659366608,0.02372479811310768,0.010695934295654297,0.02619510516524315,0.0188593827188015,-0.020354291424155235,-0.037384580820798874,-0.00976974330842495