0.011139804497361183,0.025885440409183502,-0.03844334930181503,-0.011105488985776901,-0.026962943375110626,0.007880257442593575,-0.024096356704831123,-0.02546936646103859,-0.030946901068091393,-0.0968182161450386,0.06496036052703857,-0.04044613614678383,-0.002312959171831608,0.04655832052230835,-0.13294579088687897,0.15125730633735657,-0.002396603347733617,-0.009777176193892956,-0.03581271320581436,-0.02905605174601078,0.01566416583955288,0.03976830095052719,-0.04849011451005936,0.00983983650803566,0.018840035423636436,-0.04747816547751427,0.045074187219142914,0.029647503048181534,-0.026658888906240463,-0.029003063216805458,-0.0828387662768364,-0.06101367250084877,-0.05168791860342026,-0.07731348276138306,0.005954571533948183,0.07165743410587311,-0.055887650698423386,0.013712653890252113,0.02897866815328598,0.006782392039895058,0.07872787863016129,-0.02487681806087494,-0.07903697341680527,-0.04483423009514809,0.06701228022575378,-0.01274878066033125,0.06930304318666458,0.07194166630506516,-0.04595700278878212,0.043912678956985474,0.05087236315011978,-0.05124272033572197,0.0778377428650856,0.02898257039487362,-0.014120017178356647,0.01823965460062027,0.09140928834676743,-0.05245816335082054,0.005683543626219034,0.08033962547779083,0.014688809402287006,0.07198800891637802,-0.020208558067679405,-0.010035590268671513,0.012748906388878822,-0.003959670662879944,-0.028321756049990654,-0.12785346806049347,-0.09457190334796906,0.01036363746970892,0.03680112585425377,0.05959879606962204,0.052679967135190964,-0.005330288782715797,0.05828496813774109,0.175221249461174,-0.12010568380355835,0.05791599303483963,-0.012685663998126984,-0.05957276374101639,0.0055307429283857346,-0.06886806339025497,-0.027602916583418846,-0.0009066758211702108,-0.026385106146335602,0.029816051945090294,0.010855592787265778,0.005486369598656893,-0.03583482280373573,-0.07315068691968918,0.008399744518101215,-0.09093661606311798,0.02150019444525242,-0.0038084546104073524,-0.1174573078751564,0.026466844603419304,0.0004506536934059113,-0.01286060456186533,0.045555230230093,-0.012282242067158222,-0.010839906521141529,0.06465673446655273,-0.046186663210392,-0.03152734413743019,0.005687803961336613,-0.028894785791635513,-0.03821393474936485,-0.020025787875056267,-0.06382180750370026,-0.06443090736865997,-0.01119326800107956,-0.02034381404519081,-0.02903197519481182,-0.06326227635145187,0.024421781301498413,0.06762395054101944,-0.11196129024028778,0.004318061750382185,-0.03486933186650276,0.006346840877085924,0.007565859705209732,-0.07136981189250946,-0.12167023867368698,-0.031134266406297684,-0.029633039608597755,-0.04166421666741371,0.02521558664739132,0.10816055536270142,0.06698168069124222,0.031817950308322906,-0.0024185229558497667,0.05781146511435509,-0.007681028451770544,-0.02236400544643402,-0.04112289473414421,-0.04169487580657005,0.07925628870725632,0.017838923260569572,0.013837486505508423,0.047614745795726776,0.01831047423183918,0.010181101970374584,0.07519952952861786,-0.038994114845991135,-0.044912949204444885,0.05636848881840706,0.056772395968437195,0.040218789130449295,-0.04138393700122833,-0.01964694634079933,0.027119064703583717,0.03453724458813667,0.009393483400344849,0.0023926720023155212,0.028616730123758316,0.03503948077559471,0.009906853549182415,-0.03252498060464859,-0.020762581378221512,-0.013989881612360477,0.000456352427136153,0.05067714676260948,-0.08620757609605789,-0.04384179785847664,-0.014641626738011837,-0.03044138289988041,0.04619926959276199,-0.03065791167318821,0.10903029888868332,-0.018815958872437477,-0.018428046256303787,0.033826589584350586,0.029509738087654114,-0.0011000896338373423,0.007237826008349657,0.06466945260763168,-0.07436499744653702,0.028676878660917282,-0.018758336082100868,0.020462345331907272,0.015758033841848373,0.04883526638150215,0.0026044417172670364,0.04774816706776619,0.01072721742093563,0.052300047129392624,0.021524105221033096,0.008477763272821903,-0.056853875517845154,0.08000586181879044,-0.0962209701538086,0.09171409904956818,0.059266265481710434,0.024967990815639496,0.04139059782028198,0.00807138066738844,-0.16599352657794952,-0.03195786476135254,0.025282958522439003,0.05501741170883179,-0.017850691452622414,-0.021810563281178474,-0.04703386500477791,0.015970304608345032,-0.057325854897499084,0.030662933364510536,-0.009433592669665813,0.022806037217378616,-0.02901458367705345,-0.009326624684035778,0.007798383943736553,-0.0443856418132782,-7.818610174581409e-05,-0.00409649359062314,-0.027856701985001564,0.007861017249524593,-0.008209382183849812,-0.10041872411966324,0.038892485201358795,-0.051830682903528214,0.08516138792037964,-0.04727771878242493,-0.07694554328918457,0.05556812137365341,0.04638000577688217,0.08878698199987411,-0.02978340908885002,-0.06534095108509064,0.11727308481931686,0.048495594412088394,0.02336367405951023,-0.0662674531340599,0.018494730815291405,-0.09955694526433945,0.0032980397809296846,-0.08472548425197601,0.06994596123695374,0.018706198781728745,-0.010309871286153793,0.004481322132050991,0.0011729212710633874,-0.021733269095420837,-0.024303806945681572,0.01823130063712597,0.05000588670372963,0.01672215387225151,-0.00725324172526598,0.0263659730553627,-0.036689791828393936,-0.020018629729747772,-0.09266351163387299,-0.029037345200777054,0.07352448254823685,-0.12303512543439865,0.045197632163763046,0.07652974128723145,-0.05182504281401634,0.003945449832826853,-0.0008415605407208204,-0.05097348615527153,0.11543174833059311,0.021160835400223732,0.01733725145459175,0.04085705801844597,-0.015272190794348717,0.06456998735666275,0.04394448176026344,-0.1275627315044403,0.07161696255207062,0.024675870314240456,0.004125660285353661,-0.012119630351662636,0.02442602626979351,-0.10484746843576431,-0.031075071543455124,0.005957663059234619,-0.012595116160809994,-0.01084285881370306,-0.018091591075062752,-0.030427854508161545,-0.1002589762210846,0.01803738810122013,0.1368139237165451,0.004146196413785219,-0.05950959399342537,-0.002761801704764366,-0.0024822764098644257,-0.06560984998941422,-0.028562400490045547,-0.08768647164106369,0.023334043100476265,0.009939184412360191,0.029628753662109375,-0.0009782015113160014,5.307214451022446e-05,-0.029125988483428955,0.030959878116846085,-0.11698579788208008,0.06384506076574326,0.06895601749420166,-0.02226937748491764,-0.03995726630091667,0.02242356166243553,-0.12869973480701447,-0.0484907291829586,-0.002936444478109479,0.025295279920101166,0.02735523134469986,0.06568188220262527,0.012521890923380852,-0.024700652807950974,-0.05914437398314476,0.05329448729753494,0.028552880510687828,-0.060202814638614655,-0.032859090715646744,0.03130543977022171,-0.013271610252559185,-0.022099176421761513,-0.08579990267753601,0.018664004281163216,-0.0013857439626008272,-0.013584562577307224,0.016921162605285645,0.025532947853207588,0.025286199524998665,-0.011606819927692413,-0.0923207551240921,-0.03274359181523323,0.07060837000608444,-0.09017208218574524,-0.021326549351215363,0.05540517717599869,-0.07268641889095306,0.05391141399741173,0.014129064045846462,0.03335649147629738,-0.037473179399967194,0.05985372141003609,0.0410003662109375,0.12153321504592896,0.006897749379277229,-0.007375345565378666,-0.07761595398187637,0.043862052261829376,0.13731850683689117,-0.0018994016572833061,-0.07370489090681076,-0.03055526502430439,-0.0525994673371315,0.0524153932929039,-0.030813736841082573,0.017093272879719734,-0.003949908073991537,0.06685145944356918,0.00872875191271305,-0.03221260756254196,-0.009848362766206264,-0.02230202779173851,0.01619081385433674,-0.012682225555181503,0.09882890433073044,0.1270933449268341,-0.071723572909832,-0.09584929049015045,-0.012812823988497257,0.03318353369832039,-0.023897577077150345,-0.08318746089935303,-0.053840041160583496,-0.024655912071466446,0.016772435978055,-0.006821720860898495,0.006272857077419758,0.022863857448101044,-0.03361877053976059,0.025071214884519577,-0.00823467131704092,0.07616811245679855,0.12293124943971634,0.017606601119041443,0.0017671940149739385,0.03229987621307373,-0.13343560695648193,-0.055585019290447235,-0.03765559196472168,-0.06471038609743118,0.07392092049121857,0.06240110471844673,-0.01239969301968813,0.004367203917354345,0.05240338295698166,-0.02395094558596611,0.0023656669072806835,-0.06371475756168365,-0.007342372555285692,0.02847239561378956,-0.004050352144986391,0.09740357100963593,-0.02820565737783909,-0.015411127358675003,0.09744706004858017,-0.012168565765023232,-0.029462244361639023,-0.01613231748342514,-0.02266516536474228,-0.00036167565849609673,0.015246757306158543,-0.04494820907711983,0.021752629429101944,0.03836015611886978,-0.021726185455918312,0.017480475828051567,-0.03186630830168724,-0.14445288479328156,0.18016010522842407,0.052708808332681656,0.11075223237276077,-0.04638035222887993,0.0029858930502086878,0.03441604599356651,0.03180145472288132,0.012632323428988457,0.031015872955322266,0.09632676839828491,-0.08125811070203781,0.015500213019549847,-0.009782502427697182,0.09673937410116196,0.050965599715709686,-0.09605467319488525,0.06471943110227585,-0.021317211911082268,0.1336555778980255,-0.057866420596838,0.04077056422829628,0.015898652374744415,0.03858242183923721,0.041669007390737534,-0.0035418174229562283,-0.01853054203093052,-0.14782115817070007,0.005324845667928457,-0.09605135768651962,0.03642773628234863,-0.08083277195692062,-0.15361203253269196,0.09732919931411743,-0.007764569018036127,0.17343975603580475,-0.012899031862616539,-0.03139788284897804,0.0755891501903534,0.008946909569203854,-0.020213652402162552,0.06781791895627975,-0.040293194353580475,-0.07850805670022964,-0.0632641613483429,-0.028508024290204048,0.0286260899156332,-0.05806324630975723,-0.1003706082701683,0.009383633732795715,-0.06668069958686829,0.13495346903800964,-0.10396930575370789,-0.026920216158032417,0.1581166833639145,0.011018119752407074,0.016739901155233383,-0.0009963265620172024,0.047134049236774445,-0.12380363047122955,0.015675406903028488,-0.0494190938770771,0.1065109372138977,0.013983652926981449,-0.1020321324467659,-0.025518715381622314,-0.02840988151729107,0.02860037051141262,-0.21643927693367004,-0.10378524661064148,-0.06042619049549103,0.027767473831772804,0.00918134767562151,-0.07733721286058426,-0.05151217058300972,-0.11534938216209412,0.027506321668624878,0.05188703164458275,-0.0336880199611187,-0.02838098257780075,-0.05272780731320381,0.06432288140058517,-0.007772844284772873,-0.057261452078819275,-0.07220570743083954,-0.09909649193286896,-0.05417659506201744,0.041391633450984955,-0.0373629666864872,0.049638282507658005,0.03559457138180733,0.036741405725479126,-0.0031095859594643116,-0.05250650644302368,-0.022865280508995056,0.04629283398389816,-0.0425032339990139,0.05508372560143471,0.00729288998991251,-0.050640299916267395,0.09671705216169357,-0.019498907029628754,-0.2659572660923004,-0.05382527783513069,0.03344922140240669,0.07463227212429047,0.09068474918603897,0.13621558248996735,0.016564512625336647,0.08517125993967056,-0.11258625984191895,0.0023820248898118734,0.005668755620718002,0.03873790428042412,0.02539818175137043,-0.009851749986410141,0.07249049842357635,-0.059666119515895844,-0.12846437096595764,-0.05148313194513321,-0.025472473353147507,-0.02157336100935936,0.14282859861850739,-0.02025403454899788,-0.07621896266937256,0.13031204044818878,-0.0360344760119915,0.03819504380226135,-0.08339794725179672,-0.06673270463943481,-0.016193674877285957,0.06454629451036453,0.04774247854948044,-0.022015947848558426,0.02380109578371048,-0.04928963631391525,-0.04131919518113136,-0.029717976227402687,0.06790144741535187,-0.05081116035580635,0.053951751440763474,-0.026631617918610573,0.016043646261096,-0.03278983384370804,-0.10953265428543091,-0.07571086287498474,-0.029578933492302895,0.22359389066696167,-0.28362953662872314,-0.06608650833368301,0.12909944355487823,0.01722599007189274,0.03272390365600586,-0.036461587995290756,0.05958978831768036,-0.1642027050256729,0.10339445620775223,0.18007691204547882,0.053317613899707794,0.09902287274599075,0.0713469609618187,-0.025988202542066574,0.006199332419782877,0.09178300946950912,-0.09395739436149597,0.09579771012067795,-0.07200800627470016,-0.0013173226034268737,-0.03678879886865616,0.04720452427864075,-0.014879665337502956,0.04337652400135994,-0.03875533863902092,0.12347915768623352,0.1157279759645462,0.12762810289859772,0.08493998646736145,0.04027503356337547,0.04893192648887634,0.005216538906097412,0.05298420414328575,0.01647351309657097,-0.03676994889974594,0.016056034713983536,0.03757172450423241,0.006769115570932627,-0.0003294588241260499,0.2347685843706131,-0.015613293275237083,0.019375406205654144,0.039761677384376526,0.03162908926606178,0.11657766997814178,-0.0012571908300742507,0.07275187224149704,0.029851313680410385,0.10102391988039017,-0.04662198945879936,0.1365097612142563,0.00770911481231451,-0.02114851586520672,0.11396756023168564,0.022952385246753693,0.13202813267707825,0.09343172609806061,0.029973983764648438,0.06941937655210495,-0.026021594181656837,-0.0931275263428688,-0.09981059283018112,0.12348021566867828,0.0877595990896225,0.1074778363108635,-0.07351933419704437,0.01590372622013092,0.05357949435710907,-0.018245123326778412,-0.00547783263027668,-0.02821975201368332,0.03152734413743019,0.18719114363193512,-0.01105632446706295,-0.03682529926300049,-0.11932321637868881,-0.06643558293581009,0.04967591166496277,-0.07021798938512802,-0.005463145673274994,-0.1708196997642517,0.029969919472932816,0.06151477247476578,0.0337907075881958,0.008801574818789959,0.011496215127408504,0.01935425028204918,-0.13824805617332458,0.12533028423786163,-0.020851165056228638,0.024297835305333138,0.04519135504961014,0.006453083828091621,-0.07464669644832611,0.02710552141070366,-0.06134970858693123,-0.08041733503341675,0.10355059057474136,-0.009693432599306107,-0.01766231842339039,-0.03155466169118881,-0.03556686267256737,0.04119815677404404,-0.05915052816271782,0.07718590646982193,0.15060585737228394,0.07312198728322983,-0.020025307312607765,0.10074878484010696,-0.1015910878777504,0.021390367299318314,-0.07690326124429703,-0.054636333137750626,0.022679297253489494,-0.01745906099677086,0.045296818017959595,0.02018824592232704,-0.11060543358325958,-0.0028782105073332787,-0.032240916043519974,-0.031668927520513535,-0.061819836497306824,0.06989620625972748,-0.062553271651268,0.1119876280426979,-0.0011303217615932226,-0.016346897929906845,-0.014213948510587215,-0.1266181766986847,-0.07339321821928024,0.08060839027166367,0.006076055578887463,0.00887884572148323,-0.14772582054138184,-0.03457827493548393,-0.01169043593108654,0.07963000237941742,-0.11661049723625183,-0.02430632710456848,-0.14520040154457092,0.10946055501699448,-0.09062312543392181,-0.009775843471288681,0.0068456935696303844,-0.01525145210325718,-0.05615396425127983,0.0764470025897026,0.03570295125246048,-0.016308728605508804,-0.06930741667747498,0.05292509123682976,-0.04927975684404373,0.04303283989429474,-0.0298767127096653,-0.07481449097394943,-0.06745052337646484,-0.00023885152768343687,0.07966452091932297,0.0391753688454628,-0.19075855612754822,-0.05346161499619484,0.07746662199497223,-0.09778604656457901,-0.0036104675382375717,-0.025484122335910797,0.012901903130114079,-0.014354364946484566,-0.0916670709848404,-0.01559544913470745,-0.041948817670345306,-0.1294984668493271,0.07597235590219498,-0.043887946754693985,-0.013661122880876064,0.03545096516609192,-0.09431277960538864,0.029053378850221634,0.040353596210479736,-0.07025051862001419,-0.028099743649363518,-0.043459124863147736,-0.04613406956195831,-0.009779220446944237,0.027075957506895065,0.10397222638130188,-0.01654844544827938,0.008697731420397758,-0.05941290780901909,-0.007273293100297451,0.008136088028550148,-0.02181835100054741,-0.006106681190431118,0.08397568762302399,0.0020950406324118376,-0.07290548086166382,0.04469775781035423,-0.03992046043276787,-0.047326941043138504,-0.0419686883687973,0.06450502574443817,-0.0093934191390872,0.01983180269598961,0.03553870692849159,-0.0963025614619255,0.0006098075537011027,-0.02721087634563446,-0.015849415212869644,0.025042567402124405,0.01425144448876381,0.06983228027820587,-0.03416389971971512,-0.021362556144595146,0.044773515313863754,0.009528136812150478,-0.09678902477025986,0.13462448120117188,-0.010701505467295647,0.031026775017380714,-0.024569934234023094,-0.04437822848558426,0.15160134434700012,-0.04067052900791168,-0.05807919055223465,-0.06437191367149353,0.051434505730867386,0.09454432129859924,0.06642541289329529,-0.049878790974617004,-0.03261201083660126,0.023768190294504166,-0.07323333621025085,-0.05080552399158478,-0.07601688802242279,0.01056722179055214,-0.004652560688555241,0.029270395636558533,0.13680849969387054,0.06609039008617401,0.02683735266327858,-0.031043656170368195,0.033656321465969086,-0.006664974149316549,-0.023319575935602188,0.009044007398188114,0.012169215828180313,0.062367018312215805,-0.008473403751850128,0.05640682205557823,0.021346503868699074,0.047317277640104294,0.061460498720407486,0.0036046330351382494,0.024916600435972214,-0.0491817481815815,0.04826910048723221,-0.04012506082653999,-0.06651924550533295,0.007216794416308403,0.08070722222328186,0.007864353246986866,0.016987957060337067,-0.04839961603283882,0.016118524596095085,0.06869959831237793,-0.10260213911533356,0.015212726779282093,0.020276742056012154,0.009468847885727882,-0.026066767051815987,-0.03790709003806114,0.010191069915890694,-0.04712624475359917,-0.061678461730480194,0.0252248402684927,-0.010504834353923798,0.03048793412744999,-0.011619738303124905,-0.03816425800323486,0.024960771203041077,0.1350003331899643,-0.059791211038827896,-0.056444987654685974,0.011509228497743607,-0.14119204878807068,0.008308730088174343,-0.02828589454293251,-0.028035631403326988,-0.055671337991952896,0.048920463770627975,0.05795881524682045,-0.019329147413372993,-0.046333301812410355,0.04773949459195137,-0.010792983695864677,0.027069153264164925,0.10146325081586838,0.014134572818875313,-0.09772943705320358,0.06568532437086105,-0.10690851509571075,0.032734215259552,0.1308494657278061,-0.0011481330730021,0.009250693954527378,0.004282169975340366,-0.08187098801136017,0.032250866293907166,-0.0008612426463514566,-0.0032902155071496964,0.024482514709234238,-0.02508404850959778,-0.013436923734843731,-0.07936538755893707,-0.050728943198919296,0.06718065589666367,-0.05166606232523918,-0.007468126714229584,0.09591206908226013,0.012257945723831654,-0.042952969670295715,0.02228199504315853,0.0027036562096327543,0.04328944534063339,-0.051517304033041,0.016874659806489944,0.038280874490737915,0.06711328774690628,-0.06539952754974365,0.029404018074274063,-0.0716780349612236,0.03886225074529648,-0.08370494097471237,-0.04213238134980202,0.02000012993812561,0.0117763951420784,-0.0055117481388151646,-0.005273004528135061,-0.07332867383956909,0.005205140914767981,0.005622025113552809,0.022723490372300148,-0.005811010021716356,0.01758430153131485,0.044057440012693405,0.03502412140369415,0.001854924252256751,0.025976967066526413,-0.06791739165782928,-0.022598832845687866,-0.003052366431802511,0.01861380599439144,0.02934868633747101,-0.030584612861275673,-0.055786117911338806,0.05256057530641556,0.015112575143575668,-0.0415760837495327,-0.0016804588958621025,0.0550989955663681,0.0006435388932004571,0.01852376013994217,0.04248061403632164,-0.07752147316932678,-0.021615121513605118,-0.07998587191104889,0.03582505136728287,0.02332114614546299,-0.047023724764585495,-0.037473082542419434,-0.019568750634789467,0.022524094209074974,-0.04603450745344162,0.04326363652944565,0.036631301045417786,0.015469594858586788,-0.02420223504304886,0.04660167545080185,0.01779256761074066,-0.013284740969538689,-0.03640597686171532,0.06306882202625275,0.0690540075302124,-0.018191559240221977,-0.06212402507662773,-0.04290267080068588,-0.10265157371759415,0.07810572534799576,0.04993562400341034,0.006441240198910236,-0.06356817483901978,-0.011044253595173359,0.054814327508211136,0.026392191648483276,-0.012671086005866528,-0.012168272398412228,0.020568009465932846,0.07297094166278839,-0.03768565505743027,0.022083470597863197,-0.024229206144809723,-0.046068064868450165,-0.052715081721544266,-0.002114144852384925,-0.014111525379121304,-0.024547401815652847,0.03820640221238136,-0.007775877136737108,0.04222407191991806,-0.02697557769715786,0.034790877252817154,-0.03914238512516022,0.00022201030515134335,-0.0732535645365715,-0.030451767146587372,-0.01981435716152191,0.0035379244945943356,-0.04794960469007492,-0.013364606536924839,0.0027136297430843115,-0.03477497398853302,-0.021988511085510254,-0.05734959617257118,-0.02393810637295246,-0.006266823969781399,0.019787663593888283,0.02481868490576744,-0.08140494674444199,0.025296969339251518,-0.08984559774398804,0.007689680438488722,-0.023974591866135597,-0.023223303258419037,-0.0011815967736765742,-0.016659125685691833,0.033743929117918015,-0.019494468346238136,-0.03421942889690399,0.061555165797472,-0.0024909290950745344,0.07427448034286499,0.05469921603798866,0.09654567390680313,0.03282717987895012,0.004220632370561361,-0.08066951483488083,0.02797210030257702,-0.010263367556035519,-0.06449288874864578,0.017321916297078133,0.011878501623868942,0.09996071457862854,0.015401002950966358,-0.018302306532859802,0.04901424050331116,-0.04438849166035652,-0.03816281259059906,-0.033946920186281204,-0.005109682679176331,0.04444992542266846,0.08674979954957962,0.011844413354992867,-0.04263851046562195,-0.06421955674886703,-0.03829479217529297,-0.029934192076325417,-0.007791630458086729,0.1733684539794922,0.01193669531494379,0.03205905854701996,-0.024173554033041,-0.07069135457277298,-0.09280239790678024,-0.03970601037144661,-0.06106710433959961,0.05223095789551735,0.0010194433853030205,0.0651983916759491,-0.10227745026350021,0.011832237243652344,-0.0015296934871003032,0.05732392892241478,0.002577322768047452,-0.01237555779516697,-0.04275840148329735,0.04829924553632736,0.038852568715810776,-0.03637151047587395,-0.024603333324193954,0.042840708047151566,-0.07822006940841675,-0.1260077804327011,-0.022792823612689972,0.019332388415932655,-0.029673533514142036,0.036784473806619644,-0.03728526458144188,-0.09639105945825577,0.04632941633462906,0.006898929364979267,-0.02783641405403614,-0.012400305829942226,-0.05020714923739433,0.012611422687768936,-0.05316689983010292,-0.056224942207336426,0.05942825973033905,-0.019682656973600388,0.01196259818971157,0.038025885820388794,-0.03621535748243332,0.03004029206931591,-0.05851663649082184,0.03170804679393768,0.06619343906641006,0.04820981249213219,0.014934892766177654,0.008182271383702755,-0.06294615566730499,-0.027171030640602112,0.005103602074086666,0.12473092973232269,0.040061380714178085,-0.03899555280804634,-0.06322623789310455,0.019663719460368156,0.008377930149435997,-0.05249863862991333,0.06693331897258759,0.09598126262426376,0.04697888344526291,0.018445352092385292,-0.011823541484773159,-0.01799766719341278,0.009825470857322216,-0.10181521624326706,0.0314878448843956,0.0942545160651207,0.03918500244617462,-0.05997805297374725,0.012747364118695259,0.11628658324480057,-0.008498781360685825,-0.07570421695709229,0.05768819525837898,0.009970058687031269,-0.0449480302631855,0.022243831306695938,0.026922553777694702,-0.02741859294474125,0.019465891644358635,-0.04241552948951721,0.019073503091931343,0.03586822748184204,0.0026079961098730564,0.02550053782761097,0.012007425539195538,0.016281981021165848,-0.08439338952302933,0.05948221683502197,-0.03105848655104637,-0.01162659376859665,-0.07223492115736008,0.01777849905192852,0.02755170874297619,-0.0436805784702301,0.0698636993765831,0.07443837076425552,-0.1102650985121727,0.06899160891771317,-0.04096893593668938,-0.09312278777360916,-0.011390346102416515,-0.04556736350059509,0.07551460713148117,0.08081222325563431,-0.009047805331647396,-0.01930227503180504,-0.03577624261379242,-0.07375375926494598,0.03554556146264076,-0.009139502421021461,-0.05929765850305557,-0.049905985593795776,-0.06653205305337906,0.005783218890428543,0.0423736497759819,0.03320448473095894,-0.04099400341510773,0.019592521712183952,0.062141381204128265,0.06108623370528221,0.043010108172893524,0.006730657536536455,0.0006623978260904551,-0.06842342019081116,0.03479944169521332,-0.014465117827057838,0.07255956530570984,-0.060566820204257965,-0.0902901366353035,-0.02083211950957775,-0.02589074894785881,-0.02009049989283085,-0.04662938416004181,0.012003994546830654,-0.03163168951869011,0.06490053981542587,0.037368468940258026,0.029229354113340378,0.023757383227348328,-0.09766805171966553,0.0352633073925972,0.04941995069384575,0.056662023067474365,-0.0639677494764328,0.010382062755525112,0.0873039960861206,-0.03322509303689003,-0.10215931385755539,0.03562411665916443,0.09586265683174133,0.04664887115359306,0.012979863211512566,0.10450243949890137,-0.06997162848711014,-0.0876951590180397,-0.04765062406659126,-0.016097210347652435,-0.006144315004348755,0.020662005990743637,-0.05725127086043358,0.04134374484419823,-0.008260112255811691,-0.05283091962337494,-0.020550908520817757,-0.03170706704258919,0.06511303037405014,0.009282257407903671,0.015028261579573154,0.06337545812129974,0.09597467631101608,-0.029027801007032394,0.020916268229484558,0.044114671647548676,0.0012635072926059365,0.016309944912791252,-0.012838613241910934,0.1765304058790207,-0.18102848529815674,-0.261300653219223,0.16494372487068176,-0.14835582673549652,0.029693203046917915,-0.011265256442129612,-0.04012617841362953,-0.030022472143173218,-0.0014928343007341027,-0.011044105514883995,-0.14124780893325806,-0.027184154838323593,0.029204698279500008,0.0371129997074604,-0.1852080374956131,-0.0807025134563446,-0.01715795323252678,-0.1436578631401062,0.0013862734194844961,-0.1403682827949524,-0.0019375832052901387,-0.07187798619270325,0.05876099318265915,-0.05103812366724014,-0.1358066201210022,0.013593494892120361,-0.18309104442596436,0.06083586439490318,0.023913655430078506,0.0037998920306563377,-0.17107704281806946,-0.023981839418411255,-0.09201159328222275,0.01763799786567688,-0.1041412502527237,0.029435476288199425,0.04683317989110947,0.06450959295034409,0.06904859095811844,-0.0755896270275116,-0.1104869470000267,0.02289683371782303,0.11859355866909027,0.0055776252411305904,-0.0022233924828469753,-0.12280497699975967,-0.0484430231153965,-0.08776562660932541,-0.11807675659656525,0.055498309433460236,-0.2606176733970642,0.09403092414140701,-0.03620626777410507,-0.17783044278621674,-0.059241294860839844,-0.1304333359003067,-0.0029738449957221746,0.10427399724721909,0.1664745956659317,0.02896723523736,-0.02548026107251644,-0.1080157458782196,-0.18786539137363434,-0.10732639580965042,-0.20570555329322815,0.05272921547293663,-0.2802211046218872,0.038166146725416183,-0.0830349549651146,0.03924187645316124,-0.053724054247140884,-0.027087992057204247,0.10507094115018845,-0.11834312975406647,0.04932728782296181,0.04521505534648895,-0.024006569758057594,-0.07122180610895157,0.08598723262548447,0.07986873388290405,-0.2037779688835144,-0.019001642242074013,0.16188950836658478,-0.10059749335050583,0.20448531210422516,0.014220808632671833,0.005498229525983334,-0.07685407251119614,0.005548433400690556,0.05733707547187805,-0.15785636007785797,-0.01479934062808752,-0.04617389291524887,-0.05098127946257591,0.022754933685064316,0.039465174078941345,-0.06766002625226974,-0.020960891619324684,0.14002980291843414,-0.10879343003034592,0.11506139487028122,-0.24720482528209686,-0.06078174337744713,-0.009258213452994823,-0.062236238270998,0.04590892791748047,-0.12229709327220917,0.00674112094566226,0.0046603563241660595,-0.04771985858678818,-0.1233605369925499,-0.07303246855735779,-0.055803123861551285,0.02098292112350464,0.05186281353235245,0.0015166904777288437,0.12198403477668762,-0.11015083640813828,-0.07490783929824829,-0.1010926216840744,-0.12289080023765564,0.005167099647223949,0.1586284190416336,0.04198702052235603,0.02885441482067108,-0.0780901089310646,0.020642925053834915,-0.263022243976593,0.03672552853822708,0.09394542127847672,-0.22126296162605286,0.11598676443099976,-0.033455200493335724,-0.055654507130384445,-0.07682782411575317,-0.05578112229704857,-0.08188670873641968,0.026834435760974884,0.17464642226696014,0.0500355064868927,0.03193487599492073,0.012482479214668274,-0.03687554597854614,-0.2512775659561157,0.056934043765068054,0.015368468128144741,-0.12415865063667297,-0.0774400532245636,-0.2562607228755951,0.12675850093364716,0.029181620106101036,0.1280701607465744,0.011058548465371132,-0.07661614567041397,-0.04935917258262634,-0.01484155748039484,0.04609490558505058,0.01287935022264719,0.01336692925542593,-0.1592230647802353,-0.038186535239219666,-0.03827816992998123,0.17276915907859802,-0.10115296393632889,0.08352132141590118,-0.015957962721586227,0.016544561833143234,-0.13843829929828644,0.015239927917718887,0.028961461037397385,-0.13809813559055328,0.013071916066110134,-0.049223706126213074,0.09723083674907684,-0.04385942593216896,0.04617190733551979,-0.1583842784166336,-0.1041206568479538,0.13641785085201263,-0.023735251277685165,0.09083086997270584,0.020261891186237335,0.018965255469083786,0.042661815881729126,-0.010498015210032463,-0.010810758918523788,0.006634307559579611,0.0017239699373021722,-0.010852586477994919,0.08160123974084854,0.14080816507339478,0.050891753286123276,-0.06332778930664062,-0.16021481156349182,0.025855109095573425,0.09633590281009674,0.1901063770055771,-0.0829356461763382,0.06076601892709732,0.08153674006462097,0.05825159698724747,0.09845024347305298,0.09711172431707382,0.00805868674069643,0.011599116958677769,0.17813140153884888,0.06556054949760437,-0.17473013699054718,0.17717798054218292,0.06503462791442871,-0.13151828944683075,-0.01939021423459053,0.013069016858935356,-0.007213148754090071,0.04198496416211128,0.17356161773204803,0.04710093513131142,0.012461843900382519,-0.0034672017209231853,0.025188233703374863,-0.0012072395766153932,0.0788046345114708,-0.06006435304880142,-0.16129416227340698,0.18589350581169128,0.1915530115365982,-0.107487253844738,0.01788630709052086,-0.13115957379341125,-0.01782221719622612,-0.0025565861724317074,0.08927393704652786,-0.20508740842342377,-0.09287413954734802,-0.1817944347858429,-0.03798997774720192,0.013997103087604046,0.07653570175170898,0.10681308060884476,-0.020785773172974586,0.11851377040147781,-0.15161234140396118,-0.0890992134809494,-0.07504481822252274,-0.10968054085969925,-0.05923816189169884,-0.10059557110071182,-0.08487061411142349,-0.16384732723236084,0.06722384691238403,-0.11847397685050964,0.0161582101136446,0.04138963297009468,0.022094393149018288,0.011010686866939068,0.006399749778211117,-0.09151365607976913,-0.06661803275346756,0.11302847415208817,-0.02693570964038372,-0.013335694558918476,0.0348871573805809,-0.032637447118759155,-0.12634341418743134,-0.23672200739383698,-0.05701716989278793,-0.07632366567850113,-0.011474073864519596,0.02749546617269516,-0.1621926873922348,0.04748351499438286,-0.1152181327342987,0.07822377979755402,0.0830567479133606,0.07086072117090225,0.04040570557117462,0.02308281883597374,0.04780467227101326,-0.017976995557546616,0.01686539500951767,-0.027834711596369743,-0.019411545246839523,0.0060999831184744835,-0.05038701742887497,-0.01713375933468342,-0.08872347325086594,-0.14060547947883606,-0.1289612054824829,0.3080466389656067,0.08615797758102417,-0.22023993730545044,-0.11960776150226593,-0.29483848810195923,0.13140013813972473,-0.01404868345707655,0.04762210324406624,0.14066153764724731,-0.14005973935127258,0.1356923133134842,-0.019627057015895844,0.01606559567153454,-0.177656888961792,-0.07579570263624191,0.05476876720786095,-0.02184007130563259,-0.10333267599344254,-0.2170097827911377,-0.14344437420368195,-0.15955939888954163,-0.10232755541801453,-0.04799790680408478,0.0408480241894722,-0.17829374969005585,0.07276594638824463,-0.17594419419765472,-0.03566758707165718,0.03884289786219597,-0.0016820329474285245,0.008000098168849945,0.14386004209518433,0.12050104141235352,0.12562017142772675,0.167196586728096,0.07399225980043411,0.12265410274267197,-0.03472092002630234,-0.06780549138784409,0.10894227772951126,0.019632527604699135,0.07110637426376343,-0.0695423036813736,-0.0018948486540466547,0.04685630649328232,-0.08083339035511017,-0.15461483597755432,0.22165559232234955,0.24884313344955444,0.11433897912502289,0.16519512236118317,0.10115346312522888,0.09779664129018784,-0.09129877388477325,0.0009438293636776507,-0.054796744138002396,-0.02138829044997692,0.01392894797027111,-0.0973837673664093,0.024714071303606033,-0.04263755679130554,-0.046039462089538574,-0.11375836282968521,0.02018975280225277,0.07625045627355576,0.11910399794578552,-0.045188263058662415,-0.13656608760356903,-0.06296087801456451,0.12790024280548096,-0.047463782131671906,0.05673046410083771,-0.1369202882051468,0.0630442351102829,-0.02430342510342598,-0.01019251812249422,-0.022680271416902542,0.04134184867143631,-0.04439316317439079,0.03710835054516792,-0.05324761942028999,0.07610747963190079,-0.0980328768491745,-0.07427404820919037,-0.10872296988964081,0.024289514869451523,0.05321073532104492,0.07764579355716705,-0.04644901305437088,-0.017039667814970016,0.08394628763198853,0.021528810262680054,-0.030698571354150772,-0.05359915271401405,-0.0787159651517868,0.06873196363449097,-0.1267290562391281,-0.1145414412021637,-0.04805577173829079,0.02714579552412033,-0.12784212827682495,0.04074384272098541,-0.03162555396556854,-0.04007180035114288,-0.028038255870342255,0.04009174183011055,-0.07252109795808792,0.04075278714299202,-0.010038383305072784,0.028624437749385834,0.0030433470383286476,0.04438846558332443,0.007315290626138449,0.04454861581325531,0.014384414069354534,-0.04075901582837105,0.031433235853910446,-0.032187964767217636,0.048010118305683136,0.006634291261434555,-0.022073941305279732,-0.014279080554842949,0.022879961878061295,0.03663087263703346,0.03599657490849495,0.05198145657777786,0.03533973917365074,0.018262561410665512,0.02727567031979561,-0.03335365280508995,-0.0002496380766388029,-0.03283308818936348,0.06160196289420128,0.017289478331804276,-0.03096308931708336,-0.019852736964821815,-0.04358186945319176,-0.01678229123353958,0.03366020694375038,0.05164115130901337,0.04688621684908867,0.019083652645349503,-0.026272837072610855,-0.0064191254787147045,-0.012218826450407505,0.012644867412745953,0.028412174433469772,-0.029549311846494675,-0.052669405937194824,-0.025007549673318863,-0.010110919363796711,0.021356046199798584,0.06886345893144608,-0.02997802384197712,-0.041555795818567276,-0.04774460569024086,0.0496932715177536,0.02169295772910118,-0.004447033628821373,0.0317528210580349,-0.03342318534851074,-0.015429884195327759,0.02673323079943657,0.05827642232179642,-0.007529016118496656,0.03044990822672844,0.005885761231184006,0.021958112716674805,0.04496337100863457,0.013266160152852535,0.005400846246629953,-0.04502272233366966,-0.023358842357993126,0.034475892782211304,0.004970752168446779,-0.036223866045475006,-0.015612944960594177,0.038958337157964706,-0.005799911916255951,0.03241956979036331,0.02724088542163372,-0.05775078386068344,-0.018913574516773224,-0.01660066284239292,0.05904444307088852,-0.018319711089134216,-0.03970693424344063,-0.0163414403796196,-0.03473128005862236,-0.007922539487481117,0.025934001430869102,0.0017013398464769125,0.03518614172935486,-0.0004742727323900908,0.09215810149908066,-0.004941890947520733,-0.017357734963297844,0.05320347473025322,0.001091670012101531,-0.03413912653923035,0.01301770843565464,-0.020937815308570862,-0.009662547148764133,-0.014901630580425262,-0.003126432653516531,0.043570954352617264,0.03561103343963623,0.002982476493343711,0.01926117204129696,-0.04122086986899376,-0.012213117443025112,-0.02045351266860962,-0.02888905256986618,-0.01290551945567131,-0.015443552285432816,-0.031165186315774918,0.03650160878896713,-0.05225108936429024,-0.006495263893157244,0.047396693378686905,0.03972271457314491,-0.01377412024885416,0.011765134520828724,0.022488020360469818,0.020680900663137436,-0.016533728688955307,0.009106172248721123,-0.06091957911849022,-0.032051146030426025,-0.030225474387407303,-0.03729884326457977,-0.0427212156355381,-0.012470033019781113,-0.0020946799777448177,0.08834730833768845,0.04376613348722458,0.030245909467339516,-0.06050457805395126,0.020421123132109642,-0.024714238941669464,-0.025118118152022362,0.058256421238183975,0.014555045403540134,-0.041948653757572174,-0.02017998695373535,-0.0426456443965435,0.014492261223495007,-0.0075516714714467525,-0.013830599375069141,-0.005112754181027412,0.06993065029382706,-0.04706547036767006,-0.03426569700241089,0.018057579174637794,0.003894912311807275,0.010624154470860958,-0.039497315883636475,0.013063957914710045,0.11278513818979263,-0.013883644714951515,0.017643844708800316,-0.0399111732840538,-0.04699607565999031,-0.05000646784901619,0.05026041716337204,-0.03910238668322563,0.025934863835573196,0.018452540040016174,-0.047039881348609924,-0.013196907006204128,-0.021996282041072845,-0.008012578822672367,-0.012370100244879723,0.054186414927244186,-0.06749477237462997,-0.028671870008111,-0.038566797971725464,-0.03800446167588234,-0.012683456763625145,-0.09768406301736832,0.04394134134054184,-0.02690867893397808,-0.009564668871462345,0.02181609533727169,-0.0039333621971309185,-0.028817851096391678,0.04425758123397827,-0.013583673164248466,-0.02041030302643776,0.055667418986558914,-0.03862329572439194,-0.05094605311751366,0.03833257406949997,0.003595949150621891,0.011204380542039871,-0.059390343725681305,0.006713072769343853,0.0352889820933342,0.018222223967313766,-0.04878804087638855,0.020512079820036888,0.011782173067331314,-0.0632920116186142,0.049620382487773895,-0.023898102343082428,0.06357462704181671,0.01700822077691555,0.07316435128450394,-0.01823238842189312,-0.07103991508483887,0.0028101312927901745,0.026346679776906967,-0.06319764256477356,0.020106514915823936,-0.032413821667432785,-0.029925892129540443,0.013148441910743713,-0.05646231397986412,0.010112332180142403,0.05896584689617157,-0.033208563923835754,0.06235867366194725,0.07826050370931625,-0.0006400874117389321,0.05613436922430992,-0.02011750638484955,0.028416890650987625,-0.07109297066926956,0.04212246835231781,-0.013504255563020706,0.04595300182700157,0.04709463566541672,-0.040301475673913956,0.009919595904648304,0.07159450650215149,-0.02029963955283165,0.0054430183954536915,-0.05800575390458107,0.04459191486239433,-0.003082617884501815,-0.049628179520368576,0.05272557586431503,-0.016566038131713867,-0.06254350394010544,-0.016217941418290138,0.013387631624937057,0.00916316732764244,0.04001632332801819,0.03351808339357376,0.03057662583887577,-0.029636140912771225,0.00838036835193634,0.0018304099794477224,-0.02308495156466961,-0.004184767138212919,-0.015095246955752373,0.006564094685018063,-0.012422047555446625,-0.016851555556058884,0.004266536794602871,0.03499976918101311,0.07695373892784119,-0.044414520263671875,-0.040115538984537125,0.0313047356903553,0.05214724689722061,-0.062474895268678665,0.05847025662660599,0.053203944116830826,0.01380833238363266,-0.04004674032330513,-0.010564124211668968,-0.014761701226234436,-0.030049633234739304,0.013382945209741592,0.039720695465803146,-0.023574048653244972,0.06970902532339096,0.02585561014711857,0.04591939225792885,-0.014296213164925575,0.04892054572701454,-0.03904850780963898,0.05448360741138458,0.019207829609513283,0.06815765798091888,0.05231384560465813,-0.006602771580219269,0.0105232372879982,-0.038721658289432526,0.025182466953992844,0.020261995494365692,-0.02408495917916298,-0.016027728095650673,0.04649680107831955,0.01647697389125824,-0.013765338808298111,-0.026109162718057632,-0.02803610824048519,-0.02825906313955784,0.05270877853035927,0.04257760941982269,0.023438280448317528,0.05075281485915184,0.003578940639272332,-0.009277155622839928,0.0440276600420475,0.005276382435113192,0.005957570858299732,-0.0358903668820858,-0.01921919919550419,-0.047947000712156296,-0.002566130133345723,0.05348147451877594,-0.04713645204901695,-0.038264330476522446,0.00781261082738638,-0.0009883473394438624,0.02690390683710575,-0.01213337667286396,-0.04178696125745773,0.07503937184810638,0.024121487513184547,0.014836076647043228,-0.012370796874165535,-0.019261589273810387,0.0040016500279307365,0.005546728614717722,0.029108405113220215,0.001409517484717071,0.003759844694286585,0.0028037952724844217,0.03553289547562599,0.023426206782460213,-0.020678574219346046,0.018772810697555542,-2.3461179807782173e-06,0.03032532148063183,0.021862203255295753,-0.011555960401892662,-0.026998696848750114,0.021925944834947586,-0.01319682877510786,-0.05208531394600868,0.023739393800497055,-0.004234959837049246,-0.06307591497898102,0.01737607643008232,0.04723415896296501,-0.0017879186198115349,-0.04330231249332428,-0.051190756261348724,0.028901830315589905,0.029010338708758354,0.02589096873998642,-0.035200655460357666,0.007132173515856266,-0.03624385595321655,0.003619319526478648,-0.03074462339282036,0.017733216285705566,-0.003345075761899352,-0.06123174726963043,-0.05939742550253868,-0.016621777787804604,0.030839139595627785,-0.018072860315442085,-0.04540831595659256,-0.050994228571653366,0.0281683262437582,-0.0017265997594222426,-0.07896900922060013,-0.016558440402150154,0.04023120179772377,-7.329491199925542e-05,0.010534733533859253,-0.03657437860965729,0.059937734156847,-0.002099187346175313,-0.04956204444169998,0.055741697549819946,-0.08730609714984894,0.05302669107913971,-0.02153557352721691,0.013998360373079777,0.0018647843971848488,-0.01624913327395916,-0.05808824673295021,0.042434852570295334,-0.02186087891459465,0.04344085603952408,-0.022807717323303223,0.04985464736819267,-0.020912373438477516,0.018483074381947517,-0.0012232312001287937,0.005549225956201553,-0.055093176662921906,0.08273666352033615,0.03439830616116524,-0.030097296461462975,0.01174179371446371,-0.04840279370546341,-0.09771759063005447,0.1447039395570755,-0.007043400313705206,-0.1446387618780136,-0.05251352861523628,0.01727757230401039,-0.016052482649683952,-0.06260627508163452,0.0658487007021904,0.2693594992160797,0.11055923253297806,-0.05861559882760048,-0.021738829091191292,-0.13010258972644806,0.06489095836877823,-0.0060323080979287624,-0.06636276096105576,0.05469194054603577,-0.08569364994764328,-0.15009485185146332,-0.03877689316868782,-0.047643307596445084,-0.061222534626722336,-0.10737941414117813,0.021122824400663376,0.10237134993076324,0.0639544352889061,-0.08394276350736618,0.01166621781885624,-0.034660063683986664,-0.014824312180280685,-0.004823961295187473,-0.13033722341060638,0.023410703986883163,-0.0465862862765789,-0.07852254807949066,-0.026227038353681564,-0.004391292110085487,-0.18582145869731903,0.001735264784656465,0.07222308963537216,0.1154765784740448,-0.15940511226654053,-0.07874051481485367,-0.09066899865865707,0.05744478851556778,-0.04548558220267296,0.09224094450473785,-0.15672744810581207,0.17746353149414062,-0.09234251827001572,-0.04442167654633522,-0.004208994563668966,-0.01853862777352333,-0.05987532064318657,0.07887155562639236,0.12415607273578644,0.05907631292939186,-0.1829090416431427,-0.048893190920352936,-0.04466547444462776,0.04447868466377258,-0.004178889095783234,0.08134957402944565,-0.1478303074836731,0.09527215361595154,-0.06268393993377686,-0.03861101344227791,-0.024519767612218857,-0.027645299211144447,-0.02862028032541275,-0.010367936454713345,0.09031175076961517,0.10968965291976929,0.01575230248272419,-0.06359652429819107,0.14124464988708496,0.07008963078260422,-0.04105747118592262,-0.05694643780589104,-0.03455616161227226,-0.17487256228923798,-0.054771337658166885,-0.020090097561478615,0.017349783331155777,-0.04245729371905327,-0.130827859044075,0.013215136714279652,-0.09726978093385696,-0.050432972609996796,0.011341528035700321,0.06089054420590401,0.000741765252314508,0.06115394085645676,0.061660196632146835,-0.03325911983847618,-0.06335727125406265,-0.012431779876351357,-0.1194131150841713,-0.1445467621088028,-0.030170725658535957,0.023184537887573242,-0.05816630274057388,-0.1110457256436348,-0.01619216986000538,0.09712938219308853,0.11394181102514267,-0.11534233391284943,0.0537162646651268,-0.010340371169149876,-0.002849983749911189,-0.014656605198979378,-0.10560256242752075,-0.09762988984584808,0.005201759282499552,0.008583246730268002,0.04152032360434532,-0.04330424964427948,-0.09640022367238998,-0.07727434486150742,0.0475875549018383,0.028905872255563736,0.006364216562360525,-0.10684361308813095,0.019423363730311394,0.2518048584461212,-0.07054194808006287,-0.038400799036026,-0.03967079147696495,0.0486818328499794,-0.008956559002399445,-0.03507354110479355,0.013198248110711575,0.03898172080516815,-0.13376310467720032,-0.10444777458906174,0.0743466466665268,0.026229094713926315,-0.05225347727537155,0.015224229544401169,-0.06488773971796036,0.18972723186016083,-0.039153795689344406,0.03998006507754326,-0.19044847786426544,-0.007377836853265762,0.08646653592586517,-0.11024244129657745,-0.007627625949680805,0.005924192722886801,-0.07103897631168365,-0.11278001964092255,0.051592446863651276,0.022613730281591415,0.09721656888723373,-0.042628634721040726,-0.022863304242491722,0.11040966957807541,-0.050592731684446335,-0.047419656068086624,0.024956604465842247,-0.15305845439434052,-0.016493123024702072,0.07421038299798965,-0.020805539563298225,0.04814913868904114,-0.05599456652998924,0.06786321848630905,0.00295834057033062,-0.12974496185779572,0.1814894825220108,0.1862921565771103,0.054024163633584976,0.13189305365085602,-0.051931459456682205,-0.0009825659217312932,0.0103296572342515,-0.02139366790652275,0.0025373788084834814,-0.008902087807655334,0.023037150502204895,0.018544727936387062,-0.09284655749797821,-0.0709821805357933,-0.0544181652367115,0.04654679819941521,0.004595031961798668,0.027051132172346115,0.013800561428070068,0.10561906546354294,-0.0033550013322383165,-0.007230118382722139,-0.012621819041669369,0.021305181086063385,0.060578033328056335,-0.010754710994660854,0.034376662224531174,-0.03857320919632912,0.01364053599536419,-0.14810991287231445,-0.024242624640464783,-0.04923349991440773,-0.06430531293153763,-0.11187717318534851,-0.04477909579873085,0.0631522461771965,6.519416638184339e-05,-0.06797522306442261,-0.09611017256975174,0.08907655626535416,-0.062353119254112244,-0.06416644155979156,-0.04596967250108719,0.0017433621687814593,-0.07450643181800842,-0.10456480830907822,-0.039643917232751846,-0.020400729030370712,-0.11498943716287613,-0.08198780566453934,-0.12947019934654236,-0.07478909939527512,-0.02652188204228878,-0.030325986444950104,-0.20546339452266693,0.013295318931341171,0.06857120990753174,0.11030925065279007,-0.018394233658909798,-0.021896980702877045,0.000770506972912699,-0.048278141766786575,-0.18178066611289978,-0.07592998445034027,-0.1702084094285965,-0.031511057168245316,-0.05899900570511818,-0.09280505031347275,-0.050490446388721466,-0.004275490064173937,0.09185031056404114,-0.10419843345880508,-0.07037454843521118,0.02006210945546627,0.009287161752581596,-0.028374096378684044,0.051670316606760025,0.12151360511779785,0.030113225802779198,-0.03294908627867699,0.08628547936677933,0.17500261962413788,-0.009742576628923416,-0.07260257005691528,0.0945984274148941,-0.04378126934170723,0.06546872109174728,-0.10401245951652527,0.0019005968933925033,0.024899356067180634,0.020379073917865753,0.0017397290794178843,0.013015472330152988,0.09664159268140793,-0.1401580572128296,0.011395612731575966,0.06454114615917206,0.16224728524684906,-0.05858895182609558,-0.022486554458737373,-0.04619777947664261,-0.03389656916260719,0.06736622750759125,-0.0024093196261674166,0.09682026505470276,-0.029311494901776314,-0.012896410189568996,-0.03787977993488312,0.04788145050406456,0.009915108792483807,-0.20320162177085876,-0.08636653423309326,-0.055726177990436554,0.019663454964756966,0.034055911004543304,-0.10168971121311188,-0.04554838314652443,-0.011241276748478413,0.004405245650559664,0.0025227151345461607,0.09871257841587067,-0.14511153101921082,0.011626342311501503,-0.03205300495028496,0.1792358160018921,0.10370878130197525,-0.05107411742210388,-0.12246670573949814,0.053452376276254654,-0.05897083505988121,-0.011912355199456215,0.00669939536601305,-0.1097017452120781,0.011007262393832207,-0.05977572873234749,-0.02985997125506401,0.132724791765213,-0.03595506772398949,-0.051566652953624725,-0.03891211375594139,0.12421198189258575,-0.06056778132915497,-0.0696781724691391,-0.0896216481924057,-0.03888855502009392,-0.02255830354988575,-0.08530133962631226,-0.015776390209794044,-0.027043988928198814,-0.02195875160396099,0.11158181726932526,-0.19849872589111328,0.03983461856842041,0.01537385769188404,0.051061566919088364,-0.045926809310913086,0.06261486560106277,0.06636635959148407,-0.02622280828654766,-0.09001460671424866,-0.007113836705684662,0.24965961277484894,0.05989064648747444,0.02232661098241806,0.12432032078504562,-0.07721854746341705,0.07777173072099686,-0.1441628634929657,0.045476801693439484,-0.02191576175391674,0.041336312890052795,0.004945344757288694,0.12997575104236603,0.17256960272789001,0.008214670233428478,0.01975293830037117,-0.015706079080700874,0.2187899649143219,-0.047958195209503174,0.03217307850718498,-0.022449715062975883,0.00712520582601428,0.06954100728034973,-0.14598241448402405,-0.02831720933318138,-0.005301028490066528,-0.040553513914346695,-0.02400909550487995,0.15509270131587982,0.026798179373145103,0.12968136370182037,0.019727692008018494,-0.07686004787683487,0.19687126576900482,0.05337950959801674,0.035500481724739075,0.04228891059756279,0.0036001361440867186,0.09464940428733826,-0.060878247022628784,-0.08091267198324203,-0.0076453424990177155,0.02593441680073738,0.03254213184118271,0.19616903364658356,0.05610550567507744,0.16993272304534912,-0.051532890647649765,-0.0886530727148056,0.14038217067718506,0.001198402140289545,0.036478955298662186,0.008659830316901207,0.04110244661569595,0.038111887872219086,-0.021971222013235092,0.008017457090318203,-0.04153281822800636,-0.011210303753614426,0.03855177015066147,0.1632850617170334,0.04206369072198868,0.027061941102147102,-0.060234084725379944,-0.12263762950897217,0.19190023839473724,-0.07719635963439941,0.08939419686794281,0.05660969391465187,0.10518942028284073,-0.013642140664160252,-0.041100192815065384,-0.012096492573618889,0.17158085107803345,0.06029629334807396,0.03914840519428253,-0.23171263933181763,0.06134594976902008,-0.021981678903102875,-0.09659944474697113,-0.17085395753383636,-0.003244673600420356,-0.09272019565105438,-0.06228703260421753,-0.015155254863202572,0.14512848854064941,-0.038100797683000565,-0.056528232991695404,0.004478158429265022,-0.05061708763241768,-0.029099388048052788,0.04679091274738312,-0.11106470972299576,-0.03222072124481201,0.02141185849905014,-0.13683877885341644,-0.11888938397169113,0.008188920095562935,-0.12054571509361267,-0.12328362464904785,0.08660829812288284,0.10045220702886581,0.15163715183734894,-0.06714440137147903,-0.029734304174780846,0.013499424792826176,-0.029542973265051842,0.012678618542850018,0.03138696029782295,-0.05198391526937485,-0.04246043413877487,-0.1406392604112625,-0.0411459244787693,0.22571544349193573,-0.08229506015777588,-0.009106338955461979,-0.03312874957919121,0.04697044938802719,-0.061364270746707916,-0.2037781924009323,-0.13999071717262268,-0.032022979110479355,0.007005239836871624,0.04903297498822212,-0.061479151248931885,-0.08125560730695724,0.015357611700892448,-0.07649999111890793,0.07116907835006714,0.13016362488269806,0.06461326777935028,0.06379777938127518,-0.16373521089553833,-0.0557706244289875,-0.0935702845454216,-0.08380882441997528,-0.05197307839989662,0.19837483763694763,0.03585563600063324,-0.02940572425723076,-0.1710604429244995,-0.1701100468635559,-0.11559401452541351,-0.15443778038024902,-0.177149698138237,-0.022811293601989746,-0.017249317839741707,-0.036140069365501404,-0.12209632247686386,0.09836637228727341,-0.08342272788286209,-0.032595194876194,-0.10322147607803345,0.16772152483463287,0.035774827003479004,-0.04638068750500679,-0.17309169471263885,0.05737884342670441,-0.17469361424446106,0.062242258340120316,-0.103458933532238,-0.11143455654382706,-0.042239926755428314,0.015000550076365471,-0.04628054052591324,0.07364562153816223,-0.024403821676969528,0.06307978183031082,-0.004539388697594404,-0.13013063371181488,0.038965217769145966,0.022397087886929512,-0.008135976269841194,0.021642345935106277,-0.027331452816724777,0.04626722261309624,-0.1642967164516449,-0.04173038899898529,-0.0841841846704483,-0.030538128688931465,-0.22828982770442963,0.04453853890299797,0.06908377259969711,-0.02868521772325039,-0.018054833635687828,-0.03324194625020027,0.06498610228300095,0.01213750708848238,0.06151549518108368,-0.015052523463964462,-0.03623693808913231,-0.10101828724145889,-0.14113754034042358,0.2293134182691574,-0.06322532892227173,0.02780565433204174,-0.07071737200021744,0.037245579063892365,-0.10026571899652481,-0.05433338135480881,-0.07597297430038452,-0.08544143289327621,0.008254798129200935,-0.014543816447257996,0.03481726720929146,-0.004757581744343042,0.045144855976104736,0.02171018347144127,0.11696838587522507,-0.1735200583934784,0.12312519550323486,0.11524636298418045,0.011399505659937859,-0.00812281109392643,-0.015583137981593609,0.016485393047332764,0.04543966054916382,-0.0898657962679863,-0.05398222431540489,0.002390238456428051,-0.056756485253572464,-0.08426107466220856,-0.07115726172924042,-0.02811686508357525,0.0739106684923172,-0.33460623025894165,0.09125281125307083,0.20301924645900726,-0.1346818506717682,-0.00021103704057168216,-0.08504810929298401,-0.08674825727939606,0.05797939747571945,-0.06924734264612198,0.026503263041377068,-0.00039056589594110847,-0.09086420387029648,0.005579536780714989,-0.2606508135795593,0.1409999281167984,0.10479963570833206,-0.07010999321937561,0.010048623196780682,-0.14764684438705444,-0.005597096402198076,0.052592333406209946,-0.12871576845645905,0.12416212260723114,0.12619267404079437,-0.1270315796136856,-0.0063085961155593395,-0.004133475944399834,-0.035343728959560394,-0.14498931169509888,0.011887528002262115,0.19714751839637756,-0.18762308359146118,0.07676742970943451,-0.2628414034843445,-0.17550671100616455,-0.01905508153140545,0.06852215528488159,-0.04197263717651367,-0.0472099743783474,-0.06950709223747253,-0.020698418840765953,-0.009161842986941338,0.012544837780296803,-0.030909324064850807,0.06349066644906998,-0.07853144407272339,-0.15619595348834991,-0.3060828447341919,0.23738722503185272,-0.20233848690986633,-0.08516070246696472,-0.006402764469385147,0.12294477969408035,0.017497146502137184,-0.04819127172231674,0.0594610832631588,-0.07285743206739426,-0.030808372423052788,-0.04250110685825348,0.08128350973129272,0.2007114738225937,-0.18820175528526306,-0.11562129110097885,-0.05573319271206856,0.05029330030083656,0.030282078310847282,-0.05476127937436104,0.08014889806509018,-0.09823716431856155,-0.01316031999886036,0.021345429122447968,0.09335753321647644,-0.0026848861016333103,0.008497470989823341,0.02034294791519642,0.05438903719186783,0.11230544000864029,-0.14854967594146729,-0.03068290650844574,0.26512831449508667,-0.11681417375802994,0.1838257610797882,0.13943687081336975,-0.039371754974126816,-0.07925224304199219,-0.038175854831933975,0.00457967771217227,0.0512969046831131,-0.08042721450328827,-0.03259572759270668,0.007088006008416414,-0.05303026735782623,-0.0050202421844005585,-0.09593179076910019,0.0773177444934845,0.16596457362174988,-0.15524083375930786,0.0508628748357296,-0.17655286192893982,0.030717259272933006,-0.07470664381980896,-0.023249510675668716,-0.039666835218667984,0.05899205803871155,-0.0652921199798584,0.015536205843091011,-0.009421111084520817,-0.08294542133808136,0.019069360569119453,0.029029205441474915,-0.04669797793030739,0.015121628530323505,-0.037574537098407745,-0.19503186643123627,0.07723663747310638,0.13676834106445312,-0.10541611164808273,0.09659646451473236,-0.05474317818880081,-0.005963644944131374,-0.08136365562677383,0.020453929901123047,0.024945935234427452,-0.09431599825620651,0.04372500255703926,0.09782637655735016,-0.10633862018585205,-0.08991961926221848,-0.016830556094646454,-0.004402510356158018,0.12242845445871353,-0.07094921171665192,-0.06952851265668869,0.16222815215587616,-0.24630683660507202,0.08672787994146347,-0.033346857875585556,-0.005057561211287975,-0.008328849449753761,-0.006003756541758776,0.13888351619243622,0.10862917453050613,-0.059908427298069,-0.001217017532326281,-0.040368810296058655,0.05172354355454445,0.10986775904893875,-0.031058689579367638,-0.12316495180130005,0.17025141417980194,-0.11723365634679794,0.0510195828974247,0.05474317818880081,-0.0294087715446949,-0.04459462687373161,-0.047604285180568695,0.12232643365859985,-0.14862731099128723,-0.03325000777840614,0.22577497363090515,-0.04612431675195694,0.14032219350337982,0.06815995275974274,0.1420811265707016,-0.05613706260919571,0.1550535410642624,-0.0935603529214859,0.049805037677288055,-0.02294701151549816,-0.010075502097606659,0.0031164935790002346,0.05623023584485054,0.05897848680615425,0.004910747986286879,-0.02792503871023655,0.006761291995644569,-0.061783552169799805,0.1983264535665512,-0.12458682060241699,-0.12328599393367767,-0.05294011905789375,0.0795586109161377,-0.10604047030210495,-0.02477719821035862,0.000517795910127461,-0.017536692321300507,-0.034370649605989456,0.009383845143020153,-0.06993992626667023,0.01657453179359436,0.010868391953408718,0.026204660534858704,0.05218332260847092,0.10860838741064072,-0.03808842971920967,0.1225355714559555,-0.003678946988657117,-0.024581896141171455,0.11804325878620148,-0.012774340808391571,0.09427853673696518,0.022799592465162277,0.0037039783783257008,-0.06794769316911697,0.2231571078300476,0.09539643675088882,0.03795408457517624,-0.09529959410429001,0.0969327762722969,-0.032158493995666504,-0.05805940181016922,0.09294446557760239,0.04688742384314537,-0.028435103595256805,0.09283038228750229,0.08851220458745956,0.055990029126405716,-0.05070267990231514,-0.009553422220051289,-0.034537240862846375,0.13066251575946808,0.2402416169643402,0.08278929442167282,0.09170770645141602,0.018664857372641563,-0.0221966952085495,-0.11533722281455994,-0.011387954466044903,-0.06455136090517044,0.15276364982128143,0.016489379107952118,0.16437308490276337,0.08064644783735275,-0.07955110818147659,-0.016731947660446167,-0.05503356456756592,0.13997089862823486,0.09361070394515991,-0.07867667078971863,0.10613202303647995,-0.03949442505836487,0.11415985971689224,-0.10399240255355835,0.04374008625745773,-0.05651147663593292,-0.13857030868530273,0.07670551538467407,0.03871907293796539,0.013062321580946445,-0.010137396864593029,0.00974223855882883,0.08400624245405197,0.04033565893769264,-0.11710088700056076,-0.05682414025068283,-0.1744374930858612,-0.017225557938218117,-0.08469286561012268,-0.015957647934556007,0.16846737265586853,-0.029196444898843765,0.0023881522938609123,0.004045888781547546,-0.026348931714892387,-0.07008829712867737,-0.059384994208812714,0.04204340651631355,0.0028468426316976547,-0.04731222242116928,-0.04049205034971237,0.027394065633416176,0.06192397698760033,0.02162780612707138,-0.07496026158332825,-0.06645837426185608,0.16046194732189178,-0.007279305253177881,0.11404168605804443,-0.149959996342659,0.007779265288263559,-0.039744194597005844,0.022902192547917366,0.024244343861937523,-0.2144942730665207,0.05036398023366928,-0.16942812502384186,0.05398547276854515,-0.09821850806474686,0.02162432111799717,-0.06927769631147385,0.011702687479555607,0.03916380926966667,-0.1167069524526596,0.017845069989562035,-0.1614833027124405,-0.10439109802246094,-0.07226243615150452,0.00949025060981512,-0.0013384550111368299,-0.07391144335269928,0.04828047379851341,-0.18022824823856354,0.014997581019997597,0.01222861185669899,0.010734752751886845,0.15599289536476135,-0.0125636151060462,-0.06677545607089996,-0.14880500733852386,0.08824516832828522,-0.1782063990831375,0.04116686433553696,-0.010209583677351475,0.011379565112292767,-0.005778491031378508,0.01922244392335415,0.04472430422902107,-0.11061999946832657,-0.08075668662786484,0.31519195437431335,-0.006997129414230585,0.22813957929611206,-0.02006472647190094,0.011251862160861492,0.027874495834112167,0.07193068414926529,-0.013260405510663986,-0.006250689271837473,0.051550641655921936,-0.0151635417714715,-0.019734451547265053,0.15749341249465942,0.12197604775428772,-0.07599078118801117,-0.08090994507074356,-0.054584700614213943,0.0582340769469738,0.016567954793572426,-0.0621320866048336,0.07299017161130905,-0.00021194556029513478,0.02377094328403473,-0.06997834146022797,0.11503367125988007,-0.06005707383155823,-0.027599778026342392,0.020317619666457176,-0.03923092037439346,-0.04184430465102196,0.045196086168289185,0.07197240740060806,0.06174718588590622,-0.04903062433004379,0.09278453886508942,0.0315980464220047,0.012568579986691475,-0.09849810600280762,-0.06009626016020775,-0.0732509046792984,0.046355634927749634,-0.0364866703748703,0.00796841736882925,0.020978817716240883,-0.0022275771480053663,0.04129829630255699,0.08021063357591629,-0.019325081259012222,0.22009845077991486,0.04531005769968033,0.09858974069356918,0.05741081014275551,-0.058455076068639755,-0.04171590507030487,-0.08460499346256256,-0.07152412831783295,-0.08979929983615875,-0.025964342057704926,0.04225590080022812,-0.0035413189325481653,-0.01930156722664833,-0.026747683063149452,0.025164581835269928,0.05612007528543472,0.030518770217895508,-0.021292753517627716,0.1290285587310791,-0.014125276356935501,-0.026003587990999222,0.05671804025769234,0.09042232483625412,0.0830935463309288,0.03861313313245773,0.07734598964452744,-0.03534308075904846,-0.025751452893018723,0.006483554374426603,-0.01832694374024868,-0.13714845478534698,0.23234736919403076,0.045478787273168564,-0.013826970010995865,0.09974797070026398,-0.0024783662520349026,-0.0502927340567112,0.016346555203199387,0.024857401847839355,-0.09001456946134567,-0.09051849693059921,0.05940226465463638,0.06017782539129257,-0.04757504165172577,-0.045797646045684814,0.026263494044542313,-0.12674479186534882,-0.06225444748997688,-0.061695076525211334,0.21122577786445618,-0.08630020171403885,0.013366742990911007,0.04730925336480141,-0.04062218964099884,-0.23673637211322784,-0.01903022639453411,0.043218888342380524,-0.03277137875556946,0.021467147395014763,-0.04538001865148544,-0.09886904060840607,-0.04662405326962471,-0.1020621508359909,-0.05216043069958687,-0.1028817743062973,0.13679106533527374,-0.09984041005373001,-0.09656888246536255,0.15006065368652344,0.0457141250371933,-0.09115580469369888,0.04628213867545128,0.051451608538627625,-0.06822305917739868,0.008563145063817501,-0.005090857855975628,-0.09782051295042038,-0.07063531875610352,-0.038052644580602646,-0.18048405647277832,0.0246707983314991,-0.02224980853497982,-0.018729427829384804,-0.04440179467201233,-0.0985880047082901,0.031546857208013535,-0.03234504908323288,-0.020390696823596954,-0.06900821626186371,-0.21748338639736176,-0.04049067571759224,0.02523711323738098,0.020253390073776245,0.12337671220302582,-0.14782115817070007,-0.07518471032381058,-0.10608163475990295,-0.03444865718483925,-0.1299235224723816,-0.010373421013355255,-0.06496233493089676,0.10016575455665588,0.16749781370162964,-0.010593488812446594,-0.07541966438293457,0.08369030803442001,-0.07628440856933594,0.025462616235017776,-0.011213877238333225,0.044743798673152924,-0.37955209612846375,0.15918762981891632,-0.0788806900382042,0.08353080600500107,-0.09395800530910492,-0.04717137664556503,0.17198801040649414,0.02715243771672249,0.0006439769058488309,0.09533002972602844,0.03397432714700699,-0.10238073766231537,0.0664193257689476,-0.009068256244063377,-0.1534343957901001,-0.0673769861459732,0.23994912207126617,-0.13422837853431702,-0.011661237105727196,-0.041760582476854324,-0.008840612135827541,0.10682594776153564,-0.0944025069475174,0.0038399570621550083,-0.18583199381828308,0.1709429770708084,0.23181991279125214,-0.07117155939340591,0.017346614971756935,-0.038106970489025116,-0.1969817727804184,-0.014739612117409706,0.23477090895175934,-0.03136241436004639,0.040591344237327576,-0.058961670845746994,-0.13184870779514313,0.016887808218598366,-0.13697868585586548,0.018940376117825508,-0.010074933059513569,0.1201254203915596,0.19388043880462646,-0.06865441054105759,0.05826510488986969,-0.015298598445951939,-0.08493391424417496,-0.10093342512845993,0.44042831659317017,0.04784543067216873,0.16584272682666779,-0.0574478842318058,0.02295166626572609,0.1161213219165802,-0.014502895064651966,0.009139238856732845,0.12758827209472656,0.006785134319216013,0.11934812366962433,-0.004610964097082615,-0.017820151522755623,-0.02854691818356514,0.033439796417951584,0.06485388427972794,0.10222787410020828,0.12237093597650528,-0.027117807418107986,-0.010575731284916401,0.031227165833115578,-0.008409140631556511,0.09835173189640045,-0.0027930401265621185,0.14711466431617737,0.054193008691072464,0.04765300452709198,0.03731640428304672,-0.04367554932832718,0.033788278698921204,0.04365388676524162,0.05860590934753418,-0.04962974041700363,0.16346712410449982,-0.05955839902162552,-0.02056438848376274,-0.017679361626505852,-0.1062965914607048,0.2838402986526489,-0.05255238711833954,-0.07701954990625381,-0.0801016315817833,-0.16044963896274567,-0.09336799383163452,-0.011191108264029026,-0.04659924656152725,-0.11098777502775192,-0.25171616673469543,0.05589454621076584,-0.15576457977294922,0.017774872481822968,-0.022018922492861748,-0.05837748199701309,0.028323045000433922,-0.2553604543209076,-0.02202807553112507,-0.030328890308737755,0.036695465445518494,-0.04713995009660721,-0.05127960816025734,0.021685123443603516,0.03761869668960571,-0.22672095894813538,-0.08334516733884811,0.08178750425577164,-0.03297083452343941,0.08172894269227982,-0.09741228073835373,-0.14181028306484222,-0.13733841478824615,-0.06370413303375244,0.05033127963542938,-0.11575666069984436,-0.05657999590039253,0.00438358448445797,0.05244648456573486,0.04145779833197594,-0.02242698334157467,-0.08353384584188461,-0.12922006845474243,0.10010657459497452,0.07228486239910126,0.12286945432424545,-0.18629498779773712,-0.08249770849943161,-0.010594259947538376,0.08049215376377106,0.050588853657245636,0.0026997101958841085,-0.04224651679396629,-0.06278543919324875,0.1496918499469757,-0.004789665341377258,-0.029029812663793564,0.0618085041642189,-0.012501898221671581,0.04866137355566025,0.01953073777258396,-0.07248217612504959,-0.07626168429851532,0.11705219000577927,0.07520082592964172,0.02599376067519188,0.04995470494031906,-0.03399188816547394,0.03630421683192253,-0.09184573590755463,0.0872257724404335,0.03145782649517059,0.016552960500121117,0.03450798615813255,0.05188630893826485,-0.06058139353990555,0.09516243636608124,-0.09860458225011826,-0.09510611742734909,0.0637647733092308,0.011602699756622314,0.04225805401802063,0.062165092676877975,-0.004349377937614918,-0.05996529757976532,-0.1160377636551857,0.09385866671800613,0.02072782628238201,-0.044670477509498596,-0.031017061322927475,-0.03206949681043625,0.001298874500207603,0.16580605506896973,-0.04810018092393875,-0.07221440970897675,0.07735173404216766,-0.07023109495639801,-0.015645714476704597,-0.04448826611042023,-0.12859468162059784,-0.15960174798965454,-0.08109773695468903,0.17461590468883514,-0.041429754346609116,0.011029303073883057,-0.10480578988790512,0.12590816617012024,-0.11374649405479431,-0.08498084545135498,-0.058352939784526825,0.062401290982961655,0.05814068764448166,-0.08843506127595901,-0.10935936868190765,-0.04348822310566902,-0.1180545911192894,-0.10712569952011108,-0.10781684517860413,-0.05278654769062996,0.0029336437582969666,0.03633037582039833,-0.048294879496097565,-0.004721502307802439,-0.052495889365673065,-0.06865574419498444,-0.13161519169807434,-0.019328081980347633,-0.11170133203268051,-0.12324012815952301,-0.011647473089396954,-0.001687078969553113,0.017959728837013245,-0.033701810985803604,0.058541011065244675,0.020008012652397156,-0.0032160840928554535,-0.009507821872830391,-0.11413564532995224,-0.11051195114850998,0.031362660229206085,-0.03058558516204357,-0.12062182277441025,0.1620398610830307,-0.13977646827697754,-0.0965324342250824,0.08459281921386719,0.07948779314756393,0.06215771287679672,0.00925315823405981,0.018410129472613335,-0.01841282658278942,0.03287386894226074,-3.4271361073479056e-06,-0.04707582667469978,-0.06779558956623077,-0.004006156697869301,0.013341941870748997,0.04533971846103668,0.16414517164230347,0.040765512734651566,0.10396845638751984,0.0026639236602932215,0.024992765858769417,0.003620885079726577,-0.11593656241893768,-0.11305339634418488,0.1336228996515274,0.05589989200234413,-0.029393471777439117,0.090779148042202,-0.04435315728187561,0.020732611417770386,-0.013055827468633652,-0.137198805809021,-0.029073579236865044,0.05084389075636864,0.009816618636250496,-0.03881359100341797,0.13419631123542786,-0.14963698387145996,0.03184054419398308,-0.02831278368830681,0.13464272022247314,0.04198765754699707,0.030032331123948097,0.12851372361183167,0.024680396541953087,0.048582371324300766,0.03475860133767128,-0.13131548464298248,-0.09867410361766815,0.03909676894545555,-0.14367777109146118,-0.08580328524112701,0.018816567957401276,-0.09481658041477203,0.10514405369758606,0.06834778934717178,0.04617590084671974,0.017832845449447632,0.007051236927509308,0.1091601699590683,-0.01981557533144951,-0.020920276641845703,-0.02693239599466324,0.0870085060596466,-0.11238763481378555,0.07386750727891922,0.01598850078880787,0.01170656643807888,-0.02599087916314602,0.0009542614570818841,0.04009111970663071,0.19955748319625854,-0.03823637217283249,0.03603585064411163,-0.021567663177847862,0.03202541172504425,-0.049951717257499695,-0.05206484720110893,-0.1456451416015625,0.030905701220035553,0.02389736846089363,-0.04769712686538696,0.08418366312980652,0.1781114935874939,0.0979546308517456,-0.047335099428892136,0.06565812230110168,0.09968960285186768,-0.1323123425245285,-0.04278784245252609,0.004864470101892948,0.005844875704497099,-0.13045074045658112,-0.07887417078018188,0.028774108737707138,0.03335436433553696,0.055371589958667755,-0.005430211313068867,0.13112303614616394,0.03447616845369339,0.0031215001363307238,0.008899861946702003,0.04975084215402603,-0.12722812592983246,-0.002944405423477292,0.03186319023370743,-0.010599292814731598,0.0016977564664557576,-0.08130595833063126,-0.04977313429117203,0.01935199834406376,-0.06426336616277695,-0.0597536675632,0.06381309032440186,-0.061084188520908356,-0.06431380659341812,0.018531320616602898,0.02654247358441353,0.047627076506614685,-0.12174440920352936,-0.024188173934817314,0.030969984829425812,-0.01743062026798725,0.0365339070558548,-0.08989938348531723,-0.06092630326747894,-0.01110150944441557,-0.15455368161201477,-0.13115885853767395,0.09236006438732147,-0.01288431417196989,-0.017329813912510872,-0.03259580582380295,0.03218341991305351,0.0190089363604784,-0.1057189404964447,0.008831517770886421,-0.023467328399419785,0.03895516321063042,0.011665786616504192,-0.08204426616430283,-0.015563959255814552,-0.03973086550831795,0.0018698180792853236,-0.009529700502753258,-0.038882121443748474,0.09258829802274704,0.05724036321043968,-0.0728672668337822,-0.08310575783252716,0.06957601010799408,0.10861948877573013,-0.13531050086021423,0.03637634962797165,-0.021890096366405487,0.07770490646362305,-0.04107372462749481,0.06391458958387375,-0.03899334371089935,0.06924761831760406,0.0671224370598793,-0.08241601288318634,-0.02323869615793228,0.17450524866580963,-0.02803720347583294,-0.04108460620045662,0.06286584585905075,0.14316153526306152,-0.14584967494010925,0.07435394078493118,0.011767702177166939,0.06549733132123947,0.020863927900791168,0.05903180316090584,-0.10642844438552856,-0.004635903052985668,-0.005560573656111956,-0.11079124361276627,-0.052816540002822876,0.000687154068145901,-0.004609617404639721,0.035765960812568665,0.10660908371210098,-0.05899767577648163,-0.03843395411968231,-0.027930431067943573,0.04647475853562355,0.03447077423334122,-0.053668174892663956,-0.07362659275531769,-0.030315037816762924,0.023987149819731712,-0.07898152619600296,0.10485044121742249,-0.08343002200126648,-0.01836639642715454,-0.007348565384745598,0.15835514664649963,-0.020954536274075508,-0.03950471058487892,-0.0673210620880127,-0.007931757718324661,0.009095375426113605,0.008150583133101463,0.044837694615125656,-0.14221389591693878,-0.006311868317425251,-0.06715312600135803,-0.0800713524222374,0.10642117261886597,-0.12726494669914246,-0.09135661274194717,-0.04307820647954941,0.06634248793125153,-0.11449327319860458,-0.07203087210655212,0.11240892112255096,0.020144201815128326,0.016187014058232307,-0.030132558196783066,-0.012967031449079514,-0.059589020907878876,-0.019342675805091858,-0.06468633562326431,0.005644533783197403,0.025386089459061623,-0.019081473350524902,0.009170390665531158,-0.003464250359684229,-0.056135304272174835,0.04818698763847351,0.05437145009636879,-0.04714164882898331,0.042300302535295486,-0.027572300285100937,-0.014175888150930405,0.0004187439917586744,0.13134488463401794,-0.14367134869098663,0.03324742615222931,-0.003529531182721257,-0.09883569926023483,-0.04291504994034767,0.0920456275343895,-0.0689084380865097,-0.11812640726566315,0.07851660251617432,-0.030057236552238464,-0.02686043083667755,0.03331884369254112,0.005153496749699116,0.011339019052684307,0.04439665377140045,0.028455814346671104,-0.10279876738786697,-0.009706501848995686,-0.017153479158878326,-0.12026827782392502,0.0029172494541853666,-0.02741316519677639,0.056183211505413055,0.06882588565349579,0.12351517379283905,0.039489712566137314,0.07961554825305939,0.045425478368997574,-0.0494593046605587,0.06788937002420425,-0.06658843159675598,0.0626305639743805,-0.03830593824386597,-0.008389651775360107,0.11633393168449402,0.06925994902849197,-0.021617380902171135,-0.061003923416137695,-0.009734862484037876,0.15592126548290253,0.03182016685605049,-0.11130446940660477,0.08668647706508636,-0.004643711261451244,-0.0003910904051735997,0.02025451511144638,0.04457368329167366,0.1446119248867035,-0.007199289742857218,-0.020331257954239845,0.0538451187312603,0.11184623837471008,-0.06662783026695251,-0.15382930636405945,-0.10851993411779404,-0.00675361230969429,0.020031386986374855,-0.13977988064289093,-0.019482262432575226,0.01620645634829998,-0.04700648412108421,-0.018559681251645088,0.02566547691822052,0.12103366106748581,-0.07018891721963882,0.12211906164884567,-0.047716330736875534,0.06164444237947464,-0.16094067692756653,-0.09774645417928696,-0.03087017685174942,-0.12245402485132217,0.02626192569732666,0.06795592606067657,-0.12664522230625153,-0.05553717538714409,0.04533126577734947,-0.017651142552495003,-0.015615048818290234,0.06047610193490982,0.030476223677396774,0.10705383121967316,-0.017387695610523224,-0.034885767847299576,-0.0529286153614521,-0.04250665754079819,-0.06875540316104889,-0.08258689939975739,-0.12168743461370468,0.059080820530653,-0.015924518927931786,0.0006548220408149064,-0.004404476378113031,-0.02123607136309147,-0.006877173203974962,-0.02229676954448223,-0.08329404890537262,0.039578791707754135,0.012522262521088123,-0.07392127066850662,0.0643448680639267,-0.03875778242945671,0.028666099533438683,-0.10190718621015549,0.15570810437202454,-0.03627487272024155,-0.13898904621601105,-0.009573173709213734,-0.02156292088329792,-0.07105909287929535,-0.09397005289793015,0.1775740385055542,0.000691779947374016,-0.22118119895458221,-0.02241768315434456,-0.09694325178861618,-0.05810075253248215,-0.10811814665794373,0.07677490264177322,-0.008660813793540001,0.14645421504974365,-0.002694190014153719,0.09869284182786942,-0.027588222175836563,0.015313927084207535,-0.12174016982316971,-0.017398349940776825,0.17918939888477325,-0.06916151195764542,-0.029495278373360634,0.015733109787106514,0.05550714582204819,0.11567208170890808,-0.1385759860277176,0.0013330548536032438,-0.17021994292736053,0.11938945204019547,0.08663377910852432,-0.07828200608491898,0.04074086248874664,0.03794453665614128,0.008922046981751919,0.08603503555059433,-0.03386188670992851,0.11771802604198456,-0.026428919285535812,-0.15930616855621338,-0.0850706622004509,0.00267362711019814,0.014873544685542583,-0.00950632058084011,0.036903053522109985,0.08102484792470932,0.17140741646289825,-0.15668120980262756,0.013111731968820095,-0.027209646999835968,-0.05676102265715599,0.013525474816560745,0.09543190151453018,0.11679849028587341,-0.13499143719673157,-0.02129947766661644,-0.020617440342903137,0.028328649699687958,0.1866627037525177,0.06305208057165146,0.103200763463974,0.034068815410137177,-0.02036520466208458,-0.00985282938927412,0.0023380103521049023,0.001953011378645897,0.008743582293391228,0.006151420995593071,0.2543448209762573,-0.08337029069662094,-0.09071806818246841,-0.0580996610224247,-0.0030078452546149492,0.13870565593242645,0.0490850955247879,0.10193686187267303,-0.12352816760540009,-0.0033386850263923407,0.11006142199039459,0.03601900115609169,-0.001399548607878387,0.028937537223100662,-0.03760019317269325,-0.16953521966934204,-0.005313371308147907,-0.1681697964668274,-0.27116867899894714,-0.020910678431391716,-0.3268989324569702,-0.19995681941509247,-0.03350420296192169,0.19485871493816376,-0.060240332037210464,0.06464521586894989,0.13902749121189117,0.08903895318508148,-0.022947585210204124,-0.03096574917435646,-0.04020755738019943,-0.06180214136838913,0.18439820408821106,-0.11014899611473083,-0.12618248164653778,0.05518253892660141,-0.1530388742685318,0.09337696433067322,0.028366627171635628,0.09805229306221008,-0.11834608763456345,0.12898150086402893,0.0032619903795421124,-0.014212902635335922,0.017381062731146812,-0.047058362513780594,0.07509210705757141,0.09904948621988297,-0.016973931342363358,0.08925318717956543,0.11981866508722305,-0.07180418819189072,0.018438279628753662,0.108736552298069,0.09141862392425537,-0.017397455871105194,-0.023037664592266083,0.02608044259250164,0.05778554081916809,-0.044587425887584686,0.030920427292585373,-0.02408655732870102,-0.16273799538612366,0.021616239100694656,-0.14242294430732727,0.06923545897006989,0.12791721522808075,0.026494095101952553,0.030493497848510742,0.027043679729104042,0.10444460064172745,-0.0015851393109187484,-0.022989269345998764,-0.16533614695072174,0.03559181094169617,-0.0976625457406044,-0.0021754433400928974,0.021318433806300163,-0.08385040611028671,0.027317097410559654,0.02563859149813652,-0.04343469813466072,0.10474643111228943,-0.012025071308016777,0.14011512696743011,0.11859830468893051,-0.08042976260185242,0.04719255119562149,-0.19456534087657928,0.12174484133720398,0.048641324043273926,-0.042018454521894455,-0.015260769985616207,0.02911275252699852,-0.04784192144870758,-0.08456206321716309,-0.03800684213638306,-0.09680511057376862,-0.12459705770015717,0.013885309919714928,-0.10379230976104736,-0.14027491211891174,0.18847785890102386,0.1430012434720993,0.08797390013933182,-0.05970560386776924,-0.09412179887294769,0.1827864646911621,0.0013180605601519346,-0.01695200800895691,-0.12736988067626953,-0.03902804106473923,0.01914663426578045,-0.1315116286277771,-0.003425184404477477,0.07539226114749908,0.07915565371513367,-0.07780743390321732,0.07627284526824951,0.03403300791978836,0.08681787550449371,0.06032966822385788,-0.1486215442419052,0.12458331882953644,0.027517635375261307,-0.011222581379115582,-0.12906372547149658,-0.02734396792948246,-0.06172975152730942,0.01150483638048172,0.08016188442707062,0.03861367702484131,0.039242420345544815,-0.046762220561504364,-0.22769439220428467,-0.01737949252128601,-0.0794525220990181,0.07985609024763107,-0.0626922994852066,-0.11302643269300461,0.013125410303473473,-0.025477442890405655,-0.19393600523471832,-0.05647086352109909,-0.11232193559408188,0.11943364888429642,0.16040866076946259,-0.19356758892536163,0.17689114809036255,-0.10933475196361542,-0.2020515501499176,-0.074740931391716,0.009379581548273563,0.04156729206442833,0.1674182265996933,-0.1667456328868866,-0.005329686217010021,-0.035203877836465836,0.06498810648918152,0.08581665903329849,0.009804620407521725,-0.017995163798332214,0.18347474932670593,-0.20873554050922394,0.2679087221622467,0.18178322911262512,-0.09937085956335068,-0.006625732406973839,-0.09852065145969391,0.08461938798427582,-0.1214284747838974,-0.07044358551502228,-0.029006190598011017,0.01671568863093853,-0.04035692289471626,-0.17371630668640137,0.015312515199184418,0.041142258793115616,0.0029522469267249107,0.008481066673994064,-0.19477862119674683,0.10320761799812317,-0.03624745085835457,0.08594179153442383,0.08258778601884842,-0.045031435787677765,-0.02931855618953705,0.12665113806724548,0.008589810691773891,0.02010970376431942,-0.010133650153875351,-0.14239062368869781,0.09058411419391632,-0.04838693514466286,-0.00013900981866754591,0.03283493220806122,-0.02995661087334156,0.024989841505885124,-0.024619093164801598,0.08938991278409958,0.12980897724628448,-0.07183030247688293,0.0336698554456234,0.10823436081409454,-0.023362066596746445,0.023907465860247612,-0.013242308050394058,-0.06378701329231262,-0.04219032824039459,0.04430901259183884,0.023936251178383827,0.1013832539319992,-0.01911427080631256,-0.0428752638399601,0.07116328924894333,0.0944148451089859,0.17314301431179047,-0.07508216798305511,-0.002442901721224189,0.07161521911621094,-0.01880994811654091,-0.0009013060480356216,0.06892676651477814,-0.1327594816684723,-0.05938901752233505,-0.02147815376520157,0.04404209926724434,0.12061101943254471,0.037542346864938736,-0.07301867753267288,-0.045830436050891876,0.016930541023612022,0.16354955732822418,-0.09409485757350922,0.04079218953847885,0.0744088888168335,0.016764920204877853,-0.03254013508558273,0.12372924387454987,-0.01951025240123272,0.016615450382232666,0.02133304812014103,-0.03335161879658699,0.1566780060529709,0.18432065844535828,0.03791763260960579,-0.12105564773082733,-0.15340498089790344,0.08785092085599899,-0.09413941204547882,-0.07901288568973541,0.00033575750421732664,-0.009425925090909004,-0.004242881201207638,0.04371469095349312,-0.0821835994720459,-0.17790958285331726,-0.09416099637746811,-0.17671442031860352,0.2319612205028534,-0.27946099638938904,-0.1634453684091568,0.12093096226453781,0.002624638145789504,0.008035948500037193,-0.20633921027183533,-0.07441256940364838,0.13880343735218048,-0.02418011799454689,0.0211764145642519,0.06440774351358414,0.010864070616662502,-0.14704324305057526,-0.013409506529569626,-0.03887299448251724,0.054938387125730515,0.09704536199569702,-0.019259413704276085,0.03183925151824951,-0.03951813653111458,0.041091617196798325,-0.20754748582839966,0.01610342413187027,-0.010661950334906578,-0.0564730279147625,0.01857151836156845,0.13163220882415771,0.04861392453312874,-0.1888163834810257,-0.0035093328915536404,0.001986791379749775,-0.024644359946250916,0.11612942069768906,-0.08930031210184097,0.1167798563838005,-0.06026851758360863,0.10461720824241638,-0.08148752897977829,0.06585121899843216,0.022208232432603836,0.0009469296201132238,0.0072531201876699924,0.06591854244470596,-0.01533195748925209,-0.021572861820459366,-0.0912928506731987,-0.14280959963798523,0.1026514545083046,-0.02180357836186886,0.014967619441449642,0.18470270931720734,-0.025269044563174248,0.07903674989938736,-0.1440352350473404,0.13035713136196136,-0.007522198837250471,0.018035631626844406,-0.01636066846549511,-0.015156473033130169,0.06704887747764587,-0.0022209766320884228,-0.04993574321269989,-0.02716771885752678,0.1699853539466858,0.18740376830101013,0.05684293434023857,0.14716944098472595,-0.0310165137052536,0.08917970210313797,0.005110173486173153,-0.007955824956297874,0.08322326838970184,0.021116336807608604,0.00962393544614315,-0.042666468769311905,-0.012795913964509964,0.03568613529205322,0.10857780277729034,-0.05250545218586922,-0.03537274897098541,-0.012347843497991562,-0.13015884160995483,-0.06002478674054146,-0.01716691441833973,0.039712999016046524,-0.04234052821993828,0.01054464653134346,-0.022303691133856773,0.036549679934978485,-0.01122942753136158,0.021265866234898567,-0.10116467624902725,0.08966459333896637,0.16705450415611267,0.013552493415772915,-0.10231278836727142,-0.0157169122248888,-0.01580112800002098,0.06035587936639786,-0.04266680032014847,0.042302604764699936,-0.03789781406521797,-0.06888867914676666,0.008982963860034943,0.007752353325486183,-0.00025754791568033397,-0.049033667892217636,-0.02006177045404911,0.004241405986249447,-0.005953046027570963,-0.037894636392593384,-0.038676295429468155,-0.016202542930841446,-0.07610512524843216,-0.005698679480701685,-0.07051389664411545,0.01896929368376732,-0.13447080552577972,-0.06494419276714325,0.14205282926559448,-0.0028265896253287792,0.026261037215590477,0.009716687723994255,0.01640014350414276,-0.07260201871395111,0.010989132337272167,-0.084084153175354,0.008023452013731003,0.017669394612312317,-0.04136545956134796,-0.16565655171871185,0.03895239904522896,0.03195543587207794,-0.12337911128997803,-0.06935567408800125,0.01702089048922062,0.009152444079518318,-0.022857867181301117,-0.003230541944503784,-0.049800124019384384,-0.1099320501089096,0.16333161294460297,-0.14079053699970245,-0.012683713808655739,0.16282930970191956,-0.003399629844352603,-0.0797337219119072,0.03764057531952858,0.0654129832983017,0.0788397565484047,0.0022057138849049807,0.12120150029659271,-0.03765971586108208,-0.04177325963973999,-0.03236881271004677,-0.0639854222536087,0.17801950871944427,0.011992715299129486,0.01185851451009512,0.03065463714301586,-0.03864293918013573,0.03524639084935188,-0.03811138868331909,0.033526916056871414,0.07938407361507416,0.0032242322340607643,0.00415203208103776,0.09844464808702469,-0.027812454849481583,-0.04746169224381447,0.03162023797631264,-0.016741134226322174,-0.024450482800602913,-0.08517104387283325,-0.11075355112552643,0.043537866324186325,-0.018727414309978485,-0.008874701336026192,-0.0333278626203537,0.01977761648595333,0.043286390602588654,-0.10968160629272461,0.02365383505821228,0.057768240571022034,-0.021909547969698906,0.004573511425405741,0.05148562416434288,0.10982541739940643,-0.09152483940124512,-0.052722517400979996,-0.11036796867847443,-0.05333806946873665,0.056456368416547775,-0.06500502675771713,-0.040250129997730255,0.04377152398228645,0.006840737070888281,-0.04755058139562607,0.03223171830177307,-0.01687735877931118,-0.005039292387664318,-0.009264415130019188,-0.004080186598002911,0.033867187798023224,0.0705578625202179,-0.036593347787857056,0.0948169082403183,-0.047700829803943634,0.11560966074466705,0.14637847244739532,-0.012863870710134506,-0.10309179872274399,0.09687191992998123,-0.02257208153605461,0.08428424596786499,-0.009925372898578644,-0.007554163224995136,-0.04188619554042816,0.06427387148141861,-0.041493672877550125,-0.046430665999650955,-0.12416807562112808,0.07363732159137726,0.11144232749938965,0.04654906317591667,0.052991483360528946,-0.04985588788986206,0.041680652648210526,0.02897697128355503,-0.04473079368472099,-0.06985475867986679,0.020643452182412148,-0.028445787727832794,0.029131215065717697,-0.022483138367533684,-0.04530961811542511,0.09238871186971664,0.030250931158661842,0.10032684355974197,0.033130720257759094,0.04307166859507561,0.04827521741390228,0.014019074849784374,-0.0459958054125309,-0.020136985927820206,0.055174607783555984,-0.015896322205662727,-0.021509023383259773,-0.0039400020614266396,-0.007923419587314129,-0.02221105992794037,-0.05337454006075859,0.07060881704092026,0.003255472518503666,0.07092221826314926,-0.008089028298854828,0.06723320484161377,0.01699533313512802,-0.050455328077077866,0.03662585839629173,-0.037462614476680756,0.011974576860666275,0.11002864688634872,-0.12693016231060028,-0.03264914080500603,-0.04921421781182289,-0.004299586173146963,0.059967007488012314,-0.056082386523485184,0.013545047491788864,-0.009121790528297424,-0.1486946940422058,-0.07353457808494568,-0.1513906717300415,0.0924743190407753,-0.002240989590063691,-0.0014338453765958548,-0.15994678437709808,0.07196415215730667,-0.11995724588632584,-0.0003373200597707182,-0.013924837112426758,-0.08386706560850143,-0.040469940751791,-0.11080236732959747,-0.030720192939043045,0.08419550955295563,-0.09473147243261337,0.01250562071800232,0.025445494800806046,-0.07212107628583908,-0.05125266686081886,0.017886919900774956,0.024432014673948288,0.013353358954191208,-0.05124123767018318,-0.03812086954712868,-0.0156206414103508,-0.05035405233502388,-0.06670784205198288,0.033727992326021194,0.07314445078372955,-0.033442478626966476,-0.004814645741134882,-0.11222302913665771,-0.01329183392226696,-0.04107029363512993,-0.09719724208116531,-0.0068175229243934155,-0.007128290366381407,-0.07013103365898132,-0.05964656546711922,0.0450972355902195,-0.025361601263284683,0.02493242174386978,-0.09969627112150192,-0.08449696749448776,0.02464822307229042,-0.10244245082139969,0.06302259117364883,-0.03318954259157181,-0.0459444597363472,0.06468948721885681,-0.053392231464385986,0.02041693590581417,0.07063515484333038,0.04602568596601486,-0.06481725722551346,0.045805659145116806,-0.0028903153724968433,0.05854904651641846,-0.08373677730560303,0.03936348110437393,-0.01183395367115736,-0.03190859407186508,0.04598841071128845,0.10593916475772858,0.062094636261463165,0.163145512342453,-0.05643002688884735,0.032436903566122055,0.14196015894412994,0.07897474616765976,-0.07839611172676086,-0.01967543549835682,-0.011075024493038654,0.09358501434326172,0.029728801921010017,0.18473179638385773,-0.16615135967731476,-0.04978713393211365,0.011632734909653664,0.08270770311355591,-0.07465368509292603,0.02782295271754265,-0.05118860676884651,0.013526354916393757,0.056403741240501404,-0.06632048636674881,0.0030672515276819468,-0.0034217066131532192,-0.026101499795913696,-0.05491088703274727,-0.10003261268138885,0.015853434801101685,-0.19954852759838104,0.05309499427676201,-0.06323586404323578,0.11515594273805618,-0.04297330230474472,-0.01043865829706192,-0.11806993186473846,0.01448445487767458,0.09000790119171143,0.02408486232161522,0.09884100407361984,0.05030638724565506,-0.010660956613719463,0.016929758712649345,-0.0259462408721447,-0.040821269154548645,-0.10010761767625809,-0.04212702810764313,-0.06215051934123039,0.01483839936554432,-0.050672173500061035,0.17871589958667755,-0.00513663562014699,-0.013076409697532654,-0.007336460053920746,-0.060890935361385345,0.05446864664554596,0.029682213440537453,0.011887055821716785,-0.040184035897254944,-0.0414741188287735,-0.04594527184963226,0.09539401531219482,0.013585321605205536,0.10602473467588425,0.05942162871360779,0.025426659733057022,0.01810804009437561,-0.037386249750852585,-0.12027556449174881,0.061765797436237335,0.04117608815431595,-0.0024716889020055532,-0.02877555973827839,0.02471047081053257,0.02463991567492485,-0.038110945373773575,0.05378352850675583,-0.04274852201342583,-0.005871118512004614,0.03621506690979004,0.005891428329050541,0.11234214901924133,0.051061440259218216,0.02706552855670452,-0.11622241884469986,0.05583425238728523,-0.02100512571632862,0.09968768805265427,-0.013938745483756065,-0.04900903254747391,-0.0386635959148407,0.08394605666399002,0.18229971826076508,-0.04577922075986862,0.01585911214351654,-0.03826186805963516,0.027454564347863197,0.08916078507900238,0.008828394114971161,-0.02148771472275257,-0.19118086993694305,0.10526669770479202,0.03535980358719826,0.05820316821336746,0.05389941483736038,-0.011496135033667088,0.08449587225914001,0.05053490027785301,0.16023845970630646,-0.06818988919258118,0.02387053146958351,-0.00937250629067421,-0.0009896843694150448,0.1385340541601181,-0.004410130437463522,-0.031751006841659546,-0.09625659883022308,0.08020724356174469,0.055760715156793594,0.08063585311174393,0.03858199715614319,0.02721908688545227,0.03266415372490883,0.0508880540728569,0.11564380675554276,-0.12887150049209595,0.06451224535703659,-0.0777745321393013,0.057155344635248184,0.16250577569007874,0.060877300798892975,0.02206294611096382,-0.06712136417627335,-0.0026096682995557785,0.09383498877286911,-0.00816611759364605,-0.01677844114601612,0.03716621920466423,-0.049759235233068466,-0.3056066930294037,-0.020135514438152313,0.09516070038080215,0.26529473066329956,-0.11758981645107269,-0.06107538193464279,-0.027334898710250854,0.039379365742206573,0.008590379729866982,-0.02713589556515217,0.010606505908071995,0.06949824094772339,-0.12796205282211304,0.04244860261678696,0.04728277027606964,-0.10738731920719147,-0.17912229895591736,0.15963751077651978,0.25143375992774963,0.21454080939292908,-0.09467095881700516,-0.03450436517596245,0.05351947993040085,0.021334990859031677,0.047008004039525986,-0.05650176480412483,0.0670972689986229,0.036095619201660156,0.00501153152436018,0.04133768379688263,0.04261462762951851,-0.10653618723154068,-0.03494645282626152,0.020301757380366325,0.041149694472551346,-0.030735796317458153,-0.1286630481481552,-0.057638246566057205,-0.02667788602411747,0.025849293917417526,-0.05320422723889351,0.09611421823501587,0.06928408145904541,-0.10670308023691177,-0.02155069261789322,-0.032342247664928436,-0.01981683447957039,-0.025929240509867668,0.1400468647480011,-0.1261928379535675,-0.023082595318555832,-0.2627147138118744,-0.14340300858020782,-0.04088455066084862,0.12816952168941498,-0.10638105869293213,-0.0665581077337265,0.0693407654762268,0.0819622203707695,-0.17453528940677643,0.09118393808603287,-0.0424705371260643,0.023658547550439835,0.05764028802514076,0.14697350561618805,-0.1861294060945511,-0.08261077851057053,0.0627187192440033,-0.035566672682762146,-0.02223179116845131,0.28216540813446045,-0.12402434647083282,-0.020000973716378212,-0.05508679896593094,-0.05422775447368622,0.057947538793087006,-0.05322989076375961,-0.015318680554628372,-0.022438721731305122,-0.03846690431237221,-0.2103825807571411,0.01022854633629322,-0.14158859848976135,0.06213994324207306,-0.041476864367723465,-0.16788208484649658,-0.07924065738916397,0.1423070728778839,-0.03497448191046715,-0.02989591844379902,0.03202870115637779,0.12103180587291718,0.030696522444486618,-0.026119478046894073,0.025512991473078728,-0.06408929824829102,-0.09157522022724152,0.14571525156497955,0.058787066489458084,0.020205849781632423,0.0009690684964880347,0.017954347655177116,0.0638299509882927,0.10398402810096741,0.09120598435401917,-0.04634224250912666,0.003080526599660516,0.059536658227443695,0.14998598396778107,0.04210936278104782,0.011317719705402851,-0.09784259647130966,0.019210947677493095,0.06909124553203583,0.0906854122877121,0.04930828884243965,-0.18246565759181976,0.20828650891780853,0.07886252552270889,0.07805132120847702,0.004223322961479425,0.07833535224199295,-0.056244857609272,-0.09023402631282806,0.13732996582984924,-0.030343474820256233,0.01968878135085106,-0.00935459602624178,0.1957583874464035,-0.12102153152227402,-0.15217962861061096,-0.09986510872840881,-0.03483498841524124,0.008864684030413628,0.07737492769956589,-0.12447450309991837,-0.048244766891002655,0.2345755696296692,-0.04944440722465515,-0.111439049243927,0.20152881741523743,0.008066478185355663,-0.018064890056848526,0.07151655107736588,0.19036518037319183,-0.061063192784786224,-0.006913869641721249,-0.027759430930018425,0.1380567103624344,-0.06052935868501663,0.011484558694064617,-0.1321207731962204,-0.12068399786949158,-0.09698347002267838,-0.01665196381509304,0.09302636235952377,0.029963018372654915,-0.03898531571030617,0.0371183305978775,-0.05709918960928917,-0.07744545489549637,0.022472843527793884,-0.13608510792255402,0.08924373239278793,-0.014548792503774166,-0.1277252584695816,0.05187840014696121,0.139113187789917,-0.04932946339249611,-0.043420933187007904,0.04692811891436577,0.03869315981864929,0.06846930086612701,-0.04136994108557701,-0.008800264447927475,0.003714060876518488,-0.028536057099699974,0.13347060978412628,-0.07385923713445663,-0.13161158561706543,0.15543854236602783,-0.007420429028570652,0.10099546611309052,0.07331693917512894,-0.0010269597405567765,-0.11211103945970535,0.09811972826719284,-0.031303610652685165,0.2142275720834732,0.005398736335337162,0.03433152660727501,0.06754734367132187,0.028857488185167313,-0.02058126963675022,0.17815400660037994,-0.21372169256210327,-0.052648287266492844,-0.06307695806026459,-0.21627642214298248,0.08379453420639038,0.03062322922050953,0.031166469678282738,0.033210333436727524,-0.07734657824039459,0.14752617478370667,-0.020115872845053673,-0.0175003744661808,0.0817127451300621,0.12182294577360153,0.14481766521930695,0.11157818883657455,-0.09943007677793503,-0.028680171817541122,0.20870105922222137,-0.07231950759887695,-0.023346293717622757,0.08556408435106277,0.21209965646266937,0.050971634685993195,-0.059121761471033096,-0.08762500435113907,0.0054285540245473385,-0.0255903247743845,0.06149428337812424,0.15444235503673553,0.1263023018836975,0.09797961264848709,0.03739029914140701,0.20053021609783173,-0.026422414928674698,0.0652736946940422,-0.09574636071920395,0.023582443594932556,-0.011464479379355907,0.04261232167482376,0.19337758421897888,0.09148741513490677,-0.03493890538811684,0.017022691667079926,0.006313038989901543,-0.12231471389532089,0.1794133186340332,-0.018835028633475304,0.13752013444900513,0.034453384578228,-0.011514361016452312,0.19005876779556274,-0.07712258398532867,0.05497480928897858,0.007473561447113752,0.011611232534050941,0.11426755040884018,0.03192703053355217,0.029192820191383362,-0.036655548959970474,-0.07632354646921158,-0.1608414649963379,0.09414109587669373,-0.09288028627634048,0.03926676884293556,0.1733459234237671,0.07491675019264221,0.08194179087877274,-0.22247034311294556,0.13089759647846222,-0.05944922938942909,0.11774835735559464,0.13395527005195618,0.016750380396842957,0.046577006578445435,0.009850181639194489,-0.02213130332529545,0.08378186821937561,-0.021355818957090378,0.12364168465137482,0.039967551827430725,-0.08760528266429901,0.06938905268907547,-0.12377245724201202,0.0010602432303130627,0.1151977926492691,0.008946751244366169,0.0518176443874836,0.009637606330215931,0.10307348519563675,0.04743392765522003,0.029439451172947884,-0.025183402001857758,0.1271934062242508,0.08965841680765152,0.06628347933292389,-0.044807180762290955,-0.009455286897718906,0.14543740451335907,-0.022498719394207,-0.059228088706731796,0.007372167892754078,0.1793082058429718,0.030527625232934952,-0.02809634618461132,-0.03841505944728851,0.03210277110338211,-0.03128176927566528,0.026204276829957962,0.10406258702278137,0.17836545407772064,-0.09971341490745544,0.0873732715845108,0.2368217259645462,0.05662095919251442,0.11904293298721313,-0.02877882868051529,-0.03520729020237923,0.11324372887611389,-0.009821520186960697,0.09504825621843338,-0.008197259157896042,0.0580119863152504,-0.045332323759794235,0.02688862383365631,0.025172675028443336,-0.08887147158384323,0.00529400072991848,-0.10542990267276764,-0.003246492939069867,0.00857109297066927,0.02326694317162037,0.012494617141783237,-0.0296308770775795,0.055503614246845245,-0.14273618161678314,0.1128285825252533,0.0007281902944669127,0.039856020361185074,0.010253566317260265,-0.06088787689805031,-0.011830408126115799,-0.004695108626037836,0.04939696937799454,-0.08598099648952484,0.013477831147611141,-0.049004342406988144,-0.0433463379740715,0.00023061592946760356,-0.037092406302690506,-0.07735946774482727,0.023489397019147873,0.17993783950805664,-0.06848125904798508,0.000664742779918015,-0.04243875667452812,-0.06455981731414795,0.08761554956436157,0.004119819030165672,0.1758342683315277,0.06689965724945068,-0.20337030291557312,0.04736850783228874,-0.1337275207042694,0.08908210694789886,-0.08321470022201538,0.09007460623979568,-0.019350778311491013,-0.05896233767271042,0.060564376413822174,0.0032666123006492853,0.0005856346688233316,0.04866766557097435,-0.02138718217611313,-0.20104049146175385,-0.050094448029994965,-0.04533793777227402,0.040375083684921265,0.04227983206510544,-0.06295040249824524,-0.10591674596071243,-0.10383651405572891,0.24612778425216675,0.07009359449148178,-0.27475929260253906,-0.01644754223525524,0.044070057570934296,0.039653852581977844,0.12811967730522156,0.07147736847400665,-0.0826868936419487,-0.29253166913986206,-0.03109472431242466,0.268523246049881,0.06063415855169296,-0.02203771285712719,-0.056503113359212875,0.03155575320124626,-0.03222179040312767,-0.08930235356092453,