0.0033248511608690023,-0.014661642722785473,-0.02188720367848873,-0.012712552212178707,0.011604742147028446,-0.012882784008979797,-0.01659727841615677,-0.017912371084094048,0.017695248126983643,-0.003639592556282878,-0.01737089455127716,-0.011865596286952496,0.012099321000277996,-0.021972421556711197,-0.009224539622664452,0.0002599334402475506,0.016130249947309494,0.02186587080359459,0.023784199729561806,-0.0028011826798319817,0.008530053310096264,0.0034616407938301563,-0.024177713319659233,0.0016859254101291299,0.014305228367447853,0.014788391999900341,-0.020676378160715103,-0.02034703455865383,0.018050020560622215,0.021412212401628494,-0.020161425694823265,0.0009449956123717129,0.006811304949223995,0.008445524610579014,-0.014913378283381462,-0.013071875087916851,0.012447287328541279,0.010771569795906544,0.002825761679559946,-0.02405853196978569,-0.009262441657483578,-0.020733442157506943,-0.018046068027615547,-0.020850908011198044,-0.0014453071635216475,0.005307633429765701,-0.013736365363001823,-0.006629293784499168,-0.0047783744521439075,-0.020584862679243088,0.014098148792982101,-0.014860277995467186,-0.012674692086875439,-0.0010324056493118405,0.0026770527474582195,-0.006191277410835028,-0.014985321089625359,0.0035885816905647516,0.00027774021145887673,-0.018097680062055588,-0.017211586236953735,-0.014856376685202122,0.004672955255955458,-0.01686365343630314,0.019939735531806946,-0.013600140810012817,-0.010662849061191082,-0.0008822561358101666,-0.008100287988781929,-0.02216758392751217,-0.007983122020959854,0.020021609961986542,0.015792472288012505,0.012858645059168339,-0.010006105527281761,-0.00610879622399807,0.021707631647586823,-0.021716982126235962,-0.01623690500855446,-0.014731701463460922,-0.014995344914495945,0.008722541853785515,-0.010694779455661774,-0.004585442133247852,-0.002772899344563484,-0.006885747890919447,0.0059187342412769794,0.012985888868570328,-0.017562327906489372,0.006323418579995632,0.0015325190033763647,-0.013508839532732964,0.021316194906830788,-0.009063920937478542,-0.012135216034948826,-0.01942421682178974,0.01776953786611557,-0.01882549189031124,-0.007534888107329607,-0.012121693231165409,0.008602716028690338,0.023548772558569908,-0.02080671116709709,0.006031958386301994,-0.014772546477615833,0.01563989743590355,0.01262980978935957,-0.017462654039263725,0.0028165620751678944,0.01771291345357895,-0.020512130111455917,-0.020556394010782242,0.006506229285150766,-0.01246009673923254,0.0010149165755137801,-0.008523108437657356,0.01595238409936428,-0.009506327100098133,-0.013830562122166157,-0.010360579006373882,0.014644977636635303,0.005865434184670448,0.024110551923513412,0.0016831596149131656,0.012971979565918446,-0.017501404508948326,-0.019866488873958588,0.01866147480905056