0.0325055755674839,0.0003185553359799087,0.01232511829584837,-0.009874066337943077,-0.010800718329846859,-0.01641993783414364,-0.033267322927713394,0.008078409358859062,0.005664648488163948,0.009017141535878181,0.03063722513616085,-0.02537929080426693,0.0012363012647256255,0.028088189661502838,-0.017279906198382378,0.012782309204339981,0.0285172238945961,-0.018119554966688156,0.011568257585167885,0.026534849777817726,-0.028381720185279846,-0.0023996084928512573,-0.011880354955792427,0.02455541491508484,-0.0035847965627908707,-0.019200557842850685,-0.03289670869708061,0.026642931625247,0.010974906384944916,0.020047293975949287,0.016371356323361397,-0.018862789496779442,-0.0162736214697361,-0.016301419585943222,-0.0349019318819046,0.03484230488538742,-0.01039133034646511,-0.020987361669540405,0.013909120112657547,-0.030675560235977173,0.020412424579262733,0.0297711081802845,-0.003295262809842825,-0.008774415589869022,0.006649533286690712,0.013191938400268555,0.031510479748249054,0.015801073983311653,-0.013934681192040443,0.032520841807127,-0.027717920020222664,0.02695436216890812,-0.0011478200322017074,0.02493385411798954,0.016133107244968414,-0.004353173542767763,0.024148426949977875,-0.01701747439801693,-0.01876852661371231,-0.00467270752415061,0.012178908102214336,0.034983325749635696,0.017185190692543983,0.02927730418741703