0.008664975874125957,-0.01670856773853302,-0.022153140977025032,0.0223904550075531,-0.03454877436161041,0.01393767911940813,0.02804366871714592,0.03070780634880066,0.007447527721524239,-0.01465333066880703,0.016528697684407234,0.015308410860598087,0.01297446433454752,-0.02827456407248974,0.010882795788347721,0.0018070223741233349,0.005023763980716467,-0.026929298415780067,0.03319563716650009,-0.00559364864602685,0.004194303881376982,-0.023288942873477936,0.01223347894847393,0.006152803543955088,-0.016624396666884422,0.015235839411616325,-0.012106637470424175,-0.024970175698399544,-0.018111899495124817,0.019647227600216866,-0.0309697724878788,-0.0008081618580035865,-0.01811964251101017,-0.018695248290896416,-0.036333296447992325,0.0067414105869829655,0.004820379428565502,-0.004833210725337267,-0.019247019663453102,0.01412154734134674,-0.008709141984581947,-0.022860290482640266,0.025162404403090477,0.013196594081819057,-0.012800336815416813,-0.011631323024630547,0.02570982277393341,-0.033461712300777435,-0.03166904300451279,-0.020730430260300636,-0.002878556028008461,0.001171708106994629,0.007417086977511644,0.002415118971839547,0.024574046954512596,0.03494558855891228,0.022525586187839508,0.010613887570798397,0.020398922264575958,0.015821678563952446,-0.006174338515847921,-0.024169882759451866,-0.0032110526226460934,-0.0013946539256721735,-0.02158079855144024,-0.015533429570496082,0.006189587526023388,0.018103865906596184,0.002416664967313409,0.0009067449136637151,0.033333733677864075,-0.02797836624085903,0.019894279539585114,-0.02468336746096611,-0.013549286872148514,-0.01801466941833496,0.006586533971130848,-0.0191329475492239,-0.023234417662024498,0.006170912645757198,-0.005901094060391188,-0.030527174472808838,0.005625179037451744,0.0022506138775497675,-0.008696109987795353,-0.004556776490062475,0.023130562156438828,0.023985274136066437,-0.007870861329138279,-0.005888842046260834,0.033087439835071564,0.015912842005491257,0.008363098837435246,-0.03354167938232422,0.009520084597170353,-0.017523523420095444