-0.047236621379852295,-0.01146872341632843,-0.01779046095907688,-0.019453439861536026,-0.00604026997461915,0.02799275517463684,-0.05756068229675293,0.07091117650270462,-0.06942153722047806,0.05673382431268692,0.06274796277284622,-0.01873515360057354,-0.06297574937343597,0.0004296577244531363,-0.003874755697324872,0.01876431703567505,0.05939086154103279,0.006810492370277643,0.02411959506571293,-0.0612921305000782,-0.04329846799373627,0.006947758607566357,0.003787700552493334,0.03636542335152626,0.017271045595407486,-0.06302721053361893,-0.03962809592485428,0.044589679688215256,0.06059759482741356,-0.059404052793979645,-0.049736570566892624,0.011604726314544678,0.04767024889588356,-0.0013740287395194173,-0.02128915674984455,-0.037108007818460464,0.016500305384397507,0.04689225181937218,-0.03773410618305206,-0.016951486468315125,-0.02875758707523346,-0.016027342528104782,0.06571686267852783,0.002542876172810793,0.0595138818025589,0.03003719076514244,0.036957304924726486,0.004789464641362429,0.019257253035902977,0.06302216649055481,-0.011692199856042862,-0.04782198742032051,0.07150065153837204,0.002447390230372548,0.0029818254988640547,0.06900005042552948,0.042693089693784714,0.05150069296360016,0.009075724519789219,0.03125686198472977,0.05883176252245903,-0.031448036432266235,-0.06449079513549805,0.04020373895764351,0.022030340507626534,0.06614483892917633,-0.06886643171310425,0.004491782281547785,-0.03395945578813553,-0.04048515856266022,-0.015692129731178284,-0.017874768003821373,-0.04843633621931076,0.04633045196533203,-0.018332216888666153,-0.01833411492407322,0.025406740605831146,-0.000542332767508924,0.05482291802763939,-0.03379543125629425,-0.00657172966748476,0.02873196452856064,0.07185609638690948,0.028607578948140144,-0.018880197778344154,-0.040649522095918655,0.06901185214519501,-0.04447183758020401,0.025399886071681976,0.01894764043390751,-0.00961995404213667,0.05915302410721779,0.019624855369329453,0.05256595462560654,-0.025254523381590843,0.022779978811740875